10312 20
0 0.043438 0.0040903 0.0022232 -0.0027923 0.00053542 -0.0034815 0.00037414 0.0025556 -0.0022621 -0.00361 0.023843 0.0013402 0.001069 -0.00084169 0.00048433 -0.0018 0.001163 0.00024889 -8.1685e-05 -0.00095268
1 0.050939 0.0060906 0.019734 0.0027088 -0.0034975 -0.056586 -0.01037 0.012773 -0.0064484 0.070894 0.0019608 0.00019514 0.00083672 -0.00015481 9.83e-05 -0.0010216 -0.00018227 -0.00076254 -0.00073949 0.0031471
2 0.043827 0.0041594 0.0060906 0.0037952 0.0033328 -0.010778 0.0024213 -0.0010624 0.00174 0.006004 0.014311 0.00085739 0.00077241 0.00028974 0.0006447 -0.0022214 0.0016782 -0.0009327 0.0001577 0.0022334
3 0.045836 0.0058102 -0.0090065 0.0033803 -0.03093 0.018932 -0.013048 0.0061396 -0.019318 -0.0022026 0.0013081 0.00014385 -1.0811e-05 1.0269e-05 -0.00041508 2.2164e-05 -0.00013988 -0.00029711 -0.00018769 -0.00020295
4 0.043735 0.0043742 0.0078673 -0.0019013 -0.0020785 -0.0049021 0.0017883 -0.00069582 0.0016598 -0.0029112 0.02339 0.0015796 0.0039912 -0.0014135 0.0005072 -0.0025546 0.0012573 7.7785e-05 0.00057976 -0.0010332
5 0.039641 0.0034924 -0.001405 -0.0010563 -0.0010567 -0.0046404 0.0042259 0.00122 -0.0010174 0.00095706 0.056967 0.0032945 -0.0035449 -0.0020524 0.00020924 -0.0060482 0.005198 -0.00011787 -0.00013389 0.0010564
6 0.041875 0.0039228 0.0022279 0.0017927 -0.00071757 -0.0058359 0.003078 -9.8105e-05 -0.0013461 -0.00062705 0.028516 0.0015604 0.0013919 0.00035385 0.00024323 -0.0034137 0.0017107 -0.00098822 -0.00067077 0.00053372
7 0.048622 0.0037532 0.0094912 -0.0011168 0.001148 -0.07954 -0.025254 0.11802 0.0033213 0.016744 0.00061835 2.5351e-05 -1.3542e-05 -3.1768e-05 3.3639e-05 -0.00039223 -7.4081e-05 0.00053974 1.7162e-05 6.7431e-05
8 0.045736 0.0047168 0.008959 -0.0070963 0.010076 -0.015202 -0.0072616 0.0045797 0.00402 0.0029506 0.0073646 0.00050191 0.0012733 -0.00068503 0.00069115 -0.0014101 -0.00026835 -0.0003136 3.6461e-05 0.00043618
9 0.03947 0.001384 -0.0055865 0.00020509 -0.00034842 -0.0019112 0.0032654 0.00045167 0.00037005 0.00028848 0.069146 -0.011627 -0.014706 -0.00084178 -0.0014157 -0.0026001 0.009974 -0.0013763 0.00014158 0.0066475
10 0.042127 0.0040101 0.002347 -0.0027464 0.00098081 -0.0059456 0.0013819 -0.00043368 -0.0011141 -0.0025772 0.033711 0.0022541 0.00052207 -0.002092 0.0015069 -0.0039127 0.00097453 7.2536e-05 -0.00069049 -0.00077024
11 0.053609 0.0079133 0.064874 -0.018976 0.018897 0.027491 -0.00055556 -0.0013599 -0.026958 -0.037314 0.00064278 6.3193e-05 0.00045686 -0.00012147 0.00011472 0.00014474 -3.4038e-06 -1.4482e-05 -0.00013622 -0.00018065
12 0.042531 0.0042726 0.0033053 -0.00016553 0.0013317 -0.0038527 0.00051737 -0.00010753 -0.0018895 -0.0028929 0.033648 0.0026931 0.0029137 -0.0005963 0.0019982 -0.0035527 0.0020274 -0.00066241 0.00025441 -0.0019414
13 0.042793 0.0044105 0.0081941 -0.0032287 0.00073027 -0.0073268 0.0035635 -0.0013044 -0.001501 0.0020354 0.020251 0.0015528 0.0020982 -0.0015737 0.00078162 -0.0021688 0.0013701 -0.0014311 -0.00066253 0.0012665
14 0.041556 0.003996 0.00035743 -0.00043143 3.8621e-05 -0.0037594 0.002577 -0.0011314 0.0010498 -0.0021421 0.041945 0.0025777 -0.00038937 -0.0012958 0.0010868 -0.0032813 0.0031736 -0.0010653 0.00044051 -0.0011624
15 0.043603 0.0028204 -0.0045545 0.0060219 -0.004734 -0.00069044 0.0065419 -0.0016868 0.0028996 -0.003375 0.017394 -0.0023923 -0.0020031 0.001053 -0.00046463 -0.00050009 0.0021454 -0.0004628 0.0005232 -0.0004596
16 0.04323 0.0044607 0.0070371 0.00063199 0.00067545 -0.0012256 -0.00093071 0.0012269 -9.2783e-05 -0.0032407 0.027206 0.002129 0.0073634 -0.0015808 0.0026727 2.99e-05 0.0013401 -0.00061475 -0.0012603 -0.001069
17 0.045511 0.0045834 0.012549 -0.00097049 -0.00054932 -0.052038 -0.018354 0.066985 0.0031822 0.01036 0.0010235 6.9789e-05 0.00015657 -4.6346e-05 2.2338e-05 -0.0005374 -0.00014637 0.0004962 1.7478e-05 6.0552e-05
18 0.046617 0.0056849 0.034258 -0.0059196 0.01052 -0.0093807 -0.00022618 0.016905 0.0088887 -0.0044195 0.0048412 0.00043156 0.0025532 -0.0005069 0.00081859 -8.6411e-05 0.00014103 0.00062666 0.00032699 -0.00045233
19 0.046254 0.0034955 -0.0034791 -0.001757 0.002684 -0.028752 0.012774 0.02043 -0.0021081 -0.00034026 0.0036232 0.00010076 -0.00039982 -0.0002125 0.00010908 -0.00072731 0.00040747 0.00063962 0.00050083 0.00010972
20 0.050026 0.0048389 0.014413 0.0046276 -0.013887 -0.03477 -0.019187 0.036171 -0.0060339 0.009604 0.0021199 5.7236e-05 0.00036423 1.9792e-05 -0.00021766 -0.00061297 -0.00026067 0.00058529 -0.00015758 0.00014372
21 0.04623 0.0037278 -0.029299 0.0075705 0.018563 0.0064125 0.0094225 -0.00080423 0.010234 0.0018994 0.0047244 0.00011305 -0.001761 0.00050377 0.00090029 0.00021343 0.00049839 1.7224e-05 0.00035641 0.0001238
22 0.045873 0.0052657 0.019805 -0.0037407 0.00056887 -0.0083792 -0.0019162 -0.0015694 -0.0033144 -0.0022042 0.01192 0.00094977 0.0043235 -0.0010311 0.00079463 -0.001311 7.041e-05 -0.00087595 -0.00078156 0.0005679
23 0.042608 0.0033979 -0.008772 -0.0042386 -0.0025421 0.0038175 0.014477 0.0057207 -0.019684 -0.0026729 0.0025979 8.2695e-05 -0.00022119 -0.00014131 2.43e-06 -5.8012e-05 0.00034896 0.00016217 -0.00037086 -7.8436e-05
24 0.042895 0.0036894 -0.018139 0.0044086 0.01016 -0.0024006 0.0089261 -0.00068276 0.0045651 -0.00047303 0.0095904 0.0005512 -0.0036681 0.00014085 0.001526 1.977e-05 0.0017897 0.00012184 0.00034929 6.3036e-05
25 0.041086 0.0040358 0.0036936 -0.00041304 0.0012777 -0.0037686 0.0021729 -0.0001265 -0.00028562 0.00017469 0.047213 0.0033594 0.0061886 -0.0013345 0.0021214 -0.004571 0.002093 -0.00086075 -0.00063678 0.00070992
26 0.042321 0.0026916 -0.025635 -0.012949 0.014627 -0.0041622 0.039428 0.0037783 -0.01879 -0.0069734 0.001691 2.9019e-05 -0.00089981 -0.00043421 0.00046753 -9.5669e-05 0.00070997 8.5809e-05 -0.0003071 -9.7312e-05
27 0.039982 0.0037833 0.0034082 0.00024423 0.00091173 -0.0046432 0.0014815 0.00013187 -0.0014654 -0.0016597 0.051358 0.0033018 0.0047901 6.8602e-05 0.0013336 -0.0051425 0.00297 0.00015237 -6.5579e-05 -0.0012367
28 0.043111 0.0044466 0.011249 -0.0032233 0.0018225 -0.0082917 0.0025254 -0.00093294 0.00053582 -0.0010536 0.019559 0.0014113 0.0037582 -0.0015953 0.001325 -0.0022927 0.00072408 -0.00079926 -0.00082953 0.00072123
29 0.053501 0.0071807 0.046126 -0.01117 -0.0022023 0.031845 -0.012708 0.014418 -0.023881 -0.017475 0.0011072 9.9654e-05 0.00064153 -0.00013586 7.615e-06 0.00024762 -0.00013833 8.2638e-05 -0.00020184 -0.00014495
30 0.050927 0.0051753 0.02978 -0.0036758 -0.013357 -0.00073333 -0.018607 -0.012712 -0.032234 0.0068631 0.0018182 7.5177e-05 0.00062274 -0.00012225 -0.00023844 2.9338e-05 -0.00021332 -0.00027 -0.00032047 0.00012648
31 0.058159 0.0076509 0.038343 0.0043951 -0.0042554 -0.056105 -0.0042116 -0.016669 0.0061037 0.004831 0.0012193 9.555e-05 0.00050259 4.685e-06 -1.3041e-05 -0.00044545 -4.5867e-05 -0.00018133 2.9002e-06 2.5046e-05
32 0.044374 0.0044261 0.0051355 0.0011933 -0.0057074 -0.013514 -0.0016796 -0.00047161 -0.0016947 0.0019427 0.013657 0.00083529 0.0012683 4.4851e-05 -0.0006287 -0.002786 0.0001576 -0.00095654 1.5272e-05 0.0011168
33 0.04553 0.0048426 0.017196 -8.9306e-05 -0.0013184 -0.025777 -0.0032056 0.0088566 0.0027768 -0.0021818 0.0049463 0.00033623 0.0010698 -3.9169e-05 -0.00012169 -0.0014132 -1.458e-05 0.0001685 7.1538e-05 -0.00021003
34 0.052134 0.0061472 0.0092759 0.010219 -0.013188 -0.037323 -0.00025545 -0.0061631 0.017008 -0.012095 0.0011876 8.929e-05 0.00010627 7.4041e-05 -0.00012825 -0.00031609 2.3428e-05 -9.3342e-05 0.00011454 -0.00011
35 0.039562 0.0035988 0.0057211 3.0882e-05 0.00061297 -0.0062154 0.0016568 -0.00092511 -0.00073214 -0.001797 0.054387 0.0033388 0.0096386 -0.0018913 0.0016721 -0.0077264 0.0028017 -0.0023641 -0.0012273 -0.0012004
36 0.041354 0.0042498 0.0047292 -0.0010656 0.0014674 -0.0032137 0.0011482 -0.00064163 -0.0011679 -0.00045851 0.039285 0.0032613 0.0063805 -0.002187 0.0020742 -0.0038668 0.0016175 -0.0012978 -0.0015049 -0.00028573
37 0.053403 -0.015555 -0.036853 -0.022614 0.032908 -0.011908 0.082211 0.0043452 -0.045256 -0.017039 0.0010857 -0.0025146 -0.0011983 -0.00083488 0.0014553 -0.00018774 0.00099614 -7.1926e-05 -0.00096582 -0.00043909
38 0.046618 0.0039112 -0.026387 -0.0083337 0.0078844 -0.00083415 0.0033667 -4.6175e-05 0.013344 0.0017325 0.0061773 0.00030059 -0.003288 -0.00064566 -0.00059486 0.0010866 0.0011974 0.00045937 0.0011969 0.00047187
39 0.042442 0.0037952 -0.002438 -0.00044804 -0.0029315 -0.0043399 0.0042825 0.00030207 0.0033612 -0.0021755 0.025627 0.0013853 -0.0024078 -0.0006894 -0.00026673 -0.0023762 0.002511 -0.00053028 0.0010835 -0.0010434
40 0.047557 0.0053225 0.011641 -0.0071345 0.0081945 0.00017982 -0.0075779 -0.0048328 -0.00053658 -0.0087847 0.0076044 0.00056006 0.0017662 -0.00092031 0.0012622 0.00023951 3.6355e-06 6.2524e-05 -1.3155e-05 -0.0007372
41 0.045907 0.0040432 -0.0189 0.0015564 -0.0082902 0.0047672 0.010535 -0.0021094 0.03403 0.0031543 0.00080235 4.5177e-05 -0.00026444 6.1474e-06 -7.7236e-05 5.2025e-05 0.00015043 -1.9958e-05 0.0003151 3.3166e-05
42 0.042741 0.004133 0.004178 0.0028387 -0.0019432 -0.007303 0.0022269 -0.0016118 0.0012215 0.0026822 0.027917 0.0017793 0.0025128 0.00096258 -0.00080045 -0.003869 0.00092586 -0.0015089 0.00057329 0.0018109
43 0.048768 0.0066371 0.027342 -0.005738 0.012673 0.01392 0.00065803 -0.01694 0.0068971 -0.026723 0.0018079 0.00020476 0.00060529 -8.7424e-05 0.00018434 0.00015768 2.932e-05 -0.00042357 0.00016088 -0.00049506
44 0.047529 0.0053158 -0.0029036 0.0048109 -0.028031 0.01502 -0.014456 -0.00091215 -0.0018871 -0.0023872 0.0040817 0.00027424 -0.00011936 0.00015294 -0.00093151 0.00017094 -0.00033606 1.7704e-05 -0.00010275 -0.00012347
45 0.041789 -0.001032 -0.00048788 -0.0062696 0.0054797 -0.0017373 0.0036166 -0.0020434 -0.0041685 -0.0021185 0.02199 -0.0040969 -0.0020192 -0.0032649 0.0029362 -0.0010355 0.0026975 -0.00072435 -0.0020399 -0.0010933
46 0.045865 0.005303 0.0035629 0.0048876 -0.033073 0.00097714 -0.034071 0.058338 -0.022151 0.016757 0.0020556 0.00024519 -0.0002988 9.9369e-05 -0.0011833 -9.5943e-05 -0.00038065 0.0011511 0.00046729 0.00060225
47 0.043972 0.0047231 0.012689 0.0035338 0.0029879 -0.0062588 0.0031423 0.0038428 0.0019074 -0.0027504 0.014482 0.0010298 0.0035078 0.00048125 0.00090398 -0.0012757 0.00052259 0.00015702 0.00033937 -0.0007109
48 0.045919 0.0046966 -0.0017536 -0.00088419 -0.0051882 -0.0087711 0.0071882 0.0078707 -0.0076447 0.0017432 0.010297 0.00068178 -0.00012804 -0.00039601 -0.0003311 -0.00093963 0.0011205 0.00036807 -0.00062694 0.00021777
49 0.041902 0.00435 0.014444 -0.0020232 0.00082953 -0.0062816 0.00056921 -0.00060072 0.00071988 -0.0027027 0.021353 0.0014012 0.0072075 -0.0013795 0.0011745 -0.0018414 0.00076836 -0.00096043 0.00047511 -0.00016804
50 0.0417 0.0033897 -0.013167 -0.0057173 0.0071437 -0.0045144 0.0255 0.00095543 -0.0082381 -0.0040433 0.0023484 0.00017873 -0.0003077 -0.00015077 0.00018683 -0.0002043 0.00047572 -7.7215e-05 0.00011149 -6.8998e-05
51 0.056846 0.0087769 0.039504 -0.0038756 -0.026968 0.0046037 -0.037665 -0.038854 -0.068203 -0.0015464 0.0010938 0.00011018 0.00042244 -3.4091e-05 -0.00025785 5.1285e-05 -0.00031155 -0.00029953 -0.00053688 -3.0496e-05
52 0.045977 0.0036913 -0.020389 -0.0090399 0.0094589 -0.0055772 0.039195 0.0013531 -0.014331 -0.0065817 0.001552 7.9193e-05 -0.00036845 -0.00015212 0.00015016 -0.00012161 0.00048897 -8.1087e-06 -0.00012284 -7.3524e-05
53 0.047504 0.0070793 0.053955 -0.015821 0.019622 0.0175 0.00084821 -0.0048175 0.010522 -0.0023713 0.0015536 0.00018749 0.0011308 -0.0003017 0.0002481 0.00027428 -3.507e-05 -0.00019996 7.0047e-05 -0.00028019
54 0.046284 0.0045878 0.0060443 -0.0011531 -0.00020956 -0.032717 0.0065586 0.0063488 -0.0090052 0.030617 0.0040621 0.00034315 0.00080969 -0.0003091 7.1271e-05 -0.0016324 0.00011671 -0.0009179 -0.00099128 0.003713
55 0.051906 0.0085409 0.10882 -0.043762 0.064196 0.10299 0.011715 0.024176 0.044822 0.012571 0.0004362 4.9961e-05 0.00050566 -0.00018135 0.00024326 0.00033929 3.988e-05 5.8489e-05 0.00012968 4.2303e-05
56 0.051582 0.0048133 0.02776 0.0069911 -0.011776 -0.11685 -0.054878 0.18827 -0.00039115 0.028378 0.00047359 3.3312e-05 6.4452e-05 3.4294e-05 -0.00011237 -0.00040256 -0.00017604 0.00075082 -0.00014266 0.00010008
57 0.045261 0.0047275 0.0069164 -0.0057008 0.0057628 -0.011351 -0.0067283 0.0061275 0.0010871 0.0037124 0.0091088 0.00066334 0.0011671 -0.00074906 0.00066272 -0.0015839 -0.00017239 0.00029269 7.8988e-05 0.00052725
58 0.038611 0.0035235 -0.013892 -0.0073774 0.0052628 -0.0023032 0.0091005 0.0005418 -0.0038932 -0.00027865 0.00086184 8.0943e-05 -0.00073083 -0.00039354 0.00037357 -5.406e-05 0.00053347 8.0122e-05 -0.00028968 -5.5964e-05
59 0.051888 0.0060205 0.0076496 -0.0059905 0.0072672 -0.041338 -0.033537 7.8393e-05 0.0024194 -0.010784 0.0032541 0.00024769 0.00035732 -0.00020789 0.00017988 -0.0011261 -0.00082634 -0.00010483 -2.583e-05 -0.0003082
60 0.041634 0.0027258 -0.007145 -0.0032801 0.00084889 0.0012991 0.0082331 0.001543 0.011517 -0.0020048 0.0058349 0.00012798 -0.0012115 -0.00059139 0.000484 -0.00022032 0.00076132 0.00021162 0.00040028 -0.00020358
61 0.046355 0.0055748 0.010889 -4.2577e-05 -0.006814 -0.012836 0.0015567 -0.019661 0.017507 0.031024 0.0033783 0.00028349 0.00065529 -4.1444e-05 -0.00030322 -0.00071179 -2.5868e-06 -0.0010798 0.000303 0.0022178
62 0.043936 0.0040558 -0.0044682 0.00015903 -0.0031487 -0.010188 0.0075261 0.0063878 0.0062858 0.012578 0.0076556 0.00047086 -0.00062321 -3.223e-05 -6.2397e-05 -0.00077025 0.00069995 -0.00037464 -2.2089e-06 0.0020883
63 0.050723 0.0051996 0.042776 -0.0025619 0.0053797 -0.07364 -0.032799 0.11785 0.0094449 0.012154 0.00062403 3.7665e-05 0.00033064 -4.0615e-05 6.5888e-05 -0.00033198 -0.00013518 0.00052559 4.4468e-05 3.3114e-05
64 0.041626 0.0039991 0.0042476 0.00030339 0.00016561 -0.0047093 0.0032246 -0.00077458 -0.0013938 -0.001965 0.038715 0.0024395 0.0035371 -0.001064 0.0014222 -0.0032139 0.002778 -0.00064397 -0.0014287 -0.0010846
65 0.041833 0.0039775 0.0092853 0.0037697 -0.0011223 -0.011177 -0.0027742 -0.0033935 -0.0022789 -0.0008784 0.019704 0.0011027 0.0037458 0.00031599 1.5499e-05 -0.0039583 -0.00050563 -0.0015348 -0.00037571 0.0010794
66 0.04605 0.0043119 -0.018645 0.0014482 -0.0077223 0.0016186 0.012055 0.0034576 0.0055526 0.0036511 0.0071273 0.00041076 -0.0021023 -7.4635e-05 -0.00028989 3.0374e-05 0.0014285 5.2634e-05 0.0002285 0.00039509
67 0.045472 0.0050164 0.012822 0.0050558 -0.0091964 -0.028816 -0.0070558 -0.017635 0.0051707 -0.020008 0.0022592 0.00018953 0.00052071 2.8354e-06 -9.7537e-05 -0.00069589 1.9807e-06 -0.0004247 0.00024761 -0.0003684
68 0.047063 0.0061405 0.026828 -0.0076245 -0.00016745 0.031664 -0.0006846 0.025791 -0.0097202 -0.011418 0.0019837 0.00021632 0.0014046 -0.00040919 0.00057982 0.00094716 0.00021263 0.00094425 -4.0625e-05 -0.00028987
69 0.043242 0.0018108 -0.023766 -0.011445 0.015218 -0.0034834 0.008205 0.0014149 -0.0048262 -0.002509 0.0060063 -5.6065e-05 -0.0029078 -0.0012954 0.0015311 -0.00045269 0.0014876 0.0002121 -0.00055067 -0.000213
70 0.046421 0.0051706 0.009327 0.0024348 -0.010617 -0.0044779 -0.005282 -0.0016978 -0.0070218 -0.0057051 0.0093839 0.00073212 0.00092267 0.00059259 -0.0023399 -0.00080091 -0.0013101 0.002146 0.00097915 0.00051537
71 0.042449 0.0041995 0.0052681 -0.0037452 0.0034049 -0.0046249 0.0036226 -0.0014476 -0.000684 -0.0036772 0.022427 0.0015405 0.003527 -0.001727 0.0016073 -0.0017803 0.0015178 -0.00091822 -3.9015e-05 0.000247
72 0.060275 0.0090157 0.064506 -0.0066869 0.0044914 -0.020519 -0.034843 0.00020089 -0.0172 -0.027225 0.0015873 0.00015477 0.00099899 -9.4295e-05 2.9145e-05 -0.00026195 -0.00044588 -0.00010996 -0.00023702 -0.00030161
73 0.054263 0.0061975 -0.063272 0.08946 0.14608 0.023367 -0.10655 -0.012352 -0.002877 0.00091996 0.00074379 7.2153e-05 -0.00047686 0.00096957 0.0011789 0.00014143 -0.00075727 -5.6653e-05 -0.00011006 -5.4815e-05
74 0.037602 0.0043545 0.013675 -0.0030873 0.0014234 -0.0088768 -0.0021889 -0.0014869 -0.0013129 0.0012768 0.00039642 4.2164e-05 0.00018474 -4.6144e-05 2.4135e-05 -0.0001003 -5.0354e-05 6.262e-06 -1.9222e-05 4.3906e-05
75 0.045916 0.0051289 0.0059762 -0.0017988 -0.0075619 -0.017965 -0.0020934 -0.025512 -0.011098 -0.007967 0.0011907 8.6715e-05 7.696e-07 -4.8075e-05 -7.6262e-05 -0.00024341 4.9104e-05 -0.00023197 -9.1756e-05 -0.00010917
76 0.042438 0.0044297 0.0096907 -0.0020149 -7.1588e-05 -0.004405 0.0012584 0.0038924 0.0020082 -0.00024137 0.019538 0.0016228 0.0058304 -0.0012618 0.0015357 -0.0020631 0.00078663 0.00084622 -0.00064186 -0.00038761
77 0.042735 0.0041285 0.04207 -0.014045 0.021966 0.02322 0.0060744 0.003906 -0.0052873 0.024052 0.0022823 4.4295e-05 0.0020111 -0.00057048 0.00091813 0.00068296 0.00023593 0.00029197 -0.00063227 0.0011771
78 0.040751 0.0042255 -0.0097421 0.007414 -0.016459 0.0049742 0.0062219 -0.0072282 0.040579 0.0049609 0.00074977 0.00013146 -0.00051026 0.0004192 -0.0010518 0.0005317 0.00037731 -0.00059716 0.0033269 0.00048354
79 0.043669 0.0047598 0.016147 -0.0047424 0.0046825 -0.0042958 0.004759 0.0079047 -0.0040481 -0.0029693 0.009496 0.00072182 0.0025391 -0.00070669 0.00079342 -0.00052509 0.00064702 0.0003636 -0.00030286 -0.00026117
80 0.043509 0.0041574 -0.0051601 -0.0030484 -0.00088995 -0.0020869 -7.0224e-05 -0.003681 0.0041655 -0.0040092 0.021022 0.0015244 -0.0035882 -0.0018803 0.00035966 0.00062579 -0.00032623 -0.0009184 0.000347 -0.0013074
81 0.04034 0.0033097 -0.011985 -0.0038196 0.0022594 -0.00052081 0.0079424 -0.00042683 0.0010003 5.7566e-05 0.033861 0.0016728 -0.011881 -0.0035101 0.0028863 -0.00095837 0.0068706 0.00052535 -0.00044915 -6.1263e-05
82 0.044005 0.0037993 -0.0090573 0.0020531 0.0014926 -0.00067881 3.8154e-05 0.0067419 -0.0065363 0.00035314 0.01477 0.00072114 -0.0031625 -3.3773e-05 0.00038727 -0.00028502 0.0016601 0.0006056 -9.8475e-05 0.0001557
83 0.042315 0.0016991 0.0024173 0.0020783 -0.0017825 -0.0047048 0.0023437 0.00033603 0.0010612 0.00062499 0.032822 -0.00053107 0.0022923 0.00093019 -0.00032649 -0.0063539 -0.00094887 -0.0010371 -0.0015128 0.0011861
84 0.055555 0.0049649 -0.04924 -0.02225 0.020131 0.011194 -0.00023446 0.0098979 -0.020002 -0.0023824 0.0021396 0.00012647 -0.00087752 -0.00045762 0.00047331 0.00016483 2.389e-05 9.2041e-05 -0.00017176 -2.4115e-05
85 0.04243 0.0040549 0.0034672 -0.0017191 -0.0010069 -0.0067167 -0.00095917 -0.0016228 -0.00023105 -0.001281 0.027263 0.001778 0.0023645 -0.00098348 -0.00020478 -0.0041233 0.0012103 -0.0014033 0.00023875 -1.5608e-05
86 0.060161 -0.043928 0.0046741 0.0073741 -0.058804 0.047177 -0.040857 0.01593 -0.045654 0.010796 0.0017354 -0.0026277 0.00017314 9.558e-05 -0.00069561 0.00053593 -0.00047558 0.00010642 -0.00045045 0.0001247
87 0.039668 0.0034592 -0.00084558 -0.00040067 1.8403e-05 -0.0034223 0.0044745 0.00031069 -3.7304e-06 -0.0012985 0.075058 0.0034644 -0.0029255 -0.0025 0.0014786 -0.0055208 0.0081451 -0.00064102 -0.00070075 -0.0010823
88 0.04655 0.004152 -0.019735 -0.0038547 0.0023729 -0.005191 0.012014 -0.002503 0.013885 0.00071651 0.0073113 0.00038696 -0.0020498 -0.00035576 0.00014701 -0.00048644 0.0014757 -0.00014595 0.00076513 0.00010481
89 0.047968 0.0043065 -0.023646 -0.0036707 -0.0092291 0.012398 0.018585 0.0051493 0.00035833 0.0010728 0.0051863 0.00029322 -0.0014878 -0.00039594 -0.00029783 0.00087275 0.0011103 0.00029634 0.00028113 8.5556e-05
90 0.046968 0.0047382 -0.018732 -0.0081126 0.0060986 -0.0017026 0.034568 -0.0025718 0.00017995 -0.0022952 0.0027054 0.0002015 -0.0006622 -0.00028658 0.00031561 -0.00016436 0.00074058 -0.00027849 -6.2812e-05 -8.1476e-05
91 0.043517 0.0046969 0.013327 0.0052166 0.00076746 -0.009591 -0.0014206 0.001419 -0.0031217 -0.005441 0.014107 0.0010543 0.0036437 0.00056433 0.00066401 -0.0021761 0.00050405 0.00020618 -0.0003927 -0.00061215
92 0.042292 0.0038053 -0.001989 0.0037798 -0.00072142 -0.0077212 0.0043454 0.0033318 -0.0021066 -0.0012783 0.022153 0.0011719 -0.00075949 0.00094821 0.00039527 -0.0031475 0.0019852 0.00017166 -0.00033218 -0.00043852
93 0.044756 -0.013699 0.0013362 0.0021045 -0.012713 0.0057864 0.00085101 -0.00098642 0.016811 -0.0044323 0.0054029 -0.0038097 0.00031628 6.265e-05 -0.00054657 -0.00019844 7.622e-05 -8.7208e-05 0.00073949 -0.00046769
94 0.039649 0.0047511 0.018545 -0.0048108 0.0066079 -0.0012073 0.0039423 -0.00058305 0.00050324 -0.003152 0.0014341 0.00015324 0.00072271 -0.00019278 0.00025182 3.6491e-05 0.00014229 -8.7342e-05 2.2122e-05 -8.7392e-05
95 0.073488 0.011921 0.010463 0.0073669 -0.071208 0.032942 -0.043173 0.022301 -0.06337 0.016931 0.00043909 4.2104e-05 6.601e-05 1.3934e-05 -0.00014639 3.8771e-05 -8.7273e-05 2.2951e-05 -0.00011817 3.5332e-05
96 0.044643 0.0035947 -0.020786 -0.013656 0.010989 0.0073681 -0.0086836 0.0010718 -0.016266 0.0012183 0.003942 0.00013418 -0.0019141 -0.0010228 0.00090358 9.7929e-05 0.0014028 0.00039034 -0.001193 -4.3986e-05
97 0.048367 0.005369 -0.01105 -0.014409 0.011471 -0.022329 0.053683 -0.038251 -0.030268 0.069908 0.0010093 0.00013159 0.00022971 -0.00012972 -6.5156e-05 -0.00042492 0.0001185 -0.00098124 -0.00015484 0.0015578
98 0.045353 0.0033902 -0.0048355 -0.0010373 0.00020936 -0.018292 0.0086821 0.0080729 -0.0026496 -0.0050224 0.0081299 6.5966e-05 -0.0012223 -0.00064946 -0.00017399 -0.0012036 0.00076218 0.000229 -0.00079578 -0.00055445
99 0.041015 0.0033963 -0.029427 -0.019324 0.031792 -0.00075863 -0.032361 -0.0044851 0.0039615 -0.0008887 0.0016408 0.00010156 -0.00077295 -0.00043087 0.00058895 -9.5923e-05 -0.00023455 -7.1276e-05 -5.7142e-05 -6.476e-05
100 0.044486 0.0048167 0.0071312 0.0050075 -0.0068534 -0.021347 -0.0013748 -0.004297 0.011362 0.0011504 0.0026575 0.00026378 0.00010169 0.00014202 -0.00043688 -0.00041852 -0.00012804 -0.00037015 0.0011621 0.00020523
101 0.044225 0.0037089 -0.01412 0.018575 0.0062547 -0.0034092 0.017721 -0.0012699 0.010245 0.00017834 0.0052226 0.00024157 -0.001756 0.00085767 0.00060134 -0.00023912 0.0018604 -0.00028049 0.0005613 -0.00028837
102 0.052212 0.0069368 0.038161 -0.021655 0.020445 0.0343 0.0082445 -0.014287 0.0062691 0.0011883 0.0012945 0.00011679 0.00053048 -0.00030701 0.00030282 0.00043936 0.00016375 -8.7896e-05 7.704e-05 -7.13e-06
103 0.045142 0.0049165 0.0084215 -0.0022645 -0.0030664 0.0056746 0.00092019 0.0032387 0.001002 0.0022422 0.0045047 0.00032898 0.00030559 -8.2565e-05 -7.4134e-05 -0.00010554 0.00033035 -2.9837e-05 0.00014756 0.00013727
104 0.04368 0.0047327 0.021641 -0.004004 0.0023006 -0.010279 0.0018262 -0.0074237 0.00054524 -0.0039383 0.0053547 0.00036229 0.0019457 -0.00038213 0.00022797 -0.0007466 0.00021332 -0.00058678 6.7961e-05 -0.00010167
105 0.051577 0.0057732 -0.023812 0.02343 -0.049502 0.033711 -0.0065906 -0.013292 0.1385 0.010175 0.00022337 1.6943e-05 -7.2701e-05 6.4963e-05 -0.00012984 8.7169e-05 -1.9421e-05 -3.1299e-05 0.00031481 2.4122e-05
106 0.045682 0.0047647 -0.0028266 0.0025778 -0.011131 -0.0084578 -0.00044969 0.0018883 -0.0032435 -0.00061937 0.0052497 0.00049308 -0.00067254 0.00048452 -0.0015857 -0.0012687 -0.00022032 0.00048328 -0.00058782 -0.00029801
107 0.044437 0.0043837 -0.0087781 0.0040171 -0.013933 0.0044497 0.003167 -0.00044921 0.0040562 0.0015234 0.0085382 0.00058557 -0.0012774 0.000635 -0.001242 0.00021503 0.00045617 -0.00024083 0.0006934 -0.00033789
108 0.047478 0.0058167 0.022755 -0.003392 0.000178 -0.0012623 0.0041388 -0.0079203 0.011117 -0.0066263 0.0064584 0.00055504 0.0031485 -0.00071292 0.00086814 0.00065517 0.00049519 0.00013538 0.0003821 -0.00072277
109 0.047191 0.00638 0.014238 -0.0083366 -0.00022443 -0.009034 -0.0031783 -0.037785 -0.028077 -0.0010652 0.0018297 0.00021952 0.00057546 -0.00041567 0.00025605 -0.0002596 -2.1201e-05 -0.0011457 -0.001137 0.00087763
110 0.04744 0.006098 0.029469 -0.0021933 -0.0044176 -0.030584 -0.016303 1.3597e-05 -0.01509 0.00083277 0.0028103 0.00025831 0.0011955 -0.00011152 -8.6901e-05 -0.00081648 -0.0003848 -0.00023662 -0.00041113 1.0121e-05
111 0.042051 -0.12977 0.010857 0.00041755 -0.0019876 -0.0042293 -0.0023856 -0.0031124 0.00046386 0.00097365 0.0010058 -0.0036004 0.00037995 -1.5855e-05 -5.3535e-05 -0.00028143 -3.6901e-05 -0.00013696 -4.3411e-06 6.6646e-05
112 0.043163 0.0041366 0.0049068 -0.0017371 -0.0023806 -0.006221 0.00030973 0.0040363 -0.0021979 -0.0048768 0.014321 0.00083878 0.00098999 -0.00085953 0.00040089 -0.0011684 0.00081721 0.00035766 -0.00024863 -0.0008055
113 0.04489 0.0046615 0.0059703 0.0065103 -5.2584e-05 -0.013243 0.002105 7.0498e-05 -0.006409 0.0079742 0.010154 0.00076143 0.0015971 0.00059248 -0.00013122 -0.001982 -3.0287e-05 -0.0015637 -0.00099235 0.0022887
114 0.042186 0.0036995 -0.0006993 0.0038898 0.0011056 -0.0075606 0.0066699 -0.00065891 -0.0019292 -0.0010314 0.017208 0.00089281 -0.00032487 0.00051826 0.00073835 -0.0020647 0.001946 -0.0003791 -0.00024219 -0.00048898
115 0.046757 0.0047766 0.034097 -0.0096281 0.010107 -0.008097 -0.0028223 0.010213 -0.00086723 -0.00062953 0.00416 0.00021899 0.0018925 -0.00049814 0.00044092 -0.00047868 -0.00010153 0.00024541 -0.00010227 -4.8573e-06
116 0.04471 -0.020566 -0.013724 -0.003197 -0.0083751 0.0061325 0.0089869 0.0082852 -0.011974 0.0021478 0.0034581 -0.0026177 -0.00083764 -0.00032471 -9.5539e-05 -2.7257e-05 0.00049396 0.00023246 -0.00038359 -1.8824e-05
117 0.04726 0.0056193 0.018053 -0.0021981 -0.0014326 -0.0078366 -6.5616e-05 -0.011795 -0.0024413 0.0080746 0.0073581 0.00059081 0.0022728 -0.00041429 4.9372e-05 -0.0008783 -7.8718e-05 -0.0014208 -0.00089506 0.0014892
118 0.043741 0.0044851 0.0085926 0.0016615 0.0039386 -0.0061025 0.0030373 -0.00018768 -0.0042461 -0.0043114 0.01769 0.0012051 0.0020943 0.00012012 0.0013981 -0.0014153 0.0011281 -0.00014825 -0.00065963 -0.00059192
119 0.054231 0.0074916 0.038653 -0.0016196 -0.020149 -0.044724 -0.044444 0.045324 -0.023319 0.092105 0.0011529 0.00012245 0.00062633 -6.7434e-05 -0.00016326 -0.00056138 -0.00039003 -0.00012783 -0.00015062 0.0019154
120 0.047884 0.0053159 -0.0066936 0.00072414 -0.025227 0.024265 -0.012864 0.010784 -0.022445 0.0080183 0.0025707 0.00034191 0.00069061 -5.5975e-05 -0.00070513 -0.00064134 -0.00087463 -0.00019638 -0.00020446 7.902e-05
121 0.04744 0.0049926 0.0099151 -0.00098519 -0.005265 -0.0012677 -0.0046985 0.010636 -0.0044212 -0.0072163 0.0021952 0.00016465 -0.00011725 -0.00024053 0.00026535 -0.00020828 -0.000258 0.00017066 -2.6449e-05 -9.1721e-05
122 0.041346 0.0036261 -0.0031401 0.0041635 0.00020399 -0.0055328 0.0057126 0.0046379 -0.0030271 -0.00012997 0.018566 0.0010104 -0.0010989 0.00086513 0.0011388 -0.001788 0.0021971 0.001034 -0.00064583 -0.00019746
123 0.039722 0.0036918 0.0067969 -0.0010412 0.0025526 -0.0041123 0.0027627 0.0014403 -0.00011704 -0.001922 0.060705 0.0048927 0.021612 -0.0068519 0.010184 -0.0020093 0.0039191 0.0035653 0.0012717 0.0010998
124 0.044493 0.0045209 0.010663 -0.0057467 0.0040344 -0.0009042 0.0052178 0.011579 -0.0055166 -0.0018516 0.010036 0.00086526 0.0020601 -0.00096035 -0.00082053 0.0017973 -0.0002689 0.0016588 -0.0022779 0.0013566
125 0.050568 0.0054569 0.011626 0.011225 -0.013199 -0.044786 -0.0037726 -0.0017499 0.011182 -0.0037359 0.0011558 0.00011822 0.00031354 0.00011013 -0.00024401 -0.00070473 -0.00013669 4.7022e-05 -5.4132e-05 -4.0011e-05
126 0.041463 -0.00095916 -0.0016554 0.001447 0.0008887 -0.005083 0.0051903 0.0022717 -0.00073114 -0.002013 0.033724 -0.0077718 -0.0023482 0.0012883 0.00070052 -0.0049801 0.0035406 0.00089924 0.0012408 -0.0010155
127 0.038616 0.0028344 0.00044035 -0.00034874 -0.00031894 -0.0040034 0.0026803 -0.00078365 0.0008446 -0.00075958 0.18859 0.0093268 0.0045438 -0.0055825 -0.00015027 -0.018765 0.01789 -0.0070939 0.0044024 -0.0021771
128 0.039832 0.0033328 -0.0015163 -0.000607 1.3579e-05 -0.0035252 0.0032625 -0.00014229 0.00039661 -0.0012033 0.073528 0.0029828 -0.0058033 -0.0037997 0.0030922 -0.0065909 0.0089109 -0.00040904 -0.0016459 -0.0015283
129 0.045465 0.006191 0.059148 -0.021439 0.031072 0.037045 0.0097833 0.012388 0.015847 -0.011194 0.0014264 0.00014098 0.0011326 -0.00035431 0.00046162 0.00039006 0.00013828 0.00010334 0.00014499 -0.00019342
130 0.048928 0.005507 0.0078154 6.3208e-05 -0.010241 -0.011146 0.0026875 -0.012252 -0.0060523 -0.0078951 0.0069379 0.00056928 0.0010966 0.00011139 -0.0016287 0.00023002 -0.00039752 -0.00027391 -0.0003815 -0.0001965
131 0.047504 0.0053487 0.00079929 0.014758 -0.00282 -0.0049015 -0.0055577 0.011123 -0.0051924 -0.0082079 0.0067243 0.00061303 -0.00081746 0.00080045 -0.00024925 0.00050569 -0.00065072 0.00067754 -0.00080147 -0.00030721
132 0.044251 0.0050638 0.00072186 0.00010969 -0.0058231 -0.023842 0.014172 0.002104 0.00047804 -0.01519 0.00021419 1.8228e-05 5.0688e-06 -1.6664e-07 -2.1819e-05 -7.7977e-05 4.5911e-05 7.8573e-06 -2.1118e-07 -4.9258e-05
133 0.050828 0.0046576 -0.025181 -0.00098673 -0.014289 0.0036015 0.010013 0.028312 0.0047197 0.0061868 0.0037508 0.00024882 -0.0012209 -0.00020425 -0.00013626 -0.00076489 -0.0001605 0.0018384 0.00038163 0.0002367
134 0.047337 0.0052288 -0.013593 0.0021277 -0.017202 0.0012198 0.009479 -0.02199 0.024056 -0.017116 0.0018469 0.0001197 -0.00036513 3.1241e-06 -0.00027609 -6.4136e-05 0.0002182 -0.00031201 0.0002033 -0.00029768
135 0.042906 0.0038882 -0.0096438 -0.00095542 -0.0022217 -0.0029387 0.0034341 0.0031457 0.0031897 0.00026696 0.025029 0.0016852 -0.0046454 -0.00068015 -0.0008171 -0.0013487 0.00094395 0.00094313 0.00044606 -5.1648e-05
136 0.044046 0.0037776 -0.0078461 0.00859 -0.01438 0.0042662 0.0015686 -0.00075781 0.03672 0.0010097 0.00081158 4.7297e-05 -8.3611e-05 0.00011422 -0.00015265 4.2457e-05 2.2383e-05 8.2102e-07 0.00036826 8.2515e-06
137 0.053363 0.0052396 -0.020734 0.0036292 -0.017809 -0.0052214 -0.0010194 0.015443 -0.0080758 0.000547 0.0017119 0.000112 -0.00049948 1.8694e-05 -0.00013674 -0.00016217 0.00022101 0.00014224 2.4935e-05 -1.163e-05
138 0.046903 0.0058996 0.031255 -0.0050363 0.0020229 -0.0083071 -0.0075143 0.0040849 -0.0048623 -0.0072377 0.0064135 0.00055619 0.0029578 -0.00051465 0.00031915 -0.00061746 -0.00038146 -7.7434e-06 -0.00038666 -0.00038038
139 0.043106 0.0049995 0.012174 -0.0040283 -0.0011746 -0.014043 0.0020187 -0.008581 -0.0022862 0.004898 0.00099988 8.6054e-05 0.00019497 -5.5423e-05 -4.7622e-05 -0.00022249 3.814e-05 -0.00010916 -2.5518e-05 2.0463e-05
140 0.038905 0.0023149 -0.01401 0.0010533 0.0038 -0.002195 0.0051558 0.00052015 0.0045428 0.00040246 0.00064183 6.9574e-06 -0.00029985 -5.006e-06 0.00013236 -4.2067e-05 4.033e-05 7.5415e-05 7.3998e-05 2.6742e-05
141 0.046492 0.0038134 -0.023154 -0.0023154 -0.0019474 0.0042966 0.033155 -0.0017632 0.019191 -0.00019366 0.0021069 0.00010936 -0.00067598 -0.00015681 0.00016344 4.7877e-05 0.00052607 3.3935e-05 0.00035267 -5.6158e-05
142 0.045044 0.004107 -0.00029684 0.0005908 -0.0005327 -0.020487 0.006654 0.0036047 -0.0013633 -0.0068324 0.0083171 0.00047809 -0.00040662 -0.00013512 -1.8329e-05 -0.0017406 0.0010362 0.00036549 -0.00022579 -0.00041462
143 0.050253 0.0060015 0.0025486 0.002478 -0.016418 0.0076731 -0.0032265 0.017107 0.018072 0.0032044 0.0046964 0.00040412 0.0004063 0.00027135 -0.0001594 -0.00010202 0.00011298 0.00091449 0.00070721 0.00011979
144 0.049247 0.0056389 -3.0039e-05 -0.0072157 -0.0014134 0.015633 0.018523 -0.0068795 0.033508 0.0046075 0.0029242 0.00021447 0.0001328 -0.00022059 -9.858e-05 0.00011649 0.00042981 -0.00028569 0.00052323 -1.5802e-06
145 0.045917 0.00522 0.019146 -0.0043433 0.0013397 -0.007405 -0.0012353 0.0047812 -0.0021319 -0.00095943 0.011845 0.0010357 0.0050554 -0.001149 0.00096241 -0.0019035 -0.00016197 0.0014443 -0.00011833 -0.00030561
146 0.046853 0.0053469 0.013229 -0.012956 0.017646 -0.0012873 0.0044474 -0.0027064 -3.3743e-05 -0.0030265 0.0068221 0.00058436 0.0022518 -0.0010808 0.0013356 -0.00030095 0.00037563 -0.00049563 0.00014053 -0.00011963
147 0.046103 0.0051906 0.003821 0.0061823 -0.0052892 -0.0019359 0.00057817 -0.0065723 -0.0031921 -0.0035779 0.0129 0.0010581 0.0011324 0.0006885 -0.00045588 -0.0010812 0.00020432 -0.0013995 -0.0001892 -0.00055791
148 0.043315 0.004613 0.021635 8.9684e-05 -0.001561 -0.041459 -0.016929 0.04374 0.0011769 0.0060121 0.0014418 0.00012679 0.00052134 -5.2688e-05 2.432e-05 -0.00048054 -0.00018776 0.00036768 -1.8676e-05 8.8373e-06
149 0.042132 0.0037218 -0.015192 -0.0043363 -0.00033288 -0.00022668 0.0068419 0.0031377 -0.00021864 0.0012274 0.020667 0.0011643 -0.0064233 -0.0019078 0.00084823 -0.00030196 0.0038589 0.00051564 -0.00032262 5.1713e-05
150 0.040826 0.003661 0.0040812 -0.0037132 0.0040832 -0.0024355 0.01309 0.0020854 -0.0031822 -0.0067951 0.0053046 0.00034161 0.00041872 -0.00010132 -7.1942e-05 -0.00030991 0.00063415 0.00032604 -9.5314e-05 -0.00033869
151 0.045335 0.0050778 0.050441 -0.021075 0.030242 0.048832 0.0073922 0.012005 0.024597 0.0063755 0.00088313 5.3046e-05 0.00038901 -0.00013735 0.00015178 0.00023721 7.113e-05 1.872e-05 0.00014045 -1.9223e-06
152 0.05212 0.0050842 -0.033892 -0.028136 0.035755 -0.0053823 -0.043347 -0.029857 -0.013842 -0.0071111 0.001483 8.5668e-05 -0.00048743 -0.00038792 0.00044311 -6.1866e-05 -0.00042886 -0.00034848 -0.00017084 -8.3292e-05
153 0.043006 0.0042177 0.0038899 -0.003778 0.00060941 -0.0029647 0.002054 -0.0035408 0.00018265 -0.0029988 0.027322 0.0017155 0.0018749 -0.0027129 0.0014674 -0.0024292 0.003464 -0.0011171 -0.0015226 -0.0019402
154 0.050816 0.0054561 -0.026649 0.042619 0.022875 0.022337 -0.032054 0.0073527 -0.011976 0.0024093 0.0038166 0.00048963 -0.0021117 0.012853 0.006846 0.0018826 -0.00029773 0.00019067 -0.0019332 0.00032801
155 0.044032 0.0052159 0.026011 -0.0072696 0.0083119 -0.0050257 0.0045312 -0.0051367 -0.0032263 -0.010488 0.0024372 0.00031805 0.0019545 -0.0006405 0.00054465 -0.00035803 -7.3276e-05 -0.0017276 -0.001766 -0.00071834
156 0.056353 0.0069555 -0.018144 0.0056016 -0.038858 0.031694 -0.0076179 0.005634 0.029693 0.013646 0.0012865 0.00010743 4.2433e-05 1.5061e-05 -0.00026152 0.0001035 -7.2766e-05 -4.7676e-05 0.00022213 9.1163e-05
157 0.044704 0.0051318 0.020358 -0.0040107 0.0029346 -0.0032475 0.0010434 -0.0058693 -0.0053742 -0.0037112 0.012049 0.00085248 0.0048926 -0.001116 0.00096427 -0.00060825 0.00039202 -0.0013841 -0.0012447 0.00030955
158 0.041344 0.0039948 0.0054927 -0.00066977 -0.0014911 -0.0033583 0.003499 0.0005071 0.0023125 -8.2553e-05 0.01844 0.0011864 0.0013185 0.00011051 -1.1303e-05 -0.0022445 0.00092547 -0.00018551 0.00070318 -0.00017489
159 0.052595 0.0070621 0.039504 -0.0084808 -0.0034073 0.010191 -0.0071373 -0.019896 0.0067772 0.010525 0.0030255 0.0002056 0.0015803 -0.00034066 8.997e-05 -0.0001373 -0.000145 -0.0009644 0.00016426 0.0014045
160 0.039271 0.0036944 0.003629 -0.00024496 0.00048988 -0.0040397 0.0032715 -0.00014402 -0.00037364 -0.0021019 0.077009 0.005503 0.0098432 -0.0033368 0.003937 -0.0058206 0.0060853 -0.0018382 -0.00016058 -0.005546
161 0.056173 0.0076594 0.035255 -0.010282 0.004562 0.0176 0.028716 -0.007748 0.059261 -0.019993 0.00063559 5.3017e-05 0.00025484 -6.7196e-05 3.8093e-05 7.5651e-05 0.00012517 -3.6628e-05 0.00023565 -9.1404e-05
162 0.046661 0.0060089 0.036227 -0.0053619 0.0036593 -0.001729 -0.0051688 -0.017326 0.0019651 -0.040958 0.0018339 0.00019775 0.00088781 -4.1633e-05 -3.9322e-05 -0.00020482 1.3525e-05 -0.00029789 0.00049327 -0.00055997
163 0.056188 0.0084335 0.043505 -0.0040806 -0.0039615 0.016718 -0.0058822 -0.019312 0.04807 0.0022157 0.0016989 0.00016302 0.00073474 -5.4569e-05 -7.7549e-05 0.00014743 -0.0001169 -0.00027062 0.00045871 -1.259e-05
164 0.044889 0.0044705 -0.0093292 0.02474 0.0030278 0.0034171 0.007623 -0.0046785 0.016113 0.00092576 0.0038038 0.00023388 -0.00065952 0.0010859 0.00020842 7.319e-05 0.00041701 -0.00011131 0.00038471 1.3918e-05
165 0.044833 0.0036429 -0.030732 -0.013565 0.011657 -0.001283 0.031545 0.0051497 -0.012422 0.00088571 0.0017905 0.00011704 -0.0010461 -0.00043688 0.00036028 -1.2589e-05 0.00092819 9.6559e-05 -0.00017383 4.8817e-05
166 0.042948 0.0042836 0.00062103 0.0060385 -0.0046268 -0.0098315 -0.00021229 0.00032655 0.00074931 -0.0041477 0.017355 0.001141 0.00025138 0.0014029 -0.00097327 -0.0029256 0.0005092 -0.00032424 4.1014e-05 -0.00072217
167 0.039041 0.0047292 0.029106 -0.0085291 0.011619 0.003281 0.0071157 -0.00018106 0.0035537 -0.010321 0.00090133 0.00019151 0.0020022 -0.00068394 0.0010252 0.00065853 0.00061307 0.00034917 0.00039924 -0.0012722
168 0.047334 0.0054633 0.027586 -0.0041625 0.0091438 -0.00296 0.0048883 0.0052624 0.012828 -0.00030564 0.0032287 0.00025964 0.0014536 -0.00033089 0.00062178 0.000328 0.00021228 0.00051511 0.00046257 -3.4955e-05
169 0.046063 0.0057923 0.044067 -0.014174 0.020634 0.020302 0.0048587 0.0041081 0.010396 -0.0025812 0.001833 0.00016387 0.0012422 -0.00032605 0.00045822 0.00028663 7.5244e-05 7.2877e-06 0.00012284 -0.00015231
170 0.044257 0.0035885 -0.010101 -0.0014667 0.0027609 -0.0083837 0.023691 0.0010383 -0.0062887 -0.0057264 0.0024784 0.00013288 -0.0002591 0.00011101 7.7187e-06 -0.00036895 0.00047605 9.3449e-05 -1.4001e-05 -0.00013301
171 0.048601 0.0065998 0.036163 -0.0078517 0.0037931 -0.025385 -0.0034902 -0.018211 -0.005456 0.013216 0.00040656 4.0449e-05 0.00022137 -4.8494e-05 2.9661e-05 -0.00011046 -4.7707e-06 -7.0789e-05 -1.8842e-05 3.5592e-05
172 0.044139 0.0035598 -0.014495 -0.005053 -0.0015597 0.001637 0.011308 0.00089324 -0.013205 -0.0051288 0.01021 0.00027923 -0.0029547 -0.00084093 0.00028801 -0.00030892 0.0018315 0.00032693 -0.0010415 -0.00033486
173 0.040374 0.0034185 -0.0070696 -0.0021629 -0.00062654 -0.00074044 0.0074725 0.0020122 -0.0015153 0.00087818 0.032946 0.0018331 -0.0059129 -0.0021747 0.00097413 -0.0021834 0.0061641 0.00033553 -0.00051061 0.0011073
174 0.043951 0.0048966 0.018429 0.00055775 0.00058215 -0.019965 0.0004132 -0.0045713 0.0024487 -0.0013851 0.003522 0.00026888 0.0011579 -8.0104e-05 0.0001548 -0.00072559 5.5806e-05 -0.00023938 -2.38e-05 -0.0001078
175 0.039412 0.0031387 -0.0047754 0.00066335 -0.0061488 0.0023673 -0.00023072 0.0023244 -0.0021431 0.00010756 1.0396 0.089023 -0.34054 0.1103 -0.73789 0.61894 -0.32955 0.37207 -0.44505 0.083867
176 0.054229 -0.36207 0.01155 0.0034693 -0.0046122 0.0064371 -0.006847 -0.0058889 0.00042419 0.0020608 0.00042291 -0.0027517 7.0575e-05 1.5414e-05 -1.88e-05 3.3765e-05 -3.2708e-05 -2.5431e-05 -1.5025e-06 9.9423e-06
177 0.043493 0.0051498 0.027548 -0.0079128 0.0084432 0.0018083 0.0014735 -0.0019966 0.0061775 0.0063342 0.0028446 0.00025195 0.0011023 -0.00031077 0.00019426 -0.00026724 4.3867e-05 -0.00014163 0.00018325 0.00064693
178 0.045384 0.0052153 0.023742 -0.0037536 0.0035816 -0.003877 -0.001522 0.0051473 -0.0017478 -0.0085207 0.010474 0.0008475 0.0049418 -0.0010694 0.001248 0.00026487 0.00012806 0.00097154 -0.00023281 -0.0011903
179 0.060553 0.0086758 0.042424 0.053987 0.028253 0.034535 0.00086859 0.0024986 0.065302 -0.01271 0.0016124 0.0001556 0.00063212 0.00096059 0.00042932 0.00041036 -9.0378e-05 -4.9835e-05 0.000535 -0.00031156
180 0.039664 -0.090946 -0.0081605 -0.0021033 -0.00023147 0.0018626 0.005964 -0.00085539 0.00064704 0.0014926 0.0012444 -0.0031295 -0.00048555 -0.00014105 3.6243e-05 2.716e-05 0.00047671 8.1161e-06 5.624e-05 7.911e-05
181 0.04233 0.0045735 0.011546 -0.0021992 8.1365e-05 -0.0062657 0.0017072 -0.0049814 -0.0033012 0.0018464 0.015879 0.0012081 0.00395 -0.0010211 0.00066721 -0.0019556 0.0005445 -0.0016413 -0.0011778 0.00096967
182 0.049477 0.0050477 -0.020535 -0.0021216 -0.015079 0.016623 0.013437 0.0026692 -0.0022618 0.012606 0.0067761 0.00045395 -0.0013211 -0.00022476 -0.00091741 0.00085525 0.00081029 -0.00031064 -0.00049657 0.0016404
183 0.04311 0.0045111 -0.001381 -0.0002858 -0.0011795 -0.0062643 -0.00077163 -0.0055417 0.0088761 0.0055792 0.01755 0.0018228 -0.00042092 0.001273 -0.0012318 -0.0020389 0.0011797 -0.0026727 0.0052718 0.0020797
184 0.053764 0.0065377 0.031689 0.038898 0.019114 -0.030744 -0.014252 0.031864 -0.0038704 -0.0023018 0.0021154 0.00016577 0.00066594 0.00094859 0.00046037 -0.00042414 -0.00025683 0.00046223 -0.00012886 -5.3725e-05
185 0.043405 0.004366 -0.00087475 0.012714 -0.0041308 -0.0030984 -0.00079101 0.0018149 -0.0029528 -0.0020271 0.0085613 0.00058782 4.2865e-05 0.0013107 -0.00027863 -0.00079967 0.00024287 -0.00010851 -4.5583e-05 -0.00039497
186 0.045942 -0.018017 0.0043788 -6.5425e-05 -0.005316 0.0052524 0.0072705 -0.0069031 0.029284 -0.0034756 0.0038961 -0.0028982 -4.572e-05 -0.00020375 0.00021581 0.00013392 0.0002517 -0.00023815 0.00059469 -0.00011583
187 0.04467 0.004063 0.013697 -0.0032116 0.0014302 -0.0089683 0.0015044 -0.00057418 -0.0052025 -0.0019127 0.015708 0.00038024 0.0042546 0.0001359 0.00098409 -0.002731 -0.00030279 -0.0019797 -0.001687 -0.0011964
188 0.048157 0.0043239 -0.015954 0.00017057 -0.0084064 -0.0036288 0.015236 0.0018171 0.0034678 -0.0035505 0.0055751 0.00022774 -0.0011804 -0.00015302 -0.0001085 -0.0005432 0.00076852 -9.804e-05 6.766e-05 -0.00041674
189 0.041892 0.0039034 -0.013147 0.0034218 -0.010372 0.0092198 0.0086322 -0.0051756 0.034096 0.0075962 0.0018086 0.00010767 -0.0004568 1.5772e-05 -9.8483e-05 0.00011018 0.00034968 -6.1615e-05 0.00038679 0.00012816
190 0.049341 -0.0046878 -0.0030391 0.010481 -0.0009358 0.0011754 -0.0092924 -0.0018804 0.0030524 -0.0059275 0.0083633 -0.0024626 0.00036048 0.0010577 1.8288e-06 -0.00044649 -0.00052233 -0.00028328 9.8601e-05 -0.0006617
191 0.042198 0.0044967 0.0068161 -0.0040651 0.0037357 -0.0029043 0.0034369 -0.00068691 -0.001417 -0.0027199 0.021914 0.0018673 0.0042758 -0.0016288 0.0013557 -0.0017632 0.0020882 -0.00032605 -0.000396 -0.0011636
192 0.047526 0.0055725 0.019144 -0.0035551 -0.006158 -0.0051214 -0.0059126 -0.0088903 -0.016807 0.0023876 0.0030606 0.00015721 0.00073596 -0.00017918 -0.00012147 -0.00018414 -3.2821e-05 -0.0002872 -0.00038106 3.3822e-05
193 0.057485 0.0074666 0.048074 -0.035964 0.049219 0.044897 0.055467 0.018836 -0.0043016 -0.022631 0.0015877 0.00014125 0.0010547 -0.00055442 0.0007321 0.00064145 0.00055747 0.00028223 5.2459e-05 -0.00035081
194 0.040945 0.0039195 0.0093559 -0.0041435 0.00091083 -0.0032815 0.00051615 0.0024733 -0.003531 -0.0011393 0.02692 0.002142 0.0074909 -0.0050126 0.0041649 -0.00024134 0.0038684 0.0030802 -0.0015827 -0.0028176
195 0.041871 0.0036174 0.0037546 0.0035136 -0.0041572 -0.025399 -0.0033536 0.017945 0.0053483 0.0002771 0.0038535 0.0001854 5.0765e-05 5.2956e-05 -0.00016484 -0.0010417 1.1242e-05 0.00052787 0.00013407 -8.1194e-05
196 0.046705 0.0048369 -0.0055207 -0.0022674 -0.010654 0.01321 0.0075754 0.0092777 -0.011474 -0.0043947 0.0052758 0.00047195 0.00062146 -0.00051219 -1.3333e-06 0.0011551 0.00065002 0.00039423 1.984e-05 1.6761e-05
197 0.049367 0.007047 0.045916 -0.0096951 0.009497 -0.014287 -0.0014269 -0.019864 0.0024544 0.024022 0.0021717 0.00023759 0.001427 -0.00034071 0.00028335 -0.00042327 -0.00010333 -0.00074034 7.2265e-05 0.0015726
198 0.043688 0.0045698 0.002498 -0.0016837 -0.0055079 -0.0010298 -0.00063542 -1.1552e-06 0.0019181 0.0020936 0.020981 0.0016816 0.00024523 -0.0015968 -0.00028073 -0.0016466 -0.00058563 -0.0020814 0.0014012 -3.7655e-05
199 0.043454 0.0054336 0.014644 -0.0025763 -0.0092084 -0.012484 -0.0078425 -0.031139 -0.013049 -0.0062058 0.00153 0.00017022 0.0003858 -4.6285e-05 -0.0003383 -0.00026787 -0.00018579 -0.00070894 -0.00016835 -0.00022865
200 0.048136 0.0054435 -0.0062543 0.0047421 -0.025566 0.010532 -0.0019085 -0.015836 0.020462 0.0086325 0.0026754 0.00014634 -0.00012923 4.5667e-05 -0.00037213 -6.6373e-06 0.00016059 -0.00044106 0.00030238 0.00016791
201 0.040589 0.0045552 0.017295 -0.0041116 0.004411 -0.0063979 0.0045829 -0.0080052 0.00075839 -9.3234e-05 0.00021676 1.9034e-05 0.00010722 -2.4146e-05 3.0097e-05 -1.9143e-05 2.1164e-05 -3.9418e-05 2.5846e-06 -1.3988e-06
202 0.051142 0.005351 -0.038675 -0.010996 0.010059 0.0099496 -0.017478 -0.016455 0.058563 0.0097691 0.0019946 7.9783e-05 -0.00093771 -0.00040009 0.00043198 3.0941e-05 -0.00029632 -0.00028858 0.00062631 7.3165e-05
203 0.041868 0.0044111 0.016641 -0.0045296 0.0039465 -0.0076946 0.0026682 -0.002675 -0.00095119 -0.0013343 0.0039321 0.00030285 0.0011281 -0.00032395 0.00022121 -0.00075986 0.00014067 -0.00011478 -0.00014832 2.6708e-05
204 0.045604 0.0049167 0.01122 0.0079712 -0.0047326 -0.012173 -0.0084309 -0.0037081 -0.010437 0.0011581 0.010468 0.00071954 0.0020836 0.0008386 -0.00027677 -0.0017065 -0.00058569 -0.0012593 -0.0011864 0.0011082
205 0.043394 0.0041732 0.0093038 -0.0074174 0.008155 -0.00088463 0.014489 0.00039619 -0.0086293 -0.0089476 0.004968 0.00033759 0.0013046 -0.00049925 0.00061032 -0.00017896 0.00076264 -5.2322e-05 -0.00016249 -0.00056133
206 0.045285 0.0037963 -0.02085 -0.0063397 -0.0016745 0.0072362 0.0056523 0.0023817 -0.0016583 0.0030205 0.011997 0.00044457 -0.0051091 -0.0022278 0.0017978 0.00064361 0.00038557 8.9853e-05 -0.00018959 0.00021935
207 0.040702 0.0037028 -0.0021267 0.0023483 0.0012381 -0.0054137 0.003509 0.00029157 0.0013228 -0.00063699 0.036629 0.0022585 -0.0015628 0.0025893 0.00091467 -0.004966 0.0031999 -0.00018585 0.00031875 -0.00083608
208 0.051679 0.0044642 -0.016366 0.0053488 -0.0038918 -0.027032 0.0076269 0.027873 0.028583 0.0084473 0.0024283 9.9835e-05 -0.00062296 -1.6889e-05 6.7026e-05 -0.00045067 0.00035384 0.00050188 0.00033634 0.00013197
209 0.042363 0.0044038 0.0085005 -0.0021809 -0.0013754 -0.003205 0.0033843 -0.0036739 -0.0011987 -0.0011899 0.033778 0.0027764 0.0099256 -0.0022598 0.00038889 -0.0046436 0.0011101 -0.0044778 -0.0016615 -0.0018015
210 0.04475 -0.0042213 0.0036291 0.007996 0.0037334 -0.0087821 0.0079129 -0.0054295 0.0037105 0.0038248 0.010537 -0.0030861 0.00090978 0.0012319 0.0004528 -0.001273 0.0007185 -0.0009445 1.7146e-05 0.0014156
211 0.042563 0.0046791 0.0071138 0.00085607 -0.0050666 -0.013098 0.0025083 -0.0058006 0.002734 -0.0076325 0.00059811 5.2313e-05 8.0345e-05 5.1079e-06 -5.7089e-05 -0.00013393 3.4665e-05 -7.9676e-05 3.3805e-05 -0.00010196
212 0.043582 0.0044741 0.0046487 -0.0033929 0.0013793 -0.003444 -0.0012646 0.0031044 0.00081981 -0.0037789 0.017992 0.0013451 0.0010697 -0.00096752 0.00061706 -0.0021595 0.00049771 0.0013129 0.00011054 -0.0010661
213 0.044134 0.0040633 -0.0053759 -0.0028648 -0.00039035 -0.0071817 0.0015568 -0.00031854 4.812e-05 0.0023118 0.019412 0.0011134 -0.0017369 -0.0012228 0.00024822 -0.00212 0.0013683 -0.00073914 0.00021321 0.0015353
214 0.046636 0.0048309 -0.0059964 -0.007557 0.0064054 -2.1897e-05 0.015718 0.00011323 -0.016211 -5.0554e-05 0.0049425 0.00030219 -0.00090412 -0.00079783 0.00072856 0.00018436 0.0011398 0.00019384 -0.00076137 -1.4562e-05
215 0.037783 0.0037584 0.0084769 -0.0019433 8.7383e-05 -0.0081246 0.0017253 -0.0013666 0.0015024 -0.0018396 0.00056526 4.5876e-05 0.00014691 -3.5641e-05 1.4514e-05 -0.00010861 2.9773e-05 -2.5012e-05 2.1238e-05 -2.7165e-05
216 0.044789 0.0059895 0.039454 -0.011664 0.012812 0.010719 0.00094388 -0.0047402 0.0053547 -0.010381 0.0035295 0.00038405 0.0022279 -0.00068167 0.00058764 0.00037693 7.1243e-05 -0.00048533 3.4326e-05 -0.00066686
217 0.052677 0.0076655 0.048091 -0.0077137 0.0038312 -0.011638 -0.0059995 -0.018871 -0.011276 -0.010648 0.0021388 0.00022432 0.0012882 -0.00020633 0.00010037 -0.00019492 -0.00013746 -0.00043236 -0.00026101 -0.00017762
218 0.038897 0.0031303 0.0014829 -0.0005916 0.00051559 -0.0044526 0.0026431 -0.00042605 0.00058905 -0.0014079 0.12526 0.0055096 0.0074498 -0.0044388 0.0048625 -0.014227 0.010296 -0.0020182 -0.00035576 -0.0037353
219 0.047261 0.0034451 -0.027354 -0.0090883 0.0091237 0.0015008 0.011186 0.0045686 -0.0081226 -6.8752e-05 0.0056013 0.00013427 -0.001886 -0.00060932 0.00058861 -0.00014802 0.00086446 0.00019112 -0.00016591 5.3177e-05
220 0.044765 0.0040047 -0.01355 -0.006253 0.0096131 -0.017746 -0.014081 0.010415 0.012797 0.002892 0.0058862 0.00054094 -0.0032053 -0.0030332 0.0046845 -0.0014087 -0.0058632 -0.00064611 0.00094296 0.00032041
221 0.044882 0.0061222 0.044234 -0.012791 0.017458 0.0048946 0.0044433 -0.015345 -0.023174 0.023353 0.0013081 0.00015226 0.0010792 -0.00029359 0.00034738 -1.8967e-05 4.1956e-06 -0.00064399 -0.0008559 0.0011504
222 0.041841 0.0035404 0.0055437 -0.00070035 -0.0016544 -0.018105 -0.0025783 0.012301 -0.00065906 0.0032257 0.0046069 0.00013828 0.00013107 -9.2304e-05 3.7903e-05 -0.00082783 -0.00023131 0.00046738 -9.312e-05 9.5101e-05
223 0.054795 0.0081482 0.064723 -0.027215 0.033162 0.041307 0.01329 0.0044472 0.010731 -0.013231 0.0012937 0.00012603 0.00087768 -0.00030182 0.00032514 0.00032295 8.8258e-05 -2.3848e-05 8.4466e-05 -9.6631e-05
224 0.045087 0.0043876 -0.0068595 -0.0014342 -0.0048747 -0.0013079 0.010244 -0.0010093 -0.0078755 0.0046423 0.011699 0.00072219 -0.001246 -0.00065845 -0.00010666 -0.00029252 0.0013358 -0.00075352 -0.001169 0.001522
225 0.043074 0.0041675 0.0028416 0.00057652 -0.00042773 -0.0033117 0.0049103 0.00044726 0.0012991 -6.1998e-05 0.034398 0.0021438 0.0023376 -0.00015355 0.00056055 -0.0018302 0.0021781 -0.0003251 0.0011021 0.00012333
226 0.04646 0.0046523 -0.013438 0.0097329 -0.023267 0.0042349 0.010831 -0.015598 0.062797 0.0056744 0.0010503 6.4188e-05 -0.00022246 0.00014634 -0.00029234 2.8272e-05 0.00011656 -0.00016855 0.00068799 3.1662e-05
227 0.044917 0.0010674 0.0070512 0.0020976 0.00012418 -0.0020137 0.0038057 -0.00068118 0.00077455 -0.00086891 0.019888 -0.0012201 0.0030847 0.00047328 0.00023371 -0.0021506 0.00091729 -0.0011518 -0.00024149 -0.00014969
228 0.040527 0.0037831 0.0049762 -0.00046528 0.00058148 -0.0039 0.0021725 -0.0004291 0.00079409 -0.0016069 0.059478 0.0037669 0.010862 -0.0026184 0.0033208 -0.0044988 0.0039288 -0.00023552 0.0016398 -0.0019401
229 0.046742 0.0053963 -0.020002 -0.010336 0.004293 -0.0067898 0.016478 -0.0010454 -0.0068269 0.00026818 0.00020876 1.6776e-05 -6.397e-05 -3.1487e-05 1.3642e-05 -1.6631e-05 4.0472e-05 -3.687e-06 -1.7481e-05 9.4336e-07
230 0.040957 0.0039782 0.011705 -0.0011108 -0.00083044 -0.0063938 -0.00042229 -0.00071871 0.00092435 -0.0032946 0.025657 0.0015867 0.0094375 -0.0020992 0.0021384 -0.001324 0.0009902 -0.00086355 0.00022287 -0.0018196
231 0.044685 0.0048253 0.0097097 -0.0037518 0.00045029 -0.0033996 0.0044515 -0.0051161 -0.0013896 -0.0059546 0.017159 0.0013817 0.0035978 -0.00081279 0.00018389 -0.00065775 0.00053724 -0.0012151 0.00025984 -0.0013191
232 0.039224 0.0034076 0.012081 -0.0026476 0.0030804 -0.00013375 0.0021288 0.00096326 0.00079984 -0.0039003 0.62321 0.056624 0.70237 -0.22179 0.33287 0.29744 0.14261 0.16439 0.081746 -0.33083
233 0.042726 0.0010193 0.0077031 0.0036144 -0.0033893 -0.0072917 -0.00041623 -0.0025239 -0.0010573 -0.0014279 0.023169 -0.0011153 0.006109 0.00038466 -0.00016431 -0.0046853 -7.2365e-05 -0.0023322 -0.0011951 -0.00012948
234 0.04529 0.0059875 0.037122 -0.0094063 0.010944 0.00064145 0.002341 -0.010096 -0.010734 0.0072095 0.0020965 0.00021021 0.0014279 -0.00039807 0.00044514 -3.5267e-06 5.6101e-05 -0.00055473 -0.00077334 0.0010231
235 0.049364 0.0061955 -0.0016519 0.0036677 -0.018955 -0.0079784 0.017588 -0.025637 0.051454 0.012423 0.00059053 4.7142e-05 5.1399e-05 8.1699e-06 -9.3213e-05 -7.0809e-05 7.2581e-05 -0.0001478 0.000193 8.1878e-05
236 0.04841 0.0059232 0.033454 -0.0016566 0.00034068 -0.02166 -0.013056 0.0067515 0.0079954 -0.011453 0.0035036 0.00027961 0.001399 -0.00014652 9.5169e-05 -0.00063449 -0.00030968 1.8234e-05 9.128e-05 -0.00033533
237 0.041296 0.0050151 0.025078 -0.0076951 0.012031 0.0088754 0.0048302 0.018858 0.0022575 -0.0036996 0.0011293 0.00012635 0.00090359 -0.00030277 0.00051508 0.0005418 0.00015791 0.00069634 7.4023e-05 -0.00013297
238 0.041701 0.0036443 -0.0018327 0.00054933 -0.0031788 -0.0063474 0.0052159 0.0028105 0.0014867 -0.0014615 0.030391 0.0021651 -0.0010465 -0.00019099 -0.0016166 -0.005323 0.0039398 0.0018829 2.2166e-05 -0.003332
239 0.056179 0.0027258 -0.049026 -0.023802 0.033144 -0.010211 0.12375 0.0089382 -0.060963 -0.025725 0.00040964 6.0816e-06 -0.00016909 -6.6275e-05 9.0399e-05 -3.4301e-05 0.00030955 1.6043e-05 -0.00013985 -6.7786e-05
240 0.0404 0.0045165 0.010408 -0.0017385 -0.00031849 -0.011951 0.0019445 -0.0042628 0.0011286 0.000685 0.001131 9.2306e-05 0.00023787 -4.6251e-05 1.0304e-07 -0.00025355 4.9135e-05 -9.7323e-05 2.4989e-05 2.2228e-05
241 0.050101 0.0067248 0.035067 -0.012835 0.013565 0.0064571 0.011228 -0.0052442 0.014165 -0.00013416 0.0032376 0.00028908 0.001404 -0.00047739 0.00048058 0.00010832 0.00034067 -0.00017618 0.00032645 -3.9777e-06
242 0.042362 -0.00036113 -0.0025212 0.00050257 -0.0048845 -0.0025014 0.0054543 -0.0014123 0.0010243 -0.0034896 0.017654 -0.0014556 -0.00066067 -0.00024283 -0.0014389 -0.0011999 0.0014744 -0.0018198 0.00019349 -0.0012215
243 0.045635 0.0044855 -0.011872 0.0084087 -0.0067757 0.00055968 0.0062667 0.011202 0.00070121 0.0035986 0.01161 0.00081204 -0.0015891 0.00083306 -0.00040906 0.00043995 0.00085098 0.0020677 -0.00010095 -2.8576e-05
244 0.040784 0.0038042 0.0024953 -0.00077424 -0.00021178 -0.011381 -0.0035657 0.0030045 0.00026668 0.00063345 0.019719 0.0013246 0.0021656 -0.00041988 -5.256e-05 -0.0053848 -0.00056943 0.0021889 0.00085765 0.00027855
245 0.043162 0.004162 -0.00057175 -0.0010163 -0.0037475 -0.0036994 0.00083074 -0.0011532 0.0012315 -0.0006676 0.026458 0.0016194 -0.00013334 -0.00036949 -0.0018125 -0.0013257 0.00091075 -0.00058737 -0.00019628 8.4693e-05
246 0.04653 0.0050819 0.012448 0.0010282 -0.0090411 0.00445 -0.0053348 -0.0022853 -0.0018212 -0.0057349 0.0072467 0.00036518 0.0015779 -0.00017022 -0.00027114 7.8375e-05 -0.00036019 -0.00022231 3.0749e-06 -0.00059802
247 0.047067 0.0050839 0.01587 -0.0030351 -0.0055219 0.0015383 -0.00455 0.0017509 -0.00098681 -0.0042641 0.011177 0.00072881 0.0034368 -0.00053801 8.651e-05 0.00034299 -0.00026768 0.00047367 -0.00013123 -0.00038214
248 0.046483 0.0050832 0.014343 -0.0049006 0.001198 -0.0044882 -0.0082963 0.0016975 -0.00017026 -0.001525 0.011396 0.00079755 0.0028195 -0.00093599 0.00040978 -0.00060025 -0.00057698 -0.00022832 6.9803e-05 -0.00042339
249 0.050725 0.0068936 0.024998 -0.0010234 0.010184 -0.022223 0.0081925 -0.031467 -0.035247 0.054254 0.0010819 0.00011748 0.00062544 -0.00013048 0.0001942 -0.00025328 1.8277e-05 -0.00069301 -0.0008873 0.0013647
250 0.050079 0.006768 0.028452 -0.0066847 0.0012928 -0.0222 -0.001482 -0.020438 -0.0055624 0.016239 0.00042193 3.9335e-05 0.00011942 -2.6504e-05 -4.9688e-06 -5.9745e-05 1.0187e-05 -8.232e-05 -1.4074e-05 5.2723e-05
251 0.049446 0.0060763 0.02279 -0.0021275 0.0019905 0.010041 0.0098717 0.011086 0.03794 -0.006916 0.0024564 0.0002459 0.0013197 -0.00043564 0.00058408 0.00079394 0.00041282 0.00081354 0.00052735 -0.0002755
252 0.051508 0.0062929 0.061705 -0.01326 0.020853 -0.0272 -0.011869 0.082626 0.011381 -0.014523 0.0011295 0.00010009 0.00099977 -0.00024378 0.00035501 -6.094e-05 -3.9277e-05 0.00071267 0.00012869 -0.00024242
253 0.047551 0.0049998 -0.001886 0.0089508 -0.019178 -0.015727 -0.0073886 0.021066 0.017096 0.00045311 0.0039459 0.00028582 9.6378e-05 0.00056326 -0.00049137 -0.00093074 -8.9132e-05 0.00073812 0.00051571 -0.00023919
254 0.049002 0.0052473 0.0034228 0.0084234 -0.021096 -0.015529 -0.0089372 0.015174 0.023656 0.0034775 0.0041742 0.0002888 0.00054233 0.00025953 -0.00074951 -0.0010394 -0.00023914 0.00023468 0.00082899 2.1411e-05
255 0.050583 0.0073041 0.038374 -0.0017494 -0.0053441 -0.025206 -0.012609 -0.023285 -0.0015317 -0.0048682 0.00086505 9.3918e-05 0.00049627 -3.8683e-05 -2.8362e-05 -0.00026324 -0.00013949 -0.00019888 -6.0057e-05 -7.685e-06
256 0.047435 0.0039233 0.01947 0.0007116 -0.013024 -0.026185 -0.022663 0.0099755 -0.013212 -0.0089982 0.0029377 -4.9096e-05 0.00066807 -3.2417e-05 -0.00040156 -0.00082507 -0.00056822 0.00018073 -0.00033395 -0.00014622
257 0.047392 0.0045822 -0.013185 0.0021871 -0.0097384 0.0026813 0.015297 -0.0013896 0.010667 0.0042324 0.0046773 0.00024952 -0.00068631 0.00016929 -0.00035967 -0.00031676 0.00058179 -3.6236e-05 0.00055002 0.00014446
258 0.043681 0.0054442 0.033265 -0.0094333 0.0094294 0.0085119 -0.0015886 -0.0026237 -0.0018573 0.0027977 0.0026274 0.00024318 0.0013275 -0.00029066 0.00025082 -7.1835e-05 -4.8887e-05 -0.0001286 -8.1855e-05 8.0803e-05
259 0.051577 0.0057732 -0.023812 0.02343 -0.049502 0.033711 -0.0065906 -0.013292 0.1385 0.010175 0.00022337 1.6943e-05 -7.2701e-05 6.4963e-05 -0.00012984 8.7169e-05 -1.9421e-05 -3.1299e-05 0.00031481 2.4122e-05
260 0.04299 0.0038693 -0.0063861 0.00063019 -0.0054957 -0.005221 0.0031269 0.0099799 0.0033349 -5.6196e-05 0.01429 0.0013059 -0.0043639 -0.0008102 0.00070295 -0.00060916 0.00020009 0.0050859 -0.0004616 -0.0011968
261 0.042538 0.0045155 0.0099123 -0.0044813 0.0026511 -0.0051784 -0.004921 0.00016925 -0.00013697 -0.00072509 0.016944 0.0012936 0.0031168 -0.0016881 0.0013166 -0.0018735 -0.0011191 -6.9997e-06 -0.00063539 0.00088728
262 0.045229 0.0046704 0.010768 0.0020791 -0.0092916 -0.01731 -0.0094804 0.01116 -0.0032906 0.00027768 0.0047282 0.00023305 0.0010982 -0.0001034 -0.00018029 -0.00074258 -0.00015454 0.0001584 0.00016466 -6.4244e-05
263 0.049943 0.0057941 -0.019089 0.010156 -0.029711 0.008942 0.015202 -0.018097 0.077586 0.0093523 0.00083357 6.1921e-05 -0.00021972 0.00010468 -0.00029363 0.00011871 9.4357e-05 -0.00011377 0.00058499 7.1211e-05
264 0.048452 0.0052727 -0.011822 0.00087625 -0.016115 0.0058929 0.0078191 -0.0029146 0.0050355 0.0016381 0.0089623 0.0008225 -0.0023521 -4.9735e-05 -0.0021873 0.00094064 0.0020944 -0.00098366 0.0027741 4.7365e-05
265 0.044041 0.0041886 -0.0078577 0.0052965 0.0049925 -0.010186 -0.0040944 0.0046102 0.0034288 -0.0003303 0.011532 0.00078366 -0.0018573 0.00069942 0.0011336 -0.0014712 4.6866e-05 0.00030126 -0.00025304 -6.862e-05
266 0.042103 -0.00097648 -0.0044111 5.527e-06 -0.0018888 -0.010215 -0.0027155 0.0044752 0.001062 -0.0028229 0.017113 -0.0018852 -0.0011791 0.00018238 -0.00095727 -0.0050944 -0.00020174 0.0046085 0.00087142 -0.00017218
267 0.04809 0.006647 0.044618 -0.010351 0.0058007 0.0085108 -0.0089287 -0.020681 -0.0086861 -0.0077823 0.0024965 0.00023724 0.0015462 -0.00030787 0.00015241 3.6654e-05 -0.00025272 -0.0005406 -0.00025722 -0.00017263
268 0.038851 0.0027918 -0.00078279 -0.00078736 0.00045372 -0.0033137 0.0031818 0.00025097 6.2024e-05 -0.00093589 0.11527 0.0048256 -0.0045266 -0.0060095 0.0047567 -0.0076312 0.010993 0.001114 -0.0025879 -0.00087022
269 0.053233 0.0044654 -0.011261 0.014493 -0.027126 -0.013062 0.0054689 -0.0089675 0.065626 0.0078418 0.00155 4.6819e-05 -0.00031578 0.00018503 -0.00060709 -0.00035792 0.00010447 -0.00046922 0.0010019 -5.5023e-05
270 0.043801 0.005401 0.0090267 0.0007579 -0.020479 0.016415 -0.01608 -0.0033051 -0.031922 0.022644 0.0022696 0.00020874 0.00058677 -0.00014365 -0.00030763 0.00018388 -0.00025797 -0.00050954 -0.0012294 0.0013433
271 0.038466 0.0028893 -0.0037312 0.00021306 -0.001727 -0.0038576 0.0027156 0.00078246 0.0017502 -0.0011669 0.0038863 0.00017307 -0.00039292 4.5323e-05 -0.00021838 -0.00043856 0.0001322 0.00011743 0.00028815 -4.1324e-05
272 0.047721 0.0047584 0.010058 -0.010441 0.012485 0.0044625 0.0099411 0.0030098 0.0021416 -0.019908 0.001444 9.4809e-05 0.00012513 -0.00015099 0.00014917 7.2492e-06 0.00018796 3.6711e-05 2.7792e-05 -0.0002161
273 0.047644 0.0063613 0.030488 -0.0097018 0.0061632 0.0097429 -0.00099144 -0.0041229 -0.013918 0.010565 0.0049669 0.00059142 0.0029337 -0.00024449 0.0012684 -0.0011613 -7.0553e-06 0.0010288 -0.0010131 0.0015083
274 0.043415 0.0041976 0.0042109 0.0028854 -0.0039903 -0.019295 0.00013994 0.0024313 0.0019614 -0.00038062 0.008066 0.00050476 0.00032969 0.00040753 -0.0005483 -0.0018475 0.00014296 -0.00016502 0.00027603 -0.0003732
275 0.040155 0.0035651 -0.0014717 0.0083786 -0.0042008 -0.00056763 -0.00011876 0.0021868 0.0018891 -7.1339e-05 0.01937 0.0013123 0.00024876 0.0034928 -0.0020418 -0.0021241 -0.00051815 0.0032494 0.00010739 0.00019256
276 0.043789 0.0045903 0.005948 -0.0055608 0.0078846 -0.012513 -0.0062826 0.0046917 0.0037465 0.00067015 0.0086756 0.00063824 0.00081422 -0.00065952 0.00071662 -0.0014527 -0.00020839 -3.5514e-07 0.00019264 -9.6281e-05
277 0.043265 0.0043246 -0.0081633 0.0015061 -0.011687 0.004606 0.0039864 -0.0039979 0.014853 0.0050559 0.0061291 0.00045489 -0.00063838 -0.00012031 -0.00083847 0.00058079 0.00043165 -0.00029613 0.00077352 0.00041341
278 0.044261 0.004926 0.018425 -0.0053191 0.0010755 0.00073625 -0.0017175 -0.0042703 -0.005596 -0.0037531 0.0087178 0.00066619 0.0031865 -0.00074166 0.00032227 -0.00075547 -9.3461e-05 -0.00077189 -0.00051023 -0.00038162
279 0.046497 0.0054771 -0.0032527 -0.010883 0.019293 -0.025306 -0.027235 -0.019735 0.0091416 0.03529 0.0023688 0.00024258 0.00028118 -0.00032788 0.0004154 -0.00074597 -0.00043611 -0.00099443 8.7081e-05 0.0018984
280 0.05073 0.0059707 0.0060093 -0.010752 0.014231 0.0032724 0.0024123 -0.00031106 0.020596 -0.00058886 0.0049156 0.00037209 0.00032607 -0.00053791 0.0006085 1.4484e-05 0.00028774 3.5975e-07 0.00072892 -7.4626e-05
281 0.047359 0.0051093 0.032869 -0.0087798 0.0035915 0.021725 -0.00094093 0.0075551 0.0011501 -0.0080981 0.0031339 0.00017798 0.0017129 -0.00042353 0.00035331 0.0003261 6.8325e-05 -3.5105e-05 4.9956e-05 -0.00021515
282 0.038803 0.0022595 0.00051344 -0.00028659 -3.7144e-05 -0.0041889 0.0026368 -0.0002828 0.00040153 -0.00092558 0.13659 0.0012179 0.0035057 -0.0039766 0.00039182 -0.018076 0.011062 -0.0015169 -0.0011635 -0.0033377
283 0.045965 0.0040102 -0.012695 0.003679 -0.014272 0.0014363 0.0066478 0.00084896 0.019645 0.005639 0.005086 0.00029468 -0.0030297 -0.0010053 0.00063908 -0.0002997 0.0068198 0.00063112 -0.0022898 -0.00085799
284 0.044806 0.0047478 0.004211 -0.0036431 0.0004587 -0.0019212 0.0016302 -0.0048207 -2.3694e-05 -0.0039403 0.017784 0.0012509 0.0016647 -0.001092 0.00053931 -0.001326 0.00077942 -0.0011029 -0.00017625 -0.0008465
285 0.043349 0.0044593 0.0067502 -0.001 -0.0037493 -0.0029479 0.0018375 -0.00095128 7.7258e-05 -0.0019945 0.031048 0.0027233 0.0060735 -0.00077273 -0.0022571 -0.001659 0.0010916 -0.0030425 0.0013024 -0.00096826
286 0.043003 0.0037132 -0.0022087 -7.5345e-05 -0.0052714 -0.0065159 0.0024983 0.0015065 0.00096919 -0.0040023 0.013765 0.00066176 -0.00051294 -0.00034534 -0.00037613 -0.00134 0.0012273 5.6938e-05 3.9625e-05 -0.00066834
287 0.039418 0.0037166 -8.8729e-05 -0.00033703 0.00052378 -0.0050973 0.0027344 -0.00063062 2.5133e-05 0.0011002 0.059547 0.0042339 -0.00027968 -0.0011528 0.0022664 -0.0093329 0.0053818 -0.002097 -0.00016794 0.00094772
288 0.054067 0.0074156 0.0030129 0.0043412 -0.040747 0.019013 -0.023944 0.011736 -0.029814 0.0038268 0.00080597 7.1525e-05 0.00015046 1.2883e-05 -0.00019836 -2.3567e-05 -0.00013408 -3.016e-05 -0.00012238 -3.7178e-06
289 0.0451 0.0044797 -0.0025588 -0.001186 -0.0039554 -0.0026223 0.016155 -0.0076024 0.012482 -0.0011741 0.003214 0.00022089 0.00013972 -0.00014532 -6.0359e-05 -0.00025593 0.00037187 -0.00034204 0.00026522 2.5932e-05
290 0.040027 0.0039637 0.0095573 -0.00020802 0.0017502 -0.0042175 0.0017848 -0.00063068 -0.0023286 -0.0024073 0.046673 0.0035968 0.014604 -0.0023959 0.0044175 -0.0038237 0.0032988 -0.00077774 -0.00013768 -0.0019415
291 0.04849 0.0061077 0.028844 -0.0040892 -0.0015169 0.0029308 -0.0087655 0.015365 -0.0014379 -0.01201 0.0062419 0.00059377 0.0034651 -0.00074908 0.00074919 0.00072286 -0.00016962 0.0011021 -8.9744e-05 -0.00089706
292 0.041943 -0.16492 -0.0029568 -0.0017683 0.0016143 0.0012763 0.0011942 -0.0016271 -0.00082839 0.00083554 0.0011977 -0.0066883 -0.00015123 -0.00010051 0.00011978 6.3992e-05 6.6109e-05 -8.5709e-05 -4.5813e-05 4.3418e-05
293 0.047507 0.005207 0.014562 0.006006 0.01919 0.0054098 0.010123 -0.0020679 0.0064013 0.011631 0.005389 0.00040244 0.0017859 0.00021535 0.0014373 0.00030843 0.00049605 -0.00010272 0.00020696 0.0015008
294 0.040063 0.0030861 -0.00018854 0.0019759 -0.0022359 -0.0051481 0.0013164 -0.0020011 0.0026014 -0.0030802 0.055293 -0.0025277 0.0017731 0.0035125 -0.0036307 -0.01022 -0.00026555 -0.00266 0.0024964 -0.0063937
295 0.042421 0.0044914 0.013537 -0.0031217 0.00034627 -0.0056738 -0.0016711 0.0041858 -0.00019766 0.00061052 0.010593 0.00081703 0.0025344 -0.00074844 0.00046044 -0.0012501 1.5455e-05 -0.00046714 9.9121e-05 -0.00052257
296 0.058365 0.0076455 -0.028967 0.018014 -0.074807 0.060821 -0.030557 0.028246 0.0011576 0.0099338 0.00085878 7.0154e-05 -0.00022883 0.00015834 -0.0005237 0.00037681 -0.00018156 0.00012196 0.00017205 5.5679e-05
297 0.050833 0.0063736 0.015105 -0.0032482 -0.010518 0.0091407 -0.0033302 -0.014505 0.013176 -0.002957 0.0045697 0.00032131 0.00083151 -0.00027375 -0.00019517 6.301e-05 1.1635e-05 -0.00059464 0.00029984 -0.00013585
298 0.043211 0.0043296 9.3749e-05 0.0025295 -0.0091786 -0.0062402 -0.00057666 0.0040532 0.0045702 0.0014009 0.016357 0.0011658 0.0011629 0.00033414 -0.0018402 -0.0055419 -0.0024696 0.0047093 0.0004162 0.00092265
299 0.048022 -0.016607 0.031854 -0.010341 0.005328 0.013439 -0.0030626 -0.006039 -0.013791 -0.0040567 0.0042849 -0.0034494 0.0016289 -0.00046723 0.00027138 0.00024684 -4.8078e-05 -0.00014968 -0.00038185 -0.00013419
300 0.042661 0.003861 0.001771 -0.001664 -0.0020355 -0.0055561 4.9993e-05 -0.0012246 0.0019842 -0.0016714 0.028576 0.0013485 0.00071468 -0.0011074 -0.00032092 -0.0030516 0.00055299 -0.00087656 0.00023091 -0.00042554
301 0.044938 0.0045303 0.005013 -0.00039271 0.0067874 -0.0052312 0.0025108 -0.0029956 0.0035389 -0.0040419 0.017652 0.0011119 0.0020584 -0.00059986 0.0018938 -0.0012876 0.00098655 -0.001285 0.00015667 -0.00072871
302 0.043051 0.0048089 0.019776 -0.0046627 -0.0060272 -0.01516 -0.010671 -0.035023 -0.018391 0.001877 0.0010163 8.2983e-05 0.00040979 -0.00010071 -3.775e-05 -0.00024664 -0.00013327 -0.00035144 -0.00017929 0.0001477
303 0.04835 0.0029108 -0.049958 -0.023376 0.027239 0.0029198 0.02101 0.0066581 -0.01713 -0.0014894 0.00041966 1.8609e-05 -0.00030343 -0.00013199 0.00015696 7.4713e-06 0.00011958 2.8588e-05 -8.087e-05 -7.1093e-06
304 0.049092 0.0050308 -0.020077 -0.001845 -0.0086179 0.0066286 0.0018845 -0.0022009 0.0075006 -0.0030691 0.0071267 0.00043351 -0.0015638 -5.2979e-05 -0.00066144 0.00033483 0.0002982 -0.00020979 0.00054667 -0.00020774
305 0.040991 0.0034227 -0.000107 0.0045419 -0.0040046 -0.0056897 0.00096451 0.00099693 0.0031877 -0.0026142 0.02733 0.0013473 -0.00081378 0.0019251 -0.0020138 -0.0029605 0.0015548 -0.00011686 0.0012414 -0.0012873
306 0.048612 0.0062905 0.037313 -0.0056708 0.0091516 -0.011203 0.0012087 -0.0035367 0.0079653 0.0036927 0.0031074 0.00029509 0.0017566 -0.00034192 0.00048201 -0.00022385 8.5834e-05 -1.6069e-05 0.00013022 -2.5048e-05
307 0.046698 0.0056899 0.023582 -0.0030911 -0.0018289 -0.010555 -0.0052654 -0.018308 -0.00084767 0.0081949 0.0055036 0.00047802 0.0018734 -0.00034727 -7.431e-05 -0.00093171 -0.00029534 -0.0015081 -0.0001073 0.001612
308 0.044186 0.0043624 0.0077059 -0.0086183 0.0088957 -0.012838 0.022765 -0.012306 -0.025656 0.019675 0.0025181 0.00017725 0.00059983 -0.00045188 0.00045333 -0.00047801 0.00084041 -0.00070127 -0.001344 0.0012779
309 0.044046 0.004464 0.0077356 0.020992 0.0091514 -0.019971 -0.0024849 0.014114 0.00092082 0.0045619 0.0038938 0.00027103 0.00039733 0.0010545 0.00050068 -0.0009307 0.00025509 0.00039892 0.00018347 0.00018185
310 0.044322 0.0045016 0.0055354 -0.0021809 0.0022058 -0.0024591 0.0040484 0.0070534 0.011414 -0.0026994 0.0080979 0.00055336 0.00074948 -0.00019723 0.00015281 -0.00056784 0.00045426 0.00020111 0.00065916 -0.00032629
311 0.048837 0.0041191 -0.0025542 0.011097 -0.0086036 -0.034108 0.0025917 0.0043807 0.015275 -0.0021397 0.00097874 4.2381e-05 -8.4888e-05 7.9455e-05 -5.6099e-05 -0.00024024 1.3745e-05 8.2619e-05 0.00010642 -2.2692e-05
312 0.049603 0.0051803 -0.031884 -0.022414 0.035548 -0.0038938 -0.045236 -0.013453 0.012636 -0.0090524 0.0012637 8.8414e-05 -0.00053042 -0.00029894 0.00041114 -6.3561e-05 -0.00032479 -0.00015856 0.00015058 -9.7584e-05
313 0.046274 0.0042953 -0.019471 -0.0085509 0.0040913 0.00064919 -0.0074398 0.017529 -0.015701 0.0028634 0.0059248 0.00039403 -0.0022643 -0.0010047 0.00073216 -0.00010862 0.0011611 0.0011392 -0.0013525 2.3891e-05
314 0.040422 0.0038444 -0.00073552 -0.0005163 -0.00029625 -0.0048211 0.0028643 -0.0011521 -0.00036647 0.00013621 0.062738 0.0043912 -0.0011999 -0.0022013 0.0004705 -0.0075499 0.0052426 -0.0024413 -0.0020345 0.00079606
315 0.041836 0.0037747 -0.0041299 4.8313e-05 -0.0046182 -0.0051185 0.0028881 0.0017318 -0.0021792 -0.0016492 0.022502 0.0013054 -0.0025744 -0.00057504 -0.00019436 -0.0018014 0.0016432 0.00020731 -0.00037506 -0.00043027
316 0.044226 0.0045552 0.0064518 -0.0010393 -0.0023032 0.0022703 0.0042589 0.0029402 0.005167 0.0021953 0.0066799 0.00042347 0.00050617 -0.00012387 -0.00020335 -0.00054223 0.00054149 0.0002978 0.00038401 0.00018175
317 0.04299 0.0040736 0.0028534 -0.00097443 0.0012582 -0.009801 -0.0041299 -0.00092599 0.0045015 0.0044798 0.015347 0.0012387 -0.00051897 0.0049326 0.0095385 -0.001722 0.0014089 -0.0013807 -0.0029642 0.00040896
318 0.044673 0.0046089 -0.011864 -0.0021461 -0.0071293 0.0052953 0.013371 0.0054199 -0.007396 0.0031998 0.0031785 0.00021696 -0.00063138 -1.9082e-05 -0.00028658 9.8872e-05 0.00055923 0.00016804 -0.00012747 0.00010295
319 0.043657 -0.0079592 -0.0029104 0.0032091 -0.0057966 -0.007381 0.0027215 0.0015115 3.3902e-05 -0.00058411 0.0066331 -0.0026328 -0.00043294 0.00018165 -0.0004554 -0.00045698 0.00045618 0.00010904 0.00018144 -7.4357e-05
320 0.043476 0.0061466 0.03653 -0.011727 0.011138 -0.013456 -0.0015365 -0.052733 -0.073214 0.1159 0.0004767 6.7202e-05 0.0004953 -0.00015617 0.00014886 -0.00010823 -3.8053e-05 -0.00060165 -0.00083046 0.0012941
321 0.053946 0.0060926 -0.02703 0.045789 -0.01264 0.037858 -0.0094925 0.020494 -0.028562 0.0083205 0.0020783 0.00014084 -0.00056789 0.0011265 -0.00013508 0.00064113 -0.00014734 0.00030019 -0.00039405 0.00013398
322 0.046928 0.004688 -0.0034397 -0.0032626 -0.0015843 0.0038951 0.012025 0.0042932 -0.00029211 -0.0014924 0.0050632 0.00034167 -0.00062743 -0.00030106 1.5544e-05 0.00018031 0.00064565 -3.2808e-05 0.00020993 -1.7244e-05
323 0.049329 0.0047749 -0.018031 -6.7702e-05 -0.0053749 -0.0025403 0.016658 0.0021674 0.0054071 0.0028141 0.0049544 0.00029433 -0.0015049 -0.00034029 0.0001927 -0.0002569 0.00055294 7.9106e-05 0.00034977 0.00015967
324 0.041856 0.0038844 -0.0078604 -0.0022223 0.0022878 -0.0055772 0.0027515 -0.00030575 0.00023768 -0.00038821 0.015321 0.00095337 -0.0019468 -0.00039747 0.00045357 -0.0015876 0.0011764 -9.3721e-05 7.3678e-06 -0.00019415
325 0.047601 0.0067448 0.057194 -0.017763 0.026356 0.019173 0.010257 0.008689 0.0039681 -0.023893 0.001077 0.00012084 0.00097871 -0.00027433 0.00038223 0.00028608 8.6866e-05 5.9123e-05 -1.0973e-06 -0.00021666
326 0.049413 0.0068613 0.044584 -0.0088558 0.0037842 -0.0050087 -0.010506 -0.031966 -0.010407 -0.03981 0.0018552 0.00018017 0.0011236 -0.00022775 0.00016158 -6.21e-05 -0.00014339 -0.00047981 -0.00014842 -0.00059082
327 0.045222 0.0051968 0.011591 -0.0042218 -0.0013829 -0.0026249 0.0025649 0.0017445 -0.008219 -0.00096953 0.014584 0.0012708 0.0036981 -0.0015947 0.00064727 -0.00016699 0.00045806 0.00098844 -0.0017787 0.00080813
328 0.045034 0.0039788 -0.012132 -4.1066e-05 -0.008774 -0.0011138 0.0032645 0.0038783 -0.0015542 0.0022986 0.0083256 0.00017545 -0.0023201 -5.7916e-05 -0.00024434 -0.0011384 0.0011497 0.0010703 0.00022681 0.00019695
329 0.04308 0.0039987 -0.0054065 0.0014621 -0.0054404 -0.0047719 0.0079598 -0.0025697 0.0066474 -0.0063091 0.016866 0.0010027 -0.001725 0.00025564 -0.0010593 -0.0015727 0.0018474 -0.00047248 0.0011253 -0.0014768
330 0.041746 0.0038186 0.00033806 0.018473 0.012187 -0.0020225 0.0033338 -0.0030795 -0.0026823 0.0018478 0.0038116 0.00026546 -3.4844e-05 0.00068817 0.00068498 -0.00017198 8.258e-05 -0.00018892 -0.00014433 1.9862e-05
331 0.059017 0.0071308 -0.013822 0.0096289 -0.032471 0.040685 0.001126 0.013703 0.035543 0.0010616 0.0019417 0.00014322 -0.00018512 0.00017993 -0.00049207 0.00050894 1.9151e-05 0.00015301 0.00057957 -2.6944e-05
332 0.043825 0.0046114 0.0071425 -0.0054585 0.0018205 -0.0084593 0.011315 -0.0074508 -0.013556 -0.006011 0.0040543 0.00035789 0.00076168 -0.00051358 0.00017202 -0.00088444 0.0007337 -0.00061387 -0.00080384 -0.00037127
333 0.046349 0.0047626 0.014145 -0.0064386 0.0033024 0.0019043 0.0073917 -0.0015267 -0.0043888 -0.0045625 0.0080653 0.00050595 0.0018738 -0.00061121 0.000456 -0.00050869 0.00079603 -6.1419e-05 7.8877e-05 -0.00044173
334 0.044249 0.0049591 0.0063239 -0.0025959 -0.0012378 -0.0068299 -0.0081284 -0.0042977 0.011325 0.0048712 0.016131 0.0018249 0.0013398 -0.002496 0.0024998 -0.0044479 -0.005811 -0.0042351 0.0043384 0.0063459
335 0.046616 0.005207 0.018231 -0.0041103 0.0045231 -0.01161 0.0080508 -0.0066735 -0.0035415 0.0047887 0.0066568 0.00054037 0.0022215 -0.00047497 0.00033218 -0.00095278 0.00031662 -0.0010379 -0.00084542 0.0010876
336 0.044782 0.0047119 0.0068787 0.00040578 -0.0039474 -0.0084586 0.0011055 -0.0028953 -0.0012279 -0.0085004 0.0086127 0.00061003 0.0013746 -0.00024129 -2.6568e-05 -0.00096768 0.00035145 -0.00024589 3.8547e-05 -0.00068785
337 0.062382 0.0077528 -0.030966 0.014017 -0.069082 0.043826 -0.0076461 0.011801 0.016711 0.013533 0.00067015 -7.3405e-05 -0.0001615 0.00010226 -0.00030539 0.0001432 -3.374e-07 3.5852e-05 0.00013826 3.2807e-05
338 0.044669 0.0041726 -0.0036431 -0.0057083 0.0080898 -0.0015901 0.0075441 -0.00016926 0.0042037 -0.0024994 0.013726 0.00092991 -0.00056136 -0.00010886 0.0008545 -0.0021526 0.00033919 0.0017415 0.00064629 -0.0017894
339 0.041366 0.0029536 -0.014264 -0.0030584 0.0039762 -0.0092856 0.017536 0.0012117 -0.001778 -0.0031776 0.0043562 0.00013263 -0.0019376 -0.00068833 0.00078415 -0.00023103 0.0011304 5.3736e-05 -0.0002373 -0.00013974
340 0.04089 0.0042871 0.0094617 -0.00081059 -0.0020033 -0.006213 -0.00037727 -0.0022278 -0.0014193 0.00022944 0.029817 0.0024487 0.0062381 -0.00066882 1.4516e-05 -0.0048101 0.00050383 -0.0023693 -0.00093761 0.001117
341 0.042257 0.0042986 0.0063274 0.00065013 -0.0055817 -0.0084607 -0.00045374 -0.0013769 -0.0025349 -0.00096557 0.008989 0.00063283 0.001116 -6.5238e-05 -0.00051017 -0.001381 0.00022903 -0.000229 -2.1784e-05 -0.0001844
342 0.04139 0.0039854 0.0048486 -0.0017411 0.00032588 -0.0053599 0.00090523 -0.00077856 -0.00063645 -0.0025643 0.045409 0.0031533 0.0064946 -0.0013594 0.0016195 -0.00391 0.0015995 -0.00037626 0.00085374 -0.0013901
343 0.049823 0.0069354 0.034364 -0.0042181 -0.0047538 0.00063899 -0.010273 -0.030433 0.017475 -0.012158 0.0032928 0.00034043 0.0014362 -0.00019741 -0.00010466 -0.00022273 -0.00028904 -0.00080939 0.00029906 -0.00051127
344 0.048677 0.0046963 0.011272 0.0075204 -0.0071267 -0.050686 -0.0096891 0.038361 0.011128 0.0038254 0.0017611 0.00010907 0.000282 8.9284e-05 -0.00011637 -0.00076296 -0.00010481 0.00043648 0.00012774 2.2927e-05
345 0.042905 0.0037065 -0.0021519 0.0070344 -0.00016045 -0.029014 -0.0028489 0.027168 0.0061683 0.0025529 0.0033173 0.00025577 -0.00014432 0.0017579 0.00025342 -0.0012224 -7.298e-05 0.0010501 0.00068025 -2.6768e-05
346 0.043367 0.0042227 -0.0020918 -0.00036511 -8.4401e-06 -0.0033858 0.002431 -0.00097742 -0.00060759 0.0015008 0.030035 0.0018904 -0.0019028 -0.0010114 0.00049668 -0.0024246 0.0023562 -0.0014163 -0.0007473 0.0015263
347 0.04424 0.0041833 0.0026686 -0.0036777 0.0029746 -0.01867 0.0074801 0.0087618 -0.0042547 0.0012351 0.0058955 0.00037804 0.00024409 -0.00023639 0.00023481 -0.001241 0.00042557 0.00038527 -0.00011169 1.044e-05
348 0.042026 0.0044527 0.005572 -0.0022434 -0.00077323 -0.0088946 -0.0026244 -0.013392 -0.0044594 -0.010014 0.0040644 0.00037762 0.00044798 -0.00026829 0.00032463 -0.00055545 0.00014592 -0.00084264 -0.00042625 -0.00033953
349 0.03593 0.0034044 -0.0041515 -0.00099486 -0.0013239 -0.0034987 0.0011343 0.0013424 0.00028665 0.0012246 0.0025626 0.00038467 -0.00039821 -0.00012782 -0.00040539 -0.0010673 6.2987e-05 0.00065937 -2.2019e-05 0.00018999
350 0.045638 0.0051942 0.021054 0.0047956 -0.0043961 -0.030802 -0.0036054 -0.0073862 0.0054153 -0.0037414 0.0014443 0.00012921 0.00070754 -4.5062e-05 1.6451e-05 -0.00038164 -0.00010268 -0.00022755 -8.4068e-05 -4.9045e-05
351 0.050562 0.0042569 -0.0011223 0.0063929 -0.018501 -0.026095 -0.012775 0.039515 0.00049011 0.0062846 0.002561 4.4635e-05 -2.3211e-05 8.6263e-05 -0.00034046 -0.0010206 -0.00044385 0.0014413 5.1497e-05 0.00025539
352 0.041291 0.0039164 -0.0049697 0.0016877 0.004346 -0.0082215 0.0030609 -0.0059631 -4.0931e-05 -0.0027735 0.018005 0.0017131 -0.0004706 0.00015186 -0.00059945 -0.004045 0.00081971 -0.004953 -0.00075754 -0.0030223
353 0.042707 0.0052342 0.018613 4.1372e-05 -0.0097003 -0.015828 -0.015274 -0.029221 -0.0075098 -0.033662 0.0014878 0.00014335 0.00056567 -8.3128e-05 -0.00013307 -0.00039228 -0.00018632 -0.00050786 -0.00016302 -0.0004134
354 0.053359 0.00711 -0.011684 0.0042705 -0.040722 0.03973 -0.0054711 0.0018523 -0.0043114 0.0098752 0.0019722 0.00017155 -0.00033493 3.7666e-05 -0.00076021 0.00071153 -5.9312e-05 0.00012036 -0.00031956 0.00017023
355 0.043563 0.0037314 -0.0095035 -0.0031815 -0.0032469 0.0033052 0.0038551 -0.0011324 0.003727 -0.0023947 0.016102 0.00071373 -0.002598 -0.00096727 -0.0003348 -0.00013699 0.0012149 0.00016273 0.00049751 -0.00017706
356 0.046242 0.005023 0.0097207 -0.0020858 -0.0018653 -0.0051074 0.0068562 0.0090746 0.0080907 0.00081336 0.0096411 0.00071719 0.0015994 -0.00032983 -9.8243e-05 -0.0012807 0.00066051 0.00067802 0.0008442 0.00034509
357 0.046223 -0.0019817 -0.0028936 0.0013121 -0.0097429 -0.0014793 0.0024392 0.0034855 0.010561 -0.003354 0.011706 -0.0021039 -0.0010956 0.00040132 -0.0020117 7.306e-05 0.0003154 0.00053675 0.0005962 -0.00062953
358 0.043534 0.0052169 0.014308 -0.0042979 0.0012655 -0.00027841 0.0048636 -0.004569 -0.0047238 -0.0034621 0.0072913 0.00075499 0.00196 -0.00049598 -7.9503e-05 -0.00023632 0.00033287 -0.0011123 -0.00038827 -0.00076868
359 0.045901 0.0058244 0.025487 -0.0033393 0.0012863 0.0029938 -0.0034779 8.6492e-05 -0.004574 -0.00029302 0.0047424 0.0004959 0.0016697 -0.00024554 2.7216e-05 0.0002259 -8.0758e-05 5.2567e-05 -0.00044182 -0.00016198
360 0.049761 0.0068676 0.055628 -0.016463 0.033909 0.031829 0.014436 -0.0030985 -0.0056042 0.022808 0.0015459 0.00016004 0.0011839 -0.00033365 0.00051016 0.00025913 0.00012302 -0.00052197 -0.00069138 0.0011626
361 0.043833 0.004631 0.0095351 0.0082854 0.00079421 0.00057541 -0.0033515 0.008857 -0.00090981 0.0032599 0.0090348 0.00067717 0.0012243 0.0014749 0.0007168 -5.016e-05 -0.00012868 0.00073599 -0.00025041 -3.5376e-05
362 0.044632 0.0056943 0.038609 -0.013788 0.017172 0.021924 0.0039438 0.0013525 0.012443 0.0052322 0.0013747 0.00012343 0.00065332 -0.00019526 0.00018738 0.00012659 5.1605e-05 -5.7381e-05 0.00010996 7.0551e-05
363 0.04509 -0.00029881 0.007348 -0.0036852 0.0021963 -0.0095381 -0.00083669 -0.0006618 -0.00026158 -0.0039825 0.017184 -0.0020186 0.0024952 -0.00065001 -0.0001755 -0.0033734 -0.00048357 0.0002277 -0.00036528 -0.0012398
364 0.043504 0.0047412 0.010184 -0.0019102 6.9247e-05 -0.010586 0.0043935 0.00083353 -0.0040027 0.00092639 0.013979 0.0010979 0.0030531 -0.00045666 0.00040567 -0.0020513 0.00067631 -0.00052499 -0.0011432 0.00081987
365 0.052201 0.0070171 0.027265 -0.007225 -0.0081073 0.019794 -0.0082448 0.0048848 -0.021484 -0.010038 0.001924 0.00017864 0.0007976 -0.00020107 6.9003e-06 0.00014069 -0.00010674 -0.00011265 -0.00025205 -0.0001366
366 0.044882 0.0049834 0.023179 -0.0064117 0.0048838 0.00076723 -0.0025254 0.0080247 0.0096411 -0.00030174 0.0054991 0.00038406 0.0016152 -0.00064264 0.00062619 -0.00015989 -3.3102e-05 0.0004635 0.00025757 -4.8621e-05
367 0.04936 0.0062273 0.021874 -0.0071467 0.0069608 -0.0089541 0.010938 -0.0081099 0.0019132 0.0087988 0.00377 0.00035655 0.0018274 -0.00058096 0.00063421 -0.00013764 0.00036165 -0.00064719 -0.0006041 0.0010408
368 0.041985 0.00075537 0.00036393 -0.00086758 -0.0030293 -0.010294 0.0019494 0.0043792 -0.0035575 -0.0020978 0.01282 -0.0021194 -0.00012304 -0.00037768 -0.00018435 -0.0024268 0.00045572 0.001209 -0.00026062 -0.00022044
369 0.042108 0.0041252 0.006718 -0.0023986 0.00017614 -0.0054899 0.00031644 -0.0011017 -0.0018511 -0.0027443 0.03742 0.0024319 0.0071297 -0.002197 0.00070312 -0.0032454 0.00070917 -0.0013797 -0.0012828 -0.0011241
370 0.041833 0.0038692 -0.0011584 0.0065696 0.0032997 -0.00047883 0.0087928 0.00020812 0.0079952 -5.1465e-07 0.012586 0.0007565 -0.00042594 0.0010822 0.00056327 -0.00044119 0.0015469 -9.9092e-05 0.00094592 1.5641e-05
371 0.043315 0.0034563 -0.020438 -0.0053801 -0.0052497 0.009831 0.00099478 0.010468 -0.012262 0.0017164 0.002524 0.00010936 -0.00084099 -0.00036388 0.00023072 4.293e-05 0.00022764 0.00031081 -0.00018119 4.9154e-05
372 0.04381 0.0048683 0.0075415 0.0075471 -0.0058274 -0.0012353 -0.0072628 0.0057412 -0.012285 0.0063519 0.010248 0.0008237 0.0023369 0.00061101 -0.00011307 -0.00080485 -0.00055855 -0.00039606 -0.0017894 0.0015449
373 0.043767 0.0042829 -0.00077892 -0.00085908 0.0024308 -0.0023712 0.0035333 -0.00030461 -0.0014022 -1.5365e-05 0.025831 0.0015778 -0.00061146 -0.0011912 0.0018377 -0.0013059 0.0025722 -0.00041665 -0.0012152 0.00091855
374 0.040255 0.0036478 -0.0071988 -0.0018198 0.00028256 -0.0032451 0.0042667 -0.00076066 -0.0017805 0.0019667 0.039884 0.0027525 -0.0077501 -0.00049779 0.0028264 -0.0048726 0.0060549 0.00022743 0.00064837 0.0017474
375 0.042919 0.0046418 0.021001 -0.0026288 0.00051827 -0.02097 -0.0010961 -0.016763 -0.0010682 0.027864 0.0030593 0.00023465 0.0011487 -3.985e-05 5.3715e-05 -0.00097747 -3.114e-05 -0.00095402 2.6e-05 0.001929
376 0.040201 0.0038797 0.0038003 -0.00042794 0.0018205 -0.0050032 0.002409 3.2198e-05 -0.0012074 -0.0020164 0.055329 0.0039613 0.0076161 -0.00090492 0.0036282 -0.0064755 0.0031524 0.001654 -0.001069 -0.0016556
377 0.046437 0.0053662 0.024284 -0.007631 0.0068824 -0.0067635 -0.0083844 0.007565 -0.002106 0.0019195 0.0045603 0.00050676 0.0020031 -0.00059519 0.00062045 0.00048278 -0.00065076 -0.00038063 0.001701 -9.2055e-05
378 0.043224 0.0042844 0.005719 0.0023203 0.00021008 -0.0055012 0.0026838 0.0011385 -0.0010447 0.00013786 0.020152 0.0012601 0.0024186 0.00052428 0.00061653 -0.0025553 0.00079567 -0.00046933 -0.00039563 3.7432e-05
379 0.035389 0.0018373 -0.015851 -0.0050365 0.0044449 -0.00028243 0.007234 0.00046305 0.0047087 0.00029202 0.00023497 5.945e-06 -0.00015673 -5.3545e-05 4.6368e-05 -7.6654e-06 9.2124e-05 9.4437e-06 5.0311e-05 3.1526e-06
380 0.0451 0.0045182 -0.00097297 -0.0089148 0.0081495 0.0035022 0.0075213 0.005235 0.0069166 -0.0014432 0.011625 0.00078008 0.00020398 -0.0017912 0.0018488 0.0010015 0.0015465 0.0010128 0.00070606 -0.00037573
381 0.046809 0.0052166 0.020962 0.0030593 -0.0024908 -0.042148 -0.0073215 0.0087483 0.0069791 0.030022 0.003303 0.00031342 0.0014592 -9.6117e-05 0.00020987 -0.0012597 -0.00013283 -0.00064881 0.00033622 0.0028606
382 0.043005 0.0042853 -0.002834 -0.001653 0.00016372 -0.010632 0.0028454 -0.0031737 0.0055293 0.0049237 0.016911 0.0012248 -0.0017428 -0.0002702 -0.0014365 -0.00088767 0.00088906 -0.00083033 0.002232 0.002881
383 0.042669 0.004342 0.0049664 -0.0021431 -0.0015038 -0.0051848 0.00064127 0.00088613 0.0013789 0.0004381 0.022385 0.0019354 -6.3174e-05 -0.001827 0.0010037 -0.0030374 0.0016598 -0.0013617 0.0012162 -0.00059301
384 0.040706 0.0035926 0.015486 -0.00099085 0.0021402 -0.0074972 -0.00025184 -0.0066478 -0.0019617 0.0018614 0.00062754 2.683e-05 0.0002284 -2.2802e-06 2.7709e-05 -0.00011552 -6.2931e-06 -5.7902e-05 -1.3791e-05 2.6006e-05
385 0.046595 -0.069809 -0.0018394 -0.003072 -0.0010795 -0.0078302 0.0044063 -0.0087458 -0.00010136 0.00038134 0.0012371 -0.0027497 -1.515e-05 -3.9037e-05 -1.145e-06 -8.9044e-05 6.4634e-05 -0.00012152 -2.2822e-05 9.558e-06
386 0.04335 0.0054848 0.027349 -0.0038383 0.0022112 -0.0066372 -0.0042246 -0.012958 -0.00017672 -0.0079192 0.0061403 0.00063109 0.0029702 -0.00034647 0.0002645 -0.00096782 -0.00028011 -0.0013754 -0.0005112 -0.00050113
387 0.042385 0.005394 0.024334 -0.0057949 0.0026992 -0.0062881 -0.0044969 -0.018288 -0.027101 0.0223 0.0021882 0.00025075 0.0012794 -0.0003756 0.00036685 -0.000166 -3.2055e-05 -0.00063812 -0.0011989 0.0012984
388 0.046077 0.0046816 -0.0038336 -0.00094801 -0.0034409 -0.0050814 -0.0063958 0.0068556 0.0035335 -0.00095188 0.010802 0.00079295 -0.0015249 -0.00011224 -0.0012665 0.00012189 -0.00012768 0.00090911 0.0011335 0.00018327
389 0.037495 0.0039629 0.003105 -0.00011755 -0.0069833 -0.0074295 -0.0003774 -0.0023998 0.00055964 -0.00087427 0.00021973 2.5698e-05 3.232e-05 -5.4793e-06 -5.042e-05 -7.0541e-05 -2.9416e-06 -3.0151e-05 3.2199e-06 -2.566e-06
390 0.044044 0.0029954 0.019641 -0.0027597 0.0025126 -0.0084686 0.001131 -0.0052803 0.00084649 -0.0006307 0.0020384 -9.4651e-05 0.00080411 -0.00012723 0.00012814 -0.00023913 1.4245e-05 -0.00012698 2.926e-05 -3.385e-05
391 0.043289 -0.0012919 -0.0053095 -0.0011455 -0.0050327 0.00090641 0.0064604 -8.0727e-05 0.0026135 -0.0013925 0.014964 -0.0020929 -0.0016224 -6.88e-05 -0.0018574 -0.00036739 0.00043589 -0.00082472 6.7689e-05 -0.0015203
392 0.040003 0.0021404 -0.00023131 -0.00033844 -0.0014198 -0.0062399 0.0036761 -0.00035381 0.0013872 -0.00030411 0.064475 6.8309e-05 -0.0012031 -0.00049877 -0.0038044 -0.0099275 0.0027395 0.0024949 -0.00076147 0.0014689
393 0.038502 0.0025638 -0.0019246 0.00074013 -0.0020399 -0.003253 0.0025422 0.00057151 0.0010402 -0.0011098 0.32697 0.0084904 -0.034069 0.017406 -0.021514 -0.039494 0.018172 0.024096 0.0094623 -0.014244
394 0.039882 0.0032228 -0.0072566 -0.0016236 -0.00068154 -0.0025036 0.0052981 0.00093206 0.0014188 -0.0011687 0.053062 0.0024457 -0.01139 -0.0022897 -0.00031045 -0.0027446 0.008114 0.0010108 0.00061104 -0.00075174
395 0.048201 0.005925 0.017192 -0.0052939 -0.0046037 0.0057028 -0.0045547 -0.0095513 -0.006151 -0.01048 0.0076883 0.00058435 0.0018869 -0.00054606 -6.3409e-05 2.6144e-05 -0.00021841 -0.00063931 -0.00030469 -0.00075084
396 0.060505 0.0077634 -0.01224 0.050337 -0.022305 0.030082 -0.019211 0.017074 -0.038524 0.0078156 0.0021799 0.00017 -0.00028152 0.0011158 -0.00020234 0.00062595 -0.00026631 0.00021824 -0.00059839 0.00014182
397 0.045786 0.0071067 0.069448 -0.023823 0.035989 0.039475 0.0041089 -0.0036843 -0.0083845 0.048729 0.0011651 0.00015756 0.0013467 -0.00038631 0.00056035 0.00029972 1.7942e-05 -0.00035422 -0.00065841 0.0013253
398 0.039592 0.001723 -0.0017259 0.00087806 -0.0026687 -0.004766 0.001602 0.00042976 0.0014717 -0.0020437 0.06032 -0.00023498 -0.003958 0.002704 -0.005921 -0.007627 0.0046034 -0.0016381 0.0047553 -0.0044676
399 0.042676 0.0044851 0.00949 -0.001319 0.0070281 -0.0048717 0.00080656 -0.0012932 -0.00049149 -0.002076 0.021399 0.0016269 0.0053224 -0.0010795 0.0028878 -0.0014052 0.00098811 -0.00019467 -0.00079533 1.5381e-05
400 0.043456 0.00066245 0.0082424 0.0001369 -0.0076251 -0.00075915 -0.0027929 -0.0054312 0.00052714 -0.0025997 0.019411 -0.0013722 0.0030713 -3.2121e-05 -0.0018766 -0.0017896 -1.448e-05 -0.0021371 0.00096945 -0.0015572
401 0.044651 0.0059548 0.032233 0.039738 0.041503 0.031712 0.0020038 0.0032927 0.0071909 0.003488 0.0023517 0.00038985 0.0021948 0.0011959 0.0013192 0.00035454 -0.0002883 -0.00097659 -0.00082639 -7.4412e-05
402 0.04315 0.0052161 0.0047598 0.0064353 -0.010255 -0.013513 -0.01058 -0.030916 -0.0057203 -0.037596 0.0031036 0.00055196 0.00113 0.00064906 -0.002363 -0.0024914 -0.0036165 -0.0072518 -0.0013485 -0.0092016
403 0.042835 0.0046063 0.0014929 0.0023746 -0.0062913 -0.00014157 0.0011398 -0.0014908 0.0023469 0.00033114 0.02575 0.0031593 0.0063768 2.1312e-05 -0.00075336 0.0033259 0.0006162 -0.0026163 0.0010506 -0.002025
404 0.042927 0.004377 0.0012621 0.0007774 -0.0060183 -0.0060792 -0.0030726 -0.00082738 -0.0069444 -0.0014007 0.00512 0.00035778 -0.00073652 -1.3487e-05 -9.4525e-05 -0.00047565 0.00043826 0.00011729 -0.00022468 -5.1962e-05
405 0.040708 0.0041994 0.0083131 0.0057965 0.0025991 -0.0091675 0.0018584 -0.003248 -0.0018516 0.00056338 0.014505 0.0012451 0.0036991 0.00064398 0.000685 -0.0032959 0.00047502 -0.0017193 -0.00077157 0.0013872
406 0.046436 0.0069302 0.037939 -0.0075445 0.0071192 -0.023135 -0.0030366 -0.035609 -0.038608 0.051543 0.0011025 0.00014245 0.00083403 -0.00020258 0.00017844 -0.0002664 -7.6171e-05 -0.0007931 -0.00097565 0.0013425
407 0.047116 0.005467 -0.00071963 0.0084586 -0.019538 0.0011838 -0.0043202 -0.01213 0.042286 -0.01041 0.00083952 6.5594e-05 -9.7909e-05 6.651e-05 -0.00017701 2.8127e-05 -1.3405e-05 -8.8005e-05 0.00040217 -5.469e-05
408 0.043372 -0.012408 -0.0038662 -0.0063586 0.0095896 -0.01492 -1.4904e-05 0.010274 -0.00045813 -0.0015476 0.0079974 -0.005594 0.00092346 -0.00076965 0.00085704 -0.0014886 0.00017564 0.00052545 -4.1364e-05 3.7561e-05
409 0.045451 0.0047689 0.016683 -0.00051172 -0.00032507 -0.02089 -0.00032308 0.011503 0.011532 -0.00056179 0.004915 0.00032502 0.001253 -0.00021208 0.00019372 -0.0011321 -0.00015233 0.00036235 0.00037008 -5.9475e-05
410 0.041384 0.0036956 -0.011466 -0.0012095 0.0025721 -0.0044958 -0.0082466 -0.002233 0.01732 0.0017571 0.005267 0.00029429 -0.0011536 -0.00017274 0.00022796 -0.00029656 -0.00012951 2.963e-05 0.00074622 9.1262e-05
411 0.047607 0.0059779 0.035789 -0.01135 0.0092292 0.0086265 -0.0013196 -0.015949 -0.0068595 -0.018052 0.0039744 0.00030993 0.0017272 -0.00047324 0.0004076 0.0002761 0.00014759 -0.00049802 -7.1491e-05 -0.00061057
412 0.043993 0.005431 0.016004 -0.00099395 -0.0050234 -0.010737 -0.00064756 -0.016359 0.0054853 0.014948 0.0049475 0.00057214 0.0022515 -0.00044604 1.0692e-05 -0.001691 0.00013103 -0.0019161 -0.00085138 0.0031486
413 0.044188 0.0037551 -0.026993 -0.012488 0.011647 0.0059328 0.0037245 0.0042331 -0.011542 -0.0019085 0.0051132 0.00027742 -0.0023751 -0.00099345 0.00095415 0.00015889 0.00058705 0.00018387 -0.00050205 -0.00010041
414 0.047462 0.0052438 0.0112 0.0042869 0.00030256 -0.0041812 0.0016038 0.0021675 -0.0013487 -0.001201 0.01253 0.00089014 0.0024328 0.00050845 0.00042817 -0.00076887 0.00025747 -6.8618e-05 -0.00019183 -0.00023068
415 0.047224 0.0066739 0.04685 -0.0085761 0.0036217 -0.0065722 -0.012623 -0.040931 -0.025862 -0.013736 0.0013376 0.0001549 0.0010379 -0.00022563 0.00014286 -0.00019432 -0.00016841 -0.00088255 -0.00084506 0.00080735
416 0.039765 0.0037295 0.0079997 -0.0013769 -0.00030193 -0.01118 -0.00039725 0.0050791 0.0029678 -0.00020824 0.013115 0.00093858 0.0018222 -0.00061238 -5.9394e-05 -0.0030844 -0.00027012 0.0013996 0.00031222 -9.5473e-05
417 0.054683 0.0062653 -0.020229 0.0088979 -0.063568 0.064878 -0.037376 0.034001 -0.053149 0.015741 0.0012499 6.9059e-05 -0.0002536 0.000106 -0.00064691 0.0006108 -0.00033296 0.00029422 -0.00044056 0.00014629
418 0.041051 0.004116 0.0040453 -0.0011266 -0.00069567 -0.004472 0.0036803 -0.0039533 -4.299e-05 -0.0014917 0.03567 0.0025414 0.0027043 -0.001015 0.00097408 -0.0040229 0.0026033 -0.0019225 -0.00072527 0.00011011
419 0.041081 0.0035527 -0.0062771 0.0038847 -0.001075 0.0020126 0.005787 0.0002696 0.0058237 0.0011065 0.022156 0.0011647 -0.0043173 0.0010165 0.0011533 -0.00045215 0.0038277 -0.00040722 0.00098804 0.00010136
420 0.038591 -0.00022245 -0.0038369 0.0034574 -0.0026308 -0.0044119 0.0020512 -0.00021574 0.0037614 -0.0015445 0.0018446 -0.00031805 -0.00024259 0.00017812 -9.065e-05 -0.00017205 9.6558e-05 -2.176e-05 0.00017505 -9.147e-05
421 0.041885 0.004002 0.0061125 -0.0014917 -0.0010841 -0.0039584 0.0037841 -0.00063994 0.00018964 -0.002362 0.031574 0.0017972 0.0047615 -0.0013101 0.00078332 -0.0019129 0.0023004 -0.00057939 -5.2138e-05 -0.0012463
422 0.040678 0.0037231 0.0013863 0.0010526 0.00011418 -0.0038015 0.001631 0.00048715 0.0012307 0.0014422 0.045225 0.0030765 0.0025079 0.00095609 0.0010682 -0.0046184 0.0030697 -0.0017437 0.0011306 0.0019657
423 0.043332 0.0043797 0.00010064 -0.0006433 0.0028464 0.0003379 0.003934 -0.0019523 -0.0001628 -0.002233 0.027244 0.0018913 0.00048632 -0.00089026 0.0026028 2.8374e-05 0.0022763 9.8734e-05 0.00029763 -0.00079013
424 0.050974 0.0055917 0.028701 0.0015433 0.0034556 -0.022975 0.006136 0.006754 0.016557 -0.017824 0.0011781 7.2836e-05 0.00042019 -3.0722e-05 6.8732e-05 -0.00017951 7.0043e-05 3.5035e-05 0.00011366 -0.0001653
425 0.045981 -0.0030212 0.011929 0.0016298 -0.0096532 -0.013498 -0.0052008 -0.0021799 0.0009047 -0.0089345 0.0097701 -0.0023652 0.0016709 0.00023125 -0.0011493 -0.0015554 -0.00043292 -0.00043822 0.00016027 -0.00093059
426 0.050188 0.005701 -0.013228 0.11754 0.057712 0.012051 0.0021565 -0.00069089 -0.012481 0.0024441 0.0011518 0.00012369 -0.00054267 0.0026568 0.0013502 0.00061421 -0.00058239 0.00012753 -0.00042709 0.00010296
427 0.041559 0.0043238 0.0044314 0.0036007 -0.0061443 -0.020447 0.00042547 -0.0031521 0.0047858 -0.0037 0.0037836 0.00047047 0.0010445 0.00010176 -0.00054951 -0.0023353 -0.00011839 -0.0010969 -2.1254e-05 -0.00038439
428 0.045197 0.0047535 0.0010089 0.0037458 -0.012683 -0.010301 -0.0063988 -0.0071735 -0.0053809 -0.013184 0.0036723 0.00027963 -0.00013233 2.3257e-05 -0.00037949 -0.00041386 0.00022946 -0.00028771 -0.00036772 -0.00052235
429 0.040703 0.0038962 0.0066208 0.0013426 -0.00036252 -0.0053707 0.00079132 -0.00013647 -0.00052046 -0.0014684 0.038915 0.0024242 0.0049628 0.00021359 0.00041238 -0.0043941 0.0016 -0.00074003 0.00064225 -0.00069192
430 0.056722 0.0073315 0.032478 -0.00015583 -0.0090643 -0.017152 -0.011874 0.02492 0.024572 0.010709 0.0024075 0.00021476 0.00094822 -8.2041e-05 -0.00024171 -0.00020359 -0.00035772 0.00020363 0.00017681 0.00011044
431 0.040321 0.0032411 -0.012724 -0.003799 0.0015499 -0.00042011 0.010975 0.0024588 -0.0025016 -0.00030623 0.026848 0.0013722 -0.010137 -0.003408 0.003011 -0.00052457 0.0066678 0.0011768 -0.0018427 -0.0001734
432 0.045229 0.0046992 0.0017624 -0.0015347 0.00079144 -0.01084 -0.0034539 0.002536 0.0037445 0.0034934 0.013385 0.0012025 0.0014151 0.0018426 -0.0014455 -0.010562 -0.00056282 0.00063427 0.0041646 0.00091939
433 0.045457 0.0036163 -0.0085258 0.0013593 -0.011719 0.0039587 0.00022418 0.0061258 -0.0053812 0.0018879 0.0014636 7.1561e-05 3.0168e-05 2.5282e-05 -0.00020721 -4.0693e-07 1.788e-05 9.0233e-05 -6.0121e-05 2.7439e-05
434 0.050519 0.005596 -0.01041 -0.0080781 -0.0014104 0.01855 0.031981 0.0019412 0.033774 0.00069574 0.0016827 0.00011225 -0.00033109 -0.00022837 6.8159e-05 0.00021591 0.00058243 6.0103e-05 0.0002608 2.1217e-05
435 0.038348 0.0038106 0.0025662 0.00085882 -0.0050557 -0.0052288 0.00069524 -0.006926 0.0002852 -0.0045314 0.0012459 0.00010597 0.00015201 1.7319e-05 -0.00016524 -0.00013445 -1.2677e-05 -0.00024552 -2.2362e-05 -0.00016343
436 0.044749 0.0038847 -0.0090649 -0.0044667 0.00375 -0.0099275 0.015612 0.010201 -0.0017124 -0.0033228 0.0085908 0.00042534 -0.0016813 -0.00057884 0.00038089 -0.00073233 0.0016697 0.00075675 -8.3565e-05 -0.00018864
437 0.043453 0.0047666 0.021668 -0.0052892 0.0073377 -0.0023619 0.0030696 -0.0013618 0.0035599 -0.0040292 0.0069414 0.00048454 0.0021968 -0.0006062 0.00088644 -0.00031378 0.00015637 -0.00023526 0.00030119 -0.0006332
438 0.04353 0.0049962 0.023479 -0.0051588 0.006223 -0.0064021 -0.0019768 0.0073944 -0.00075861 0.0017769 0.0078534 0.00065192 0.0027658 -0.0010436 0.0011738 -0.00080147 -0.00040771 3.4748e-05 -0.00050559 0.00089931
439 0.049146 0.0048885 -0.031467 -0.0029146 -0.01402 0.020022 0.036126 0.0056199 0.0072436 0.0087082 0.002245 0.00014305 -0.00085167 -0.00010931 -0.00030236 0.00039747 0.0006909 0.00011787 7.2602e-05 0.00019456
440 0.045834 0.0045611 0.01185 0.0034016 0.0090833 -0.0060024 -0.007887 0.0051887 -0.00070381 -0.0050224 0.011566 0.00071659 0.0019941 0.00043945 0.0013238 -0.0010026 -0.00053177 0.0012779 0.00015023 -0.00037716
441 0.043339 0.0049992 0.018019 -0.0016881 -0.0047721 -0.016233 -0.0078502 -0.021704 -0.007769 -0.0095473 0.0038602 0.0002926 0.001123 -0.00013649 -0.00015783 -0.00084511 -0.00024405 -0.0007689 -0.00028552 -0.00026065
442 0.049741 0.0046149 0.0065246 0.0068886 -0.019991 -0.0064716 -0.0066276 -0.0095453 0.0097413 -0.023933 0.0036788 1.4973e-05 0.00017895 0.00029054 -0.00068826 -0.00030454 -0.00013095 -0.00039836 0.00035653 -0.00082636
443 0.042823 0.0038262 -0.016815 -0.0040874 -0.0030964 0.0081877 0.0043057 0.0029071 -0.0025822 0.0024564 0.010342 0.00056103 -0.003149 -0.00064268 -0.00031439 0.00070001 0.0015616 0.00035735 -8.6393e-05 0.0003599
444 0.04422 0.0032486 -0.011322 0.038187 0.003455 0.012502 -0.0015454 0.0078423 -0.011759 0.0013512 0.0024758 -4.1453e-05 -0.00041187 0.0011668 0.00023718 7.43e-05 0.00013126 0.00015531 -0.00012428 -4.2309e-05
445 0.038915 0.0034493 -0.0011526 -0.0030839 0.0019046 -7.7423e-05 0.0045787 -2.0377e-05 -0.0014437 -0.00095336 0.63807 0.05998 0.0069102 -0.16246 0.14426 0.11194 0.21794 -0.0019126 -0.15031 -0.027602
446 0.041668 0.00057518 0.0046869 0.00075202 0.00064191 -0.0039976 -4.4512e-05 0.00011418 0.0031004 -0.001938 0.03454 -0.0041082 0.0034189 6.2723e-05 0.0010637 -0.0026021 0.0019497 7.7935e-05 0.0017004 -0.001195
447 0.041947 0.0042594 0.014231 -0.0026505 0.0019097 -0.0070976 0.0028891 -0.00034914 0.00065745 -0.0044309 0.023836 0.0020908 0.011667 -0.0028132 0.0020951 -0.0043053 0.00064508 -0.0024796 -0.00050261 0.00030616
448 0.039382 0.0036175 0.007025 -0.0011242 -0.0014692 -0.0013117 -0.0010238 -0.0027067 -0.0042509 -0.0016649 0.56208 0.062913 0.29873 -0.049688 -0.066931 0.10205 -0.16342 -0.16795 -0.39744 -0.086577
449 0.039845 0.0035551 -0.0056758 -0.0010809 -0.00065564 -0.0052915 0.0078416 0.00038106 -5.9462e-05 -0.002194 0.016335 0.0010672 -0.0026802 -0.00054593 5.7902e-05 -0.0017533 0.0026171 -2.2357e-05 0.00044148 -0.00038251
450 0.047282 0.006429 0.058758 -0.020306 0.032053 0.037789 0.011011 0.021044 0.014618 -0.013609 0.0019215 0.00020229 0.0018175 -0.00058455 0.0009658 0.0010544 0.00028539 0.00084664 0.00023636 -0.00034801
451 0.042947 0.003776 -0.0035516 0.00042164 -9.4705e-05 -0.006292 0.011836 0.0011579 0.0072659 -0.0021122 0.0095761 0.00061459 -0.00059645 1.6608e-05 -3.561e-05 -0.0014804 0.002155 0.00023845 0.00064592 -0.00025076
452 0.04151 0.0046626 0.017464 -0.0028875 0.0081553 -0.00022704 0.0073669 0.0015731 0.0016793 -0.0086455 0.0034076 0.00031259 0.0015158 -0.00031813 0.00054994 -6.5902e-05 0.00033749 5.7843e-05 5.8486e-05 -0.00040383
453 0.044115 0.0042634 0.0041032 -0.0006368 -0.0040474 -0.0094721 0.00097437 -0.0042015 0.0027514 0.0030616 0.010846 0.00067938 0.0018082 -0.00047367 -0.00055444 -0.0021078 -0.00029646 -0.0026269 -0.0015442 0.002104
454 0.049868 0.0058575 -0.0013821 -0.004178 -0.0052039 0.0055094 -0.002795 -0.00052558 -0.00083217 -0.00010783 0.0095769 0.00083695 -0.00030195 -0.00063688 -0.00035267 0.00068735 -0.0012901 0.00064768 0.00058671 0.00032872
455 0.038724 0.0041414 -0.0028458 0.0045651 -0.0041836 0.0064954 0.0034069 0.0014315 0.0050217 0.0024069 0.0025943 0.00044854 -0.00036041 0.00038808 -0.00037144 0.0012649 0.00086298 7.7276e-05 0.00089008 0.00039357
456 0.042926 0.0041623 0.0057167 0.0041553 0.0043377 -0.0087681 0.0068847 -0.0029806 -0.0022531 -0.0052104 0.012779 0.0008206 0.0011957 0.00064904 0.00067254 -0.0012556 0.0013162 -0.00072478 0.0012688 -0.00081708
457 0.040189 0.0034172 -0.0034871 0.00094624 -0.00079335 -0.0023589 0.0043165 0.0013674 0.0010102 -0.0012556 0.04968 0.002881 -0.006599 -0.0004625 0.0015773 -0.0031022 0.0051134 0.00077678 -0.0001297 -0.0019664
458 0.042649 0.0040065 0.0029785 0.00096771 0.0012036 -0.0035857 0.0064851 -0.0045749 0.00096864 -0.0024213 0.024792 0.0012283 0.0019855 -0.00032126 0.0012651 -0.0021512 0.0023338 -0.0019786 -1.3506e-05 -2.3245e-05
459 0.041889 0.0040249 0.0006913 -0.002798 0.0010829 -0.0049706 0.0026674 -0.00072775 0.0017379 -0.0021477 0.036099 0.0025129 -0.0015321 -0.0036445 0.0031198 -0.0037662 0.0025892 0.00064263 -0.0011501 -0.0013657
460 0.035763 0.0037104 -0.0030739 -0.0010128 -0.0024555 -0.0025385 0.0010597 -0.0045636 0.00085736 -0.0020745 0.00062809 6.7122e-05 -6.8383e-05 -3.4269e-05 -6.7883e-05 -6.4172e-05 1.2586e-06 -0.00014833 -1.2636e-05 -7.3105e-05
461 0.049504 0.0061684 0.026744 -0.0090595 0.0049662 0.037149 0.010217 0.010194 0.037286 -0.00093666 0.0033495 0.00029872 0.0017266 -0.000599 0.00069087 0.0015816 0.00043837 0.00098681 0.00075222 -0.00023642
462 0.043545 0.0043613 0.0018697 0.0011538 -0.00038707 -0.0043271 -0.00081923 -0.0017421 -3.703e-05 0.00035135 0.026542 0.0017516 0.0002563 -0.00048911 0.0012815 -0.0021365 0.00031398 -0.0009641 -0.0011724 0.00084227
463 0.043326 0.0074092 0.041351 -0.011322 0.0016346 -0.064735 -0.010767 -0.12438 0.0074947 0.35421 0.0002756 4.6998e-05 0.00027117 -6.5598e-05 1.1243e-05 -0.00034188 -6.1758e-05 -0.00063953 3.6706e-05 0.0017603
464 0.041864 0.0037056 -0.0070309 -0.0013206 -0.0021461 0.00024998 0.0027681 -0.0015354 0.0019566 -0.0017955 0.028988 0.0015666 -0.0052978 -0.00076094 -0.00029987 -0.00071104 0.0024891 3.2238e-05 0.0010533 -0.0003972
465 0.043444 0.0046002 0.0079887 -0.0013157 0.0010286 -0.0049148 0.0046888 -0.0057693 -0.0067315 -0.005563 0.0043259 0.00029905 0.00075016 -0.00014717 0.00011226 -0.00042378 0.0002587 -0.0003341 -0.00033142 -0.00029315
466 0.044863 0.0047038 0.010548 -0.0020101 -0.0015404 -0.013221 -0.00056604 0.0022469 -0.0035893 0.0067875 0.011237 0.00084208 0.0019543 -0.00054853 -4.0821e-05 -0.0021416 -0.00013649 -0.00066906 -0.00050228 0.0022756
