248 20
0 -2.5549 -2.0865 0.32623 0.16647 0.0097127 -0.04425 -0.036972 0.47225 -0.0099857 0.058184 2.6565 -2.061 0.29507 0.085851 -0.019242 -0.069056 -0.039185 0.46103 0.0034913 0.067259
1 -2.6048 -2.2008 0.23848 0.14189 -0.0030402 -0.048855 0.0095564 0.3126 0.021416 0.032316 2.4744 -2.142 0.23866 0.0013827 -0.051705 -0.094651 0.033437 0.33396 0.022445 0.055444
2 -2.5525 -2.1081 0.28161 0.13179 -0.0021449 -0.049843 -0.011762 0.41274 -0.0027425 0.056751 2.2976 -2.0348 0.30338 -0.022829 -0.053142 -0.099637 0.026146 0.45433 -0.012352 0.083093
3 -2.7097 -2.3688 -0.0097398 0.023891 -0.017862 -0.050384 -0.0079972 -0.13513 0.014778 -0.021321 2.4506 -2.292 -0.0022096 -0.15538 -0.080544 -0.10945 0.020487 -0.1117 0.018566 0.0073023
4 -2.5007 -1.9843 0.37983 0.17141 0.010221 -0.044977 -0.038309 0.60234 -0.014921 0.079034 2.5448 -1.9529 0.3612 0.090396 -0.016729 -0.069037 -0.032325 0.60474 -0.010695 0.087475
5 -2.2653 -1.6717 0.45346 0.077153 -0.018542 -0.0647 -0.045804 0.6487 -0.023918 0.10375 2.0658 -1.6178 0.48902 0.0073258 -0.029987 -0.079392 0.00059096 0.7241 -0.075135 0.10482
6 -2.5888 -2.1491 0.28897 0.1654 0.0042416 -0.045978 -0.00041407 0.44015 0.010144 0.050719 2.4586 -2.0908 0.28983 0.027421 -0.043341 -0.090745 0.021712 0.45858 0.013163 0.072404
7 -2.4909 -1.9679 0.38475 0.1681 0.0096906 -0.045438 -0.041014 0.6017 -0.016701 0.079379 2.5921 -1.9449 0.3581 0.10259 -0.011974 -0.063896 -0.041528 0.59643 -0.010174 0.083795
8 -2.6987 -2.3298 -0.11074 -0.055355 -0.035334 -0.055299 0.0052339 -0.29684 0.017055 -0.033601 2.7342 -2.2957 -0.14921 -0.16265 -0.075608 -0.089567 -0.0022565 -0.31997 0.041018 -0.019505
9 -2.6658 -2.2979 0.14749 0.11443 -0.0075857 -0.04855 0.022071 0.14609 0.030111 0.0057998 2.2935 -2.2048 0.17806 -0.087622 -0.076363 -0.11541 0.068424 0.19422 0.021827 0.040035
10 -2.5223 -2.0939 0.16141 0.065678 -0.058858 -0.073096 0.1957 0.32357 0.10793 0.03891 2.1088 -2.0017 0.20833 -0.10885 -0.11321 -0.12821 0.25351 0.39621 0.078817 0.068434
11 -2.7033 -2.3022 0.1564 0.15264 -0.0048254 -0.04306 0.069382 0.23437 0.052409 0.0096902 2.8038 -2.2719 0.11285 0.040727 -0.048879 -0.080523 0.058676 0.20333 0.083939 0.025071
12 -2.7215 -2.3482 0.092707 0.11542 -0.0091161 -0.044738 0.053945 0.093517 0.046924 -0.0074443 2.6265 -2.2912 0.076477 -0.039099 -0.066013 -0.096416 0.064404 0.090508 0.065568 0.016358
13 -2.4849 -1.9873 0.32951 0.13482 -0.011697 -0.053531 0.035489 0.49954 0.02252 0.061905 2.9494 -2.0148 0.24866 0.15202 -0.0077924 -0.043685 -0.0051953 0.44301 0.050354 0.049695
14 -2.6975 -2.3445 0.0763 0.082236 -0.012628 -0.048916 0.019128 0.013738 0.028767 -0.0088197 2.4408 -2.2669 0.086073 -0.099603 -0.076451 -0.10932 0.049773 0.039453 0.032441 0.021461
15 -2.5653 -2.1003 0.29513 0.15707 -0.0011123 -0.047444 0.023572 0.43994 0.022294 0.047905 2.6087 -2.067 0.27121 0.064003 -0.033768 -0.076228 0.026259 0.43499 0.033002 0.058805
16 -2.2221 -1.5691 0.47439 0.060977 -0.020678 -0.064892 -0.049617 0.67435 -0.032659 0.11091 2.1653 -1.5376 0.48989 0.037383 -0.015257 -0.062046 -0.022081 0.72849 -0.079463 0.096751
17 -2.6291 -2.2196 0.23708 0.15678 8.9867e-05 -0.046362 0.022257 0.33713 0.027843 0.031481 2.4642 -2.1553 0.24001 0.0038339 -0.053153 -0.096499 0.046796 0.35738 0.031219 0.055628
18 -2.6742 -2.2809 0.15588 0.12827 -0.0067767 -0.045954 0.044832 0.20765 0.03672 0.011203 2.6207 -2.2311 0.13733 -0.007487 -0.056269 -0.090631 0.052716 0.20363 0.053359 0.031232
19 -2.5832 -2.13 0.28833 0.16284 0.0013012 -0.046507 0.017546 0.42863 0.020505 0.045995 2.5309 -2.0829 0.27751 0.044436 -0.039816 -0.084235 0.030195 0.43536 0.027629 0.062353
20 -2.5924 -2.102 -0.41097 -0.34632 -0.07509 -0.077147 -0.059539 -0.54836 -0.013162 -0.0097455 2.6715 -2.0868 -0.45952 -0.39012 -0.088502 -0.085073 -0.085184 -0.58708 0.0073611 -0.016868
21 -2.5753 -2.1165 0.29419 0.16255 0.00068178 -0.046865 0.019813 0.44031 0.021705 0.047744 2.5683 -2.0759 0.27718 0.055844 -0.036554 -0.080472 0.027692 0.44135 0.030677 0.061492
22 -2.5578 -2.079 0.32186 0.17039 0.0038127 -0.045763 0.01064 0.51617 0.012888 0.060633 2.551 -2.0388 0.30613 0.066389 -0.032264 -0.078423 0.018966 0.51805 0.021377 0.074257
23 -2.6046 -2.0841 -0.49947 -0.39741 -0.082132 -0.081445 -0.059779 -0.66344 0.0082526 -0.023421 2.7473 -2.0788 -0.56062 -0.42443 -0.090089 -0.08309 -0.095973 -0.71543 0.033326 -0.03664
24 -2.7182 -2.3234 0.12106 0.13649 -0.0079951 -0.04332 0.074331 0.1686 0.055028 0.00049443 2.8181 -2.2929 0.07592 0.022846 -0.052897 -0.081385 0.062399 0.13546 0.087913 0.015938
25 -2.7844 -2.447 -0.041366 0.055788 -0.0083071 -0.041384 -0.0069674 -0.26526 0.033443 -0.060763 2.8248 -2.4073 -0.083122 -0.079347 -0.060943 -0.086911 -0.012847 -0.29052 0.062383 -0.041573
26 -2.7304 -2.3564 -0.061989 0.0079923 -0.029362 -0.050617 0.055116 -0.19184 0.046221 -0.037631 2.8254 -2.3279 -0.1106 -0.097637 -0.070685 -0.084941 0.040119 -0.22715 0.077785 -0.02503
27 -2.6337 -2.1727 -0.41976 -0.32231 -0.071556 -0.07593 -0.048761 -0.58513 0.005977 -0.024667 2.6058 -2.1407 -0.45449 -0.39986 -0.096651 -0.095856 -0.062758 -0.6104 0.022286 -0.025275
28 -2.7098 -2.3284 0.02414 0.055126 -0.02075 -0.048433 0.056446 -0.020736 0.040232 -0.015352 2.6985 -2.285 -0.0058197 -0.072913 -0.068592 -0.090455 0.05519 -0.03797 0.063945 0.0025384
29 -2.6706 -2.2758 -0.14628 -0.097482 -0.044821 -0.060592 0.035163 -0.17855 0.021905 -0.0093065 2.5285 -2.2209 -0.15953 -0.22677 -0.08886 -0.10015 0.040531 -0.18285 0.034204 0.003
30 -2.8141 -2.4573 -0.18515 -0.028703 -0.015488 -0.040809 -0.035667 -0.50096 0.027411 -0.088222 2.9083 -2.426 -0.23982 -0.15241 -0.065197 -0.082405 -0.051159 -0.53934 0.062537 -0.071738
31 -2.7783 -2.4225 -0.17492 -0.047578 -0.023275 -0.046627 -0.027389 -0.46466 0.022343 -0.0717 2.8143 -2.3851 -0.21891 -0.17377 -0.072207 -0.088407 -0.036457 -0.49309 0.051593 -0.054686
32 -2.1896 -1.4201 0.50772 0.062973 -0.01114 -0.050587 -0.072497 0.81928 -0.081314 0.13133 2.8252 -1.4834 0.42189 0.18609 0.036523 -0.00013969 -0.11974 0.77263 -0.078482 0.094823
33 -2.046 -1.1461 0.53763 -0.0086435 -0.027097 -0.054229 -0.071916 0.84739 -0.10391 0.14637 2.2846 -1.1622 0.52057 0.067057 0.013162 -0.016702 -0.06828 0.87861 -0.14847 0.11693
34 -1.9131 0.43127 0.51667 -0.14249 0.013061 0.080301 -0.018103 0.28755 -0.23322 -0.0098895 0.65855 0.61208 0.71974 -0.38546 -0.046742 0.0058253 0.15788 0.54349 -0.37377 0.041018
35 -2.7435 -2.3736 -0.16035 -0.064745 -0.027965 -0.050299 -0.023222 -0.38811 0.0099158 -0.049616 2.9018 -2.3552 -0.22173 -0.15303 -0.063766 -0.078274 -0.049036 -0.43752 0.047303 -0.042177
36 -2.7198 -2.3372 0.048087 0.080901 -0.016334 -0.046421 0.064874 0.04694 0.04605 -0.0094491 2.6641 -2.2869 0.024553 -0.061035 -0.069 -0.093458 0.068551 0.035209 0.068305 0.011174
37 -2.6859 -2.2957 -0.27678 -0.18071 -0.05188 -0.064538 -0.012262 -0.44388 0.021329 -0.038736 2.5783 -2.2469 -0.29798 -0.29921 -0.092194 -0.09994 -0.011651 -0.4527 0.033286 -0.029694
38 -2.7313 -2.3502 -0.020701 0.039978 -0.023712 -0.047779 0.064214 -0.098321 0.049446 -0.029761 2.77 -2.3132 -0.060115 -0.080936 -0.070056 -0.08758 0.056554 -0.1245 0.077559 -0.013552
39 -1.8872 -0.71444 0.13798 -0.31864 -0.19921 -0.11134 0.47133 0.27507 0.1433 0.077083 2.3257 -0.77692 0.087386 -0.11027 -0.10211 -0.017074 0.43259 0.27357 0.079812 -0.015422
40 -2.7827 -2.4232 -0.052982 0.047545 -0.011438 -0.041099 0.015942 -0.22068 0.038236 -0.054682 3.024 -2.4117 -0.12614 -0.041351 -0.049836 -0.070593 -0.015814 -0.28027 0.082533 -0.04669
41 -2.5913 -2.0289 -0.54635 -0.43886 -0.088068 -0.083824 -0.06331 -0.73069 0.012713 -0.028171 2.8103 -2.0356 -0.61948 -0.44333 -0.088482 -0.077416 -0.10909 -0.79409 0.041469 -0.046475
42 -2.6606 -2.184 -0.48415 -0.34531 -0.070723 -0.073881 -0.069164 -0.75569 0.019551 -0.056831 2.6323 -2.151 -0.52034 -0.42953 -0.098846 -0.09661 -0.080697 -0.77739 0.033776 -0.055001
43 -2.3203 -1.6231 -0.64114 -0.67439 -0.14862 -0.12608 -0.021564 -0.72042 0.036636 0.017446 2.2745 -1.6122 -0.66305 -0.63845 -0.11891 -0.095647 -0.042063 -0.72635 0.0087707 -0.030575
44 -2.8143 -2.4231 -0.28533 -0.10196 -0.023351 -0.042711 -0.057376 -0.64108 0.02094 -0.096964 3.0499 -2.4131 -0.36392 -0.18945 -0.06176 -0.071668 -0.092229 -0.70469 0.066979 -0.088532
45 -2.7924 -2.3802 -0.34395 -0.15852 -0.033349 -0.048342 -0.058665 -0.68624 0.022025 -0.09246 3.1211 -2.3856 -0.43722 -0.21448 -0.060595 -0.065559 -0.10699 -0.76578 0.07292 -0.092444
46 -2.1123 -1.165 0.53712 0.031269 -0.010228 -0.038714 -0.081262 0.8896 -0.12118 0.14273 3.0437 -1.2723 0.41086 0.23426 0.0636 0.039373 -0.15988 0.80522 -0.10527 0.090226
47 -2.2225 0.58641 -0.30736 -0.70393 0.21422 0.038422 -0.67678 0.44071 0.41876 -0.024719 1.947 0.62927 -0.30429 -0.77354 0.19254 0.018618 -0.67402 0.43776 0.42636 -0.018455
48 -2.117 0.58625 0.57741 -0.019447 -0.60764 0.16527 -0.32179 0.006173 -0.54908 0.62365 2.3331 0.56895 0.52966 0.013794 -0.59467 0.18139 -0.35352 -0.034571 -0.53349 0.60596
49 -2.2204 0.58217 -0.54505 -0.70266 0.040319 0.06347 -0.22179 0.10727 0.053217 -0.00048032 1.6578 0.66159 -0.50097 -0.82321 0.0048577 0.027485 -0.18969 0.1444 0.041253 0.015927
50 -2.1619 0.59783 0.83491 0.17484 0.82019 -0.73664 0.11759 -0.17301 0.05189 0.01057 2.2452 0.60848 0.814 0.14178 0.80851 -0.7463 0.11622 -0.17729 0.056249 0.014259
51 -2.2047 0.47502 -0.57835 -0.65178 -0.033971 0.046689 -0.0039583 -0.21013 -0.12065 -0.0064465 1.8019 0.53105 -0.55655 -0.72467 -0.05194 0.028992 0.0076906 -0.19707 -0.12541 -0.0045106
52 -2.2352 0.50789 -0.61949 -0.74179 -0.026849 0.070282 -0.04758 -0.21921 -0.16851 0.0095002 1.4912 0.61092 -0.55135 -0.89799 -0.072784 0.022704 0.00032528 -0.16223 -0.18828 0.032471
53 -2.2234 0.54607 -0.42236 -0.77079 0.15919 0.047874 -0.58607 0.25222 0.32159 -0.026975 1.7253 0.61731 -0.38808 -0.88087 0.12628 0.015083 -0.56095 0.27952 0.31479 -0.012558
54 -2.2283 0.55371 -0.58285 -0.65618 -0.042176 0.070623 0.039892 -0.14257 -0.2079 0.029543 1.6804 0.63083 -0.54228 -0.7721 -0.076077 0.036538 0.0666 -0.11389 -0.21455 0.043812
55 -2.0971 0.60057 -0.32863 -0.17985 -0.24135 0.038148 0.80084 0.25076 -0.027409 -0.0087922 2.1614 0.59905 -0.35223 -0.15815 -0.22899 0.051219 0.79173 0.24521 -0.032179 -0.019008
56 -2.1598 0.079329 -0.65828 -0.83942 -0.09724 0.018506 0.016884 -0.68244 -0.17841 -0.026041 1.5022 0.165 -0.59397 -0.93179 -0.11273 -0.00051782 0.061302 -0.61169 -0.22772 -0.030192
57 -2.0743 0.53158 0.54017 0.15775 -0.41056 0.089854 0.03353 0.14183 -0.036486 -0.0077548 2.5172 0.48596 0.47091 0.24071 -0.38089 0.12256 -0.0057771 0.096854 -0.023745 -0.028744
58 -2.2336 0.55129 -0.58575 -0.67933 -0.019048 0.066075 -0.029172 -0.092211 -0.11673 0.0054496 1.6848 0.62807 -0.54665 -0.79418 -0.052452 0.032727 -0.0057859 -0.068641 -0.12065 0.017123
59 -2.2206 0.63179 1.0282 0.39356 -0.78868 -0.036375 -0.18123 -0.30663 0.23759 -0.16047 1.8707 0.701 1.0607 0.26129 -0.83225 -0.079469 -0.14995 -0.27438 0.23185 -0.1404
60 -2.1322 0.52074 -0.24379 -0.52051 -0.092267 0.085797 0.30267 -0.018054 -0.20634 -0.011392 2.3341 0.49736 -0.29956 -0.46878 -0.073068 0.10854 0.26283 -0.069621 -0.18475 -0.029432
61 -2.1547 0.61198 0.76538 0.087896 0.83618 -0.7181 0.00037952 -0.069227 0.14409 0.017101 2.2347 0.62068 0.74242 0.062619 0.82782 -0.72427 -0.0062291 -0.080497 0.15133 0.016595
62 -2.2357 0.53845 -0.6241 -0.72138 -0.027898 0.064028 0.0036603 -0.13758 -0.11447 0.019403 1.4727 0.64429 -0.55327 -0.88332 -0.076 0.014221 0.053252 -0.079274 -0.13375 0.043984
63 -2.2474 0.44562 -0.59053 -0.76923 -0.040296 0.093201 -0.0018137 -0.40291 -0.29992 -0.022471 1.7128 0.5198 -0.55586 -0.88005 -0.072643 0.061262 0.018591 -0.38307 -0.30238 -0.010822
64 -2.2136 0.60641 0.91502 0.34215 -0.89271 0.099659 -0.14901 -0.16156 0.084122 0.088293 2.0601 0.64777 0.91831 0.25612 -0.92208 0.072192 -0.13981 -0.15797 0.091032 0.099809
65 -2.2243 0.62736 0.95527 0.39565 -0.96453 0.083142 -0.16724 -0.23466 0.23638 -0.11694 1.7735 0.71036 1.0028 0.24026 -1.0157 0.031633 -0.12299 -0.1858 0.22436 -0.088974
66 -2.1748 0.61826 0.82837 0.15094 0.92286 -0.80175 0.059473 -0.15277 0.095511 0.00054723 2.0632 0.65592 0.83501 0.071711 0.89632 -0.82753 0.079195 -0.1307 0.08972 0.014623
67 -2.2183 0.52156 -0.55001 -0.73947 0.090906 0.035703 -0.38644 0.023968 0.1395 -0.014165 1.6262 0.60398 -0.50185 -0.8599 0.057 0.0009138 -0.35276 0.0648 0.12376 -0.00032941
68 -2.2167 0.59187 -0.53581 -0.6754 0.052293 0.041139 -0.21318 0.15664 0.1239 0.013455 1.6852 0.66704 -0.49601 -0.78823 0.019458 0.0080088 -0.18572 0.1873 0.11519 0.026945
69 -2.2363 0.51264 -0.61752 -0.75999 -0.01357 0.070406 -0.10289 -0.18633 -0.11699 0.0053549 1.4547 0.62082 -0.54399 -0.92502 -0.062374 0.019689 -0.05045 -0.12344 -0.1393 0.030535
70 -2.0822 0.51374 -0.030881 -0.40639 -0.0951 0.085785 0.42424 0.13875 -0.19648 -0.011457 2.5103 0.46174 -0.1103 -0.30677 -0.060358 0.12446 0.37254 0.076414 -0.17518 -0.036758
71 -2.0475 0.57238 -0.24811 -0.024134 -0.12418 -0.0015962 0.49622 0.30118 -0.072849 0.025954 2.3579 0.53813 -0.2983 0.060398 -0.08913 0.034426 0.4703 0.2803 -0.077973 0.0024916
72 -2.2183 0.62374 0.91919 0.37252 -0.92595 0.082577 -0.13883 -0.1794 0.084683 0.12909 1.9152 0.68586 0.94453 0.25256 -0.9658 0.043514 -0.11311 -0.15469 0.082882 0.14771
73 -2.1303 0.55601 0.82458 0.16858 -0.67249 0.18683 -0.3285 0.10951 -0.65373 0.72635 2.1542 0.57252 0.8139 0.1304 -0.68557 0.17479 -0.31997 0.11952 -0.65614 0.73595
74 -2.1617 0.59175 0.8585 0.18675 0.79138 -0.72187 0.13536 -0.1884 0.021488 -0.010026 2.2448 0.60211 0.83701 0.15558 0.7807 -0.73041 0.13141 -0.1964 0.027548 -0.0087549
75 -2.1953 0.55949 -0.35561 -0.66274 0.076066 0.074834 -0.24093 0.11401 -0.030069 -0.0034333 2.0937 0.57675 -0.37668 -0.68298 0.071501 0.073045 -0.25894 0.08602 -0.01403 -0.0096166
76 -2.1526 0.5409 0.86513 0.23007 -0.68036 0.14145 -0.22822 -0.065343 0.11199 -0.26709 2.3769 0.52907 0.82008 0.24001 -0.67759 0.14749 -0.25095 -0.096402 0.12654 -0.27414
77 -2.1437 0.081251 -0.66066 -0.78939 -0.10257 9.6225e-05 0.014975 -0.60887 -0.11007 -0.022963 1.5114 0.16301 -0.59791 -0.87012 -0.11276 -0.013851 0.057132 -0.53888 -0.16191 -0.032449
78 -2.0848 0.60915 -0.28181 -0.0062174 -0.26338 0.011146 0.9234 0.44472 0.17355 -0.070055 2.1544 0.60984 -0.29987 0.0093785 -0.25337 0.021191 0.92259 0.45043 0.16446 -0.074441
79 -2.062 0.48335 0.71356 0.051306 0.083816 -0.021617 -0.12588 0.38207 -1.0145 0.88978 2.3893 0.4594 0.67045 0.084011 0.093975 -0.010077 -0.13461 0.37503 -1.0145 0.88921
80 -2.1107 0.50846 0.79072 0.14754 -0.5133 0.13875 -0.19863 0.024855 0.030423 -0.24149 2.5544 0.46471 0.71711 0.21784 -0.48975 0.16636 -0.24226 -0.029212 0.050223 -0.26185
81 -2.1118 0.54441 0.024873 -0.46493 0.1363 0.077639 -0.45617 0.48859 0.17086 -0.016597 2.538 0.49239 -0.05937 -0.36639 0.17099 0.11711 -0.51665 0.41285 0.19903 -0.048232
82 -2.2204 0.62132 0.97674 0.39057 -0.9577 0.09477 -0.22119 -0.23919 0.23216 -0.20397 1.7363 0.70954 1.0309 0.22572 -1.012 0.039628 -0.16945 -0.17979 0.21499 -0.17217
83 -2.2351 0.49279 -0.61642 -0.71623 -0.046008 0.069207 0.01918 -0.27312 -0.22054 0.011104 1.5896 0.58219 -0.56313 -0.84916 -0.084363 0.030024 0.054165 -0.23308 -0.2331 0.027188
84 -2.2169 0.46782 -0.60014 -0.65782 -0.069417 0.06244 0.10113 -0.303 -0.23454 -0.0019802 1.7725 0.52964 -0.57381 -0.74204 -0.091468 0.040633 0.1156 -0.28756 -0.23893 0.0023181
85 -2.2268 0.60057 -0.35678 -0.73885 0.2049 0.055306 -0.75595 0.47495 0.43972 0.0098007 1.7866 0.66646 -0.32841 -0.84775 0.17064 0.021415 -0.72928 0.50473 0.43169 0.027929
86 -2.1931 0.58894 0.85315 0.21737 0.85571 -0.75465 0.17317 -0.20925 -0.0091753 0.024648 2.2199 0.60912 0.8386 0.16261 0.83598 -0.77223 0.17625 -0.21028 -0.0036249 0.032043
87 -2.1962 0.62434 0.83709 0.36505 -0.87807 0.071358 -0.067512 -0.13513 0.10379 0.12173 2.0081 0.66956 0.8475 0.27765 -0.90662 0.043982 -0.052832 -0.12259 0.10494 0.1336
88 -2.0561 0.53337 0.75968 0.09541 0.40371 -0.32561 -0.0028199 0.18173 -0.69503 0.62507 2.5061 0.49135 0.69701 0.16302 0.42659 -0.30029 -0.030491 0.15181 -0.68838 0.61071
89 -2.1219 0.61812 -0.34618 -0.017321 -0.28623 0.012119 1.2294 0.53752 0.23281 -0.010139 2.0379 0.64157 -0.34465 -0.048692 -0.29354 0.0044209 1.2444 0.5595 0.22174 -0.0025096
90 -2.232 0.51654 -0.60999 -0.68351 -0.046284 0.064789 0.061141 -0.2246 -0.20108 0.00377 1.6394 0.5991 -0.56385 -0.80622 -0.081735 0.028887 0.090678 -0.19212 -0.20971 0.017918
91 -2.2132 0.57364 -0.40046 -0.72492 0.10431 0.083526 -0.43201 0.22452 0.13926 0.0024187 1.9975 0.60669 -0.40662 -0.77402 0.090065 0.071444 -0.43692 0.21334 0.14817 0.0030345
92 -2.2057 0.62302 -0.4463 -0.72658 0.22791 -0.065907 -0.4384 0.21856 0.29259 0.022408 1.3936 0.73739 -0.36212 -0.90435 0.1747 -0.12205 -0.37179 0.30237 0.2589 0.054491
93 -2.0975 0.55739 0.6226 0.20943 -0.53275 0.080286 0.0011707 0.057308 0.036179 -0.033106 2.4165 0.52949 0.56873 0.2594 -0.51429 0.10145 -0.028158 0.022794 0.046932 -0.048222
94 -2.2259 0.48737 -0.60849 -0.71915 -0.045214 0.074424 0.019975 -0.24985 -0.18581 -0.014866 1.6196 0.57154 -0.55936 -0.84308 -0.080664 0.038162 0.05362 -0.21037 -0.19924 0.00072113
95 -2.2071 0.52632 -0.56689 -0.63434 -0.045587 0.060417 0.016499 -0.12668 -0.15842 0.033823 1.784 0.58602 -0.54173 -0.71714 -0.067747 0.038445 0.032261 -0.10934 -0.16356 0.039913
96 -2.2107 0.62017 -0.29361 -0.66862 0.31011 -0.078099 -0.62374 0.42005 0.47817 -0.0045614 1.7907 0.68237 -0.26794 -0.76614 0.28076 -0.10693 -0.60475 0.43907 0.47531 0.0071569
97 -2.2235 0.57935 -0.33056 -0.71823 0.18976 0.051402 -0.63835 0.38904 0.36789 -0.026787 1.9472 0.62178 -0.32819 -0.78617 0.16879 0.032378 -0.63698 0.38423 0.37626 -0.021508
98 -2.3497 0.38645 0.69874 0.4174 1.0496 2.0471 0.16771 -0.16419 0.14647 0.072215 2.5242 0.40737 0.67994 0.33213 1.0196 2.0189 0.19352 -0.12731 0.12486 0.082229
99 -2.1556 0.55767 0.84341 0.23119 -0.73054 0.12684 -0.15094 -0.065587 0.053847 -0.0087817 2.4734 0.53128 0.78099 0.2683 -0.71846 0.1434 -0.19256 -0.1221 0.079376 -0.027118
100 -2.1466 0.68475 0.42789 -0.22275 0.8442 -0.6732 -0.32541 0.11443 0.43677 0.031671 1.8597 0.73615 0.45078 -0.30415 0.82107 -0.69651 -0.30382 0.14115 0.42535 0.038807
101 -2.1568 0.51921 0.79721 0.13966 0.70282 -0.50582 0.13715 -0.038089 -0.27895 -0.1139 2.3869 0.51103 0.7577 0.13491 0.69933 -0.50656 0.12509 -0.055576 -0.26928 -0.11408
102 -2.2273 0.62537 0.9551 0.38971 -0.92537 0.063777 -0.16251 -0.23306 0.20245 -0.064424 1.8996 0.69116 0.98312 0.26266 -0.96756 0.022399 -0.13545 -0.20716 0.20053 -0.045461
103 -2.2039 0.63632 0.84791 0.31147 -0.94581 0.07755 -0.052924 -0.19079 0.12827 0.093421 1.8507 0.70334 0.88015 0.18817 -0.98578 0.037838 -0.023007 -0.1595 0.12229 0.11224
104 -2.0961 0.53467 -0.36881 -0.4913 -0.28402 -0.087148 0.75452 0.086635 0.25558 0.018091 1.1159 0.6711 -0.24395 -0.68654 -0.33831 -0.14842 0.85646 0.22493 0.19012 0.059566
105 -2.177 0.5701 -0.14832 -0.62195 0.1909 0.067801 -0.65145 0.4982 0.34321 -0.015483 2.3 0.55945 -0.19688 -0.60116 0.19844 0.079211 -0.68465 0.45276 0.36431 -0.028455
106 -2.2172 0.47929 -0.59883 -0.67906 -0.070141 0.076195 0.071622 -0.31363 -0.30764 0.010659 1.7016 0.55158 -0.56093 -0.78322 -0.099245 0.046659 0.098027 -0.28264 -0.31827 0.02246
107 -2.0009 0.56992 -0.15904 0.11146 -0.065956 -0.0011377 0.23752 0.29938 -0.15301 0.037034 2.6118 0.49325 -0.24761 0.28169 0.0014979 0.068371 0.17945 0.24559 -0.15627 -0.016477
108 -2.2351 0.49666 -0.61717 -0.71593 -0.033495 0.057793 -0.014425 -0.24991 -0.16901 0.01642 1.5773 0.58758 -0.56231 -0.85092 -0.072391 0.018007 0.021159 -0.20929 -0.18161 0.032617
109 -2.1746 0.61895 0.76719 0.31604 -0.80606 0.062901 -0.066438 -0.16125 0.29788 -0.31922 2.194 0.63399 0.74799 0.28431 -0.81553 0.055735 -0.074265 -0.17446 0.30572 -0.32156
110 -2.2048 0.59717 -0.25655 -0.62951 0.20889 0.037938 -0.63142 0.50543 0.37927 -0.013299 2.1055 0.61623 -0.27693 -0.6581 0.20069 0.032618 -0.64699 0.47984 0.39513 -0.017067
111 -2.1626 0.58571 0.8391 0.22268 -0.76126 0.13632 -0.24996 -0.02596 -0.3509 0.5195 2.2409 0.59355 0.81311 0.19856 -0.76987 0.13035 -0.26077 -0.044316 -0.33872 0.51923
112 -2.1684 0.65812 0.87372 0.18951 0.79906 -0.84885 0.18933 -0.27645 0.18388 -0.039028 1.6543 0.75 0.93979 0.026271 0.74757 -0.90274 0.25248 -0.19742 0.15273 -0.0080829
113 -2.2061 0.48434 -0.57779 -0.67214 -0.033247 0.051242 -0.012985 -0.18319 -0.099046 -0.0073033 1.7621 0.54602 -0.55022 -0.75526 -0.054729 0.029778 0.0033851 -0.16437 -0.10583 -0.0026585
114 -2.2128 0.5942 0.96533 0.35339 -0.84755 0.092244 -0.25374 -0.21745 0.2139 -0.27295 2.0268 0.64134 0.97588 0.25593 -0.88077 0.060342 -0.23493 -0.19996 0.21363 -0.25632
115 -2.1234 0.55126 -0.17963 -0.53098 -0.01019 0.067018 0.11061 0.20304 -0.033776 -0.0032341 2.3269 0.52868 -0.23331 -0.48285 0.0074001 0.087866 0.07586 0.15924 -0.016605 -0.018179
116 -2.1952 0.61098 -0.28174 -0.64399 0.20508 0.025437 -0.6436 0.4702 0.36852 0.05536 2.0561 0.63631 -0.29289 -0.68424 0.19296 0.015259 -0.6451 0.46601 0.37227 0.059218
117 -2.0532 0.58341 -0.25719 -0.021876 -0.16825 0.00066112 0.66204 0.36368 0.030252 -0.012907 2.3631 0.54919 -0.30858 0.061338 -0.13398 0.036164 0.63394 0.33894 0.027603 -0.037426
118 -2.1894 0.59104 0.88429 0.31163 -0.79141 0.0872 -0.14711 -0.10486 -0.0055541 0.1826 2.2676 0.59964 0.85528 0.28354 -0.80165 0.080216 -0.16298 -0.13181 0.012037 0.18025
119 -2.2304 0.62313 0.954 0.39298 -0.91602 0.060397 -0.1609 -0.23946 0.22498 -0.096153 1.9533 0.68206 0.97415 0.27669 -0.95491 0.022769 -0.13984 -0.22129 0.22616 -0.079935
120 -2.2116 0.60153 -0.47573 -0.67318 0.11625 0.035807 -0.42541 0.34026 0.30554 -0.0094188 1.6511 0.68179 -0.42938 -0.79627 0.079826 -0.0014175 -0.38986 0.38221 0.29146 0.0089682
121 -2.1615 0.54123 0.82585 0.15554 0.75583 -0.58417 0.15587 -0.086674 -0.21767 -0.10981 2.313 0.54386 0.79711 0.13283 0.74673 -0.59096 0.15101 -0.095402 -0.21126 -0.10697
122 -2.0862 0.64132 -0.16173 -0.053496 -0.48413 0.031903 0.71725 0.15231 0.11781 -0.01973 2.1506 0.63887 -0.18589 -0.024168 -0.46731 0.049504 0.70265 0.14102 0.1125 -0.038833
123 -2.1628 0.57527 0.83848 0.15114 0.82942 -0.70047 0.12857 -0.14375 0.019534 -0.014395 2.3118 0.57645 0.80677 0.13436 0.82297 -0.70421 0.11675 -0.16229 0.030501 -0.016109
124 -2.1743 0.58325 0.87473 0.19857 0.84988 -0.72511 0.14928 -0.17112 -0.11863 -0.080172 2.1063 0.61649 0.87724 0.1245 0.8246 -0.74948 0.16712 -0.1516 -0.12311 -0.066997
125 -2.1516 0.53728 -0.30718 -0.53002 -0.11235 0.092901 0.42118 0.019563 -0.19382 -0.025578 2.208 0.53423 -0.34344 -0.515 -0.10557 0.10247 0.3966 -0.013799 -0.17812 -0.034468
126 -2.21 0.59147 0.95563 0.33735 -0.77637 0.048041 -0.19586 -0.22993 0.25679 -0.26491 2.2311 0.60879 0.93322 0.2918 -0.7926 0.035022 -0.20681 -0.25147 0.27288 -0.26435
127 -2.1581 0.60028 0.78052 0.31326 -0.75318 0.063424 -0.070619 -0.09706 0.11893 0.015231 2.302 0.59809 0.74475 0.31138 -0.75307 0.066512 -0.091282 -0.1265 0.13348 0.006923
128 -2.1912 0.65502 0.91058 0.36505 -0.86184 -0.016652 -0.05999 -0.25739 0.24347 -0.047803 1.6439 0.74962 0.97532 0.1977 -0.91509 -0.071719 -0.0017362 -0.18727 0.21904 -0.016262
129 -2.1327 0.54875 0.87362 0.21053 -0.69703 0.16156 -0.30428 0.0013438 -0.23305 0.16588 2.4536 0.52349 0.81656 0.24385 -0.68668 0.17555 -0.33519 -0.039131 -0.21579 0.15397
130 -2.2053 0.63922 0.85573 0.36151 -0.92877 0.063548 -0.0078837 -0.19127 0.22461 -0.062348 1.9269 0.69651 0.87753 0.254 -0.96365 0.029461 0.014005 -0.17015 0.22262 -0.047638
131 -2.1799 0.6104 0.81819 0.14266 0.89986 -0.77646 0.063995 -0.14077 0.10904 0.010217 2.1083 0.64201 0.81711 0.073971 0.87671 -0.79825 0.07509 -0.13105 0.10958 0.019897
132 -2.0414 0.46248 0.66322 0.0074818 -0.13544 0.13153 -0.16854 0.40753 -0.89514 0.76239 2.6634 0.39478 0.57454 0.12086 -0.097882 0.17268 -0.21645 0.35217 -0.87824 0.73907
133 -2.035 0.45152 0.6303 -0.016034 0.067401 0.053158 -0.097066 0.42098 -0.87424 0.66899 2.6579 0.38418 0.5435 0.096393 0.10453 0.093584 -0.14146 0.37079 -0.85978 0.64802
134 -2.1851 0.62174 0.84604 0.1542 0.95342 -0.82849 0.062744 -0.17165 0.11686 -0.0052479 1.8616 0.68868 0.88297 0.026333 0.91151 -0.87103 0.10422 -0.12287 0.10142 0.019208
135 -2.2347 0.50362 -0.62044 -0.73358 -0.040605 0.077741 0.00060199 -0.27086 -0.25796 0.0042772 1.5011 0.60558 -0.55321 -0.88893 -0.086542 0.030169 0.048797 -0.2135 -0.27772 0.028099
136 -2.2083 0.61474 -0.32193 -0.70833 0.25939 -0.035641 -0.59842 0.44305 0.46381 -0.008139 1.6646 0.69401 -0.27702 -0.83477 0.22056 -0.075099 -0.56159 0.48592 0.45048 0.013509
137 -2.0475 0.57238 -0.24811 -0.024134 -0.12418 -0.0015962 0.49622 0.30118 -0.072849 0.025954 2.3579 0.53813 -0.2983 0.060398 -0.08913 0.034426 0.4703 0.2803 -0.077973 0.0024916
138 -2.1931 0.58894 0.85315 0.21737 0.85571 -0.75465 0.17317 -0.20925 -0.0091753 0.024648 2.2199 0.60912 0.8386 0.16261 0.83598 -0.77223 0.17625 -0.21028 -0.0036249 0.032043
139 -2.0723 0.62951 -0.12015 -0.044469 -0.42446 0.024625 0.43374 0.14107 0.2129 -0.18518 2.2038 0.61765 -0.15227 0.0035398 -0.40085 0.049139 0.41378 0.12473 0.20778 -0.20804
140 -2.2315 0.56714 -0.5814 -0.70267 -0.0017591 0.06957 -0.070587 -0.029583 -0.084987 0.0036447 1.5871 0.6574 -0.52724 -0.84107 -0.042965 0.027538 -0.033096 0.012808 -0.097224 0.023148
141 -2.099 0.69705 -0.79791 -0.039656 -0.18966 -0.12738 0.48926 0.12882 0.14943 0.058977 1.221 0.82072 -0.68062 -0.19804 -0.22551 -0.17098 0.5861 0.2709 0.068694 0.080265
142 -2.1368 0.5916 0.8425 0.172 0.71996 -0.68015 0.11926 -0.16996 0.015534 -0.0111 2.3641 0.58088 0.80143 0.18038 0.72285 -0.67448 0.10056 -0.19456 0.025753 -0.018983
143 -2.1318 0.40324 0.55422 0.019009 0.11012 0.20442 -0.12972 0.69336 -1.2364 -1.7228 2.5874 0.36818 0.49358 0.050345 0.11611 0.21299 -0.14 0.68382 -1.2347 -1.7199
144 -2.1403 0.58504 0.81816 0.157 0.76218 -0.68008 0.12674 -0.13839 0.0073114 0.013286 2.3676 0.57451 0.77693 0.16393 0.76426 -0.67517 0.10818 -0.16336 0.018468 0.0063273
145 -2.2041 0.58073 -0.48896 -0.62839 -0.11892 0.089301 -0.18596 -0.084522 -0.24722 0.2379 1.7423 0.64619 -0.4577 -0.72257 -0.14505 0.063059 -0.16416 -0.05904 -0.25639 0.24666
146 -2.1253 0.64966 -0.28929 0.032321 -0.41704 -0.012083 1.2447 0.47055 0.35118 0.034564 1.9622 0.68346 -0.27753 -0.014334 -0.42849 -0.024319 1.2655 0.5003 0.33577 0.042615
147 -2.2352 0.60713 0.97809 0.37846 -0.88085 0.066793 -0.20978 -0.26193 0.2752 -0.24519 2.0161 0.65869 0.98965 0.272 -0.91725 0.032156 -0.19407 -0.25094 0.27987 -0.23007
148 -2.195 0.59785 0.86369 0.2065 0.90558 -0.79171 0.14943 -0.2066 0.028564 0.013089 2.0846 0.63676 0.86909 0.12122 0.8763 -0.81983 0.16714 -0.1893 0.027132 0.027424
149 -2.2091 0.60049 0.93288 0.33851 -0.88353 0.10245 -0.17704 -0.18859 0.19729 -0.1612 2.0934 0.63677 0.93139 0.26103 -0.91015 0.077885 -0.17068 -0.18809 0.20494 -0.15124
150 -2.2403 0.48897 -0.58198 -0.78989 -0.0081905 0.078692 -0.11265 -0.19748 -0.094949 -0.017736 1.5817 0.57994 -0.52849 -0.92785 -0.049007 0.037251 -0.077766 -0.15899 -0.10511 0.00035115
151 -2.2248 0.59522 -0.34352 -0.7068 0.21675 0.026576 -0.66424 0.4477 0.44173 -0.020035 1.8251 0.65483 -0.32241 -0.80296 0.18696 -0.0022922 -0.64798 0.46212 0.44221 -0.0075562
152 -2.1953 0.62488 0.92923 0.33886 -0.90733 0.11008 -0.23116 -0.087958 -0.27177 0.49589 1.8461 0.69384 0.96551 0.20779 -0.95079 0.066435 -0.19357 -0.046527 -0.28157 0.52034
153 -2.2102 0.60677 -0.46459 -0.63911 0.14457 0.023374 -0.47766 0.34764 0.30135 0.0037801 1.7887 0.66791 -0.43881 -0.7295 0.11899 -0.0019247 -0.45939 0.36771 0.29548 0.011912
154 -2.222 0.59822 0.96515 0.35744 -0.82145 0.055337 -0.19835 -0.24204 0.26503 -0.24772 2.1472 0.62921 0.95597 0.28738 -0.84585 0.033639 -0.19931 -0.25175 0.27737 -0.24152
155 -2.2028 0.6236 -0.22306 -0.63899 0.35673 -0.1019 -0.68817 0.47261 0.52579 0.0041844 1.9017 0.67058 -0.21267 -0.71307 0.3345 -0.12295 -0.67881 0.48002 0.52693 0.011372
156 -1.981 0.42104 0.51841 -0.10908 0.028607 0.096323 -0.017572 0.31436 -0.26596 -0.019264 2.8957 0.30652 0.38701 0.10467 0.10362 0.17619 -0.10345 0.21845 -0.2428 -0.071702
157 -2.0682 0.47667 0.15958 -0.34257 0.0056744 0.13981 0.028982 0.0065463 -0.57175 -0.035797 2.6758 0.40271 0.059397 -0.20837 0.051569 0.19029 -0.034037 -0.067521 -0.54874 -0.067913
158 -2.1328 0.60706 0.73966 0.063147 0.76809 -0.66534 -0.0085822 -0.038296 0.13366 0.020669 2.3565 0.59441 0.6962 0.078442 0.77374 -0.65671 -0.032172 -0.069607 0.14695 0.0095764
159 -2.1828 0.55642 -0.32668 -0.61746 0.033497 0.093022 -0.11676 0.049797 -0.16935 0.0040458 2.2356 0.55261 -0.36891 -0.60163 0.0407 0.10394 -0.15101 0.0018881 -0.14632 -0.011109
160 -2.236 0.49941 -0.56459 -0.79201 0.00052219 0.077445 -0.11448 -0.13816 -0.061701 -0.022064 1.5778 0.59053 -0.51047 -0.93065 -0.040635 0.035582 -0.078413 -0.097923 -0.072828 -0.0033697
161 -2.2177 0.60822 0.90912 0.35045 -0.89074 0.089215 -0.12895 -0.17507 0.13144 0.054648 2.0638 0.64946 0.91164 0.26491 -0.91983 0.062154 -0.12138 -0.17388 0.13949 0.064914
162 -2.0996 0.57223 0.70476 0.212 -0.56196 0.035583 0.055416 0.011536 0.10989 -0.02063 2.5405 0.52622 0.62935 0.29447 -0.53242 0.069308 0.0036508 -0.052721 0.13271 -0.049757
163 -2.0469 0.53648 0.71613 0.079204 0.49142 -0.42493 0.093433 0.0004647 -0.13338 0.049001 2.6669 0.46731 0.62451 0.20294 0.53507 -0.37739 0.037505 -0.062866 -0.11751 0.015012
164 -2.1355 0.64148 0.59942 -0.076719 0.78362 -0.6613 -0.1144 -0.031967 0.19487 0.03131 2.2092 0.64615 0.57345 -0.085079 0.78273 -0.65997 -0.12803 -0.050456 0.20232 0.022992
165 -2.0744 0.49618 0.74443 0.07433 -0.33962 0.16659 -0.26786 0.33911 -0.96576 0.92592 2.5227 0.45418 0.6788 0.13727 -0.31993 0.18922 -0.29745 0.30401 -0.95331 0.91542
166 -2.1483 0.53862 0.86514 0.22472 -0.64933 0.12411 -0.23717 -0.083675 0.1287 -0.30814 2.4682 0.51315 0.80572 0.25893 -0.63839 0.13904 -0.27189 -0.12952 0.14835 -0.32232
167 -2.1236 0.61439 -0.34575 -0.0019526 -0.27734 0.0043649 1.2212 0.54535 0.25694 0.013202 2.0851 0.63167 -0.35098 -0.022637 -0.28096 0.00070717 1.2307 0.56078 0.24767 0.016968
168 -2.1973 0.63433 0.86468 0.30676 -0.95194 0.089706 -0.086229 -0.18197 0.092973 0.094806 1.8449 0.70159 0.89834 0.1827 -0.99223 0.049436 -0.053234 -0.14583 0.084183 0.11538
169 -2.0545 0.48527 0.69557 0.035142 -0.34411 0.16452 -0.22413 0.24545 -0.60222 0.52474 2.6737 0.41636 0.60292 0.15307 -0.30441 0.20832 -0.27841 0.18182 -0.58243 0.49731
170 -2.2162 0.59221 -0.26448 -0.65838 0.2158 0.052538 -0.71949 0.53827 0.43874 -0.02057 2.0383 0.62254 -0.27394 -0.70818 0.20029 0.039437 -0.72521 0.52494 0.4501 -0.018334
171 -2.1932 0.56065 -0.52935 -0.53481 -0.070975 0.062233 0.15851 -0.067136 -0.19486 0.013873 1.9786 0.59269 -0.5324 -0.57257 -0.078994 0.055733 0.15277 -0.077345 -0.18871 0.0092502
172 -2.1606 0.6269 0.95907 0.25063 0.62157 -0.72971 0.092826 -0.29995 0.085084 -0.076075 2.1357 0.65188 0.95307 0.19726 0.60468 -0.74522 0.099308 -0.29374 0.083627 -0.072709
173 -2.1396 0.68769 0.81786 0.27754 0.73542 -0.85701 0.15659 -0.28021 0.053739 0.11888 1.5565 0.78879 0.89954 0.10677 0.68401 -0.91241 0.23451 -0.17683 0.0062101 0.15108
174 -2.2244 0.51958 -0.5978 -0.6733 -0.025911 0.055646 -0.016043 -0.1529 -0.11572 0.0070624 1.7077 0.5916 -0.56198 -0.77728 -0.05504 0.026473 0.0057654 -0.12943 -0.12174 0.016626
175 -2.0964 0.60755 -0.33087 -0.015693 -0.24226 -0.0033976 1.0457 0.47112 0.19747 0.03526 2.2315 0.59921 -0.36016 0.013995 -0.22773 0.011904 1.0356 0.46518 0.19218 0.024536
176 -2.1942 0.5247 -0.57439 -0.60422 -0.051522 0.028599 0.098488 -0.15278 -0.074568 0.035182 1.8157 0.5789 -0.55268 -0.678 -0.070899 0.0092194 0.11581 -0.13131 -0.083314 0.042998
177 -2.1635 0.55546 0.90188 0.25841 -0.65435 0.081484 -0.23012 -0.13621 0.17218 -0.31947 2.3876 0.54381 0.85519 0.26722 -0.65196 0.087465 -0.25581 -0.17192 0.1892 -0.3284
178 -1.981 0.42104 0.51841 -0.10908 0.028607 0.096323 -0.017572 0.31436 -0.26596 -0.019264 2.8957 0.30652 0.38701 0.10467 0.10362 0.17619 -0.10345 0.21845 -0.2428 -0.071702
179 -2.1972 0.52913 -0.59427 -0.67199 -0.1251 0.085253 0.29824 -0.21099 -0.2523 -0.0021765 1.5322 0.62331 -0.52933 -0.8155 -0.16771 0.040328 0.35347 -0.14055 -0.28099 0.026753
180 -2.2376 0.47508 -0.57233 -0.75809 -0.043451 0.080006 0.013726 -0.28991 -0.22898 0.0074623 1.6582 0.55549 -0.52982 -0.87883 -0.07891 0.044454 0.040298 -0.26216 -0.23453 0.021868
181 -2.1314 0.70599 0.6107 0.3624 -0.76418 -0.10842 0.27155 -0.12548 0.27092 0.083 1.8003 0.76592 0.64673 0.27243 -0.78772 -0.13332 0.30323 -0.082414 0.2483 0.089151
182 -2.1866 0.58297 0.931 0.31377 -0.79555 0.097209 -0.21469 -0.16064 0.1739 -0.20766 2.1582 0.60709 0.91988 0.25905 -0.81435 0.080527 -0.21333 -0.16414 0.18076 -0.20107
183 -2.2366 0.4482 -0.56991 -0.75308 -0.061007 0.086179 0.08252 -0.36991 -0.27779 -0.017376 1.7358 0.51781 -0.53887 -0.85569 -0.090689 0.056968 0.10036 -0.35314 -0.27907 -0.007053
184 -2.1983 0.59275 0.86241 0.21554 0.89186 -0.77905 0.16547 -0.21258 0.0079599 0.01748 2.1292 0.62636 0.86175 0.1378 0.8647 -0.80472 0.17917 -0.20049 0.0087498 0.03041
185 -2.157 0.54579 0.81716 0.1712 0.74673 -0.58571 0.14961 -0.086779 -0.24423 -0.079842 2.3089 0.54843 0.78933 0.14937 0.7382 -0.5921 0.14612 -0.092969 -0.23973 -0.076983
186 -2.1776 0.61712 -0.4314 -0.51434 0.086484 0.00012814 -0.24225 0.38852 0.29107 0.014064 1.9996 0.64523 -0.43661 -0.54631 0.080433 -0.0045344 -0.2472 0.38102 0.29415 0.0087298
187 -2.1012 0.65067 0.40669 0.27668 -0.70785 0.016055 0.15274 -0.032524 0.13986 0.056327 2.022 0.67441 0.40906 0.25237 -0.70963 0.013923 0.16217 -0.014556 0.12474 0.052132
188 -2.2328 0.52023 -0.62694 -0.75143 -0.025121 0.069105 -0.030282 -0.16341 -0.10482 0.0084384 1.4427 0.62971 -0.55142 -0.9187 -0.074677 0.017458 0.024459 -0.097235 -0.12879 0.034837
189 -2.2344 0.61304 0.9657 0.38324 -0.90102 0.069221 -0.18423 -0.25878 0.29398 -0.25855 1.9578 0.67241 0.98592 0.26433 -0.94127 0.030252 -0.16174 -0.23902 0.2951 -0.24002
190 -2.2114 0.5351 -0.58474 -0.7235 -0.032775 0.054464 -0.085428 -0.098461 0.028626 -0.031336 1.4892 0.63568 -0.51571 -0.87536 -0.077398 0.0076974 -0.032382 -0.032575 0.0032151 -0.0049144
191 -2.1563 0.61495 0.75269 0.074897 0.83611 -0.71626 -0.012348 -0.069426 0.1569 0.019932 2.1786 0.63144 0.73797 0.036791 0.82366 -0.72695 -0.012464 -0.072443 0.16095 0.022953
192 -2.0844 0.50503 0.77649 0.10583 -0.29945 0.12648 -0.24314 0.35388 -1.0368 1.0147 2.3145 0.49437 0.74384 0.11416 -0.29757 0.12969 -0.24673 0.35104 -1.0362 1.0174
193 -2.1343 0.64683 -0.26395 -0.42009 0.27743 -0.18568 -0.26306 0.38975 0.44363 0.040322 2.0396 0.66507 -0.27319 -0.43258 0.27882 -0.18352 -0.26574 0.39032 0.43758 0.032463
194 -2.2049 0.63304 -0.37323 -0.61911 0.27041 -0.068417 -0.57914 0.42779 0.45104 -0.0012737 1.7276 0.7028 -0.33746 -0.72496 0.23984 -0.099301 -0.55179 0.46008 0.43947 0.010918
195 -2.2347 0.50474 -0.6239 -0.7348 -0.03095 0.074468 -0.019897 -0.23899 -0.20695 -0.0125 1.5216 0.60392 -0.55964 -0.88558 -0.075392 0.028534 0.026105 -0.18427 -0.22588 0.009855
196 -2.2186 0.59283 -0.3597 -0.73019 0.17801 0.044722 -0.60643 0.45071 0.45041 -0.020931 1.8195 0.65281 -0.33676 -0.82832 0.14724 0.014522 -0.58419 0.47485 0.4448 -0.0048107
197 -2.1848 0.64852 0.91663 0.38163 -0.74969 -0.05388 -0.08421 -0.20696 0.081591 0.17305 1.8826 0.7098 0.94603 0.26903 -0.78565 -0.089854 -0.053688 -0.17249 0.071743 0.19078
198 -2.2074 0.64917 1.0399 0.39499 -0.63495 -0.15495 -0.13946 -0.35306 0.32843 -0.25341 1.8578 0.71798 1.0739 0.26619 -0.6766 -0.19643 -0.10667 -0.31714 0.31906 -0.23456
199 -2.2659 0.46523 -0.66072 -0.79358 -0.065515 0.076572 0.05212 -0.3495 -0.23668 0.015151 1.714 0.54168 -0.62651 -0.91176 -0.10133 0.041533 0.071665 -0.33294 -0.23522 0.029015
200 -2.2419 0.53639 -0.55406 -0.7202 -0.082674 0.090427 0.24133 -0.14153 -0.21459 -0.0082862 2.0242 0.56968 -0.56406 -0.77577 -0.10133 0.074637 0.233 -0.16164 -0.19577 -0.001842
201 -2.2573 0.4478 -0.65123 -0.80727 -0.044433 0.057799 0.015891 -0.32148 -0.1241 -0.016612 1.8292 0.50698 -0.6346 -0.89597 -0.070745 0.033049 0.022308 -0.32108 -0.11669 -0.0093737
202 -2.2289 0.64863 0.90653 0.29316 0.84718 -0.87747 0.16359 -0.33356 0.11559 0.0013813 2.458 0.643 0.85821 0.26979 0.83442 -0.88562 0.14175 -0.37073 0.14106 0.0035801
203 -2.2613 0.50082 -0.69098 -0.72567 -0.049065 0.052167 0.047908 -0.28982 -0.1672 0.0025186 1.695 0.57943 -0.6533 -0.8454 -0.084611 0.017069 0.069749 -0.26949 -0.16833 0.01558
204 -2.287 0.45772 -0.67507 -0.79411 -0.038554 0.083873 -0.0039828 -0.38202 -0.25381 -0.009604 1.9009 0.51161 -0.66864 -0.87859 -0.064634 0.060443 -0.0079344 -0.3981 -0.23632 -0.0052483
205 -2.2485 0.47396 -0.69836 -0.71326 -0.076672 0.049283 0.058117 -0.29615 -0.15671 0.025041 1.7823 0.53845 -0.67379 -0.80658 -0.10302 0.023791 0.070372 -0.28633 -0.15557 0.031724
206 -2.2556 0.45976 -0.70908 -0.71879 -0.079525 0.051959 0.11709 -0.35736 -0.19291 -0.0076823 1.7892 0.52433 -0.68536 -0.813 -0.10632 0.026158 0.12842 -0.34912 -0.1908 -0.0011497
207 -2.2478 0.47875 -0.68201 -0.72212 -0.086912 0.064167 0.13212 -0.34515 -0.24546 0.015483 1.6827 0.55748 -0.64176 -0.84094 -0.12189 0.029165 0.15868 -0.31688 -0.25172 0.030391
208 -2.2589 0.37007 -0.65919 -0.81448 -0.027675 0.065052 -0.097711 -0.40668 -0.13225 -0.033662 2.1494 0.38494 -0.69054 -0.82796 -0.029582 0.067192 -0.1297 -0.45491 -0.10596 -0.046243
209 -2.1736 0.44957 -0.72023 -0.45999 -0.16543 -0.049482 0.35196 -0.22677 0.077119 0.0079656 2.3699 0.42396 -0.78042 -0.3942 -0.13844 -0.018849 0.30616 -0.28229 0.095278 -0.018942
210 -2.2603 0.47638 -0.63001 -0.78503 -0.060839 0.079916 0.093953 -0.2904 -0.1917 -0.019081 1.8761 0.53044 -0.61969 -0.86905 -0.086752 0.056013 0.096552 -0.29612 -0.18011 -0.01123
211 -2.2056 0.6128 -0.71011 -0.35586 -0.22544 -0.02337 0.78976 0.12785 0.15495 0.043339 2.2599 0.61088 -0.75005 -0.34699 -0.22125 -0.015845 0.76297 0.090091 0.17417 0.034827
212 -2.2187 0.65031 0.83721 0.26297 0.88212 -0.86036 0.11292 -0.23759 0.073799 0.0652 2.8406 0.58972 0.73007 0.33095 0.89805 -0.83679 0.04472 -0.3346 0.12432 0.045866
213 -2.1519 0.63393 -0.47147 -0.023195 -0.31526 -0.024561 1.2062 0.48314 0.30555 -0.0057028 2.2842 0.62673 -0.50796 -0.0070803 -0.30862 -0.015756 1.1886 0.45988 0.31684 -0.010628
214 -2.2728 0.62227 0.98306 0.42954 -0.90793 0.051478 -0.19952 -0.29368 0.33007 -0.31869 2.3521 0.63493 0.94675 0.37556 -0.93092 0.033441 -0.21984 -0.33371 0.36167 -0.31342
215 -2.2862 0.59205 -0.37278 -0.72671 0.21615 0.067029 -0.75752 0.52412 0.50822 -0.014511 2.8764 0.51915 -0.50513 -0.62819 0.24119 0.10217 -0.85477 0.3854 0.58089 -0.041982
216 -2.2531 0.6142 0.87294 0.28808 0.9291 -0.84539 0.18243 -0.27047 0.014308 0.045378 2.4828 0.60979 0.82311 0.25783 0.91305 -0.85642 0.15905 -0.312 0.044329 0.048812
217 -2.2463 0.62029 0.88183 0.261 0.96346 -0.86975 0.16565 -0.26395 0.062042 0.024576 2.2227 0.6499 0.86981 0.17827 0.93182 -0.89845 0.17021 -0.26884 0.075952 0.039175
218 -2.1604 0.64061 -0.44486 -0.027679 -0.37667 -0.017278 1.2381 0.44445 0.32709 0.0070075 2.2259 0.64251 -0.473 -0.027489 -0.37523 -0.013929 1.2262 0.42809 0.33582 0.0048724
219 -2.1786 0.6128 -0.38964 -0.074372 -0.3469 -0.0051557 1.3411 0.50226 0.34682 0.0050715 2.3894 0.59638 -0.44102 -0.053875 -0.34205 0.0032953 1.313 0.46112 0.37086 0.0018169
220 -2.2606 0.61596 -0.38072 -0.68397 0.24513 -0.0045093 -0.62204 0.40296 0.38354 0.040554 2.8511 0.54211 -0.51042 -0.57814 0.27391 0.03381 -0.71716 0.26943 0.45135 0.011686
221 -2.635 0.33576 0.70293 0.62122 1.2419 2.3601 0.17083 -0.23571 0.17762 0.04082 2.9915 0.34907 0.63963 0.47872 1.1774 2.3037 0.1717 -0.25567 0.20919 0.072397
222 -2.6006 0.34193 0.70246 0.59613 1.218 2.321 0.17073 -0.22596 0.17303 0.044838 3.0797 0.33625 0.62259 0.49242 1.1673 2.2789 0.15742 -0.26168 0.2082 0.066558
223 -2.4725 0.36446 0.6983 0.49948 1.1176 2.1524 0.16637 -0.18297 0.14853 0.057119 3.1221 0.32758 0.60006 0.47501 1.0978 2.1406 0.13497 -0.23299 0.17954 0.06001
224 -2.4725 0.36446 0.6983 0.49948 1.1176 2.1524 0.16637 -0.18297 0.14853 0.057119 3.1221 0.32758 0.60006 0.47501 1.0978 2.1406 0.13497 -0.23299 0.17954 0.06001
225 -2.4169 0.37424 0.6969 0.45896 1.0784 2.0882 0.16585 -0.1693 0.14311 0.063095 3.3624 0.29304 0.55702 0.51991 1.0884 2.1076 0.09983 -0.25939 0.18504 0.043415
226 -2.225 0.54037 0.8424 0.20962 0.8201 -0.61851 0.15574 -0.11069 -0.24787 -0.12222 2.5524 0.52277 0.78295 0.20243 0.81133 -0.62234 0.12914 -0.15431 -0.21848 -0.11973
227 -2.175 0.63632 -0.58262 -0.10431 -0.30625 -0.046526 1.1193 0.35131 0.30938 0.047269 2.3037 0.6282 -0.62335 -0.087018 -0.29935 -0.036942 1.0979 0.32309 0.32237 0.04087
228 -2.1817 0.63898 -0.62019 -0.12562 -0.31595 -0.060234 1.0812 0.30582 0.32014 0.049507 2.3871 0.61947 -0.67455 -0.089085 -0.30293 -0.043668 1.0478 0.26177 0.3399 0.037293
229 -2.1632 0.52571 -0.3775 -0.4651 -0.27714 -0.075704 0.79685 0.10019 0.26405 0.011609 3.0545 0.40776 -0.54175 -0.26895 -0.21636 -0.0049353 0.67356 -0.064075 0.33907 -0.035578
230 -2.2237 0.53938 -0.55761 -0.63702 -0.14285 0.029512 0.38395 -0.076639 0.0048338 0.00064907 2.5141 0.50321 -0.64076 -0.5792 -0.12637 0.052481 0.32061 -0.16739 0.053322 -0.016841
231 -2.223 0.51176 -0.43998 -0.63487 -0.038393 0.13401 0.088154 -0.25105 -0.51837 -0.030209 2.4211 0.4906 -0.50542 -0.604 -0.030334 0.14735 0.043012 -0.31619 -0.48302 -0.040268
232 -2.2384 0.66343 0.88223 0.30278 0.8562 -0.90318 0.18417 -0.33668 0.12254 0.030927 2.6866 0.62785 0.79961 0.32567 0.85711 -0.89562 0.1353 -0.41014 0.16475 0.022193
233 -2.6547 0.72576 -1.8599 1.6474 -0.036393 -0.23978 -0.11791 0.036996 -0.010109 0.064296 2.739 0.75344 -1.8979 1.5585 -0.063088 -0.26206 -0.11398 0.046152 -0.023439 0.057102
234 -2.1989 0.3909 0.55132 0.058378 0.12807 0.22291 -0.13944 0.71056 -1.2874 -1.809 3.128 0.2948 0.41475 0.16958 0.15371 0.25626 -0.20606 0.62056 -1.2426 -1.8205
235 -2.1989 0.3909 0.55132 0.058378 0.12807 0.22291 -0.13944 0.71056 -1.2874 -1.809 3.128 0.2948 0.41475 0.16958 0.15371 0.25626 -0.20606 0.62056 -1.2426 -1.8205
236 -2.7421 0.31609 0.70087 0.69221 1.2978 2.445 0.1681 -0.25418 0.18117 0.026247 3.3989 0.29448 0.58541 0.57916 1.2356 2.3952 0.13215 -0.33179 0.24906 0.055033
237 -2.7207 0.32011 0.70183 0.67898 1.2893 2.4333 0.16914 -0.25203 0.18188 0.029509 3.2028 0.32127 0.6142 0.53478 1.2189 2.3736 0.15409 -0.30033 0.23471 0.064582
238 -3.0259 0.67956 -2.094 2.1394 0.059829 -0.20077 -0.27935 0.0045021 -0.074372 0.012726 3.1867 0.71898 -2.1631 1.9486 -0.017582 -0.26764 -0.28444 -0.024725 -0.039547 0.039195
239 -2.9281 0.69112 -2.0216 1.9925 0.032794 -0.20947 -0.2229 0.018806 -0.055237 0.028381 3.1642 0.71425 -2.0976 1.8478 -0.026245 -0.25864 -0.23773 -0.018072 -0.022534 0.044176
240 -2.9125 0.69238 -2.0058 1.9634 0.028449 -0.20987 -0.21205 0.021298 -0.052033 0.030305 3.2438 0.70141 -2.0956 1.8446 -0.022059 -0.2499 -0.23842 -0.029906 -0.013998 0.039992
241 -2.9556 0.68851 -2.0487 2.0438 0.041004 -0.20836 -0.24539 0.012723 -0.061959 0.023627 3.2884 0.70001 -2.1403 1.9131 -0.014581 -0.25298 -0.27098 -0.038831 -0.022591 0.035113
242 -2.9125 0.69238 -2.0058 1.9634 0.028449 -0.20987 -0.21205 0.021298 -0.052033 0.030305 3.2438 0.70141 -2.0956 1.8446 -0.022059 -0.2499 -0.23842 -0.029906 -0.013998 0.039992
243 -2.9878 0.68476 -2.0702 2.0877 0.049191 -0.20532 -0.25877 0.010276 -0.067078 0.019766 3.0812 0.73114 -2.1273 1.8937 -0.027477 -0.27252 -0.25629 -0.0070506 -0.039526 0.046946
244 -3.1907 0.65637 -2.1807 2.3356 0.10285 -0.17877 -0.34429 -0.010919 -0.10098 -0.013441 3.5301 0.68111 -2.2857 2.1305 0.012155 -0.25497 -0.37006 -0.078981 -0.035454 0.020958
245 -3.1413 0.6635 -2.154 2.275 0.089459 -0.18565 -0.32238 -0.0044147 -0.093174 -0.0045153 3.4792 0.68539 -2.2563 2.0858 0.0061882 -0.25513 -0.34871 -0.070118 -0.032243 0.025004
246 -3.1375 0.66471 -2.1589 2.2805 0.089021 -0.18735 -0.32635 -0.0063496 -0.092743 -0.0041914 3.3013 0.71044 -2.2343 2.0542 -0.0051634 -0.26933 -0.33139 -0.043334 -0.045338 0.033547
247 -3.2288 0.65025 -2.1938 2.3711 0.11238 -0.17232 -0.35433 -0.012818 -0.10672 -0.019591 3.8668 0.63613 -2.3462 2.2192 0.035641 -0.23146 -0.41555 -0.13042 -0.015943 0.0039912
