99 20
0 2.543 1.0338 0.59399 0.37027 -0.030275 -0.001188 -0.032006 0.00037444 -0.038196 0.010374 2.5782 1.0125 0.55544 0.3517 -0.028656 -0.0011221 -0.032607 0.00034548 -0.039008 0.0085449
1 2.561 1.0272 0.59412 0.33795 -0.027611 -0.0013325 0.027156 0.00031151 0.032864 0.023665 2.8892 1.1198 0.62054 0.35504 -0.028873 -0.0014135 0.035303 0.00029546 0.037075 0.027523
2 2.6058 0.96845 0.39698 0.20567 -0.014765 -0.001067 0.0093675 0.0015431 0.051235 -0.015736 2.7914 1.001 0.36445 0.19547 -0.013469 -0.0010444 0.01486 0.0016205 0.050864 -0.020779
3 2.5936 0.99941 0.46517 0.24327 -0.016874 0.00021058 -0.073594 0.00016627 -0.03563 -0.011695 2.9295 1.0911 0.46785 0.25106 -0.016917 0.00031355 -0.081331 0.00018152 -0.043853 -0.016355
4 2.536 1.0499 0.63691 0.42061 -0.035529 -0.0016615 -0.052199 0.00053927 -0.12264 -0.041901 2.7809 1.1124 0.64939 0.43555 -0.036772 -0.0017302 -0.056958 0.00054772 -0.13701 -0.045767
5 2.5782 1.0147 0.55089 0.23539 -0.015229 0.001639 -0.065404 -0.0032577 -0.64715 -0.058624 2.8063 1.0707 0.55796 0.23616 -0.014742 0.0020305 -0.075372 -0.0041461 -0.85826 -0.083868
6 2.5661 1.0152 0.57003 0.30173 -0.024052 -0.0011304 0.061089 7.7692e-05 0.068822 0.064503 2.8291 1.0808 0.57841 0.3053 -0.024092 -0.0011375 0.072897 1.1224e-05 0.074587 0.07141
7 2.5741 1.0198 0.55465 0.26494 -0.018588 0.00064946 -0.028685 -0.0010786 -0.041489 0.04634 2.9052 1.1127 0.57619 0.27325 -0.018736 0.00081482 -0.02846 -0.0012578 -0.04865 0.052417
8 2.5442 1.0317 0.59262 0.35893 -0.029117 -0.001104 -0.00049982 4.3937e-06 -0.099498 0.025312 2.6475 1.0363 0.56732 0.34665 -0.027945 -0.0010356 -4.1886e-05 -6.1882e-05 -0.11097 0.024273
9 2.5577 1.02 0.59205 0.33704 -0.028228 -0.001929 0.045158 0.0012131 0.16617 0.016852 2.8063 1.0802 0.59924 0.34108 -0.028415 -0.0019915 0.055062 0.0012526 0.18409 0.018468
10 2.529 1.0603 0.66557 0.46522 -0.040471 -0.002508 -0.07493 0.0026166 0.49248 0.02679 2.7196 1.1053 0.67585 0.48752 -0.042758 -0.0028226 -0.089328 0.0032176 0.64378 0.037188
11 2.6523 0.9059 0.20475 -0.10884 0.021159 0.0050569 -0.048751 -0.0028606 0.10131 0.19477 2.7496 0.90703 0.15257 -0.13503 0.024142 0.0053497 -0.047802 -0.0029883 0.10536 0.1988
12 2.5482 1.025 0.57256 0.33189 -0.026113 -0.00062145 -0.033666 -0.00021561 -0.21502 -0.040968 2.5564 0.99225 0.52603 0.30699 -0.023916 -0.00051928 -0.031995 -0.00029152 -0.21991 -0.040023
13 2.5329 1.0477 0.63954 0.41276 -0.03469 -0.0014643 -0.060016 0.00032491 -0.12857 -0.05451 2.673 1.0682 0.62777 0.40986 -0.034395 -0.0014466 -0.062403 0.00029388 -0.13715 -0.056581
14 2.5329 1.0482 0.63574 0.42598 -0.036381 -0.0021221 -0.043201 0.001832 0.24985 -0.0013436 2.7219 1.0877 0.63366 0.43102 -0.036793 -0.0021844 -0.045421 0.0019299 0.26852 -0.0011393
15 2.5395 1.0355 0.60734 0.36314 -0.029188 -0.00052289 -0.051768 -0.0012241 -0.43809 -0.06679 2.5175 0.99149 0.55696 0.33546 -0.026801 -0.00042591 -0.050265 -0.0012388 -0.43085 -0.066984
16 2.5336 1.0471 0.63823 0.41112 -0.034622 -0.0016687 -0.031134 0.00087625 0.10437 0.012041 2.7073 1.0807 0.63373 0.4127 -0.034704 -0.0016836 -0.032873 0.00089939 0.11064 0.012327
17 2.5652 1.0158 0.56846 0.30062 -0.023681 -0.00081014 0.033228 -0.00045906 -0.13946 0.015493 2.8277 1.0808 0.57553 0.30301 -0.023577 -0.0007697 0.041744 -0.00060269 -0.16118 0.015906
18 2.5315 1.0473 0.64 0.41339 -0.034819 -0.0015753 -0.045179 0.0005117 -0.042041 -0.025098 2.6886 1.0741 0.63146 0.41193 -0.034627 -0.001565 -0.046627 0.00049193 -0.046876 -0.025921
19 2.5933 0.96542 0.46021 0.14707 -0.0085707 8.3774e-05 0.11278 -0.00067757 0.030159 0.089502 2.6328 0.94444 0.41651 0.12084 -0.0060725 0.00021215 0.12229 -0.0007772 0.029391 0.085188
20 2.5317 1.0395 0.63038 0.38419 -0.03173 -0.0010634 -0.017585 -0.00083568 -0.31876 -0.028032 2.5386 1.006 0.58602 0.35794 -0.029405 -0.00094133 -0.017029 -0.00087205 -0.3159 -0.028889
21 2.5578 1.0143 0.59365 0.32199 -0.026894 -0.0016626 0.041002 0.00011627 -0.16194 -0.051821 2.735 1.0464 0.58563 0.31402 -0.025988 -0.0016034 0.0512 -3.6066e-05 -0.18412 -0.055472
22 2.5358 1.0447 0.63875 0.40717 -0.034603 -0.0020304 -0.0030848 0.0013653 0.21031 0.0045025 2.6936 1.072 0.63122 0.40655 -0.034531 -0.0020756 -0.0013652 0.0014344 0.22829 0.0066539
23 2.5324 1.0446 0.6247 0.40541 -0.033773 -0.0013609 -0.09415 0.0011479 0.096033 -0.048084 2.51 1.0004 0.5746 0.37874 -0.031521 -0.0012933 -0.090659 0.0011248 0.09879 -0.046235
24 2.5206 1.0488 0.65446 0.43944 -0.038073 -0.0025088 -0.036606 0.0024939 0.41516 0.0030625 2.4972 1.0031 0.60335 0.40941 -0.035458 -0.0023667 -0.035368 0.0023794 0.39978 0.0039843
25 2.5946 0.95307 0.49204 0.1397 -0.009874 -0.001199 0.19596 0.00015961 0.23805 0.087238 2.5034 0.88591 0.42946 0.10527 -0.0067143 -0.00097957 0.19998 5.8215e-06 0.2189 0.076084
26 2.5346 1.0452 0.62906 0.41465 -0.035207 -0.002018 -0.026408 0.0015615 0.20013 0.011057 2.7238 1.0843 0.62581 0.41809 -0.035456 -0.0020685 -0.027434 0.0016465 0.21838 0.012482
27 2.575 1.0096 0.54739 0.25812 -0.019017 -0.00033642 -0.057291 0.00092671 0.035248 -0.090141 2.8272 1.0708 0.55148 0.25655 -0.018485 -0.00024961 -0.059721 0.00094275 0.037793 -0.099077
28 2.736 0.70179 0.033935 -0.54207 0.053878 0.001804 0.37251 -0.0014122 9.243e-05 0.00010657 3.1412 0.77679 -0.016811 -0.66925 0.067474 0.0026593 0.52003 -0.0024868 0.00035043 -0.0081768
29 2.5509 1.0283 0.57728 0.33268 -0.026107 -0.00072813 0.0095998 0.00048721 0.32494 0.1269 2.6341 1.0254 0.54781 0.31844 -0.0248 -0.00069185 0.011982 0.00050688 0.336 0.12939
30 2.7619 0.60055 -0.50057 -0.5722 0.057545 0.0012672 -0.18924 0.0050654 0.085198 -0.16053 3.0662 0.64795 -0.64846 -0.64647 0.06628 0.0016056 -0.22265 0.0061925 0.10486 -0.23765
31 2.6986 0.7468 -0.14915 -0.75228 0.091246 0.014946 -0.27787 -0.0076124 -0.13673 0.14921 2.9427 0.79089 -0.21941 -0.84968 0.10326 0.017022 -0.31655 -0.0088753 -0.15711 0.18511
32 2.5372 1.0431 0.61885 0.38216 -0.030886 -0.00053006 -0.10184 -0.00056425 -0.31223 -0.097946 2.5155 0.99997 0.57039 0.35706 -0.028778 -0.00046563 -0.098474 -0.00060843 -0.31746 -0.095799
33 2.5439 1.011 0.56178 0.25016 -0.01642 0.0020385 -0.08754 -0.0046963 -1.0286 -0.10456 2.0512 0.78964 0.42133 0.18592 -0.011849 0.0017354 -0.069874 -0.0038916 -0.84481 -0.085444
34 2.4953 1.0563 0.67872 0.49593 -0.043971 -0.0030579 -0.10112 0.003728 0.77756 0.047084 2.009 0.82392 0.51565 0.38657 -0.034452 -0.0024728 -0.083041 0.0030737 0.6423 0.038587
35 2.6885 0.72749 -0.21828 -0.74174 0.090017 0.014798 -0.13677 -0.009152 0.052719 0.37636 2.6532 0.69653 -0.27016 -0.74415 0.090337 0.014671 -0.12621 -0.0090587 0.051145 0.3674
36 2.7045 0.6846 -0.19928 -0.74298 0.083079 0.0089894 -0.20784 -0.00079027 0.064966 -0.10678 2.7374 0.67041 -0.25669 -0.7684 0.086075 0.0091904 -0.20558 -0.0007671 0.066542 -0.11022
37 2.6913 0.69212 -0.28386 -0.78395 0.092605 0.013818 -0.074554 -0.0085005 -0.003412 0.31755 2.5703 0.64189 -0.32584 -0.76018 0.090035 0.013335 -0.060055 -0.0082261 -0.0016101 0.30296
38 2.8998 -0.17573 -0.185 -0.46763 -0.042887 -0.047863 0.031801 0.036852 0.078988 -0.44519 2.7157 -0.18998 -0.21722 -0.44457 -0.036475 -0.042086 0.038429 0.029318 0.072657 -0.40786
39 2.685 0.69256 -0.29333 -0.86361 0.10328 0.016566 -0.1398 -0.010212 0.054021 0.39502 2.688 0.67398 -0.34833 -0.87896 0.10538 0.016877 -0.13477 -0.010517 0.053131 0.40993
40 2.6984 0.68455 -0.27546 -0.74994 0.086519 0.011145 -0.082119 -0.0049036 -0.027797 0.063438 2.5199 0.62008 -0.31154 -0.70941 0.082035 0.010405 -0.061338 -0.0045536 -0.02464 0.052204
41 2.688 0.69067 -0.28897 -0.82758 0.098254 0.015192 -0.11733 -0.0092533 -0.0037224 0.32704 2.6146 0.65265 -0.33535 -0.81706 0.097224 0.014926 -0.10383 -0.0091162 -0.0027977 0.32008
42 2.692 0.67 -0.29459 -0.94983 0.11098 0.016441 -0.25864 -0.007656 0.0025926 0.15251 2.8713 0.69502 -0.36958 -1.0385 0.12184 0.018224 -0.28628 -0.0087058 -0.0016284 0.18264
43 2.6903 0.68848 -0.27058 -0.80274 0.093763 0.012927 -0.15275 -0.0052277 0.0033566 0.0066547 2.6162 0.64969 -0.31716 -0.79131 0.092591 0.012627 -0.13751 -0.0051099 0.0038814 0.0028534
44 2.6875 0.69571 -0.27763 -0.81611 0.097194 0.015227 -0.1324 -0.009239 0.015503 0.33879 2.6135 0.65696 -0.32383 -0.80395 0.095893 0.014867 -0.11787 -0.0090102 0.016212 0.32645
45 2.7143 0.61736 -0.28957 -0.80084 0.083175 0.0039695 -0.076668 0.005986 0.05381 -0.49405 2.6419 0.58164 -0.33688 -0.79697 0.083235 0.0038818 -0.062061 0.0062075 0.058965 -0.52021
46 2.6741 0.70367 0.031742 -0.67716 0.072071 0.0040652 1.4679 -0.010132 -0.036828 0.020865 2.3291 0.59453 -0.0091678 -0.63477 0.068209 0.0040603 1.4463 -0.010165 -0.036794 0.019744
47 2.7127 0.64988 -0.3038 -0.68215 0.0723 0.003114 0.097652 0.0051869 0.083836 -0.49367 2.4631 0.57198 -0.33282 -0.63263 0.067545 0.0029544 0.10255 0.0047191 0.076654 -0.46011
48 2.6903 0.68848 -0.27058 -0.80274 0.093763 0.012927 -0.15275 -0.0052277 0.0033566 0.0066547 2.6162 0.64969 -0.31716 -0.79131 0.092591 0.012627 -0.13751 -0.0051099 0.0038814 0.0028534
49 2.689 0.69129 -0.27907 -0.82645 0.09813 0.015484 -0.19267 -0.009237 -0.084048 0.23803 2.5687 0.64196 -0.32056 -0.80781 0.096336 0.015316 -0.18394 -0.0093453 -0.086262 0.24401
50 2.6741 0.70367 0.031742 -0.67716 0.072071 0.0040652 1.4679 -0.010132 -0.036828 0.020865 2.3291 0.59453 -0.0091678 -0.63477 0.068209 0.0040603 1.4463 -0.010165 -0.036794 0.019744
51 2.779 0.38844 -0.27334 -0.77178 0.051866 -0.013525 -0.17425 0.020393 0.094873 -0.65396 2.7865 0.36745 -0.3273 -0.79411 0.0546 -0.013852 -0.17872 0.021593 0.10937 -0.74602
52 2.7416 0.48601 -0.42555 -0.71209 0.058064 -0.0086752 -0.2494 0.019605 0.14827 -0.76459 2.3939 0.40782 -0.42865 -0.62862 0.051964 -0.0076202 -0.21777 0.017353 0.13082 -0.67918
53 2.5959 0.66081 -1.5476 0.23894 -0.0078387 0.00031781 -0.06925 0.0021105 0.043061 -0.10444 2.3782 0.60718 -1.5786 0.27488 -0.010728 0.00029555 -0.060279 0.0019027 0.0391 -0.10132
54 2.6617 0.70516 -0.25176 -0.92866 0.11334 0.020469 -0.3508 -0.012826 -0.13289 0.34975 2.4151 0.62223 -0.27354 -0.85858 0.10487 0.018838 -0.31812 -0.0118 -0.12146 0.32109
55 2.5901 -1.3032 0.019946 -0.088005 -0.18207 -0.095382 0.010434 0.059621 0.029584 -0.19478 2.8144 -1.4455 0.0046694 -0.098161 -0.19317 -0.099972 0.013602 0.052934 0.035957 -0.2436
56 2.4708 0.65318 -1.749 0.434 -0.024202 3.8977e-05 -0.030326 0.0010812 0.026302 -0.073172 2.178 0.58132 -1.7082 0.44469 -0.025391 2.2893e-05 -0.024516 0.00093803 0.023596 -0.068951
57 2.3488 0.6442 -1.9385 0.63507 -0.04164 -0.0003249 0.029025 -0.00065815 -0.0079124 0.011296 2.3838 0.66465 -2.178 0.73227 -0.048309 -0.00037769 0.035775 -0.00080969 -0.0099743 0.01384
58 2.397 -1.5624 0.078501 0.021441 -0.37731 0.073293 -0.00032315 0.37001 -0.0061595 0.029282 2.537 -1.6762 0.075343 0.023001 -0.3962 0.094957 -0.00016449 0.38738 -0.0066321 0.032938
59 2.4103 -1.55 0.074906 0.012319 -0.37038 -0.33532 -0.0025491 -0.10576 -0.00064214 -0.0033094 2.4853 -1.6211 0.069374 0.012717 -0.38049 -0.35312 -0.0025427 -0.13134 -0.00045421 -0.004387
60 2.4029 -1.5545 0.076536 0.017318 -0.3651 -0.16103 -0.0014864 0.18067 -0.0047313 0.023161 2.5006 -1.639 0.071585 0.018054 -0.37329 -0.1638 -0.0013197 0.17543 -0.0046054 0.022467
61 2.4417 -1.4826 0.060239 -0.024253 -0.42644 -0.58698 -0.0025774 -0.67891 0.012306 -0.083454 2.2975 -1.4186 0.048168 -0.023157 -0.40694 -0.57624 -0.0024538 -0.68908 0.011484 -0.076009
62 2.3965 -1.5747 0.080362 0.021498 -0.41696 -0.039322 -0.0014952 0.34019 -0.0086303 0.05029 2.6067 -1.7388 0.080285 0.023968 -0.45977 -0.032326 -0.0016275 0.39747 -0.010625 0.065321
63 2.3773 -1.5852 0.091157 0.15578 0.93362 0.024679 0.0019992 0.0060673 0.0061836 -0.043061 2.4002 -1.6294 0.086328 0.16397 0.99183 0.031035 0.0022332 -0.00117 0.0061349 -0.041679
64 2.3979 -1.5654 0.079052 0.024213 -0.35633 0.085546 -2.5475e-05 0.39687 -0.0051322 0.01437 2.5384 -1.6806 0.076177 0.026379 -0.37329 0.1097 0.00018059 0.42775 -0.0055301 0.014722
65 2.4032 -1.5507 0.076165 0.019203 -0.34479 0.12214 0.00053918 0.32376 -0.0026516 0.0039712 2.4774 -1.6204 0.070543 0.019983 -0.35041 0.14613 0.00081601 0.31719 -0.0024162 0.0029549
66 2.3997 -1.5727 0.080308 0.022823 -0.43327 0.55455 -0.00015894 0.046892 -0.0013365 0.0053136 2.522 -1.6808 0.077862 0.02498 -0.47102 0.69568 -2.0605e-05 -0.012296 -0.00075234 0.0034462
67 2.4936 -1.4196 0.046956 -0.024123 -0.071916 -0.063024 0.0086874 0.20677 0.025811 -0.20052 2.1878 -1.2665 0.031031 -0.021085 -0.052805 -0.04924 0.0082344 0.17441 0.022701 -0.17417
68 2.4165 -1.5364 0.072062 0.0036792 -0.40971 -0.35803 -0.0029678 -0.13973 -0.0023922 0.020163 2.4044 -1.5516 0.063868 0.0036598 -0.41021 -0.37144 -0.0030394 -0.17694 -0.0026818 0.02399
69 2.3983 -1.5897 0.083677 0.041624 -0.25208 -0.046479 -0.0017425 0.20368 -0.0065106 0.035636 2.623 -1.7627 0.084225 0.046554 -0.26887 -0.038739 -0.00183 0.21824 -0.0072782 0.040857
70 2.3958 -1.6032 0.086225 0.045452 -0.27182 -0.17515 -0.0041828 -0.04686 -0.0082081 0.052637 2.6486 -1.7978 0.088486 0.05145 -0.29631 -0.1954 -0.0047802 -0.085858 -0.0091915 0.060331
71 2.4074 -1.5467 0.074972 0.016772 -0.32866 -0.16287 -0.00067587 0.22612 -0.0031507 0.011452 2.4554 -1.5984 0.068315 0.017142 -0.32784 -0.16027 -0.0004077 0.22363 -0.0029906 0.010949
72 2.4026 -1.6181 0.089525 0.075007 0.020005 -0.0075553 -0.0004873 0.24578 -0.0024678 -0.0055207 2.6705 -1.8273 0.093323 0.086614 0.042496 0.0037021 -0.00023701 0.2893 -0.0017407 -0.01793
73 2.3943 -1.5757 0.080805 0.023148 -0.41026 -0.10413 -0.002521 0.20146 -0.0085542 0.050214 2.5876 -1.7264 0.079877 0.025395 -0.44257 -0.10173 -0.0026694 0.21378 -0.0096249 0.058256
74 2.2779 0.63267 -1.9748 0.69347 -0.046922 -0.00044724 0.049954 -0.0012858 -0.020753 0.044372 2.0134 0.56917 -1.9249 0.68772 -0.046636 -0.00043933 0.049837 -0.0012731 -0.020454 0.043136
75 2.2779 0.63267 -1.9748 0.69347 -0.046922 -0.00044724 0.049954 -0.0012858 -0.020753 0.044372 2.0134 0.56917 -1.9249 0.68772 -0.046636 -0.00043933 0.049837 -0.0012731 -0.020454 0.043136
76 2.2675 0.63192 -1.9914 0.71154 -0.048508 -0.00048285 0.056115 -0.0014727 -0.024668 0.054754 2.0877 0.59254 -2.0222 0.73469 -0.050187 -0.00049442 0.058183 -0.0015179 -0.025343 0.055773
77 2.2675 0.63192 -1.9914 0.71154 -0.048508 -0.00048285 0.056115 -0.0014727 -0.024668 0.054754 2.0877 0.59254 -2.0222 0.73469 -0.050187 -0.00049442 0.058183 -0.0015179 -0.025343 0.055773
78 2.3133 0.63673 -1.9357 0.64605 -0.042704 -0.00034887 0.032614 -0.00075489 -0.0094635 0.013966 1.9068 0.53345 -1.7611 0.60015 -0.039821 -0.00032225 0.031264 -0.00071795 -0.0090527 0.012951
79 2.265 0.63159 -1.9936 0.71463 -0.048788 -0.00049005 0.057465 -0.0015154 -0.025626 0.057477 2.0854 0.59219 -2.0234 0.7369 -0.050393 -0.00050013 0.05927 -0.0015527 -0.026136 0.058055
80 2.3732 -1.5938 0.086073 0.040625 -0.34731 0.15533 -0.0015316 0.33671 -0.0089192 0.045493 2.3931 -1.6282 0.08039 0.041504 -0.34568 0.17893 -0.0014517 0.32112 -0.0086009 0.043739
81 2.3741 -1.5961 0.086067 0.036445 -0.39182 0.00072891 -0.0028558 0.24008 -0.010293 0.057888 2.4927 -1.697 0.083627 0.038623 -0.4062 0.018435 -0.0029112 0.23465 -0.010402 0.058424
82 2.3669 -1.5778 0.083491 0.032069 -0.3838 -0.030709 -0.0021531 0.37533 -0.011548 0.069286 2.1627 -1.4586 0.069924 0.029373 -0.34283 -0.019146 -0.001845 0.32659 -0.01011 0.060436
83 2.3765 -1.6022 0.086536 0.03362 -0.42017 -0.44011 -0.0070555 -0.33589 -0.0087425 0.055984 2.4513 -1.6758 0.083165 0.034996 -0.43546 -0.4739 -0.007582 -0.39549 -0.0088361 0.057413
84 2.3666 -1.5885 0.085116 0.031855 -0.41891 -0.35758 -0.0061439 -0.15529 -0.010765 0.070801 2.2262 -1.5128 0.073927 0.030014 -0.38924 -0.33402 -0.0056832 -0.15776 -0.009712 0.063729
85 2.379 -1.5646 0.079326 0.01392 -0.46886 -0.69215 -0.0087738 -0.93057 -0.0004403 0.010822 2.1764 -1.4546 0.066927 0.012792 -0.4391 -0.66822 -0.0084499 -0.91919 -0.00012404 0.0084357
86 2.3771 -1.5906 0.084944 0.037327 -0.34013 -0.21047 -0.0034271 0.18173 -0.010216 0.062622 2.3289 -1.5787 0.076865 0.036999 -0.32748 -0.20338 -0.0032887 0.16868 -0.0097284 0.059417
87 2.3633 -1.566 0.081356 0.022668 -0.44629 -0.044145 -0.0018741 0.44975 -0.012395 0.078866 1.9357 -1.3 0.061228 0.018788 -0.36537 -0.028959 -0.0014851 0.36875 -0.010263 0.065454
88 2.2698 -1.6128 0.10689 0.22697 1.3465 0.058197 -0.00033296 -0.086233 0.00018203 0.003081 2.1884 -1.5838 0.10011 0.22749 1.3569 0.060943 -0.00032148 -0.08846 1.7578e-05 0.0044356
89 2.2727 -1.6201 0.10781 0.22651 1.3189 0.05057 -0.00075144 -0.090452 -0.00090951 0.010576 2.2315 -1.6199 0.1029 0.23103 1.3534 0.054479 -0.00074051 -0.094269 -0.0010124 0.011542
90 2.2961 -1.6427 0.1093 0.21999 1.2163 0.058144 -0.0010183 -0.019798 -0.002416 0.013788 2.2903 -1.6704 0.10664 0.23058 1.2893 0.065933 -0.0010711 -0.025481 -0.0026472 0.015671
91 2.3162 -1.6541 0.10859 0.20112 1.0166 0.0046837 -0.0022206 -0.068102 -0.0046761 0.032268 2.3087 -1.6768 0.10497 0.20786 1.0644 0.0098416 -0.0022136 -0.075564 -0.0045273 0.031328
92 2.2727 -1.6201 0.10781 0.22651 1.3189 0.05057 -0.00075144 -0.090452 -0.00090951 0.010576 2.2315 -1.6199 0.1029 0.23103 1.3534 0.054479 -0.00074051 -0.094269 -0.0010124 0.011542
93 2.3706 -1.5941 0.087117 0.057442 -0.15798 0.056084 -0.00025835 0.4565 -0.0055932 0.0038928 2.0812 -1.4182 0.070953 0.051436 -0.12725 0.057621 -7.876e-05 0.39077 -0.0044318 0.00067612
94 2.3228 -1.5694 0.086037 0.029198 -0.59918 1.5341 -0.00086819 -0.53028 0.0034558 -0.0075621 2.0449 -1.4131 0.072873 0.027703 -0.57112 1.5731 -0.00084448 -0.57916 0.0039455 -0.0090017
95 2.3659 -1.5796 0.082885 0.018643 -0.51152 -0.70508 -0.0099493 -0.83197 -0.0064385 0.054739 2.1643 -1.4674 0.070528 0.017184 -0.47696 -0.67525 -0.0095044 -0.81597 -0.0057899 0.049866
96 2.2534 -1.6232 0.11013 0.23514 1.3537 0.047865 -0.0014332 -0.11714 -0.0026108 0.024376 2.1247 -1.5579 0.10124 0.22958 1.3293 0.049182 -0.0013612 -0.11521 -0.0024948 0.023363
97 2.2631 -1.6299 0.11013 0.22887 1.2828 0.06669 -0.0012278 -0.025763 -0.0032058 0.019573 1.8583 -1.3639 0.088552 0.19651 1.1111 0.060283 -0.0010443 -0.024656 -0.0027666 0.017042
98 2.2884 -1.5538 0.086139 0.029983 -0.62159 1.6996 -0.001004 -0.6418 0.0044384 -0.010341 1.8804 -1.3072 0.068537 0.026665 -0.55567 1.6172 -0.00091889 -0.63424 0.0044706 -0.010537
