118 20
0 2.5893 0.45111 -1.4098 0.9607 -0.2704 0.01139 -0.019952 -0.029697 -0.3829 -0.11879 2.5459 0.44426 -1.5519 1.0768 -0.31679 0.013996 -0.02233 -0.028705 -0.45873 -0.15022
1 2.7767 0.49499 -0.26479 -0.23444 -0.45501 0.020402 -0.00054669 -0.13396 -0.14008 0.068781 3.2153 0.55739 -0.40413 -0.2857 -0.61739 0.029981 0.00557 -0.13718 -0.17623 0.085527
2 2.4966 0.44208 -1.4495 1.1216 -0.34984 0.016044 -0.029336 -0.046093 -0.68048 -0.26369 2.2022 0.39245 -1.434 1.1299 -0.36253 0.017027 -0.029705 -0.044102 -0.70965 -0.27886
3 2.5191 0.4434 -1.4276 1.048 -0.31228 0.013775 -0.024517 -0.037022 -0.5152 -0.17578 2.2202 0.39215 -1.405 1.0436 -0.32026 0.014536 -0.024251 -0.033536 -0.52805 -0.18369
4 2.5191 0.4434 -1.4276 1.048 -0.31228 0.013775 -0.024517 -0.037022 -0.5152 -0.17578 2.2202 0.39215 -1.405 1.0436 -0.32026 0.014536 -0.024251 -0.033536 -0.52805 -0.18369
5 2.5503 0.44613 -1.4106 0.98899 -0.28441 0.012191 -0.021443 -0.031966 -0.4253 -0.13652 2.0963 0.36734 -1.2943 0.91831 -0.27366 0.012181 -0.01972 -0.025986 -0.41119 -0.13654
6 2.4988 0.18957 -1.7444 0.41588 0.38672 -0.018215 0.0011127 0.023059 0.48777 0.12597 2.4616 0.19124 -1.8641 0.46646 0.39267 -0.018586 0.0017281 0.030048 0.481 0.12475
7 2.58 0.90376 0.46165 0.068837 0.088643 -0.17128 -0.00058838 0.016376 0.014558 0.12677 2.9574 1.0017 0.47166 0.069883 0.080995 -0.18328 -0.00017394 0.015666 0.010079 0.16089
8 2.7966 -0.22523 -0.51524 -0.70342 -0.23273 0.022419 -0.12376 -0.79909 0.08998 -0.21473 2.8079 -0.22968 -0.58808 -0.74513 -0.25337 0.024464 -0.12611 -0.8408 0.098119 -0.23013
9 2.5921 0.90749 0.46305 0.072107 0.12715 0.4902 -0.00012363 0.00070018 4.6287e-05 -0.010858 2.9919 1.0178 0.48603 0.079625 0.14333 0.66537 0.00028413 6.7872e-05 -0.0017341 -0.01358
10 2.6347 0.79194 0.24059 -0.052383 -0.19814 -0.26068 0.00066641 -0.1128 -0.17808 0.72041 2.6565 0.7772 0.18958 -0.06336 -0.23949 -0.27522 0.0018507 -0.12518 -0.20527 0.83074
11 2.6262 0.79333 0.25289 -0.037231 -0.14304 -0.11958 0.00032662 -0.08003 -0.11607 0.1791 2.611 0.76122 0.19179 -0.044749 -0.16694 -0.10751 0.0016026 -0.074946 -0.11529 0.17004
12 2.6071 0.83858 0.33879 0.0073069 -0.03977 -0.023292 2.2356e-05 -0.042701 -0.064079 0.097339 2.7184 0.84459 0.29545 0.00035696 -0.061408 -0.0055651 0.00099351 -0.041144 -0.06648 0.093181
13 2.7662 -0.039026 -0.58139 -0.75575 -0.24628 0.023503 -0.1074 -0.83352 0.094711 -0.21521 2.7415 -0.044772 -0.64968 -0.78879 -0.26449 0.025319 -0.10887 -0.86311 0.10183 -0.22741
14 2.6296 0.79087 0.24096 -0.049326 -0.1692 0.16619 0.00094248 -0.11394 -0.16579 0.14589 2.6754 0.77916 0.18959 -0.05557 -0.191 0.18475 0.0020644 -0.11186 -0.16878 0.14394
15 2.6051 0.8615 0.3676 0.0092832 -0.055571 -0.028325 0.00048677 -0.059117 -0.093176 0.12654 2.9425 0.94123 0.35698 0.0024382 -0.081847 -0.017275 0.00099773 -0.069464 -0.11028 0.1467
16 2.6042 0.87016 0.39043 0.027547 -0.0095226 -0.11611 -2.0429e-05 -0.034522 -0.057745 0.038075 2.8076 0.91194 0.37231 0.023984 -0.028238 -0.12281 0.00064589 -0.039323 -0.069519 0.039836
17 2.7696 -0.017748 -0.72739 -0.72543 -0.094368 0.014415 -0.075355 -0.62605 0.14625 -0.13782 2.747 -0.022715 -0.80284 -0.75658 -0.10084 0.015425 -0.073759 -0.6331 0.15411 -0.14125
18 2.638 0.76469 0.19859 -0.062926 -0.18215 0.23701 0.0008179 -0.11179 -0.15561 0.10339 2.5909 0.7267 0.13849 -0.066804 -0.19887 0.25122 0.0022104 -0.10282 -0.15069 0.097099
19 2.6957 0.63115 -0.030499 -0.15038 -0.33261 -0.10457 5.6257e-05 -0.10689 -0.12291 0.15168 2.3426 0.52997 -0.089633 -0.13804 -0.32781 -0.082396 0.0027242 -0.082367 -0.10806 0.1239
20 2.5991 0.84219 0.35826 0.02985 0.03258 -0.023366 -0.00063841 0.0046504 0.011432 0.0058985 2.6631 0.83134 0.30605 0.02163 0.0082276 0.0011115 0.00055635 0.007221 0.0090315 -0.0004208
21 2.8066 -0.23345 -0.59283 -0.76763 -0.069212 0.012474 -0.074437 -0.46489 -0.029677 -0.15489 2.7819 -0.23401 -0.66318 -0.80557 -0.072112 0.01327 -0.070139 -0.46244 -0.033908 -0.15975
22 2.6267 0.80431 0.27416 -0.023009 -0.10072 0.011271 0.00019919 -0.068591 -0.1012 0.3226 2.6123 0.77381 0.21581 -0.030648 -0.12639 0.025741 0.0014758 -0.066838 -0.10615 0.34221
23 2.7726 -0.023383 -0.74248 -0.71194 -0.064621 0.012404 -0.06858 -0.56709 0.14344 -0.12164 2.708 -0.027654 -0.8064 -0.73065 -0.068095 0.013076 -0.065174 -0.55956 0.14847 -0.12161
24 2.6207 0.81222 0.27816 -0.03415 -0.1444 0.092855 0.00088374 -0.10223 -0.15148 0.15749 2.7553 0.82581 0.23494 -0.042297 -0.17026 0.11422 0.0018013 -0.10492 -0.15962 0.16265
25 2.6479 0.49558 -0.31935 -0.44295 -1.5547 0.15003 0.14953 0.7283 0.48439 -0.11632 2.4142 0.44689 -0.36476 -0.45411 -1.6599 0.16223 0.16417 0.81162 0.53921 -0.13329
26 2.6374 0.76502 0.19616 -0.069279 -0.21517 -0.029153 0.00080365 -0.11615 -0.16616 0.18736 2.5896 0.72582 0.13411 -0.074314 -0.23371 -0.020266 0.0021195 -0.10759 -0.16089 0.1765
27 2.6044 0.87686 0.39109 0.017896 -0.045849 -0.19854 0.00035167 -0.042807 -0.071069 0.24771 3.0159 0.98426 0.39391 0.007064 -0.087729 -0.22667 0.00058104 -0.063989 -0.10154 0.33039
28 2.5942 0.86633 0.39189 0.034657 0.018804 -0.10678 -0.00029835 -0.011035 -0.019134 0.067964 2.8077 0.90579 0.36571 0.028688 -0.0021011 -0.098227 0.00044854 -0.012603 -0.024924 0.073189
29 2.6308 0.78324 0.24572 -0.024776 -0.07708 0.11947 -0.00016602 -0.044168 -0.053062 0.070166 2.5417 0.72993 0.17765 -0.031017 -0.099529 0.13939 0.0014458 -0.03592 -0.050436 0.05739
30 2.6775 0.67985 0.045639 -0.13186 -0.33431 -0.19995 0.00060474 -0.13963 -0.19407 0.58728 2.4229 0.59739 -0.016622 -0.12732 -0.34094 -0.18218 0.0026858 -0.12308 -0.18461 0.56064
31 2.5903 0.88053 0.41376 0.040964 0.02607 -0.055632 -0.00010759 -0.017563 -0.031952 0.06374 2.9232 0.95969 0.40747 0.037528 0.009662 -0.044506 0.00042931 -0.021277 -0.039964 0.07162
32 2.6548 0.72587 0.13559 -0.082862 -0.21514 -0.095914 0.00016684 -0.085355 -0.10834 0.14565 2.4665 0.65058 0.064601 -0.084412 -0.22976 -0.078692 0.0020317 -0.07115 -0.099528 0.12438
33 2.5866 0.88652 0.43137 0.056607 0.070358 -0.11811 -0.00057092 0.014831 0.020695 -0.11117 2.864 0.94836 0.42001 0.054825 0.059997 -0.11388 2.17e-05 0.018037 0.0231 -0.14267
34 2.7317 0.059121 -0.96415 -0.90044 0.33731 -0.011812 0.068397 0.27755 -0.23804 -0.0027789 2.6253 0.052399 -1.0266 -0.93264 0.3541 -0.012231 0.077213 0.31851 -0.25493 -0.0023394
35 2.5843 0.90024 0.45249 0.062355 0.072432 -0.14073 -0.00044951 0.0073195 0.0042133 -0.046105 2.9539 0.99539 0.46111 0.063868 0.06651 -0.14849 -1.5866e-05 0.0080352 0.0022866 -0.054213
36 2.7712 0.024304 -0.52718 -0.67584 -0.29689 0.024348 -0.098528 -0.77316 0.082804 -0.17466 2.5952 0.015879 -0.56182 -0.66114 -0.30053 0.024758 -0.092445 -0.74066 0.083835 -0.17027
37 2.6377 0.76213 0.19369 -0.065999 -0.18943 0.25029 0.00088099 -0.11617 -0.16221 0.12551 2.5906 0.72409 0.1333 -0.069901 -0.20609 0.2641 0.0022657 -0.10701 -0.15687 0.11669
38 2.6957 0.63115 -0.030499 -0.15038 -0.33261 -0.10457 5.6257e-05 -0.10689 -0.12291 0.15168 2.3426 0.52997 -0.089633 -0.13804 -0.32781 -0.082396 0.0027242 -0.082367 -0.10806 0.1239
39 2.5736 0.91102 0.47907 0.079961 0.11497 -0.20029 -0.00078517 0.029127 0.032361 0.10054 2.9492 1.0092 0.49164 0.082544 0.11119 -0.21649 -0.00037188 0.030693 0.030819 0.12942
40 2.4588 0.437 -1.4481 1.15 -0.36545 0.016997 -0.0313 -0.049617 -0.74547 -0.2963 2.0242 0.36242 -1.3371 1.0803 -0.35194 0.016696 -0.029515 -0.044647 -0.71942 -0.28852
41 2.6972 0.037581 -1.2903 -0.60309 0.36964 -0.011315 0.016476 -0.0455 0.10825 -0.028201 2.5981 0.036067 -1.3547 -0.61084 0.38316 -0.011929 0.021798 -0.019407 0.092508 -0.027384
42 2.3809 0.18422 -1.7877 0.49325 0.49681 -0.025204 0.0018829 0.040701 0.84162 0.26249 2.2533 0.17865 -1.8257 0.51699 0.48812 -0.024859 0.0022353 0.04413 0.8229 0.25816
43 2.3809 0.18422 -1.7877 0.49325 0.49681 -0.025204 0.0018829 0.040701 0.84162 0.26249 2.2533 0.17865 -1.8257 0.51699 0.48812 -0.024859 0.0022353 0.04413 0.8229 0.25816
44 2.3809 0.18422 -1.7877 0.49325 0.49681 -0.025204 0.0018829 0.040701 0.84162 0.26249 2.2533 0.17865 -1.8257 0.51699 0.48812 -0.024859 0.0022353 0.04413 0.8229 0.25816
45 2.3809 0.18422 -1.7877 0.49325 0.49681 -0.025204 0.0018829 0.040701 0.84162 0.26249 2.2533 0.17865 -1.8257 0.51699 0.48812 -0.024859 0.0022353 0.04413 0.8229 0.25816
46 2.5534 0.91093 0.47834 0.070042 0.074399 -0.22074 -0.00032249 0.0020233 -0.012046 0.18014 2.4146 0.83163 0.40405 0.057429 0.053394 -0.1931 -0.00016044 -0.0019158 -0.015621 0.16689
47 2.5434 0.94323 0.5454 0.11331 0.18858 -0.17167 -0.00099441 0.059644 0.076627 -0.02226 2.833 1.0137 0.55174 0.11608 0.19208 -0.16761 -0.00096811 0.061717 0.079708 -0.02398
48 2.5575 0.9274 0.5072 0.086734 0.11774 -0.13941 -0.00047475 0.015931 0.0085305 0.084412 2.7778 0.97386 0.49939 0.086478 0.11452 -0.13493 -0.0003813 0.014814 0.006324 0.093703
49 2.5324 0.95578 0.57467 0.13226 0.23519 -0.24597 -0.001382 0.091379 0.12679 -0.19424 2.747 1.0008 0.5704 0.1334 0.23717 -0.24753 -0.0013976 0.093982 0.13148 -0.21493
50 2.5353 0.94655 0.55516 0.11934 0.20352 -0.16021 -0.0010645 0.065281 0.084172 0.007561 2.7214 0.97994 0.54152 0.11737 0.19891 -0.14502 -0.0010104 0.063839 0.082596 0.0099516
51 2.5406 0.94108 0.54182 0.11015 0.17909 -0.15378 -0.00089331 0.05089 0.061921 0.042902 2.7122 0.96911 0.52422 0.10703 0.17176 -0.13706 -0.00081469 0.048232 0.058554 0.047332
52 2.5349 0.95129 0.56447 0.12514 0.21768 -0.17919 -0.0011756 0.074154 0.09793 -0.037186 2.7359 0.99093 0.55593 0.12477 0.21642 -0.16774 -0.0011526 0.07412 0.098395 -0.037674
53 2.5456 0.94134 0.53958 0.10775 0.17108 -0.16837 -0.0008492 0.046689 0.055779 -0.0053802 2.8134 1.0042 0.54145 0.10903 0.17094 -0.16253 -0.00080096 0.046489 0.055373 -0.0047915
54 2.5515 0.91507 0.48819 0.077979 0.098404 -0.21703 -0.00051024 0.019495 0.017829 0.062115 2.4566 0.85027 0.42045 0.065794 0.076607 -0.19215 -0.00033079 0.01408 0.011384 0.062359
55 2.553 0.93286 0.51979 0.095091 0.13943 -0.15635 -0.00063818 0.030299 0.031572 0.01939 2.7982 0.98725 0.51545 0.094722 0.13557 -0.14927 -0.00055947 0.028526 0.028857 0.022736
56 2.5475 0.94951 0.55432 0.11689 0.19409 -0.19259 -0.0010271 0.06172 0.079785 -0.098769 2.8797 1.0377 0.57414 0.12376 0.20545 -0.20084 -0.0010667 0.066752 0.08689 -0.11506
57 2.5219 0.95045 0.57115 0.13227 0.23627 -0.25515 -0.0014179 0.090406 0.12223 -0.046871 2.5513 0.92662 0.52563 0.12299 0.2183 -0.23518 -0.0012529 0.084488 0.11406 -0.043473
58 2.5486 0.92807 0.51434 0.094337 0.14383 -0.091778 -0.00063873 0.031959 0.03588 0.027066 2.6288 0.92367 0.47806 0.087757 0.13082 -0.067811 -0.00048945 0.028278 0.031268 0.029556
59 2.5459 0.95042 0.55836 0.12234 0.21479 -0.18583 -0.0012265 0.083611 0.12193 -0.42969 2.7906 1.0081 0.56298 0.12713 0.22533 -0.18683 -0.0012842 0.09167 0.13603 -0.5141
60 2.5647 0.91976 0.4893 0.076562 0.097118 -0.096379 -0.0003174 0.0089432 0.0012089 0.080181 2.8482 0.98628 0.48776 0.075803 0.091149 -0.086115 -0.00023271 0.0056479 -0.0035265 0.089924
61 2.5313 0.9467 0.55999 0.12585 0.22755 -0.086214 -0.00119 0.075961 0.10226 -0.049998 2.5352 0.91481 0.51074 0.11635 0.20978 -0.055433 -0.0010012 0.0698 0.09374 -0.044933
62 2.5454 0.93667 0.53282 0.10689 0.17607 -0.14668 -0.0009212 0.055486 0.072749 -0.050384 2.7334 0.97053 0.51804 0.10496 0.17124 -0.13273 -0.00083375 0.054706 0.072072 -0.051547
63 2.5423 0.94991 0.55875 0.12178 0.21053 -0.17789 -0.0011517 0.073006 0.098509 -0.11525 2.821 1.0181 0.56675 0.12599 0.21797 -0.17675 -0.0011594 0.077332 0.10516 -0.13268
64 2.5292 0.95145 0.56734 0.12692 0.21846 -0.27419 -0.001285 0.081108 0.10813 -0.054123 2.6654 0.96706 0.5446 0.12269 0.20943 -0.26746 -0.0012369 0.078388 0.10491 -0.053255
65 2.7679 -0.89489 -0.27787 -0.49661 -0.10164 0.012792 -0.14375 -0.47195 0.016828 -0.16335 2.5895 -0.8305 -0.31091 -0.49042 -0.10079 0.012651 -0.12694 -0.44932 0.015867 -0.15561
66 2.7457 -0.14342 -0.55307 -0.77361 -0.26373 0.025874 -0.13299 -0.95654 0.11102 -0.26831 2.4004 -0.12933 -0.54378 -0.70775 -0.24604 0.024115 -0.11786 -0.86359 0.10256 -0.24407
67 2.4897 0.90979 0.51616 0.11629 0.29196 1.7216 0.00020882 0.0071711 0.016727 0.040745 2.2454 0.80516 0.44492 0.10903 0.28253 1.7385 0.00036962 0.0070035 0.016521 0.042327
68 2.5322 0.9586 0.58342 0.14302 0.27873 -0.093029 -0.0016136 0.12077 0.18673 -0.80551 2.5094 0.9217 0.5389 0.13763 0.27191 -0.074185 -0.0015425 0.12118 0.1889 -0.84362
69 2.4897 0.90979 0.51616 0.11629 0.29196 1.7216 0.00020882 0.0071711 0.016727 0.040745 2.2454 0.80516 0.44492 0.10903 0.28253 1.7385 0.00036962 0.0070035 0.016521 0.042327
70 2.5423 0.94551 0.55037 0.11657 0.19705 -0.17389 -0.001052 0.064318 0.083722 -0.03274 2.8317 1.0162 0.55752 0.11974 0.20156 -0.17031 -0.0010352 0.066792 0.087364 -0.034731
71 2.5508 0.93204 0.51839 0.092681 0.12608 -0.27145 -0.00065083 0.026928 0.022546 0.1601 2.6726 0.94328 0.49103 0.086529 0.11016 -0.271 -0.00054365 0.019618 0.011448 0.19541
72 2.5983 0.78766 0.2428 -0.056997 -0.22437 -0.29752 0.00097389 -0.13636 -0.22126 0.93894 2.103 0.62077 0.15594 -0.053664 -0.20869 -0.24857 0.0015537 -0.11723 -0.19419 0.81633
73 2.5377 0.93554 0.53937 0.11791 0.21442 -0.20083 -0.0013956 0.098581 0.15596 -0.88066 2.4018 0.86038 0.47407 0.1088 0.19954 -0.18595 -0.0011914 0.09637 0.15274 -0.875
74 2.5692 0.86683 0.39699 0.029323 -0.013096 -0.13391 9.9218e-05 -0.042533 -0.07357 0.049317 2.0738 0.67966 0.28445 0.019583 -0.02175 -0.10443 0.00047314 -0.034611 -0.061654 0.037843
75 2.6076 0.48972 -0.31932 -0.45291 -1.6188 0.15819 0.15946 0.78853 0.52948 -0.13059 2.1306 0.39606 -0.32556 -0.41525 -1.5381 0.15178 0.15479 0.77332 0.5179 -0.13012
76 2.6076 0.48972 -0.31932 -0.45291 -1.6188 0.15819 0.15946 0.78853 0.52948 -0.13059 2.1306 0.39606 -0.32556 -0.41525 -1.5381 0.15178 0.15479 0.77332 0.5179 -0.13012
77 2.6268 0.052833 -1.205 -1.0151 0.57781 -0.02295 0.11188 0.50134 -0.35086 -0.022262 2.4748 0.047784 -1.244 -1.0343 0.59519 -0.023722 0.11921 0.53883 -0.37527 -0.022688
78 2.6111 0.056193 -1.1252 -1.1104 0.58681 -0.023961 0.13192 0.62533 -0.48256 -0.02017 2.3893 0.048615 -1.1328 -1.1026 0.58906 -0.024049 0.1359 0.64612 -0.49211 -0.02035
79 2.5379 0.9272 0.51918 0.09838 0.14854 -0.21323 -0.00080181 0.037786 0.041431 0.020239 2.3452 0.82672 0.43328 0.082829 0.12201 -0.17991 -0.00053488 0.031712 0.033902 0.0196
80 2.5097 0.95313 0.58429 0.14593 0.28501 -0.19815 -0.0018015 0.13718 0.21674 -1.0712 2.2552 0.83175 0.49117 0.12786 0.25259 -0.16997 -0.0015858 0.12453 0.19771 -0.99347
81 2.362 -1.6348 0.14247 -0.03823 -0.015813 0.0029148 -0.25142 -0.057289 0.0028234 -0.041789 2.5905 -1.7783 0.13035 -0.053227 -0.019603 0.0034614 -0.27292 -0.069471 0.0033004 -0.047841
82 2.3832 -1.605 0.12409 -0.057629 -0.018424 0.0027636 -0.051376 -0.12251 0.0048266 -0.065431 2.5566 -1.7082 0.10653 -0.073505 -0.02204 0.003192 -0.034838 -0.14228 0.005503 -0.073849
83 2.4533 0.90158 0.51835 0.12131 0.31276 1.8844 0.00025216 0.0080992 0.019181 0.048706 2.1255 0.76771 0.43205 0.11008 0.29224 1.8237 0.00037455 0.007643 0.018257 0.047956
84 2.5524 0.053072 -1.205 -1.1509 0.67928 -0.028368 0.15003 0.72275 -0.54109 -0.031219 2.245 0.044814 -1.1628 -1.1013 0.65621 -0.027477 0.14798 0.71524 -0.53347 -0.030213
85 2.5461 0.054383 -1.1724 -1.1855 0.68019 -0.028643 0.15738 0.76915 -0.59153 -0.029969 2.2391 0.045637 -1.1333 -1.1363 0.65848 -0.027774 0.15525 0.7603 -0.58111 -0.029224
86 2.2296 -1.7764 0.23946 0.080474 0.0088062 -0.00049723 -0.080103 0.020088 -0.00012704 -0.018677 2.3735 -1.8739 0.23718 0.08065 0.0088424 -0.00054599 -0.062232 0.017281 -6.9169e-05 -0.018951
87 2.2119 -1.791 0.25109 0.096447 0.012235 -0.00093041 -0.085863 0.042229 -0.00093975 -0.0092162 2.3208 -1.8613 0.24643 0.096262 0.012307 -0.00098755 -0.068945 0.040292 -0.00091809 -0.008704
88 2.2484 -1.7438 0.2191 0.052978 0.0023727 0.00054195 -0.16636 0.0025164 0.00075899 -0.033608 2.2477 -1.7263 0.2006 0.046927 0.0015489 0.00058361 -0.15247 -0.0003965 0.0007982 -0.032545
89 2.2303 -1.7767 0.24026 0.084295 0.010133 -0.00072387 -0.081133 0.038291 -0.00097424 0.0015943 2.1672 -1.7129 0.21825 0.078502 0.0096064 -0.00075246 -0.056841 0.034819 -0.00094185 0.0032321
90 2.2463 -1.7617 0.22747 0.060709 0.002957 0.00086439 -0.34422 0.057252 -0.0010383 -0.0032874 2.2972 -1.7874 0.21574 0.057347 0.0023442 0.0009424 -0.35005 0.058065 -0.0010692 -0.0026581
91 2.2159 -1.7941 0.25075 0.093089 0.010882 -0.00060313 -0.13823 0.043091 -0.00079212 -0.015077 2.359 -1.8933 0.25035 0.094533 0.011064 -0.0006393 -0.13043 0.042071 -0.00075942 -0.016053
92 2.2107 -1.8013 0.25616 0.10264 0.013636 -0.0011611 -0.061989 0.043474 -0.0010272 -0.008317 2.3829 -1.9245 0.25953 0.10643 0.014355 -0.0012964 -0.041287 0.04253 -0.0010338 -0.0081502
93 2.2266 -1.781 0.24241 0.084662 0.0099694 -0.00076848 -0.023723 0.010207 0.00016475 -0.024646 2.4003 -1.903 0.2438 0.086619 0.010316 -0.00086439 8.0969e-05 0.006735 0.00024509 -0.025659
94 2.262 -1.7171 0.20269 0.029996 -0.0033963 0.0016283 -0.31917 0.011952 0.00063431 -0.025954 2.0505 -1.5421 0.16643 0.021388 -0.0039404 0.0015382 -0.28025 0.008487 0.0006114 -0.022997
95 2.2281 -1.7876 0.24454 0.08465 0.0090071 -0.00029993 -0.17339 0.045592 -0.00090462 -0.0076347 2.4291 -1.9325 0.24942 0.08767 0.0092703 -0.00031129 -0.17689 0.047336 -0.00094965 -0.0076177
96 2.2234 -1.8063 0.25551 0.10178 0.013452 -0.0010618 -0.1106 0.062076 -0.0017444 0.0075091 2.4499 -1.979 0.26742 0.11119 0.015079 -0.0012602 -0.10961 0.07082 -0.0020639 0.010879
97 2.2133 -1.7979 0.25351 0.096585 0.010986 -0.00028589 -0.29709 0.092253 -0.0024202 0.011644 2.3226 -1.8696 0.24955 0.096688 0.010957 -0.00027557 -0.30229 0.094974 -0.0025206 0.013281
98 2.2226 -1.7853 0.24566 0.088801 0.010377 -0.00058376 -0.13633 0.046372 -0.0010235 -0.0063982 2.3956 -1.9064 0.24704 0.090567 0.010599 -0.0006278 -0.12858 0.046666 -0.0010565 -0.0057353
99 2.2248 -1.7985 0.25336 0.1052 0.015087 -0.0012516 -0.19192 0.12447 -0.0044843 0.076925 2.1634 -1.7407 0.23434 0.10211 0.015037 -0.0013116 -0.17994 0.12692 -0.0046531 0.081452
100 2.2251 -1.7812 0.24328 0.087049 0.010706 -0.00089738 -0.018139 0.016654 -0.00014631 -0.017359 2.3841 -1.8914 0.24311 0.088478 0.011015 -0.00099755 0.007563 0.013204 -8.0936e-05 -0.017624
101 2.2152 -1.8151 0.26178 0.10865 0.013761 -0.00057643 -0.35697 0.13794 -0.004253 0.04928 2.3262 -1.8948 0.26164 0.11302 0.014584 -0.00063724 -0.38309 0.1531 -0.0048153 0.059138
102 2.2304 -1.7681 0.23508 0.072484 0.0056865 0.00046331 -0.3248 0.067798 -0.0014393 -0.0012054 2.1666 -1.702 0.21198 0.065461 0.0048651 0.00048641 -0.30631 0.064039 -0.0013823 -1.3993e-05
103 2.223 -1.7934 0.24906 0.091953 0.010852 -0.00060303 -0.15095 0.052169 -0.0012071 -0.0039107 2.4476 -1.9576 0.25694 0.096802 0.011512 -0.00068053 -0.14806 0.054733 -0.0013002 -0.0031373
104 2.2132 -1.8182 0.26462 0.11665 0.017106 -0.0015461 -0.14008 0.10688 -0.0036469 0.049081 2.3871 -1.9486 0.27143 0.12439 0.018632 -0.0017546 -0.13767 0.11785 -0.0041085 0.057821
105 2.223 -1.8035 0.25655 0.11449 0.020591 -0.0034814 0.50481 -0.045156 0.00077755 -0.0077565 2.2754 -1.8389 0.25104 0.11957 0.022673 -0.0040623 0.62735 -0.059803 0.0010065 -0.0064144
106 2.2653 -1.7101 0.19911 0.028089 -0.0027093 0.0011306 -0.13742 -0.035819 0.0021554 -0.052504 2.0533 -1.5349 0.16252 0.019052 -0.0034176 0.0010882 -0.11111 -0.036058 0.0020196 -0.046952
107 2.2166 -1.8201 0.26527 0.12215 0.020975 -0.0031204 0.33655 -0.0016703 -0.00045802 0.0045634 2.3775 -1.9436 0.27248 0.13279 0.023842 -0.0037656 0.45199 -0.012398 -0.00034273 0.0067182
108 2.2201 -1.7925 0.24875 0.089641 0.0099831 -0.00045052 -0.14962 0.038998 -0.00058532 -0.019505 2.3789 -1.9046 0.24993 0.091617 0.010191 -0.00047682 -0.14565 0.038536 -0.00055691 -0.020941
109 2.1987 -1.8084 0.26226 0.10941 0.01456 -0.0011232 -0.12284 0.062233 -0.0015578 -0.0046396 2.2884 -1.8644 0.25694 0.1095 0.014744 -0.0011932 -0.10741 0.061162 -0.0015659 -0.0035913
110 2.1964 -1.8225 0.2703 0.12138 0.016743 -0.0010245 -0.33774 0.15424 -0.0049746 0.06302 2.1675 -1.7862 0.25413 0.11818 0.016548 -0.0010423 -0.33338 0.1565 -0.0051126 0.067041
111 2.1921 -1.7947 0.25834 0.10789 0.014733 -0.0011966 -0.12406 0.072686 -0.0020906 0.0098248 1.7808 -1.4478 0.19894 0.085914 0.011927 -0.0010089 -0.090874 0.058895 -0.001731 0.009135
112 2.1941 -1.821 0.27097 0.12541 0.01846 -0.0014613 -0.26568 0.15417 -0.0052735 0.076061 2.0478 -1.6895 0.24161 0.11599 0.017318 -0.0014066 -0.24322 0.14595 -0.0050305 0.073395
113 2.1791 -1.8339 0.28202 0.1433 0.022417 -0.0017778 -0.39913 0.23434 -0.0083923 0.13879 2.0352 -1.7071 0.25495 0.13595 0.021663 -0.0017497 -0.38811 0.23206 -0.0083646 0.13986
114 2.1716 -1.8297 0.28179 0.14213 0.021564 -0.0014609 -0.48298 0.24889 -0.008715 0.13935 1.8921 -1.5881 0.23731 0.12521 0.019319 -0.0013366 -0.43381 0.22727 -0.0080049 0.12932
115 2.1533 -1.8279 0.29019 0.18099 0.042325 -0.008773 1.5117 -0.15432 0.0022992 0.0074322 2.016 -1.7208 0.27124 0.1841 0.044696 -0.0094865 1.6649 -0.17339 0.0026112 0.0089426
116 2.1212 -1.8087 0.29028 0.18674 0.044645 -0.0094052 1.6439 -0.17106 0.0025824 0.0086672 1.7291 -1.4834 0.23676 0.16511 0.040758 -0.0087482 1.5498 -0.16341 0.0024821 0.0086397
117 2.1212 -1.8087 0.29028 0.18674 0.044645 -0.0094052 1.6439 -0.17106 0.0025824 0.0086672 1.7291 -1.4834 0.23676 0.16511 0.040758 -0.0087482 1.5498 -0.16341 0.0024821 0.0086397
