320 20
0 -10.351 0.13342 -0.35544 -1.509 0.29679 0.32504 0.028546 0.024634 -0.15013 -0.14632 10.24 -0.14062 -0.36122 -1.5221 0.30096 0.32435 0.029368 -0.029529 -0.14961 -0.1442
1 -10.356 0.13998 -0.37419 -1.5436 0.30196 0.22417 -0.035652 0.022304 -0.069497 -0.1231 10.285 -0.14747 -0.38127 -1.5628 0.30736 0.22588 -0.033431 -0.027337 -0.069866 -0.12098
2 -10.325 0.19664 -0.42426 -1.3413 0.26342 -0.033116 0.051477 0.073594 0.05904 0.095832 10.141 -0.19975 -0.42431 -1.3467 0.26572 -0.027609 0.051525 -0.074993 0.056943 0.09252
3 -10.279 0.23215 -0.14737 -1.0015 0.25815 0.5202 -0.10624 0.032004 -0.20841 -0.2019 10.087 -0.2341 -0.15647 -1.0129 0.25927 0.51051 -0.099969 -0.034067 -0.20017 -0.19096
4 -10.357 0.13755 -0.41395 -1.5788 0.29753 0.15267 -0.014105 0.060251 -0.025691 -0.056005 10.21 -0.14397 -0.4169 -1.5857 0.30085 0.15423 -0.012277 -0.063604 -0.026463 -0.054916
5 -10.355 0.13692 -0.42179 -1.5591 0.29198 0.12265 0.01351 0.056009 0.033891 0.025093 10.147 -0.14242 -0.42189 -1.557 0.2937 0.12392 0.014544 -0.058675 0.032432 0.025139
6 -10.346 0.13845 -0.35411 -1.4815 0.29128 0.31433 0.033589 0.028098 -0.14791 -0.12722 10.241 -0.14551 -0.35998 -1.4957 0.29564 0.31392 0.034333 -0.032621 -0.14723 -0.12509
7 -10.347 0.13707 -0.37497 -1.4983 0.29258 0.26935 0.04633 0.030236 -0.10922 -0.08844 10.185 -0.14334 -0.3782 -1.504 0.29532 0.26817 0.0465 -0.03452 -0.10837 -0.086562
8 -10.348 0.14297 -0.39636 -1.5184 0.29534 0.18757 0.034308 0.031832 -0.032491 -0.032566 10.209 -0.14929 -0.39983 -1.5269 0.29859 0.18847 0.034867 -0.03628 -0.032983 -0.0319
9 -10.355 0.14225 -0.41445 -1.53 0.28416 0.10273 0.018038 0.06098 0.079127 0.069967 10.175 -0.14788 -0.41596 -1.5329 0.28689 0.10466 0.019109 -0.063273 0.0773 0.069902
10 -10.315 0.15707 -0.25628 -1.2707 0.25692 0.52187 0.013735 0.052965 -0.3836 -0.26179 10.19 -0.16329 -0.26342 -1.2838 0.26085 0.51659 0.014633 -0.055692 -0.37765 -0.25564
11 -10.352 0.12832 -0.40642 -1.5328 0.294 0.22832 0.053294 0.040994 -0.080945 -0.052722 10.209 -0.13515 -0.40938 -1.5408 0.29736 0.22847 0.053103 -0.045062 -0.080972 -0.052195
12 -10.348 0.14138 -0.3785 -1.5032 0.29528 0.24544 0.034958 0.027816 -0.093802 -0.09238 10.224 -0.14803 -0.38306 -1.5143 0.29899 0.24572 0.035591 -0.032568 -0.093695 -0.091039
13 -10.323 0.15236 -0.27885 -1.327 0.27353 0.47477 0.017039 0.021266 -0.3128 -0.22164 10.189 -0.15858 -0.28534 -1.3385 0.27691 0.46988 0.017919 -0.025305 -0.30755 -0.21573
14 -10.358 0.13889 -0.38921 -1.5763 0.29763 0.20663 -0.025573 0.067748 -0.052384 -0.098429 10.258 -0.14598 -0.39479 -1.5903 0.30236 0.20801 -0.023478 -0.0711 -0.052782 -0.096531
15 -10.346 0.13097 -0.36959 -1.4848 0.27932 0.3207 0.060155 0.074477 -0.17703 -0.12782 10.24 -0.13829 -0.37479 -1.4985 0.284 0.32028 0.060043 -0.077516 -0.17648 -0.1268
16 -10.29 0.21785 -0.38768 -1.1221 0.22427 -0.10053 0.066035 0.04122 0.047966 0.051708 10.194 -0.22196 -0.39121 -1.14 0.22863 -0.093932 0.066136 -0.044841 0.044206 0.046451
17 -10.346 0.13628 -0.38635 -1.5214 0.29195 0.25343 0.023521 0.051035 -0.13587 -0.11589 10.162 -0.14228 -0.38832 -1.523 0.29406 0.25194 0.024048 -0.054465 -0.13405 -0.11326
18 -10.356 0.13579 -0.37096 -1.5439 0.30108 0.25008 -0.017867 0.023453 -0.080066 -0.11519 10.279 -0.14333 -0.37783 -1.562 0.30631 0.25137 -0.015817 -0.028396 -0.08043 -0.11311
19 -10.353 0.12085 -0.38296 -1.5287 0.29256 0.29835 0.059988 0.033974 -0.11237 -0.087568 10.25 -0.12855 -0.38814 -1.5425 0.29714 0.29827 0.059836 -0.038623 -0.11248 -0.086781
20 -10.349 0.1372 -0.39466 -1.5231 0.28941 0.21075 0.040859 0.052173 -0.056657 -0.043156 10.154 -0.14293 -0.39604 -1.5234 0.29141 0.21007 0.041019 -0.055261 -0.056393 -0.041876
21 -10.321 0.14614 -0.24629 -1.3078 0.27491 0.58344 0.0077052 0.015092 -0.40892 -0.3043 10.206 -0.15302 -0.25416 -1.322 0.27872 0.57772 0.0088358 -0.019686 -0.40344 -0.29807
22 -10.335 0.15024 -0.34273 -1.4245 0.27804 0.29926 0.058527 0.04271 -0.096147 -0.051546 10.127 -0.15527 -0.34524 -1.4247 0.27968 0.29562 0.05812 -0.045635 -0.093676 -0.048374
23 -10.345 0.14679 -0.36583 -1.4717 0.29112 0.25647 0.039668 0.02647 -0.096222 -0.092364 10.25 -0.15369 -0.37169 -1.4873 0.29565 0.25724 0.040381 -0.031273 -0.096272 -0.09114
24 -10.352 0.1351 -0.40453 -1.5445 0.29127 0.18289 0.01272 0.053794 -0.042864 -0.040945 10.152 -0.14084 -0.40546 -1.5437 0.29315 0.18272 0.013681 -0.056659 -0.042663 -0.039352
25 -10.358 0.14098 -0.41398 -1.5517 0.28772 0.10634 -0.012282 0.064476 0.059447 0.033309 10.21 -0.14716 -0.41695 -1.5592 0.29135 0.10859 -0.01036 -0.066994 0.058 0.03404
26 -10.348 0.13897 -0.4033 -1.5207 0.28828 0.17737 0.038262 0.051376 -0.02136 -0.0053453 10.134 -0.14433 -0.40361 -1.5182 0.28974 0.17708 0.038403 -0.054267 -0.021529 -0.0046575
27 -10.352 0.12497 -0.38837 -1.5163 0.28986 0.27189 0.065045 0.03715 -0.090465 -0.059161 10.243 -0.13242 -0.39317 -1.5296 0.29431 0.27207 0.064836 -0.041526 -0.09058 -0.058562
28 -10.351 0.13241 -0.40954 -1.525 0.28414 0.17719 0.05276 0.060277 -0.0041148 0.020047 10.159 -0.13834 -0.41051 -1.5259 0.28649 0.17729 0.05246 -0.062776 -0.004685 0.020185
29 -10.343 0.1483 -0.33958 -1.435 0.28674 0.32037 0.042954 0.024894 -0.14717 -0.13047 10.28 -0.15568 -0.34713 -1.4556 0.2922 0.32125 0.043833 -0.029736 -0.1472 -0.12902
30 -10.23 0.23195 -0.15956 -0.66221 0.16126 0.4917 0.0971 0.030015 -0.35285 -0.10341 10.13 -0.23582 -0.16709 -0.68335 0.16552 0.488 0.096081 -0.032582 -0.34757 -0.10192
31 -10.305 0.20693 -0.36153 -1.206 0.24385 0.094889 0.0845 0.066711 -0.051621 0.025088 10.132 -0.20991 -0.3636 -1.2147 0.24653 0.097264 0.083669 -0.06821 -0.050813 0.02435
32 -10.355 0.12057 -0.37527 -1.5354 0.28288 0.32217 0.067948 0.079602 -0.13125 -0.10238 10.268 -0.12852 -0.38128 -1.5515 0.28826 0.32229 0.067764 -0.082738 -0.13144 -0.10167
33 -10.356 0.13126 -0.44438 -1.5683 0.29772 0.10326 -0.0045563 0.043326 -0.016281 -0.032065 10.243 -0.13832 -0.44758 -1.5803 0.30189 0.10617 -0.0033401 -0.047752 -0.017597 -0.03248
34 -10.355 0.1277 -0.40664 -1.5516 0.28941 0.22436 0.054636 0.070849 -0.062532 -0.047972 10.224 -0.13475 -0.41018 -1.5611 0.29337 0.22489 0.054485 -0.073947 -0.062959 -0.047748
35 -10.346 0.14671 -0.3744 -1.4795 0.2914 0.23649 0.038694 0.028366 -0.090127 -0.08628 10.24 -0.15343 -0.37966 -1.4935 0.29564 0.23735 0.03933 -0.03308 -0.090267 -0.085249
36 -10.315 0.19824 -0.37915 -1.2788 0.25819 0.089389 0.070635 0.062965 -0.029489 0.035232 10.112 -0.20098 -0.37979 -1.2826 0.25991 0.091567 0.069908 -0.064537 -0.028907 0.034418
37 -10.314 0.2045 -0.42573 -1.2809 0.24723 -0.086052 0.067953 0.082795 0.07041 0.10872 10.176 -0.20818 -0.42727 -1.2927 0.25085 -0.079568 0.067754 -0.084258 0.067713 0.10428
38 -10.356 0.13019 -0.42888 -1.5585 0.28779 0.13311 0.029626 0.066219 0.015385 0.022762 10.174 -0.13635 -0.42974 -1.5605 0.29044 0.13448 0.030074 -0.06863 0.014121 0.022533
39 -10.353 0.12334 -0.39525 -1.5334 0.29308 0.26494 0.054724 0.038189 -0.10468 -0.075788 10.223 -0.13057 -0.39906 -1.5433 0.29688 0.26473 0.054581 -0.042467 -0.10462 -0.074973
40 -10.347 0.13135 -0.34742 -1.501 0.28556 0.35141 0.026508 0.056188 -0.19396 -0.17063 10.217 -0.13838 -0.35266 -1.511 0.28949 0.34957 0.027254 -0.059655 -0.19242 -0.16767
41 -10.333 0.15115 -0.3036 -1.3623 0.27743 0.41555 0.032812 0.023587 -0.26466 -0.21251 10.297 -0.15892 -0.31238 -1.3865 0.28349 0.41633 0.03384 -0.028465 -0.26443 -0.2109
42 -10.325 0.19267 -0.41983 -1.355 0.26968 0.019023 0.068158 0.069809 0.012146 0.060662 10.129 -0.19577 -0.41951 -1.3584 0.27146 0.023353 0.067595 -0.07156 0.010888 0.057816
43 -10.33 0.1889 -0.43606 -1.3938 0.27444 -0.026974 0.035287 0.069506 0.061326 0.088458 10.123 -0.19192 -0.43487 -1.395 0.27589 -0.021598 0.035621 -0.071185 0.059105 0.085168
44 -10.341 0.15983 -0.37703 -1.4589 0.28992 0.17089 -0.023711 0.02453 -0.095707 -0.12601 10.295 -0.16703 -0.38442 -1.4817 0.29575 0.17371 -0.02178 -0.029512 -0.096117 -0.12486
45 -10.328 0.19082 -0.43487 -1.3826 0.27218 -0.033327 0.033328 0.069627 0.050858 0.079021 10.128 -0.19388 -0.43393 -1.3848 0.27382 -0.027814 0.033739 -0.071356 0.04883 0.075852
46 -10.319 0.19704 -0.42773 -1.3209 0.25595 -0.086742 0.035561 0.070119 0.1149 0.12561 10.138 -0.20016 -0.42764 -1.3267 0.2584 -0.08006 0.035994 -0.071859 0.1113 0.12133
47 -10.326 0.19721 -0.42849 -1.3439 0.26198 -0.06506 0.048845 0.073695 0.12062 0.14451 10.142 -0.20027 -0.42846 -1.3493 0.26434 -0.058965 0.048982 -0.074998 0.1177 0.14069
48 -10.3 0.2198 -0.40884 -1.1938 0.23797 -0.14992 0.04037 0.044817 0.12164 0.1084 10.206 -0.22386 -0.41239 -1.2118 0.24241 -0.14295 0.041027 -0.048114 0.11848 0.10389
49 -10.353 0.14705 -0.41838 -1.5208 0.28171 0.073053 0.018296 0.064335 0.096363 0.083109 10.189 -0.15269 -0.42037 -1.5262 0.2849 0.075778 0.019419 -0.066567 0.094346 0.082807
50 -10.357 0.1381 -0.40845 -1.5433 0.28616 0.13104 0.015735 0.060011 0.059422 0.046124 10.181 -0.14401 -0.41043 -1.5468 0.28904 0.1324 0.016855 -0.06243 0.057947 0.046595
51 -10.327 0.19184 -0.4306 -1.3715 0.27041 -0.027338 0.047308 0.069258 0.059276 0.087464 10.129 -0.19488 -0.42989 -1.3743 0.27216 -0.021957 0.047361 -0.070993 0.057082 0.084164
52 -10.324 0.19813 -0.42741 -1.3317 0.25881 -0.077215 0.048948 0.072955 0.13374 0.1546 10.143 -0.20121 -0.42752 -1.3377 0.26129 -0.070915 0.049105 -0.074326 0.13065 0.15074
53 -10.302 0.17089 -0.218 -1.1593 0.24959 0.5418 0.017088 0.018342 -0.23359 -0.097393 10.135 -0.17586 -0.22517 -1.1696 0.25232 0.53317 0.018065 -0.021582 -0.22605 -0.090059
54 -10.319 0.14782 -0.2589 -1.2986 0.2688 0.54264 0.02717 0.019269 -0.36773 -0.25671 10.212 -0.15468 -0.26654 -1.3139 0.27297 0.53797 0.027808 -0.023585 -0.36299 -0.25138
55 -10.355 0.15445 -0.40681 -1.5744 0.23027 0.090296 -0.0046229 0.32094 0.04483 0.039033 10.172 -0.15956 -0.40858 -1.575 0.23521 0.092579 -0.0028115 -0.31188 0.043366 0.039326
56 -10.359 0.13102 -0.43025 -1.5564 0.28414 0.10327 0.030148 0.069458 0.090568 0.090603 10.186 -0.13722 -0.43152 -1.5599 0.2872 0.10525 0.030697 -0.071513 0.088501 0.089855
57 -10.359 0.13448 -0.39985 -1.5652 0.29023 0.16913 0.013572 0.06089 0.017237 -0.0033841 10.213 -0.14099 -0.40336 -1.5726 0.2939 0.1702 0.014838 -0.063645 0.01629 -0.0021668
58 -10.358 0.1399 -0.42374 -1.5547 0.28753 0.085814 -0.0089949 0.063102 0.07924 0.059112 10.181 -0.14569 -0.42519 -1.5578 0.29035 0.088192 -0.007207 -0.065407 0.077364 0.059245
59 -10.136 0.32557 -0.1618 0.15876 -0.054822 -0.5904 0.0080133 0.025412 0.54027 0.31081 9.9699 -0.32317 -0.16503 0.13069 -0.048571 -0.57359 0.0093353 -0.025886 0.52445 0.29936
60 -10.319 0.20219 -0.4179 -1.3029 0.25363 -0.054533 0.051906 0.077512 0.071237 0.10784 10.155 -0.20543 -0.4188 -1.3113 0.25655 -0.048716 0.052025 -0.078699 0.069186 0.10461
61 -10.29 0.17373 -0.19582 -1.0604 0.22526 0.59388 0.21833 0.025677 -0.16763 0.020829 10.124 -0.17852 -0.2032 -1.072 0.22842 0.5842 0.2141 -0.028005 -0.16152 0.024987
62 -10.361 0.13969 -0.41517 -1.5576 0.29336 0.098938 -0.020009 0.041457 0.073646 0.042279 10.23 -0.14617 -0.41891 -1.5679 0.29735 0.10147 -0.017869 -0.0449 0.072242 0.043249
63 -10.357 0.13652 -0.40984 -1.5523 0.28881 0.14029 0.01656 0.05882 0.045153 0.034002 10.179 -0.14248 -0.41168 -1.5552 0.29154 0.14144 0.017645 -0.061373 0.043805 0.034528
64 -10.326 0.19675 -0.43556 -1.3568 0.2641 -0.079021 0.035931 0.073196 0.10143 0.12177 10.144 -0.19989 -0.4354 -1.3622 0.26646 -0.072543 0.036418 -0.074711 0.098575 0.11798
65 -10.361 0.1318 -0.44385 -1.5659 0.2812 0.061995 0.0015973 0.085078 0.094507 0.088939 10.231 -0.13852 -0.44655 -1.5759 0.2856 0.065234 0.0029596 -0.086777 0.092494 0.088357
66 -10.28 0.21678 -0.32042 -1.0571 0.21665 0.18341 0.063326 0.076074 -0.31151 -0.17944 10.161 -0.22058 -0.32453 -1.0727 0.22053 0.185 0.06297 -0.077794 -0.30864 -0.17928
67 -10.325 0.163 -0.29933 -1.3204 0.26607 0.34457 0.042309 0.025891 -0.10359 -0.051401 10.2 -0.16885 -0.30571 -1.3338 0.27 0.3422 0.042865 -0.029349 -0.10064 -0.046957
68 -10.313 0.21439 -0.41145 -1.2385 0.23649 -0.12362 0.059751 0.085135 0.15505 0.17428 10.186 -0.21789 -0.41395 -1.2526 0.24063 -0.1168 0.060057 -0.086024 0.15208 0.17038
69 -10.327 0.19335 -0.43013 -1.3582 0.26561 -0.0493 0.047714 0.070828 0.10044 0.1297 10.131 -0.19636 -0.42956 -1.3616 0.26756 -0.04353 0.04781 -0.072284 0.097724 0.12604
70 -10.355 0.14134 -0.41829 -1.5344 0.28496 0.097563 0.016287 0.059926 0.081743 0.074249 10.16 -0.14681 -0.41907 -1.535 0.28725 0.099455 0.017334 -0.062178 0.079778 0.073928
71 -10.346 0.14815 -0.39514 -1.4733 0.2755 0.1437 0.047737 0.062225 0.029558 0.052446 10.174 -0.15366 -0.39733 -1.478 0.27847 0.14473 0.047915 -0.064325 0.028967 0.052951
72 -10.317 0.20915 -0.41715 -1.2716 0.24483 -0.10604 0.056724 0.080835 0.14529 0.16696 10.173 -0.21251 -0.4189 -1.2833 0.24845 -0.099372 0.056965 -0.081913 0.14228 0.16299
73 -10.357 0.13196 -0.4185 -1.5325 0.27691 0.12792 0.045267 0.078694 0.060555 0.073002 10.229 -0.13874 -0.42192 -1.5431 0.28138 0.12994 0.045615 -0.080573 0.059168 0.07294
74 -10.326 0.18874 -0.42501 -1.372 0.27168 0.0071592 0.059486 0.06707 0.032942 0.073573 10.115 -0.19172 -0.42394 -1.3729 0.27303 0.011626 0.059033 -0.068847 0.031382 0.070675
75 -10.353 0.14454 -0.41145 -1.5183 0.28093 0.10075 0.02227 0.064385 0.077654 0.072366 10.183 -0.15022 -0.41343 -1.5229 0.284 0.10281 0.023277 -0.066484 0.075985 0.072409
76 -10.356 0.14371 -0.40981 -1.525 0.28183 0.10526 0.019233 0.065538 0.081313 0.07149 10.193 -0.14953 -0.4122 -1.5306 0.28513 0.10729 0.020363 -0.067581 0.07969 0.07177
77 -10.356 0.14633 -0.41066 -1.5397 0.28424 0.092101 -0.014839 0.070081 0.078538 0.049414 10.232 -0.15266 -0.41469 -1.5509 0.28859 0.094768 -0.01286 -0.072407 0.077239 0.050339
78 -10.357 0.13472 -0.42858 -1.5347 0.27928 0.096044 0.038969 0.07513 0.085512 0.095122 10.205 -0.14105 -0.43072 -1.5418 0.28301 0.098412 0.039384 -0.07701 0.083649 0.094443
79 -10.355 0.13961 -0.39873 -1.534 0.28579 0.16557 0.017351 0.063716 -0.0059353 -0.010247 10.202 -0.14581 -0.40185 -1.5409 0.28926 0.16661 0.018477 -0.06616 -0.0065147 -0.0090271
80 -10.333 0.16009 -0.33379 -1.3765 0.26661 0.26703 0.057054 0.050882 -0.053834 -0.010239 10.16 -0.16519 -0.33775 -1.3827 0.26951 0.26497 0.057021 -0.053138 -0.05184 -0.0070428
81 -10.354 0.14521 -0.41604 -1.5264 0.28364 0.091966 0.019494 0.063336 0.083098 0.073716 10.184 -0.15086 -0.41791 -1.5309 0.28665 0.094238 0.020557 -0.065551 0.081325 0.073625
82 -10.312 0.19541 -0.38766 -1.2951 0.26251 0.090256 0.075216 0.059305 -0.056408 0.0089917 10.112 -0.1984 -0.38791 -1.2981 0.26395 0.092332 0.074174 -0.061581 -0.055278 0.0083477
83 -10.355 0.14442 -0.41751 -1.5312 0.28347 0.087777 0.016129 0.06473 0.081512 0.069684 10.186 -0.15012 -0.4194 -1.5358 0.28655 0.09019 0.017299 -0.066886 0.079628 0.069538
84 -10.325 0.19599 -0.42572 -1.3381 0.26046 -0.05575 0.048175 0.073584 0.10711 0.13801 10.137 -0.19902 -0.42555 -1.3429 0.26272 -0.049896 0.048292 -0.07479 0.10443 0.13437
85 -10.359 0.12602 -0.41962 -1.565 0.2869 0.15384 0.029498 0.065687 0.032655 0.03265 10.189 -0.13252 -0.42137 -1.5688 0.29001 0.15484 0.030023 -0.068102 0.031355 0.032743
86 -10.308 0.21408 -0.40757 -1.2086 0.23794 -0.12567 0.060067 0.052711 0.1589 0.17842 10.188 -0.21772 -0.4103 -1.2239 0.242 -0.11895 0.060371 -0.054922 0.156 0.17464
87 -10.316 0.20234 -0.41492 -1.2672 0.24445 -0.052477 0.084977 0.083668 0.090556 0.14724 10.163 -0.20577 -0.41622 -1.2776 0.24787 -0.046722 0.084302 -0.084531 0.088217 0.14327
88 -10.356 0.14159 -0.40589 -1.5231 0.28775 0.1242 0.020907 0.041404 0.065085 0.054622 10.205 -0.14769 -0.40888 -1.5307 0.29117 0.12599 0.022014 -0.044637 0.063761 0.055272
89 -10.356 0.13891 -0.40821 -1.5422 0.28716 0.13573 0.017211 0.060168 0.049807 0.040498 10.182 -0.1448 -0.41023 -1.5458 0.29003 0.13703 0.018312 -0.062609 0.048463 0.040974
90 -10.354 0.14469 -0.40642 -1.5169 0.28115 0.11447 0.025045 0.065183 0.073642 0.068671 10.197 -0.15056 -0.40911 -1.5235 0.2846 0.11638 0.026069 -0.067311 0.072195 0.069072
91 -10.353 0.14388 -0.39591 -1.5033 0.28592 0.14358 -0.0041079 0.039477 0.016543 0.0076329 10.227 -0.15028 -0.4001 -1.5147 0.29002 0.14536 -0.0023844 -0.042936 0.015895 0.0090962
92 -10.348 0.14453 -0.40885 -1.5051 0.28222 0.12774 0.018965 0.058753 0.003601 0.012653 10.158 -0.14994 -0.40991 -1.5066 0.28453 0.12898 0.019837 -0.061202 0.0031293 0.013388
93 -10.361 0.12633 -0.42853 -1.573 0.2854 0.12821 0.03674 0.07442 0.062024 0.061759 10.216 -0.13312 -0.43111 -1.5806 0.28932 0.13008 0.037185 -0.076588 0.060374 0.061506
94 -10.348 0.12986 -0.38539 -1.5038 0.2792 0.26598 0.0079373 0.075575 -0.17102 -0.13466 10.231 -0.137 -0.38986 -1.5157 0.28367 0.26591 0.008825 -0.078093 -0.16976 -0.13237
95 -10.362 0.12204 -0.42088 -1.5725 0.29058 0.15479 0.042579 0.047508 0.054055 0.048555 10.245 -0.12936 -0.42484 -1.5845 0.29513 0.15655 0.042992 -0.050917 0.052687 0.048739
96 -10.307 0.2149 -0.40684 -1.2109 0.23991 -0.11391 0.061442 0.052043 0.13076 0.15067 10.191 -0.21861 -0.40973 -1.2265 0.244 -0.10732 0.061722 -0.05447 0.128 0.1468
97 -10.328 0.16013 -0.29487 -1.3348 0.2613 0.36846 0.048796 0.054599 -0.12517 -0.062976 10.193 -0.16593 -0.30115 -1.3467 0.26525 0.36537 0.049216 -0.056772 -0.12197 -0.058372
98 -10.359 0.12799 -0.43194 -1.555 0.2881 0.10939 0.0046697 0.05104 0.051509 0.050862 10.2 -0.1345 -0.43373 -1.5609 0.29142 0.11148 0.0058745 -0.054014 0.049938 0.050777
99 -10.309 0.21409 -0.40909 -1.2182 0.24044 -0.12123 0.058432 0.053492 0.14687 0.16254 10.189 -0.21773 -0.41179 -1.2333 0.24447 -0.1145 0.058731 -0.05577 0.14394 0.15858
100 -10.356 0.14102 -0.41483 -1.5351 0.28436 0.10255 0.014844 0.061145 0.083497 0.071357 10.172 -0.14666 -0.41622 -1.5375 0.28702 0.10442 0.015962 -0.06337 0.081652 0.071371
101 -10.319 0.20135 -0.42719 -1.2955 0.24905 -0.08709 0.062666 0.082699 0.11087 0.1474 10.165 -0.20478 -0.42816 -1.3053 0.25237 -0.080617 0.062524 -0.083732 0.10802 0.14315
102 -10.311 0.20451 -0.37395 -1.2405 0.24883 0.060708 0.075516 0.065985 0.0091576 0.069811 10.128 -0.20735 -0.37542 -1.2476 0.25125 0.063636 0.074865 -0.067343 0.0092599 0.068784
103 -10.301 0.16866 -0.2144 -1.1489 0.24846 0.591 0.015145 0.02191 -0.41799 -0.25798 10.243 -0.17564 -0.22374 -1.1713 0.25377 0.58833 0.016316 -0.025721 -0.4144 -0.25361
104 -10.348 0.14508 -0.39216 -1.4906 0.28021 0.17035 0.050193 0.060658 0.011175 0.028393 10.181 -0.15082 -0.39473 -1.4959 0.28327 0.17102 0.050364 -0.063038 0.010551 0.028974
105 -10.305 0.21073 -0.36511 -1.1924 0.23736 0.03969 0.078738 0.069493 0.032226 0.092586 10.142 -0.2137 -0.36745 -1.2026 0.24045 0.043104 0.078197 -0.070623 0.03209 0.091449
106 -10.309 0.20988 -0.42097 -1.237 0.23384 -0.13936 0.068414 0.08685 0.16823 0.19583 10.187 -0.21363 -0.42319 -1.2511 0.23802 -0.13237 0.068364 -0.087904 0.16481 0.19113
107 -10.348 0.14265 -0.38398 -1.483 0.27861 0.19935 0.046632 0.059817 -0.020559 0.0048219 10.174 -0.14842 -0.38653 -1.4874 0.28153 0.19924 0.046826 -0.062111 -0.020632 0.0059364
108 -10.335 0.15247 -0.32795 -1.4004 0.27809 0.31263 0.043136 0.025903 -0.087867 -0.05263 10.163 -0.15797 -0.33224 -1.4065 0.28071 0.30964 0.043424 -0.029559 -0.085488 -0.048869
109 -10.313 0.20832 -0.40999 -1.2571 0.24292 -0.078619 0.054263 0.079972 0.092595 0.125 10.168 -0.21169 -0.41177 -1.2685 0.24647 -0.072475 0.054462 -0.081081 0.090305 0.12161
110 -10.333 0.15974 -0.33283 -1.3762 0.2662 0.26595 0.056866 0.050861 -0.042262 -0.00066287 10.16 -0.16485 -0.33684 -1.3824 0.26911 0.26387 0.056854 -0.053094 -0.040373 0.0025156
111 -10.322 0.20213 -0.42716 -1.3151 0.25364 -0.099366 0.037451 0.077595 0.13524 0.15579 10.156 -0.20531 -0.42782 -1.3232 0.2566 -0.092661 0.03799 -0.078703 0.13215 0.1519
112 -10.359 0.13519 -0.41316 -1.5616 0.29444 0.1284 -0.010291 0.039994 0.050731 0.027902 10.202 -0.14148 -0.41579 -1.5675 0.29761 0.13005 -0.0084641 -0.043475 0.049458 0.028829
113 -10.312 0.20371 -0.41918 -1.2628 0.241 -0.12935 0.050714 0.071949 0.1851 0.1924 10.151 -0.20694 -0.42005 -1.272 0.24418 -0.12215 0.050925 -0.073446 0.18084 0.18772
114 -10.297 0.22735 -0.39115 -1.1362 0.21194 -0.16274 0.064294 0.095005 0.1798 0.18526 10.215 -0.23134 -0.39555 -1.1562 0.21726 -0.15593 0.064822 -0.095706 0.17695 0.18138
115 -10.346 0.16087 -0.39351 -1.462 0.28078 0.073269 -0.01825 0.034539 0.075978 0.041425 10.287 -0.16771 -0.40027 -1.4833 0.28658 0.076655 -0.016157 -0.038448 0.075183 0.042737
116 -10.334 0.16084 -0.33653 -1.3744 0.26495 0.24885 0.05897 0.051632 -0.019599 0.021645 10.158 -0.16585 -0.34034 -1.3804 0.26783 0.24705 0.058892 -0.053721 -0.017973 0.024565
117 -10.278 0.23511 -0.3808 -1.0397 0.20507 -0.20878 0.041204 0.039825 0.15195 0.10651 10.243 -0.23997 -0.38663 -1.0646 0.21081 -0.20208 0.042142 -0.0434 0.14843 0.10147
118 -10.301 0.21222 -0.36011 -1.1817 0.23744 0.058983 0.077269 0.068457 -0.0098706 0.053254 10.147 -0.21534 -0.3628 -1.1929 0.24063 0.062099 0.076752 -0.069908 -0.0094251 0.052462
119 -10.177 0.40181 0.36289 1.4002 -0.2045 0.28388 -0.41135 -0.02528 -0.073812 -0.13424 10.011 -0.39716 0.34621 1.3513 -0.19811 0.27835 -0.39719 0.025562 -0.072495 -0.13133
120 -10.317 0.19465 -0.40941 -1.3061 0.25735 0.0064734 0.062968 0.069009 0.0179 0.078828 10.127 -0.19775 -0.40943 -1.3107 0.25942 0.010814 0.062528 -0.070567 0.017021 0.076414
121 -10.305 0.21831 -0.40808 -1.2092 0.22993 -0.14491 0.041828 0.085369 0.13946 0.14476 10.196 -0.22204 -0.41121 -1.2255 0.23447 -0.13793 0.042514 -0.086597 0.1365 0.14084
122 -10.355 0.15202 -0.37567 -1.4979 0.28847 0.14635 -0.029377 0.032712 0.058161 0.010385 10.305 -0.15931 -0.38348 -1.5208 0.29469 0.14901 -0.027049 -0.036542 0.058025 0.013037
123 -10.309 0.21436 -0.40644 -1.2111 0.23858 -0.11501 0.06177 0.055356 0.14333 0.16607 10.189 -0.21798 -0.4092 -1.2264 0.24265 -0.10839 0.062062 -0.057451 0.14053 0.16227
124 -10.331 0.15701 -0.27952 -1.3268 0.2697 0.41231 0.032865 0.023522 -0.13171 -0.079284 10.344 -0.16535 -0.29042 -1.3584 0.27731 0.41456 0.034267 -0.027547 -0.13069 -0.075699
125 -10.293 0.22623 -0.3953 -1.1158 0.21839 -0.18809 0.042397 0.047473 0.1733 0.16404 10.221 -0.23048 -0.39987 -1.1371 0.22358 -0.1811 0.04326 -0.050158 0.17019 0.16001
126 -10.352 0.15738 -0.39254 -1.4941 0.27582 0.10216 0.030367 0.079512 0.089732 0.068719 10.266 -0.16388 -0.39846 -1.5115 0.2813 0.10504 0.031681 -0.08145 0.088757 0.069775
127 -10.322 0.20001 -0.43592 -1.3213 0.25397 -0.098253 0.046231 0.083065 0.11353 0.14476 10.166 -0.20347 -0.43665 -1.3306 0.25719 -0.091521 0.046431 -0.08415 0.11063 0.14043
128 -10.358 0.12994 -0.44377 -1.5656 0.29648 0.11876 0.00071386 0.048919 -0.048001 -0.054786 10.316 -0.13802 -0.45001 -1.5884 0.30274 0.12238 0.0018469 -0.05358 -0.0497 -0.05583
129 -10.363 0.12795 -0.44198 -1.5832 0.28266 0.086506 -0.0037572 0.093651 0.067222 0.058774 10.276 -0.13543 -0.44666 -1.5996 0.28831 0.089691 -0.0024241 -0.095648 0.065811 0.058811
130 -10.364 0.122 -0.45033 -1.597 0.29402 0.090231 -0.0077096 0.054689 0.045717 0.036128 10.29 -0.12984 -0.45537 -1.6154 0.29975 0.093599 -0.0063309 -0.058335 0.044201 0.035908
131 -10.353 0.12325 -0.38793 -1.5117 0.28738 0.2721 -0.00082841 0.039943 -0.17654 -0.15833 10.416 -0.13299 -0.3992 -1.5501 0.29667 0.2766 0.00010459 -0.045005 -0.17838 -0.15859
132 -10.313 0.2086 -0.42245 -1.2563 0.24015 -0.10968 0.071554 0.086783 0.11679 0.15173 10.186 -0.21232 -0.42456 -1.27 0.24422 -0.10295 0.071426 -0.087902 0.11389 0.14726
133 -10.357 0.13949 -0.44779 -1.5402 0.27492 0.018457 0.0012927 0.092335 0.1301 0.12459 10.254 -0.14627 -0.45145 -1.5545 0.28009 0.02249 0.0026627 -0.093931 0.12806 0.1238
134 -10.359 0.13155 -0.42899 -1.547 0.28071 0.10499 0.03642 0.07519 0.076793 0.084117 10.207 -0.13801 -0.43118 -1.554 0.28448 0.10718 0.036864 -0.077074 0.075084 0.083694
135 -10.313 0.15423 -0.24303 -1.2574 0.25447 0.57841 0.0019353 0.060756 -0.45935 -0.32032 10.216 -0.16108 -0.25107 -1.2739 0.25904 0.57357 0.0029649 -0.063531 -0.45349 -0.31418
136 -10.294 0.17347 -0.19482 -1.083 0.23864 0.62332 0.015121 0.022193 -0.40566 -0.22382 10.286 -0.18122 -0.20535 -1.1111 0.2451 0.62303 0.016297 -0.026067 -0.40312 -0.22009
137 -10.372 0.077552 -0.39269 -1.6606 0.28466 0.28402 -0.02011 0.016332 -0.11773 -0.15771 10.377 -0.087781 -0.40236 -1.6904 0.29317 0.28706 -0.018854 -0.022376 -0.11967 -0.15759
138 -10.351 0.14551 -0.4524 -1.4714 0.26763 -0.031291 0.011134 0.061014 0.11856 0.11838 10.517 -0.15606 -0.46739 -1.5247 0.27961 -0.027 0.012506 -0.065819 0.1186 0.11887
139 -10.176 0.25791 0.040253 -0.1603 0.087249 0.77132 -0.13724 0.018291 -0.606 -0.25073 10.074 -0.26105 0.029263 -0.18542 0.091278 0.76164 -0.1331 -0.019941 -0.59607 -0.2461
140 -10.283 0.16998 -0.12485 -0.9528 0.22263 0.81282 -0.080429 0.024864 -0.69255 -0.43795 10.314 -0.17869 -0.13635 -0.98369 0.22952 0.8142 -0.078853 -0.028753 -0.69253 -0.43628
141 -10.294 0.16367 -0.16659 -1.0776 0.24243 0.73754 -0.041567 0.022001 -0.58475 -0.37513 10.293 -0.17193 -0.17754 -1.1057 0.24879 0.73685 -0.040068 -0.02608 -0.58255 -0.37161
142 -10.267 0.18791 -0.1096 -0.83649 0.19801 0.7708 -0.079188 0.032482 -0.66535 -0.39078 10.346 -0.19705 -0.1214 -0.87079 0.20566 0.77566 -0.077931 -0.03588 -0.66795 -0.39056
143 -10.292 0.16005 -0.14424 -1.0323 0.23358 0.79147 -0.067954 0.022897 -0.65414 -0.42211 10.291 -0.16844 -0.15537 -1.0603 0.23995 0.79044 -0.066242 -0.026834 -0.65192 -0.41863
144 -10.291 0.17063 -0.18161 -1.0644 0.23641 0.67894 -0.030714 0.024616 -0.57497 -0.37309 10.284 -0.17852 -0.1921 -1.0918 0.24269 0.67831 -0.029347 -0.028571 -0.57272 -0.36986
145 -10.289 0.16872 -0.15931 -1.0284 0.2328 0.7355 -0.034818 0.021134 -0.59104 -0.36292 10.295 -0.17695 -0.17026 -1.0572 0.23929 0.73538 -0.033329 -0.025073 -0.58934 -0.35979
146 -10.361 0.12072 -0.4153 -1.5475 0.28317 0.14733 -0.0013391 0.043988 0.027481 0.016319 10.401 -0.13009 -0.42567 -1.5831 0.29213 0.15141 -4.5835e-05 -0.048444 0.026602 0.017181
147 -10.208 0.26752 -0.2926 -0.48899 0.075538 -0.44354 0.024088 0.038222 0.43517 0.27914 10.345 -0.27581 -0.30299 -0.52311 0.082802 -0.44265 0.025669 -0.041045 0.43571 0.27698
148 -10.161 0.28991 0.2395 0.7385 -0.10521 0.69156 -0.048748 -0.0086878 -0.11402 -0.073604 10.127 -0.29384 0.22831 0.71094 -0.1006 0.68681 -0.047012 0.0080182 -0.11434 -0.073416
149 -10.171 0.29333 0.21362 0.67903 -0.088272 0.64777 -0.37824 -0.010427 -0.42052 -0.10866 10.163 -0.29796 0.20324 0.65305 -0.083989 0.6451 -0.37346 0.0093139 -0.41909 -0.10853
150 -10.177 0.27563 0.23666 0.55712 -0.033718 0.82031 -0.30687 0.0039084 -0.44793 -0.18874 10.195 -0.28164 0.22576 0.53214 -0.03003 0.81832 -0.303 -0.0046556 -0.44643 -0.18787
151 -10.498 -5.1272 4.8039 -4.5576 -8.0609 -0.28054 0.048083 -8.6221 -0.070943 0.023623 10.778 5.1092 4.7876 -4.6507 -8.0399 -0.27538 0.041375 8.6213 -0.070106 0.020588
152 -10.208 0.32085 -0.091455 0.61476 -0.16533 -1.0139 -0.10468 0.0016464 1.2084 -0.44547 10.29 -0.32644 -0.097953 0.59476 -0.16156 -1.0129 -0.10291 -0.00258 1.2079 -0.44544
153 -10.187 0.32929 -0.068876 0.61673 -0.14699 -0.9123 -0.079318 0.0055919 1.1045 -0.39322 10.285 -0.33532 -0.075704 0.59753 -0.14364 -0.91215 -0.077545 -0.0063068 1.1042 -0.39335
154 -10.207 0.32373 0.21315 0.95023 -0.17472 0.16885 -0.64487 -0.011588 0.57759 1.6706 10.277 -0.33001 0.20458 0.92961 -0.17104 0.16896 -0.63798 0.012068 0.57351 1.6559
155 -10.178 0.30882 0.038233 0.5743 -0.13664 -0.43702 -0.26663 -0.0174 1.1498 -0.31597 10.318 -0.31688 0.030279 0.55649 -0.13331 -0.43853 -0.26541 0.016217 1.1568 -0.31605
156 -10.19 0.30242 -0.063077 0.51796 -0.14932 -0.77332 -0.1296 -0.0075829 1.2406 -0.3221 10.307 -0.30956 -0.070397 0.49891 -0.14562 -0.77462 -0.12816 0.0061737 1.2434 -0.32316
157 -10.177 0.32864 0.047755 0.77668 -0.18539 -0.56764 -0.11161 -0.030408 1.124 -0.43836 10.17 -0.33151 0.040237 0.75155 -0.18029 -0.5613 -0.10874 0.028924 1.1126 -0.43246
158 -10.2 0.30397 -0.006825 0.63284 -0.16686 -0.71593 -0.19492 -0.019045 1.3265 -0.45907 10.269 -0.30972 -0.014147 0.61222 -0.16274 -0.7141 -0.19255 0.017653 1.3248 -0.45732
159 -10.191 0.36028 -0.008922 0.85428 -0.219 -0.91713 -0.072633 -0.035749 1.0441 -0.46191 10.184 -0.362 -0.015228 0.82892 -0.21365 -0.90817 -0.070059 0.034407 1.0349 -0.45594
160 -10.259 0.43067 -0.26087 0.83618 -0.26474 -1.8312 0.3071 -0.015215 0.012477 -0.039547 10.252 -0.4296 -0.26242 0.81089 -0.25874 -1.8139 0.30546 0.014562 0.011792 -0.040191
161 -10.166 0.30453 -0.06807 0.39004 -0.11217 -0.57923 -0.10987 0.00055803 1.0098 -0.091859 10.377 -0.31459 -0.076486 0.37253 -0.10901 -0.58482 -0.10929 -0.0019897 1.0212 -0.093794
162 -10.298 0.41555 -0.38143 0.63423 -0.24439 -2.0157 0.41072 0.0079454 -0.44535 0.39245 10.31 -0.41545 -0.38208 0.61017 -0.23838 -2.0007 0.40855 -0.0084011 -0.44378 0.38625
163 -10.203 0.39723 -0.037403 0.9924 -0.21939 -1.1441 0.043207 -0.0081405 0.68193 -0.48178 10.215 -0.39852 -0.042767 0.96844 -0.21525 -1.1351 0.044757 0.0083389 0.67641 -0.47606
164 -10.175 0.29414 -0.14222 0.30694 -0.097862 -0.78045 -0.094099 0.021735 1.0372 -0.064172 10.385 -0.30409 -0.15108 0.28757 -0.094409 -0.78843 -0.093629 -0.023123 1.0475 -0.066858
165 -10.139 0.34474 0.17717 0.82209 -0.14743 0.058073 -0.3104 -0.01734 0.32649 0.43385 10.308 -0.35374 0.17006 0.8089 -0.14507 0.059662 -0.30904 0.017575 0.32937 0.43804
166 -10.168 0.3235 0.13153 0.7829 -0.16275 -0.27297 -0.27878 -0.027708 1.0482 -0.36249 10.267 -0.3302 0.12342 0.76482 -0.1595 -0.27258 -0.27628 0.026882 1.0506 -0.35997
167 -10.203 0.30017 -0.092469 0.50721 -0.15079 -0.90096 -0.14175 0.00038673 1.2726 -0.37147 10.32 -0.30725 -0.099681 0.48797 -0.14708 -0.90293 -0.14043 -0.001672 1.2764 -0.37335
168 -10.204 0.31348 -0.039917 0.64651 -0.15927 -0.8501 -0.15172 -0.0032286 1.3118 -0.48963 10.261 -0.31856 -0.046714 0.62524 -0.1553 -0.84695 -0.14943 0.0022464 1.3082 -0.4876
169 -10.174 0.30294 0.22552 0.75939 -0.10641 0.59183 -0.33713 -0.015782 -0.37107 -0.14366 10.186 -0.30787 0.21561 0.73493 -0.10238 0.59062 -0.33328 0.014844 -0.37077 -0.14303
170 -10.182 0.32055 0.096376 0.79352 -0.18013 -0.47244 -0.23636 -0.032678 1.1944 -0.45821 10.229 -0.32549 0.088161 0.77196 -0.17601 -0.47006 -0.23294 0.0315 1.1907 -0.45385
171 -10.208 0.33463 -0.067348 0.72501 -0.18437 -1.0218 -0.096438 -0.007799 1.2298 -0.52354 10.213 -0.33739 -0.073067 0.70066 -0.17954 -1.013 -0.093984 0.0068854 1.2198 -0.51854
172 -10.226 0.3149 0.30782 1.1771 -0.1985 0.48177 -0.8783 -0.0098226 -0.10712 0.56831 10.219 -0.31902 0.29736 1.1504 -0.19416 0.47897 -0.86817 0.010371 -0.10698 0.56203
173 -10.186 0.41911 -0.051879 1.018 -0.25872 -1.1931 0.1126 -0.031256 0.35209 -0.27994 10.223 -0.42076 -0.056968 0.99671 -0.25449 -1.1867 0.11386 0.030779 0.35088 -0.27747
174 -10.183 0.31771 0.10037 0.78432 -0.17797 -0.44993 -0.24494 -0.033231 1.2051 -0.45137 10.229 -0.32273 0.092057 0.76271 -0.17382 -0.44765 -0.24146 0.032014 1.2015 -0.447
175 -10.152 0.33459 0.21936 0.91768 -0.16171 0.22764 -0.28623 -0.016972 0.30807 0.78809 10.27 -0.3421 0.21171 0.90173 -0.15891 0.22951 -0.28327 0.017348 0.30768 0.78689
176 -10.196 0.3066 -0.0040233 0.63075 -0.16656 -0.69762 -0.19249 -0.020161 1.2915 -0.44055 10.279 -0.31273 -0.011404 0.61089 -0.16264 -0.69671 -0.19034 0.018777 1.2915 -0.43943
177 -10.223 0.37307 -0.13221 0.78663 -0.15851 -1.2791 0.015114 0.037306 0.82966 -0.50037 10.28 -0.3765 -0.13727 0.76563 -0.15548 -1.2746 0.01675 -0.036549 0.82614 -0.49816
178 -10.157 0.30123 -0.17342 0.13313 -0.062346 -0.61986 -0.039763 0.02047 0.63987 0.3586 10.439 -0.31331 -0.18424 0.11048 -0.058246 -0.62984 -0.039019 -0.022223 0.65012 0.36243
179 -10.166 0.30453 -0.06807 0.39004 -0.11217 -0.57923 -0.10987 0.00055803 1.0098 -0.091859 10.377 -0.31459 -0.076486 0.37253 -0.10901 -0.58482 -0.10929 -0.0019897 1.0212 -0.093794
180 -10.18 0.29351 -0.067507 0.41632 -0.12546 -0.64317 -0.12959 -0.0031549 1.1697 -0.18139 10.349 -0.3024 -0.075522 0.39797 -0.122 -0.6471 -0.12879 0.0016394 1.178 -0.18341
181 -10.181 0.29991 0.32961 1.0403 -0.15591 0.84612 -0.052967 -0.010231 -0.23912 0.33605 10.138 -0.30349 0.31741 1.0105 -0.15118 0.83801 -0.050967 0.010694 -0.23851 0.32776
182 -10.258 0.41391 -0.31402 0.64056 -0.17106 -1.8016 0.36855 0.045063 -0.37668 0.29653 10.327 -0.41635 -0.31776 0.61964 -0.16759 -1.7982 0.3693 -0.0444 -0.37789 0.29344
183 -10.272 0.45704 -0.30522 0.79394 -0.28007 -1.8744 0.37498 -0.030048 -0.37542 0.17318 10.284 -0.45604 -0.30662 0.76989 -0.27388 -1.8603 0.37347 0.02907 -0.37315 0.17013
184 -10.242 0.46613 -0.13634 1.1231 -0.23248 -1.5877 0.31003 0.018133 -0.33051 -0.10112 10.214 -0.46332 -0.139 1.0946 -0.22807 -1.5695 0.30824 -0.016402 -0.32645 -0.099068
185 -10.342 0.14842 -0.41185 -1.4114 0.2629 0.087438 0.026069 0.053329 -0.0068665 0.010954 10.624 -0.16082 -0.43125 -1.4793 0.27756 0.093753 0.027593 -0.058932 -0.0081453 0.010766
186 -10.244 0.33849 0.39282 1.4392 -0.21228 0.48539 -0.81367 -0.024552 -0.14714 0.23622 10.387 -0.34706 0.38716 1.4328 -0.2121 0.48947 -0.8152 0.025584 -0.14919 0.23673
187 -10.251 0.35627 0.44957 1.6122 -0.23717 0.5526 -0.37372 -0.029476 -0.14499 -0.16663 10.425 -0.36572 0.44553 1.6126 -0.2382 0.55836 -0.37422 0.03132 -0.14707 -0.16816
188 -10.251 0.35627 0.44957 1.6122 -0.23717 0.5526 -0.37372 -0.029476 -0.14499 -0.16663 10.425 -0.36572 0.44553 1.6126 -0.2382 0.55836 -0.37422 0.03132 -0.14707 -0.16816
189 -10.282 0.30934 0.459 1.5707 -0.22521 0.76879 -0.71823 -0.021036 -0.34216 -0.024445 10.282 -0.31407 0.44762 1.5448 -0.22233 0.76396 -0.71116 0.02233 -0.34108 -0.024983
190 -10.226 0.36744 0.40575 1.5106 -0.22152 0.32756 -0.56023 -0.033065 -0.029698 -0.24034 10.442 -0.37822 0.40272 1.5151 -0.22314 0.33263 -0.56254 0.034424 -0.03105 -0.24306
191 -10.246 0.30578 0.38073 1.3036 -0.18514 0.66873 -0.81989 -0.013634 -0.2816 0.13963 10.304 -0.31228 0.37186 1.2853 -0.18296 0.6691 -0.81625 0.014262 -0.28272 0.13861
192 -10.233 0.37052 0.45414 1.6234 -0.24026 0.53163 -0.10618 -0.028257 -0.038656 -0.17249 10.448 -0.38131 0.45191 1.6306 -0.24232 0.53965 -0.10388 0.030428 -0.039598 -0.17469
193 -10.249 0.36114 0.41596 1.5431 -0.2267 0.34286 -0.61263 -0.033179 -0.021017 -0.28942 10.422 -0.37049 0.41142 1.542 -0.22753 0.3466 -0.61308 0.034442 -0.022199 -0.29138
194 -10.301 0.33723 0.45389 1.6669 -0.24776 0.54115 -0.82673 -0.028234 -0.2598 -0.27964 10.373 -0.3435 0.44585 1.6523 -0.24668 0.54175 -0.82342 0.029631 -0.26087 -0.27934
195 -10.275 0.32376 0.44083 1.5409 -0.22333 0.67107 -0.68627 -0.019436 -0.31488 -0.16933 10.335 -0.32994 0.43205 1.5237 -0.22167 0.67101 -0.68282 0.020786 -0.31579 -0.16972
196 -10.237 0.35833 0.40721 1.5198 -0.22481 0.43318 -0.67934 -0.027938 -0.18601 -0.10698 10.452 -0.36915 0.40455 1.5251 -0.22652 0.44015 -0.68505 0.029361 -0.18964 -0.10858
197 -10.295 0.34135 0.4956 1.4425 -0.18974 1.1563 1.2119 -0.018486 0.027683 0.11513 10.308 -0.34576 0.48371 1.4185 -0.18697 1.151 1.206 0.020686 0.027057 0.11312
198 -10.273 0.34504 0.44358 1.6235 -0.241 0.57006 -0.66619 -0.026119 -0.25866 -0.13823 10.417 -0.35358 0.43854 1.6198 -0.24144 0.57473 -0.6679 0.027763 -0.26151 -0.13926
199 -10.193 0.31303 0.30597 0.99082 -0.12385 0.60123 -0.46676 -0.019201 -0.30847 -0.33197 10.312 -0.32115 0.29843 0.97627 -0.12186 0.60578 -0.46555 0.018792 -0.31148 -0.33312
200 -10.261 0.34873 0.41514 1.514 -0.21638 0.43712 -0.62374 -0.036938 -0.14088 -0.35389 10.405 -0.3572 0.40953 1.5085 -0.21654 0.44068 -0.62328 0.037772 -0.14292 -0.35576
201 -10.251 0.29378 0.40733 1.3567 -0.19369 0.76391 -0.83335 -0.012037 -0.27163 0.39428 10.223 -0.2981 0.39501 1.3272 -0.18993 0.75724 -0.82239 0.012804 -0.27112 0.38617
202 -10.244 0.34687 0.40498 1.4905 -0.21667 0.47401 -0.76716 -0.029893 -0.16372 0.13843 10.417 -0.35636 0.40061 1.4892 -0.21735 0.47946 -0.77052 0.03101 -0.16668 0.13824
203 -10.269 0.31783 0.39744 1.425 -0.2063 0.57426 -0.92345 -0.027001 -0.22518 0.2428 10.34 -0.32445 0.38919 1.409 -0.20471 0.57511 -0.92024 0.027625 -0.22668 0.24206
204 -10.211 0.31753 0.32272 1.1595 -0.18394 0.43937 -0.51026 -0.025671 0.36383 1.3469 10.311 -0.32507 0.3148 1.1443 -0.18175 0.44064 -0.50583 0.026345 0.36065 1.3381
205 -10.249 0.35663 0.43166 1.5705 -0.23017 0.47453 -0.48283 -0.030959 -0.12374 -0.21685 10.422 -0.36605 0.42739 1.5701 -0.23106 0.47952 -0.48356 0.032533 -0.1257 -0.21863
206 -10.249 0.33986 0.44233 1.5253 -0.21685 0.63266 -0.38765 -0.025367 -0.18548 -0.14642 10.335 -0.34658 0.43431 1.5113 -0.21569 0.63378 -0.38488 0.026781 -0.18666 -0.14678
207 -10.292 0.34157 0.44631 1.6442 -0.24482 0.52372 -0.79105 -0.027369 -0.24848 -0.27135 10.394 -0.34873 0.4395 1.6342 -0.24438 0.52591 -0.78995 0.028816 -0.25024 -0.27193
208 -10.233 0.37052 0.45414 1.6234 -0.24026 0.53163 -0.10618 -0.028257 -0.038656 -0.17249 10.448 -0.38131 0.45191 1.6306 -0.24232 0.53965 -0.10388 0.030428 -0.039598 -0.17469
209 -10.184 0.28901 0.27012 0.7401 -0.072218 0.76634 -0.31689 -0.0046957 -0.40936 -0.18547 10.23 -0.29546 0.26016 0.71776 -0.06897 0.76671 -0.31379 0.0040374 -0.41063 -0.18638
210 -10.256 0.33173 0.38738 1.4144 -0.20731 0.49614 -0.8634 -0.026668 -0.17805 0.20606 10.376 -0.33961 0.38086 1.4048 -0.20662 0.49932 -0.86384 0.027448 -0.18002 0.2067
211 -10.286 0.47159 0.5619 1.5261 -0.18433 0.28889 -0.7353 -0.1272 -0.052394 -0.46794 10.46 -0.48009 0.5555 1.5247 -0.18543 0.29285 -0.73316 0.12709 -0.053233 -0.46803
212 -10.226 0.36744 0.40575 1.5106 -0.22152 0.32756 -0.56023 -0.033065 -0.029698 -0.24034 10.442 -0.37822 0.40272 1.5151 -0.22314 0.33263 -0.56254 0.034424 -0.03105 -0.24306
213 -10.287 0.33568 0.52128 1.7628 -0.25375 0.82222 -0.19104 -0.033377 -0.19346 -0.050382 10.309 -0.34047 0.5104 1.7401 -0.25161 0.81813 -0.1885 0.035342 -0.19316 -0.050469
214 -10.354 0.35124 0.57317 1.7347 -0.23975 1.2267 1.3059 -0.026406 0.015088 0.13998 10.327 -0.35412 0.55878 1.7037 -0.23629 1.2151 1.2928 0.029326 0.014696 0.13714
215 -10.28 0.31811 0.47404 1.618 -0.2338 0.78512 -0.52871 -0.020282 -0.29836 -0.053671 10.301 -0.32329 0.46349 1.5953 -0.2314 0.7817 -0.52389 0.021938 -0.29797 -0.054115
216 -10.298 0.31819 0.48028 1.6817 -0.2437 0.71132 -0.72927 -0.028893 -0.2984 -0.13165 10.299 -0.32268 0.46888 1.6558 -0.24102 0.70688 -0.72165 0.030235 -0.29754 -0.13097
217 -10.244 0.29404 0.37686 1.2513 -0.17635 0.72119 -0.8227 -0.014564 -0.3457 0.13756 10.226 -0.29857 0.36517 1.2236 -0.17276 0.7161 -0.81323 0.014851 -0.34439 0.13529
218 -10.275 0.31552 0.40194 1.4383 -0.20768 0.57677 -0.94936 -0.028532 -0.22175 0.24815 10.323 -0.32148 0.39281 1.4193 -0.20567 0.57627 -0.94399 0.029077 -0.22276 0.24698
219 -10.271 0.3202 0.39907 1.4381 -0.20907 0.55819 -0.92955 -0.027952 -0.21164 0.25527 10.343 -0.32677 0.39082 1.4222 -0.2075 0.55898 -0.92625 0.028593 -0.21309 0.2546
220 -10.298 0.33113 0.46017 1.6738 -0.24803 0.60583 -0.82272 -0.028016 -0.29625 -0.18716 10.37 -0.33754 0.45217 1.6593 -0.24695 0.60638 -0.81993 0.029489 -0.29733 -0.18701
221 -10.172 0.29453 0.25929 0.70973 -0.06835 0.74654 -0.28719 -0.0017672 -0.40019 -0.16263 10.255 -0.3019 0.2502 0.68955 -0.065216 0.74969 -0.28512 0.0011956 -0.40273 -0.16428
222 -10.184 0.28901 0.27012 0.7401 -0.072218 0.76634 -0.31689 -0.0046957 -0.40936 -0.18547 10.23 -0.29546 0.26016 0.71776 -0.06897 0.76671 -0.31379 0.0040374 -0.41063 -0.18638
223 -10.249 0.36114 0.41596 1.5431 -0.2267 0.34286 -0.61263 -0.033179 -0.021017 -0.28942 10.422 -0.37049 0.41142 1.542 -0.22753 0.3466 -0.61308 0.034442 -0.022199 -0.29138
224 -10.267 0.36065 0.51731 1.7667 -0.25791 0.75352 0.14312 -0.031164 -0.066313 -0.13632 10.369 -0.36757 0.51034 1.7576 -0.25771 0.756 0.14606 0.033628 -0.066777 -0.13632
225 -10.272 0.31997 0.39949 1.4399 -0.20953 0.55644 -0.9314 -0.02792 -0.20934 0.2564 10.343 -0.32655 0.39124 1.4239 -0.20797 0.55723 -0.92809 0.028567 -0.21077 0.25575
226 -10.195 0.29141 0.29035 0.84423 -0.091821 0.74887 -0.33378 -0.018107 -0.37771 -0.18 10.241 -0.29783 0.28057 0.82255 -0.088816 0.74914 -0.3306 0.017301 -0.37923 -0.1809
227 -10.226 0.36744 0.40575 1.5106 -0.22152 0.32756 -0.56023 -0.033065 -0.029698 -0.24034 10.442 -0.37822 0.40272 1.5151 -0.22314 0.33263 -0.56254 0.034424 -0.03105 -0.24306
228 -10.299 0.32291 0.47993 1.6945 -0.24719 0.70909 -0.71666 -0.029635 -0.29789 -0.076085 10.33 -0.32823 0.46992 1.6733 -0.24516 0.70651 -0.71139 0.031126 -0.2978 -0.076188
229 -10.249 0.33661 0.40993 1.4263 -0.19873 0.54512 -0.52695 -0.028953 -0.17618 -0.26767 10.35 -0.34388 0.40244 1.4139 -0.19773 0.54728 -0.52422 0.029661 -0.17791 -0.26847
230 -10.288 0.41882 0.48687 1.5381 -0.20852 0.32009 -0.69635 -0.079067 -0.03529 -0.43226 10.463 -0.42776 0.48139 1.5366 -0.2094 0.3239 -0.69538 0.079652 -0.03624 -0.43306
231 -10.226 0.36744 0.40575 1.5106 -0.22152 0.32756 -0.56023 -0.033065 -0.029698 -0.24034 10.442 -0.37822 0.40272 1.5151 -0.22314 0.33263 -0.56254 0.034424 -0.03105 -0.24306
232 -10.254 0.33689 0.4001 1.4176 -0.19389 0.49099 -0.63352 -0.035999 -0.19974 -0.40188 10.355 -0.34414 0.39265 1.405 -0.19297 0.49312 -0.63063 0.036341 -0.20162 -0.40248
233 -10.297 0.33454 0.45127 1.6507 -0.24444 0.5542 -0.83592 -0.028235 -0.26801 -0.24356 10.37 -0.34087 0.44321 1.636 -0.24333 0.55483 -0.83265 0.029583 -0.26912 -0.24335
234 -10.27 0.32458 0.39585 1.4385 -0.21023 0.52618 -0.92259 -0.028224 -0.19506 0.23254 10.356 -0.33149 0.38812 1.4244 -0.20894 0.52768 -0.92043 0.028901 -0.1966 0.23263
235 -10.29 0.3387 0.47485 1.6961 -0.25107 0.66638 -0.55751 -0.028178 -0.26013 -0.128 10.392 -0.34599 0.46809 1.6864 -0.25069 0.66864 -0.55684 0.030016 -0.26174 -0.12837
236 -10.212 0.39364 -0.00035837 1.0853 -0.21708 -1.0894 -0.012801 -0.0098517 0.8791 -0.56721 10.233 -0.39539 -0.0059709 1.0624 -0.21371 -1.0819 -0.010855 0.010182 0.87355 -0.56087
237 -10.256 0.33173 0.38738 1.4144 -0.20731 0.49614 -0.8634 -0.026668 -0.17805 0.20606 10.376 -0.33961 0.38086 1.4048 -0.20662 0.49932 -0.86384 0.027448 -0.18002 0.2067
238 -10.195 0.29957 0.30122 0.91371 -0.10684 0.71438 -0.32845 -0.021694 -0.34102 -0.15378 10.265 -0.30647 0.2922 0.89438 -0.10418 0.7163 -0.32596 0.021042 -0.34357 -0.15522
239 -10.249 0.36114 0.41596 1.5431 -0.2267 0.34286 -0.61263 -0.033179 -0.021017 -0.28942 10.422 -0.37049 0.41142 1.542 -0.22753 0.3466 -0.61308 0.034442 -0.022199 -0.29138
240 -10.259 0.35316 0.45365 1.6234 -0.23763 0.54708 -0.41378 -0.031561 -0.1368 -0.19374 10.403 -0.36162 0.44832 1.6192 -0.23803 0.55107 -0.41323 0.033278 -0.13844 -0.19477
241 -10.378 0.37686 0.57845 1.8147 -0.25312 1.0997 1.4171 -0.038245 0.12124 0.050888 10.392 -0.38047 0.56644 1.7909 -0.25087 1.0942 1.4104 0.041084 0.12052 0.04994
242 -10.275 0.31848 0.40284 1.4485 -0.20982 0.55589 -0.95068 -0.029467 -0.2051 0.25341 10.323 -0.32437 0.3937 1.4294 -0.20783 0.55537 -0.94512 0.030025 -0.20603 0.25229
243 -10.268 0.31202 0.42948 1.494 -0.217 0.69613 -0.82114 -0.019291 -0.3191 0.054354 10.289 -0.31728 0.41918 1.4711 -0.21441 0.6934 -0.8145 0.020381 -0.31877 0.053376
244 -10.295 0.34326 0.44746 1.6574 -0.248 0.50537 -0.80861 -0.027197 -0.23687 -0.28409 10.397 -0.35039 0.44067 1.6475 -0.24759 0.50747 -0.80745 0.028672 -0.23851 -0.28458
245 -10.261 0.34873 0.41514 1.514 -0.21638 0.43712 -0.62374 -0.036938 -0.14088 -0.35389 10.405 -0.3572 0.40953 1.5085 -0.21654 0.44068 -0.62328 0.037772 -0.14292 -0.35576
246 -10.297 0.3386 0.45131 1.6598 -0.24709 0.53874 -0.81586 -0.027612 -0.26039 -0.27101 10.384 -0.34529 0.44386 1.6473 -0.24632 0.5401 -0.81366 0.029049 -0.2618 -0.27111
247 -10.267 0.34669 0.41964 1.5262 -0.21733 0.442 -0.63918 -0.038422 -0.13839 -0.36663 10.387 -0.35442 0.41312 1.5175 -0.21705 0.44455 -0.63732 0.039163 -0.14013 -0.36765
248 -10.293 0.33058 0.47495 1.6924 -0.24918 0.67624 -0.66624 -0.029159 -0.28654 -0.12989 10.366 -0.33704 0.46687 1.6779 -0.24812 0.67663 -0.66398 0.030807 -0.28756 -0.12989
249 -10.186 0.24835 0.22198 0.48084 -0.041728 0.84653 -0.27785 -0.0045852 -0.42184 -0.22628 10.302 -0.25745 0.21323 0.46071 -0.0379 0.85286 -0.27741 0.0032642 -0.42601 -0.22794
250 -10.188 0.23434 0.16201 0.14992 0.039665 0.92154 -0.29945 0.012751 -0.59051 -0.29719 10.399 -0.24592 0.15356 0.12627 0.044892 0.93691 -0.30143 -0.014517 -0.6001 -0.30107
251 -10.232 0.37686 -0.094239 0.92581 -0.2525 -1.3418 0.015044 -0.040412 0.93983 -0.50644 10.332 -0.38173 -0.099672 0.91008 -0.24961 -1.3433 0.016688 0.039572 0.94139 -0.50531
252 -10.238 0.30322 0.23073 0.95293 -0.17972 0.1679 -0.72918 -0.024963 0.68437 1.7818 10.524 -0.31648 0.22648 0.95201 -0.17969 0.17114 -0.73692 0.025716 0.69428 1.8048
253 -10.27 0.28218 0.25146 1.022 -0.19637 0.24385 -0.9211 -0.025342 0.67239 2.0133 10.485 -0.29346 0.24614 1.0161 -0.19541 0.24667 -0.92656 0.026048 0.67708 2.0263
254 -10.28 0.25839 0.29004 1.1102 -0.21839 0.36487 -1.0257 -0.033487 0.58036 2.0454 10.423 -0.26805 0.28337 1.0989 -0.21629 0.36661 -1.026 0.034069 0.57958 2.0445
255 -10.258 0.28915 0.29958 1.1051 -0.19476 0.36193 -0.75808 -0.032984 0.58805 1.8472 10.43 -0.29925 0.29355 1.0967 -0.19347 0.36486 -0.75869 0.033706 0.58912 1.851
256 -10.238 0.30114 0.29487 1.0835 -0.18713 0.34247 -0.62817 -0.032635 0.56208 1.6431 10.452 -0.31235 0.28989 1.0791 -0.18654 0.34681 -0.63014 0.033452 0.5654 1.6525
257 -10.372 0.44326 -0.35094 0.98166 -0.29777 -2.2806 0.40624 -0.0094758 -0.52332 0.14618 10.378 -0.44202 -0.3507 0.95733 -0.29238 -2.2632 0.40425 0.009668 -0.51944 0.14552
258 -10.339 0.42671 -0.33318 0.88899 -0.37273 -2.1421 0.33297 -0.078588 -0.08763 0.029822 10.555 -0.43473 -0.34023 0.88269 -0.37234 -2.1683 0.33792 0.077602 -0.0889 0.029864
259 -10.362 0.44399 -0.36641 0.92849 -0.28417 -2.2496 0.39292 -0.00011095 -0.48238 0.14986 10.41 -0.44453 -0.3675 0.90776 -0.27992 -2.2414 0.39263 0.00042917 -0.48105 0.14916
260 -10.358 0.45767 -0.3242 1.0058 -0.24054 -2.2015 0.41807 0.028774 -0.55149 0.12786 10.35 -0.45554 -0.32402 0.97999 -0.23634 -2.1819 0.41559 -0.027228 -0.54648 0.12728
261 -10.364 0.45344 -0.40556 0.86895 -0.36403 -2.2837 0.3819 -0.065403 -0.37068 0.18056 10.464 -0.45608 -0.40819 0.85254 -0.35961 -2.2865 0.38319 0.063963 -0.37145 0.1799
262 -10.38 0.45318 -0.3537 1.0279 -0.23534 -2.2865 0.40361 0.044765 -0.56763 0.10502 10.409 -0.45267 -0.35402 1.0054 -0.23224 -2.2742 0.40264 -0.042769 -0.56437 0.10525
263 -10.368 0.47119 -0.31852 1.0765 -0.26585 -2.2247 0.41975 0.0092161 -0.56573 0.08216 10.361 -0.46868 -0.31814 1.0506 -0.26135 -2.2049 0.41724 -0.0079811 -0.56024 0.082538
264 -10.354 0.42255 -0.368 0.85347 -0.24475 -2.2204 0.3875 0.02861 -0.46357 0.21321 10.413 -0.42403 -0.36981 0.8333 -0.2412 -2.2147 0.38766 -0.027853 -0.46326 0.21201
265 -10.313 0.46873 -0.29894 0.92918 -0.35527 -2.0142 0.37912 -0.084568 -0.34661 0.11124 10.414 -0.47134 -0.30251 0.91327 -0.3511 -2.0165 0.38079 0.083089 -0.34694 0.11143
266 -10.364 0.43109 -0.36294 0.88093 -0.31179 -2.2315 0.38894 -0.028797 -0.47731 0.24254 10.435 -0.43291 -0.36511 0.8621 -0.30742 -2.2282 0.38948 0.028121 -0.47691 0.24204
267 -10.373 0.40797 -0.36146 0.83376 -0.31646 -2.2318 0.37704 -0.036514 -0.4393 0.28748 10.516 -0.41313 -0.36643 0.82048 -0.31396 -2.2442 0.38022 0.035715 -0.44227 0.28886
268 -10.377 0.40806 -0.37079 0.83908 -0.30658 -2.2655 0.37795 -0.026519 -0.45534 0.28849 10.497 -0.41227 -0.37484 0.824 -0.30359 -2.273 0.38029 0.025876 -0.45742 0.28923
269 -10.256 0.35981 -0.064584 0.95362 -0.20351 -1.2764 -0.02843 0.00076548 0.9301 -0.61121 10.428 -0.36762 -0.070799 0.94413 -0.20277 -1.2865 -0.026783 -0.0003785 0.93716 -0.61314
270 -10.256 0.35981 -0.064584 0.95362 -0.20351 -1.2764 -0.02843 0.00076548 0.9301 -0.61121 10.428 -0.36762 -0.070799 0.94413 -0.20277 -1.2865 -0.026783 -0.0003785 0.93716 -0.61314
271 -10.253 0.36441 -0.042081 0.99961 -0.20931 -1.2468 -0.033242 -0.007347 0.9612 -0.63179 10.395 -0.37114 -0.04804 0.98811 -0.20818 -1.2531 -0.031518 0.0077213 0.96597 -0.63186
272 -10.253 0.36441 -0.042081 0.99961 -0.20931 -1.2468 -0.033242 -0.007347 0.9612 -0.63179 10.395 -0.37114 -0.04804 0.98811 -0.20818 -1.2531 -0.031518 0.0077213 0.96597 -0.63186
273 -10.278 0.25478 0.3711 1.2869 -0.22765 0.63219 -1.1189 -0.031515 0.16766 1.5443 10.451 -0.26539 0.3662 1.2822 -0.22702 0.63812 -1.125 0.03233 0.16494 1.5472
274 -10.328 0.45485 -0.24035 1.0598 -0.33438 -2.0249 0.38615 -0.0604 -0.32138 0.058763 10.399 -0.45644 -0.24343 1.0424 -0.33047 -2.0218 0.38679 0.059485 -0.32032 0.059854
275 -10.365 0.46302 -0.30256 1.0595 -0.2204 -2.1793 0.42525 0.043166 -0.63175 0.11426 10.394 -0.46238 -0.30373 1.037 -0.21772 -2.1675 0.42434 -0.040985 -0.62811 0.1148
276 -10.358 0.45262 -0.29776 1.011 -0.24322 -2.1567 0.41932 0.01733 -0.57809 0.13271 10.406 -0.45307 -0.29979 0.99052 -0.24021 -2.1492 0.4193 -0.016059 -0.57635 0.13324
277 -10.379 0.4713 -0.39923 0.8898 -0.45198 -2.2584 0.3886 -0.14652 -0.41516 0.21227 10.499 -0.47454 -0.40252 0.87527 -0.44697 -2.2649 0.39049 0.14378 -0.41612 0.21241
278 -10.374 0.47195 -0.29449 1.1343 -0.25287 -2.2021 0.42195 0.019544 -0.64396 0.070839 10.38 -0.47004 -0.2948 1.1096 -0.24929 -2.1854 0.42007 -0.017707 -0.63838 0.072059
279 -10.348 0.48566 -0.27113 1.1433 -0.24157 -2.0761 0.403 0.027803 -0.617 0.027521 10.434 -0.48718 -0.27383 1.127 -0.23999 -2.0756 0.40432 -0.025891 -0.61599 0.028887
280 -10.368 0.46705 -0.24201 1.1828 -0.26197 -2.126 0.41924 0.0043946 -0.60584 0.038427 10.47 -0.46963 -0.24547 1.169 -0.26081 -2.1297 0.42148 -0.0028595 -0.60649 0.040868
281 -10.334 0.47714 -0.20481 1.2047 -0.24597 -1.9442 0.37022 0.016485 -0.5505 -0.035382 10.508 -0.48303 -0.20985 1.1991 -0.24668 -1.9607 0.37503 -0.014697 -0.5546 -0.033598
282 -10.371 0.46546 -0.24739 1.1798 -0.28273 -2.1487 0.42017 -0.013239 -0.59852 0.039359 10.457 -0.46733 -0.25042 1.1643 -0.2808 -2.1492 0.42172 0.014377 -0.59822 0.041756
283 -10.374 0.46764 -0.25108 1.1934 -0.25832 -2.1524 0.41676 0.0093559 -0.61882 0.032766 10.446 -0.46884 -0.25366 1.1763 -0.25655 -2.15 0.41777 -0.0076329 -0.61756 0.03519
284 -10.378 0.51559 -0.30697 1.2177 -0.17418 -2.193 0.43502 0.089249 -0.70285 0.044738 10.449 -0.51576 -0.30852 1.1998 -0.17404 -2.1893 0.43559 -0.085661 -0.69993 0.046446
285 -10.371 0.4661 -0.25508 1.1648 -0.26118 -2.1545 0.42269 0.004237 -0.59721 0.052294 10.457 -0.46795 -0.25808 1.1491 -0.25957 -2.155 0.42427 -0.0027678 -0.59698 0.054618
286 -10.328 0.29781 0.53267 1.7793 -0.24951 0.84614 -0.58386 -0.038848 -0.2821 -0.10382 10.45 -0.3065 0.52678 1.7738 -0.25001 0.84999 -0.58491 0.040822 -0.28495 -0.10454
287 -10.456 0.31778 0.65646 1.8403 -0.23309 1.4495 1.6622 -0.05163 0.13597 0.054891 10.47 -0.32315 0.64332 1.8167 -0.23127 1.4415 1.6527 0.05438 0.13429 0.053779
288 -10.448 0.32135 0.63962 1.8181 -0.232 1.4274 1.6378 -0.045358 0.13073 0.060336 10.488 -0.32739 0.62826 1.7988 -0.23066 1.4231 1.6328 0.048298 0.12948 0.059423
289 -10.457 0.30433 0.65831 1.7828 -0.2243 1.4961 1.6827 -0.049719 0.13951 0.056047 10.53 -0.31181 0.64853 1.769 -0.22361 1.4962 1.6823 0.052677 0.13857 0.055238
290 -10.46 0.31473 0.65843 1.8283 -0.22943 1.4596 1.6847 -0.0523 0.14607 0.043448 10.49 -0.32068 0.6462 1.8075 -0.22799 1.4539 1.6777 0.055079 0.14453 0.042535
291 -10.428 0.3193 0.65463 1.9053 -0.25097 1.373 1.444 -0.044086 0.08511 -0.0025477 10.45 -0.32482 0.64226 1.883 -0.2493 1.3664 1.4371 0.047195 0.084064 -0.0028376
292 -10.42 0.33236 0.60843 1.7286 -0.21754 1.3615 1.5813 -0.041994 0.12732 0.059075 10.542 -0.34075 0.60187 1.7226 -0.21778 1.3684 1.5894 0.045034 0.1271 0.058574
293 -10.467 0.30995 0.66905 1.8742 -0.23835 1.4821 1.7014 -0.051943 0.14195 0.058053 10.455 -0.31476 0.65419 1.8458 -0.23596 1.47 1.687 0.054701 0.13981 0.056799
294 -10.437 0.3231 0.63237 1.8196 -0.2352 1.4049 1.582 -0.040468 0.1155 0.051291 10.498 -0.32974 0.62238 1.8038 -0.23427 1.4034 1.5805 0.04361 0.11462 0.050639
295 -10.453 0.32371 0.65361 1.846 -0.23569 1.4447 1.6521 -0.049538 0.1278 0.059408 10.484 -0.32943 0.64154 1.8251 -0.2342 1.4389 1.6451 0.052456 0.12644 0.058356
296 -10.374 0.47453 0.63533 1.643 -0.18489 0.33169 -0.91769 -0.15683 -0.014316 -0.60539 10.594 -0.48516 0.63147 1.6501 -0.18739 0.33694 -0.91964 0.15712 -0.015117 -0.60773
297 -10.374 0.47453 0.63533 1.643 -0.18489 0.33169 -0.91769 -0.15683 -0.014316 -0.60539 10.594 -0.48516 0.63147 1.6501 -0.18739 0.33694 -0.91964 0.15712 -0.015117 -0.60773
298 -10.496 0.31529 0.71954 1.9318 -0.23691 1.5369 1.7679 -0.084458 0.15418 0.085048 10.57 -0.32264 0.70944 1.919 -0.2368 1.5365 1.7662 0.087193 0.15285 0.083461
299 -10.467 0.32627 0.66309 1.9368 -0.25088 1.4067 1.6367 -0.057547 0.14027 0.053061 10.555 -0.33371 0.65479 1.9265 -0.25093 1.4086 1.6391 0.060803 0.13953 0.052446
300 -10.459 0.3195 0.65879 1.9093 -0.2499 1.448 1.5896 -0.049535 0.098922 0.105 10.636 -0.32989 0.65598 1.9149 -0.25187 1.4618 1.6044 0.053405 0.098906 0.10499
301 -10.393 0.33771 0.61246 1.814 -0.23962 1.3059 1.3359 -0.042139 0.04352 0.11845 10.686 -0.35161 0.61603 1.8381 -0.24393 1.3332 1.3636 0.04617 0.043558 0.11967
302 -10.486 0.28903 0.70015 1.9635 -0.25205 1.513 1.6679 -0.060458 0.13758 0.044537 10.56 -0.29687 0.69063 1.9509 -0.25182 1.5127 1.6674 0.063745 0.13645 0.043901
303 -10.472 0.31215 0.67151 1.9361 -0.25276 1.4794 1.6283 -0.052619 0.11072 0.09461 10.619 -0.32171 0.66687 1.9365 -0.25411 1.4892 1.6387 0.056393 0.11044 0.094316
304 -10.489 0.30635 0.69729 1.9656 -0.24777 1.493 1.7109 -0.068922 0.15444 0.036336 10.497 -0.31186 0.68348 1.9407 -0.2461 1.4834 1.6998 0.071553 0.15233 0.035403
305 -10.473 0.30502 0.68363 1.9414 -0.25107 1.4807 1.6143 -0.057577 0.11944 0.049735 10.596 -0.31398 0.67741 1.9377 -0.25194 1.4874 1.6217 0.061112 0.119 0.049275
306 -10.473 0.3178 0.6736 1.9479 -0.25046 1.4404 1.641 -0.060176 0.13833 0.033336 10.534 -0.32461 0.66358 1.9329 -0.24992 1.4386 1.6393 0.063267 0.1372 0.032739
307 -10.462 0.33222 0.65917 1.9293 -0.25025 1.392 1.6239 -0.057637 0.13598 0.058139 10.566 -0.34006 0.65187 1.922 -0.25066 1.3961 1.6287 0.060959 0.13547 0.057557
308 -10.368 0.40757 0.54566 1.6466 -0.21083 0.36187 -0.84811 -0.10088 0.012831 -0.54804 10.587 -0.4185 0.54249 1.6536 -0.21315 0.36709 -0.85106 0.10173 0.011808 -0.55128
309 -10.392 0.40553 0.56551 1.6724 -0.21201 0.37202 -0.89038 -0.10915 0.021018 -0.57943 10.568 -0.41483 0.56011 1.6731 -0.2136 0.37575 -0.88995 0.10953 0.019981 -0.58044
310 -10.396 0.45092 -0.37997 0.98593 -0.42398 -2.3703 0.37296 -0.12196 -0.34733 0.1369 10.517 -0.45441 -0.38318 0.97265 -0.42011 -2.3777 0.37497 0.11991 -0.34791 0.13827
311 -10.489 0.48191 -0.48527 0.90228 -0.57139 -2.5009 0.33265 -0.25559 -0.42941 0.28263 10.708 -0.48927 -0.4922 0.89628 -0.57006 -2.5317 0.33748 0.25324 -0.43395 0.2869
312 -10.489 0.54221 -0.385 1.3594 -0.10214 -2.4153 0.43947 0.16907 -0.86119 0.044933 10.71 -0.54926 -0.39025 1.3602 -0.10561 -2.4448 0.44583 -0.16537 -0.86809 0.048623
313 -10.634 -9.8302 10.222 -1.0297 1.6369 -1.2664 -0.66916 1.0178 -0.077588 -0.16508 10.924 9.8071 10.234 -1.0324 1.6365 -1.2616 -0.68008 -1.0186 -0.078075 -0.16694
314 -10.634 -9.8302 10.222 -1.0297 1.6369 -1.2664 -0.66916 1.0178 -0.077588 -0.16508 10.924 9.8071 10.234 -1.0324 1.6365 -1.2616 -0.68008 -1.0186 -0.078075 -0.16694
315 -10.767 -9.8592 10.201 -0.65437 1.5679 0.074878 2.198 1.0471 0.099762 0.54738 11.06 9.8361 10.218 -0.6464 1.5662 0.10612 2.2339 -1.0444 0.10237 0.55346
316 -10.655 -9.8846 10.137 -0.98493 1.6028 -1.213 -0.67024 1.0687 -0.050528 -0.15767 10.945 9.8616 10.149 -0.98676 1.6022 -1.2078 -0.68273 -1.0693 -0.050775 -0.16017
317 -11.065 -16.628 -10.917 -0.18434 -13.891 1.0858 -0.063434 3.3154 -0.014478 -0.069662 11.348 16.639 -10.901 -0.19991 -13.892 1.0842 -0.061517 -3.3133 -0.01432 -0.068053
318 -10.623 0.56052 -0.43277 1.5275 -0.060496 -2.6619 0.38145 0.17432 -0.99326 0.018345 10.847 -0.56728 -0.43748 1.531 -0.065233 -2.695 0.38734 -0.16981 -1.0002 0.024999
319 -11.323 -17.7 -13.754 5.8707 11.419 0.33012 -0.048501 -2.9315 0.034911 0.0022977 11.61 17.719 -13.74 5.8381 11.425 0.32906 -0.050839 2.9301 0.034801 0.0015468
