290 20
0 0.011998 0.0063483 -0.0080623 0.0064885 0.0056335 0.0034137 -4.1764 -1.5626 -0.00080184 0.43128 -0.010173 0.00549 0.0060939 0.0054991 -0.0031645 0.004125 3.789 -1.5662 0.0057496 0.4266
1 0.011892 0.0061349 -0.0080408 0.0066839 0.0055715 0.0034352 -4.1953 -1.5565 0.12814 0.53321 -0.0098928 0.0052185 0.0059921 0.0055346 -0.0030571 0.0040506 3.7352 -1.5362 0.11338 0.50908
2 0.011974 0.0064446 -0.0078526 0.0065025 0.0055306 0.003252 -4.1068 -1.4359 0.2449 0.22383 -0.0096131 0.005271 0.0056112 0.0052094 -0.0029612 0.0037592 3.5294 -1.3688 0.19854 0.22774
3 0.011944 0.0063029 -0.0075644 0.0066406 0.005554 0.0033204 -4.0982 -1.4463 0.28839 -0.2068 -0.0097999 0.0052805 0.0055401 0.0054177 -0.0030248 0.0038999 3.6025 -1.4097 0.23582 -0.11845
4 0.01105 0.0061661 -0.0071384 0.0064622 0.0051291 0.0034476 -4.0301 -1.2212 -0.10958 -0.12799 -0.0091892 0.0052076 0.0052942 0.0053074 -0.0027384 0.0039079 3.586 -1.222 -0.0742 -0.059409
5 0.011307 0.0058217 -0.0072502 0.0069041 0.0053195 0.0031913 -4.0571 -1.2424 -0.049394 0.37238 -0.0087907 0.0046358 0.0050802 0.0052846 -0.0027429 0.0035477 3.3812 -1.1706 -0.03591 0.32852
6 0.012033 0.0063731 -0.0080776 0.006464 0.0055948 0.0034122 -4.1653 -1.5596 0.15371 0.40426 -0.0096196 0.005196 0.0057529 0.0051688 -0.0029573 0.0038777 3.5635 -1.4729 0.12766 0.38019
7 0.012179 0.0065858 -0.0079182 0.0065592 0.0056965 0.0035094 -4.1815 -1.6131 0.055883 0.3753 -0.0098463 0.0054213 0.0056925 0.0052964 -0.0030357 0.0040102 3.6121 -1.5366 0.049135 0.35848
8 0.011383 0.0055021 -0.0075691 0.0070489 0.0049788 0.0028717 -4.0014 -0.96734 0.38603 0.11714 -0.0098508 0.0049066 0.0059352 0.0060056 -0.0028789 0.0036247 3.7258 -1.0509 0.34807 0.1522
9 0.012108 0.0064784 -0.0079271 0.0065844 0.0057054 0.0034996 -4.1997 -1.6307 0.00095067 0.49911 -0.010138 0.005528 0.0059127 0.0055022 -0.0031536 0.0041516 3.7579 -1.6087 0.0025026 0.47596
10 0.011766 0.0065593 -0.0074645 0.0063417 0.0054089 0.0034879 -4.0778 -1.432 0.17327 -0.33243 -0.0097105 0.0055 0.0054538 0.0052124 -0.0029049 0.0039873 3.6 -1.4002 0.13801 -0.23189
11 0.012092 0.0064186 -0.0080595 0.0065691 0.0056651 0.0034864 -4.2159 -1.6208 0.07466 0.5304 -0.010284 0.0055664 0.0061094 0.0055783 -0.0031784 0.0041993 3.8321 -1.628 0.071965 0.51721
12 0.011915 0.006247 -0.0080643 0.0064677 0.0056639 0.0034038 -4.1955 -1.6084 -0.037417 0.55207 -0.0098264 0.0052585 0.0059355 0.0053312 -0.0031033 0.0040165 3.7021 -1.5656 -0.028089 0.51691
13 0.012128 0.0064863 -0.008044 0.0064792 0.0056596 0.0033678 -4.1818 -1.5925 0.11559 0.43345 -0.0099266 0.0054093 0.0058577 0.0053049 -0.0030821 0.0039542 3.6598 -1.5368 0.099006 0.41314
14 0.011964 0.006467 -0.0077299 0.0063242 0.0055996 0.0033263 -4.1231 -1.5152 0.19843 0.41623 -0.0092713 0.0051025 0.0053232 0.0049095 -0.0028876 0.0036963 3.4193 -1.3834 0.14484 0.35902
15 0.01191 0.0060583 -0.0081336 0.0066527 0.0055729 0.0033808 -4.1954 -1.5456 0.19675 0.5298 -0.010027 0.0052218 0.0061376 0.0055812 -0.0031089 0.0040644 3.7829 -1.5455 0.17109 0.5123
16 0.01226 0.0066548 -0.008166 0.0063443 0.005745 0.0034901 -4.2055 -1.6774 0.09327 0.49481 -0.0098723 0.0054509 0.0058304 0.00513 -0.0030626 0.0039967 3.6178 -1.5837 0.080352 0.45905
17 0.011184 0.0061037 -0.0071568 0.0065515 0.0052365 0.0032108 -4.0011 -1.1702 -0.05781 -0.071202 -0.0095367 0.005298 0.0054596 0.0055238 -0.0029426 0.0038688 3.6597 -1.1982 -0.047925 -0.025443
18 0.011726 0.0059807 -0.0079471 0.0066862 0.0055284 0.0033121 -4.1719 -1.4823 0.054531 0.50328 -0.010613 0.0055431 0.0064526 0.0060119 -0.0033277 0.0042992 4.0456 -1.6 0.046775 0.52038
19 0.011956 0.0062559 -0.0079708 0.0065646 0.0055978 0.0033774 -4.1689 -1.548 0.11321 0.45075 -0.0096688 0.0051672 0.005756 0.005295 -0.0030028 0.0039009 3.6084 -1.4835 0.091879 0.42023
20 0.009794 0.00528 -0.0065776 0.0066052 0.0049244 0.0030212 -4.0032 -0.78715 -1.635 0.048111 -0.0094469 0.005194 0.0057382 0.0062021 -0.0031356 0.0041144 4.1567 -0.96019 -1.561 0.084211
21 0.012166 0.0064666 -0.0081056 0.0065662 0.0056749 0.0034989 -4.2218 -1.6455 0.11501 0.50305 -0.010233 0.0055449 0.0060733 0.0055186 -0.0031468 0.0041645 3.7941 -1.6316 0.10498 0.48958
22 0.012082 0.006382 -0.0080606 0.0065289 0.0056842 0.0034335 -4.2037 -1.6041 0.074102 0.60095 -0.010244 0.0055205 0.0060913 0.0055314 -0.0031962 0.004154 3.8111 -1.6069 0.064955 0.5691
23 0.012115 0.0064111 -0.0080342 0.006566 0.0056171 0.0034286 -4.1861 -1.5692 0.15024 0.38775 -0.010064 0.0054333 0.0059471 0.005446 -0.0030841 0.0040462 3.7189 -1.5445 0.12848 0.38158
24 0.012385 0.0067267 -0.0080666 0.0064624 0.0057751 0.0035417 -4.208 -1.7011 0.12336 0.50074 -0.009836 0.0054355 0.0056823 0.0051463 -0.0030272 0.0039834 3.5688 -1.5818 0.10231 0.45275
25 0.012295 0.0065851 -0.0081439 0.0064918 0.0057355 0.0035165 -4.2218 -1.6719 0.14234 0.49372 -0.010104 0.0055132 0.0059476 0.0053432 -0.0031125 0.0040969 3.7064 -1.6163 0.12292 0.46745
26 0.011324 0.0060503 -0.0071707 0.0068899 0.0054951 0.0034246 -4.1256 -1.4301 -0.44819 0.3422 -0.0090473 0.0049329 0.0051466 0.0054166 -0.0028844 0.0038454 3.5248 -1.3682 -0.35599 0.32078
27 0.012162 0.006427 -0.0080527 0.0065882 0.0055974 0.0033956 -4.1837 -1.5564 0.22856 0.39661 -0.010079 0.0054341 0.005949 0.0054532 -0.0030695 0.0040081 3.7082 -1.5271 0.19741 0.38829
28 0.013028 0.0071421 -0.0084462 0.0063775 0.0059193 0.0035578 -4.2797 -1.8091 0.35432 0.57388 -0.011528 0.0064228 0.0065974 0.0057065 -0.0034736 0.0044937 4.0398 -1.8653 0.31866 0.57053
29 0.0092717 0.0036647 -0.0073256 0.0069877 0.0043179 0.0025103 -3.8031 -0.3786 -0.10978 0.60546 -0.0070791 0.0029403 0.0051997 0.0051859 -0.0022102 0.0028161 3.1613 -0.43488 -0.081959 0.51285
30 0.010646 0.0049545 -0.0074349 0.0070948 0.0047412 0.0028055 -3.9784 -0.8865 -0.035992 0.58025 -0.0083747 0.0040311 0.0053437 0.0054624 -0.0024786 0.0031916 3.3719 -0.88961 -0.018216 0.50825
31 0.011929 0.0060599 -0.0081668 0.0066949 0.0055788 0.0033956 -4.2133 -1.5692 0.17381 0.61104 -0.010043 0.0052231 0.006166 0.0056143 -0.0031091 0.0040773 3.7975 -1.5679 0.15367 0.58474
32 0.011071 0.005548 -0.0073996 0.0067486 0.004976 0.0029558 -3.9415 -0.92027 0.29756 0.10722 -0.0097014 0.0049896 0.005859 0.0058356 -0.0028954 0.0037262 3.7201 -1.0024 0.26393 0.1347
33 0.011926 0.0061997 -0.0080236 0.006591 0.0056424 0.0033983 -4.1793 -1.5681 0.1021 0.53932 -0.0098125 0.0052118 0.005904 0.0054089 -0.0030818 0.0039985 3.6811 -1.5264 0.084329 0.5049
34 0.012175 0.0062481 -0.00816 0.0067201 0.0056717 0.0033701 -4.2151 -1.5852 0.2595 0.51308 -0.010437 0.0054801 0.0062595 0.0057451 -0.003238 0.0041568 3.8667 -1.6103 0.22977 0.50622
35 0.012037 0.0062204 -0.0080922 0.0067057 0.005623 0.003446 -4.2157 -1.5916 0.14535 0.55102 -0.010466 0.0055296 0.0062973 0.0058081 -0.0032297 0.0042568 3.9211 -1.6395 0.13325 0.5484
36 0.010253 0.0052881 -0.0067359 0.0067288 0.0048385 0.0030418 -3.8732 -0.79584 -0.30773 -0.29076 -0.0084375 0.0044592 0.0050211 0.0054092 -0.0026077 0.0035096 3.4366 -0.82667 -0.25709 -0.2161
37 0.011666 0.0060962 -0.0075245 0.0067657 0.0054733 0.003286 -4.0962 -1.3864 0.049142 0.29395 -0.0095139 0.0050816 0.0055032 0.0054651 -0.0029606 0.0038309 3.5798 -1.3493 0.037648 0.28797
38 0.01132 0.0065992 -0.0072052 0.0062471 0.0053079 0.0035403 -4.1078 -1.4369 -0.3254 -0.014969 -0.0095663 0.0056385 0.0053877 0.0052469 -0.0028876 0.0040799 3.7037 -1.4357 -0.25334 0.044675
39 0.0096003 0.0037232 -0.0075821 0.0071672 0.004537 0.0025834 -3.9633 -0.67952 -0.22453 0.93468 -0.008576 0.0035012 0.0063011 0.006233 -0.0027339 0.0034236 3.8411 -0.81777 -0.20845 0.91438
40 0.012771 0.0070591 -0.0085585 0.0061124 0.005759 0.0034794 -4.2078 -1.6558 0.26008 0.42274 -0.011005 0.0061755 0.0064971 0.0053457 -0.0032856 0.0042699 3.8731 -1.6751 0.23382 0.42488
41 0.012276 0.0065515 -0.0081744 0.006542 0.0057411 0.003518 -4.2319 -1.6789 0.11574 0.55125 -0.01013 0.0055092 0.0060028 0.0054036 -0.003129 0.0041176 3.7305 -1.6305 0.10364 0.52023
42 0.012023 0.0064549 -0.0077364 0.0066176 0.0056026 0.003432 -4.1433 -1.522 0.0666 0.34291 -0.0097207 0.0053188 0.0055734 0.0053286 -0.0029888 0.0039309 3.5833 -1.4566 0.053731 0.32739
43 0.011413 0.0057794 -0.0079118 0.0064618 0.0053213 0.0032027 -4.0659 -1.2488 0.29822 0.30715 -0.0099922 0.0051824 0.0062187 0.0056332 -0.0030931 0.0040167 3.8259 -1.3197 0.25635 0.3241
44 0.011471 0.0057125 -0.0080236 0.0065645 0.0053969 0.0032841 -4.1236 -1.3557 0.22219 0.52485 -0.010166 0.0051924 0.0063957 0.0057871 -0.0031677 0.004156 3.9251 -1.4392 0.19694 0.5262
45 0.011919 0.006257 -0.0079334 0.0066254 0.0055615 0.003396 -4.1591 -1.4916 0.10352 0.41633 -0.010166 0.0054491 0.0060468 0.0056283 -0.0031352 0.0041154 3.7968 -1.5123 0.093472 0.41322
46 0.011981 0.0062061 -0.0080659 0.0066843 0.0056048 0.0034393 -4.2125 -1.5786 0.12483 0.53741 -0.010458 0.005537 0.0063009 0.0058113 -0.0032303 0.0042624 3.9339 -1.6341 0.11675 0.53911
47 0.012054 0.0064206 -0.0078353 0.0066433 0.00556 0.0033854 -4.1458 -1.5027 0.17068 0.33151 -0.0096918 0.0052644 0.0056194 0.0053218 -0.0029536 0.0038675 3.566 -1.4341 0.14078 0.31982
48 0.011494 0.0059705 -0.0075589 0.006677 0.0055793 0.0030929 -4.0987 -1.3644 -0.15456 0.44302 -0.010166 0.0053982 0.0060021 0.0058534 -0.003342 0.0040432 3.8871 -1.4401 -0.13726 0.44478
49 0.01167 0.0060733 -0.0078445 0.0066364 0.0053392 0.0033218 -4.129 -1.3679 0.19436 0.32285 -0.010362 0.0055109 0.0062386 0.005854 -0.0031152 0.0041623 3.9276 -1.456 0.18387 0.34762
50 0.011654 0.0073673 -0.0072008 0.0058508 0.0054663 0.0032065 -4.0845 -1.368 -0.19603 -0.22602 -0.011288 0.0071621 0.0060712 0.005683 -0.0035286 0.0044253 4.214 -1.5538 -0.17494 -0.1819
51 0.01126 0.0059969 -0.007131 0.0068696 0.0054522 0.0033738 -4.089 -1.3664 -0.36561 0.20838 -0.0090095 0.0048982 0.0051298 0.0054089 -0.0028713 0.0038049 3.5025 -1.3112 -0.29257 0.21181
52 0.011112 0.0056314 -0.0073413 0.0068248 0.0052679 0.0030648 -4.0007 -1.0717 0.011225 0.083058 -0.01007 0.005233 0.0060079 0.0060933 -0.003193 0.0040253 3.901 -1.1865 0.0040547 0.11408
53 0.010055 0.0050653 -0.0068728 0.0065481 0.0044437 0.0026509 -3.8228 -0.55794 0.056348 -0.35549 -0.0083139 0.0042994 0.0051457 0.0052936 -0.0024348 0.0031438 3.4129 -0.62376 0.055527 -0.26205
54 0.010896 0.0055161 -0.0072823 0.0067519 0.0050335 0.0028081 -3.9273 -0.87108 0.23325 0.062989 -0.009381 0.0048706 0.005666 0.0057227 -0.0029254 0.0035646 3.6422 -0.93615 0.19855 0.087533
55 0.0095657 0.0043919 -0.0068267 0.006698 0.0042567 0.0025169 -3.7304 -0.15573 0.24393 -0.46066 -0.0080415 0.0038275 0.0052572 0.0054775 -0.0023805 0.0030601 3.4133 -0.26747 0.19831 -0.37146
56 0.011719 0.0064807 -0.0077628 0.0063462 0.0056063 0.003488 -4.1685 -1.5972 -0.1263 0.34955 -0.0096663 0.0054296 0.0056874 0.0052253 -0.0030428 0.0040463 3.673 -1.5473 -0.10032 0.34524
57 0.011316 0.0061268 -0.0070985 0.0069559 0.0054893 0.0035725 -4.1527 -1.4569 -0.55488 0.27179 -0.0092869 0.0051281 0.0052257 0.0056023 -0.0029265 0.0040473 3.6395 -1.4374 -0.45694 0.26822
58 0.011308 0.0058677 -0.0073915 0.0066531 0.0052531 0.0031304 -4.0086 -1.1315 0.21185 0.03211 -0.0099612 0.0052871 0.005851 0.0057997 -0.0030747 0.0039543 3.7945 -1.2119 0.17896 0.06824
59 0.012515 0.0069997 -0.0078841 0.0064777 0.0057293 0.0034835 -4.1803 -1.6451 0.024324 0.29535 -0.010524 0.0059741 0.0058611 0.0054624 -0.0031815 0.0041522 3.7515 -1.6206 0.024975 0.30204
60 0.011437 0.0063332 -0.0072712 0.0064167 0.0053447 0.0033804 -4.0404 -1.3232 -0.11882 0.10343 -0.0094622 0.0053271 0.0053518 0.005269 -0.0028931 0.0039022 3.5823 -1.2966 -0.10995 0.11404
61 0.011478 0.0060325 -0.0076173 0.0066603 0.0052624 0.0031048 -4.0541 -1.2383 0.13732 0.28212 -0.0094151 0.0050542 0.0055996 0.005412 -0.0028747 0.0036652 3.5647 -1.2239 0.1216 0.27774
62 0.011715 0.0061329 -0.007858 0.0065371 0.0054644 0.0033516 -4.1389 -1.4481 0.11483 0.3874 -0.0097528 0.0052135 0.0058492 0.0054189 -0.0030027 0.0039587 3.6899 -1.4357 0.099538 0.3781
63 0.011192 0.0062555 -0.0071557 0.0064852 0.005289 0.0034184 -4.0585 -1.2961 -0.27525 0.054124 -0.0095776 0.0054403 0.0054511 0.005481 -0.0029459 0.0040437 3.7166 -1.327 -0.24333 0.084174
64 0.011444 0.006003 -0.0071912 0.0069189 0.0053539 0.0031026 -4.0195 -1.1212 0.004102 -0.065379 -0.011266 0.006043 0.0063706 0.0067135 -0.0035228 0.0044222 4.2522 -1.3393 -0.0046352 -0.029501
65 0.011329 0.0059521 -0.0073725 0.0066535 0.005304 0.003119 -4.0123 -1.1772 0.15458 0.096651 -0.0093162 0.0050007 0.0054412 0.0054132 -0.0029081 0.0036947 3.5425 -1.1703 0.1219 0.11688
66 0.012074 0.0062235 -0.0080845 0.0066818 0.0056453 0.0033843 -4.2048 -1.5724 0.17335 0.48411 -0.01046 0.005514 0.0062644 0.0057692 -0.0032495 0.0042015 3.898 -1.6159 0.15459 0.48337
67 0.011313 0.0058757 -0.0071221 0.0069103 0.0053469 0.0032276 -4.0169 -1.201 -0.10856 0.082039 -0.0090436 0.0048079 0.005132 0.0054397 -0.0028293 0.0036771 3.4479 -1.1635 -0.094217 0.09917
68 0.011235 0.0057996 -0.0071418 0.0068913 0.0053746 0.0032001 -4.0323 -1.2408 -0.22274 0.21746 -0.008924 0.0047174 0.0051165 0.0053881 -0.0028375 0.0036445 3.4381 -1.1909 -0.18323 0.20893
69 0.010087 0.0044502 -0.0073207 0.0068033 0.004331 0.0023836 -3.7517 -0.044706 0.78643 -0.61793 -0.0094718 0.0043439 0.0063023 0.0062529 -0.0027479 0.0033456 3.846 -0.16626 0.75049 -0.5617
70 0.010491 0.0053558 -0.00683 0.0066643 0.0048834 0.0029603 -3.8689 -0.79987 -0.021443 -0.37243 -0.0085578 0.0044787 0.0050423 0.0053333 -0.0026318 0.0034391 3.4042 -0.82514 -0.017795 -0.27675
71 0.011837 0.0059344 -0.007988 0.0067519 0.0055591 0.0033042 -4.1946 -1.4982 0.20225 0.52983 -0.010708 0.005506 0.0064901 0.0060679 -0.00335 0.0043048 4.0658 -1.6181 0.18519 0.54638
72 0.012385 0.0066217 -0.0078037 0.0067977 0.0054501 0.0032009 -4.1444 -1.4291 0.3407 0.21073 -0.011803 0.0064359 0.006627 0.0064514 -0.0034549 0.0043934 4.2246 -1.6239 0.33448 0.26207
73 180.22 183.99 -1270.7 -1212.8 0.54709 0.38356 0.18432 0.63191 1.7553 -1.0438 -183.99 180.22 1212.8 -1270.7 -0.38351 0.54638 -0.65144 0.80276 1.75 -0.94585
74 0.012723 0.0071136 -0.0082252 0.0062107 0.0058435 0.003568 -4.223 -1.7126 -0.049847 0.44168 -0.011489 0.0065175 0.0065376 0.0056682 -0.0034834 0.0045631 4.0703 -1.8096 -0.042074 0.45586
75 0.010575 0.0057181 -0.0070276 0.0065248 0.0048163 0.0026909 -3.9418 -0.54601 -0.8807 -0.030056 -0.0103 0.0056752 0.0061423 0.0062435 -0.0031569 0.0038447 4.141 -0.69573 -0.81653 0.0028547
76 0.0095207 0.0043574 -0.0068071 0.0068007 0.0044839 0.0023345 -3.7342 -0.20987 0.13635 -0.51725 -0.0079265 0.0037588 0.0052119 0.005508 -0.0025585 0.0029657 3.3862 -0.30356 0.10958 -0.40604
77 0.01189 0.0062445 -0.0080169 0.0065237 0.0056186 0.0034486 -4.188 -1.5524 -0.12968 0.57326 -0.010272 0.0055069 0.006182 0.0056231 -0.0032056 0.0042256 3.8723 -1.5912 -0.113 0.55414
78 0.010733 0.0055314 -0.0069508 0.0068994 0.0051137 0.0031038 -3.9767 -1.0429 -0.30685 0.056479 -0.0087442 0.0046169 0.0051257 0.0055054 -0.0027539 0.0035961 3.4818 -1.0465 -0.25334 0.079379
79 0.010928 0.0054835 -0.0073387 0.0066204 0.0049119 0.0030359 -3.9122 -0.80407 0.50095 -0.148 -0.010494 0.0054017 0.0063673 0.0062813 -0.0030991 0.0041303 4.0545 -0.96934 0.48638 -0.099322
80 0.012431 0.0069651 -0.0081519 0.0061239 0.0056787 0.0035121 -4.1618 -1.5651 -0.083667 0.27796 -0.010882 0.0061852 0.0062837 0.0054131 -0.0032693 0.0043302 3.8943 -1.6143 -0.074044 0.28892
81 0.009251 0.0037683 -0.0070475 0.007055 0.0041268 0.0023011 -3.7245 0.36638 0.57601 -1.0962 -0.0083312 0.0035591 0.0058896 0.0061511 -0.0025048 0.0030907 3.6827 0.23487 0.53982 -0.98227
82 0.011087 0.0062883 -0.0071201 0.0063647 0.0051131 0.0032725 -4.0243 -1.2409 -0.42804 0.17467 -0.0090223 0.0051877 0.0051551 0.0051268 -0.0027069 0.0036936 3.5024 -1.2037 -0.32727 0.19019
83 0.010228 0.0067092 -0.0060696 0.0063495 0.0053479 0.0036963 -4.3198 -1.1691 -2.2879 -1.1746 -0.0094415 0.0062019 0.0049275 0.0057063 -0.0031453 0.0045432 4.2483 -1.3085 -2.0677 -1.0394
84 0.0092194 0.003585 -0.0071486 0.0070081 0.0041581 0.0024135 -3.712 0.089127 0.47011 -0.36652 -0.008161 0.0033427 0.0058932 0.0060237 -0.0024618 0.0031421 3.6008 -0.037437 0.42576 -0.30088
85 0.011923 0.0062771 -0.0080066 0.0065364 0.0055822 0.0034344 -4.1849 -1.5354 0.068254 0.50081 -0.010301 0.0055341 0.0061732 0.0056338 -0.0031816 0.0042041 3.8678 -1.5749 0.065727 0.49571
86 0.0097742 0.0029517 -0.0082165 0.0079882 0.0040198 0.0018676 -3.8649 0.87488 0.92556 0.26251 -0.0090891 0.0029739 0.0072298 0.0072117 -0.0026158 0.0028481 3.9853 0.76505 0.9035 0.2685
87 0.010038 0.0045409 -0.0070442 0.0071049 0.0046229 0.0025921 -3.8342 -0.4277 -0.051992 0.10229 -0.0092374 0.0043386 0.0059645 0.0063666 -0.0028678 0.0035272 3.8275 -0.56576 -0.051897 0.12215
88 0.011659 0.005953 -0.0075725 0.006796 0.0055176 0.0032413 -4.1261 -1.3999 0.045342 0.51164 -0.010143 0.0053052 0.0059255 0.0058599 -0.0032036 0.0040724 3.8502 -1.4539 0.02861 0.49066
89 0.0083008 0.0038997 -0.0062909 0.0065683 0.0040096 0.00261 -3.8709 -0.4488 -2.0193 0.081525 -0.0075601 0.0036745 0.0052844 0.0057537 -0.0023716 0.0033027 3.8197 -0.59956 -1.8493 0.11484
90 180.22 183.99 -1270.7 -1212.8 0.54725 0.38383 0.13255 -0.39495 1.2266 1.6819 -184 180.22 1212.8 -1270.7 -0.38394 0.54712 -0.23308 -0.43577 1.2711 1.7958
91 0.01195 0.0063103 -0.0078954 0.0066109 0.0057013 0.0034527 -4.1924 -1.5855 -0.083934 0.575 -0.010364 0.0055847 0.0061132 0.0057115 -0.0032772 0.0042676 3.8895 -1.6247 -0.07391 0.55906
92 0.012493 0.0069907 -0.0078843 0.0064674 0.0059327 0.0036363 -4.2179 -1.6439 -0.39625 0.43555 -0.01142 0.0064866 0.0063649 0.0059253 -0.0035772 0.0046953 4.1163 -1.7668 -0.36208 0.4475
93 180.22 183.99 -1270.7 -1212.8 0.54736 0.38386 0.090033 -0.42077 1.0656 1.6028 -184 180.22 1212.8 -1270.7 -0.38433 0.54758 0.15736 -0.63748 1.1306 1.7543
94 0.011516 0.0064833 -0.0075607 0.0063284 0.0055911 0.0035014 -4.1651 -1.5588 -0.35657 0.34692 -0.010213 0.0058312 0.0059521 0.005589 -0.0032573 0.0043498 3.9442 -1.6248 -0.31258 0.36604
95 0.011657 0.0062049 -0.0073107 0.0067927 0.0053545 0.0031963 -4.0272 -1.1597 0.0081041 -0.038367 -0.010855 0.0058993 0.0060953 0.0062554 -0.003306 0.0042548 4.0242 -1.3091 0.0024539 -0.0056952
96 0.011005 0.005764 -0.0071953 0.0066959 0.0052229 0.0029786 -3.9767 -1.0266 0.02041 0.03085 -0.0097863 0.0052402 0.0057596 0.0058679 -0.0031213 0.003862 3.8034 -1.116 0.008452 0.05998
97 0.011588 0.0060928 -0.0075847 0.0065982 0.0054627 0.003298 -4.0866 -1.3491 -0.080525 0.28939 -0.0099513 0.0053446 0.0058262 0.0056223 -0.0031094 0.004039 3.7637 -1.3859 -0.077528 0.29327
98 0.012505 0.0070408 -0.0077437 0.0065749 0.0058679 0.0035991 -4.2011 -1.652 -0.050353 0.36113 -0.011745 0.0067089 0.0064344 0.0061799 -0.0036327 0.0047714 4.2091 -1.8173 -0.043991 0.39239
99 180.22 183.99 -1270.7 -1212.8 0.54743 0.38394 0.058776 -0.58502 1.2116 1.7591 -184 180.22 1212.8 -1270.7 -0.38377 0.54693 -0.48414 -0.5048 1.2362 1.8385
100 0.012203 0.006693 -0.0075474 0.0066779 0.0056611 0.0034316 -4.1515 -1.5036 -0.21102 0.33233 -0.010773 0.0060128 0.0059201 0.005868 -0.0033022 0.0043004 3.9192 -1.5731 -0.19243 0.33781
101 0.010937 0.005594 -0.0070524 0.0069164 0.0050845 0.0029578 -3.944 -0.89605 -0.050283 -0.20822 -0.011533 0.0060473 0.0067284 0.0071589 -0.0035784 0.004514 4.4804 -1.1826 -0.058106 -0.17668
102 0.011775 0.0062895 -0.0073529 0.0067826 0.0054371 0.003226 -4.0475 -1.2612 0.055505 0.059681 -0.010231 0.0055763 0.0057162 0.0058372 -0.0031376 0.0040167 3.7711 -1.3169 0.040771 0.085586
103 0.0093809 0.0027065 -0.0082135 0.008077 0.0038634 0.001765 -3.8612 1.0559 0.7099 0.12389 -0.0080081 0.0025179 0.0066605 0.006671 -0.0023167 0.0024936 3.6668 0.8727 0.64351 0.12648
104 0.011588 0.0077785 -0.0068188 0.0057717 0.0056795 0.0039163 -4.2299 -1.4338 -1.1889 -0.91068 -0.011158 0.0074824 0.005651 0.0055538 -0.0034897 0.0050254 4.3322 -1.6208 -1.1273 -0.84946
105 0.011596 0.0056989 -0.0079219 0.0066728 0.0055558 0.0031894 -4.165 -1.4228 0.12573 0.75437 -0.010916 0.0055119 0.0067199 0.0062454 -0.003518 0.0043906 4.2112 -1.5972 0.10439 0.76258
106 0.010206 0.005705 -0.0064635 0.0066056 0.0051337 0.003158 -4.0364 -0.92875 -1.5976 -0.015153 -0.0096063 0.0054587 0.0054718 0.0060709 -0.0031844 0.0041814 4.0779 -1.0801 -1.4852 0.014717
107 0.0098172 0.0051166 -0.00718 0.0061137 0.0049785 0.0026922 -3.9755 -0.90909 -0.95765 0.35211 -0.0091902 0.0048903 0.0060549 0.0056325 -0.0031813 0.0037656 4.0132 -1.0448 -0.89237 0.38165
108 0.010213 0.0043645 -0.0072914 0.006922 0.0044844 0.0023778 -3.7572 -0.096074 0.92752 -0.45779 -0.0091061 0.0040591 0.0059848 0.0060475 -0.0027271 0.0032242 3.6604 -0.21518 0.82025 -0.3902
109 0.011892 0.0067178 -0.0074468 0.006482 0.0056702 0.003259 -4.074 -1.3292 0.04534 -0.025421 -0.011092 0.0063577 0.0061573 0.0060221 -0.0035464 0.0043989 4.0663 -1.4716 0.037057 0.0050421
110 180.22 183.99 -1270.7 -1212.8 0.54726 0.38381 0.16355 -0.35229 0.38584 1.6171 -183.99 180.22 1212.8 -1270.7 -0.3835 0.54653 -0.78623 -0.1687 0.4367 1.6528
111 180.22 183.99 -1270.7 -1212.8 0.54702 0.38371 0.26586 -0.14513 0.98144 1.1253 -184 180.22 1212.8 -1270.7 -0.38377 0.54693 -0.36473 -0.14951 1.0009 1.1798
112 180.22 183.99 -1270.7 -1212.8 0.54748 0.38388 0.0958 -0.58713 1.4148 1.6813 -184 180.22 1212.8 -1270.7 -0.38477 0.54806 0.51865 -0.97398 1.5438 1.8963
113 0.011244 0.0074282 -0.0067138 0.005565 0.0055309 0.0036151 -4.113 -1.344 -1.2947 -0.9482 -0.010007 0.0066093 0.0051654 0.0049699 -0.0031876 0.0043806 3.9029 -1.3946 -1.1259 -0.81113
114 0.010855 0.006335 -0.0070348 0.0062474 0.0053199 0.0032478 -4.0712 -1.0016 -1.3791 -0.0071629 -0.010491 0.0061926 0.0060287 0.0059693 -0.0033949 0.0044238 4.2193 -1.1719 -1.3025 0.027641
115 0.0096423 0.0049685 -0.0066806 0.0067347 0.0047086 0.0025437 -3.8911 -0.3731 -1.1792 0.18321 -0.0089787 0.0047384 0.0056607 0.0060922 -0.0029808 0.0035315 3.9189 -0.49932 -1.071 0.20186
116 0.011148 0.0066158 -0.0069562 0.0061009 0.0054286 0.0034128 -4.0276 -1.1966 -0.93131 -0.37696 -0.011025 0.0066082 0.0060701 0.006001 -0.0035161 0.0046972 4.2666 -1.4062 -0.91725 -0.34823
117 0.010064 0.0053322 -0.0066436 0.0068865 0.0050227 0.002958 -4.0545 -0.67339 -1.8158 0.14879 -0.0099261 0.0053757 0.0059366 0.0065972 -0.0033009 0.0041879 4.3076 -0.86375 -1.766 0.17852
118 0.0099995 0.005614 -0.0064919 0.006626 0.0050927 0.0030065 -4.046 -0.72977 -1.7882 -0.12263 -0.0095729 0.0054608 0.0055924 0.0061752 -0.0032476 0.0041142 4.1665 -0.88689 -1.6849 -0.088127
119 0.012103 0.0065745 -0.0078502 0.0064419 0.0056737 0.0034342 -4.1127 -1.4262 0.031987 0.12765 -0.011439 0.0063256 0.0065885 0.0060908 -0.0035501 0.0046168 4.1648 -1.5979 0.02342 0.16423
120 0.010505 0.005291 -0.0068072 0.0070968 0.0051178 0.0032369 -4.0831 -1.1121 -1.2357 0.26164 -0.010219 0.0052896 0.0060188 0.0067197 -0.0032563 0.0044081 4.2663 -1.351 -1.2198 0.29891
121 0.0090501 0.0022665 -0.0083226 0.0081986 0.0038139 0.0016651 -3.8734 1.2875 0.68854 -0.066707 -0.0074332 0.0020655 0.0065313 0.0064989 -0.0022236 0.0023248 3.5584 1.0488 0.59779 -0.039503
122 0.0091037 0.0027298 -0.0079985 0.0079308 0.0039019 0.0017861 -3.8276 0.9976 0.48409 0.12066 -0.0079694 0.0025918 0.0066439 0.0067045 -0.0024023 0.0025806 3.7231 0.83673 0.45878 0.13006
123 0.0077552 0.00065761 -0.0084509 0.0084812 0.0033225 0.0013702 -3.8371 1.533 0.19993 0.75038 -0.0072288 0.00084206 0.0077385 0.0076215 -0.0022305 0.0022822 4.0482 1.4372 0.19926 0.76883
124 0.0081861 0.0014441 -0.0081758 0.0081493 0.0037011 0.0013936 -3.8013 1.2813 0.29062 0.42628 -0.0070101 0.0014446 0.0067806 0.006726 -0.0023167 0.0022054 3.6566 1.0869 0.27048 0.40956
125 0.0087208 0.0022127 -0.0079309 0.008146 0.0036368 0.001584 -3.8024 1.201 0.34128 0.089625 -0.0072282 0.0020349 0.0062984 0.0065006 -0.0021357 0.002231 3.5185 0.96707 0.30907 0.097897
126 0.009296 0.0026079 -0.0081895 0.0081153 0.0039423 0.0017748 -3.8639 1.1392 0.66074 -0.086758 -0.0078023 0.0023946 0.0065353 0.0065794 -0.0023347 0.0024845 3.614 0.93677 0.59094 -0.059116
127 0.0082289 0.0028713 -0.0072607 0.0069656 0.004041 0.0018026 -3.7431 0.21805 -0.59876 0.75008 -0.0088186 0.003273 0.0073185 0.0072088 -0.0030791 0.0032085 4.4077 0.10573 -0.63668 0.87923
128 0.0090125 0.0020182 -0.0082717 0.0085185 0.0038172 0.0016084 -3.8884 1.4212 0.50726 -0.087464 -0.0074951 0.0018955 0.0066185 0.0068243 -0.0022652 0.0023194 3.6239 1.1818 0.46283 -0.059514
129 0.0093313 0.0026595 -0.0082677 0.0081624 0.0038867 0.0017672 -3.8763 1.1929 0.66275 0.02481 -0.007578 0.0023579 0.00638 0.0064017 -0.0022211 0.0023813 3.5111 0.94665 0.56485 0.033997
130 0.0094171 0.0026178 -0.0082628 0.0081843 0.0039456 0.0017046 -3.8709 1.1522 0.71918 -0.096551 -0.0080939 0.0024633 0.0067554 0.0067997 -0.0024071 0.0024941 3.7093 0.97128 0.65674 -0.066292
131 0.0093752 0.0027625 -0.0081415 0.0079906 0.0040245 0.0017175 -3.8362 0.96633 0.722 0.084244 -0.008007 0.0025634 0.0065959 0.0066044 -0.002448 0.0025064 3.6411 0.7905 0.65546 0.096618
132 0.0091907 0.0023716 -0.0082932 0.0082488 0.0036999 0.0015861 -3.8783 1.2286 0.58984 0.113 -0.0075365 0.002151 0.0064937 0.0065305 -0.0021535 0.0022282 3.5505 0.9953 0.52008 0.10915
133 0.010875 0.0054733 -0.0074779 0.0066624 0.0051937 0.0031581 -4.0266 -1.1134 -0.14042 0.25093 -0.010676 0.0055125 0.0066262 0.0064472 -0.0033792 0.0044197 4.2558 -1.3275 -0.15203 0.29063
134 0.0097212 0.0025483 -0.0085301 0.0084473 0.004055 0.0016711 -3.9322 1.2195 0.79282 0.12746 -0.0084479 0.0024434 0.0070676 0.0071033 -0.0025221 0.0025356 3.8127 1.0473 0.73811 0.13026
135 0.0089885 0.0022221 -0.0081363 0.0081416 0.0037918 0.0018053 -3.8112 0.88828 0.42237 0.65848 -0.0090907 0.0024998 0.007877 0.0079521 -0.0026776 0.0029791 4.2827 0.82491 0.47297 0.72879
136 0.0095015 0.0027228 -0.0082432 0.008081 0.0039803 0.001718 -3.8482 0.96553 0.71859 0.19311 -0.0082703 0.0025849 0.0068119 0.0068102 -0.0024609 0.0025439 3.7235 0.80536 0.66465 0.1932
137 0.0091981 0.0021806 -0.0084845 0.0083477 0.0038983 0.0016172 -3.895 1.2811 0.72846 0.11604 -0.0075291 0.0019942 0.0066514 0.0066023 -0.0022852 0.0023119 3.5671 1.0441 0.63821 0.11818
138 0.0096772 0.0027898 -0.0083365 0.0081869 0.0040056 0.0018323 -3.8806 1.0441 0.82335 0.048093 -0.0083894 0.0026353 0.0068593 0.0068739 -0.0024378 0.0026285 3.7432 0.88055 0.76099 0.058196
139 0.010826 0.0053384 -0.0070278 0.0069983 0.0050579 0.0029583 -3.915 -0.76662 0.028135 -0.26619 -0.010404 0.0052808 0.0061348 0.0065879 -0.0032426 0.004113 4.0624 -0.94957 0.012479 -0.23528
140 0.010183 0.0044999 -0.0074008 0.0070549 0.0043605 0.0022494 -3.7996 0.057347 0.59861 -0.31329 -0.0099636 0.0045759 0.006663 0.0067489 -0.0029211 0.0033804 4.0648 -0.056422 0.59177 -0.29068
141 0.0085243 0.0025839 -0.0074217 0.0077257 0.0038787 0.0018198 -3.7255 0.91561 -0.059396 0.0071 -0.0073778 0.0024261 0.0061144 0.0064348 -0.0023541 0.0025645 3.5832 0.74792 -0.040599 0.02162
142 0.011082 0.0056555 -0.0071426 0.0067473 0.0049749 0.0028426 -3.8923 -0.68042 0.34486 -0.33266 -0.010304 0.0053912 0.005995 0.0061884 -0.0030985 0.0038545 3.9129 -0.81003 0.30278 -0.28934
143 0.012266 0.0067002 -0.0076278 0.0066344 0.0057675 0.0034864 -4.1432 -1.4595 0.047546 0.24622 -0.01194 0.0066397 0.0065987 0.0064431 -0.0037173 0.0048244 4.3181 -1.6783 0.032693 0.26964
144 0.01052 0.0046072 -0.0074557 0.007068 0.0048515 0.0027932 -3.9117 -0.60645 0.42962 0.031139 -0.011348 0.00517 0.007383 0.0074678 -0.0035092 0.004422 4.5755 -0.87259 0.46844 0.081606
145 180.22 183.99 -1270.7 -1212.8 0.54753 0.38421 -0.027981 -0.18172 -0.80508 -0.33197 -183.99 180.22 1212.8 -1270.7 -0.38389 0.54722 -0.28073 -0.084062 -0.75462 -0.30595
146 0.011227 0.00552 -0.0078213 0.0070475 0.0048468 0.0025398 -4.1228 0.12536 1.0811 -2.0952 -0.01058 0.0053487 0.0066504 0.0065109 -0.0031141 0.0036328 4.2362 -0.00082012 1.0453 -1.9834
147 0.0099239 0.006053 -0.006179 0.0064439 0.005034 0.0032906 -4.1665 -0.83596 -1.8411 -0.95847 -0.0096251 0.0059243 0.005323 0.006062 -0.0031665 0.0043575 4.3294 -1.0321 -1.7734 -0.90426
148 0.0093849 0.0026557 -0.0084405 0.0082131 0.003784 0.0017257 -3.9231 1.2211 0.61724 0.11461 -0.0081307 0.0025123 0.0069486 0.0068761 -0.0023016 0.0024793 3.7878 1.0474 0.58116 0.11793
149 0.009446 0.0032233 -0.0079842 0.0078311 0.0040824 0.0016979 -3.8707 0.97727 0.25942 0.035986 -0.0080684 0.0029399 0.0064225 0.006472 -0.0024913 0.0024938 3.6656 0.81421 0.26316 0.045677
150 0.0094407 0.0025368 -0.0084159 0.0083251 0.0039275 0.0017086 -3.9242 1.2897 0.72516 -0.022642 -0.0080761 0.0023879 0.0068571 0.0068784 -0.0023847 0.0024819 3.7488 1.0951 0.65943 -0.0091954
151 0.0080974 0.0023722 -0.0072559 0.0075466 0.0036997 0.001832 -3.7015 1.1225 0.23129 -0.80073 -0.0074207 0.002368 0.0063317 0.006635 -0.0023531 0.0026713 3.7848 0.98809 0.21636 -0.73361
152 0.010854 0.007065 -0.0066067 0.0060376 0.0051686 0.003393 -4.2044 -0.82458 -1.2364 -1.2322 -0.010924 0.0071252 0.0057958 0.0059929 -0.0033636 0.00464 4.5327 -1.0306 -1.2193 -1.2197
153 0.010784 0.0052904 -0.0072631 0.0069466 0.0049819 0.0027587 -3.9909 -0.092692 0.93069 -1.8859 -0.0098214 0.0049575 0.0059902 0.0061882 -0.0030632 0.0037232 3.9586 -0.21682 0.84938 -1.7222
154 0.0093607 0.0029596 -0.0078465 0.0078994 0.004014 0.0018427 -3.8286 0.99855 0.64949 -0.29621 -0.0086495 0.0029519 0.0068548 0.0070518 -0.0026068 0.0027985 3.9327 0.87508 0.6106 -0.27046
155 0.008919 0.0030305 -0.0074468 0.007462 0.0039338 0.0019014 -3.7344 0.72358 0.31081 -0.19507 -0.0084754 0.0030802 0.0066676 0.0068492 -0.0026028 0.0028916 3.9268 0.62149 0.31431 -0.17064
156 180.22 183.99 -1270.7 -1212.8 0.5473 0.38391 0.14634 -0.37476 0.98656 1.5638 -184 180.22 1212.8 -1270.7 -0.38387 0.54709 -0.34489 -0.36374 0.9984 1.6378
157 0.010462 0.0049349 -0.0071508 0.0069065 0.0047495 0.0023338 -3.8048 -0.19973 0.62445 -0.68765 -0.011787 0.0057422 0.0073538 0.0076215 -0.0037061 0.0041109 4.6662 -0.38608 0.71047 -0.75709
158 0.0095715 0.0026632 -0.0083417 0.0083187 0.0039635 0.0016235 -3.9003 1.2663 0.82817 -0.27536 -0.0078814 0.0024016 0.0065349 0.0066203 -0.002335 0.0023358 3.5861 1.0389 0.72116 -0.22188
159 0.0092407 0.0035154 -0.007032 0.0071767 0.0042765 0.0023129 -3.7184 0.20248 0.37316 -0.62965 -0.0092733 0.0037291 0.0065939 0.0069796 -0.0029201 0.0035156 4.0992 0.067522 0.36755 -0.626
160 0.0094312 0.0029706 -0.0081062 0.0079313 0.0039592 0.0019464 -3.8515 0.9423 0.57839 0.11853 -0.0088567 0.0030067 0.0071979 0.0072087 -0.0025752 0.002915 4.0143 0.84634 0.58422 0.13194
161 0.011677 0.0062211 -0.0074373 0.0074027 0.0056562 0.0032561 -4.3063 -0.068328 0.7849 -2.6784 -0.011377 0.0061901 0.0065055 0.0070417 -0.0036867 0.0045998 4.5553 -0.22157 0.77771 -2.6208
162 0.010858 0.0054437 -0.007325 0.0072683 0.0050635 0.0028627 -4.1316 0.10653 0.77285 -2.2946 -0.010678 0.0054984 0.0065265 0.0069545 -0.0033434 0.0041281 4.426 -0.03049 0.77999 -2.2678
163 0.010842 0.0057226 -0.0070858 0.0072639 0.0053431 0.0031458 -4.2292 -0.040876 0.39478 -2.5684 -0.011789 0.006362 0.0069529 0.00767 -0.0038684 0.004916 4.9952 -0.22303 0.44485 -2.7957
164 0.011555 0.0061413 -0.0073932 0.0073637 0.0056042 0.0032343 -4.2834 -0.073194 0.7463 -2.6334 -0.01139 0.006184 0.0065475 0.0070843 -0.0036939 0.0046187 4.5848 -0.22921 0.74814 -2.6066
165 0.01185 0.0063418 -0.0076129 0.0073846 0.0056166 0.0032 -4.3313 -0.013933 0.83494 -2.7547 -0.011046 0.0060336 0.0063577 0.0067327 -0.0035084 0.0043428 4.3854 -0.15506 0.79646 -2.5802
166 0.011655 0.006206 -0.0074961 0.0073788 0.0055369 0.00317 -4.2991 -0.017683 0.79368 -2.6818 -0.011235 0.0061093 0.0064862 0.0069466 -0.0035728 0.0044409 4.5016 -0.16355 0.78324 -2.5986
167 180.22 183.99 -1270.7 -1212.8 0.5474 0.38386 0.13601 -0.23904 -0.26693 1.4577 -184 180.22 1212.8 -1270.7 -0.38397 0.54709 -0.32586 -0.2413 -0.27862 1.5263
168 0.010822 0.0060518 -0.0069934 0.0067273 0.0052505 0.0029271 -4.0783 -0.62932 -1.4966 0.020201 -0.011456 0.0065103 0.0066245 0.0069801 -0.0037472 0.0045362 4.6473 -0.86083 -1.5407 0.047449
169 0.009273 0.0046797 -0.0066644 0.0068003 0.0045343 0.0027399 -4.0019 0.3418 0.036171 -2.383 -0.0086293 0.0044702 0.005654 0.0061072 -0.0027928 0.0036356 4.0713 0.21243 0.047635 -2.2222
170 0.011023 0.0053684 -0.0073617 0.0070466 0.0049559 0.0024121 -3.8964 -0.30574 0.52162 -0.50227 -0.0116 0.0058173 0.0070436 0.0072864 -0.0036164 0.0039774 4.4566 -0.47914 0.54559 -0.51364
171 0.011082 0.0054525 -0.0071878 0.0071014 0.0052017 0.0025751 -3.9617 -0.49182 0.36341 -0.55656 -0.012012 0.0060812 0.0070863 0.0075597 -0.0039018 0.0043362 4.6581 -0.72567 0.37017 -0.58367
172 0.010323 0.0064614 -0.0063952 0.0061296 0.0052395 0.003029 -4.0308 -0.85823 -1.2839 -0.6004 -0.01024 0.0064405 0.0055989 0.0059709 -0.0034766 0.0043045 4.2882 -1.0301 -1.2451 -0.5597
173 0.0092121 0.0022372 -0.0084601 0.0083087 0.0040454 0.0015107 -3.9041 1.3136 0.76928 0.068172 -0.0075438 0.0020394 0.0066323 0.006579 -0.0024163 0.0022769 3.58 1.0766 0.66219 0.073227
174 0.01085 0.0051877 -0.0073681 0.0071115 0.0048945 0.0023246 -3.8863 -0.20159 0.53508 -0.53486 -0.011745 0.0057924 0.0072742 0.0075484 -0.0036917 0.0039912 4.5791 -0.36945 0.58042 -0.5638
175 0.010989 0.0055123 -0.0074276 0.0073736 0.005116 0.002882 -4.194 0.20388 0.82877 -2.4462 -0.010681 0.0055024 0.0065414 0.0069712 -0.003341 0.0041133 4.4446 0.074215 0.82795 -2.3935
176 0.0086183 0.0017705 -0.0081252 0.0084387 0.003758 0.0016741 -3.8586 1.4925 0.40365 -0.30531 -0.007846 0.0018447 0.0071414 0.0073881 -0.0024223 0.0025771 3.9462 1.364 0.40894 -0.27053
177 0.009476 0.0029326 -0.0082992 0.0081573 0.0037808 0.0019915 -3.919 1.1602 0.56883 0.057236 -0.0081639 0.0027278 0.0067717 0.0067914 -0.0022145 0.002657 3.7534 0.98266 0.54369 0.072232
178 180.22 183.99 -1270.7 -1212.8 0.54695 0.38419 -0.11804 -0.082907 -1.6769 -0.2151 -184 180.22 1212.8 -1270.7 -0.38417 0.54813 0.8463 -0.37334 -2.1581 -0.43663
179 180.22 183.99 -1270.7 -1212.8 0.54765 0.38525 -0.50129 -0.41929 -1.7654 -1.0829 -184 180.22 1212.8 -1270.7 -0.38383 0.54836 0.4015 -0.45163 -1.8061 -1.1253
180 180.22 183.99 -1270.7 -1212.8 0.54752 0.38443 -0.099245 -0.080153 -0.96705 -0.90628 -183.99 180.22 1212.8 -1270.7 -0.38355 0.54703 -0.51933 0.11307 -0.81048 -0.75472
181 180.22 183.99 -1270.7 -1212.8 0.54796 0.38508 -0.26544 -0.41399 -1.2146 -0.72489 -184 180.22 1212.8 -1270.7 -0.38386 0.54788 -0.20599 -0.28554 -1.1005 -0.6413
182 180.22 183.99 -1270.7 -1212.8 0.54734 0.38433 -0.14344 0.045917 -1.1858 -0.68011 -183.99 180.22 1212.8 -1270.7 -0.38363 0.54719 -0.21238 0.14965 -1.12 -0.63314
183 180.22 183.99 -1270.7 -1212.8 0.5475 0.38444 -0.11328 -0.12243 -1.1195 -0.45785 -183.99 180.22 1212.8 -1270.7 -0.38359 0.54711 -0.4398 0.044412 -0.97801 -0.35714
184 180.22 183.99 -1270.7 -1212.8 0.54787 0.38485 -0.28591 -0.15158 -1.2439 -1.4449 -184 180.22 1212.8 -1270.7 -0.38389 0.54773 -0.1179 -0.033309 -1.15 -1.3623
185 180.22 183.99 -1270.7 -1212.8 0.54795 0.38451 -0.20563 -0.20376 -1.0559 -1.248 -184 180.22 1212.8 -1270.7 -0.38405 0.54748 -0.20468 -0.077024 -0.95912 -1.1654
186 180.22 183.99 -1270.7 -1212.8 0.54728 0.38426 -0.12008 0.068992 -1.1766 -0.52377 -183.99 180.22 1212.8 -1270.7 -0.38365 0.54718 -0.17381 0.15406 -1.1372 -0.49993
187 180.22 183.99 -1270.7 -1212.8 0.54695 0.38419 -0.11804 -0.082907 -1.6769 -0.2151 -184 180.22 1212.8 -1270.7 -0.38417 0.54813 0.8463 -0.37334 -2.1581 -0.43663
188 180.22 183.99 -1270.7 -1212.8 0.54802 0.38466 -0.37426 -0.27814 -1.5262 -1.2467 -184 180.22 1212.8 -1270.7 -0.38432 0.54797 0.27021 -0.2772 -1.5531 -1.296
189 0.0084615 0.0012093 -0.0085436 0.0086584 0.0036776 0.0015807 -3.8997 1.6152 0.45037 0.26379 -0.0072019 0.0012522 0.007083 0.0071027 -0.0022362 0.0023357 3.7483 1.3977 0.42001 0.25264
190 0.0099169 0.0036701 -0.0078199 0.007503 0.0041573 0.0022853 -3.8101 0.46335 0.82903 -0.20362 -0.011086 0.0043422 0.0081584 0.0081598 -0.0031379 0.0038548 4.6884 0.42437 0.97744 -0.20643
191 0.0093284 0.0021236 -0.0086395 0.008485 0.0040129 0.0014875 -3.9458 1.3757 0.73363 0.16641 -0.0079265 0.0020274 0.007042 0.0069715 -0.0024884 0.0023406 3.7574 1.1771 0.66664 0.16147
192 0.00963 0.0023298 -0.0086488 0.0085763 0.0040617 0.001404 -3.9628 1.384 0.77396 0.062105 -0.0082871 0.0022359 0.0071217 0.0071375 -0.0025708 0.0023174 3.8177 1.1977 0.71208 0.066935
193 0.0091125 0.0017505 -0.0085573 0.0087767 0.0037375 0.0013373 -3.9387 1.579 0.57861 0.13703 -0.0074973 0.0016655 0.0068062 0.0069622 -0.0022483 0.0020849 3.6445 1.3113 0.51599 0.12891
194 0.0092692 0.0017157 -0.0088298 0.0087006 0.003999 0.0015074 -3.9735 1.5008 0.86493 0.17412 -0.0082529 0.001771 0.0075909 0.0074918 -0.002595 0.0024783 3.9794 1.3573 0.82171 0.17941
195 0.0099122 0.002619 -0.0087132 0.0084655 0.0041527 0.0015324 -3.9745 1.2867 0.9067 0.040879 -0.0089886 0.0026153 0.0075226 0.0074402 -0.0027425 0.0025678 4.0265 1.1676 0.87432 0.05199
196 180.22 183.99 -1270.7 -1212.8 0.54736 0.3837 0.07973 -0.41978 1.1893 1.9257 -184 180.22 1212.8 -1270.7 -0.38437 0.54743 0.17454 -0.61073 1.2412 2.121
197 0.0068943 0.0020431 -0.0066616 0.0070234 0.0030306 0.0018904 -3.6795 0.82175 -1.7123 0.21964 -0.0076804 0.0024779 0.0070881 0.0074623 -0.0022166 0.0030352 4.5456 0.82558 -1.9231 0.29229
198 0.0091791 0.001699 -0.008671 0.008965 0.0037739 0.0014952 -3.9857 1.6849 0.51776 0.074941 -0.0078417 0.0016897 0.0071724 0.0073791 -0.0023219 0.0022968 3.8336 1.4637 0.48972 0.07797
199 0.0093909 0.0020071 -0.0086824 0.0087016 0.0038089 0.0012956 -3.9647 1.5277 0.7149 0.027043 -0.0079202 0.001923 0.0070428 0.0070869 -0.0023635 0.002123 3.7552 1.3031 0.64415 0.03651
200 0.0098358 0.0027505 -0.008554 0.0084926 0.00404 0.0015489 -3.9688 1.2725 0.67213 0.024591 -0.009642 0.0029499 0.007978 0.0080547 -0.0028612 0.0027436 4.3391 1.246 0.71704 0.03951
201 0.009427 0.0018163 -0.008873 0.0089045 0.0037089 0.0011128 -4.0014 1.6329 0.72244 0.15313 -0.0081885 0.0018218 0.0074375 0.0074684 -0.002404 0.0020223 3.91 1.4406 0.67249 0.1507
202 0.0094963 0.0022367 -0.008651 0.0085672 0.0041363 0.001436 -3.9584 1.3714 0.68321 0.17307 -0.0087192 0.0022979 0.0076112 0.0076048 -0.0027981 0.0025244 4.0714 1.2646 0.67297 0.17846
203 0.0093078 0.0017944 -0.0088387 0.0088685 0.0036396 0.00124 -3.9968 1.6368 0.67953 0.16068 -0.0081625 0.0018163 0.0074822 0.0075062 -0.0023433 0.0021183 3.9432 1.4588 0.64139 0.15974
204 0.0094487 0.001794 -0.0089128 0.0089249 0.003761 0.0011531 -4.0088 1.6447 0.737 0.15913 -0.0080691 0.0017728 0.0073477 0.0073615 -0.0023927 0.0020354 3.8528 1.4301 0.67571 0.15318
205 0.0095397 0.0020911 -0.0088063 0.0087127 0.0040273 0.0013317 -3.9898 1.4908 0.7258 0.15227 -0.0082997 0.0020572 0.0073577 0.0073273 -0.0025949 0.0022841 3.8957 1.3138 0.67847 0.14937
206 180.22 183.99 -1270.7 -1212.8 0.54752 0.38442 -0.13771 -0.077392 -1.1446 -0.49931 -184 180.22 1212.8 -1270.7 -0.38388 0.54749 -0.085953 -0.030988 -1.1435 -0.50358
207 180.22 183.99 -1270.7 -1212.8 0.54703 0.38397 0.1892 0.014426 -0.83064 0.38454 -184 180.22 1212.8 -1270.7 -0.38401 0.54753 0.08161 -0.081402 -1.0101 0.33159
208 180.22 183.99 -1270.7 -1212.8 0.54618 0.38274 0.51168 1.0755 2.0704 0.59313 -184 180.22 1212.8 -1270.7 -0.38381 0.54636 0.061145 1.2016 2.339 0.53028
209 180.22 183.99 -1270.7 -1212.8 0.54754 0.38436 0.10503 -0.37145 -0.29191 0.11837 -184 180.22 1212.8 -1270.7 -0.3847 0.54853 0.54337 -0.66617 -0.4972 -0.031703
210 0.010496 0.0069458 -0.006014 0.0061428 0.0054796 0.0035514 -4.2373 -0.74826 -1.3233 -2.4678 -0.01095 0.007249 0.0054759 0.0062706 -0.0037096 0.0050519 4.7403 -0.9767 -1.3564 -2.548
211 180.22 183.99 -1270.7 -1212.8 0.54754 0.38436 0.10503 -0.37145 -0.29191 0.11837 -184 180.22 1212.8 -1270.7 -0.3847 0.54853 0.54337 -0.66617 -0.4972 -0.031703
212 0.0092785 0.0013042 -0.0091741 0.0092447 0.0035648 0.00099781 -4.0664 1.879 0.64457 0.25032 -0.0086867 0.0014928 0.0083559 0.0083525 -0.0025092 0.0020526 4.3052 1.8096 0.65458 0.25694
213 0.0097834 0.0025876 -0.0085287 0.0083875 0.0040837 0.0014751 -3.9497 1.3955 1.0598 -0.6445 -0.0085025 0.0024779 0.0070507 0.0070517 -0.0025908 0.0023954 3.8413 1.2209 0.96935 -0.56236
214 0.0093525 0.0014205 -0.0091197 0.009184 0.0036145 0.0010433 -4.0533 1.8237 0.68058 0.21783 -0.0084737 0.0015495 0.008024 0.0080321 -0.0024536 0.0020359 4.148 1.6956 0.66806 0.21851
215 0.0094014 0.0016841 -0.0089067 0.0089657 0.0036747 0.0010595 -4.0063 1.7003 0.75933 0.047315 -0.0083716 0.0017531 0.0076676 0.0077073 -0.0024519 0.0020246 4.0196 1.5425 0.72237 0.057498
216 0.0086737 0.0019804 -0.0082477 0.0081341 0.0039573 0.0015925 -3.8521 1.3148 0.51873 -0.053186 -0.0080929 0.0020744 0.007386 0.0073203 -0.0026698 0.0026356 4.0332 1.2217 0.50239 -0.030978
217 0.0093672 0.0020426 -0.0086317 0.0086443 0.0040471 0.0014538 -3.9541 1.4612 0.70604 0.0445 -0.0087357 0.002157 0.0077361 0.0077841 -0.0027676 0.0025543 4.1386 1.3706 0.70273 0.056716
218 0.009659 0.0023971 -0.0088053 0.0084105 0.004041 0.0015413 -3.9788 1.3539 0.87437 -0.043945 -0.011464 0.0031577 0.0099605 0.0096633 -0.0034816 0.0033302 5.2861 1.6076 1.0948 -0.034178
219 0.0098686 0.0027256 -0.0086721 0.0084021 0.004121 0.0015195 -3.966 1.2609 0.86144 0.03962 -0.0099961 0.0030237 0.0083461 0.0082441 -0.0030408 0.0028398 4.4851 1.27 0.92098 0.054967
220 0.0094012 0.0021735 -0.0087151 0.008587 0.0040082 0.0016674 -3.9806 1.3924 0.69593 0.19039 -0.0091792 0.0023798 0.0081589 0.0081012 -0.0028035 0.002841 4.3526 1.3683 0.7366 0.21101
221 0.0076873 -0.00056241 -0.0093159 0.0095123 0.0031887 0.00096026 -4.0717 2.1503 0.033316 0.97003 -0.0077629 -0.00031571 0.009443 0.009287 -0.0024259 0.0021032 4.7277 2.257 0.037052 1.0758
222 0.0082806 0.0003655 -0.0089922 0.0092419 0.0031354 0.00059401 -3.9877 2.0569 0.29124 0.52013 -0.0074453 0.00057442 0.0079894 0.0080123 -0.0021941 0.0015325 4.0872 1.9117 0.28887 0.51198
223 0.0075646 -0.00056232 -0.0092644 0.0094519 0.0033085 0.0007045 -4.0876 2.1046 -0.10717 1.0619 -0.0074696 -0.00031369 0.0091844 0.0090202 -0.0025552 0.0018713 4.6387 2.1492 -0.1143 1.1535
224 0.0099027 0.0026864 -0.0086893 0.0084851 0.004142 0.0015503 -3.9859 1.3212 0.82739 -0.073682 -0.0091884 0.0027361 0.0076697 0.0076241 -0.002792 0.0026355 4.131 1.2318 0.82416 -0.05616
225 0.007102 0.0010443 -0.0076422 0.0080372 0.0028994 0.0015894 -3.7812 1.7154 -0.72404 -0.14183 -0.0066613 0.0011891 0.0070007 0.0072139 -0.0018395 0.0023113 4.0123 1.6364 -0.67439 -0.11324
226 0.0093477 0.0020967 -0.008556 0.0087167 0.0038481 0.0013361 -3.9537 1.4574 0.53936 0.15803 -0.010349 0.0026206 0.0091063 0.0093076 -0.003126 0.0028355 4.9048 1.6094 0.6485 0.20091
227 0.009469 0.0023233 -0.0087075 0.008378 0.004233 0.0015246 -3.96 1.3441 0.7562 0.02452 -0.010484 0.0028588 0.0092052 0.0089752 -0.0034438 0.0031657 4.9155 1.4855 0.87082 0.045061
228 0.010003 0.0029 -0.0086983 0.0084023 0.0041299 0.001667 -3.983 1.2417 0.82769 0.063274 -0.011911 0.0037611 0.0098123 0.00969 -0.0035326 0.0034894 5.2904 1.4557 1.0333 0.091024
229 0.010003 0.0029 -0.0086983 0.0084023 0.0041299 0.001667 -3.983 1.2417 0.82769 0.063274 -0.011911 0.0037611 0.0098123 0.00969 -0.0035326 0.0034894 5.2904 1.4557 1.0333 0.091024
230 4456.1 4549.3 280.86 268.05 -612.94 -430.03 0.083444 -0.072918 0.20254 0.34394 -4549.3 4456.1 -268.06 280.86 430.03 -612.94 -0.16481 -0.05736 0.2483 0.39268
231 0.011229 0.0059342 -0.0073825 0.00747 0.0053521 0.0031029 -4.3179 0.18423 0.6257 -2.8149 -0.011602 0.0062664 0.0068787 0.0075017 -0.0036905 0.0046356 4.8557 0.052016 0.67477 -2.9264
232 180.22 183.99 -1270.7 -1212.8 0.54696 0.38333 -0.027474 1.3331 1.997 -1.6945 -184 180.22 1212.8 -1270.7 -0.38381 0.54657 0.040902 1.5363 2.1142 -1.8576
233 0.011628 0.0061658 -0.0075277 0.0074598 0.0054898 0.0031398 -4.3275 0.10424 0.8209 -2.7707 -0.011327 0.0061359 0.0065918 0.0070881 -0.0035795 0.0044474 4.5847 -0.033805 0.82155 -2.7166
234 180.22 183.99 -1270.7 -1212.8 0.54705 0.38341 -0.042892 1.3003 1.9734 -1.7518 -184 180.22 1212.8 -1270.7 -0.38378 0.54657 -0.053603 1.4992 2.0606 -1.8524
235 180.22 183.99 -1270.7 -1212.8 0.54723 0.38357 0.054308 1.0872 1.9337 -1.491 -184 180.22 1212.8 -1270.7 -0.38411 0.54703 0.08478 1.2427 2.0593 -1.7154
236 0.01059 0.0033934 -0.0084933 0.0084605 0.0045647 0.0016531 -4.0371 1.0989 0.91417 -0.35868 -0.0118 0.0040776 0.0089137 0.0091391 -0.0037182 0.0034044 5.0046 1.1727 1.0254 -0.41457
237 0.01059 0.0033934 -0.0084933 0.0084605 0.0045647 0.0016531 -4.0371 1.0989 0.91417 -0.35868 -0.0118 0.0040776 0.0089137 0.0091391 -0.0037182 0.0034044 5.0046 1.1727 1.0254 -0.41457
238 180.22 183.99 -1270.7 -1212.8 0.54709 0.38293 0.26495 0.66443 1.3457 0.38062 -184 180.22 1212.8 -1270.7 -0.38468 0.54692 0.37821 0.65289 1.4444 0.25974
239 180.22 183.99 -1270.7 -1212.8 0.54776 0.38443 -0.20486 -0.11487 -0.85818 -0.84519 -184 180.22 1212.8 -1270.7 -0.38416 0.54768 0.088948 -0.048084 -0.85554 -0.86991
240 180.22 183.99 -1270.7 -1212.8 0.54702 0.38353 0.20301 0.24923 -0.43928 0.39336 -184 180.22 1212.8 -1270.7 -0.38445 0.54747 0.44716 0.13775 -0.65904 0.29817
241 4456.1 4549.3 280.86 268.06 -612.94 -430.03 -0.25348 -0.25808 -0.46619 -0.0022102 -4549.3 4456.1 -268.06 280.86 430.03 -612.94 0.22199 -0.3002 -0.47895 0.042133
242 4480.8 4574.5 290.02 276.79 3047.1 2137.8 0.0013088 0.00012842 -9.3183e-06 1.4516e-05 -4574.6 4480.8 -276.8 290.02 -2137.8 3047.1 -0.001118 0.00011954 -9.1766e-06 1.3205e-05
243 4456.1 4549.3 280.86 268.05 -612.94 -430.03 0.086503 0.035536 0.13544 0.185 -4549.3 4456.1 -268.06 280.86 430.03 -612.94 -0.32319 0.12753 0.22235 0.29035
244 4456.1 4549.3 280.86 268.05 -612.94 -430.03 0.092046 0.20242 0.24053 -0.2018 -4549.3 4456.1 -268.06 280.86 430.03 -612.94 0.075401 0.19002 0.21118 -0.29968
245 4456.1 4549.3 280.86 268.05 -612.94 -430.03 -0.0083811 0.093064 -0.11233 -0.32493 -4549.3 4456.1 -268.06 280.86 430.03 -612.94 0.1904 0.040038 -0.20289 -0.42548
246 0.0095371 0.0011087 -0.0093751 0.0094625 0.0037646 0.00061154 -4.1059 1.9618 0.73568 0.30792 -0.009007 0.0013346 0.0086407 0.0086377 -0.0027997 0.001823 4.3948 1.9145 0.74886 0.31522
247 0.0086252 -0.0022975 -0.01204 0.012449 0.0029354 0.00069553 -5.1124 3.3402 -0.73167 1.6212 -0.0072413 -0.0017254 0.010389 0.010158 -0.0018734 0.0015297 5.0254 2.9767 -0.64758 1.5043
248 0.0081646 -0.0015502 -0.010878 0.011306 0.0024324 0.00045446 -4.6847 3.2167 -0.58862 0.9251 -0.0078533 -0.0012476 0.01066 0.010531 -0.0017859 0.0013375 5.2562 3.297 -0.5756 0.9862
249 0.0084997 -0.0019867 -0.0112 0.011522 0.003626 -0.00014089 -4.7435 2.8635 -0.32536 1.6275 -0.008479 -0.0017345 0.011437 0.011176 -0.0031058 0.0012963 5.5166 3.0095 -0.35519 1.7914
250 0.0072964 -0.00087197 -0.0099652 0.010472 0.0024446 0.0010804 -4.678 3.0411 -1.5186 0.33454 -0.0066443 -0.00057654 0.0091744 0.0091753 -0.0015536 0.001757 4.9464 2.9248 -1.4318 0.35656
251 0.0089583 -0.0027138 -0.013778 0.014384 0.0027377 0.0011822 -6.036 4.4941 -2.0681 0.9782 -0.0076567 -0.0021129 0.012149 0.011921 -0.0016218 0.0018877 6.0855 4.1518 -1.8561 0.94772
252 2028 -1986.4 287.35 -301.07 -13.542 19.302 0.48688 -0.76138 0.88049 0.69071 -1986.4 -2028 -301.08 -287.35 19.302 13.542 -0.92822 -1.0544 0.90076 0.54788
253 2028 -1986.4 287.35 -301.07 -13.542 19.302 0.30111 -0.5066 0.32481 0.23436 -1986.4 -2028 -301.08 -287.35 19.302 13.542 -0.18543 -0.43072 0.27815 0.29084
254 2028 -1986.4 287.35 -301.07 -13.542 19.302 0.50281 -0.73626 0.80109 0.59734 -1986.4 -2028 -301.08 -287.35 19.303 13.542 -0.97891 -1.0504 0.84096 0.44753
255 0.0089287 -0.0026043 -0.013369 0.01388 0.0024014 0.0009149 -5.72 4.2718 -1.5022 1.1939 -0.0076789 -0.0020318 0.011848 0.011583 -0.0014366 0.0015816 5.7958 3.9699 -1.338 1.1525
256 2028 -1986.4 287.35 -301.07 -13.542 19.302 0.3103 -0.48881 0.65648 0.5538 -1986.4 -2028 -301.08 -287.35 19.302 13.542 -0.2907 -0.47697 0.63385 0.58577
257 2028 -1986.4 287.35 -301.07 -13.542 19.302 0.30144 -0.51871 0.61353 0.5675 -1986.4 -2028 -301.08 -287.35 19.302 13.542 -0.28253 -0.51056 0.58402 0.59705
258 2028 -1986.4 287.35 -301.07 -13.542 19.302 0.26171 -0.38334 0.6145 0.558 -1986.4 -2028 -301.08 -287.35 19.302 13.542 -0.38514 -0.46937 0.62102 0.53463
259 2028 -1986.4 287.35 -301.07 -13.542 19.302 0.29264 -0.45219 0.66892 0.59938 -1986.4 -2028 -301.08 -287.35 19.302 13.542 -0.35022 -0.49544 0.66117 0.6
260 2028 -1986.4 287.35 -301.07 -13.543 19.302 0.39985 -0.42246 0.64422 0.31862 -1986.4 -2028 -301.08 -287.35 19.303 13.542 -0.52719 -0.49677 0.65316 0.29724
261 2028 -1986.4 287.35 -301.07 -13.542 19.302 0.23334 -0.40388 0.71151 0.70909 -1986.4 -2028 -301.08 -287.35 19.302 13.542 -0.42227 -0.53938 0.72266 0.66039
262 2028 -1986.4 287.35 -301.07 -13.542 19.302 -0.015512 -0.015564 0.16413 0.32871 -1986.4 -2028 -301.08 -287.35 19.303 13.542 -0.73898 -0.56483 0.33941 0.10951
263 2028 -1986.4 287.35 -301.07 -13.542 19.302 0.19577 -0.28492 0.24332 0.24507 -1986.4 -2028 -301.08 -287.35 19.303 13.542 -0.61774 -0.58408 0.34142 0.13546
264 2028 -1986.4 287.35 -301.08 -13.542 19.302 0.55409 -0.69194 0.50073 0.15756 -1986.4 -2028 -301.08 -287.35 19.302 13.542 -0.23978 -0.46378 0.41353 0.27804
265 2028 -1986.4 287.35 -301.07 -13.542 19.302 0.26409 -0.4402 0.7057 0.67066 -1986.4 -2028 -301.08 -287.35 19.302 13.542 -0.39164 -0.53158 0.70638 0.64669
266 0.0091393 -0.0028439 -0.014042 0.014444 0.0026846 0.0011245 -6.0403 4.5754 -1.9975 1.0687 -0.0075816 -0.0021612 0.012015 0.011634 -0.001544 0.0017782 5.9176 4.1119 -1.7333 1.0012
267 2028 -1986.4 287.35 -301.07 -13.542 19.302 0.24889 -0.33096 0.46127 0.40394 -1986.4 -2028 -301.08 -287.35 19.303 13.542 -0.54132 -0.53261 0.51268 0.3282
268 2028 -1986.4 287.35 -301.07 -13.542 19.302 0.067923 -0.20904 0.15442 0.26017 -1986.4 -2028 -301.08 -287.35 19.302 13.542 -0.39965 -0.45106 0.22112 0.17274
269 339.56 -332.6 49.175 -51.524 2343 -3339.5 0.00013838 -1.5864e-05 -1.0269e-05 -2.5003e-06 -332.6 -339.56 -51.524 -49.175 -3339.5 -2343 -8.7616e-05 -1.0526e-05 -8.4563e-06 -1.8115e-06
270 0.008817 -0.0024894 -0.013045 0.013619 0.0023466 0.00089138 -5.6435 4.2788 -1.6098 0.93869 -0.0077391 -0.0019694 0.011786 0.01159 -0.0014306 0.0015732 5.8366 4.0624 -1.4594 0.92731
271 0.0082375 -0.0017525 -0.011734 0.012187 0.002341 0.00097549 -5.1518 3.7556 -1.4319 0.67633 -0.0082389 -0.0015036 0.011982 0.011786 -0.0016173 0.0018381 6.0358 4.0361 -1.4762 0.76357
272 0.0076588 -0.0011 -0.010572 0.011107 0.0024256 0.0011474 -4.8605 3.3217 -1.6624 0.27357 -0.0088489 -0.00098528 0.01238 0.012357 -0.0019161 0.0023051 6.5417 4.0855 -1.9908 0.37435
273 0.0083861 -0.0020997 -0.012416 0.013383 0.0025572 0.0011312 -5.6685 4.1619 -2.0541 0.498 -0.0080401 -0.0017702 0.012233 0.012388 -0.0016895 0.0019826 6.3851 4.2952 -2.0556 0.55298
274 0.0089014 -0.0025929 -0.01392 0.014309 0.0027909 0.0012316 -6.1391 4.6124 -2.291 0.69155 -0.0077524 -0.0020489 0.012477 0.012078 -0.0016847 0.0019759 6.31 4.3513 -2.102 0.69125
275 2028 -1986.4 287.35 -301.07 -13.542 19.302 -0.32427 0.50413 -0.83409 -0.86548 -1986.4 -2028 -301.08 -287.35 19.302 13.542 0.14444 0.35911 -0.72172 -0.87509
276 2028 -1986.4 287.35 -301.07 -13.542 19.302 0.041176 0.073771 -0.64578 -0.99598 -1986.4 -2028 -301.08 -287.35 19.302 13.542 0.54856 0.51465 -0.8092 -0.90985
277 2028 -1986.4 287.35 -301.07 -13.542 19.302 -0.54503 0.76859 -0.8935 -0.7354 -1986.4 -2028 -301.08 -287.35 19.302 13.542 0.51324 0.72463 -0.81957 -0.72697
278 2028 -1986.4 287.35 -301.07 -13.542 19.302 -0.54218 0.75671 -0.79935 -0.5802 -1986.4 -2028 -301.08 -287.35 19.302 13.542 0.37041 0.60532 -0.6841 -0.59474
279 2028 -1986.4 287.35 -301.07 -13.542 19.302 -0.12153 0.35225 -0.50159 -0.70501 -1986.4 -2028 -301.08 -287.35 19.302 13.542 0.056601 0.3092 -0.44361 -0.70199
280 2028 -1986.4 287.35 -301.07 -13.542 19.302 -0.48586 0.68974 -0.81974 -0.68242 -1986.4 -2028 -301.08 -287.35 19.302 13.542 0.44781 0.64468 -0.752 -0.67411
281 2028 -1986.4 287.35 -301.07 -13.542 19.302 -0.23036 0.24629 -0.31409 -0.0018159 -1986.4 -2028 -301.08 -287.35 19.302 13.542 0.15434 0.1727 -0.27111 -0.010869
282 2028 -1986.4 287.35 -301.07 -13.542 19.302 -0.14684 0.14836 -0.090996 0.26317 -1986.4 -2028 -301.08 -287.35 19.302 13.542 -0.0085362 0.019771 -0.034089 0.22964
283 2028 -1986.4 287.35 -301.07 -13.542 19.302 -0.4915 0.66615 -0.79068 -0.59754 -1986.4 -2028 -301.08 -287.35 19.302 13.542 0.45159 0.6169 -0.72473 -0.59207
284 2028 -1986.4 287.35 -301.07 -13.542 19.302 -0.0093139 0.067092 0.26585 0.43634 -1986.4 -2028 -301.08 -287.34 19.302 13.542 0.27506 0.25564 0.2194 0.53356
285 2028 -1986.4 287.35 -301.07 -13.542 19.302 -0.2279 0.29136 -0.42932 -0.23304 -1986.4 -2028 -301.07 -287.34 19.302 13.542 1.077 0.9027 -0.64224 -0.026026
286 2028 -1986.4 287.35 -301.07 -13.542 19.302 -0.72201 1.0232 -0.78614 -0.43756 -1986.4 -2028 -301.07 -287.34 19.302 13.542 1.1061 1.2966 -0.84108 -0.35792
287 2028 -1986.4 287.35 -301.07 -13.542 19.302 -0.12323 0.27486 -0.73331 -1.0357 -1986.4 -2028 -301.08 -287.35 19.302 13.542 0.74514 0.73876 -0.8921 -0.95124
288 2028 -1986.4 287.35 -301.07 -13.542 19.302 -0.47634 0.78375 -0.77239 -0.72431 -1986.4 -2028 -301.07 -287.34 19.302 13.543 1.3979 1.4913 -1.0141 -0.5743
289 2478.7 -2427.8 -6824.6 7150.7 0.34654 -0.49438 0.0010215 -4.6624e-05 -8.9602e-06 -1.0666e-05 -2427.9 -2478.6 7150.7 6824.7 -0.49395 -0.34702 -0.00089188 -3.6772e-05 -8.7104e-06 -1.0511e-05
