236 20
0 -3.8736 1.3126 -0.76927 0.95487 1.1408 0.147 -0.99297 -0.3348 0.033846 -0.14595 4.1387 1.3865 -0.6504 0.74546 1.0748 0.15326 -0.92417 -0.29127 -0.0093996 -0.11881
1 -3.9743 1.4603 -0.87562 1.0127 1.2738 0.21849 -1.1344 -0.36856 -0.018644 -0.18659 5.2296 1.9043 -0.94165 0.98699 1.4795 0.28061 -1.3138 -0.40271 -0.067999 -0.19499
2 -4.0179 1.7799 0.42212 0.095275 0.37157 0.094986 -0.1461 0.03259 0.18824 0.075606 3.5577 1.5902 0.41709 0.015054 0.29902 0.075914 -0.096354 0.044224 0.1515 0.059259
3 -4.0902 1.8273 -0.075089 -0.33818 0.77325 -0.72957 -0.47714 -0.15658 0.16171 0.012912 3.8789 1.7512 -0.0061687 -0.42901 0.68754 -0.70063 -0.38569 -0.12305 0.15036 0.0034262
4 -3.7768 0.12668 -0.77647 -0.27247 0.57266 0.31324 -0.53713 -0.39099 -0.061887 -0.46726 3.5084 0.091856 -0.61346 -0.29901 0.496 0.26269 -0.42735 -0.32185 -0.060235 -0.38653
5 -3.8025 0.28954 -0.92421 -0.052733 0.34474 0.78036 -0.76339 0.16824 -0.41826 -0.37122 3.8027 0.26715 -0.80952 -0.11239 0.29734 0.76949 -0.69194 0.18163 -0.4124 -0.3731
6 -4.0209 1.7361 0.42777 -0.027294 0.49572 0.054675 -0.18462 0.047866 0.054886 0.18779 3.6318 1.5829 0.43623 -0.088667 0.4222 0.03152 -0.13282 0.054261 0.030769 0.16166
7 -3.8632 1.1983 0.014812 1.1421 0.39855 0.47187 -0.27916 -0.35963 -0.12926 0.19427 3.7355 1.1478 0.11997 0.93219 0.29724 0.46774 -0.18649 -0.29466 -0.16311 0.20678
8 -3.8494 0.69282 -0.96736 1.9944 0.79549 -0.26107 -0.4638 -0.25148 0.14723 0.12509 4.2421 0.71864 -0.82783 1.8265 0.73163 -0.22431 -0.44033 -0.2226 0.13812 0.15253
9 -3.9291 1.0408 0.25093 -0.82485 0.81792 -0.64673 0.19373 0.014018 0.18009 0.014738 3.657 0.9776 0.2925 -0.76994 0.78686 -0.6267 0.15444 0.010237 0.17783 0.044695
10 -4.1109 1.8301 0.3063 -0.65757 0.17017 -0.7522 -0.2044 0.014846 0.094427 0.19037 3.8743 1.7573 0.3153 -0.63644 0.18107 -0.71738 -0.18041 0.017168 0.1092 0.17426
11 -4.0157 1.5022 0.73192 0.56852 0.010405 0.67358 -0.033697 -0.065158 0.096169 0.10395 4.026 1.516 0.78238 0.50117 -0.019998 0.67956 0.00058056 -0.048288 0.070752 0.097526
12 -3.8615 0.80232 0.54999 0.031362 -0.50538 0.72669 -0.078575 0.15287 0.57162 -0.033559 3.7923 0.78424 0.57885 0.045463 -0.46668 0.71281 -0.074082 0.1414 0.55472 -0.036068
13 -4.0027 1.6984 0.20576 -0.27828 0.095436 0.44451 0.18037 -0.085318 -0.1489 0.052727 3.7617 1.6217 0.23727 -0.25924 0.092174 0.40042 0.16886 -0.07991 -0.14061 0.033587
14 -4.1057 1.7111 -0.076662 -0.99973 0.55959 -0.51003 -0.19064 0.1779 0.32708 0.25757 4.1191 1.7506 -0.016512 -0.99473 0.57917 -0.55122 -0.17557 0.16996 0.34207 0.25055
15 -4.0035 1.5031 0.76515 0.30402 -0.17183 0.65362 0.22446 0.00088183 0.058129 0.01498 3.6929 1.4002 0.73728 0.25423 -0.15625 0.59843 0.19426 0.0091121 0.035185 0.017851
16 -3.8077 -0.092172 -0.55817 -0.47563 0.014964 0.64028 -0.32528 0.34894 0.13327 -0.16141 3.687 -0.11459 -0.45808 -0.44358 0.02827 0.59766 -0.31185 0.33058 0.14083 -0.14119
17 -3.9626 1.2111 0.81568 0.24572 -0.21119 0.92933 0.033809 -0.060938 -0.1103 0.5359 3.8098 1.1715 0.81901 0.23249 -0.1874 0.88724 0.040664 -0.064046 -0.12248 0.5003
18 -4.1368 1.9031 0.51005 -0.5351 0.43528 -0.43035 -0.1523 0.076345 0.10577 0.17411 3.999 1.8724 0.52032 -0.53846 0.42342 -0.43075 -0.13506 0.076012 0.11496 0.17193
19 -4.1006 1.6341 0.37598 -0.81333 0.63805 -0.75392 -0.10466 0.2224 0.036479 0.1533 3.8897 1.5736 0.38895 -0.78212 0.6251 -0.73172 -0.10899 0.21107 0.058339 0.16357
20 -4.0254 1.5202 0.73166 0.66871 -0.012666 0.75186 0.19882 -0.051366 -0.0079313 -0.0065267 3.8954 1.4798 0.75727 0.57839 -0.036893 0.73175 0.19574 -0.037563 -0.041831 0.0039685
21 -4.018 1.5428 0.65194 0.413 -0.099499 0.875 0.21429 -0.2598 0.087843 0.12056 3.9094 1.5104 0.67049 0.35482 -0.11939 0.84953 0.2251 -0.24187 0.055058 0.10537
22 -4.0774 1.5673 0.41654 -0.7315 0.59787 -0.75137 -0.17768 0.27983 -0.06165 0.14922 3.8829 1.5141 0.42942 -0.71043 0.589 -0.73231 -0.18055 0.27655 -0.038554 0.16188
23 -4.1614 1.92 0.27852 -0.73408 0.52483 -0.67455 -0.077027 0.077661 0.060883 0.090031 3.9526 1.857 0.29562 -0.71533 0.50461 -0.65425 -0.070037 0.072707 0.082215 0.091362
24 -4.0233 1.6003 0.57356 0.57802 -0.28428 0.62896 -0.22931 -0.20546 -0.088744 0.016003 4.0681 1.6326 0.62495 0.51667 -0.32126 0.64385 -0.18793 -0.18617 -0.12043 0.010192
25 -4.019 1.5892 0.48076 -0.43116 -0.29404 -0.77781 -0.35533 0.17655 0.17487 0.095441 3.8318 1.5425 0.48101 -0.42345 -0.25308 -0.75523 -0.31981 0.18297 0.17529 0.083456
26 -4.047 1.7915 0.4969 0.32552 0.08177 0.41839 0.11206 -0.22768 -0.13846 0.066785 4.0623 1.8193 0.54313 0.25692 0.048723 0.41353 0.13828 -0.21381 -0.16752 0.058838
27 -4.0345 1.4165 0.34059 -0.79091 0.6321 -0.72496 -0.11179 0.28088 0.1298 0.21214 3.7954 1.3528 0.35407 -0.75137 0.61917 -0.70134 -0.11719 0.2675 0.13927 0.21369
28 -4.1763 1.9565 0.27179 -0.70042 0.49657 -0.72969 -0.14986 0.09535 0.066151 0.1063 4.0402 1.927 0.29362 -0.7039 0.48338 -0.71827 -0.13798 0.093553 0.08927 0.10682
29 -4.134 1.8347 0.24033 -0.68426 0.50831 -0.79491 0.052789 0.017245 0.017083 0.051956 3.9616 1.7887 0.26848 -0.68241 0.49692 -0.77141 0.042201 0.014357 0.044629 0.059851
30 -4.1507 1.8667 0.27061 -0.71889 0.53943 -0.73774 -0.11396 0.087316 0.086858 0.078954 4.0356 1.847 0.29717 -0.72372 0.53014 -0.73096 -0.10622 0.085116 0.10961 0.08397
31 -3.9545 1.4227 0.10981 0.16733 0.029631 1.1042 -0.17765 0.054351 -0.23324 -0.13713 3.8147 1.3868 0.16319 0.13743 0.0067932 1.0512 -0.14584 0.053965 -0.24577 -0.14858
32 -3.7741 0.0079535 0.16844 0.53258 -0.40464 -0.16333 0.29958 0.21678 0.31353 -0.52167 3.3764 -0.022315 0.23281 0.4163 -0.34493 -0.13056 0.23444 0.20403 0.2578 -0.4279
33 -4.0585 1.6863 0.72629 0.46101 0.011575 0.80377 0.083647 -0.059526 -0.047792 0.097788 3.8407 1.6096 0.72517 0.38498 -0.014156 0.75275 0.097711 -0.047115 -0.073532 0.083562
34 -4.1305 1.8199 0.29357 -0.73972 0.55974 -0.58235 -0.027421 0.148 0.034943 0.055154 3.9564 1.7741 0.3129 -0.72401 0.54553 -0.57896 -0.021532 0.1392 0.054493 0.061772
35 -4.052 1.5979 0.86654 0.32004 -0.10042 0.87802 0.34229 0.034189 0.21075 -0.12558 3.8994 1.5491 0.85196 0.28691 -0.10737 0.82472 0.31042 0.028782 0.15624 -0.11661
36 -4.0601 1.5482 0.40914 -0.66916 0.62469 -0.72489 0.010779 0.2202 0.19822 0.1825 3.8065 1.4705 0.41633 -0.64862 0.60528 -0.69273 -0.0066818 0.20714 0.19834 0.19398
37 -3.9715 1.3061 0.93404 0.401 -0.087336 0.65318 0.039481 -0.20666 -0.14323 0.16665 3.6965 1.219 0.90139 0.33576 -0.086555 0.61181 0.050961 -0.18609 -0.16057 0.16216
38 -4.0625 1.7621 -0.043874 -0.4638 0.45051 -0.77406 0.62609 0.11722 -0.22507 0.0049506 3.8663 1.7007 0.028936 -0.48309 0.44354 -0.72155 0.51647 0.091639 -0.16493 0.024321
39 -4.1062 1.7577 0.097177 -0.76386 0.64186 -0.38127 -0.26868 0.20703 -0.0096543 -0.018927 4.1478 1.8088 0.13702 -0.79288 0.65249 -0.40791 -0.26406 0.21002 0.0073604 -0.0093421
40 -4.1807 1.9546 0.23178 -0.72597 0.54645 -0.73954 -0.084417 0.094709 0.047833 0.12497 4.111 1.956 0.26235 -0.74141 0.54117 -0.73984 -0.07855 0.09417 0.076837 0.12834
41 -4.0654 1.7285 0.023648 -0.6982 0.44422 -0.5291 0.25953 -0.019252 -0.067692 0.012217 3.9176 1.6937 0.069296 -0.68555 0.43883 -0.52174 0.2324 -0.020373 -0.040253 0.015648
42 -3.9885 1.4643 0.72232 0.55605 -0.2596 0.65686 0.18037 -0.1942 -0.023822 0.07857 3.7458 1.3808 0.7141 0.46649 -0.25497 0.6195 0.1692 -0.18376 -0.057238 0.083535
43 -3.9455 1.11 0.93468 0.57644 0.082374 0.6637 0.032326 0.17391 -0.17047 -0.057134 3.7735 1.055 0.9357 0.50316 0.060928 0.64528 0.049845 0.17915 -0.1783 -0.046118
44 -4.0725 1.6742 0.10197 -0.73575 0.46625 -0.64788 0.24088 -0.01651 0.13788 0.10142 3.9217 1.6427 0.13799 -0.72429 0.46027 -0.63469 0.22312 -0.019155 0.15558 0.11045
45 -4.0536 1.7266 0.28238 -0.58625 -0.02774 -0.79713 -0.19574 -0.13708 0.032507 -0.14002 3.7673 1.6327 0.28702 -0.56317 -0.0034122 -0.74769 -0.16843 -0.12477 0.042967 -0.13461
46 -3.9304 1.2626 0.62295 0.21187 -0.027507 0.32467 0.35627 0.25965 -0.066676 -0.37851 3.8618 1.2472 0.65631 0.17877 -0.018002 0.3205 0.30504 0.2555 -0.076745 -0.34275
47 -3.9315 1.4189 0.40727 0.008318 -0.16245 0.46319 0.45433 0.33106 -0.23117 0.00099451 3.5504 1.2936 0.41073 0.0024828 -0.13084 0.40126 0.38082 0.27515 -0.20078 -0.00068916
48 -3.9782 1.5596 -0.048011 -0.4632 0.52716 -0.15216 0.11725 -0.30551 -0.19287 -0.041404 3.7404 1.489 0.012944 -0.47024 0.48856 -0.157 0.11861 -0.27643 -0.17208 -0.032152
49 -4.0234 1.5157 0.82322 0.23345 -0.27933 0.76072 0.21115 -0.33724 -0.0026654 -0.088742 3.8039 1.446 0.79908 0.20653 -0.26719 0.72064 0.20512 -0.31006 -0.01979 -0.086315
50 -3.9843 1.4789 0.64028 0.31715 -0.74425 0.33353 -0.052486 0.19246 0.40696 0.028258 4.2275 1.5801 0.70384 0.30709 -0.77263 0.34662 -0.049693 0.19726 0.40007 0.015389
51 -4.0913 1.6706 0.86582 0.41422 -0.10516 0.9045 0.21068 -0.072299 -0.065233 -0.10089 4.1299 1.7019 0.89925 0.38846 -0.12343 0.91156 0.21384 -0.067611 -0.093661 -0.10187
52 -4.0922 1.6969 0.84772 0.32712 -0.12464 0.85573 0.20145 0.0040105 -0.043356 -0.036734 4.2001 1.7589 0.89712 0.31458 -0.14273 0.87054 0.20936 0.0088732 -0.075414 -0.04349
53 -3.9297 1.2196 0.62857 0.52978 -0.33006 0.56234 0.091186 0.074288 -0.053507 -0.09342 3.6387 1.1322 0.6285 0.45443 -0.31071 0.52431 0.083702 0.081693 -0.066575 -0.079526
54 -4.0273 1.6339 -0.14012 -0.84034 0.31254 -0.42287 0.11954 -0.063964 -0.24785 0.050813 3.8635 1.5952 -0.084968 -0.80097 0.32389 -0.42127 0.099196 -0.064217 -0.20503 0.060844
55 -3.7911 0.1709 -0.72306 -0.7107 -0.16914 -0.13385 -0.28024 -0.40796 -0.028296 -0.50022 3.6409 0.15485 -0.61392 -0.68505 -0.13483 -0.14948 -0.2765 -0.39261 -0.041699 -0.45635
56 -3.817 0.048215 0.027806 -0.59741 0.38386 0.0016314 -0.17483 0.005186 -0.21614 -0.4677 3.9119 0.024452 0.087432 -0.59923 0.41632 -0.033705 -0.17103 0.03098 -0.21838 -0.45226
57 -3.8321 0.14235 -1.2021 -0.73796 -0.063635 0.26952 -0.28272 -0.19863 -0.43122 -0.16276 3.7409 0.12791 -1.0562 -0.71589 -0.031737 0.24835 -0.28124 -0.18959 -0.41422 -0.12674
58 -3.8211 -0.1526 -1.5468 -0.1771 0.14429 0.31023 0.030349 -0.208 0.19063 -0.31573 3.67 -0.16821 -1.3251 -0.24643 0.12622 0.29024 0.00072874 -0.19153 0.13991 -0.26466
59 -3.8581 -0.3554 0.39327 -0.63659 0.69868 -0.44497 -0.30614 0.29876 -0.21054 0.22245 3.3953 -0.34363 0.38494 -0.55599 0.64399 -0.41915 -0.2704 0.29305 -0.18916 0.21693
60 -3.9614 -1.1531 0.31084 -0.1441 0.31198 0.062059 0.055837 -0.1656 0.053294 0.015328 3.4085 -1.0535 0.31767 -0.12232 0.27705 0.047548 0.058389 -0.11843 0.055207 0.0039721
61 -3.8941 -0.84605 0.19003 -0.10678 0.18852 0.054156 0.023381 -0.25791 0.30504 -0.25911 3.5231 -0.81798 0.23536 -0.11211 0.17924 0.038819 0.028469 -0.21574 0.25796 -0.22257
62 -3.8278 -0.56801 0.092326 -0.30928 0.30092 -0.047479 0.34055 0.080328 0.60175 -0.15145 3.2183 -0.5119 0.12887 -0.26673 0.25943 -0.066805 0.2477 0.077785 0.44738 -0.11062
63 -3.781 0.4939 -0.56932 -0.27743 -0.34058 0.85351 -0.31166 0.4913 -0.14918 -0.059044 3.4691 0.44877 -0.43478 -0.23844 -0.29299 0.75281 -0.27039 0.42546 -0.14282 -0.070171
64 -3.8219 0.0017658 -0.88535 -0.50894 -0.22882 0.56037 -0.65287 0.31506 -0.16972 -0.41272 3.816 -0.019533 -0.78832 -0.49191 -0.22006 0.53798 -0.63614 0.30455 -0.16533 -0.4037
65 -3.8652 -0.78654 -0.49801 -0.57365 0.017951 0.35595 0.028331 -0.30021 -0.11952 -0.25241 3.4622 -0.74357 -0.379 -0.49605 0.031578 0.303 0.023147 -0.26108 -0.12126 -0.20586
66 -3.8147 -0.21331 -0.47693 -0.63749 0.34758 0.3144 0.04699 -0.92483 -0.56617 -0.21359 3.6915 -0.23436 -0.37431 -0.60913 0.35207 0.29136 0.042865 -0.8648 -0.53423 -0.19745
67 -3.8498 0.0077215 -1.3636 -0.77708 0.061866 0.55159 -0.07273 -0.28579 -0.44188 -0.238 3.7417 -0.0080943 -1.1859 -0.73269 0.07826 0.51138 -0.079937 -0.26727 -0.41679 -0.20594
68 -3.8067 0.13033 -0.68742 -0.56998 0.32879 0.59575 -0.41419 0.28943 -0.41059 -0.4203 3.6887 0.11166 -0.5781 -0.54526 0.32679 0.55353 -0.40547 0.28138 -0.39199 -0.38135
69 -3.8518 -0.69592 -0.25183 0.037982 -0.2293 0.22099 0.067334 -0.077246 0.72473 -0.07855 3.6914 -0.71557 -0.15066 0.023687 -0.20849 0.20063 0.060842 -0.060957 0.67544 -0.065047
70 -3.9294 -0.99461 0.09134 -0.25067 0.32714 0.15443 -0.35379 -0.20845 -0.39986 0.34672 3.6042 -0.97064 0.14138 -0.22875 0.30858 0.12607 -0.29129 -0.16238 -0.36701 0.32227
71 -3.8222 0.56383 -0.91809 -0.66068 0.14133 0.74835 -0.16724 0.059931 -0.41042 -0.20417 3.7292 0.55147 -0.79406 -0.62786 0.15349 0.71496 -0.16428 0.047571 -0.38722 -0.18532
72 -3.8183 -0.11215 -0.90329 -0.3351 0.072995 0.45221 -0.62589 0.49391 -0.21442 -0.088016 3.7229 -0.13698 -0.78163 -0.34786 0.07115 0.42527 -0.58984 0.48789 -0.20982 -0.083273
73 -3.7987 0.85925 -0.70969 -0.29066 0.03476 0.032787 0.15813 -0.49397 -0.13787 -6.7012e-05 3.71 0.84608 -0.59271 -0.31059 0.03192 0.02568 0.16208 -0.45465 -0.13277 -0.012425
74 -3.8492 0.12983 -0.87967 -0.33375 0.65234 0.37798 -0.61113 -0.47471 -0.080007 -0.58849 5.0409 0.13406 -1.0056 -0.49968 0.80065 0.4555 -0.70854 -0.57343 -0.10529 -0.71753
75 -3.8777 -0.77075 0.14549 -0.45171 0.10592 -0.21034 0.29764 -0.7215 -0.28421 -0.29259 3.5086 -0.7423 0.17823 -0.39523 0.10899 -0.1907 0.26594 -0.64354 -0.25299 -0.25026
76 -3.8199 0.034161 -1.0492 -0.72393 -0.031324 0.25229 -0.4674 0.037129 -0.50657 -0.084701 3.6105 0.017265 -0.88914 -0.6733 -0.0063434 0.21948 -0.43253 0.04634 -0.47288 -0.055125
77 -3.823 -0.5883 -0.52535 -0.37551 0.27691 -0.38025 0.091647 -0.19359 0.44755 0.20134 3.51 -0.57255 -0.39383 -0.37098 0.27265 -0.36797 0.074781 -0.16908 0.37616 0.16679
78 -3.8213 -0.33155 -1.5768 0.29462 0.28106 0.11791 0.051082 -0.044889 0.46419 -0.10403 4.1381 -0.39885 -1.4855 0.16947 0.27467 0.13122 0.021289 -0.047252 0.45734 -0.08271
79 -3.7749 -0.25213 -1.2106 -0.25292 -0.15999 0.02076 0.22175 0.30496 0.097039 0.1103 3.2839 -0.23969 -0.90953 -0.23988 -0.11726 0.0049981 0.1536 0.22916 0.066772 0.075767
80 -3.7945 0.13005 0.19968 -0.051866 -0.23417 -0.036263 -0.30284 0.67515 -0.29536 -0.21521 3.5072 0.098488 0.2382 -0.051491 -0.19184 -0.036732 -0.29356 0.63141 -0.26406 -0.18059
81 -3.8788 -0.62052 -0.20687 0.0022312 0.60045 0.34003 -0.68952 0.18224 -0.32336 -0.38938 4.1643 -0.72469 -0.1422 -0.042791 0.61144 0.35821 -0.67198 0.22934 -0.34049 -0.45111
82 -3.8292 -0.11857 -0.90563 -0.24842 -0.15359 0.58453 -0.058553 0.68873 -0.76783 -0.27953 3.911 -0.14937 -0.8209 -0.25773 -0.15199 0.59852 -0.083625 0.67791 -0.75768 -0.28058
83 -3.8801 0.80952 0.84101 0.49546 0.13216 0.48912 0.29136 0.059095 0.36715 -0.16092 3.7861 0.78043 0.87602 0.43965 0.12525 0.48488 0.2836 0.066995 0.34816 -0.13951
84 -3.9768 1.2756 0.69083 0.069584 -0.24557 1.0508 0.11135 0.24954 -0.085476 0.096389 3.9825 1.2843 0.73076 0.08566 -0.23166 1.0311 0.10557 0.23283 -0.11048 0.085707
85 -4.0487 1.5351 0.90592 0.4295 -0.27813 0.74505 0.29848 -0.26765 0.0054105 0.12542 4.028 1.5426 0.92487 0.40016 -0.28029 0.7427 0.29861 -0.25651 -0.015209 0.12244
86 -3.8172 -0.21215 -0.076703 0.61809 -0.66638 -0.14389 0.14263 0.54541 -0.23808 0.1878 3.6964 -0.23932 0.013782 0.56892 -0.63845 -0.12081 0.1406 0.53369 -0.2155 0.15631
87 -3.7907 -0.10327 -0.22704 0.88936 -0.63701 -0.25457 0.33238 0.3824 0.088254 0.21614 3.6261 -0.13353 -0.10461 0.76426 -0.60003 -0.21407 0.28894 0.36406 0.069943 0.1973
88 -3.8886 -0.62609 0.43958 0.57201 0.09716 0.19475 -0.080892 -0.26856 -0.75666 0.67671 3.8899 -0.68763 0.51207 0.51741 0.088593 0.23952 -0.072552 -0.27153 -0.72261 0.68206
89 -3.7477 0.047436 -0.53299 0.92177 -0.075215 -0.61998 -0.16228 0.071548 0.25391 0.15603 3.6441 0.0061858 -0.3865 0.71739 -0.10803 -0.57621 -0.13565 0.096506 0.19448 0.12353
90 -4.1124 0.68421 -1.6467 2.5633 0.67006 -0.3353 -0.18206 -0.23823 0.26146 0.030701 4.8724 0.75292 -1.6155 2.5521 0.61272 -0.29737 -0.16095 -0.22151 0.29619 0.042173
91 -3.7906 0.048403 -1.5178 1.4732 -0.022763 -0.32062 0.47404 0.034542 0.18594 -0.19443 3.8157 0.0086502 -1.2854 1.2251 -0.088924 -0.25484 0.44053 0.046632 0.17375 -0.1978
92 -3.9561 -0.18378 -0.3627 2.3185 1.3666 -0.34215 -0.72203 -0.3081 0.021092 0.16813 4.6513 -0.30914 -0.19313 2.2904 1.4323 -0.3104 -0.76238 -0.29907 0.003679 0.23026
93 -3.9895 -0.9875 0.74055 -0.22815 0.61096 -0.30668 0.058179 -0.095214 0.086515 0.20224 3.7077 -0.97764 0.72832 -0.22455 0.59004 -0.30133 0.058537 -0.071303 0.070871 0.18318
94 -3.8208 0.82603 -0.19053 -0.30363 0.23008 -0.84414 0.84604 -0.21082 -0.025598 -0.10327 3.7226 0.80427 -0.099061 -0.34561 0.24572 -0.80322 0.7441 -0.2244 -0.007126 -0.10031
95 -3.8269 0.44608 0.41336 -0.48493 0.38557 0.22579 0.87023 -0.70778 0.047143 0.078148 4.0474 0.46014 0.48622 -0.48943 0.44431 0.25091 0.87005 -0.75658 0.096088 0.11086
96 -3.9516 -0.68193 0.70462 -0.50173 0.78691 -0.69493 0.18946 -0.060854 0.18145 -0.1466 3.9974 -0.73796 0.7528 -0.51235 0.83083 -0.73612 0.18714 -0.043563 0.18063 -0.15031
97 -3.8337 0.31769 0.065317 0.029853 -1.3069 -0.88705 -0.65934 -0.20378 0.48002 0.28303 3.7522 0.30779 0.12647 -0.0078675 -1.2214 -0.8613 -0.61473 -0.17086 0.44094 0.23204
98 -3.906 -0.78049 0.578 0.28553 -0.23442 0.084983 0.072385 0.22588 -0.079192 0.0033177 3.4201 -0.73744 0.55701 0.23515 -0.19083 0.09018 0.053871 0.19889 -0.071833 0.023103
99 -3.9516 1.2435 0.53036 0.14282 -0.86423 0.83609 -0.10865 0.30825 0.10977 -0.043726 4.099 1.2984 0.58257 0.17066 -0.86463 0.85261 -0.10528 0.29437 0.095095 -0.060325
100 -3.8844 0.69887 0.55683 0.17593 -1.5214 -0.40652 -0.50008 0.055291 0.16473 -0.23955 3.8178 0.6866 0.57247 0.17204 -1.4347 -0.38609 -0.48572 0.073135 0.16711 -0.2408
101 -3.8486 -0.42818 0.02897 -0.3341 -0.65606 0.3046 -0.28579 -0.14666 1.082 0.27066 4.0277 -0.48299 0.093365 -0.31513 -0.63647 0.30156 -0.31249 -0.15703 1.1232 0.28831
102 -3.9725 1.4594 -0.29958 -0.58518 0.24106 -0.31612 0.57046 -0.35184 -0.18533 -0.027347 4.425 1.6547 -0.25661 -0.66299 0.28418 -0.35396 0.60031 -0.39585 -0.17838 -0.034972
103 -3.8597 0.25929 -1.2571 -1.0938 0.16675 0.036116 -0.16298 0.22476 0.2408 0.26693 4.226 0.28705 -1.2387 -1.1717 0.23539 -0.015423 -0.21797 0.23052 0.24202 0.30116
104 -3.8033 0.27497 0.31746 1.0173 -0.25083 0.076943 0.52934 0.3299 0.065107 -0.18851 3.6998 0.23998 0.41623 0.87709 -0.23813 0.12121 0.44991 0.32522 0.033793 -0.13515
105 -3.8294 0.18027 0.5054 0.45004 -0.95885 0.13765 0.3573 -0.69304 0.3045 0.02293 3.9674 0.17 0.57768 0.44367 -0.95471 0.17596 0.35713 -0.70581 0.32179 0.043849
106 -4 1.4196 0.389 0.11135 -0.33576 1.1276 0.1359 0.23313 -0.13811 0.12472 4.2437 1.525 0.46787 0.13492 -0.35034 1.1746 0.15028 0.22858 -0.16893 0.10401
107 -4.0066 -1.2863 0.26663 -0.15835 0.31253 0.22836 -0.19964 0.20679 0.25786 -0.021039 3.7311 -1.2717 0.30473 -0.14875 0.29996 0.19778 -0.17458 0.20048 0.23019 -0.044639
108 -3.84 -0.45064 -1.0033 -0.17679 -0.50962 0.16796 0.010554 0.42371 0.4008 0.40566 3.8633 -0.48053 -0.89822 -0.18396 -0.48584 0.15632 0.0020762 0.41367 0.36742 0.36601
109 -3.9189 -0.89481 0.47189 0.10505 -0.25192 0.18615 -0.053155 0.1115 -0.1005 -0.16166 3.4814 -0.85158 0.4678 0.086105 -0.20854 0.17725 -0.042012 0.10537 -0.079319 -0.13122
110 -3.9693 -1.1356 0.28203 -0.25017 0.3758 0.065658 -0.26169 0.10955 -0.06986 0.20931 3.5754 -1.0856 0.29851 -0.22997 0.35186 0.0509 -0.23007 0.11549 -0.069716 0.18539
111 -3.8461 -0.51375 -1.0844 -0.5883 -0.17752 0.36743 -0.19826 0.14849 0.73531 0.18931 3.65 -0.51555 -0.91136 -0.55281 -0.14097 0.30824 -0.2086 0.11789 0.63252 0.15534
112 -3.8407 -0.20834 -1.3867 -0.70281 -0.11881 0.54576 0.051254 0.091549 0.34264 0.080035 3.6097 -0.21182 -1.1667 -0.6408 -0.083937 0.47142 0.026593 0.066898 0.28022 0.06514
113 -3.8119 -0.37472 -0.60584 -0.41888 -0.43636 -0.24671 0.21435 -0.0207 0.30953 0.077455 3.5967 -0.3728 -0.49467 -0.38653 -0.37897 -0.25206 0.18326 -0.013163 0.26434 0.072034
114 -3.9099 -0.6172 0.82332 0.3309 -0.11887 0.44937 0.0034578 -0.14738 -0.44216 0.68642 3.7115 -0.6349 0.82772 0.31465 -0.08482 0.45382 -0.0023237 -0.14012 -0.40858 0.66876
115 -3.9179 -0.7234 0.72747 0.18053 -0.30638 0.42014 0.014933 -0.58663 -0.43004 0.92349 3.8589 -0.76037 0.75087 0.19188 -0.25845 0.44477 0.024968 -0.55919 -0.39303 0.89548
116 -3.8598 0.7175 -0.012581 -0.7763 0.46096 -0.25786 0.022927 0.47485 0.10892 -0.074949 4.0395 0.75711 0.050072 -0.81081 0.53003 -0.31841 -0.015246 0.50832 0.08717 -0.064813
117 -3.837 0.56708 0.28669 0.06419 -1.2099 -0.29805 -0.46177 0.034987 -0.056285 -0.35524 3.7506 0.55109 0.31932 0.073608 -1.1442 -0.28288 -0.44265 0.049781 -0.043007 -0.34124
118 -3.8105 -0.082784 -0.052091 0.22605 -1.0161 -0.60348 -0.22845 0.46566 0.16952 0.058621 3.5932 -0.10107 0.023307 0.18666 -0.926 -0.56391 -0.21954 0.43201 0.14719 0.03417
119 -3.9134 -0.82933 0.4438 0.34657 0.26255 -0.081942 0.26024 0.10657 0.31332 -0.36175 3.6241 -0.82519 0.48903 0.27993 0.25163 -0.06708 0.22528 0.10412 0.28108 -0.33467
120 -3.9236 -0.6991 0.82056 0.51315 -0.014647 0.17061 0.21569 0.27877 -0.13113 -0.18075 3.6153 -0.70219 0.81515 0.44943 -0.0011575 0.18231 0.18702 0.26013 -0.10885 -0.14723
121 -3.8138 -0.18091 0.32199 0.85304 -0.6195 -0.16362 0.11364 0.27123 0.10439 -0.31333 3.5085 -0.20351 0.38622 0.70096 -0.54967 -0.1173 0.068192 0.25703 0.06924 -0.25575
122 -3.856 -0.49165 0.23083 -0.029459 -0.6933 -0.37823 0.30668 -0.29239 -0.42013 -0.33849 3.9181 -0.54189 0.28531 -0.028932 -0.67529 -0.36312 0.27546 -0.32261 -0.40495 -0.32002
123 -3.9345 1.1399 0.6283 0.36774 -0.45647 0.51894 0.44852 0.3543 0.1114 -0.37947 4.3713 1.2701 0.75094 0.38756 -0.48367 0.57886 0.46313 0.37813 0.11136 -0.40576
124 -3.952 -1.0209 0.28651 -0.20325 0.21365 0.041101 0.25875 -0.35743 -0.02494 -0.26193 3.8939 -1.0734 0.33786 -0.20115 0.22774 0.03053 0.24896 -0.34071 -0.031164 -0.25716
125 -3.9196 -0.92009 0.22838 -0.068521 -0.12129 -0.16595 0.19298 0.25334 0.2486 -0.17037 3.7442 -0.93592 0.28728 -0.064379 -0.089895 -0.16526 0.15556 0.24644 0.21988 -0.15009
126 -3.9929 -1.1555 0.63438 0.11434 0.21896 0.015034 -0.16755 0.13375 -0.12914 -0.17829 3.5591 -1.0972 0.61131 0.0909 0.20849 0.016711 -0.14639 0.13561 -0.11281 -0.16276
127 -3.9288 -0.89084 0.45677 0.096188 0.17797 0.090645 -0.15606 0.21032 0.09685 -0.28584 3.6877 -0.89562 0.4834 0.076577 0.17251 0.078017 -0.13449 0.21061 0.087682 -0.27161
128 -3.8213 -0.33584 -0.26521 0.21445 -0.81857 -0.30797 0.10459 0.36876 -0.28857 0.22727 3.7395 -0.35881 -0.18115 0.19824 -0.7758 -0.28943 0.084514 0.36634 -0.27051 0.20517
129 -3.8635 -0.62874 -0.27273 -0.18368 -0.085816 0.037919 0.62008 -0.38757 0.74613 -0.17213 4.2163 -0.72824 -0.21283 -0.21165 -0.070248 0.020651 0.64104 -0.41486 0.79142 -0.18763
130 -3.8706 -0.55429 0.62305 0.43773 -0.36876 -0.11878 0.0014268 0.045539 -0.048692 0.001486 3.4186 -0.53661 0.60194 0.35962 -0.30848 -0.084692 -0.0039265 0.065779 -0.044536 0.0092652
131 -3.8259 -0.12017 0.27885 0.28879 -0.77447 -0.18631 0.003909 0.58508 -0.21976 -0.27101 3.7357 -0.14962 0.33573 0.27764 -0.7284 -0.16734 -0.026437 0.57088 -0.2018 -0.2542
132 -3.9266 -0.67279 0.54744 0.63692 -0.25853 -0.13848 0.12843 0.35413 0.14718 -0.48691 4.3502 -0.81614 0.6958 0.64404 -0.26676 -0.12698 0.10213 0.4058 0.15231 -0.49972
133 -4.0012 -1.1978 0.59735 0.19922 0.19815 -0.096155 0.0088059 0.19704 0.23126 -0.15085 3.612 -1.1515 0.59264 0.15966 0.18904 -0.083577 0.0021387 0.19101 0.20617 -0.1364
134 -3.9487 -1.0379 0.41273 0.33751 0.082146 -0.053034 -0.036026 0.16289 0.052783 -0.36215 3.7231 -1.0434 0.44684 0.28689 0.080426 -0.041975 -0.02284 0.1556 0.054028 -0.33184
135 -3.9726 -1.0896 0.63702 0.15822 0.03409 0.0037764 -0.10453 0.23759 -0.058985 -0.091316 3.4495 -1.0089 0.59601 0.12521 0.044553 0.0086758 -0.097588 0.21263 -0.051648 -0.069412
136 -3.8642 0.079444 0.14683 0.035807 -1.5991 -0.61276 -0.54608 -0.35909 -0.11808 -0.45662 3.8477 0.063802 0.1951 0.038139 -1.5276 -0.59011 -0.5278 -0.31219 -0.088406 -0.46091
137 -3.8848 0.103 0.49348 0.44834 -1.5959 -0.65123 -0.37343 -0.36682 0.029117 0.011064 3.9879 0.089285 0.54886 0.42974 -1.5739 -0.63996 -0.37553 -0.33734 0.046332 -0.012721
138 -3.9543 -1.0744 0.27736 0.076231 0.30975 -0.071009 -0.094104 0.19865 0.0018303 0.084673 3.5307 -1.0255 0.31571 0.032692 0.2865 -0.064355 -0.091657 0.18424 -0.019776 0.077951
139 -3.9163 -0.83658 0.35964 0.029761 0.068285 0.03325 -0.18024 0.16277 -0.1027 0.29044 3.7567 -0.85783 0.40337 0.013731 0.076098 0.02141 -0.1735 0.16228 -0.12573 0.27902
140 -4.0035 -1.1627 0.66728 0.079923 0.16593 -0.088703 0.12764 0.16183 0.13839 -0.40552 3.7989 -1.1744 0.68262 0.070368 0.17597 -0.083228 0.10873 0.16009 0.12562 -0.37731
141 -3.8833 0.4601 0.78562 -0.11392 0.20331 0.89954 0.65675 0.098 0.72416 -0.1341 4.7147 0.54377 0.98901 -0.097377 0.27336 1.0807 0.74898 0.10345 0.87641 -0.11439
142 -3.8777 1.1758 0.21209 0.58281 -0.18297 -0.45879 0.17175 0.31268 0.42567 0.36519 4.2398 1.2898 0.31302 0.51032 -0.19588 -0.50339 0.17206 0.34869 0.42128 0.40617
143 -3.8554 -0.34892 0.58442 -0.095366 -0.27045 0.56499 0.32468 -1.0544 -0.34985 0.38033 3.8003 -0.37809 0.6092 -0.066152 -0.2315 0.57859 0.32145 -1.0463 -0.31938 0.38942
144 -3.9047 1.1169 -0.90078 0.31678 0.24189 -1.2993 1.4221 0.25575 -0.53769 0.056637 4.597 1.3204 -0.86145 0.18346 0.29397 -1.4675 1.5103 0.26725 -0.6021 0.083386
145 -3.9458 -1.0174 0.48307 0.87033 0.55806 0.041837 -0.39484 -0.033958 -0.095845 0.16941 3.4285 -0.95136 0.4898 0.64003 0.43802 0.058059 -0.27534 0.0044555 -0.094558 0.12006
146 -3.9202 0.62539 0.47355 -0.15317 -1.5921 -0.9726 -0.56526 -0.42588 0.039411 -0.32745 4.104 0.66203 0.51305 -0.14733 -1.5929 -1.0107 -0.57672 -0.41549 0.059245 -0.36898
147 -3.8539 0.33202 0.40241 -0.28191 -1.1373 -0.97836 -0.23302 -0.38026 -0.17629 -0.74919 3.8865 0.32615 0.42911 -0.26749 -1.0914 -0.97582 -0.24424 -0.3755 -0.15719 -0.75935
148 -3.8085 0.13158 -0.42178 -0.080882 -0.36562 0.37905 0.65117 0.94015 -0.92959 0.079948 4.2394 0.12893 -0.36124 -0.071064 -0.36472 0.43195 0.65815 0.99806 -1.0083 0.086014
149 -3.852 0.22616 0.46957 -0.12752 -1.2432 -0.35215 -0.18492 -0.7366 -0.047147 -0.46394 3.9875 0.22419 0.50982 -0.10496 -1.2363 -0.34573 -0.18481 -0.76895 -0.031153 -0.47467
150 -3.826 0.11866 0.08471 0.51054 -1.3164 -0.47509 -0.26657 0.3715 -0.061589 -0.0075558 3.6541 0.094511 0.14499 0.45331 -1.2219 -0.42485 -0.24609 0.35842 -0.061145 -0.03261
151 -3.8247 -0.11628 -1.5931 -0.19745 -0.24436 0.049223 0.1729 -0.32127 -0.52956 0.066793 3.7267 -0.13395 -1.3714 -0.26283 -0.21256 0.078517 0.11266 -0.31054 -0.50145 0.049275
152 -3.9615 -1.0307 0.5142 0.026275 0.1785 -0.23306 -0.15157 0.20807 -0.078166 -0.17655 3.6389 -1.0106 0.52007 0.0057007 0.1744 -0.2157 -0.13723 0.20914 -0.081109 -0.16246
153 -3.9101 0.038487 -1.5657 -0.70026 -0.44129 0.13191 -0.36776 -0.39287 -0.74794 -0.28627 4.3701 0.026519 -1.5882 -0.78884 -0.44825 0.1536 -0.4301 -0.42673 -0.81607 -0.28571
154 -3.8844 0.062952 -1.3022 -0.53734 -0.98082 -0.14847 -0.60425 -0.45263 -0.67499 -0.42814 4.3396 0.054998 -1.3169 -0.60592 -1.0389 -0.14973 -0.67972 -0.48579 -0.72964 -0.46164
155 -3.8491 -0.60195 -1.0903 -0.47511 -0.28905 0.21493 -0.24158 0.22034 0.24406 0.39736 3.683 -0.60783 -0.9228 -0.45634 -0.23986 0.17919 -0.24314 0.17681 0.18737 0.3537
156 -3.8513 -0.15284 -1.2637 -0.62363 -0.064262 0.58423 -0.010526 -0.028465 -0.2233 -0.10992 3.9363 -0.17817 -1.1579 -0.63534 -0.037868 0.5887 -0.042174 -0.04458 -0.23802 -0.096682
157 -3.876 -0.73553 -0.84679 -0.4502 -0.29825 0.3616 -0.09249 -0.20673 0.68509 0.34393 4.0265 -0.80658 -0.76224 -0.46498 -0.27651 0.35772 -0.12814 -0.21687 0.68555 0.35602
158 -3.8659 -0.20486 -1.4314 -0.54832 0.091712 0.38049 0.18421 -0.45568 -0.23669 -0.22258 4.4156 -0.25916 -1.4617 -0.64422 0.11963 0.41585 0.17492 -0.52922 -0.2906 -0.24226
159 -3.8423 -0.41918 -1.1623 -0.29862 0.11629 0.15665 0.35605 0.12221 0.39649 -0.2582 4.5136 -0.52935 -1.1989 -0.39192 0.14804 0.15219 0.35066 0.12911 0.41726 -0.29307
160 -3.8632 -0.5805 -1.1901 -0.31096 -0.13728 0.17954 0.55437 -0.36661 0.58722 -0.073412 4.1133 -0.64892 -1.1258 -0.36519 -0.13029 0.17514 0.53826 -0.38796 0.56676 -0.069918
161 -3.8313 -0.56343 -1.295 0.31982 0.047617 -0.058707 0.4157 -0.02679 0.76693 -0.041293 3.9965 -0.63028 -1.1698 0.19889 0.041495 -0.053175 0.36558 -0.036105 0.73699 -0.038665
162 -3.8477 -0.58565 -0.3127 -0.36741 0.0052158 -0.2444 0.3976 -0.93288 -0.41112 0.37397 3.8559 -0.62158 -0.23617 -0.37397 0.043805 -0.24323 0.37712 -0.87539 -0.40026 0.34453
163 -4.0151 -1.2284 0.54286 0.076438 0.37453 -0.15942 -0.083677 0.066051 -0.2122 0.4628 3.7788 -1.2298 0.55929 0.045453 0.3691 -0.15333 -0.076672 0.083649 -0.20546 0.43306
164 -4.0343 -1.3104 0.49927 -0.074531 0.43855 -0.11296 -0.20185 0.1712 0.044646 0.16572 3.7267 -1.2855 0.51101 -0.082811 0.42096 -0.11149 -0.17978 0.17674 0.037283 0.14736
165 -4.0042 -1.2375 0.47834 -0.076577 0.31444 -0.076286 -0.095405 0.11204 -0.081086 0.18803 3.6445 -1.1942 0.4847 -0.072958 0.30382 -0.081617 -0.080239 0.10891 -0.08485 0.15874
166 -3.9464 -1.0684 0.1449 -0.23351 0.16185 0.11501 -0.15185 0.032917 0.22131 0.32394 3.678 -1.0546 0.19051 -0.21848 0.16538 0.092117 -0.1321 0.044907 0.19014 0.28387
167 -3.987 -1.1433 0.44151 -0.18951 0.24968 0.11441 -0.071076 0.15242 -0.33073 -0.1089 3.7237 -1.1364 0.45412 -0.16805 0.24792 0.098365 -0.061248 0.14747 -0.30833 -0.093018
168 -3.9788 -1.1745 0.48777 -0.077018 0.29356 -0.31522 0.15452 -0.18581 -0.056568 -0.14867 3.6127 -1.1275 0.48295 -0.083022 0.28019 -0.29036 0.14397 -0.14481 -0.053477 -0.1529
169 -4.0091 -1.1821 0.38637 -0.35301 0.2377 0.081166 0.024784 0.21768 -0.35521 0.012111 3.9974 -1.2504 0.42879 -0.33722 0.2641 0.067165 0.02421 0.22278 -0.35527 0.014711
170 -4.0148 -1.2029 0.6866 0.15716 0.2289 -0.042853 -0.10582 0.23472 0.0025463 0.05843 3.6032 -1.1493 0.66408 0.12249 0.22218 -0.033201 -0.097463 0.22045 -0.0033962 0.065737
171 -3.9613 -1.159 0.049755 0.017112 0.33597 -0.044867 0.026495 -0.051595 0.29888 0.27002 3.863 -1.1955 0.14159 -0.033351 0.35622 -0.043612 -0.010455 -0.022616 0.25642 0.28537
172 -3.9988 -1.2257 0.41821 0.062451 0.21996 -0.084259 -0.11543 0.3075 0.086693 0.24818 3.6412 -1.1856 0.44413 0.047077 0.21832 -0.080027 -0.10732 0.28799 0.069033 0.21829
173 -4.0009 -1.2327 0.34372 -0.095982 0.35807 -0.058504 0.0021562 0.21067 -0.026372 0.094722 3.6997 -1.2105 0.38338 -0.099969 0.3476 -0.064717 -0.0029888 0.2027 -0.035362 0.076915
174 -3.951 -1.175 0.045197 -0.28987 0.21004 0.1248 0.06629 -0.27351 -0.3921 0.1155 3.4431 -1.0822 0.10378 -0.24862 0.20178 0.10599 0.055262 -0.22505 -0.33289 0.093097
175 -4.0158 -1.2849 0.47732 -0.1528 0.38513 -0.0095155 -0.12129 0.073911 -0.048533 -0.044404 3.5471 -1.2041 0.4644 -0.13762 0.3534 -0.015675 -0.10088 0.079437 -0.045024 -0.041529
176 -3.8822 -0.80941 -0.12585 -0.41371 -0.16115 0.3221 -0.27455 -0.16253 -0.0029877 1.0069 3.7686 -0.82581 -0.060642 -0.37689 -0.10965 0.30483 -0.25678 -0.14746 -0.016847 0.93192
177 -4.0292 -1.2581 0.51043 -0.10547 0.5533 -0.24285 -0.15894 0.10322 0.089424 0.12882 3.8765 -1.2849 0.54156 -0.1233 0.5439 -0.24728 -0.14082 0.12426 0.080146 0.11535
178 -4.0227 -1.2196 0.56659 -0.10672 0.49327 -0.17213 -0.18627 -0.041772 -0.13376 0.15468 3.8894 -1.2523 0.59447 -0.1228 0.48937 -0.17393 -0.16386 -0.023825 -0.13825 0.1415
179 -4.0372 -1.2503 0.66384 0.024857 0.3871 -0.096735 -0.35483 0.22968 -0.066983 0.13192 3.845 -1.2677 0.67732 0.0052944 0.38075 -0.094464 -0.32678 0.24287 -0.068603 0.1229
180 -3.9971 -1.206 0.56135 0.020013 0.2372 -0.040698 -0.08135 0.073906 -0.19805 0.31896 3.6172 -1.1584 0.55042 0.007801 0.22737 -0.035965 -0.068685 0.082542 -0.18142 0.27967
181 -3.9271 -0.95121 0.2566 -0.035297 0.1225 0.12254 0.0087347 -0.20522 -0.29033 0.47379 3.7687 -0.9686 0.31003 -0.043322 0.1304 0.11741 0.0073569 -0.18916 -0.28903 0.44086
182 -3.9406 -0.85702 0.73726 0.18477 0.18411 -0.078242 0.23449 0.020322 0.17378 -0.29711 3.6678 -0.85251 0.73284 0.15736 0.17834 -0.063772 0.21826 0.033414 0.15979 -0.26766
183 -3.9446 -1.0616 0.14197 -0.20134 0.27724 -0.12035 0.070488 0.024065 -0.16662 -0.034524 3.6905 -1.0543 0.19756 -0.19614 0.2723 -0.12989 0.06806 0.026954 -0.16295 -0.046452
184 -3.8807 -0.79239 -0.036966 -0.53137 -0.58501 0.024976 -0.16491 -0.90568 0.41923 0.24608 3.7479 -0.80461 0.011025 -0.48138 -0.52324 0.012891 -0.15732 -0.85284 0.37719 0.22347
185 -4.0544 -1.4179 0.54065 -0.042992 0.38652 0.018327 -0.030718 0.11981 0.084938 -0.0571 3.6985 -1.3719 0.53886 -0.047366 0.36133 0.01282 -0.022967 0.12283 0.075706 -0.062122
186 -3.885 -0.8654 0.062267 -0.31302 -0.17152 0.16837 0.64473 -0.91259 0.25497 0.3783 3.5467 -0.82803 0.10419 -0.26354 -0.12893 0.15359 0.55592 -0.79753 0.22239 0.33519
187 -4.025 -1.3263 0.54036 -0.037072 0.22493 0.039642 -0.10382 0.092121 0.20083 0.0093672 3.5479 -1.2409 0.52007 -0.034098 0.21129 0.03142 -0.085414 0.091865 0.17197 0.0027843
188 -4.0327 -1.3317 0.64107 0.027461 0.26745 -0.038806 -0.025937 0.089339 0.19281 -0.31417 3.6381 -1.2739 0.62011 0.019384 0.24916 -0.035346 -0.02227 0.099943 0.17367 -0.29359
189 -3.9751 -1.2648 -0.0046117 -0.35904 0.20974 0.14883 0.080714 0.098965 0.19264 -0.081585 3.6042 -1.2112 0.064921 -0.31103 0.21231 0.11438 0.068425 0.08062 0.16047 -0.095651
190 -4.0377 -1.3585 0.4396 -0.23852 0.23793 0.17478 0.10629 0.13552 -0.23722 -0.067012 3.8309 -1.3655 0.45799 -0.21125 0.24392 0.15936 0.098279 0.12981 -0.22472 -0.064143
191 -4.0868 -1.4834 0.61187 0.091897 0.44701 -0.00083499 -0.10469 0.13684 0.055121 -0.069589 3.9504 -1.5228 0.64401 0.068313 0.43758 -0.0010831 -0.085674 0.15337 0.055317 -0.090592
192 -4.0388 -1.312 0.67072 0.076279 0.28838 -0.012133 -0.01941 0.16703 0.023345 -0.078044 3.6524 -1.2616 0.65138 0.062821 0.27132 -0.0097662 -0.012646 0.16523 0.020884 -0.076283
193 -4.0486 -1.3955 0.52768 -0.15243 0.2623 0.019878 -0.012764 0.065113 -0.012446 -0.098307 3.7788 -1.3807 0.53701 -0.13312 0.26351 0.015954 -0.013728 0.069752 -0.0065659 -0.097889
194 -3.9467 -0.95292 0.2 -0.23192 0.31302 0.19519 -0.32358 0.39516 0.036874 -0.22357 3.8647 -0.99947 0.24935 -0.22091 0.32375 0.1793 -0.32472 0.41291 0.03622 -0.221
195 -3.982 -1.1764 0.38989 -0.12985 0.18477 0.20394 0.1108 -0.43461 -0.31757 0.067156 3.7504 -1.175 0.41142 -0.12478 0.18085 0.19492 0.12632 -0.39411 -0.2991 0.043295
196 -4.072 -1.3376 0.74771 -0.096649 0.41687 -0.23994 0.1793 0.13172 0.059576 -0.26759 4.1179 -1.4368 0.79822 -0.094965 0.44372 -0.24805 0.18135 0.15011 0.066411 -0.28791
197 -4.0442 -1.3719 0.5908 -0.011083 0.31763 -0.065229 -0.021606 0.13965 0.10526 -0.125 3.6205 -1.3033 0.57346 -0.016013 0.29609 -0.061893 -0.013702 0.13699 0.093179 -0.12327
198 -4.0603 -1.3842 0.6444 -0.008781 0.40563 -0.059941 -0.037532 0.11013 0.014238 -0.026359 3.7486 -1.3575 0.64163 -0.019808 0.38623 -0.056198 -0.025737 0.11742 0.013904 -0.036443
199 -3.9979 -1.2929 0.26323 -0.34556 0.08638 0.1905 0.20565 -0.18883 -0.019132 -0.021061 3.71 -1.2668 0.28872 -0.29916 0.10359 0.1629 0.18836 -0.17858 -0.023036 -0.03304
200 -3.9788 -1.0428 0.65258 0.27124 -0.039253 -0.085721 -0.21487 0.27394 -0.0065786 0.31721 3.7164 -1.0412 0.66846 0.22824 -0.010886 -0.057018 -0.19069 0.26291 -0.018408 0.28202
201 -4.0312 -1.3278 0.52373 -0.2597 0.14352 0.13352 0.093623 -0.38897 -0.048218 0.25331 3.8238 -1.3332 0.53579 -0.22576 0.16316 0.12782 0.092223 -0.36376 -0.040788 0.23927
202 -4.0543 -1.3336 0.63071 0.10331 0.45753 -0.16117 -0.12268 0.12395 0.089381 0.02412 3.9409 -1.3776 0.66553 0.076216 0.45057 -0.15745 -0.10572 0.1448 0.085004 0.013532
203 -3.8813 -0.73543 0.10671 0.74405 -0.37147 -0.3744 0.095099 -0.16816 -0.58215 0.71082 3.9196 -0.79906 0.18293 0.66529 -0.3652 -0.34624 0.10355 -0.12564 -0.58281 0.68059
204 -3.9959 -1.1558 0.64775 -0.11864 -0.09281 -0.27956 0.084202 -0.21221 -0.034471 -0.68318 3.7911 -1.1649 0.65017 -0.1002 -0.066527 -0.26345 0.075206 -0.19607 -0.033896 -0.63868
205 -3.957 -0.87005 0.73642 0.090169 -0.22808 -0.4026 -0.16218 -0.15509 -0.12051 -0.70137 4.0828 -0.96153 0.79495 0.093984 -0.21788 -0.40414 -0.1712 -0.15847 -0.12039 -0.70846
206 -3.9288 -0.93602 0.4623 0.50183 -0.079119 -0.23559 0.20587 0.28639 -0.1729 -0.12248 3.4852 -0.89417 0.47378 0.40327 -0.062507 -0.18697 0.16465 0.25652 -0.15333 -0.11001
207 -4.0262 -1.223 0.50896 -0.26505 0.37896 -0.16334 0.15708 -0.067842 0.091926 -0.064114 4.3031 -1.388 0.58891 -0.27345 0.42377 -0.19538 0.15686 -0.063547 0.084336 -0.067813
208 -4.0072 -1.1928 0.56005 -0.081233 0.15934 -0.20415 0.24701 -0.01987 0.38574 -0.68553 4.0958 -1.2869 0.61671 -0.076202 0.18034 -0.21743 0.23838 -0.013433 0.38037 -0.6986
209 -3.9208 -0.8868 -0.11486 -0.49067 -0.058192 -0.097487 0.33613 0.037337 0.43503 -0.49343 4.3479 -1.034 -0.071291 -0.51529 -0.041393 -0.14099 0.3554 0.045863 0.46397 -0.54719
210 -3.9409 -0.9743 0.22837 -0.06594 -0.020188 0.22447 0.31738 0.39054 -0.80664 -0.029366 3.8857 -1.0241 0.27583 -0.058506 0.0026032 0.22568 0.2961 0.37177 -0.76647 -0.05171
211 -3.9526 -0.97808 0.30682 -0.3437 0.38115 -0.27203 0.4521 -0.41435 0.30829 -0.070329 4.0821 -1.0681 0.36997 -0.35211 0.4173 -0.30248 0.46539 -0.42617 0.30753 -0.085784
212 -3.8974 -0.74844 0.20399 0.039852 0.00012168 0.19824 0.6679 -0.43176 0.23137 -0.46585 4.1224 -0.84677 0.29085 0.017837 0.016368 0.21827 0.68599 -0.45856 0.22145 -0.49023
213 -3.88 -0.17641 -1.3105 -0.66314 -0.43234 0.86738 -0.028937 0.60705 0.58329 0.45017 4.2539 -0.20955 -1.2757 -0.67269 -0.41834 0.87813 -0.057193 0.57489 0.57122 0.43446
214 -4.0416 -1.3603 0.46798 0.020829 0.23802 0.24701 -0.04687 0.16623 -0.26245 -0.10812 3.8704 -1.384 0.49832 0.011739 0.23224 0.24203 -0.02718 0.16851 -0.24399 -0.12113
215 -3.8884 -0.1814 -1.6879 -0.56999 -0.18788 0.33202 0.18201 -0.070802 -0.21042 0.0080834 4.4469 -0.2291 -1.736 -0.66201 -0.18462 0.36699 0.16374 -0.10005 -0.24405 0.0024553
216 -3.9324 -0.12688 -1.5915 -0.94823 -0.0714 0.69787 0.032756 -0.1148 -0.042655 -0.11505 4.8126 -0.17342 -1.7753 -1.1027 -0.049458 0.80534 0.011563 -0.15629 -0.068967 -0.12526
217 -3.8873 -0.76665 0.0063061 0.73826 -0.19612 -0.5108 0.15442 0.43246 -0.3749 0.38999 3.896 -0.83203 0.094129 0.65988 -0.19838 -0.48513 0.13538 0.4427 -0.36061 0.3805
218 -3.8893 -0.64923 -0.945 -0.42468 -0.79377 -0.20402 -0.35187 0.21325 0.29219 0.99503 4.2552 -0.73945 -0.92083 -0.44113 -0.80047 -0.22955 -0.39027 0.20198 0.30333 1.04
219 -3.8893 -0.3846 -1.4539 -0.63987 -0.22597 0.35983 0.091641 0.24893 0.48216 0.16387 4.5705 -0.47931 -1.5376 -0.73611 -0.23019 0.38352 0.06122 0.25762 0.53764 0.17637
220 -3.8488 -0.29639 -1.3726 -0.31209 -0.21338 0.0092605 0.27536 0.36262 0.11201 0.10922 5.0517 -0.42098 -1.5874 -0.43337 -0.24698 -0.0089959 0.30321 0.4263 0.1247 0.11837
221 -3.855 -0.023149 -1.809 0.18983 -0.20186 -0.56285 0.86014 0.24363 -0.71856 0.16612 4.5496 -0.05494 -1.8808 0.087667 -0.23083 -0.60117 0.8915 0.25488 -0.81446 0.16198
222 -3.8826 -0.39434 -1.563 -0.34111 -0.5592 -0.1102 -0.0079162 0.094254 -0.10958 0.68478 4.5694 -0.48929 -1.6451 -0.43395 -0.60131 -0.11176 -0.04141 0.074051 -0.13667 0.75488
223 -3.8241 -0.22538 -0.32369 0.61609 -0.76583 -0.50496 0.54368 0.82078 -1.0182 0.074287 3.8424 -0.26601 -0.21786 0.55906 -0.7529 -0.45133 0.44641 0.79009 -0.97047 0.078073
224 -3.9995 0.27899 -1.8424 2.2079 0.26556 -0.33615 0.17376 -0.15344 0.26906 -0.13937 4.9366 0.28333 -1.9229 2.2861 0.17561 -0.3132 0.23922 -0.14738 0.31695 -0.19332
225 -4.2812 0.78331 -1.8494 2.8362 0.6901 -0.35498 -0.1703 -0.21166 0.21651 0.015466 5.6649 0.96916 -2.0503 3.184 0.68993 -0.33898 -0.1609 -0.20678 0.30941 0.030894
226 -3.8794 0.033335 -1.6933 1.6035 -0.10975 -0.3152 0.57625 0.05726 0.19135 -0.258 5.123 -0.0094341 -1.9095 1.7809 -0.23702 -0.32154 0.71501 0.088915 0.25158 -0.35165
227 -3.8794 0.033335 -1.6933 1.6035 -0.10975 -0.3152 0.57625 0.05726 0.19135 -0.258 5.123 -0.0094341 -1.9095 1.7809 -0.23702 -0.32154 0.71501 0.088915 0.25158 -0.35165
228 -3.8397 0.36292 -1.4622 0.81545 -0.10445 -1.1149 1.1142 0.46941 -0.78913 0.1579 4.4037 0.39353 -1.4315 0.71748 -0.13746 -1.2012 1.1481 0.52386 -0.87677 0.15655
229 -4.0782 -0.25156 -0.32488 2.5623 1.5352 -0.37684 -0.78388 -0.3164 -0.075043 0.18087 5.3497 -0.44445 -0.16479 2.8519 1.7994 -0.36857 -0.93057 -0.33783 -0.090169 0.28401
230 -3.8751 -0.28747 -0.06892 0.054361 -1.297 -0.65799 -0.60139 0.3947 0.3205 0.73239 4.3061 -0.34545 0.0040431 0.061637 -1.3782 -0.72529 -0.66215 0.43571 0.35161 0.76234
231 -3.9212 0.34981 0.35312 0.096608 -1.8186 -0.8024 -0.53463 -0.26531 0.030386 -0.33733 4.0263 0.35489 0.39136 0.1057 -1.799 -0.80345 -0.536 -0.24797 0.049038 -0.36844
232 -3.9359 0.36325 0.26776 0.18186 -1.8697 -0.73937 -0.61571 -0.089044 0.11493 -0.18624 4.3751 0.39939 0.34045 0.20015 -2.0094 -0.80148 -0.66862 -0.068371 0.14328 -0.2334
233 -3.9312 -0.52125 0.60195 0.63395 -1.1942 -0.42183 -0.26839 -0.6237 -0.51425 0.78456 4.5885 -0.65715 0.74348 0.69503 -1.3492 -0.44714 -0.30211 -0.70596 -0.58929 0.93423
234 -3.9352 -0.86328 -0.12084 -0.55961 -0.42289 -0.06349 0.41153 -1.3333 0.11762 0.48401 4.5941 -1.054 -0.090453 -0.60927 -0.44572 -0.076161 0.46213 -1.5393 0.13878 0.56207
235 -3.9836 -0.20567 -1.4776 -0.81915 -0.56177 1.0449 0.021152 0.74047 0.67599 0.51126 5.2252 -0.28701 -1.7443 -0.97099 -0.65515 1.2734 -0.020476 0.84289 0.80927 0.60559
