115 20
0 0.27261 0.020275 -0.032698 -0.027394 0.0049348 -0.014663 -0.015287 -0.0073437 -0.011888 -0.00055239 0.30202 0.02134 -0.018579 -0.027892 0.0051341 -0.020915 -0.0059286 -0.0022462 -0.017068 -0.014775
1 0.27165 0.026742 -0.057581 -0.0074959 0.013366 -0.034849 -0.072518 -0.032002 -0.041284 -0.0001426 0.21169 0.023071 -0.041642 -0.0081199 0.0099656 -0.027979 -0.054804 -0.022843 -0.042052 -0.002247
2 0.26884 0.018313 0.033002 0.019451 -0.0031733 -0.015158 -0.027279 -0.078176 -0.082595 -0.011684 0.19274 0.012563 0.031877 0.021707 -0.0015142 -0.010568 -0.03933 -0.067555 -0.073723 -0.0034012
3 0.27189 0.019677 -0.076463 -0.02822 -0.0071893 -0.011266 -0.012844 0.031351 0.0025484 0.032471 0.34735 0.023632 -0.10045 -0.040364 -0.014584 -0.014922 -0.0083927 0.045922 0.011513 0.039949
4 0.26352 0.020838 0.062975 -0.019571 -0.012902 -0.025568 0.0075645 -0.012864 -0.063034 -0.058232 0.36856 0.046476 0.74551 -0.7474 0.15386 0.11727 -0.055568 -0.12014 -0.028851 0.1174
5 0.27059 0.021435 -0.050991 -0.035846 -0.004416 -0.020159 -0.01998 0.013665 -0.020663 0.0084882 0.40642 0.033706 -0.076278 -0.063761 -0.0080777 -0.042395 -0.058179 0.037463 -0.077967 0.016741
6 0.2667 0.016472 0.042788 0.025574 -0.038507 -0.03305 0.058739 0.048768 0.0090824 -0.076815 0.23969 0.015518 0.11017 0.044154 -0.028511 -0.012124 0.031261 0.13111 0.050471 -0.14656
7 0.27245 0.025629 -0.058358 -0.04421 0.0091613 -0.0099757 -0.030674 0.044484 -0.047457 0.027286 0.25798 0.026424 -0.04873 -0.047727 0.0085944 -0.014284 -0.03552 0.04544 -0.054118 0.01838
8 0.27206 0.02077 -0.056692 0.0017557 0.025348 -0.006127 -0.034209 -0.0083357 -0.013095 0.0041794 0.31926 0.031031 -0.1556 0.064068 0.9675 -0.15237 0.12197 0.037637 0.023537 -0.013345
9 0.27378 0.01891 -0.046738 -0.055641 -0.026777 -0.034136 -0.019333 0.056262 -0.024118 0.035235 0.22259 0.013265 -0.026618 -0.047398 -0.02117 -0.027222 -0.0089707 0.04511 -0.02185 0.0078322
10 0.27708 0.019465 -0.088885 -0.032325 -0.01974 -0.0075592 -0.042013 0.0048011 0.012866 0.036629 0.25279 0.014681 -0.076919 -0.029113 -0.013825 -0.0074952 -0.036379 0.0038364 0.0051951 0.027769
11 0.27207 0.017819 -0.082636 -0.022403 -0.00063523 -0.0039769 -0.015117 0.0099475 0.043158 0.03622 0.30101 0.017375 -0.093402 -0.022134 -0.001465 -0.0068709 -0.0058047 0.0092201 0.055811 0.04012
12 0.26883 0.013962 -0.074776 -0.023974 -0.011281 -0.0094549 0.0051133 0.029542 0.036325 0.043867 0.4055 0.00041791 -0.12525 -0.043392 -0.033826 -0.018715 0.052109 0.061655 0.1381 0.091246
13 0.26374 0.023018 0.047996 0.016502 -0.030832 -0.036387 0.068521 -0.024965 -0.019772 -0.056214 0.27936 0.029421 0.10533 0.056695 -0.046251 -0.047681 0.14445 -0.06031 -0.048293 -0.10667
14 0.26496 0.021536 -0.019322 -0.0020001 -0.0068706 -0.010089 -0.01584 0.0083179 -0.015459 -0.0035254 0.58968 0.057339 -0.0071534 0.030611 -0.029427 -0.020237 -0.13416 0.051349 -0.13517 0.00025641
15 0.26459 0.018965 0.065552 0.044214 0.03532 0.021572 0.0050793 -0.10025 -0.077905 -0.032317 0.2002 0.016332 0.096278 0.069607 0.023518 0.012718 0.02494 -0.12297 -0.093722 -0.032665
16 0.27122 0.01996 -0.052271 -0.033859 -0.0086476 -0.016485 -0.010429 0.026609 0.01071 0.0098042 0.39989 0.029599 -0.076513 -0.057282 -0.017841 -0.034966 -0.025637 0.057551 0.00089177 0.026096
17 0.26995 0.021513 -0.069266 -0.031509 -0.00061663 -0.017929 -0.034944 0.020905 -0.02895 -0.004004 0.33028 0.027368 -0.086699 -0.040729 -0.0015921 -0.02976 -0.079354 0.031058 -0.074843 -0.0015311
18 0.26611 0.018705 -0.018828 0.0052047 0.0024822 -0.0035784 -0.027751 -0.012829 -0.025856 0.018674 0.47502 0.023075 0.065909 0.14098 0.021129 0.062984 -0.27133 0.034622 -0.11062 0.17892
19 0.2682 0.021919 -0.021082 -0.0057879 0.0070828 -0.0067119 -0.035141 -0.012586 -0.035703 0.0057215 0.39164 0.03396 -0.0043965 0.013431 0.012274 -0.0049286 -0.076158 -0.01591 -0.089025 0.0090213
20 0.26311 0.018851 0.085018 0.050341 -0.010839 -0.021296 0.044428 -0.082378 -0.055604 -0.058432 0.23648 0.019555 0.13647 0.094863 -0.0051037 -0.012244 0.064448 -0.12503 -0.091071 -0.062713
21 0.2682 0.015488 -0.049906 -0.013853 -0.015873 -0.018571 0.017417 0.019348 0.02111 0.0020408 0.48973 0.0081528 -0.097796 -0.030169 -0.048956 -0.042963 0.088253 0.048598 0.12493 0.045446
22 0.266 0.013584 0.026461 0.01368 -0.02982 -0.027507 0.0454 0.0051761 0.014036 -0.02465 0.3809 0.003042 0.13827 0.12087 -0.04548 -0.011898 0.11368 0.024977 0.13357 -0.012872
23 0.26726 0.020067 -0.022567 -0.020713 -0.0046063 -0.013822 -0.011187 0.018799 -0.019551 -0.017299 0.36563 0.029687 -0.0054047 -0.011228 -0.013906 -0.024212 -0.010522 0.032375 -0.079679 -0.052102
24 0.2697 0.018729 -0.043493 -0.048167 0.011396 -0.030507 -0.020116 0.066172 -0.02008 0.028739 0.24716 0.016169 -0.031502 -0.04669 0.0080002 -0.028097 -0.019962 0.061446 -0.036517 0.0087162
25 0.27023 0.020753 -0.07431 -0.026678 0.00051681 -0.02743 -0.061089 0.033712 -0.013799 0.019018 0.31629 0.024987 -0.081341 -0.020695 0.0037737 -0.020521 -0.11615 0.051452 -0.049544 0.032569
26 0.26683 -0.0045186 -0.021072 -0.015717 -0.013806 -0.018645 0.026748 0.012905 0.020207 -0.014521 0.48148 -0.51204 -0.00078257 -0.023729 -0.036567 -0.044716 0.090607 0.071464 0.10339 -0.040631
27 0.26675 0.016589 0.015529 -0.0095962 -0.038522 -0.034271 0.065479 0.020469 -0.0089232 -0.019198 0.2871 0.018191 0.046481 -0.0033297 -0.054934 -0.047684 0.11949 0.0032704 -0.03648 -0.070368
28 0.26963 0.01864 -0.02208 -0.014738 -0.011655 -0.030549 0.021638 0.019297 0.014483 0.0012267 0.38952 0.026052 0.0030046 -0.016734 -0.023091 -0.042535 0.050806 0.072201 0.049504 -0.051254
29 0.26968 0.019251 -0.067462 -0.015297 -0.0069253 -0.012752 -0.0074233 0.0080754 0.016077 0.026237 0.40183 0.030992 -0.15252 -0.050041 -0.0066852 -0.044035 -0.26532 -0.31443 0.32724 -0.20113
30 0.27036 0.020103 -0.054951 -0.013954 -0.010917 -0.019433 -0.00085631 0.017853 -0.013116 0.021716 0.41232 0.03145 -0.086729 -0.014087 -0.023952 -0.044919 -0.044399 0.028185 -0.071045 0.065588
31 0.26957 0.02531 -0.036395 -0.015047 0.0022425 -0.0097564 -0.035232 0.00040173 -0.045182 0.02319 0.3715 0.039988 -0.04014 -0.0085476 0.0013415 -0.016547 -0.11397 -0.003658 -0.12823 0.032203
32 0.26366 0.020272 0.034064 0.037071 -0.005182 -0.0093134 0.035346 -0.032305 -0.012036 -0.029281 0.45541 0.040931 0.1716 0.17413 -0.016144 -0.011616 0.13039 -0.11542 -0.057808 -0.095478
33 0.26949 0.014836 -0.071653 -0.020849 -0.0092601 -0.011792 -0.006312 0.0076811 0.028118 0.036043 0.42588 0.0024106 -0.12824 -0.040899 -0.031872 -0.025891 0.036707 0.021846 0.12343 0.10015
34 0.27046 0.025354 -0.090302 -0.018188 0.017813 0.003138 -0.071169 0.0066592 -0.01011 0.034951 0.2536 0.027841 -0.090133 -0.0074335 0.018188 0.005193 -0.11414 0.033618 -0.053763 0.067089
35 0.26868 0.029022 -0.033622 -0.038904 -0.010101 -0.032679 -0.080107 0.0021217 -0.092125 0.011249 0.2295 0.029176 -0.019236 -0.029846 -0.015006 -0.03548 -0.05873 -0.01324 -0.11225 -0.0013024
36 0.26551 0.016647 0.040407 0.011401 -0.049675 -0.036561 0.12049 0.080035 0.11385 -0.071086 0.093937 0.005547 0.032717 0.0052965 -0.01731 -0.0090955 0.030736 0.062945 0.053861 -0.051668
37 0.2715 0.024491 -0.081354 -0.025468 -0.020585 -0.0069562 -0.042439 0.0093351 0.0021651 0.038541 0.32791 0.034248 -0.10421 -0.025889 -0.040167 -0.023131 -0.065031 0.0069411 -0.086166 0.059285
38 0.26754 0.016304 -0.030112 -0.012288 -0.014531 -0.01914 0.022731 0.0097027 0.0012449 0.0021932 0.48158 0.011958 -0.021744 0.011531 -0.047794 -0.048637 0.1097 -0.0020085 0.032288 -0.0105
39 0.26743 0.012606 -0.039389 -0.010579 -0.034555 -0.010544 0.039462 0.021121 0.047681 0.019853 0.41149 0.0010019 0.055962 -0.16033 -0.060744 -0.0032784 0.19189 -0.0259 0.28824 0.29868
40 0.26992 0.02104 -0.034044 -0.01332 -0.0023685 -0.011966 -0.012965 0.010754 -0.029021 0.00047758 0.41164 0.034048 -0.046593 -0.01941 -0.0030057 -0.013355 -0.070076 0.03235 -0.071155 0.027311
41 0.26994 0.016236 -0.074952 -0.014224 0.0003338 0.0063051 -0.028567 0.0067495 0.013323 0.042846 0.40797 0.010505 -0.29614 -0.068946 0.072588 0.92848 0.1463 -0.044019 -0.049495 -0.11158
42 0.27142 0.016848 -0.024546 -0.016241 -0.029647 -0.015727 0.026039 -0.01421 0.018486 -0.0048008 0.3394 0.017867 -0.014014 -0.014165 -0.04526 -0.031282 0.065422 -0.023037 0.027517 -0.019338
43 0.2713 0.021034 -0.043239 -0.019591 0.015835 -0.0057996 -0.034451 -0.037486 -0.040087 0.0019372 0.29294 0.026493 -0.089518 -0.043876 0.029031 -0.03284 -0.3252 -0.36851 0.22023 -0.24483
44 0.26648 0.01595 -0.013482 0.0058731 -0.010533 -0.016016 0.024467 -0.020315 -0.0049338 -0.0091229 0.4635 0.012613 0.0092707 0.044702 -0.048216 -0.051357 0.1008 -0.067287 -0.07779 -0.036718
45 0.27457 0.02903 -0.0084801 -0.047641 -0.0057588 -0.031711 -0.081493 -0.010558 -0.06768 0.0070234 0.11573 0.013319 0.0011271 -0.025634 -0.0018368 -0.013779 -0.026919 0.0053472 -0.027588 -0.00085316
46 0.26267 0.017838 0.013046 0.027981 -0.0075949 -0.0083275 0.02004 -0.022939 -0.0062631 -0.001392 0.55193 0.026879 0.14203 0.17663 -0.025491 -0.01322 0.094106 -0.12286 -0.070304 -0.005376
47 0.26834 0.025343 -0.01866 -0.011727 -0.016741 0.0019288 -0.0084051 -0.028303 -0.076573 0.007819 0.25235 0.028387 -0.02267 -0.0099909 -0.032556 -0.011183 -0.01873 -0.035394 -0.11475 0.018839
48 0.27425 0.025166 -0.07296 -0.018377 0.0030522 -0.013869 -0.035923 -0.0075216 -0.005317 0.025015 0.28733 0.028965 -0.085976 -0.027836 0.0086086 -0.020256 -0.06765 0.0027346 -0.028368 0.039615
49 0.27158 0.019149 -0.049958 -0.0052224 -0.021039 0.0074189 -0.031231 0.032324 -0.0052715 0.026082 0.22161 0.01503 -0.011832 0.028312 -0.009341 0.021564 -0.059734 0.042239 -0.015231 0.028243
50 0.27378 0.018744 -0.079566 -0.021331 -0.017179 -0.0013917 -0.026796 -0.021648 0.026221 0.026582 0.23745 0.014341 -0.072197 -0.019762 -0.0087232 -0.00055713 -0.033504 -0.01948 0.015515 0.028048
51 0.2732 0.028455 -0.0057285 0.016829 -0.0083472 -0.034431 -0.06534 -0.072506 -0.089563 -0.060997 0.14325 0.016098 0.00077932 0.0081233 -0.0030143 -0.016986 -0.022401 -0.033555 -0.044111 -0.026694
52 0.26786 0.020831 0.0010243 0.0031323 -0.022308 -0.033444 0.0022913 -0.024328 -0.031761 -0.027704 0.34662 0.028676 0.039814 0.028509 -0.037438 -0.053358 0.061389 -0.053007 -0.06686 -0.075936
53 0.2637 0.02382 0.069897 0.10352 -0.0023951 0.034874 0.044232 -0.042866 -0.032448 -0.031464 0.16058 0.016664 0.083724 0.10892 0.0068967 0.030945 0.010661 -0.032116 -0.0060368 0.0056327
54 0.26345 0.018545 0.058985 0.018305 -0.021884 -0.031425 0.050363 -0.027178 -0.084488 -0.066292 0.23637 0.019469 0.08361 0.02618 -0.033865 -0.044501 0.084612 -0.063579 -0.15564 -0.11549
55 0.26683 0.012017 0.058675 0.070425 -0.042895 -0.029155 0.10118 -0.04523 0.00049496 -0.0046768 0.17323 0.0064959 0.069116 0.081749 -0.023607 -0.010586 0.057569 -0.050222 -0.018511 0.0031338
56 0.2728 0.025905 -0.079617 -0.0034924 0.029251 0.017834 -0.080458 0.0098204 -0.033233 0.052754 0.19828 0.02032 -0.046693 0.0081548 0.024022 0.019052 -0.070395 0.017684 -0.029601 0.037854
57 0.27609 0.02901 -0.057554 -0.0033446 0.0013057 -0.025628 -0.20948 -0.047256 -0.10846 0.019216 0.054157 0.0059636 -0.0097766 -0.00094608 0.00034151 -0.0050037 -0.029067 -0.011798 -0.016456 0.00051365
58 0.25879 0.014631 0.09563 0.14139 -0.0076301 0.016258 0.022584 -0.066447 -0.013841 0.07738 0.18187 -0.0024361 0.13465 0.19478 -0.0023784 0.034155 0.037641 -0.075311 0.020195 0.088581
59 0.26677 0.020284 0.034986 0.031058 0.0064786 -0.027454 0.024639 -0.047857 -0.060859 -0.030393 0.28782 0.023396 0.070509 0.064303 0.0049293 -0.027889 0.044766 -0.06727 -0.10371 -0.03933
60 0.2703 0.025163 -0.040068 -0.019815 -0.02701 -0.011132 -0.0035651 0.032658 -0.046201 -0.01257 0.24578 0.025144 -0.030868 -0.021742 -0.02609 -0.017029 -0.0020621 0.044383 -0.052618 -0.01612
61 0.27379 0.019718 -0.10166 -0.038976 -0.034916 0.013343 0.031554 0.013336 0.10071 0.046671 0.16401 0.010923 -0.06826 -0.027174 -0.020529 0.0093594 0.016788 0.0073083 0.074822 0.038358
62 0.26655 0.024968 -0.0076411 -0.021385 -0.026589 -0.039599 -0.00064859 0.097893 -0.041592 -0.059382 0.16857 0.018679 0.02787 -0.017571 -0.013633 -0.019562 -0.012121 0.10094 -0.018541 -0.074218
63 0.27222 0.014809 -0.060925 -0.021699 -0.034127 -0.013398 0.013335 0.031411 0.013156 0.014687 0.34172 -0.0024009 -0.071086 -0.026953 -0.047324 -0.018923 0.036875 0.042272 0.032032 0.019996
64 0.27107 0.016532 -0.051899 -0.014676 -0.034961 -0.017714 0.020964 0.030088 0.028145 0.012846 0.34535 0.016683 -0.063117 -0.022893 -0.057352 -0.03799 0.057426 0.049066 0.073209 0.025226
65 0.27434 0.0075089 -0.07906 -0.037172 -0.03909 -0.0093756 0.03838 0.049111 0.07722 0.028299 0.22482 -0.016644 -0.060736 -0.028683 -0.033786 -0.0080549 0.04188 0.039813 0.069514 0.030537
66 0.27027 0.022835 -0.03347 -0.041435 -0.011666 0.016431 -0.013004 0.059147 -0.012261 0.0075617 0.18827 0.017539 0.014388 -0.03135 -0.0044585 0.013919 -0.018855 0.086741 0.0056612 -0.041132
67 0.26662 0.017978 -0.011384 0.047464 0.019693 0.017624 0.015909 -0.026025 0.015635 0.038457 0.2599 0.0030316 0.035566 0.10679 0.027206 0.032572 0.028034 -0.04747 0.029891 0.059975
68 0.2668 0.018626 -0.0072249 -0.018122 -0.0078575 -0.035664 0.022675 0.046054 -0.019396 -0.027855 0.32456 0.023374 0.04087 -0.015044 -0.013485 -0.042567 0.04208 0.075036 -0.022455 -0.10412
69 0.271 0.017567 -0.075746 -0.028334 -0.029585 -0.0072908 -0.0040637 0.017375 0.039646 0.021556 0.32374 0.021733 -0.1052 -0.041301 -0.050905 -0.016076 -0.01042 0.026299 0.0035762 0.036779
70 0.27825 0.022299 -0.11826 -0.052086 -0.034057 0.054405 0.0021675 -0.0025414 0.1024 0.07142 0.080949 0.0063368 -0.032391 -0.01444 -0.0093142 0.012898 0.0019828 0.00037603 0.020594 0.017351
71 0.27657 0.0090414 -0.007792 0.02297 -0.045513 -0.038403 0.071167 -4.6238e-05 -0.024446 -0.035515 0.095217 -7.6771e-05 -0.00055207 0.0075899 -0.01437 -0.011424 0.020709 -0.00031308 -0.0050679 -0.0073163
72 0.2726 0.01787 -0.08704 -0.03965 -0.0077406 -0.010733 -0.010245 0.034913 0.03104 0.02295 0.2909 0.016866 -0.092659 -0.044521 -0.0079444 -0.012149 -0.0096537 0.04337 0.022237 0.027017
73 0.27295 0.013433 -0.0085048 -0.02887 -0.042064 -0.04328 0.065321 0.017838 0.048459 -0.035636 0.18157 0.0061424 0.0049962 -0.02065 -0.036663 -0.03558 0.075039 0.018709 0.036951 -0.033285
74 0.27253 0.023046 -0.076815 -0.02112 -0.0033818 -0.0074191 -0.0060068 0.0056646 0.021749 0.023746 0.30542 0.02696 -0.09071 -0.027821 0.0006279 -0.006389 -0.011557 0.016066 0.02533 0.031455
75 0.27487 0.015679 -0.080155 -0.046046 -0.035851 -0.014172 0.026608 0.060036 0.015602 0.02742 0.22047 0.0089831 -0.057407 -0.036079 -0.027807 -0.014588 0.019797 0.044374 0.0099714 0.012602
76 0.24429 0.024188 0.22864 0.010485 0.017678 0.039112 -0.04686 0.21051 0.075666 -0.15896 0.09272 0.014102 0.2229 -0.013994 0.031676 0.057438 -0.086795 0.27241 0.12314 -0.24031
77 0.26783 0.026104 0.16539 0.017923 -0.006701 -0.01301 0.077108 -0.13621 -0.14926 -0.066335 0.065136 0.0071855 0.043908 0.00092282 -0.0015674 -0.0040237 0.019541 -0.029387 -0.032313 -0.020441
78 0.27025 0.034555 0.58069 -0.63196 0.13741 0.091224 -0.063889 -0.17411 -0.10375 0.1205 0.0082939 0.0012657 0.018263 -0.017805 0.0032801 0.0021326 -0.0010529 -0.00322 -0.0027917 0.0006902
79 0.23851 0.022412 0.41833 -0.194 0.065096 0.088363 -0.12941 0.34803 0.14966 -0.31158 0.029971 0.0043245 0.081785 -0.015141 0.0087858 0.017991 -0.027883 0.1034 0.043779 -0.087111
80 0.26871 0.0266 0.10901 0.014338 -0.020539 -0.039612 0.095637 -0.092294 -0.14276 -0.11298 0.10667 0.011936 0.050331 0.0043382 -0.0082609 -0.016486 0.040982 -0.035498 -0.052579 -0.048765
81 0.27481 0.022539 0.29161 -0.38672 0.022831 0.039638 0.11024 -0.094186 0.17947 0.29742 0.015201 0.001409 0.018733 -0.020858 0.0015955 0.0018844 0.0032818 -0.0032013 0.003562 0.006577
82 0.2723 0.015024 0.02242 -0.024394 -0.03741 -0.044423 0.064631 0.061097 -0.012565 -0.06545 0.16495 0.006678 0.020665 -0.019388 -0.021975 -0.025508 0.034362 0.041204 -0.0077007 -0.037934
83 0.25556 0.023222 0.17688 0.15201 0.010226 0.036651 0.027205 -0.087793 0.011739 0.071824 0.14299 0.016844 0.16526 0.17508 0.015022 0.042473 0.02376 -0.080464 0.017191 0.043328
84 0.26682 0.02558 -0.0064695 0.0013377 -0.024173 -0.037629 -0.0051778 0.024634 -0.11131 -0.027137 0.13804 0.014735 -0.00075412 -0.00025687 -0.01536 -0.020534 0.0054807 0.018956 -0.05171 -0.018029
85 0.28009 0.031687 -0.096495 -0.037416 -0.0079044 -0.034827 -0.118 0.056553 -0.10087 0.066282 0.046131 0.0055057 -0.015114 -0.0054892 -0.00055274 -0.0044229 -0.014543 0.0058612 -0.0097431 0.0085671
86 0.26641 0.016609 0.043015 0.033293 -0.0032093 -0.043098 0.083996 0.025201 -0.010903 -0.084195 0.22966 0.01415 0.07211 0.039058 -0.0061791 -0.033386 0.065661 0.058382 0.0038091 -0.11252
87 0.26463 0.016341 0.011193 0.00073372 -0.038236 -0.035685 0.044548 0.066982 0.023777 -0.067101 0.27734 0.018915 0.069759 0.013651 -0.047147 -0.03592 0.052387 0.14526 0.0035152 -0.15183
88 0.24284 0.025104 0.20167 0.22822 0.01494 0.072437 -0.053488 0.044163 0.048572 -0.0021082 0.15167 0.024831 0.29396 0.35011 0.044237 0.15357 -0.23219 0.1451 0.11496 0.13778
89 0.253 0.0062967 0.14453 0.057717 -0.015015 0.016661 -0.034848 0.22726 0.099177 -0.14683 0.10697 0.0067885 0.20964 -0.0063101 0.022457 0.059862 -0.10218 0.31281 0.13886 -0.25223
90 0.26921 0.023519 0.057314 0.04243 -0.03932 -0.054071 0.1221 -0.037276 -0.07686 -0.12979 0.1181 0.011447 0.033276 0.018105 -0.016523 -0.02422 0.051557 -0.019338 -0.041835 -0.059598
91 0.27034 0.012315 -0.079201 -0.027535 -0.0097039 0.029221 -0.021036 0.058866 -0.024842 0.030976 0.12274 0.003178 -0.033174 -0.012366 -0.0048461 0.0071733 -0.0099463 0.025961 -0.016847 0.011442
92 0.27272 0.029086 -0.16092 0.054742 0.96255 -0.15377 0.12145 0.04122 0.021398 -0.016508 0.0073706 0.00093505 -0.0046777 0.0015226 0.023612 -0.003777 0.0018787 0.00061317 0.00010399 -0.00015636
93 0.24933 0.025015 0.17917 0.2238 0.069059 0.032433 0.045085 -0.075255 0.011648 0.0035065 0.13628 0.019458 0.22212 0.26248 0.047436 0.071844 0.001532 -0.03608 0.091217 0.043131
94 0.27394 0.023737 -0.13221 -0.026507 0.052046 0.03362 -0.051871 -0.038698 0.098465 0.025761 0.10892 0.0097893 -0.052402 -0.0097565 0.02069 0.0097904 -0.016846 -0.011614 0.030558 0.016298
95 0.27492 0.0015202 -0.067505 -0.036906 -0.054547 -0.048221 0.085972 0.0085456 0.16587 0.041914 0.10355 -0.0044781 -0.021071 -0.0098783 -0.023865 -0.019606 0.044566 0.0020733 0.062321 0.022028
96 0.27636 -0.008972 -0.053268 -0.032936 -0.067192 -0.047983 0.14795 0.05543 0.21125 0.083824 0.068642 -0.0072192 -0.011383 -0.0081891 -0.016964 -0.012073 0.033563 0.011099 0.04538 0.012616
97 0.27107 -0.051984 -0.034967 0.021525 -0.036095 0.037161 0.095787 0.0011927 0.10686 0.089209 0.14859 -0.39858 -0.0092517 0.020713 -0.017571 0.026136 0.064913 -0.011538 0.095176 0.10755
98 0.27168 -0.0074728 -0.059118 -0.023764 -0.057666 -0.036496 0.10164 0.013276 0.16548 0.042291 0.13622 -0.02626 -0.030561 -0.014418 -0.038699 -0.020774 0.07976 0.027402 0.12525 0.033789
99 0.24851 0.024847 0.20968 0.28029 0.013454 0.053214 0.059502 -0.1061 0.048625 0.065083 0.094906 0.01346 0.16993 0.23284 0.022144 0.061356 0.006461 -0.066 0.076109 0.084614
100 0.27377 -0.0011026 0.0097039 0.03077 -0.053714 -0.042292 0.12864 -0.021904 0.098321 0.05896 0.077436 -0.0043285 0.006421 0.012416 -0.015296 -0.011162 0.033147 -0.0082207 0.029254 0.01611
101 0.26887 0.022647 0.054908 0.033864 -0.062963 -0.06799 0.16643 -0.031114 -0.068274 -0.15226 0.062697 0.0057533 0.013737 0.005816 -0.014625 -0.015649 0.033154 -0.0028117 -0.011262 -0.029782
102 0.27621 0.029311 -0.023894 0.010894 -0.040818 -0.040557 -0.027065 -0.03591 -0.16209 -0.0042994 0.054448 0.0060969 -0.0040968 9.7253e-05 -0.0072446 -0.0077886 -0.0042562 -0.0049158 -0.024585 -0.0018348
103 0.26385 0.027411 0.0006168 0.058797 0.018044 0.098719 -0.18248 0.1099 -0.061696 0.037605 0.11301 0.015927 0.079604 0.12355 0.023137 0.099732 -0.25644 0.17568 0.012208 0.10938
104 0.27794 0.02925 -0.070213 -0.012128 -0.054265 -0.029804 -0.042124 -0.0083067 -0.12836 0.034604 0.033907 0.0037516 -0.0083082 -0.0020011 -0.0057784 -0.0028519 -0.0035041 -0.0014049 -0.010199 0.0041079
105 0.26955 0.024942 0.052925 0.07401 -0.01691 -0.018918 0.013909 -0.084232 -0.040174 -0.031468 0.12068 0.012744 0.050676 0.062898 -0.0024525 0.0019132 0.0093599 -0.050684 -0.01825 0.0052621
106 0.24702 0.024289 0.21065 0.26868 0.01677 0.053063 0.016305 -0.12839 -0.0065847 0.065674 0.11185 0.015999 0.19051 0.25565 0.022177 0.063097 0.01164 -0.090932 0.064733 0.081951
107 0.24949 0.028619 0.1642 0.26468 0.041722 0.16078 -0.41203 0.20486 -0.0043694 0.2342 0.026427 0.0043842 0.033226 0.047745 0.0068867 0.028902 -0.058401 0.03597 0.0037181 0.023536
108 0.23398 0.025367 0.30637 0.40159 0.035685 0.10438 -0.0034061 -0.058353 0.16218 0.12344 0.046834 0.0079406 0.1052 0.14179 0.015429 0.038724 -0.0016631 -0.034366 0.038574 0.041205
109 0.2128 -0.81651 0.0032184 -0.0070147 -0.0066645 -0.013135 0.036772 0.03018 0.054211 -0.021471 0.10796 -1.3506 0.024065 0.0031277 0.032778 0.005215 -0.084947 -0.032543 -0.10145 -0.019793
110 0.27457 0.027662 -0.13556 -0.055334 0.016788 -0.045156 -0.39853 -0.47181 0.38219 -0.32583 0.013873 0.0015674 -0.0066056 -0.0026767 0.0008602 -0.0019806 -0.014109 -0.015921 0.010306 -0.0089043
111 0.26372 0.0265 -0.014652 0.04032 -0.025476 -0.022508 -0.024384 0.00022858 -0.10388 0.035102 0.049616 0.005294 0.0019493 0.013173 -0.0046703 -0.0028776 -0.002089 -0.0039962 -0.01549 0.008638
112 0.28143 0.017452 -0.27608 -0.070094 0.072058 0.9187 0.15823 -0.052879 -0.057228 -0.1275 0.0071432 0.00033662 -0.0064713 -0.0015213 0.0013462 0.017304 0.0020442 -0.00066938 -0.00057587 -0.00084802
113 0.22011 -0.72926 -0.007706 0.017495 -0.011178 0.02912 0.047886 -0.017221 0.069801 0.10079 0.051663 -0.54247 0.0061397 0.0011231 0.0046532 0.00072109 0.0017192 0.0037642 0.011215 -0.0033508
114 0.18925 -1.266 0.022816 -0.0038754 0.029029 -0.0063164 -0.081956 -0.019166 -0.1038 -0.051092 0.042095 -0.51964 0.0081872 -0.0010768 0.0078064 -0.0029292 -0.009511 0.0042591 -0.0036729 -0.017665
