311 20
0 -4.0251 -0.92156 1.2606 0.75503 0.46142 0.021851 0.28228 0.24295 -0.011862 0.28693 3.9673 -0.88824 1.2605 0.70917 0.47144 0.012586 0.27818 0.21959 -0.0085308 0.25168
1 -3.9911 -0.85194 1.1613 0.4777 0.41596 -0.056976 0.18338 0.16579 -0.089126 0.1703 3.7605 -0.79091 1.1115 0.42125 0.40197 -0.055971 0.17081 0.14185 -0.084769 0.14438
2 -4.0319 -0.81439 1.5108 0.64393 0.51931 -0.074727 0.0093533 0.22969 0.052609 0.16295 3.7508 -0.73949 1.3927 0.56393 0.48792 -0.066358 0.02343 0.18448 0.045713 0.11662
3 -4.0158 -0.67586 1.4453 0.44227 0.4854 -0.054736 0.091107 0.044554 0.02037 -0.065528 3.7688 -0.6281 1.368 0.39746 0.47005 -0.057514 0.090479 0.035538 0.017167 -0.077235
4 -3.9672 -1.0345 0.13792 0.033167 0.7045 0.3313 0.80275 0.17053 0.021482 0.27756 4.1427 -1.0633 0.16675 0.01399 0.72836 0.34157 0.78771 0.17045 0.02093 0.28789
5 -4.0157 -0.76352 1.383 0.3535 0.31267 -0.062008 0.2754 -0.051683 0.043515 0.34147 3.9126 -0.73799 1.3559 0.324 0.32277 -0.068982 0.26932 -0.05078 0.035263 0.3137
6 -3.9064 -1.0579 -0.15322 1.1076 -0.38986 -0.3988 -0.48497 0.054703 -0.040692 0.066859 3.4069 -0.88042 -0.10132 0.86292 -0.29914 -0.31166 -0.40654 0.039767 -0.031234 0.058722
7 -3.9913 -0.81112 1.1669 0.71737 0.25981 -0.12331 0.052128 0.13914 -0.033811 -0.0016072 4.0632 -0.80629 1.2102 0.69054 0.28941 -0.12759 0.068379 0.13157 -0.028795 -0.021265
8 -4.0217 -0.7729 1.3367 0.4082 0.47777 0.0048612 0.14463 0.039962 -0.028883 0.1218 3.8799 -0.74266 1.307 0.37522 0.47909 -0.0015981 0.1401 0.034064 -0.029686 0.10779
9 -4.0014 -0.67807 1.3531 0.63507 0.3683 0.11214 0.083808 0.093888 0.033785 0.11908 3.6982 -0.61985 1.263 0.55818 0.37144 0.089376 0.080599 0.079286 0.031985 0.10561
10 -4.0185 -0.72857 1.3906 0.43787 0.49086 0.074114 0.10584 0.20722 -0.0069118 0.10196 3.9356 -0.7065 1.3668 0.40947 0.4958 0.063736 0.10897 0.19016 -0.0057059 0.083207
11 -3.9915 -0.61317 1.319 0.83278 0.15404 0.1899 0.1748 0.20691 -0.028117 0.28212 3.9133 -0.58932 1.3054 0.77776 0.19435 0.15475 0.17723 0.1947 -0.027183 0.26451
12 -3.9993 -0.4645 1.4245 0.6629 0.23943 0.37337 0.28757 0.16553 0.053496 0.42795 4.0715 -0.46746 1.4489 0.64963 0.28667 0.33164 0.29081 0.16111 0.047604 0.41802
13 -4.0492 -0.7361 1.5235 0.48188 0.57011 -0.02122 0.13128 0.086624 0.041064 0.0577 3.8421 -0.69298 1.46 0.44153 0.55799 -0.025362 0.13039 0.074603 0.039332 0.037079
14 -4.0057 -0.73881 1.3209 0.34497 0.57345 -0.0090394 0.36534 0.31166 -0.10028 0.028407 3.801 -0.69332 1.2635 0.31509 0.55573 -0.014905 0.34429 0.28211 -0.090244 0.0035887
15 -3.9998 -0.78437 1.2955 0.59456 0.35282 -0.14594 -0.023427 0.12927 -0.077846 -0.18257 3.8439 -0.73904 1.2579 0.53752 0.35537 -0.14007 -0.0084661 0.11248 -0.071991 -0.18683
16 -4.0466 -0.77252 1.5032 0.43923 0.57378 -0.042353 0.10342 0.077138 0.033788 0.050225 3.7602 -0.71381 1.4103 0.39127 0.54789 -0.042439 0.098393 0.064546 0.031145 0.034974
17 -4.0138 -0.76803 1.343 0.34238 0.54806 -0.10707 0.15537 -0.18115 0.24179 0.12375 3.686 -0.70069 1.2453 0.30067 0.51787 -0.091882 0.1392 -0.15765 0.2125 0.10339
18 -3.9701 -0.73798 1.2081 0.57885 0.42373 0.29458 0.25813 0.15972 0.032208 0.51639 3.6315 -0.6649 1.1085 0.50582 0.41563 0.23214 0.24681 0.13801 0.029391 0.38897
19 -3.9387 -0.80073 0.16954 -0.22201 0.36284 0.13573 -0.050163 -0.15794 -0.032495 0.1967 3.5035 -0.70981 0.16154 -0.22844 0.32842 0.13257 -0.076987 -0.1398 -0.031847 0.18475
20 -3.9904 -0.82863 1.1837 0.31875 0.21285 -0.29671 0.15849 -0.014966 -0.086441 -0.0012343 3.7862 -0.77703 1.1464 0.27526 0.21956 -0.27038 0.15229 -0.008995 -0.083711 -0.012902
21 -3.956 -0.34869 0.98067 0.13036 0.54229 -0.19623 -0.080107 0.070216 -0.18311 -0.15192 4.0498 -0.35517 1.0238 0.12086 0.55851 -0.18653 -0.082286 0.068009 -0.18785 -0.11046
22 -3.9085 -0.39658 -0.15422 -0.59563 -0.0054648 -0.017484 -0.28702 -0.077289 -0.039625 -0.060308 3.1969 -0.32186 -0.12697 -0.50921 0.00097279 -0.0091767 -0.24573 -0.057196 -0.034191 -0.051602
23 -3.939 -0.69193 0.81457 -0.029705 0.25731 -0.085481 -0.026157 0.12023 -0.15883 0.057756 3.5269 -0.61656 0.73656 -0.055584 0.23179 -0.070227 -0.037789 0.098524 -0.14134 0.054563
24 -3.9171 -0.63267 0.067225 -0.21969 -0.014032 -0.19271 0.032789 -0.47119 -0.10502 -0.048067 3.5757 -0.57128 0.075131 -0.23335 0.0021329 -0.16541 -0.00095681 -0.41434 -0.10716 -0.039605
25 -3.9187 -0.17074 0.32685 -0.7044 -0.37895 -0.37666 0.062082 0.12199 -0.44472 -0.041659 3.5149 -0.15561 0.29042 -0.64697 -0.34011 -0.33298 0.050154 0.11026 -0.40296 -0.033395
26 -3.9206 -0.55859 0.51962 -0.085462 0.24458 -0.17311 -0.27341 -0.19531 0.021475 -0.4435 3.5968 -0.50642 0.49034 -0.1039 0.23151 -0.14843 -0.25408 -0.1818 0.015503 -0.38823
27 -3.9787 -0.52933 1.3464 0.35742 0.24837 0.19914 0.17507 -0.036684 0.050177 -0.12726 3.8959 -0.51825 1.3267 0.33072 0.27524 0.16739 0.16468 -0.029188 0.045197 -0.10643
28 -4.0226 -0.77162 1.3255 0.68699 0.45342 -0.065224 -0.017462 0.13316 -0.0049381 0.043804 3.9203 -0.73925 1.3097 0.63512 0.46398 -0.061129 -0.0029618 0.11731 -0.00099789 0.030699
29 -4.0848 -0.75718 1.5796 0.451 0.60243 -0.080376 0.052857 0.072421 0.09733 0.018516 4.2235 -0.77703 1.6453 0.44766 0.63985 -0.081332 0.058465 0.064166 0.10111 0.004678
30 -4.069 -0.75964 1.5427 0.50285 0.55717 -0.028185 0.10054 0.065602 0.098912 0.097812 4.2084 -0.77886 1.6086 0.50114 0.59693 -0.035562 0.11283 0.059205 0.10128 0.067978
31 -4.0334 -0.69669 1.5195 0.40619 0.42973 -0.15323 0.15022 0.053158 0.15991 0.087801 3.8274 -0.65487 1.4525 0.37172 0.42602 -0.14198 0.14456 0.047635 0.15003 0.066063
32 -3.8662 0.0073753 0.29112 -0.092875 0.4305 0.34703 -0.25076 -0.16183 -0.041445 -0.40334 3.1987 0.0067914 0.23869 -0.092121 0.36734 0.2726 -0.20759 -0.12955 -0.035255 -0.29719
33 -3.9928 -0.51533 1.3869 0.33058 0.58776 -0.071682 -0.072576 -0.017289 0.20933 -0.41215 3.7209 -0.47586 1.2979 0.29461 0.55937 -0.062414 -0.067067 -0.022131 0.19572 -0.3842
34 -4.0566 -0.66058 1.5396 0.44484 0.59473 0.0073923 0.044682 0.015509 0.11705 -0.072731 3.9926 -0.64619 1.5262 0.4218 0.60368 0.0041158 0.0478 0.0076946 0.11574 -0.079359
35 -4.0473 -0.70431 1.4878 0.40454 0.59966 0.011482 -0.0022827 0.047632 0.083456 0.023599 3.8699 -0.67035 1.4335 0.36967 0.59006 0.0085441 -0.0015504 0.037483 0.080525 0.010519
36 -3.9809 -0.61512 1.1791 0.074072 0.54552 0.010161 -0.15049 -0.055471 0.10623 -0.13681 3.6842 -0.57017 1.0978 0.052591 0.5138 0.010605 -0.15267 -0.058933 0.097946 -0.13056
37 -4.015 -0.48154 1.4872 0.57024 0.3444 0.29383 0.10557 0.036109 0.13528 0.13936 4.0265 -0.48281 1.496 0.54952 0.38807 0.26275 0.096943 0.032942 0.13209 0.14758
38 -4.0442 -0.70897 1.5591 0.42164 0.5425 -0.055338 0.10949 0.07735 0.017786 -0.042985 3.8087 -0.66267 1.4763 0.3808 0.52527 -0.055248 0.10753 0.066001 0.017945 -0.050056
39 -4.0468 -0.65551 1.4982 0.40595 0.60555 -0.033373 0.0028311 0.034384 0.11579 -0.092506 3.9031 -0.62847 1.4559 0.37579 0.6003 -0.033015 0.0027856 0.026478 0.11306 -0.0963
40 -4.0268 -0.6695 1.4329 0.26198 0.48183 -0.12055 0.13591 0.12331 -0.086076 -0.045873 3.9207 -0.64916 1.4079 0.24142 0.48186 -0.11664 0.13786 0.11178 -0.082322 -0.057489
41 -3.9962 -0.61113 1.316 0.11207 0.36109 -0.24455 0.10272 -0.19467 0.044059 -0.18092 3.8532 -0.58664 1.2815 0.09545 0.35852 -0.23685 0.10469 -0.1867 0.037489 -0.18879
42 -4.0962 -0.83352 1.5589 0.66475 0.54086 -0.078264 0.010522 0.24345 0.05655 0.1757 5.3887 -1.0719 2.0376 0.82718 0.72094 -0.099067 0.034251 0.28278 0.070719 0.18755
43 -4.0703 -0.75194 1.5529 0.43937 0.57967 -0.050093 0.074428 0.05147 0.12386 0.066529 4.1725 -0.76499 1.603 0.43308 0.6125 -0.054846 0.082121 0.043481 0.12704 0.036218
44 -4.0066 -0.6656 1.0737 -0.038341 0.23795 -0.14377 -0.30787 0.49373 0.12972 0.34588 4.9097 -0.80829 1.292 -0.092656 0.27738 -0.16055 -0.38619 0.58399 0.15594 0.42296
45 -3.9162 -0.18823 0.5081 -0.47116 -0.31409 -0.45889 0.25758 -0.22067 -0.25849 -0.14625 3.6011 -0.16661 0.46723 -0.45253 -0.28168 -0.42807 0.21855 -0.19258 -0.2512 -0.12367
46 -3.9709 -0.78329 0.96819 0.59854 0.15389 -0.066138 -0.19288 -0.029893 -0.028121 -0.38649 4.1483 -0.80057 1.029 0.57044 0.18707 -0.062844 -0.1991 -0.038466 -0.022789 -0.39334
47 -3.8941 -0.13665 0.48196 0.015407 0.085466 -0.53609 -0.27713 0.11585 -0.17562 -0.55949 3.705 -0.1129 0.47022 -0.012454 0.083415 -0.48875 -0.25762 0.1045 -0.16384 -0.51088
48 -3.9138 -0.26908 0.76471 0.017791 0.14281 -0.13072 -0.049016 -0.70952 0.32088 -0.47417 3.9491 -0.26782 0.78484 0.0027904 0.17375 -0.1335 -0.072521 -0.67796 0.30984 -0.47585
49 -3.9632 -0.72035 -0.36626 -0.45316 0.43064 0.3876 -0.19765 -0.082078 -0.009213 0.1878 3.6344 -0.66098 -0.33698 -0.44838 0.40135 0.36167 -0.21099 -0.084083 -0.006811 0.17318
50 -4.0067 -1.0097 -0.55238 -0.28429 0.98279 0.53347 1.0569 0.36004 0.0031512 0.25512 3.8157 -0.94628 -0.51137 -0.28591 0.92805 0.50858 0.96523 0.33495 0.0034125 0.22825
51 -3.9165 -0.48395 0.76425 0.098392 0.091353 0.22186 0.3105 -0.43821 0.20034 -0.1823 3.9554 -0.4824 0.78028 0.079043 0.11969 0.19705 0.26903 -0.41719 0.18618 -0.17664
52 -4.0529 -1.0603 -0.40081 -0.29845 0.91367 0.4712 1.2022 0.30787 0.01712 0.34839 4.6372 -1.1908 -0.43431 -0.3573 1.0239 0.53398 1.2986 0.34367 0.014624 0.37969
53 -3.9775 -0.77767 -0.39712 -0.65595 0.4091 0.17796 1.0656 0.32835 -0.077148 0.16426 4.0117 -0.77299 -0.38697 -0.68158 0.39181 0.1723 1.0253 0.32451 -0.084214 0.15413
54 -3.9313 -1.1186 -1.1028 0.35967 0.21479 -0.040229 0.3468 -0.23882 0.15844 0.0014377 3.3844 -0.92514 -0.90777 0.25205 0.19654 -0.0056907 0.26652 -0.17703 0.12195 -0.0016707
55 -3.9346 -0.59974 -0.28193 -0.51583 0.24479 0.3139 -0.16646 -0.30131 0.098815 0.2246 3.4074 -0.51847 -0.24657 -0.47111 0.22408 0.27612 -0.18169 -0.24952 0.077141 0.19229
56 -3.9515 -0.44553 0.51125 -0.56639 -0.31566 -0.54163 0.14543 -0.46947 -0.0037263 -0.12757 3.9567 -0.44158 0.5181 -0.5879 -0.31793 -0.53557 0.13079 -0.44628 -0.025216 -0.12263
57 -3.9343 -0.27351 0.24413 -0.66784 -0.70879 -0.59493 0.52776 -0.64238 -0.0056609 0.020685 3.7031 -0.25359 0.23249 -0.64833 -0.64783 -0.55582 0.46367 -0.54697 -0.043822 0.010016
58 -3.9412 -0.24084 1.0422 0.33897 -0.028304 0.54565 -0.028484 0.07533 0.13462 0.68234 4.2651 -0.2647 1.1225 0.33813 0.022404 0.53332 -0.051694 0.086746 0.14588 0.76147
59 -3.94 -0.46712 -0.29738 -0.48121 0.025574 0.079044 -0.65217 -0.03171 -0.061722 -0.045762 3.4324 -0.4026 -0.26081 -0.45919 0.024788 0.075215 -0.59638 -0.033382 -0.051294 -0.03977
60 -4.1601 -1.3975 -1.0383 1.7684 -0.51758 -0.31456 -0.13468 0.21271 -0.11851 -0.071322 4.2182 -1.3419 -0.98394 1.6431 -0.46559 -0.28701 -0.12396 0.20549 -0.11165 -0.065474
61 -3.9409 -0.27178 -0.24252 -0.4195 -0.43542 0.076913 -0.68978 0.29068 0.20207 0.31465 3.6942 -0.25353 -0.23676 -0.45109 -0.39404 0.068103 -0.67666 0.26942 0.19272 0.30632
62 -3.9344 -0.48551 -0.32776 -0.41449 0.10875 0.34068 -0.51156 -0.2981 -0.082741 -0.0013035 3.4125 -0.42204 -0.28834 -0.3983 0.1093 0.29425 -0.46533 -0.2548 -0.069614 0.0045659
63 -3.9468 -0.76909 -0.30611 -0.081924 -0.42052 -0.87814 0.44944 -1.3653 0.74676 0.25193 3.9121 -0.73118 -0.27608 -0.12208 -0.38616 -0.8003 0.39913 -1.2488 0.68129 0.22922
64 -4.1184 -1.2694 -0.70577 1.8006 -0.65765 -0.3571 -0.36409 0.22758 -0.14855 -0.01878 4.5449 -1.3229 -0.71199 1.8145 -0.64992 -0.36035 -0.3746 0.23163 -0.15055 -0.01358
65 -4.1301 -1.2968 -0.76367 1.8025 -0.63265 -0.35241 -0.32195 0.22909 -0.14394 -0.031185 4.5577 -1.3532 -0.77533 1.8213 -0.62625 -0.35619 -0.332 0.23559 -0.14705 -0.026809
66 -3.9508 -0.6602 -0.34293 -0.21298 0.035205 0.031965 -0.6053 -0.034278 -0.15796 -0.19525 3.957 -0.65247 -0.33633 -0.26778 0.053588 0.049953 -0.61292 -0.054825 -0.15482 -0.1939
67 -3.9392 -0.50626 -0.32472 -0.24137 -0.0046254 0.27529 -0.55707 -0.18157 -0.077181 -0.024381 3.657 -0.46852 -0.30037 -0.27544 0.019523 0.2518 -0.55063 -0.17615 -0.074087 -0.014839
68 -3.9474 -0.49222 -0.30464 -0.5167 0.061387 0.22117 -0.60467 -0.1244 -0.061617 0.086745 3.4279 -0.42928 -0.27002 -0.48944 0.061872 0.19588 -0.54838 -0.10913 -0.050896 0.08167
69 -4.1952 -1.3891 -0.99667 1.8511 -0.57987 -0.32572 -0.17498 0.23599 -0.13516 -0.076441 4.3578 -1.3663 -0.96483 1.7675 -0.53983 -0.30917 -0.16944 0.23256 -0.13149 -0.070429
70 -3.9272 -0.27773 -0.2093 -0.49157 -0.059188 -0.18241 -0.47335 -0.18772 -0.1035 0.01404 3.5813 -0.24207 -0.19085 -0.48722 -0.051768 -0.15918 -0.45182 -0.17927 -0.099682 0.0019894
71 -4.1583 -1.3947 -1.0711 1.7065 -0.47273 -0.28907 -0.080629 0.18853 -0.099751 -0.075294 4.2813 -1.3619 -1.0343 1.6119 -0.43055 -0.26707 -0.075184 0.18728 -0.096344 -0.070548
72 -3.9298 -0.46799 -0.047585 -0.54718 -0.11892 0.11851 -0.51807 -0.12924 -0.11359 0.018399 3.3535 -0.40051 -0.043774 -0.49943 -0.091702 0.098581 -0.45929 -0.10682 -0.10006 0.023004
73 -3.9434 -0.36126 -0.2162 -0.44523 -0.28156 0.17209 -0.70318 0.038243 0.2533 0.30687 3.5701 -0.3284 -0.20262 -0.45289 -0.23642 0.15714 -0.67015 0.03124 0.22981 0.28605
74 -3.9411 -0.48593 -0.32609 -0.43083 -0.1138 0.11238 -0.60236 -0.43679 0.139 0.19521 3.492 -0.42743 -0.29488 -0.42446 -0.080332 0.1102 -0.57301 -0.37007 0.1162 0.17261
75 -3.9093 -0.52158 -0.18254 -0.31721 -0.38114 -0.80043 0.45876 -1.1353 0.51676 0.15738 3.6022 -0.45952 -0.14909 -0.31931 -0.33581 -0.67874 0.37232 -0.96824 0.42553 0.12833
76 -3.9002 -0.47005 0.35544 0.26318 -0.3378 -0.69987 0.017948 -0.38206 1.0241 0.46984 4.0745 -0.46485 0.39847 0.23199 -0.3217 -0.68198 0.00051655 -0.35628 1.048 0.48166
77 -3.9649 -0.77075 -0.58008 -0.26436 0.084408 0.15423 -0.43201 -0.11977 -0.13532 -0.020249 3.8788 -0.74338 -0.56118 -0.31585 0.096671 0.16629 -0.43282 -0.12835 -0.13299 -0.020417
78 -3.8453 0.82299 0.25185 0.39411 -0.88114 0.76217 0.16555 0.05729 0.017019 0.22267 3.1751 0.6781 0.18949 0.29089 -0.6481 0.52875 0.12565 0.055849 0.002518 0.18048
79 -3.9599 -0.66705 -0.7623 -0.43636 0.49966 0.33645 0.10112 -0.057949 0.010373 -0.015093 3.5376 -0.58838 -0.67972 -0.42703 0.45128 0.31653 0.067293 -0.053558 0.01014 -0.0013587
80 -4.0716 -1.1846 -0.59136 1.7056 -0.65334 -0.32053 -0.37803 0.1924 -0.13073 0.0029765 4.8146 -1.324 -0.63493 1.8426 -0.69288 -0.3491 -0.42205 0.20972 -0.1431 0.011649
81 -4.1669 -1.4028 -1.0805 1.7273 -0.4816 -0.2951 -0.084518 0.19536 -0.10433 -0.078797 4.2561 -1.3585 -1.0346 1.6186 -0.43561 -0.27071 -0.078273 0.19197 -0.099794 -0.073247
82 -4.0301 -1.1256 -0.52275 1.5932 -0.61283 -0.28053 -0.34918 0.15365 -0.10389 0.013822 4.9611 -1.3129 -0.58316 1.7948 -0.67706 -0.32037 -0.4114 0.17583 -0.12008 0.026203
83 -4.1775 -1.4222 -1.1053 1.7844 -0.50657 -0.31237 -0.095422 0.2153 -0.1177 -0.089581 4.2074 -1.3533 -1.0363 1.6386 -0.449 -0.27994 -0.086184 0.20347 -0.10816 -0.079762
84 -3.9152 -0.41412 -0.21447 -0.31105 -0.0040413 0.17114 -0.4736 -0.65281 0.090627 -0.2857 3.4146 -0.35671 -0.18263 -0.30798 0.013237 0.15166 -0.44086 -0.54394 0.070688 -0.22095
85 -3.9299 -0.34897 -0.40256 -0.27167 0.15099 0.329 -0.56115 -0.074182 0.023014 0.17415 3.5953 -0.31539 -0.37071 -0.29404 0.15435 0.30019 -0.54125 -0.075192 0.027922 0.15924
86 -3.9575 -0.62759 -0.34845 -0.26282 0.1619 0.1353 -0.52874 -0.21985 -0.098748 -0.17419 3.8311 -0.60195 -0.33305 -0.30849 0.17267 0.14757 -0.53436 -0.22638 -0.093951 -0.1627
87 -4.1645 -1.4049 -1.0475 1.7705 -0.51394 -0.31942 -0.13268 0.21408 -0.11881 -0.073969 4.1936 -1.3399 -0.98606 1.6339 -0.45917 -0.28927 -0.12106 0.2053 -0.11111 -0.067582
88 -3.9543 -0.55337 -0.025621 -0.36862 0.061485 0.063664 -0.73303 -0.06859 -0.071551 0.12681 3.5698 -0.49994 -0.023746 -0.37893 0.062856 0.06964 -0.69242 -0.072999 -0.062082 0.12214
89 -4.1647 -1.3989 -1.0729 1.7248 -0.48254 -0.2937 -0.086716 0.19452 -0.10384 -0.07728 4.2538 -1.3548 -1.0272 1.6164 -0.43658 -0.26957 -0.080493 0.19125 -0.099414 -0.071754
90 -3.9257 -0.10807 -0.20713 -0.36918 -0.33858 -0.36915 -0.52493 0.42409 -0.070837 0.29927 3.7185 -0.09383 -0.19595 -0.40019 -0.32213 -0.32615 -0.51936 0.38874 -0.077506 0.2923
91 -3.9434 -0.50732 -0.19469 -0.44717 -0.13232 -0.21961 -0.38354 -0.28647 -0.24762 -0.23283 3.6588 -0.46481 -0.17838 -0.46171 -0.11445 -0.19358 -0.37097 -0.27646 -0.23581 -0.21985
92 -3.9173 -0.22893 -0.28671 -0.59576 -0.10213 -0.016855 -0.56063 0.26662 0.089033 -0.037114 3.2965 -0.19212 -0.24362 -0.52997 -0.082643 -0.0063892 -0.48335 0.21632 0.076117 -0.022624
93 -3.9688 -1.0822 -0.15743 1.1416 -0.4043 -0.41627 -0.51067 0.05777 -0.043478 0.073065 5.229 -1.3646 -0.1595 1.3559 -0.47523 -0.49976 -0.6563 0.065582 -0.052136 0.09897
94 -3.9431 -0.54793 -0.356 -0.48239 0.050059 0.30746 -0.51403 -0.12093 -0.12531 0.061435 3.4197 -0.47585 -0.311 -0.45784 0.054375 0.26341 -0.46834 -0.10508 -0.1096 0.059889
95 -4.1159 -1.3114 -0.66132 1.7271 -0.59568 -0.42623 -0.40141 0.22557 -0.14265 -0.021312 4.7286 -1.4281 -0.69211 1.8139 -0.61627 -0.44765 -0.43566 0.23953 -0.1509 -0.018473
96 -4.1993 -1.3974 -1.0158 1.8468 -0.57046 -0.3244 -0.16294 0.23404 -0.13298 -0.078747 4.2898 -1.3521 -0.96832 1.7346 -0.52206 -0.30251 -0.1549 0.22732 -0.12736 -0.071874
97 -3.9324 -0.20921 -0.14259 -0.58165 -0.76874 -0.28241 -0.24937 0.28055 -0.078728 0.12303 3.6285 -0.18877 -0.13418 -0.58395 -0.69416 -0.25945 -0.25858 0.26846 -0.075446 0.12137
98 -4.0797 -1.0356 -0.96 1.8964 -0.76577 -0.031605 -0.049386 0.19707 -0.11946 -0.014554 4.0601 -0.95978 -0.89431 1.7309 -0.67332 -0.035519 -0.034094 0.18695 -0.11281 -0.0034346
99 -4.1724 -1.4054 -1.08 1.741 -0.48942 -0.29854 -0.090145 0.19977 -0.10739 -0.079752 4.2303 -1.351 -1.0263 1.62 -0.44005 -0.2723 -0.083167 0.19471 -0.10203 -0.073608
100 -3.9408 -0.42698 -0.068345 -0.46126 -0.45681 -0.31261 -0.32438 0.28232 -0.32278 0.010027 3.7642 -0.40225 -0.064091 -0.49565 -0.43613 -0.29195 -0.31978 0.261 -0.31346 0.0026724
101 -3.9424 -0.42712 -0.18471 -0.51339 -0.14863 0.28291 -0.67144 -0.03366 -0.077608 0.57894 3.4601 -0.37703 -0.17512 -0.49459 -0.11459 0.22991 -0.60434 -0.037241 -0.068214 0.44976
102 -3.9555 -0.50354 0.92446 -0.088657 0.21047 -0.01636 -0.17019 -0.15315 0.015061 -0.42072 4.051 -0.51549 0.95342 -0.10992 0.22708 -0.023014 -0.17515 -0.15103 0.017329 -0.43448
103 -3.9751 -0.49282 1.2133 0.056248 0.11118 -0.25668 0.17277 0.33042 -0.27496 -0.026708 4.1914 -0.51571 1.2939 0.041369 0.12253 -0.28182 0.19612 0.34976 -0.29638 -0.053438
104 -3.9212 -0.29638 0.68896 -0.081108 0.15519 0.39674 -0.29874 -0.38735 0.090817 -0.61697 3.8369 -0.29491 0.66537 -0.10044 0.18228 0.3579 -0.31105 -0.36512 0.085489 -0.56625
105 -3.9596 -0.58346 -0.048985 -0.39403 0.20581 0.16513 -0.60728 -0.1154 0.011998 -0.042858 3.8136 -0.56288 -0.048843 -0.41714 0.20276 0.17225 -0.62232 -0.11188 0.013799 -0.019487
106 -3.9185 -0.1547 0.30499 -0.2136 0.56912 0.0025894 0.23944 0.48316 0.018849 -0.016309 4.1748 -0.15833 0.32996 -0.23778 0.61128 0.020892 0.2388 0.50045 0.018579 -0.0022342
107 -3.9656 -0.36633 0.87098 -0.46531 -0.42148 -0.48865 0.41163 0.48778 -0.4611 0.091953 4.1786 -0.38887 0.93058 -0.50706 -0.44043 -0.51409 0.42371 0.5207 -0.49209 0.11094
108 -3.9041 0.01899 -0.0095714 -0.15948 0.33883 -0.2443 -0.46022 -0.024375 -0.067603 -0.57645 3.7957 0.031829 -0.0026592 -0.17584 0.32966 -0.22636 -0.46669 -0.030924 -0.070428 -0.54263
109 -4.015 -0.64387 1.3036 0.32771 0.24912 -0.26965 0.061914 -0.010204 -0.078481 -0.33642 4.4909 -0.70853 1.4756 0.3362 0.29341 -0.30032 0.077611 -0.018693 -0.088914 -0.38192
110 -3.9397 -0.86665 0.21259 0.15394 0.10279 -0.43631 0.51203 -1.0631 0.46585 0.16096 4.2654 -0.91833 0.26645 0.14185 0.13798 -0.43317 0.5153 -1.0718 0.4721 0.18097
111 -3.9193 0.0016622 0.52644 0.0041158 -0.31837 0.88863 -0.31879 0.02862 0.019538 1.3321 4.3091 -0.006672 0.54939 -0.026254 -0.28179 0.86762 -0.35139 0.035599 0.01858 1.3268
112 -3.9722 -0.54545 -0.35328 -0.55565 0.1792 0.30794 -0.56392 -0.15993 0.006861 0.19918 3.6409 -0.50337 -0.33098 -0.5504 0.1731 0.29118 -0.55509 -0.15427 0.0071809 0.18906
113 -3.9346 -0.41249 -0.20626 -0.71076 -0.24442 0.0197 0.046631 -0.084288 -0.095489 0.02313 3.4343 -0.36203 -0.18429 -0.65282 -0.20833 0.013963 0.010937 -0.075521 -0.090207 0.0212
114 -3.9678 -0.49142 -0.25047 -0.64272 0.0072331 0.15678 -0.54948 -0.3019 0.1484 0.29541 3.6474 -0.45573 -0.23745 -0.62982 0.015331 0.15564 -0.54464 -0.27197 0.13414 0.27478
115 -3.9564 -0.36185 -0.12839 -0.55517 0.21908 0.14327 -0.69492 -0.12268 -0.020869 0.071457 3.5868 -0.32929 -0.12184 -0.53765 0.20508 0.13792 -0.66319 -0.11808 -0.016822 0.065924
116 -3.9636 -0.41351 -0.099629 -0.71417 -0.19923 -0.0061968 -0.45943 0.30425 -0.18308 0.22461 3.7253 -0.39247 -0.10251 -0.71081 -0.1871 0.00074912 -0.4672 0.28131 -0.17071 0.21451
117 -3.9609 -0.37668 -0.19632 -0.6111 -0.076014 0.34352 -0.62035 -0.054417 0.040048 0.25289 3.5751 -0.34777 -0.18825 -0.59406 -0.054704 0.30516 -0.60103 -0.050191 0.037921 0.23974
118 -3.9734 -0.6219 -0.4085 -0.3998 0.19953 0.25707 -0.47291 -0.22326 -0.086078 0.097178 3.9049 -0.61094 -0.40238 -0.43813 0.20745 0.26355 -0.50136 -0.22723 -0.088891 0.10107
119 -3.9475 -0.4631 0.19093 -0.7172 -0.44983 -0.52686 0.55386 -0.40686 -0.13342 0.055976 3.8616 -0.44635 0.19433 -0.72203 -0.4388 -0.51011 0.50563 -0.37771 -0.15314 0.040303
120 -3.9903 -0.90577 -0.77603 -0.44369 0.6039 0.32501 0.78666 0.068502 0.03094 0.18328 3.9266 -0.87296 -0.74621 -0.46394 0.58594 0.32643 0.71062 0.072599 0.018383 0.16605
121 -3.9209 -0.12962 -0.35041 -0.47511 0.41585 0.073445 -0.65217 -0.18696 -0.12488 -0.26754 3.3671 -0.10906 -0.30285 -0.43063 0.35324 0.075528 -0.57254 -0.16641 -0.10455 -0.22061
122 -3.9794 -0.74195 -0.67819 -0.59814 0.48226 0.46419 -0.003471 0.021345 -0.056247 0.15049 3.4912 -0.65051 -0.59891 -0.55681 0.42845 0.41305 -0.030943 0.010292 -0.048717 0.13141
123 -3.9886 -0.76831 -0.60125 -0.72157 0.38023 0.31445 0.75113 0.33434 -0.259 0.13169 3.9445 -0.75569 -0.5927 -0.73598 0.38091 0.32166 0.69984 0.31993 -0.25311 0.13143
124 -3.9758 -0.66345 -0.41072 -0.3972 0.16381 0.15786 -0.39296 -0.26754 -0.12914 -0.03093 3.9074 -0.65145 -0.40177 -0.43639 0.17087 0.16741 -0.42139 -0.27168 -0.13321 -0.02512
125 -3.9725 -0.41746 -0.17078 -0.60346 0.064292 0.29459 -0.82139 -0.19091 0.010256 0.30554 3.631 -0.38692 -0.1657 -0.59108 0.068191 0.27169 -0.79035 -0.1816 0.01241 0.27274
126 -3.9581 -0.38234 -0.13409 -0.54963 0.028741 0.35485 -0.68339 -0.067481 0.01958 0.21407 3.5641 -0.35109 -0.13397 -0.53591 0.040091 0.3149 -0.65625 -0.064402 0.017313 0.20205
127 -3.9716 -0.63758 -0.47553 -0.43714 0.2554 0.28182 -0.32307 -0.20631 -0.10338 -0.01337 3.8435 -0.61651 -0.46157 -0.46588 0.2589 0.28617 -0.34752 -0.20702 -0.10327 -0.0049906
128 -3.9778 -0.56618 -0.2866 -0.48258 0.19694 0.13817 -0.39604 -0.24343 -0.095398 -0.064218 4.07 -0.5821 -0.29518 -0.53727 0.21321 0.15396 -0.43854 -0.25897 -0.10207 -0.063062
129 -3.9683 -0.5115 -0.24959 -0.61183 0.18103 0.30339 -0.58333 -0.089225 -0.039977 0.18419 3.6271 -0.47136 -0.23685 -0.59646 0.17171 0.28396 -0.56622 -0.089209 -0.037081 0.17418
130 -3.969 -0.17881 0.61534 -0.68083 -0.66936 -0.57764 0.45089 0.40535 -0.54474 -0.19469 3.9733 -0.17975 0.62413 -0.69944 -0.67038 -0.58708 0.44871 0.41392 -0.55047 -0.18845
131 -3.9776 -0.077554 0.41962 -0.84986 -0.90633 -0.63529 0.47887 0.42202 -0.52967 -0.17686 3.8154 -0.07391 0.40499 -0.83441 -0.87017 -0.61974 0.45191 0.41721 -0.5112 -0.16722
132 -3.9525 -0.55211 0.13146 -0.38263 0.3292 0.25056 -0.62399 -0.12416 0.083613 0.12314 3.5591 -0.50162 0.11719 -0.37616 0.30381 0.23578 -0.60021 -0.11837 0.079587 0.12572
133 -3.9356 1.0282 -0.081515 -0.04322 0.41087 -0.30471 -0.16988 -0.009901 -0.12899 -0.85387 3.5613 0.94543 -0.077287 -0.040746 0.37468 -0.27435 -0.14932 -0.0079741 -0.11778 -0.69828
134 -3.9165 -0.10653 -0.045411 -0.26526 0.40821 -0.085371 -0.60703 0.018282 0.17314 -0.26768 3.6555 -0.0939 -0.03991 -0.27254 0.38151 -0.062883 -0.60201 0.0051581 0.16562 -0.23063
135 -3.9607 0.028898 0.20639 -0.80801 -0.93946 -0.30027 0.39532 0.41555 -0.52002 -0.12614 3.7684 0.025017 0.19078 -0.79585 -0.88482 -0.31262 0.36443 0.40666 -0.50062 -0.12091
136 -3.9518 1.1996 -0.23863 -0.073991 0.35781 -0.3298 -0.070034 0.40808 0.46882 -0.42041 3.3986 1.0499 -0.20838 -0.062488 0.31298 -0.28321 -0.062147 0.32969 0.36846 -0.34398
137 -3.9511 -0.26137 -0.15711 -0.70951 -0.15091 0.0026752 -0.44914 0.047644 -0.082029 0.10173 3.7711 -0.25114 -0.15877 -0.71372 -0.14291 -0.0025069 -0.44931 0.044398 -0.075958 0.075024
138 -3.9645 -0.18929 -0.13084 -0.76328 -0.4542 -0.091808 -0.53632 0.51616 0.29435 0.41112 3.8542 -0.18586 -0.1422 -0.78571 -0.44828 -0.091177 -0.5506 0.50479 0.28666 0.3966
139 -3.9677 -0.5185 -0.44501 -0.47255 0.50755 0.36149 -0.12451 -0.091271 -0.023873 -0.41678 3.9985 -0.51937 -0.4449 -0.50763 0.51774 0.36683 -0.15392 -0.09849 -0.026058 -0.41873
140 -3.9441 0.01252 0.093509 -0.80254 -0.76688 -0.17887 -0.081268 0.49973 -0.0041517 0.18654 3.7226 0.0085001 0.080649 -0.78627 -0.71993 -0.19253 -0.082861 0.47676 -0.011399 0.17164
141 -3.9343 0.48816 -0.10453 -0.57949 -0.6335 -0.23598 -0.12342 0.88702 0.97833 0.23259 3.7004 0.46076 -0.1117 -0.56916 -0.58639 -0.23049 -0.13626 0.82035 0.8964 0.22166
142 -3.9453 -0.11486 0.22238 -0.82645 -0.83766 -0.45024 0.37422 0.12238 -0.28674 -0.099993 3.5905 -0.10515 0.20151 -0.77314 -0.75512 -0.42271 0.33063 0.12465 -0.27282 -0.093503
143 -3.9658 -0.28619 -0.15564 -0.68737 -0.27844 -0.071784 -0.69429 0.35103 0.21896 0.1332 3.8556 -0.28011 -0.16295 -0.70915 -0.27255 -0.063004 -0.70827 0.33867 0.21413 0.13734
144 -3.8984 0.53046 0.16024 -0.11761 0.29017 -0.02645 -0.28915 -0.19795 -0.09041 -0.89558 3.7222 0.51695 0.14816 -0.12302 0.29714 -0.04197 -0.28612 -0.18512 -0.089934 -0.83217
145 -3.8947 0.10757 -0.30132 -0.60921 -0.20178 -0.61345 0.55941 0.18478 0.097451 -0.19962 3.4858 0.10788 -0.26682 -0.5595 -0.19052 -0.52697 0.49065 0.18109 0.063678 -0.17161
146 -3.9522 -0.083908 0.19824 -0.90268 -0.9735 -0.51284 0.69881 0.30477 -0.39078 -0.012449 3.6278 -0.076673 0.17637 -0.83572 -0.86562 -0.4706 0.60406 0.28162 -0.34667 -0.012413
147 -3.9639 -0.44534 -0.3231 -0.5467 0.091093 0.20601 -0.6998 -0.10127 -0.002237 0.10236 3.6437 -0.41076 -0.30348 -0.54388 0.08945 0.19792 -0.68095 -0.09817 5.0118e-05 0.10107
148 -3.9204 -0.29309 0.62667 -0.024265 0.04929 0.44781 -0.16181 -0.29082 0.043664 -0.31687 3.9848 -0.3025 0.63406 -0.056788 0.082672 0.4217 -0.18956 -0.28378 0.037874 -0.28759
149 -3.9727 -0.32539 -0.033633 -0.74984 -0.33264 -0.081322 -0.378 0.099938 -0.092623 0.083597 4.4369 -0.36721 -0.044009 -0.88089 -0.37379 -0.094032 -0.44632 0.11539 -0.10796 0.08997
150 -3.9597 -0.015473 0.26231 -0.85091 -0.96935 -0.46668 0.51165 0.26755 -0.52215 -0.10972 3.6876 -0.01543 0.23974 -0.81415 -0.89356 -0.45546 0.46559 0.26028 -0.49149 -0.10289
151 -3.96 -0.062985 0.25508 -0.84896 -0.93681 -0.41792 0.44744 0.2578 -0.50991 -0.099053 3.6646 -0.0599 0.23243 -0.80981 -0.85909 -0.40638 0.40059 0.249 -0.47787 -0.0916
152 -3.9487 -0.37621 0.19932 -0.75023 -0.63033 -0.76853 0.40088 -0.59131 -0.033215 -0.052671 3.6893 -0.3459 0.1925 -0.72253 -0.58264 -0.6989 0.34344 -0.50271 -0.065746 -0.058758
153 -4.0035 -0.76558 -0.92277 -0.3396 0.70859 0.48878 0.42757 0.072357 -0.005679 -0.11851 4.0099 -0.75593 -0.91882 -0.37526 0.72078 0.50278 0.41028 0.073599 -0.0073643 -0.11535
154 -3.9692 -0.4379 -0.28277 -0.68325 0.10929 0.24422 -0.82464 -0.12429 -0.036333 0.20552 3.5585 -0.39396 -0.25828 -0.63969 0.10063 0.21908 -0.74085 -0.11157 -0.0299 0.17591
155 -4.0003 -0.77132 -0.89202 -0.32476 0.65644 0.50348 0.42642 0.11364 -0.003487 -0.045453 4.0648 -0.77268 -0.90028 -0.36721 0.67762 0.52273 0.41308 0.11831 -0.004339 -0.041319
156 -3.9642 -0.46352 -0.35703 -0.47352 0.3816 0.29275 -0.31381 -0.15967 -0.00087432 -0.42958 3.9672 -0.46253 -0.35601 -0.50745 0.38966 0.2973 -0.34247 -0.16465 -0.001732 -0.42688
157 -3.9157 0.059629 0.17283 -0.77321 -0.52844 -0.48231 0.2151 0.28771 -0.11003 -0.28003 3.4179 0.056126 0.14616 -0.69113 -0.4661 -0.42396 0.17006 0.25572 -0.10245 -0.23248
158 -3.9721 -0.35832 -0.0053814 -0.833 -0.48248 -0.10444 -0.28491 0.21924 -0.289 0.29975 4.1406 -0.37619 -0.022922 -0.90436 -0.49825 -0.1074 -0.32414 0.21508 -0.29823 0.29737
159 -3.9398 -0.10336 0.098361 -0.74836 -0.8042 -0.2774 0.08595 0.17974 -0.067643 0.2248 3.7197 -0.099448 0.085817 -0.7369 -0.74605 -0.27586 0.058596 0.18069 -0.070126 0.21096
160 -4.0316 -0.84391 -1.0776 -0.39504 0.81532 0.53294 0.61074 0.20971 0.023551 -0.047189 3.8696 -0.7969 -1.027 -0.40977 0.78562 0.52205 0.56672 0.19913 0.020901 -0.045061
161 -3.9448 -0.43658 0.21653 -0.47965 0.17984 0.14429 -0.63664 -0.17276 -0.028291 -0.41449 3.5969 -0.40145 0.18558 -0.46903 0.16997 0.13496 -0.60672 -0.15675 -0.025157 -0.35099
162 -3.9477 -0.32716 -0.1859 -0.58227 -0.14752 0.24462 -0.29604 -0.39375 0.074296 -0.0073537 3.8208 -0.32155 -0.18773 -0.60413 -0.12237 0.22472 -0.33293 -0.36819 0.060645 0.0060368
163 -3.9263 -0.11934 0.1774 -0.28618 0.22271 -0.067927 -0.63695 -0.21068 -0.095286 -0.74651 3.9566 -0.11601 0.17989 -0.31375 0.22919 -0.067483 -0.65888 -0.21112 -0.094953 -0.71638
164 -3.9371 -0.11011 -0.32128 -0.53625 0.22287 0.01999 -0.4063 -0.071304 -0.27586 0.10874 3.755 -0.093724 -0.31531 -0.54144 0.21596 0.027899 -0.41394 -0.075744 -0.26987 0.10811
165 -3.9242 0.5198 -0.14117 -0.45328 0.11648 -0.36899 -0.34113 0.20939 -0.026196 -0.54363 3.7595 0.51126 -0.14071 -0.45202 0.10646 -0.34893 -0.33627 0.19657 -0.033255 -0.50693
166 -3.927 -0.14727 -0.23436 -0.56438 0.22796 -0.032999 -0.59762 -0.039093 0.034924 -0.13502 3.4251 -0.12777 -0.2081 -0.51869 0.19399 -0.01735 -0.54189 -0.044028 0.022693 -0.1129
167 -3.9714 -0.34732 -0.22645 -0.61205 -0.049907 0.29156 -0.67392 -0.11411 -0.066057 0.34917 4.0995 -0.36325 -0.24794 -0.67702 -0.039449 0.29195 -0.73182 -0.12197 -0.068038 0.32929
168 -3.9703 -0.58865 -0.55752 -0.50715 0.30097 0.37441 -0.39223 -0.12428 0.037391 0.15984 3.7613 -0.55736 -0.53334 -0.51876 0.29407 0.36196 -0.39884 -0.12309 0.036999 0.15056
169 -3.9691 -0.40603 -0.20049 -0.56267 0.064752 0.18616 -0.81031 -0.14019 0.065859 0.16655 3.8399 -0.39493 -0.20048 -0.58389 0.07047 0.18396 -0.82078 -0.14151 0.068257 0.15704
170 -3.9519 -0.30406 0.29764 -0.71858 -0.52655 -0.67933 0.37291 -0.20783 -0.24518 -0.20401 3.8636 -0.29368 0.29746 -0.72585 -0.51503 -0.66095 0.3473 -0.1878 -0.25863 -0.20828
171 -3.9987 -0.794 -0.84276 -0.42124 0.74927 0.45637 0.81833 0.3106 -0.036087 -0.03513 3.8731 -0.75626 -0.80843 -0.43409 0.72555 0.44927 0.76754 0.29691 -0.037853 -0.037208
172 -3.9643 -0.43702 -0.34522 -0.47815 0.43145 0.30606 -0.2199 -0.087455 0.00047291 -0.42201 4.0566 -0.44611 -0.35227 -0.52 0.44946 0.31662 -0.25055 -0.093842 0.00018226 -0.42908
173 -3.9636 1.1817 -0.25565 -0.030339 0.44411 -0.2363 -0.20774 0.085647 0.056293 -0.48488 3.4934 1.0663 -0.23238 -0.028009 0.40349 -0.21428 -0.18832 0.0679 0.037266 -0.40496
174 -3.9163 0.11586 0.088348 -0.43222 -0.41239 0.64981 -0.41756 -0.1523 -0.27518 0.63933 4.0129 0.10966 0.06496 -0.47544 -0.37641 0.59241 -0.44137 -0.15163 -0.28298 0.55698
175 -3.9498 -0.29671 0.064826 -0.64037 -0.18799 0.078218 -0.67929 0.096632 0.19607 0.42521 3.7561 -0.28606 0.050335 -0.63992 -0.17501 0.06981 -0.66613 0.088347 0.19013 0.38317
176 -3.9515 -0.033476 0.062476 -0.87429 -0.65309 -0.41139 0.3468 0.70185 0.022416 0.04234 3.7732 -0.028888 0.058178 -0.85813 -0.63751 -0.40107 0.30549 0.66969 0.018006 0.036122
177 -3.9256 -0.061433 0.25512 -0.69551 -0.50879 -0.4332 0.17831 0.030899 -0.43743 -0.27917 3.5999 -0.054612 0.22955 -0.65925 -0.46413 -0.40284 0.15295 0.036281 -0.41027 -0.258
178 -3.9858 -0.40556 -0.27282 -0.62575 0.032639 0.13312 -0.64847 -0.080843 -0.047114 0.12313 4.2456 -0.43669 -0.30138 -0.71715 0.041323 0.14657 -0.73373 -0.09361 -0.054624 0.12165
179 -3.9549 -0.33092 0.039623 -0.71908 -0.24807 -0.11188 -0.50421 0.36905 0.072133 0.22298 3.7466 -0.31256 0.0090079 -0.72157 -0.246 -0.097546 -0.49784 0.3279 0.057484 0.19259
180 -3.9586 -0.52116 -0.31119 -0.61558 -0.08611 0.0041061 -0.28214 -0.2382 -0.13382 0.0032008 3.6722 -0.4841 -0.29129 -0.61223 -0.076154 0.010375 -0.2872 -0.22432 -0.13122 0.0038234
181 -4.0267 -0.87675 -1.0341 -0.37484 0.76067 0.50692 0.56288 0.17375 -0.007476 -0.046052 3.9395 -0.84469 -1.0044 -0.40057 0.74893 0.5074 0.52965 0.1678 -0.0087289 -0.045226
182 -3.9631 -0.43875 -0.15029 -0.61578 -0.043648 0.18707 -0.66849 -0.18426 0.12814 0.37717 3.5688 -0.39932 -0.14582 -0.59365 -0.033798 0.17686 -0.64394 -0.16149 0.11307 0.33732
183 -3.9789 -0.49157 -0.27024 -0.63146 0.10579 0.28047 -0.6987 -0.16235 0.013753 0.20124 3.6172 -0.45278 -0.25606 -0.61575 0.10413 0.26369 -0.67601 -0.15493 0.014141 0.18872
184 -3.9534 -0.083999 -0.15121 -0.64515 -0.56358 0.10439 -0.46016 0.39256 0.25923 0.32216 3.8641 -0.0882 -0.16134 -0.67874 -0.53917 0.08259 -0.4928 0.39373 0.25426 0.33588
185 -3.9307 0.39668 -0.011476 -0.57971 -0.14159 -0.63959 0.091017 0.24915 -0.38135 -0.65164 3.9586 0.41204 -0.011565 -0.59952 -0.15393 -0.63848 0.091666 0.24968 -0.39356 -0.64264
186 -3.9114 1.0078 0.06704 0.11899 -0.20565 0.58005 0.014546 -0.67387 -0.1043 -0.39611 3.6835 0.94877 0.045896 0.093082 -0.12769 0.45966 -0.0086297 -0.60113 -0.11063 -0.35494
187 -3.9318 0.65066 0.013485 -0.35222 0.20302 -0.36472 -0.14702 0.12804 -0.17792 -0.84516 4.0953 0.69094 0.011244 -0.37697 0.21189 -0.37805 -0.15693 0.12624 -0.19682 -0.86767
188 -3.9594 -0.043663 0.27311 -0.81309 -0.96584 -0.42704 0.42339 0.33468 -0.53792 -0.029358 3.6753 -0.042191 0.24954 -0.77985 -0.88794 -0.41574 0.38002 0.32254 -0.50601 -0.026763
189 -4.0059 1.3796 -0.30107 0.011398 0.31232 -0.62276 0.022768 -0.092965 0.42086 0.0091821 3.652 1.2823 -0.27477 0.013002 0.28861 -0.53797 0.005018 -0.072264 0.33708 0.021467
190 -3.9768 0.07716 0.33262 -0.83875 -1.1425 -0.23805 0.47436 0.38637 -0.70953 0.13939 3.8912 0.071905 0.31519 -0.84205 -1.0983 -0.27593 0.45966 0.38657 -0.70016 0.10722
191 -3.965 -0.1169 0.011616 -0.70427 -0.67033 -0.18416 -0.2422 0.41073 -0.10313 0.23978 4.2839 -0.1266 0.0052166 -0.80025 -0.72065 -0.21827 -0.26873 0.44874 -0.11322 0.2444
192 -3.9336 -0.16174 0.62645 -0.50106 -0.3544 -0.33279 0.053747 0.25611 -0.13791 -0.23236 3.8884 -0.15797 0.62085 -0.51621 -0.35512 -0.33944 0.044827 0.26051 -0.13655 -0.23564
193 -3.9558 0.010853 0.26025 -0.79243 -0.94962 -0.32622 0.3669 0.24489 -0.53661 -0.076727 3.8697 0.0093886 0.24348 -0.8001 -0.91448 -0.34829 0.34929 0.24954 -0.53812 -0.086575
194 -3.9666 -0.39628 0.62422 -0.41123 -0.044872 -0.16205 -0.18487 -0.24731 -0.0068235 -0.61526 4.3519 -0.43609 0.68843 -0.47684 -0.043831 -0.18405 -0.21584 -0.26161 -0.011528 -0.66746
195 -3.968 1.0805 -0.053606 -0.17287 -0.27742 -0.20971 -0.012026 0.7801 1.1692 -0.15024 3.8802 1.0634 -0.059859 -0.18126 -0.25272 -0.22232 -0.019845 0.75599 1.1099 -0.14568
196 -4.1398 1.8201 -0.17582 0.36149 0.3419 -0.17261 0.029057 -0.091712 -0.11123 0.13282 3.7018 1.6683 -0.16915 0.33062 0.33513 -0.17658 0.026712 -0.084922 -0.11841 0.13697
197 -3.9166 -0.095692 -0.005297 -0.23755 -0.099878 0.15215 -0.075322 -0.7946 -0.028924 -0.12399 4.2338 -0.10194 -0.0097588 -0.2914 -0.072074 0.14993 -0.12824 -0.8167 -0.050661 -0.11679
198 -3.9323 -0.29837 -0.16893 -0.53066 -0.22511 0.2941 -0.61837 0.079231 0.29589 0.72961 3.5886 -0.27461 -0.16777 -0.51769 -0.18381 0.24656 -0.58579 0.06661 0.2699 0.59535
199 -4.0884 1.6959 -0.21231 0.26375 0.35365 -0.18927 0.028067 -0.044591 0.032457 -0.079063 3.6641 1.5536 -0.2009 0.24089 0.34246 -0.18643 0.02385 -0.045141 0.0076682 -0.055687
200 -4.0226 0.82176 0.40052 0.43503 -1.0953 1.7983 0.34927 -0.30778 0.1474 -0.40989 4.3627 0.86015 0.4007 0.41732 -1.0364 1.7368 0.33436 -0.29588 0.13864 -0.40057
201 -4.1029 1.7108 -0.20579 0.26656 0.39066 -0.16685 -0.038716 -0.13708 -0.32701 0.075207 3.6452 1.5575 -0.1933 0.24328 0.36892 -0.1669 -0.032064 -0.12281 -0.30353 0.081835
202 -3.9242 0.94006 0.18584 0.016547 0.13679 -0.093849 0.0024939 0.26925 0.69693 -0.63927 3.9042 0.93974 0.18013 0.0088136 0.15965 -0.11388 -0.0073377 0.2747 0.68509 -0.61095
203 -4.1029 1.6711 -0.1698 0.26879 0.45268 -0.17419 -0.033539 -0.16862 -0.064667 -0.18788 3.9492 1.6476 -0.17417 0.2663 0.46528 -0.18602 -0.03484 -0.16423 -0.083783 -0.16347
204 -3.9297 0.38155 -0.097695 -0.27904 0.45024 -0.18762 -0.65908 0.03949 -0.01633 -0.73625 3.9574 0.39685 -0.099065 -0.29356 0.45488 -0.18093 -0.67038 0.034386 -0.015651 -0.72745
205 -4.1347 1.6856 -0.15231 0.32908 0.53305 -0.22566 0.0058501 -0.10791 -0.16448 0.21723 4.1932 1.7608 -0.16458 0.34707 0.56965 -0.23917 0.0055127 -0.1176 -0.20007 0.24417
206 -4.0158 -0.79831 -0.9748 -0.36213 0.7382 0.43251 0.84014 0.269 -0.0092225 -0.081219 3.9734 -0.77575 -0.95498 -0.38834 0.73378 0.43969 0.81522 0.26723 -0.011366 -0.0782
207 -3.9326 0.54705 -0.15999 -0.23701 0.41418 -0.11691 -0.42861 0.16132 0.18283 -0.30103 4.3882 0.63021 -0.18434 -0.28085 0.47334 -0.12249 -0.50197 0.16779 0.19467 -0.33245
208 -3.9072 0.050339 0.40194 -0.016498 -0.071083 0.62291 -0.32062 -0.46056 0.075846 -0.66702 4.2924 0.049674 0.43282 -0.047229 -0.027734 0.62804 -0.37428 -0.4889 0.075104 -0.70823
209 -4.1082 1.7116 -0.12437 0.29655 0.35814 -0.2227 0.016709 -0.1689 -0.22588 -0.046785 3.6809 1.5742 -0.12281 0.27244 0.34816 -0.22105 0.014848 -0.1568 -0.22429 -0.025384
210 -3.9339 0.33616 -0.27964 -0.096149 0.56327 0.13158 -0.48604 -0.30464 -0.35244 0.13217 4.3892 0.40185 -0.32075 -0.13006 0.64776 0.16324 -0.57525 -0.36067 -0.40555 0.1702
211 -3.9458 0.58744 -0.10736 -0.22274 0.51926 -0.14961 -0.49565 -0.015615 -0.093192 -0.79528 4.3243 0.65947 -0.12195 -0.25602 0.57378 -0.15859 -0.55231 -0.021661 -0.10289 -0.84681
212 -3.9296 0.41814 0.044476 -0.6824 -0.71601 -0.48553 0.09524 0.69245 0.068237 -0.023152 3.6345 0.39349 0.034696 -0.65013 -0.66345 -0.4577 0.08071 0.64286 0.060478 -0.0037947
213 -4.0406 -0.91705 -1.0519 -0.40609 0.79592 0.55515 0.71536 0.20115 -0.0017734 0.048449 3.8622 -0.86431 -0.9978 -0.41927 0.766 0.54253 0.65902 0.19199 -0.0020286 0.048825
214 -4.0432 -0.92389 -1.0529 -0.36139 0.78549 0.53346 0.62626 0.17385 0.018186 0.035285 4.0245 -0.90668 -1.0405 -0.39525 0.78843 0.5455 0.60155 0.17289 0.017248 0.038551
215 -4.0236 -0.85931 -0.99557 -0.43005 0.71548 0.41843 0.79423 0.2409 0.0092471 0.026949 3.9367 -0.82805 -0.96607 -0.45206 0.70275 0.42407 0.75559 0.2362 0.0062154 0.028336
216 -4.0259 -0.87587 -1.1023 -0.42718 0.80561 0.46402 0.87866 0.26222 0.018423 -0.10979 3.7903 -0.8061 -1.0188 -0.42913 0.75126 0.44272 0.79563 0.24498 0.012882 -0.099979
217 -4.0488 -0.91226 -1.1181 -0.36891 0.84791 0.52652 0.75953 0.22078 0.032567 -0.0071215 3.9415 -0.87226 -1.0787 -0.39132 0.82837 0.52565 0.71464 0.21542 0.029044 -0.0059695
218 -3.9636 -0.34568 -1.0329 -0.26256 0.90781 0.28981 0.53479 0.30338 0.12281 -0.26879 3.919 -0.31595 -1.013 -0.27833 0.89773 0.29979 0.50991 0.29256 0.11454 -0.2708
219 -4.0499 -0.90495 -1.1397 -0.33338 0.85837 0.50042 0.75426 0.24474 0.035777 -0.089986 4.0317 -0.88322 -1.1236 -0.36451 0.85766 0.51203 0.73148 0.24429 0.033358 -0.087464
220 -4.0373 -0.84083 -1.128 -0.37452 0.80245 0.41848 0.82917 0.29164 0.038079 -0.12153 3.9506 -0.80588 -1.0929 -0.39728 0.78447 0.42243 0.79587 0.28613 0.034009 -0.11715
221 -4.0646 -0.98913 -0.4814 -0.46707 0.81718 0.42036 1.3002 0.41349 -0.038093 0.31096 4.7848 -1.1442 -0.54531 -0.56667 0.93579 0.4856 1.4621 0.47455 -0.048031 0.34412
222 -3.9568 -0.85581 -0.82953 0.16679 0.098575 0.092131 0.0030919 -0.45836 0.11345 -0.25271 4.8561 -1.0178 -0.98404 0.13438 0.14005 0.13367 -0.040952 -0.54402 0.1308 -0.29929
223 -3.9931 -0.68423 -0.94756 -0.34051 0.62853 0.32881 0.28516 0.15556 0.070183 -0.36797 4.1653 -0.69728 -0.9765 -0.39028 0.65732 0.35361 0.27554 0.1647 0.071567 -0.38637
224 -4.0238 -1.0951 -1.2399 0.093868 0.49491 0.17659 0.68206 -0.0011283 0.10417 -0.074919 4.939 -1.3012 -1.4798 0.050969 0.61775 0.24713 0.80659 0.020709 0.11737 -0.093819
225 -4.1814 -1.4015 -1.1799 1.7212 -0.47465 -0.2488 -0.019081 0.17709 -0.09612 -0.084822 4.3849 -1.3925 -1.1653 1.6552 -0.43801 -0.2319 -0.01384 0.18045 -0.094702 -0.082115
226 -4.0535 -0.94105 -1.1678 -0.30124 0.72311 0.48619 0.61585 0.15154 0.014809 -0.056094 4.1898 -0.95585 -1.1961 -0.35312 0.75507 0.51893 0.61661 0.16142 0.011439 -0.053474
227 -4.0016 -0.75892 -0.38418 -0.24846 -0.59834 -1.0247 0.80785 -1.505 0.64707 0.19663 4.2272 -0.76839 -0.37336 -0.29563 -0.60521 -1.0141 0.7958 -1.4641 0.60911 0.18237
228 -4.0345 -0.8279 -1.1194 -0.37823 0.7638 0.48895 0.47804 0.17091 -0.0065263 -0.035576 3.9908 -0.8042 -1.1 -0.40984 0.76011 0.49684 0.45197 0.16892 -0.011204 -0.030241
229 -4.0752 -0.97515 -1.2354 -0.26637 0.8048 0.48423 0.79635 0.21273 0.034309 -0.079177 4.213 -0.98761 -1.2624 -0.31438 0.83838 0.51743 0.80674 0.22571 0.03187 -0.08044
230 -3.9676 -0.97039 -0.86933 -0.06924 0.12469 -0.29726 0.83542 -0.61221 0.35799 0.17831 4.6776 -1.1038 -0.98592 -0.12717 0.15181 -0.30697 0.92198 -0.67498 0.38997 0.19188
231 -4.018 -0.63117 -0.1603 -0.39924 -0.68291 -1.0764 0.73174 -1.5483 0.63148 0.21579 4.3503 -0.65629 -0.14819 -0.46314 -0.71317 -1.1017 0.73582 -1.5572 0.61129 0.20794
232 -4.2383 -1.4466 -1.1064 1.863 -0.54864 -0.33435 -0.13026 0.23764 -0.13346 -0.091316 4.5451 -1.4698 -1.1108 1.8371 -0.52624 -0.32552 -0.12841 0.24322 -0.13415 -0.089748
233 -4.059 -0.74904 -0.30172 -0.25568 -0.61275 -1.1041 0.73938 -1.6991 0.7982 0.27261 4.6497 -0.82222 -0.31302 -0.32967 -0.6679 -1.182 0.7834 -1.8064 0.83448 0.28409
234 -4.0392 -0.7104 -0.28554 -0.27489 -0.58346 -1.0887 0.71769 -1.6826 0.7941 0.26941 4.5245 -0.76206 -0.28907 -0.34215 -0.62259 -1.138 0.74025 -1.7526 0.81336 0.2751
235 -4.0061 -0.70436 -0.30573 -0.23019 -0.50753 -1.0072 0.64263 -1.5476 0.75364 0.2473 4.7222 -0.79581 -0.32846 -0.31032 -0.57032 -1.1082 0.69682 -1.7078 0.82013 0.26865
236 -3.9541 -0.20049 -0.74607 -0.3987 0.60121 0.21514 -0.22567 0.15205 0.11289 -0.11785 4.1631 -0.20059 -0.79125 -0.45062 0.64301 0.24703 -0.25918 0.13837 0.10752 -0.12539
237 -4.2439 -1.4449 -1.1073 1.8594 -0.54641 -0.32931 -0.12292 0.23503 -0.13114 -0.092669 4.684 -1.5109 -1.1439 1.8869 -0.53918 -0.32996 -0.1251 0.24756 -0.1357 -0.093343
238 -3.9136 0.087129 0.35026 -0.10125 -0.30154 0.70664 -0.304 -0.29208 0.029955 -0.28533 4.4763 0.089835 0.37918 -0.15502 -0.27982 0.73385 -0.38759 -0.32277 0.021095 -0.30614
239 -3.9439 0.039414 0.14361 -0.60989 -0.86822 0.0080056 -0.061258 0.26199 -0.20213 0.079775 4.1133 0.036444 0.13815 -0.6758 -0.88348 -0.036156 -0.083872 0.28633 -0.21698 0.089968
240 -3.9533 1.0239 -0.040609 -0.17081 -0.39694 -0.38548 0.060715 0.6334 1.1123 0.20614 3.8274 1.007 -0.04575 -0.17717 -0.36717 -0.38497 0.051831 0.61508 1.0401 0.19807
241 -4.1586 1.8289 -0.17307 0.39747 0.27497 -0.10272 0.040553 -0.096647 -0.27428 0.081617 4.0224 1.8164 -0.1829 0.39218 0.30361 -0.13466 0.042879 -0.098863 -0.28731 0.1052
242 -4.0687 0.98759 0.37792 0.52501 -1.3662 1.8365 0.4201 -0.31454 0.14396 -0.32702 4.3051 1.0152 0.36329 0.49615 -1.2836 1.7144 0.39754 -0.29224 0.12948 -0.30343
243 -3.9843 0.12744 0.30162 -0.79987 -1.1902 -0.26482 0.57605 0.36096 -0.68429 -0.055247 4.0492 0.12668 0.29724 -0.8374 -1.1857 -0.31415 0.57384 0.38052 -0.7044 -0.060048
244 -4.184 1.9319 -0.22062 0.40329 0.31958 -0.19689 0.052148 -0.041577 -0.1484 0.24303 3.7665 1.7838 -0.21146 0.37102 0.31804 -0.20138 0.04808 -0.041716 -0.15429 0.23039
245 -4.1633 1.855 -0.21606 0.36927 0.30666 -0.17911 0.038242 -0.065629 -0.13556 0.12989 3.8854 1.7771 -0.2155 0.35249 0.32043 -0.19531 0.036139 -0.066268 -0.15274 0.13455
246 -4.171 1.8772 -0.21592 0.38025 0.33961 -0.19512 0.031788 -0.086459 -0.21602 0.11836 3.8015 1.7562 -0.21016 0.35513 0.34084 -0.20303 0.030671 -0.083971 -0.22047 0.12805
247 -4.0118 1.1422 -0.023607 -0.075553 -0.6035 0.0030693 0.03553 0.90573 1.4585 0.089241 4.231 1.2074 -0.039243 -0.099543 -0.59793 -0.041547 0.027591 0.94784 1.5004 0.097114
248 -4.1604 1.8233 -0.16127 0.45313 0.16764 0.0050464 0.063843 -0.1101 -0.32388 0.25822 4.2227 1.9002 -0.18202 0.46387 0.21863 -0.042164 0.065351 -0.11558 -0.35141 0.27621
249 -4.2206 1.9651 -0.18823 0.47862 0.2941 -0.1136 0.073207 -0.1495 -0.37895 0.35233 3.9132 1.8744 -0.19028 0.45309 0.31183 -0.13966 0.070538 -0.14415 -0.37477 0.3435
250 -3.9513 0.98472 0.19524 0.31539 -0.70122 0.85345 0.11985 -0.4229 -0.052469 -0.18203 4.6587 1.1518 0.20426 0.33179 -0.72291 0.87118 0.12307 -0.46028 -0.070105 -0.20144
251 -4.2228 1.9735 -0.18943 0.48409 0.29538 -0.11422 0.072778 -0.15283 -0.39486 0.36135 3.9033 1.8763 -0.19074 0.45663 0.31178 -0.13967 0.069871 -0.14655 -0.38763 0.35018
252 -4.2129 1.9512 -0.18186 0.47463 0.2271 -0.10063 0.079306 -0.093528 -0.29865 0.38058 4.0042 1.907 -0.18921 0.45964 0.25708 -0.13301 0.078369 -0.095966 -0.31194 0.38141
253 -4.2125 1.9442 -0.17511 0.48589 0.2406 -0.072917 0.080095 -0.14524 -0.37497 0.35731 4.0038 1.9007 -0.1831 0.47021 0.27104 -0.10791 0.078971 -0.14353 -0.38092 0.35759
254 -4.059 0.95024 0.37831 0.51097 -1.3134 1.7713 0.39919 -0.26065 0.1417 -0.28295 4.5541 1.0375 0.38757 0.51277 -1.311 1.7588 0.40251 -0.2538 0.13576 -0.27641
255 -4.1997 1.9176 -0.18971 0.44582 0.29413 -0.11149 0.066842 -0.10977 -0.31883 0.29655 3.9607 1.8601 -0.19463 0.42946 0.3166 -0.14036 0.065455 -0.10959 -0.32495 0.29543
256 -3.9584 0.10633 0.2281 -0.75749 -0.91102 -0.24465 0.59424 0.43673 -0.47291 -0.094481 3.9647 0.10379 0.22033 -0.78368 -0.89924 -0.28304 0.5845 0.44958 -0.48319 -0.096006
257 -4.0491 0.94503 0.37482 0.50565 -1.2957 1.7454 0.39153 -0.25851 0.13779 -0.27796 4.6453 1.0558 0.39289 0.51905 -1.3229 1.7731 0.40406 -0.25767 0.13485 -0.27798
258 -4.1814 1.8969 -0.20808 0.40182 0.30037 -0.1521 0.043888 -0.044636 -0.18394 0.19299 3.8649 1.802 -0.20713 0.38007 0.31331 -0.17164 0.042362 -0.048194 -0.19429 0.1934
259 -3.9513 0.98472 0.19524 0.31539 -0.70122 0.85345 0.11985 -0.4229 -0.052469 -0.18203 4.6587 1.1518 0.20426 0.33179 -0.72291 0.87118 0.12307 -0.46028 -0.070105 -0.20144
260 -3.9069 0.84157 0.25902 0.40566 -0.9122 0.79235 0.17349 0.061136 0.017461 0.2413 5.1418 1.1086 0.31349 0.48232 -1.0861 0.8974 0.21458 0.095244 0.0058347 0.32188
261 -4.0845 1.6538 -0.18746 0.26317 0.26688 -0.16392 -0.0076397 0.010927 0.069282 -0.21365 4.0874 1.6885 -0.19984 0.26585 0.29837 -0.19171 -0.0077779 0.01059 0.049857 -0.19633
262 -3.962 0.99469 0.19845 0.32097 -0.71805 0.87907 0.12424 -0.44298 -0.056182 -0.19556 4.5395 1.1282 0.20144 0.32752 -0.71801 0.87035 0.12365 -0.46484 -0.070801 -0.20732
263 -3.9639 1.1342 -0.078202 0.0065561 0.21139 -0.080915 -0.16001 0.027847 0.17774 -0.72316 4.0927 1.184 -0.090045 -0.0020213 0.24468 -0.10628 -0.17744 0.027471 0.17025 -0.73208
264 -4.0241 1.4743 -0.23235 0.054834 0.029959 -0.35142 -0.00041344 0.48285 0.67852 -0.064844 3.842 1.4326 -0.23098 0.049708 0.047268 -0.34792 -0.0014951 0.44567 0.60023 -0.038947
265 -4.0077 1.1644 -0.047383 -0.077675 -0.51659 -0.026233 0.02508 0.88879 1.4114 0.023213 4.1817 1.2195 -0.063022 -0.098452 -0.50331 -0.069103 0.017344 0.91947 1.437 0.025399
266 -3.9792 0.10305 0.26025 -0.76971 -1.1631 -0.25764 0.53018 0.39263 -0.66538 -0.064643 4.0141 0.10163 0.25329 -0.80471 -1.1518 -0.30303 0.52234 0.40803 -0.68169 -0.06825
267 -4.1974 1.9222 -0.20328 0.4413 0.28977 -0.13572 0.062553 -0.15012 -0.32443 0.29972 3.892 1.8316 -0.20336 0.41751 0.30569 -0.15667 0.058954 -0.1429 -0.32543 0.29269
268 -4.0183 0.9898 0.34232 0.50801 -1.305 1.6222 0.37705 -0.27598 0.11303 -0.22814 4.7443 1.1429 0.36662 0.53799 -1.3779 1.6882 0.40192 -0.28643 0.11092 -0.23142
269 -4.2238 1.9709 -0.18852 0.48206 0.29473 -0.1159 0.07257 -0.15177 -0.38603 0.36156 3.9287 1.886 -0.19119 0.45782 0.3136 -0.14257 0.070172 -0.14665 -0.38277 0.35335
270 -4.1971 1.9216 -0.2071 0.43071 0.32943 -0.1356 0.0507 -0.11939 -0.32612 0.25694 3.8457 1.8105 -0.20469 0.40358 0.33785 -0.15561 0.048157 -0.11503 -0.32061 0.24935
271 -4.0405 0.93817 0.37217 0.50404 -1.2879 1.7136 0.38591 -0.23462 0.13578 -0.24808 4.6353 1.0489 0.39026 0.51756 -1.3158 1.7398 0.39865 -0.23174 0.13267 -0.24565
272 -4.2199 1.955 -0.17611 0.48998 0.24404 -0.080355 0.080698 -0.14827 -0.38439 0.37212 3.995 1.9047 -0.18344 0.47287 0.27343 -0.11458 0.079428 -0.14607 -0.38957 0.37162
273 -4.0258 1.3534 -0.10936 -0.0066102 -0.34056 -0.10792 0.01314 0.86722 1.3326 -0.031693 4.0907 1.3841 -0.12312 -0.017553 -0.31447 -0.14076 0.0079464 0.85893 1.3016 -0.023567
274 -4.1855 1.9222 -0.20301 0.41856 0.29943 -0.12956 0.062491 -0.17977 -0.24542 0.21714 3.8051 1.7931 -0.19868 0.38868 0.3078 -0.14791 0.057359 -0.16563 -0.24628 0.2122
275 -4.0118 1.3549 -0.099122 -0.045789 -0.27281 -0.24962 0.03216 0.76837 1.1327 -0.011186 3.9441 1.3476 -0.10753 -0.052017 -0.2448 -0.26741 0.026871 0.74745 1.0782 -0.0056317
276 -4.0183 0.9898 0.34232 0.50801 -1.305 1.6222 0.37705 -0.27598 0.11303 -0.22814 4.7443 1.1429 0.36662 0.53799 -1.3779 1.6882 0.40192 -0.28643 0.11092 -0.23142
277 -4.0077 1.1644 -0.047383 -0.077675 -0.51659 -0.026233 0.02508 0.88879 1.4114 0.023213 4.1817 1.2195 -0.063022 -0.098452 -0.50331 -0.069103 0.017344 0.91947 1.437 0.025399
278 -4.0251 1.0418 0.32336 0.47813 -1.2421 1.6874 0.37151 -0.45055 0.10277 -0.40169 4.4341 1.1196 0.31969 0.47018 -1.2108 1.6363 0.36332 -0.45264 0.091484 -0.4029
279 -4.1635 1.8719 -0.21323 0.36202 0.30883 -0.22664 0.036164 -0.035459 -0.11367 0.15266 3.7659 1.7377 -0.20585 0.33562 0.30856 -0.22843 0.034665 -0.036346 -0.12472 0.15777
280 -4.223 1.9692 -0.18849 0.48331 0.27661 -0.10501 0.076031 -0.14877 -0.38803 0.35358 3.9409 1.8908 -0.19211 0.46029 0.2984 -0.13389 0.073813 -0.14452 -0.38633 0.34761
281 -4.1722 1.864 -0.14696 0.48586 0.15289 0.0084274 0.0846 -0.13756 -0.34658 0.32953 4.2692 1.9559 -0.16807 0.50057 0.20466 -0.038944 0.088628 -0.14323 -0.37473 0.34838
282 -4.2445 -1.4531 -1.1358 1.835 -0.52346 -0.32448 -0.099662 0.22673 -0.12484 -0.095987 5.6045 -1.8137 -1.3983 2.2139 -0.611 -0.38325 -0.11873 0.28208 -0.15157 -0.11355
283 -3.9974 -0.0066762 0.26088 -0.89929 -1.0195 -0.53316 0.45511 0.54498 -0.51084 -0.083645 4.0596 -0.0060843 0.26282 -0.93965 -1.0367 -0.55973 0.45116 0.56683 -0.52465 -0.085013
284 -3.9817 0.001642 0.54342 0.0037491 -0.33042 0.93065 -0.33785 0.030841 0.020995 1.4581 5.2371 -0.0080978 0.67754 -0.031839 -0.35185 1.0885 -0.44225 0.044967 0.02402 1.7382
285 -4.0087 -0.1109 0.23533 -0.97929 -1.0478 -0.41005 0.37198 0.45055 -0.70909 0.082379 4.224 -0.12007 0.24029 -1.058 -1.0955 -0.4489 0.37542 0.48031 -0.7516 0.084581
286 -4.1043 1.7147 -0.21537 0.16911 0.2529 -0.36689 -0.0063378 0.33155 0.54568 -0.13494 4.1056 1.7516 -0.22495 0.1767 0.27233 -0.3747 -0.0050292 0.32104 0.51464 -0.11024
287 -4.1833 1.872 -0.23792 0.33052 0.44565 -0.27083 -0.007925 -0.053807 -0.19878 0.0069556 3.9906 1.8371 -0.24047 0.32759 0.45333 -0.27894 -0.004588 -0.059069 -0.2125 0.033398
288 -4.1174 1.735 -0.22643 0.24292 0.4185 -0.23509 -0.029699 -0.16513 -0.069622 -0.26023 4.0224 1.7311 -0.23217 0.24381 0.43424 -0.24827 -0.03023 -0.15977 -0.086914 -0.23191
289 -4.1685 1.861 -0.24893 0.31311 0.45446 -0.30523 -0.0051093 -0.081118 -0.13365 -0.032278 3.9025 1.7875 -0.24456 0.30337 0.44985 -0.30072 -0.003648 -0.080642 -0.14564 -0.010686
290 -3.9981 1.0541 -0.084435 -0.044837 0.42985 -0.32141 -0.18058 -0.010592 -0.14082 -0.94174 5.2441 1.4073 -0.1163 -0.061435 0.57155 -0.4231 -0.23309 -0.012702 -0.18897 -1.1598
291 -4.1853 1.8873 -0.24426 0.33943 0.46922 -0.27676 -0.0062848 -0.082505 -0.23022 -0.0023342 3.9315 1.8219 -0.24218 0.33028 0.46723 -0.27883 -0.003195 -0.084549 -0.23724 0.022975
292 -4.1581 1.7932 -0.26576 0.2487 0.46786 -0.29186 -0.017687 -0.027732 -0.039432 -0.12111 4.4277 1.9572 -0.29527 0.27487 0.52426 -0.32927 -0.0179 -0.035615 -0.06394 -0.11784
293 -4.203 1.9306 -0.2449 0.38197 0.42585 -0.25115 0.03273 -0.12304 -0.26077 0.22056 3.8839 1.8343 -0.23927 0.36409 0.4229 -0.25214 0.030851 -0.11899 -0.26489 0.21778
294 -4.0515 1.4072 -0.21416 -0.018805 0.029928 -0.2889 -0.026158 0.72707 1.0573 -0.23397 4.763 1.6774 -0.26203 -0.02535 0.057096 -0.35824 -0.033843 0.83466 1.1981 -0.26468
295 -4.1284 1.7584 -0.23616 0.25826 0.37431 -0.19206 -0.0012063 -0.19567 -0.061381 -0.094858 4.1295 1.7987 -0.24862 0.26506 0.40542 -0.2163 -0.0047495 -0.19336 -0.085621 -0.080995
296 -4.154 1.799 -0.28172 0.24855 0.47618 -0.35351 -0.01588 -0.056789 -0.0040716 -0.1033 4.1539 1.8432 -0.29241 0.25778 0.49917 -0.36467 -0.01798 -0.060894 -0.02844 -0.090934
297 -4.1103 1.6739 -0.26703 0.16936 0.42451 -0.37603 -0.037999 0.060095 0.21226 -0.2478 4.2402 1.7655 -0.28487 0.18105 0.45877 -0.39641 -0.042635 0.056296 0.19158 -0.24904
298 -4.0325 1.2258 -0.11949 -0.15083 -0.35357 -0.25024 -0.013297 0.94712 1.445 0.014328 4.2047 1.2901 -0.13584 -0.16834 -0.34725 -0.28163 -0.021401 0.97568 1.4713 0.019952
299 -3.9855 1.1579 -0.23105 -0.11219 0.25309 -0.53199 0.25144 0.13491 0.3424 -0.25403 4.4504 1.3217 -0.26034 -0.12375 0.2872 -0.58656 0.28137 0.16073 0.35051 -0.28106
300 -4.015 -0.085975 0.20489 -0.93502 -1.0161 -0.54015 0.74044 0.32736 -0.4241 -0.01389 5.2733 -0.1126 0.26199 -1.2426 -1.3019 -0.71393 0.92852 0.43684 -0.54762 -0.019829
301 -4.0321 -0.44912 -0.29308 -0.70972 0.1146 0.25823 -0.88024 -0.13426 -0.039568 0.22881 5.2888 -0.59248 -0.3932 -0.97523 0.15526 0.34214 -1.1704 -0.17886 -0.049161 0.29568
302 -4.0696 1.414 -0.31139 0.011862 0.32646 -0.65492 0.023395 -0.099073 0.45433 0.011504 5.3372 1.8934 -0.41028 0.019362 0.43608 -0.82323 0.0090003 -0.11416 0.54066 0.032728
303 -4.2158 1.972 -0.23169 0.395 0.37292 -0.26055 0.049121 -0.071223 -0.14345 0.26387 3.8959 1.8739 -0.22734 0.377 0.37498 -0.26106 0.047129 -0.071589 -0.15892 0.26107
304 -4.2616 2.028 -0.21577 0.4788 0.35396 -0.16033 0.06699 -0.16767 -0.42212 0.4168 4.234 2.0745 -0.23083 0.48858 0.39019 -0.19048 0.070071 -0.17347 -0.44628 0.43652
305 -4.2612 2.0212 -0.21089 0.47097 0.35208 -0.17809 0.069017 -0.15584 -0.38262 0.37748 4.2077 2.0567 -0.22495 0.47857 0.38685 -0.20712 0.071333 -0.16202 -0.40697 0.39702
306 -4.2547 2.0225 -0.22008 0.46931 0.35919 -0.17426 0.066432 -0.15591 -0.39037 0.39055 4.0763 1.9953 -0.22667 0.46218 0.38074 -0.19604 0.066871 -0.15611 -0.39949 0.39543
307 -4.2544 2.0208 -0.21983 0.46374 0.37126 -0.1873 0.06024 -0.15661 -0.39661 0.36638 4.0262 1.9699 -0.22362 0.4516 0.38731 -0.20585 0.060139 -0.15525 -0.40116 0.36772
308 -4.232 1.974 -0.21671 0.4313 0.37535 -0.19011 0.050611 -0.14609 -0.33021 0.26647 4.1551 1.9953 -0.22844 0.43588 0.40506 -0.21546 0.052548 -0.15042 -0.34977 0.28082
309 -4.2498 1.9977 -0.21276 0.45166 0.3589 -0.18089 0.056424 -0.15192 -0.37061 0.33652 4.1725 2.0214 -0.22525 0.45696 0.39049 -0.20828 0.058948 -0.15691 -0.393 0.35457
310 -4.1055 0.98125 0.38916 0.51422 -1.3354 1.9055 0.42035 -0.36423 0.14923 -0.40612 4.6068 1.0678 0.3979 0.515 -1.3272 1.8956 0.42134 -0.36489 0.14368 -0.40919
