37 20
0 0.51059 -0.14204 -0.1348 -0.10381 -0.014299 -0.030331 0.038674 -0.073382 0.02249 0.00792 0.551 -0.13515 -0.1199 -0.093493 0.00067279 -0.072749 -0.0057895 -0.19893 0.05103 0.010371
1 0.49914 -0.12081 -0.097 -0.032559 -0.014788 0.029264 0.073194 -0.030836 0.035479 0.01495 0.81521 -0.14471 -0.074691 0.055527 -0.062485 0.093114 0.1016 0.19158 -0.052109 -0.036356
2 0.49794 -0.11996 -0.1021 -0.054796 0.043437 -0.15835 -0.20985 -0.1207 -0.11346 -0.050533 0.28883 -0.043729 -0.015453 0.055571 0.17257 -0.38226 -0.20062 -0.33371 -0.26703 -0.078714
3 0.49723 -0.13406 -0.1193 -0.069427 -0.030624 0.0098755 0.031493 -0.084423 -0.012039 -0.0047223 0.91362 -0.21918 -0.17548 -0.069844 -0.13269 0.015305 -0.46445 0.21127 0.014616 0.011848
4 0.51522 -0.1476 -0.1446 -0.127 -0.039941 0.024032 0.062362 -0.088672 0.10983 0.031798 0.49214 -0.12668 -0.11713 -0.10678 -0.032886 0.021438 0.091763 -0.096365 0.11626 0.039899
5 0.51546 -0.14512 -0.13922 -0.11132 -0.029682 0.012839 0.095526 -0.036399 0.081886 0.028331 0.5359 -0.13371 -0.11977 -0.099159 -0.028108 0.01797 0.11261 -0.088909 0.11554 0.040266
6 0.51296 -0.14706 -0.14424 -0.12757 -0.040362 0.021302 0.042817 -0.092255 0.1073 0.029663 0.49721 -0.12931 -0.1214 -0.11477 -0.037139 0.013835 0.056443 -0.13561 0.14419 0.045585
7 0.49559 -0.11076 -0.08031 -0.0031997 0.0057249 0.012876 0.070387 -0.025237 -0.0078856 -0.0044998 0.79478 -0.10647 -0.0091178 0.19592 0.11761 -0.11957 0.38344 0.38224 -0.12892 -0.0054003
8 0.52003 -0.14981 -0.14888 -0.13577 -0.03888 -0.031031 -0.10777 -0.1283 0.096974 0.023335 0.24719 -0.063726 -0.059585 -0.054914 -0.014344 -0.0097608 -0.0045606 -0.071353 0.042227 0.012161
9 0.50735 -0.14097 -0.12878 -0.10375 -0.010429 0.032773 0.088756 -0.041002 0.015513 0.005084 0.68115 -0.16873 -0.13476 -0.1252 0.0052906 0.050654 0.22335 -0.0252 -0.078262 -0.026246
10 0.51 -0.14381 -0.1384 -0.11142 -0.026543 -0.001014 0.076114 -0.052893 0.065997 0.022553 0.62702 -0.15937 -0.14683 -0.1276 -0.032169 -0.010605 0.089001 -0.15101 0.12349 0.041685
11 0.49956 -0.12371 -0.10335 -0.062664 0.025857 -0.028917 0.038259 -0.06139 -0.017409 -0.0022891 0.75808 -0.14217 -0.086974 -0.053316 0.077144 -0.074836 0.10687 -0.12934 -0.1445 -0.074126
12 0.50045 -0.13943 -0.12869 -0.10363 -0.0098068 0.0025404 0.033652 -0.081354 -0.010475 -0.003749 0.85431 -0.22098 -0.19468 -0.19489 -0.051968 -0.0048 -0.4639 0.1805 0.024174 0.010232
13 0.51226 -0.14409 -0.13268 -0.1121 -0.022805 0.06001 0.08468 -0.020009 0.052882 0.021155 0.54198 -0.13457 -0.10431 -0.10497 -0.010248 0.076551 0.10983 -0.059655 0.065892 0.023141
14 0.51661 -0.14638 -0.1411 -0.11269 -0.041001 0.033455 0.096742 0.011549 0.1132 0.044703 0.45223 -0.1138 -0.10225 -0.083795 -0.0306 0.027908 0.098866 -0.061057 0.10867 0.037923
15 0.53559 -0.14916 -0.13982 -0.092694 -0.086673 0.054032 -0.31182 0.28504 -0.0056928 -0.0083972 0.12576 -0.030021 -0.024838 -0.014366 -0.013388 0.0075873 -0.026254 0.0081988 0.00096696 9.8372e-05
16 0.52406 -0.13244 -0.10868 -0.03396 0.031003 -0.0057018 0.31711 0.15001 -0.20749 -0.07359 0.1676 -0.03386 -0.022369 -0.0029075 0.0073994 0.00070548 0.061565 0.003931 -0.017225 -0.005477
17 0.46532 -0.037848 0.041359 0.37646 -0.13511 0.0051729 0.013268 0.17539 -0.01996 0.0097 0.35073 0.026128 0.13217 0.71149 -0.46229 0.1437 -0.018324 -0.13724 -0.021939 -0.013399
18 0.5152 -0.14399 -0.13661 -0.10464 -0.024065 0.0069081 0.090389 -0.0018814 0.038992 0.015637 0.49801 -0.12296 -0.10857 -0.08573 -0.018428 0.00015988 0.095705 -0.067155 0.053023 0.022281
19 0.42458 0.07343 0.14184 0.23942 0.078101 0.0027695 0.06025 0.029328 -0.024787 -0.1114 0.66484 0.33981 0.56905 0.6867 0.46751 -0.30826 -0.047769 0.051579 0.14547 0.10172
20 0.50655 -0.12555 -0.060477 -0.077394 0.037193 0.10269 0.03338 0.12307 -0.11489 -0.038468 0.37606 -0.060192 0.11946 -0.055784 0.1943 0.42667 -0.010586 -0.060016 -0.34528 -0.12317
21 0.45381 0.0086566 0.095429 0.26173 0.32759 -0.48818 -0.22177 -0.28603 -0.18698 -0.04409 0.11367 0.020259 0.045376 0.073555 0.077161 -0.11228 -0.069355 -0.073002 -0.070587 -0.04457
22 0.51514 -0.14069 -0.13054 -0.090192 0.011994 -0.093469 -0.013425 -0.035011 -0.11071 -0.028852 0.34162 -0.079558 -0.065971 -0.038645 0.025635 -0.09086 -0.029732 -0.10225 -0.070485 -0.024803
23 0.53848 -0.15851 -0.15791 -0.13891 -0.096787 0.011698 -0.56355 0.2728 0.031346 0.020139 0.083678 -0.021898 -0.019782 -0.016095 -0.0097292 0.0012028 -0.036231 0.0021539 -0.00073029 2.9282e-05
24 0.48557 0.0065422 0.10559 0.31831 0.28787 -0.25485 0.2693 0.38184 0.0035622 0.054298 0.10552 0.02372 0.050598 0.079895 0.052643 -0.030916 0.02806 0.026034 -0.0002891 -0.016147
25 0.4185 0.036147 0.15909 0.68872 -0.23486 0.0074251 -0.021282 -0.03881 0.073146 0.043634 0.20629 0.04021 0.11985 0.5635 -0.37032 0.12428 -0.020071 -0.083321 -0.060097 -0.032978
26 0.41168 0.0056477 0.12095 0.76749 -0.51618 0.16915 -0.027858 -0.13521 -0.063925 -0.027196 0.13624 0.016197 0.069685 0.40479 -0.25733 0.05965 -0.014502 -0.014496 0.024282 0.023509
27 0.36893 0.077411 0.59267 0.069097 0.23684 0.043118 -0.02941 0.032822 0.025027 0.0046344 0.34957 0.11486 1.0366 -0.13529 0.29084 0.39946 -0.092717 -0.10063 0.08901 0.035306
28 0.40292 0.10777 0.53997 0.26726 0.46077 0.075247 -0.076363 -0.016562 0.24742 0.10195 0.14824 0.05842 0.31471 0.049973 0.15933 0.0722 -0.025453 0.002519 0.039249 -0.0053142
29 0.30634 0.8064 -0.054436 0.059642 0.07938 -0.071184 -0.0027821 0.022338 0.031058 0.14224 0.29217 1.0572 -0.12159 -0.03687 0.0016343 -0.006603 0.0036868 0.014053 0.15876 -0.45178
30 0.41906 -0.015211 0.3902 -0.050701 0.32561 0.56691 -0.064103 -0.074498 -0.3085 -0.10885 0.13438 0.018715 0.27287 -0.030923 0.13751 0.15909 -0.024878 0.013577 -0.034869 -0.013433
31 0.31155 0.08565 0.96523 -0.26534 -0.058896 0.10278 -0.030215 -0.079122 0.19609 0.085681 0.22133 0.081579 1.0955 -0.4742 -0.45977 -0.30185 0.079436 0.075569 -0.14681 -0.061455
32 0.28102 0.99143 -0.13363 -0.047413 -0.0027342 -0.0088831 0.00078313 0.013265 0.1614 -0.41906 0.14611 0.59693 -0.087177 -0.037843 -0.0010323 -0.012173 -0.00021372 0.0099961 0.045233 -0.019612
33 0.26757 1.0076 -0.15145 -0.079371 -0.035316 0.022137 0.00011219 -0.0055381 0.02515 -0.14384 0.22666 0.98784 -0.16296 -0.10178 -0.051462 0.034797 -0.00095775 -0.018811 -0.17873 0.44324
34 0.26336 0.983 -0.14529 -0.071877 -0.0273 0.01363 9.2589e-05 -0.0021025 -0.0022728 -0.0028706 0.30861 1.3476 -0.22198 -0.1341 -0.05932 0.032089 -0.00066231 -0.0087292 -0.01734 0.0069208
35 0.29348 0.088471 1.1313 -0.45969 -0.44647 -0.28162 0.075498 0.065169 -0.14301 -0.059318 0.11424 0.042896 0.60251 -0.26704 -0.22079 -0.065466 0.014518 -0.037208 0.14444 0.066002
36 0.2603 1.0703 -0.18073 -0.12252 -0.074369 0.056083 -0.00094473 -0.027377 -0.19709 0.42164 0.14987 0.67796 -0.11797 -0.079273 -0.04322 0.029864 -0.00033499 -0.011341 -0.037839 0.022414
