100 20
0 2.7398 -0.063618 0.10023 0.070664 0.55132 0.72565 0.787 -0.074283 0.18756 0.125 2.312 -0.10724 0.11025 0.064949 0.46966 0.62524 0.65574 -0.056614 0.14934 0.090661
1 2.7028 0.45531 -0.076375 0.029607 0.47492 0.69532 0.47681 -0.027849 0.070302 0.093298 2.628 0.4018 -0.061638 0.033383 0.48794 0.70883 0.55041 -0.033137 0.094917 0.11255
2 2.7962 -0.55969 0.24975 0.050603 0.0017915 -0.030504 0.19313 -0.078553 0.080467 0.072225 3.1722 -0.73842 0.34546 0.08299 0.012329 0.0048116 0.30856 -0.12576 0.12464 0.15415
3 2.7058 0.46525 -0.084991 0.081709 0.55967 0.57915 0.32744 -0.039075 0.064086 -0.06751 2.7323 0.42908 -0.073936 0.084313 0.58361 0.61705 0.41841 -0.044462 0.08784 -0.030199
4 2.7097 0.50277 -0.084065 -0.12955 -0.11584 -0.0075798 0.26647 -0.073459 0.23131 -0.20246 2.8522 0.48983 -0.078478 -0.13088 -0.1076 -0.012926 0.30044 -0.10975 0.26285 -0.25686
5 2.7054 0.49256 -0.10963 0.050439 0.23644 0.31566 0.010181 0.071329 -0.17084 0.053988 2.8268 0.47215 -0.10415 0.059382 0.24608 0.32788 0.024194 0.065356 -0.17225 0.050332
6 2.7117 0.43577 -0.083224 0.075256 0.35519 0.48557 0.13023 0.066162 -0.19777 0.10152 2.8153 0.40599 -0.072085 0.087755 0.38654 0.53088 0.20075 0.068322 -0.22237 0.16977
7 2.7205 0.45234 -0.090097 0.061291 0.24656 0.000268 -0.072055 0.084709 0.020934 0.0013208 3.0377 0.46257 -0.089717 0.072093 0.27844 -0.0017789 -0.092715 0.083604 0.033136 -0.012086
8 2.721 0.43987 -0.079079 -0.010014 0.034248 -0.10237 0.066889 -0.10515 -0.090999 0.10336 3.032 0.44575 -0.076431 -0.0066926 0.04019 -0.11644 0.074678 -0.11569 -0.10728 0.13953
9 2.713 0.51365 -0.095543 -0.11234 -0.11853 0.2774 -0.027127 0.049267 0.063993 0.12524 2.9909 0.52646 -0.095409 -0.12339 -0.13752 0.30899 -0.032357 0.046886 0.086109 0.15924
10 2.7161 0.4276 -0.068482 -0.043973 0.058783 0.34564 -0.02505 -0.086011 -0.040343 -0.043725 2.9308 0.41415 -0.059778 -0.04174 0.065871 0.37067 -0.022282 -0.088515 -0.044517 -0.044979
11 2.7082 0.50592 -0.098297 -0.058015 0.021889 0.41434 -0.061588 0.0043899 -0.083114 -0.07914 2.9205 0.50353 -0.095257 -0.056985 0.02533 0.44574 -0.061664 0.003241 -0.095902 -0.089853
12 2.7002 0.50886 -0.10767 0.09349 0.50497 0.42362 -0.018775 0.13077 0.099764 0.020705 2.7095 0.47191 -0.098354 0.095229 0.50521 0.42054 -0.0026081 0.12656 0.11281 0.016726
13 2.716 0.40811 -0.076349 0.094235 0.3766 0.21265 0.011379 -0.038665 0.0074256 -0.040066 2.8888 0.38697 -0.067465 0.10399 0.39519 0.22833 0.016726 -0.038293 0.0041291 -0.04546
14 2.7072 0.48083 -0.093289 0.032043 0.27268 0.47654 -0.094825 -0.029168 -0.092269 0.10566 2.819 0.4589 -0.085879 0.037759 0.28024 0.49355 -0.090217 -0.025847 -0.089399 0.1165
15 2.7202 0.36617 -0.065639 0.15388 0.46781 0.1416 -0.12385 -0.14336 -0.017477 -0.20568 2.8248 0.33425 -0.05408 0.16367 0.48148 0.13895 -0.11274 -0.16648 -0.017294 -0.25911
16 2.725 0.29014 -0.038771 0.088626 0.085625 -0.43736 0.10618 -0.30819 -0.38822 0.29681 2.724 0.24309 -0.023836 0.095675 0.081787 -0.43629 0.10571 -0.30483 -0.40167 0.29355
17 2.7217 0.37182 -0.067525 0.12422 0.26498 -0.44109 -0.12786 0.095215 0.18745 0.13208 2.868 0.34747 -0.058556 0.135 0.27597 -0.46371 -0.14171 0.12485 0.21556 0.15372
18 2.7244 0.28766 -0.045791 0.18599 0.33636 -0.58308 0.1145 -0.34933 -0.13939 0.13552 2.7396 0.24363 -0.031653 0.19212 0.33678 -0.58578 0.13013 -0.37089 -0.12636 0.097323
19 2.5863 -1.4016 -0.77584 -0.090908 -0.00658 0.00080419 0.033136 0.0081206 0.02404 0.017741 2.5064 -1.4542 -0.77778 -0.090523 -0.005083 0.0062727 0.034242 0.0082041 0.023541 0.017822
20 2.7593 0.049998 -0.17453 0.49561 -0.027135 -0.024087 -0.34738 -0.028418 -0.18294 -0.12191 3.0693 -0.0104 -0.18668 0.65558 -0.065007 -0.036711 -0.50444 -0.038155 -0.28372 -0.22712
21 2.718 0.36602 -0.071617 0.15607 0.4374 0.081981 -0.020399 -0.19218 -0.092644 -0.063961 2.7981 0.32957 -0.059535 0.16404 0.43999 0.084148 -0.022284 -0.18628 -0.092668 -0.065141
22 2.7209 0.34344 -0.040537 -0.0097357 0.0085864 -0.66283 0.37743 -0.063849 -0.070988 0.20824 2.7489 0.30278 -0.027088 -0.0069317 0.012237 -0.65623 0.37034 -0.057973 -0.07788 0.22246
23 2.6525 -0.89955 1.2238 -0.32948 0.14933 -0.071352 0.012921 0.055541 -0.05487 -0.084817 2.4608 -0.92951 1.2548 -0.33326 0.1521 -0.063326 0.0073448 0.054931 -0.055883 -0.083191
24 2.7212 0.39598 -0.067078 0.0019611 -0.013945 -0.20735 0.083285 -0.093343 -0.24984 0.049035 2.929 0.38008 -0.059257 0.0076719 -0.015365 -0.22435 0.087663 -0.099131 -0.2818 0.072956
25 2.6463 -0.90943 1.2558 -0.34199 0.15361 -0.07254 -0.00021435 0.063426 -0.062804 -0.095127 2.4887 -0.95278 1.3065 -0.35201 0.15912 -0.066419 -0.0060452 0.064736 -0.06565 -0.096873
26 2.5863 -1.4016 -0.77584 -0.090908 -0.00658 0.00080419 0.033136 0.0081206 0.02404 0.017741 2.5064 -1.4542 -0.77778 -0.090523 -0.005083 0.0062727 0.034242 0.0082041 0.023541 0.017822
27 2.6525 -0.89955 1.2238 -0.32948 0.14933 -0.071352 0.012921 0.055541 -0.05487 -0.084817 2.4608 -0.92951 1.2548 -0.33326 0.1521 -0.063326 0.0073448 0.054931 -0.055883 -0.083191
28 2.721 0.36641 -0.065993 0.085307 0.15416 -0.46297 0.14881 -0.14912 -0.06723 0.0083874 2.8464 0.3377 -0.056036 0.09385 0.15706 -0.47918 0.15118 -0.15459 -0.076449 0.027398
29 2.7222 0.33013 -0.056576 0.084859 0.09961 -0.52185 0.18757 -0.12473 -0.25447 0.27423 2.7646 0.28945 -0.043693 0.091114 0.095977 -0.52098 0.188 -0.11408 -0.25973 0.28198
30 2.7512 -0.22979 0.15237 0.07325 0.27813 0.3953 0.35474 0.026007 -0.14199 0.2569 2.2319 -0.24551 0.15341 0.066589 0.22263 0.32195 0.27863 0.020961 -0.10841 0.18392
31 2.648 -0.90259 1.2365 -0.3995 0.17784 -0.079246 -0.0014341 0.055098 -0.063223 -0.089874 2.4568 -0.93336 1.2699 -0.4068 0.18208 -0.071855 -0.0076786 0.055703 -0.065356 -0.090284
32 2.6525 -0.89955 1.2238 -0.32948 0.14933 -0.071352 0.012921 0.055541 -0.05487 -0.084817 2.4608 -0.92951 1.2548 -0.33326 0.1521 -0.063326 0.0073448 0.054931 -0.055883 -0.083191
33 2.7257 0.24348 -0.042796 0.22948 0.39727 -0.40213 -0.2263 0.23664 0.54892 -0.19464 2.6328 0.18827 -0.025875 0.22791 0.37528 -0.3782 -0.2241 0.22209 0.50787 -0.18214
34 2.6135 -1.3291 -0.79262 -0.026448 -0.00074813 0.0019884 -0.077954 0.011682 -0.041462 -0.036892 2.5931 -1.4188 -0.81831 -0.027937 -0.001465 0.0038028 -0.077285 0.013592 -0.040244 -0.035215
35 2.6562 -0.87898 1.29 -0.45656 0.11929 -0.017872 -0.14225 -0.011551 -0.0027143 0.045472 2.5552 -0.95112 1.3892 -0.49701 0.13334 -0.014387 -0.17222 -0.01675 -0.0014307 0.06654
36 2.7227 0.3152 -0.05944 0.18929 0.36473 -0.47394 -0.11221 0.051905 0.33685 -0.0089197 2.7368 0.2715 -0.045994 0.19559 0.35972 -0.47336 -0.11688 0.063221 0.33504 -0.0083631
37 2.7165 0.44515 -0.05948 -0.18257 -0.2955 -0.091433 0.13084 0.19735 0.063225 0.0056139 2.9386 0.4373 -0.0512 -0.19547 -0.31832 -0.10196 0.14171 0.22342 0.07517 0.0075141
38 2.7189 0.44959 -0.059243 -0.18242 -0.29645 -0.11331 0.1021 -0.20598 0.12008 -0.028372 2.9717 0.44922 -0.052336 -0.20197 -0.33284 -0.12478 0.11392 -0.26363 0.14846 -0.04753
39 2.7244 0.39874 0.014056 -0.17359 -0.15068 0.12302 -0.1761 0.0064881 -0.090876 0.056189 3.0001 0.38883 0.041884 -0.20383 -0.17057 0.13469 -0.21491 0.0012278 -0.080809 0.093211
40 2.7229 0.34039 -0.050442 -0.06083 -0.26375 -0.11568 -0.17477 0.096935 -0.16239 0.20549 2.7512 0.2978 -0.036756 -0.053672 -0.26751 -0.11054 -0.17824 0.074996 -0.18074 0.19997
41 2.7282 0.28353 0.12575 -0.35366 -0.33382 0.29931 -0.23695 -0.34359 0.28116 0.28093 2.7596 0.23241 0.16383 -0.37952 -0.3463 0.30246 -0.26353 -0.38402 0.32582 0.33033
42 2.7029 -0.65411 0.6525 1.2908 -0.5076 0.13429 0.18214 -0.00084993 0.13448 0.11123 2.3663 -0.65387 0.6492 1.2822 -0.50358 0.14355 0.17787 0.0019421 0.13039 0.10823
43 2.6616 -0.90964 1.2677 0.016084 0.004344 -0.026068 -0.001368 0.074647 -0.041355 -0.078366 2.5041 -0.95468 1.3212 0.025126 0.0011313 -0.019269 -0.0056658 0.075688 -0.042103 -0.078164
44 2.7188 -0.56028 0.57568 1.2872 -0.46744 0.1249 0.039109 0.00505 0.048436 0.03923 2.4312 -0.58137 0.58942 1.303 -0.47908 0.13359 0.052385 0.0093573 0.057685 0.047364
45 2.7298 0.20655 -0.022856 0.093908 -0.023 -0.24137 -0.052441 -0.28183 -0.47134 0.10774 2.5895 0.14662 -0.004804 0.097937 -0.025506 -0.22044 -0.054025 -0.24215 -0.42422 0.10652
46 2.7187 0.37594 -0.060606 -0.089041 -0.23061 0.1851 -0.13011 0.25265 -0.19591 -0.18924 2.7859 0.3384 -0.048062 -0.082679 -0.23514 0.18244 -0.12926 0.25826 -0.20707 -0.21893
47 2.7172 0.41341 -0.069052 0.03022 0.28181 0.17231 -0.024482 0.30907 0.25795 -0.11623 2.8309 0.38529 -0.058295 0.036097 0.29812 0.16941 -0.034614 0.31789 0.28005 -0.12274
48 2.7181 -0.65781 0.80347 1.0991 -0.39049 0.097309 -0.00012314 0.047237 0.0033949 -0.022796 2.4784 -0.68691 0.82573 1.1356 -0.4106 0.10568 0.014015 0.049945 0.015038 -0.012576
49 2.7193 0.36617 -0.054976 -0.10119 -0.31418 -0.16916 0.068566 0.15377 -0.17694 -0.067783 2.7991 0.32987 -0.042519 -0.094734 -0.31731 -0.16531 0.061901 0.15068 -0.17733 -0.067219
50 2.733 0.1359 0.02528 0.11443 0.35892 -0.33944 0.23531 -0.39903 0.18574 -0.2898 2.4655 0.07323 0.042807 0.1041 0.31608 -0.29497 0.19868 -0.33482 0.14234 -0.2158
51 2.7198 0.40106 -0.061112 -0.17115 -0.41247 0.052206 0.0036681 -0.38117 0.14647 -0.26246 2.835 0.37528 -0.051248 -0.17598 -0.43954 0.055701 -0.0041302 -0.43286 0.18318 -0.29078
52 2.7462 -0.3726 0.72174 -0.49133 -0.11702 0.1774 -0.27985 -0.20087 0.15359 0.29632 2.3938 -0.40195 0.71154 -0.45706 -0.086014 0.14795 -0.2438 -0.16217 0.12339 0.23002
53 2.7182 0.40058 -0.074546 0.070763 0.22321 0.080093 -0.20622 0.10526 -0.10888 0.066293 2.8821 0.37788 -0.065538 0.080023 0.23223 0.076537 -0.21709 0.11489 -0.099726 0.067286
54 2.7203 0.44377 -0.079713 0.0087188 0.091123 -0.13661 -0.17255 0.12038 0.096608 0.10359 3.025 0.44933 -0.076736 0.01392 0.10311 -0.15872 -0.19841 0.15148 0.11729 0.13706
55 2.6461 -1.2757 -0.58509 -0.072396 -0.0058187 -0.0052126 0.11296 -0.022862 0.061774 0.061193 2.316 -1.2015 -0.52325 -0.062657 -0.0027141 0.0043437 0.10482 -0.021469 0.054821 0.055727
56 2.5975 -1.3763 -0.73899 -0.086025 -0.0063157 -0.000331 0.048592 0.0013705 0.031451 0.026944 2.4668 -1.3996 -0.72363 -0.083227 -0.0044818 0.0057511 0.049332 0.0010691 0.030405 0.026822
57 2.7162 0.40574 -0.067871 -0.13564 -0.34057 0.085049 0.014386 0.20666 -0.13997 -0.31654 2.8404 0.37831 -0.057629 -0.13417 -0.35566 0.083513 0.019577 0.21634 -0.14752 -0.35934
58 2.7147 0.41371 -0.063424 -0.083562 -0.090596 0.29262 -0.25124 0.10666 -0.064829 0.072315 2.8683 0.38925 -0.05234 -0.081883 -0.097741 0.29855 -0.26265 0.11188 -0.069394 0.073865
59 2.7185 0.41244 -0.059383 -0.11367 -0.14181 -0.2242 0.37759 0.31078 0.18447 -0.21704 2.8323 0.38595 -0.048928 -0.11433 -0.14166 -0.23048 0.3888 0.32698 0.20052 -0.24525
60 2.6123 -1.3202 -0.79736 -0.020413 -0.00035099 0.0021148 -0.10138 0.016619 -0.05499 -0.051403 2.5723 -1.3974 -0.81556 -0.020936 -0.0011481 0.0039804 -0.10317 0.01924 -0.055614 -0.051909
61 2.7279 0.17965 0.055681 -0.3037 -0.56094 0.24985 -0.097045 -0.58421 0.50704 0.22756 2.4987 0.1155 0.072002 -0.27209 -0.50487 0.22763 -0.087677 -0.51063 0.43655 0.19123
62 2.7172 0.39123 -0.029941 -0.2531 -0.46355 -0.18718 0.30756 -0.021783 0.14158 -0.15613 2.7846 0.35625 -0.015784 -0.2553 -0.46808 -0.1855 0.31205 -0.015416 0.14214 -0.17529
63 2.7191 0.42311 -0.058241 -0.16587 -0.33086 -0.17674 0.16993 -0.02727 -0.1294 -0.024219 2.8642 0.40307 -0.048909 -0.17204 -0.34739 -0.18315 0.17497 -0.024549 -0.15592 -0.046851
64 2.5901 -1.406 -0.77398 -0.092596 -0.0066884 0.00072809 0.048403 0.0037219 0.032716 0.028146 2.5324 -1.4744 -0.78553 -0.09389 -0.0053726 0.0058892 0.052129 0.0034266 0.034279 0.030365
65 2.7131 0.48118 -0.097003 0.058266 0.21877 0.086027 -0.16232 -0.25349 -0.1463 -0.062086 2.9424 0.48117 -0.095177 0.065915 0.23291 0.088723 -0.17811 -0.30276 -0.17162 -0.096547
66 2.713 0.48914 -0.099385 0.042153 0.18603 0.096023 -0.16205 -0.2003 -0.18345 -0.012428 2.9569 0.49266 -0.098467 0.048614 0.19891 0.10049 -0.18103 -0.24469 -0.21588 -0.03683
67 2.7036 0.48677 -0.11023 0.017197 0.085762 0.36141 -0.19367 0.030812 -0.14798 -0.078587 2.7413 0.4516 -0.10156 0.025662 0.083153 0.35573 -0.18372 0.025703 -0.13919 -0.074972
68 2.7135 0.43381 -0.098745 0.19754 0.46089 -0.31201 -0.03661 -0.19564 0.17033 -0.090417 2.8377 0.41328 -0.093833 0.21294 0.48485 -0.33417 -0.029998 -0.21459 0.21203 -0.12886
69 2.7099 0.42734 -0.053463 -0.24596 -0.62071 0.1053 -0.111 -0.39463 0.29624 0.096482 2.69 0.38441 -0.041354 -0.23732 -0.6178 0.10978 -0.1234 -0.40653 0.30956 0.1128
70 2.7042 0.5182 -0.095999 -0.13679 -0.23036 -0.057678 0.071196 0.12279 -0.23511 -0.074502 2.7797 0.49366 -0.089088 -0.137 -0.23354 -0.063772 0.073398 0.1141 -0.24506 -0.076514
71 2.7054 0.51135 -0.11206 -0.037486 -0.0062494 0.19632 -0.039887 0.27534 -0.13642 -0.045764 2.8561 0.49784 -0.10838 -0.031664 -0.0064696 0.20045 -0.046729 0.29111 -0.14308 -0.025963
72 2.7092 0.52151 -0.10825 -0.10829 -0.20841 0.034539 0.037961 0.20934 -0.18245 -0.061947 2.9653 0.53019 -0.10931 -0.11392 -0.23134 0.032825 0.045159 0.23544 -0.2017 -0.075915
73 2.709 0.52284 -0.10921 -0.098461 -0.15438 0.096158 -0.025525 0.29388 -0.015787 0.018412 2.9288 0.52521 -0.109 -0.10064 -0.16727 0.09913 -0.03184 0.33084 -0.016845 0.046497
74 2.6983 0.49356 -0.073127 -0.24475 -0.46052 -0.1679 0.36243 0.10759 0.13061 -0.5094 2.5997 0.43798 -0.060337 -0.22918 -0.42999 -0.15697 0.33728 0.10595 0.11904 -0.45547
75 2.7063 0.52772 -0.086873 -0.18846 -0.27056 0.042299 0.011696 0.19499 -0.059585 0.13912 2.8931 0.524 -0.082243 -0.19922 -0.28747 0.039657 0.0188 0.21201 -0.066675 0.15756
76 2.7183 0.47465 -0.097457 0.039408 0.091323 -0.39234 0.063657 -0.074317 0.043091 -0.16165 3.0044 0.48616 -0.099297 0.048375 0.10521 -0.44782 0.077806 -0.11873 0.060298 -0.22347
77 2.7038 0.50119 -0.064023 -0.28269 -0.48786 0.29912 -0.18553 -0.19574 0.18491 0.14956 2.7556 0.47187 -0.053581 -0.28845 -0.4996 0.30226 -0.19666 -0.2209 0.21216 0.173
78 2.7064 0.48276 -0.10756 0.058208 0.16693 0.032899 -0.18554 -0.11752 -0.10099 -0.092619 2.8476 0.46475 -0.10283 0.066505 0.16838 0.030058 -0.18935 -0.11895 -0.1005 -0.095314
79 2.7077 0.42066 -0.11575 0.26002 0.48933 -0.30557 -0.40597 0.33552 0.54761 0.0092646 2.6325 0.37146 -0.10451 0.25968 0.46537 -0.2951 -0.39717 0.33293 0.52903 0.027094
80 2.6989 0.51501 -0.096584 -0.043875 0.035674 -0.18083 -0.24001 0.53436 0.28707 0.46765 2.5775 0.45599 -0.08303 -0.038716 0.036986 -0.17349 -0.22867 0.50221 0.27267 0.42424
81 2.6948 0.49767 -0.096782 -0.04415 -0.011379 -0.072714 -0.082592 -0.46405 0.043619 -0.29084 2.4221 0.41208 -0.078187 -0.038672 -0.015382 -0.061955 -0.067478 -0.38561 0.039704 -0.22945
82 2.6976 0.53476 -0.10524 -0.12494 -0.15373 0.15445 -0.26285 0.32057 -0.03382 0.38508 2.6384 0.48592 -0.093995 -0.11808 -0.14741 0.1397 -0.25103 0.31147 -0.014656 0.37899
83 2.7055 0.45404 -0.1066 0.0101 -0.092854 0.16257 -0.20148 0.04747 -0.36371 -0.33533 2.6283 0.39996 -0.093629 0.021261 -0.091772 0.14717 -0.19013 0.045417 -0.32904 -0.29618
84 2.7082 0.41821 -0.10777 0.26154 0.50485 -0.35462 -0.29197 -0.13081 0.23948 -0.14764 2.7194 0.37977 -0.099143 0.26747 0.49516 -0.3553 -0.29326 -0.11318 0.25714 -0.14202
85 2.7034 0.49058 -0.063925 -0.26317 -0.48899 0.11046 -0.046466 -0.020527 0.098866 -0.011959 2.7672 0.46141 -0.053701 -0.26467 -0.49148 0.11144 -0.048114 -0.030169 0.10055 -0.014389
86 2.7042 0.46576 -0.088187 0.0037147 0.027101 -0.63819 0.25572 -0.048551 -0.20548 0.34966 2.6466 0.41852 -0.077253 0.00701 0.030544 -0.61606 0.24569 -0.047633 -0.19423 0.33858
87 2.6977 0.51763 -0.091863 -0.22712 -0.4387 -0.16179 0.33324 0.41044 0.0065686 -0.29077 2.6389 0.4694 -0.080886 -0.21575 -0.41772 -0.15825 0.32085 0.38742 0.010264 -0.27717
88 2.697 0.51815 -0.091765 -0.25653 -0.56551 0.14393 -0.076415 -0.032268 -0.0088697 -0.021212 2.6383 0.46954 -0.080635 -0.24372 -0.54045 0.13371 -0.074332 -0.035312 -0.0056951 -0.016097
89 2.7012 0.51842 -0.10208 -0.087489 -0.11517 -0.42649 0.23712 0.46411 -0.027369 0.32778 2.6781 0.47777 -0.092804 -0.08374 -0.11086 -0.4221 0.23287 0.45091 -0.022085 0.32657
90 2.5504 -1.4482 -0.86912 -0.090207 -0.0059607 0.0039404 -0.013434 0.020852 0.0014301 -0.0040504 2.423 -1.4693 -0.85681 -0.08919 -0.0054185 0.0061309 -0.012292 0.020848 0.0019017 -0.0035292
91 2.5532 -1.4612 -0.87471 -0.095687 -0.0064031 0.0040339 -0.0010375 0.01919 0.0086729 0.0032142 2.4971 -1.5292 -0.8915 -0.098438 -0.0060879 0.0062448 0.0013914 0.019616 0.010586 0.0050637
92 2.5538 -1.4393 -0.85706 -0.087903 -0.0057981 0.0035907 -0.0080008 0.018083 0.0040577 -0.0004308 2.3976 -1.4428 -0.83386 -0.085613 -0.0051404 0.005841 -0.0064567 0.017697 0.0046162 0.00033203
93 2.5485 -1.4515 -0.88297 -0.086698 -0.0056085 0.0043363 -0.036124 0.025175 -0.012438 -0.018902 2.393 -1.4567 -0.86235 -0.085173 -0.0051604 0.0062156 -0.035266 0.025224 -0.012223 -0.018751
94 2.5467 -1.4469 -0.8825 -0.084388 -0.0054046 0.0043851 -0.040046 0.025721 -0.014412 -0.020625 2.3593 -1.4312 -0.84853 -0.081447 -0.0049345 0.0060512 -0.037485 0.02504 -0.013266 -0.019236
95 2.7227 0.048784 -0.18511 0.60791 -0.041662 -0.033305 -0.58578 -0.047827 -0.34812 -0.27932 2.0553 -0.005616 -0.13322 0.49972 -0.04767 -0.028805 -0.45109 -0.035537 -0.26315 -0.20982
96 2.6185 -0.93002 1.3543 -0.32626 0.12656 -0.054065 -0.064054 0.067617 -0.062607 -0.081435 2.2991 -0.90862 1.3129 -0.31278 0.12135 -0.046518 -0.06653 0.062219 -0.058485 -0.072811
97 2.5512 -1.4331 -0.8779 -0.074219 -0.0045285 0.004231 -0.055583 0.024472 -0.024716 -0.02877 2.2851 -1.3717 -0.81653 -0.069447 -0.0041278 0.0054671 -0.050246 0.023055 -0.022112 -0.025919
98 2.6175 -0.88837 1.3322 -0.5068 0.13676 -0.019962 -0.19258 -0.016874 -0.0032061 0.074233 2.0004 -0.76062 1.1322 -0.43046 0.11799 -0.01359 -0.16912 -0.016108 -0.0019252 0.068013
99 2.6771 -0.64429 0.72857 1.4335 -0.55368 0.14992 0.10763 0.030699 0.097192 0.069878 2.278 -0.62774 0.70134 1.3763 -0.53441 0.14877 0.10824 0.030133 0.096192 0.069564
