100 20
0 2.7612 -0.13687 0.11035 0.1001 0.63537 0.73853 0.75755 -0.085121 0.19328 0.1725 2.3303 -0.18132 0.1243 0.088468 0.53889 0.63179 0.6324 -0.06559 0.15642 0.12509
1 2.7026 0.51752 -0.072719 0.07205 0.53433 0.67887 0.46537 -0.07018 0.081746 0.13081 2.6234 0.45961 -0.059054 0.073464 0.54929 0.69221 0.53517 -0.073254 0.10335 0.1562
2 2.818 -0.64112 0.23811 0.0059758 -0.0020138 -0.01293 0.17552 -0.011287 0.067278 0.06524 3.1981 -0.84637 0.33648 0.02891 0.00086461 0.0143 0.26034 -0.025347 0.094911 0.12465
3 2.705 0.52799 -0.084833 0.14271 0.60654 0.551 0.3157 -0.076884 0.08093 -0.043145 2.7269 0.49 -0.075074 0.14489 0.63519 0.58772 0.40242 -0.083979 0.10328 0.0001982
4 2.7086 0.5787 -0.073705 -0.15405 -0.092148 -0.013071 0.26946 -0.10184 0.26579 -0.16519 2.8458 0.56888 -0.069097 -0.15782 -0.08181 -0.016225 0.304 -0.14007 0.30608 -0.20399
5 2.704 0.56842 -0.12555 0.10028 0.24506 0.31027 0.023742 0.034922 -0.16949 0.044223 2.8203 0.5507 -0.12444 0.11396 0.25558 0.32646 0.04132 0.027924 -0.16965 0.046942
6 2.7149 0.48061 -0.089135 0.12183 0.37853 0.47806 0.13705 0.057595 -0.2248 0.077919 2.8146 0.44881 -0.07997 0.13722 0.41181 0.52489 0.20567 0.070764 -0.26458 0.13707
7 2.7251 0.48821 -0.090132 0.093799 0.2453 -0.015333 -0.063106 0.079402 0.014593 0.0023473 3.0386 0.49798 -0.090113 0.10904 0.27735 -0.018622 -0.079707 0.077307 0.029343 -0.0053729
8 2.7267 0.4706 -0.074299 -0.0082049 0.032673 -0.10808 0.054438 -0.1148 -0.086076 0.1047 3.0343 0.47531 -0.071367 -0.0042981 0.038297 -0.12163 0.062894 -0.12645 -0.10123 0.1398
9 2.7113 0.58971 -0.094756 -0.11802 -0.094394 0.28623 -0.014403 0.048072 0.064065 0.14154 2.9837 0.60868 -0.096321 -0.12947 -0.10863 0.32183 -0.015617 0.04773 0.086457 0.18244
10 2.7222 0.45817 -0.062615 -0.04316 0.084349 0.35009 -0.029463 -0.089905 -0.027403 -0.054275 2.9337 0.44211 -0.052961 -0.041465 0.093133 0.37641 -0.025712 -0.093684 -0.029946 -0.057249
11 2.7062 0.58404 -0.10239 -0.043871 0.044896 0.42252 -0.049255 -0.019289 -0.068096 -0.088204 2.9131 0.58666 -0.10191 -0.040895 0.050384 0.45808 -0.04545 -0.0239 -0.077109 -0.094312
12 2.6951 0.60234 -0.11742 0.16719 0.53698 0.40125 -0.011415 0.12121 0.087705 0.030534 2.699 0.56622 -0.11137 0.16867 0.54111 0.40318 0.011211 0.11765 0.10164 0.03467
13 2.7229 0.43092 -0.076438 0.13743 0.39022 0.19414 0.0049618 -0.043773 0.010473 -0.041859 2.8927 0.40603 -0.067435 0.14981 0.41083 0.20901 0.011423 -0.044013 0.0079561 -0.048722
14 2.7067 0.54798 -0.099698 0.076073 0.29685 0.47427 -0.10551 -0.039244 -0.092209 0.098655 2.8138 0.52685 -0.094311 0.084482 0.3062 0.49553 -0.098803 -0.038016 -0.088754 0.11559
15 2.7295 0.37099 -0.065389 0.20997 0.47497 0.12229 -0.142 -0.1375 -0.0066035 -0.22654 2.8317 0.33242 -0.052742 0.22164 0.48905 0.11908 -0.13357 -0.16003 -0.0020802 -0.27556
16 2.7391 0.27079 -0.032232 0.092613 0.054128 -0.45151 0.059325 -0.32196 -0.38048 0.28202 2.7361 0.21599 -0.015646 0.10066 0.047795 -0.45118 0.056853 -0.31992 -0.3931 0.278
17 2.731 0.37635 -0.06446 0.15561 0.23631 -0.46492 -0.13784 0.13838 0.15395 0.1258 2.8749 0.34604 -0.054595 0.16869 0.24429 -0.48977 -0.15103 0.1706 0.17553 0.1437
18 2.7373 0.26651 -0.042237 0.22332 0.29964 -0.6142 0.065234 -0.35312 -0.12298 0.13504 2.7505 0.21443 -0.02648 0.23067 0.29835 -0.61817 0.074842 -0.37219 -0.10876 0.10286
19 2.5221 -1.516 -0.83804 -0.12198 -0.0035155 0.0020191 0.043937 0.013727 0.027356 0.023112 2.4483 -1.5732 -0.8404 -0.1216 -0.00092145 0.0083067 0.045199 0.012469 0.026901 0.023653
20 2.779 -0.004159 -0.22857 0.51662 -0.12071 0.005451 -0.30866 0.00050948 -0.15028 -0.12099 3.09 -0.083018 -0.25066 0.68115 -0.19202 -0.0021972 -0.44987 0.0071092 -0.23116 -0.23296
21 2.7274 0.37258 -0.073921 0.21129 0.4405 0.06133 -0.038125 -0.20433 -0.078078 -0.055235 2.8051 0.33011 -0.06136 0.22097 0.44404 0.062687 -0.039422 -0.19782 -0.080571 -0.062443
22 2.7314 0.33904 -0.026139 -0.028657 -0.016955 -0.69183 0.34734 -0.086896 -0.07679 0.20245 2.7569 0.29171 -0.01077 -0.026847 -0.013548 -0.68818 0.342 -0.080833 -0.083933 0.21207
23 2.6054 -1.0288 1.2867 -0.30295 0.1838 -0.088298 0.021406 0.046327 -0.051219 -0.079218 2.4216 -1.0607 1.3216 -0.30674 0.18853 -0.076642 0.016187 0.044128 -0.051821 -0.07471
24 2.7297 0.41026 -0.061305 -0.0031969 -0.02566 -0.21247 0.071877 -0.1076 -0.2474 0.032178 2.9349 0.38987 -0.052763 0.0027078 -0.029026 -0.22959 0.076004 -0.11491 -0.27936 0.052488
25 2.5936 -1.0415 1.325 -0.31141 0.1883 -0.091229 0.011159 0.045225 -0.055907 -0.085779 2.4438 -1.088 1.3799 -0.32069 0.19647 -0.0812 0.006266 0.044038 -0.057781 -0.083867
26 2.5221 -1.516 -0.83804 -0.12198 -0.0035155 0.0020191 0.043937 0.013727 0.027356 0.023112 2.4483 -1.5732 -0.8404 -0.1216 -0.00092145 0.0083067 0.045199 0.012469 0.026901 0.023653
27 2.6054 -1.0288 1.2867 -0.30295 0.1838 -0.088298 0.021406 0.046327 -0.051219 -0.079218 2.4216 -1.0607 1.3216 -0.30674 0.18853 -0.076642 0.016187 0.044128 -0.051821 -0.07471
28 2.7307 0.36986 -0.062562 0.10128 0.12636 -0.48401 0.12679 -0.16568 -0.054308 0.0099379 2.8537 0.33524 -0.051944 0.11151 0.12712 -0.50244 0.12668 -0.17004 -0.064461 0.022799
29 2.734 0.32215 -0.052666 0.094379 0.065624 -0.54257 0.16113 -0.14714 -0.25516 0.26774 2.7741 0.27446 -0.038694 0.10211 0.060554 -0.54411 0.15936 -0.13753 -0.26278 0.26823
30 2.7762 -0.3115 0.15877 0.077633 0.32185 0.42691 0.34778 0.087615 -0.21353 0.21646 2.2529 -0.32373 0.16377 0.069511 0.25575 0.34493 0.27211 0.070762 -0.16371 0.15109
31 2.5974 -1.0321 1.3019 -0.37869 0.22374 -0.099894 0.007814 0.043214 -0.059039 -0.083844 2.4143 -1.0644 1.3385 -0.3863 0.23057 -0.089 0.0018633 0.041445 -0.060476 -0.081318
32 2.6054 -1.0288 1.2867 -0.30295 0.1838 -0.088298 0.021406 0.046327 -0.051219 -0.079218 2.4216 -1.0607 1.3216 -0.30674 0.18853 -0.076642 0.016187 0.044128 -0.051821 -0.07471
33 2.741 0.21205 -0.042793 0.27988 0.36668 -0.4338 -0.20514 0.32979 0.51434 -0.19344 2.6461 0.1494 -0.023811 0.27801 0.34375 -0.41197 -0.20847 0.31278 0.47497 -0.18555
34 2.5685 -1.4104 -0.86338 -0.046282 -0.0039662 0.021095 -0.078489 0.038592 -0.041017 -0.035613 2.5514 -1.507 -0.89088 -0.046886 -0.0065883 0.020868 -0.083784 0.042375 -0.043205 -0.041776
35 2.6097 -0.99171 1.3532 -0.44358 0.15056 -0.0055297 -0.16627 0.012729 -0.01862 0.022722 2.5143 -1.0694 1.4544 -0.47759 0.16982 -0.0013203 -0.19338 0.011186 -0.021089 0.032757
36 2.7347 0.30213 -0.058862 0.23438 0.33239 -0.50419 -0.11478 0.10408 0.3141 -0.0040133 2.7467 0.25103 -0.044185 0.24203 0.32571 -0.50558 -0.12226 0.11652 0.30937 -0.0078644
37 2.7213 0.48063 -0.042506 -0.23345 -0.27632 -0.087097 0.14179 0.19426 0.0438 -0.0055383 2.9398 0.47113 -0.03171 -0.25279 -0.29727 -0.097818 0.15309 0.21929 0.053388 -0.004427
38 2.7236 0.48535 -0.04183 -0.23241 -0.27646 -0.10922 0.081161 -0.21388 0.1476 0.0057973 2.9726 0.48351 -0.032092 -0.25949 -0.30897 -0.12064 0.087445 -0.27035 0.18406 0.00049285
39 2.7329 0.41622 0.052911 -0.21411 -0.11566 0.13271 -0.20165 0.041832 -0.12181 -0.0053327 3.0064 0.40079 0.090457 -0.25382 -0.12856 0.14467 -0.2523 0.050772 -0.12463 0.012028
40 2.7351 0.33599 -0.043437 -0.095023 -0.28033 -0.10647 -0.17014 0.1347 -0.19085 0.19285 2.761 0.28602 -0.028314 -0.086724 -0.28682 -0.10397 -0.17761 0.11519 -0.20516 0.1898
41 2.7416 0.27073 0.17923 -0.44171 -0.26778 0.33044 -0.30228 -0.23528 0.25386 0.25329 2.7713 0.20993 0.22535 -0.47591 -0.27516 0.332 -0.34131 -0.25438 0.28705 0.28639
42 2.6902 -0.76521 0.6628 1.2616 -0.63251 0.16511 0.2031 -0.011434 0.14015 0.12382 2.3579 -0.76132 0.66024 1.2529 -0.62655 0.17656 0.20338 -0.012565 0.13779 0.12714
43 2.6164 -1.0375 1.328 0.056737 -0.0052612 -0.027278 0.0018156 0.053285 -0.037449 -0.072241 2.4664 -1.0862 1.3857 0.06768 -0.0093228 -0.016881 -0.0037026 0.052114 -0.038126 -0.070167
44 2.7165 -0.65568 0.57925 1.2573 -0.59345 0.16615 0.070147 0.0097131 0.062222 0.054487 2.4312 -0.67722 0.59424 1.2727 -0.60683 0.17418 0.082118 0.009424 0.069334 0.061755
45 2.748 0.16855 -0.018512 0.087675 -0.056191 -0.24468 -0.079636 -0.28992 -0.45491 0.10861 2.6057 0.10164 0.0016123 0.094113 -0.059816 -0.22657 -0.081878 -0.24879 -0.4174 0.096995
46 2.7285 0.38426 -0.055022 -0.11927 -0.22577 0.20781 -0.093118 0.26183 -0.21364 -0.26377 2.7931 0.34021 -0.041262 -0.11226 -0.23336 0.2037 -0.094873 0.26661 -0.22417 -0.29449
47 2.7244 0.43703 -0.062631 0.052071 0.3034 0.15753 0.0065663 0.33919 0.22922 -0.13626 2.8349 0.40446 -0.050662 0.056887 0.32085 0.15426 0.00017348 0.35315 0.24925 -0.14592
48 2.7113 -0.75871 0.82281 1.0762 -0.48902 0.13224 0.017453 0.042478 0.0094344 -0.013345 2.4749 -0.79027 0.84748 1.1098 -0.51353 0.13967 0.027288 0.042011 0.018856 -0.00669
49 2.7296 0.37094 -0.046544 -0.14484 -0.32691 -0.16257 0.086058 0.15185 -0.19182 -0.10244 2.8068 0.32839 -0.032969 -0.13789 -0.33328 -0.16134 0.077765 0.15063 -0.19428 -0.10468
50 2.7528 0.08408 0.037232 0.13628 0.36093 -0.37422 0.19263 -0.39763 0.23283 -0.26258 2.4827 0.016734 0.057558 0.12193 0.31803 -0.33044 0.16169 -0.33442 0.1818 -0.20852
51 2.7279 0.41675 -0.052318 -0.22529 -0.4019 0.071995 -0.0099432 -0.39002 0.21511 -0.1942 2.8401 0.38523 -0.041232 -0.23167 -0.42905 0.074727 -0.023108 -0.43781 0.25521 -0.21561
52 2.7615 -0.44131 0.75728 -0.55432 -0.065656 0.22837 -0.35801 -0.063322 0.085526 0.20332 2.4079 -0.47344 0.74878 -0.51245 -0.041719 0.18643 -0.31769 -0.045734 0.067061 0.14867
53 2.7262 0.41877 -0.073737 0.09969 0.2246 0.072678 -0.2004 0.12735 -0.13724 0.027759 2.8873 0.39163 -0.064343 0.11065 0.23283 0.068689 -0.21153 0.14007 -0.13282 0.025131
54 2.7257 0.47609 -0.074916 0.019768 0.085937 -0.14527 -0.17091 0.14464 0.073882 0.087803 3.0269 0.48059 -0.071261 0.025958 0.095898 -0.16861 -0.1962 0.17816 0.089689 0.11644
55 2.6202 -1.3663 -0.61801 -0.11963 -0.0065231 0.0027568 0.12448 0.019479 0.063763 0.067619 2.2963 -1.2905 -0.55088 -0.10456 -0.0041457 0.0097418 0.11311 0.016454 0.056036 0.059939
56 2.5421 -1.4849 -0.79417 -0.1212 -0.0045856 0.0026698 0.061051 0.016843 0.035369 0.033176 2.4181 -1.5116 -0.77768 -0.11751 -0.0021406 0.0089648 0.061251 0.015216 0.03417 0.033191
57 2.7239 0.42574 -0.061839 -0.17817 -0.33577 0.10568 0.051807 0.18391 -0.13591 -0.34768 2.8451 0.39344 -0.050785 -0.17752 -0.35312 0.10354 0.055233 0.19266 -0.14362 -0.39256
58 2.7219 0.43919 -0.056581 -0.098036 -0.069317 0.30932 -0.2405 0.12836 -0.078956 0.033641 2.8724 0.4107 -0.044172 -0.098028 -0.07778 0.31539 -0.2554 0.13542 -0.084413 0.031263
59 2.726 0.43354 -0.045702 -0.15032 -0.13191 -0.2345 0.40909 0.28916 0.17632 -0.21323 2.8367 0.40255 -0.033637 -0.15361 -0.13044 -0.24201 0.42342 0.30563 0.1918 -0.24147
60 2.5673 -1.4009 -0.87331 -0.037971 -0.0039654 0.02265 -0.1033 0.039936 -0.054845 -0.050492 2.5308 -1.4847 -0.89345 -0.037198 -0.0069994 0.021603 -0.11182 0.043315 -0.059025 -0.060059
61 2.7453 0.1384 0.080549 -0.41382 -0.5393 0.29944 -0.14489 -0.47296 0.53356 0.29677 2.5137 0.067584 0.099171 -0.37401 -0.48854 0.27038 -0.13139 -0.41345 0.46255 0.24842
62 2.7251 0.4054 -0.0065467 -0.3376 -0.44789 -0.1815 0.29956 -0.030342 0.14624 -0.14337 2.7896 0.36463 0.01045 -0.34417 -0.45266 -0.18179 0.30324 -0.025747 0.14842 -0.16137
63 2.7257 0.44731 -0.04294 -0.21964 -0.32442 -0.1733 0.16599 -0.058951 -0.12238 -0.010962 2.8675 0.4231 -0.031624 -0.2303 -0.34085 -0.18127 0.17161 -0.058902 -0.14599 -0.032342
64 2.5278 -1.5176 -0.83144 -0.12468 -0.0039697 0.0016212 0.060013 0.014512 0.036168 0.033875 2.4757 -1.591 -0.84317 -0.12633 -0.001396 0.008154 0.064386 0.013915 0.037766 0.037254
65 2.7139 0.54158 -0.10221 0.099464 0.21724 0.077423 -0.18418 -0.27887 -0.11295 -0.052521 2.9384 0.54456 -0.10266 0.11119 0.23146 0.082548 -0.20074 -0.33274 -0.12669 -0.072748
66 2.7132 0.55341 -0.10484 0.080277 0.18609 0.088835 -0.17848 -0.23076 -0.15632 -0.0053995 2.9522 0.56079 -0.10638 0.090853 0.19924 0.09549 -0.19734 -0.28072 -0.17712 -0.016403
67 2.7027 0.56123 -0.12933 0.055413 0.090472 0.37414 -0.17916 0.0070587 -0.12709 -0.093158 2.7356 0.52626 -0.12466 0.067276 0.086105 0.37223 -0.16918 0.0016213 -0.11821 -0.088654
68 2.7167 0.47176 -0.10958 0.26889 0.43247 -0.34103 -0.054701 -0.19069 0.18744 -0.066325 2.8369 0.4498 -0.10753 0.29007 0.4537 -0.36162 -0.047408 -0.20677 0.22982 -0.094261
69 2.7136 0.4644 -0.041816 -0.32381 -0.61683 0.13976 -0.141 -0.3242 0.31951 0.15044 2.6901 0.41686 -0.029777 -0.31261 -0.61645 0.14494 -0.15695 -0.33436 0.3311 0.16794
70 2.7007 0.60779 -0.091117 -0.16054 -0.22368 -0.055176 0.091587 0.068163 -0.23746 -0.10147 2.7707 0.58605 -0.086204 -0.16257 -0.22616 -0.059995 0.094731 0.058786 -0.24468 -0.10009
71 2.703 0.5956 -0.12508 -0.017252 4.6823e-07 0.20123 0.0024943 0.237 -0.14299 -0.065388 2.8481 0.58662 -0.12587 -0.0079496 -0.0014083 0.20807 -0.001377 0.25183 -0.15264 -0.048128
72 2.7063 0.60509 -0.1139 -0.1159 -0.20372 0.042366 0.070833 0.16106 -0.18591 -0.074582 2.9565 0.6213 -0.11875 -0.12045 -0.22634 0.043582 0.082297 0.18116 -0.20652 -0.087704
73 2.7062 0.6077 -0.11589 -0.10035 -0.14565 0.10255 0.014073 0.2701 -0.029603 0.020067 2.9201 0.61657 -0.11949 -0.10066 -0.15847 0.10805 0.012286 0.30443 -0.034883 0.044721
74 2.6953 0.57626 -0.056005 -0.31963 -0.45199 -0.16771 0.38033 0.048675 0.16155 -0.48153 2.5919 0.51753 -0.044928 -0.30292 -0.42225 -0.15717 0.35641 0.047622 0.14999 -0.43127
75 2.7021 0.62069 -0.074109 -0.22505 -0.24451 0.049019 0.028172 0.17835 -0.087772 0.12348 2.8829 0.62352 -0.069754 -0.2409 -0.25792 0.049104 0.037596 0.19211 -0.096414 0.14555
76 2.7201 0.52479 -0.099352 0.059204 0.06634 -0.40778 0.05459 -0.10042 0.067529 -0.14428 3.0016 0.53864 -0.10326 0.071967 0.075802 -0.46257 0.065342 -0.14835 0.09431 -0.18934
77 2.7007 0.58184 -0.042964 -0.35409 -0.44853 0.33169 -0.19459 -0.15559 0.1894 0.17271 2.7474 0.5526 -0.031739 -0.36487 -0.45791 0.33646 -0.2071 -0.17514 0.21745 0.20355
78 2.7064 0.55126 -0.12089 0.1017 0.15881 0.026443 -0.1894 -0.14295 -0.07631 -0.091259 2.8426 0.53616 -0.12032 0.11405 0.15849 0.025087 -0.19341 -0.14618 -0.074213 -0.093514
79 2.7108 0.45821 -0.14169 0.35765 0.45238 -0.33708 -0.37545 0.42136 0.49521 0.025781 2.6317 0.40498 -0.13317 0.35967 0.42693 -0.32538 -0.36833 0.41603 0.47739 0.039435
80 2.6951 0.61318 -0.093561 -0.032927 0.037909 -0.19901 -0.21763 0.58146 0.21222 0.46323 2.5685 0.55063 -0.082125 -0.029882 0.0394 -0.19 -0.20709 0.54744 0.20541 0.42911
81 2.6918 0.59361 -0.09959 -0.035737 -0.0077115 -0.083524 -0.11452 -0.53142 0.13862 -0.20607 2.4145 0.49971 -0.083734 -0.032673 -0.011157 -0.070747 -0.092815 -0.44842 0.12112 -0.16222
82 2.6914 0.64547 -0.10714 -0.13396 -0.13702 0.16399 -0.23637 0.32566 -0.072065 0.39325 2.6265 0.59583 -0.098949 -0.12805 -0.13131 0.151 -0.22507 0.31822 -0.053497 0.38754
83 2.7082 0.50967 -0.12648 0.029947 -0.11069 0.18246 -0.17792 0.0076574 -0.34223 -0.38396 2.6267 0.45195 -0.11625 0.044768 -0.11364 0.16843 -0.17056 0.0080666 -0.31231 -0.34621
84 2.7114 0.45408 -0.12799 0.35482 0.4658 -0.38566 -0.30291 -0.099081 0.2432 -0.12696 2.7186 0.41305 -0.1226 0.36468 0.45454 -0.3854 -0.30173 -0.080953 0.25746 -0.12245
85 2.7015 0.56518 -0.043473 -0.33513 -0.46296 0.13219 -0.046326 0.005031 0.089282 -0.021899 2.7604 0.53665 -0.032804 -0.34078 -0.46555 0.13459 -0.048452 -0.0050891 0.094867 -0.016415
86 2.7042 0.52832 -0.08459 0.0083924 -0.0033637 -0.67185 0.22901 -0.09463 -0.21492 0.33993 2.642 0.47874 -0.075734 0.011634 0.00078218 -0.64961 0.22238 -0.092579 -0.2029 0.33073
87 2.6924 0.61439 -0.083495 -0.28888 -0.43315 -0.16039 0.38033 0.3472 -0.0022156 -0.2908 2.6282 0.56489 -0.075117 -0.27702 -0.41271 -0.15679 0.36738 0.32709 0.0024168 -0.27642
88 2.691 0.61651 -0.086232 -0.32334 -0.55597 0.17468 -0.054848 -0.034496 -0.0018976 0.0071875 2.6269 0.5664 -0.077793 -0.30944 -0.53311 0.16535 -0.053458 -0.038496 0.0018868 0.011784
89 2.6967 0.61321 -0.10044 -0.098456 -0.1257 -0.4496 0.26589 0.42302 -0.076905 0.31711 2.668 0.57267 -0.094064 -0.095142 -0.12048 -0.44461 0.26141 0.41227 -0.069957 0.31903
90 2.4547 -1.59 -0.96518 -0.097673 0.0017627 -0.001834 -0.013107 -0.0009169 0.0019156 -0.0048934 2.3369 -1.6103 -0.95503 -0.097031 0.0047667 0.0050715 -0.0067788 -0.0028339 0.0042698 0.0020643
91 2.4583 -1.6004 -0.96477 -0.10521 0.0012894 -0.0026969 0.00071616 -0.0011201 0.0093968 0.0029002 2.4093 -1.6709 -0.98542 -0.10868 0.0045605 0.0044434 0.0083103 -0.0025395 0.012987 0.011065
92 2.4621 -1.5785 -0.94955 -0.09751 0.0010191 -0.001281 -0.0060839 0.0014774 0.0052411 -0.00051678 2.3162 -1.5801 -0.92733 -0.095378 0.0038919 0.0055137 0.00033277 -0.00047219 0.007547 0.006592
93 2.4506 -1.5928 -0.98543 -0.0894 0.0030367 0.0003434 -0.043027 0.00063085 -0.015412 -0.023097 2.3058 -1.5952 -0.96586 -0.088264 0.0056744 0.0066335 -0.037163 -0.0010722 -0.013348 -0.016976
94 2.4477 -1.5894 -0.98886 -0.085799 0.0033757 0.00080296 -0.047684 2.1723e-05 -0.017468 -0.02486 2.2723 -1.5692 -0.95493 -0.083331 0.0057678 0.0067849 -0.040048 -0.0017162 -0.014443 -0.017581
95 2.7408 0.0068413 -0.26357 0.68959 -0.16442 0.00019813 -0.55403 -0.010183 -0.30462 -0.28984 2.0679 -0.044098 -0.1973 0.57227 -0.15326 -0.0039156 -0.43253 -0.0056877 -0.23322 -0.22253
96 2.5392 -1.0798 1.4699 -0.2812 0.14918 -0.07472 -0.053279 0.022775 -0.049664 -0.070883 2.2351 -1.0498 1.4249 -0.26976 0.14731 -0.058468 -0.05009 0.019421 -0.045163 -0.056266
97 2.4575 -1.5691 -0.98534 -0.073129 0.0033832 0.0047502 -0.068328 0.0066986 -0.030209 -0.034978 2.2055 -1.4993 -0.92041 -0.068814 0.0049162 0.009382 -0.05807 0.0048659 -0.025731 -0.026765
98 2.5412 -1.0241 1.4591 -0.51642 0.17335 -0.012294 -0.22411 -0.018718 -0.013485 0.053706 1.9463 -0.87234 1.2377 -0.43737 0.15519 -0.0040754 -0.18772 -0.016671 -0.010053 0.053655
99 2.649 -0.75892 0.76116 1.434 -0.68385 0.18041 0.12437 -0.0090153 0.099216 0.080595 2.2572 -0.7341 0.73169 1.3743 -0.65926 0.18336 0.1324 -0.0088024 0.10146 0.088354
