386 20
0 0.0079578 -0.26607 0.04043 -0.11482 -0.00033007 0.00027933 -0.0701 -0.00030788 0.00022592 2.5902e-06 0.0082068 -0.27401 0.040646 -0.11274 -0.00032328 0.00019879 0.019339 0.00014801 0.0275 8.6455e-06
1 0.0080013 -0.26521 0.03578 -0.10927 -0.00029879 0.00022882 -0.08442 -0.0003984 -0.0057781 -1.4972e-05 0.011988 -0.3982 0.04751 -0.14987 -0.00044247 0.00031762 -0.1068 -0.00050962 -0.043958 8.6083e-05
2 0.0080369 -0.26966 0.042958 -0.12019 -0.00035155 0.00034734 -0.11481 -0.00051997 0.021016 -5.26e-05 0.0095754 -0.32108 0.050511 -0.13628 -0.00040692 0.00038797 -0.13107 -0.00059735 0.021988 -6.2542e-05
3 0.0079571 -0.26346 0.03523 -0.10837 -0.00029254 0.0002106 -0.071128 -0.00033108 0.010063 -5.1728e-05 0.012808 -0.42502 0.050874 -0.16164 -0.00046597 0.00029434 -0.059408 -0.0002547 0.040729 -9.1365e-05
4 0.0080151 -0.26862 0.036726 -0.11078 -0.00034067 0.00032411 -0.096842 -0.00043052 0.023914 -4.4525e-05 0.0078913 -0.26423 0.032635 -0.098642 -0.00032069 0.00027916 -0.06815 -0.0002888 0.035043 -4.8437e-05
5 0.0079386 -0.26502 0.039204 -0.11433 -0.00032429 0.00027088 -0.075031 -0.0003354 0.0072693 -2.2176e-05 0.012463 -0.41573 0.058325 -0.16979 -0.00048794 0.00033654 -0.059084 -0.00024538 0.018303 -3.4733e-05
6 0.0079105 -0.26133 0.033432 -0.10515 -0.00027996 0.0001737 -0.050264 -0.00023446 -0.002676 -2.4339e-05 0.013309 -0.44048 0.048768 -0.16227 -0.00045937 0.00019949 0.0021698 2.564e-05 -0.006738 -1.4476e-05
7 0.0075096 -0.24527 0.02352 -0.090137 -0.00021074 -7.7717e-05 0.11371 0.00052108 -0.15184 0.00026347 0.0028715 -0.094173 0.0075623 -0.033634 -8.1268e-05 -5.5101e-05 0.06296 0.00028545 -0.078996 0.00012981
8 0.0080583 -0.26701 0.039489 -0.11525 -0.00030258 0.0002283 -0.081836 -0.00038312 0.0062621 -4.7576e-05 0.011329 -0.37609 0.052922 -0.15353 -0.00042153 0.00028829 -0.079139 -0.00036174 0.0099404 -4.7288e-05
9 0.0080012 -0.26814 0.04233 -0.11891 -0.00034412 0.00032189 -0.097908 -0.00044075 0.008259 -2.0764e-05 0.010137 -0.33954 0.052951 -0.14397 -0.00042379 0.00037769 -0.11698 -0.00053141 0.0055 -2.3249e-05
10 0.0079681 -0.26633 0.039291 -0.11733 -0.00033202 0.00027888 -0.066863 -0.00028945 -0.0092561 6.3742e-05 0.0057699 -0.19266 0.025721 -0.081191 -0.00023152 0.00015925 -0.015755 -5.1991e-05 -0.031763 0.00014848
11 0.0079144 -0.26517 0.026038 -0.093295 -0.0003257 0.00030405 -0.08145 -0.00035653 0.016087 -2.581e-05 0.0073398 -0.24574 0.01643 -0.069632 -0.00028497 0.00024844 -0.059801 -0.00025656 0.019403 -2.8187e-05
12 0.0081431 -0.27324 0.044328 -0.12211 -0.00035658 0.00035496 -0.11784 -0.00053261 0.025608 -5.8487e-05 0.0063779 -0.21381 0.034934 -0.090161 -0.00026912 0.00025564 -0.085868 -0.00039005 0.019014 -4.7064e-05
13 0.0077849 -0.25041 0.024291 -0.088089 -0.0001656 -0.00014865 0.093543 0.00041047 -0.10539 0.00017998 0.0075267 -0.24424 0.017927 -0.076225 -0.00016772 -0.00022972 0.18407 0.00082933 -0.20395 0.0003988
14 0.0080178 -0.26838 0.042628 -0.11917 -0.00033984 0.00030351 -0.080312 -0.00034947 0.020716 -2.8251e-05 0.0079007 -0.26412 0.041471 -0.11184 -0.00031994 0.00023653 -0.027047 -8.5151e-05 0.029266 -1.3618e-05
15 0.0080761 -0.27068 0.043702 -0.12087 -0.00034899 0.00034056 -0.11453 -0.00051865 0.029708 -7.3001e-05 0.0074428 -0.2492 0.040245 -0.1056 -0.0003093 0.00027578 -0.081402 -0.00036006 0.035677 -7.2987e-05
16 0.0080261 -0.26941 0.042658 -0.11948 -0.00035236 0.00035092 -0.11466 -0.00051739 0.023274 -5.3891e-05 0.0095848 -0.32154 0.050259 -0.13564 -0.00040936 0.00039826 -0.13605 -0.00061874 0.028645 -7.2094e-05
17 0.0078033 -0.26126 0.021545 -0.083387 -0.00031273 0.00028773 -0.072485 -0.00031154 0.024053 -3.5782e-05 0.0046234 -0.15464 0.0075299 -0.036626 -0.00017153 0.00013521 -0.016478 -5.4221e-05 0.018157 -1.2848e-05
18 0.0080398 -0.26651 0.038639 -0.11383 -0.00030297 0.00023429 -0.087792 -0.00041358 0.0053242 -5.3537e-05 0.011502 -0.38209 0.051327 -0.15229 -0.00043059 0.00031756 -0.10902 -0.0005144 0.0046783 -7.0316e-05
19 0.0080494 -0.2672 0.040289 -0.11612 -0.00031008 0.00025271 -0.095332 -0.00044686 0.0085664 -5.476e-05 0.011623 -0.38666 0.05642 -0.15964 -0.00044736 0.00036185 -0.136 -0.00064123 0.011216 -8.0139e-05
20 0.0080174 -0.26877 0.037083 -0.11128 -0.00034215 0.00032848 -0.10213 -0.00045944 0.015076 -3.324e-05 0.0086305 -0.28913 0.036109 -0.10845 -0.0003541 0.00032553 -0.10219 -0.00046175 0.017334 -3.9073e-05
21 0.0080663 -0.2707 0.042939 -0.11992 -0.00035314 0.00035138 -0.1155 -0.00052117 0.025691 -5.8477e-05 0.0085555 -0.28691 0.044996 -0.12021 -0.00036287 0.00034893 -0.11754 -0.00053332 0.027537 -6.7043e-05
22 0.0077676 -0.25551 0.031817 -0.10149 -0.00025606 9.8726e-05 0.0031364 2.6226e-05 -0.011974 3.6447e-05 0.017575 -0.57961 0.064885 -0.21721 -0.00056476 -1.6026e-05 0.32421 0.0016836 0.073913 0.00022027
23 0.0080638 -0.26775 0.040691 -0.11692 -0.00031211 0.00025686 -0.097677 -0.00045824 0.0078899 -5.3218e-05 0.011582 -0.38534 0.05668 -0.15987 -0.00044727 0.0003654 -0.13903 -0.00065575 0.011418 -7.7959e-05
24 0.0072493 -0.23439 0.02934 -0.096773 -0.00017355 -0.00020013 0.2922 0.0015159 0.16632 -9.9061e-05 0.00084975 -0.027694 0.0033364 -0.011824 -2.1606e-05 -3.9484e-05 0.058299 0.0003014 0.032448 -2.0663e-05
25 0.0078606 -0.26015 0.037603 -0.10746 -0.0002791 0.00010813 0.0285 0.00014533 -0.072444 0.00014552 0.0046403 -0.15356 0.021866 -0.059477 -0.00015562 1.277e-05 0.048016 0.00022432 -0.07444 0.00013389
26 0.0081109 -0.27185 0.044432 -0.12189 -0.00035027 0.0003346 -0.10749 -0.00048619 0.015824 -3.6554e-05 0.0064671 -0.2166 0.035809 -0.092084 -0.00026988 0.00024523 -0.079071 -0.00035899 0.012663 -2.9444e-05
27 0.0079935 -0.26798 0.041609 -0.1178 -0.00034515 0.00033263 -0.10965 -0.00049933 0.012364 -4.0582e-05 0.0098805 -0.33113 0.050488 -0.13851 -0.00041594 0.00039095 -0.13519 -0.00062122 0.016085 -5.791e-05
28 0.0076546 -0.24835 0.016178 -0.076443 -0.00018802 -6.6362e-05 0.069796 0.00031806 -0.064382 0.00011814 0.01247 -0.40691 0.016413 -0.11009 -0.00030369 -0.00029193 0.30657 0.0014397 -0.21217 0.00047533
29 0.0079537 -0.26661 0.027714 -0.095485 -0.00033089 0.00032719 -0.10639 -0.00048075 0.021878 -5.416e-05 0.006061 -0.20298 0.014151 -0.056858 -0.00023587 0.00021669 -0.067354 -0.00030641 0.0085877 -3.2669e-05
30 0.0077715 -0.24831 0.025391 -0.086461 -0.00013966 -0.00021927 0.13173 0.0005944 -0.10272 0.00019472 0.0059419 -0.19244 0.017971 -0.062019 -0.00012759 -0.00019315 0.17 0.00079344 -0.13311 0.00031904
31 0.0080418 -0.26611 0.034967 -0.10752 -0.00029266 0.00021344 -0.078509 -0.00037086 0.0028868 -4.6903e-05 0.010099 -0.33497 0.03862 -0.12154 -0.00036237 0.0002453 -0.076795 -0.00036342 -0.0061397 -3.056e-05
32 0.0080022 -0.26847 0.042613 -0.11828 -0.0003479 0.00033448 -0.099486 -0.00044248 0.018802 -3.3863e-05 0.008586 -0.28789 0.045765 -0.12068 -0.00036243 0.00033407 -0.098909 -0.00044093 0.014976 -2.3628e-05
33 0.0080904 -0.26767 0.038542 -0.1165 -0.00030017 0.00022911 -0.098526 -0.00047232 0.0053165 -7.0352e-05 0.009616 -0.31878 0.040785 -0.13108 -0.00035498 0.00025068 -0.10325 -0.00050367 -0.007906 -6.7495e-05
34 0.0079099 -0.26508 0.02799 -0.099507 -0.0003318 0.00032395 -0.10628 -0.00048286 0.014986 -4.3982e-05 0.0072614 -0.24321 0.015736 -0.07562 -0.00029059 0.00027229 -0.090623 -0.00041507 0.012641 -4.4281e-05
35 0.0081454 -0.27306 0.044646 -0.12253 -0.00035274 0.00033982 -0.11007 -0.00049773 0.019462 -4.7532e-05 0.006802 -0.22782 0.0376 -0.09682 -0.00028387 0.00025878 -0.084659 -0.00038528 0.015083 -4.1291e-05
36 0.0077469 -0.25896 0.062938 -0.093508 -0.00029362 0.00024624 -0.050065 -0.00020647 0.013821 -3.6355e-06 0.013678 -0.46013 0.32835 0.0044623 -0.00030372 0.00026952 0.077762 0.00050661 0.16991 -8.11e-05
37 0.0079955 -0.26471 0.038263 -0.11301 -0.00029532 0.00020396 -0.063115 -0.00029324 -0.0026483 -2.1526e-05 0.012732 -0.42229 0.05715 -0.16993 -0.00046363 0.00027098 -0.048966 -0.00021657 -0.0073728 -3.1386e-06
38 0.0080068 -0.26848 0.04167 -0.11783 -0.00034645 0.00033646 -0.10905 -0.00049283 0.019918 -4.923e-05 0.0098747 -0.33098 0.05047 -0.13799 -0.00041605 0.00039244 -0.13257 -0.00060497 0.02297 -6.7244e-05
39 0.0080519 -0.26658 0.039367 -0.1146 -0.00029855 0.00021695 -0.077238 -0.00036302 0.0043472 -4.8639e-05 0.01158 -0.38418 0.054358 -0.15621 -0.00042583 0.00028172 -0.083377 -0.00038994 0.0080998 -6.8298e-05
40 0.0080037 -0.26816 0.042308 -0.11915 -0.0003436 0.00032221 -0.10011 -0.00045093 0.016272 -4.1292e-05 0.010164 -0.34031 0.052875 -0.14481 -0.00042297 0.00036546 -0.098935 -0.00043496 0.026088 -5.0609e-05
41 0.011675 -0.23439 -0.011023 -0.036402 0.0015749 -0.0032164 0.081113 -0.00041431 -0.051783 -0.0011492 0.014398 -0.35246 -0.039044 -0.024528 0.0011223 -0.002509 0.28466 0.00080516 -0.1367 -0.00042581
42 0.0081012 -0.27156 0.040305 -0.11968 -0.00035039 0.00033495 -0.10645 -0.00048103 0.014573 -3.8032e-05 0.0064057 -0.2145 0.029264 -0.089944 -0.0002682 0.0002411 -0.077454 -0.00035246 0.010747 -3.2548e-05
43 0.0080848 -0.27061 0.042815 -0.11872 -0.00034098 0.0003023 -0.084621 -0.00037836 0.00036449 3.4323e-06 0.0055605 -0.18601 0.029748 -0.076809 -0.00022622 0.00019032 -0.055566 -0.00025163 0.0014882 -3.0931e-06
44 0.0076052 -0.24707 -0.0048716 -0.048463 -0.00017906 -4.0406e-05 0.048231 0.00021358 -0.050283 6.5022e-05 0.0085356 -0.27916 -0.020643 -0.034279 -0.00020237 -0.00011442 0.14616 0.00068821 -0.08839 0.0001772
45 0.0078451 -0.26248 0.03024 -0.095481 -0.00031788 0.00028246 -0.062609 -0.0002563 0.037104 -2.3885e-05 0.0041296 -0.13812 0.014598 -0.043195 -0.00015865 0.00012381 -0.0091982 -1.1285e-05 0.042992 -3.416e-05
46 0.0076906 -0.24254 -0.0036123 -0.049463 -7.7262e-05 -0.00032339 0.1462 0.00063047 -0.18237 0.00038592 0.0045171 -0.14541 -0.0071202 -0.025896 -6.9429e-05 -0.00028885 0.27188 0.0012687 -0.66428 0.0022063
47 0.0081097 -0.27184 0.044709 -0.11957 -0.00034844 0.00033253 -0.10479 -0.00047283 0.013081 -2.4949e-05 0.0039309 -0.13168 0.022558 -0.053843 -0.00016208 0.00014801 -0.047904 -0.00021783 0.0073346 -1.6919e-05
48 0.0079511 -0.26521 0.034581 -0.10701 -0.0003162 0.00024687 -0.058412 -0.00025949 -0.014719 2.6846e-05 0.0091836 -0.30607 0.035385 -0.112 -0.00034678 0.00021785 -0.028018 -0.00011861 -0.038775 7.6479e-05
49 0.0079784 -0.26755 0.039893 -0.11426 -0.00034368 0.0003373 -0.11285 -0.00051316 0.018243 -4.8076e-05 0.00753 -0.25248 0.035414 -0.099044 -0.00031482 0.00030153 -0.097081 -0.00043632 0.025455 -5.0173e-05
50 0.0078707 -0.25749 0.032911 -0.10319 -0.0002397 5.2211e-05 0.0050935 1.4974e-05 -0.042505 6.2852e-05 0.011773 -0.3863 0.04254 -0.14281 -0.00034715 -7.3112e-05 0.13924 0.00063877 -0.14891 0.00029642
51 0.0080605 -0.27051 0.042851 -0.12315 -0.00035582 0.00035284 -0.118 -0.00053574 0.01835 -4.5935e-05 0.006058 -0.20315 0.030825 -0.089907 -0.0002615 0.00024975 -0.085805 -0.00039243 0.010766 -3.2765e-05
52 0.0081406 -0.26803 0.039682 -0.11521 -0.00028016 0.00016167 -0.059484 -0.00028826 -0.0080447 -3.0414e-05 0.0081917 -0.27052 0.038402 -0.10903 -0.00028087 0.00013722 -0.028756 -0.00013759 -0.007671 -1.2389e-05
53 0.005975 -0.19189 -0.17469 0.21666 2.2471e-05 -7.7699e-05 -0.017829 -0.00012842 0.0080954 -0.00012445 0.0045686 -0.14957 -0.15362 0.19441 3.9009e-07 -2.716e-05 -0.006402 -6.4734e-05 0.00055478 -0.00010545
54 0.0079832 -0.26343 0.0363 -0.10964 -0.00028065 0.00017018 -0.048836 -0.00022476 0.010021 -4.749e-05 0.010748 -0.35563 0.044193 -0.1371 -0.0003745 0.00017668 0.0017205 3.6859e-05 0.030311 -5.4174e-05
55 0.0079801 -0.26782 0.043062 -0.11933 -0.00034957 0.00034305 -0.10644 -0.00047487 0.026167 -4.9398e-05 0.0077867 -0.26104 0.041824 -0.11122 -0.00032852 0.00028853 -0.065264 -0.00026972 0.034104 -3.9983e-05
56 0.0081587 -0.26864 0.038425 -0.11671 -0.0002837 0.00017978 -0.085185 -0.00042125 -0.012151 -5.5587e-05 0.0074337 -0.2455 0.031631 -0.10124 -0.00026022 0.0001518 -0.063793 -0.000321 -0.020494 -3.1018e-05
57 0.0080501 -0.2698 0.043169 -0.12017 -0.00034718 0.00033182 -0.10383 -0.00046497 0.026071 -5.4679e-05 0.0084819 -0.28399 0.045149 -0.1205 -0.00035259 0.00030932 -0.088083 -0.00038932 0.029858 -6.0432e-05
58 0.0081938 -0.27485 0.048774 -0.12076 -0.00035421 0.00035901 -0.12851 -0.00058685 0.033167 -8.2616e-05 0.002316 -0.07765 0.015489 -0.031028 -9.5225e-05 9.3224e-05 -0.033106 -0.00015136 0.0086274 -2.1848e-05
59 0.0079652 -0.26705 0.036957 -0.11008 -0.00034012 0.00033109 -0.10736 -0.00048548 0.021653 -5.3962e-05 0.0082953 -0.27806 0.035009 -0.10368 -0.00034269 0.00032873 -0.11305 -0.00051645 0.025529 -6.9312e-05
60 0.0081014 -0.27138 0.041232 -0.12142 -0.00034838 0.00032341 -0.10062 -0.00045576 0.0043443 -1.1788e-05 0.0057005 -0.19075 0.026901 -0.081841 -0.00023748 0.00020466 -0.06322 -0.00028812 0.0011378 -4.7733e-06
61 0.0079222 -0.26425 0.039273 -0.1137 -0.00031959 0.00025449 -0.055653 -0.00023238 0.025115 -3.4782e-05 0.011217 -0.37375 0.052938 -0.15233 -0.00043016 0.00024978 0.016546 0.00014504 0.061179 -4.9036e-05
62 0.008169 -0.27382 0.044557 -0.12188 -0.00035261 0.00034011 -0.11131 -0.00050404 0.021879 -5.426e-05 0.0056188 -0.18816 0.031032 -0.078504 -0.00023281 0.00021213 -0.070107 -0.00031966 0.013539 -3.7674e-05
63 0.0077539 -0.24952 0.013037 -0.07573 -0.0001622 -0.0001321 0.071403 0.00029761 -0.10741 0.00017249 0.0081126 -0.26302 0.0033988 -0.06717 -0.00017173 -0.00025136 0.18046 0.00079537 -0.21842 0.00040628
64 0.0081737 -0.27348 0.042189 -0.12402 -0.00034817 0.00032059 -0.10869 -0.00049986 0.0082584 -3.8308e-05 0.0046636 -0.15593 0.02255 -0.068271 -0.00019359 0.00016821 -0.057828 -0.00026796 0.003277 -1.9755e-05
65 0.0079907 -0.26725 0.041074 -0.11734 -0.00033504 0.00029817 -0.091006 -0.00041352 -0.006741 1.7987e-05 0.01007 -0.33652 0.049363 -0.1395 -0.00040607 0.00031937 -0.087558 -0.00040292 -0.05372 0.00014481
66 0.0080922 -0.26722 0.038117 -0.11596 -0.00029225 0.0002042 -0.088218 -0.00042764 -0.0039499 -5.4315e-05 0.0090654 -0.30018 0.038704 -0.12417 -0.00032976 0.00021984 -0.088783 -0.00043547 -0.013605 -4.4455e-05
67 0.0079134 -0.26562 0.036195 -0.10838 -0.00034171 0.00033897 -0.10234 -0.00045271 0.031254 -5.2182e-05 0.0084526 -0.28358 0.034017 -0.10348 -0.00035107 0.00032578 -0.074292 -0.00030339 0.044526 -4.0536e-05
68 0.0075752 -0.23866 0.030197 -0.09341 -9.5446e-05 -0.00033046 0.24768 0.0012451 0.17328 -0.0001866 0.0048972 -0.15895 0.024435 -0.066285 -0.00011696 -0.00021165 0.40093 0.0021574 0.43561 -0.00030768
69 0.0081616 -0.26281 0.032396 -0.10757 -0.00019203 -8.314e-05 0.028354 8.7771e-05 -0.075449 4.8159e-05 0.0044152 -0.1434 0.014979 -0.055461 -0.000113 -5.9137e-05 0.045851 0.00019261 -0.067358 8.4796e-05
70 0.0075318 -0.24777 0.030672 -0.10119 -0.0002428 -2.4625e-05 0.20278 0.0010769 0.098058 3.0832e-05 0.0025537 -0.084164 0.0097066 -0.034397 -8.0364e-05 -5.1436e-05 0.12854 0.00067652 0.070988 -9.2147e-06
71 0.0078615 -0.25098 0.0049147 -0.064903 -0.00013169 -0.00018581 0.061215 0.00022253 -0.11264 0.00010138 0.0048136 -0.15523 -0.0068985 -0.026611 -8.4731e-05 -0.00015147 0.069696 0.00027112 -0.10448 8.5417e-05
72 0.0079945 -0.25666 0.027395 -0.098788 -0.00017115 -0.000143 0.067178 0.00026794 -0.10478 0.00010586 0.0050317 -0.16319 0.014105 -0.059181 -0.00012105 -0.00010406 0.075849 0.00032561 -0.10088 0.00013418
73 0.0071796 -0.23478 0.026441 -0.091291 -0.00020819 -8.0633e-05 0.23146 0.0012292 0.16654 -8.3859e-05 0.0039248 -0.12909 0.01345 -0.050778 -0.00011753 -0.00010846 0.24251 0.0012835 0.1695 -8.0621e-05
74 0.0080302 -0.2697 0.043749 -0.11968 -0.00035428 0.00035629 -0.11374 -0.0005092 0.028322 -5.5715e-05 0.0066882 -0.22448 0.036921 -0.094487 -0.00028633 0.00028075 -0.09325 -0.00042128 0.020433 -4.5205e-05
75 0.0054046 -0.18126 -0.20857 0.26958 -4.4129e-05 0.00013023 -0.0074479 -9.6917e-06 0.00087 3.8028e-05 0.0055123 -0.18536 -0.22237 0.28874 -4.1774e-05 0.00013234 -0.0078151 -1.1945e-05 0.0013402 3.7568e-05
76 0.00788 -0.24909 0.021464 -0.087884 -0.00010751 -0.00029472 0.11757 0.00048485 -0.13305 0.00014018 0.0041915 -0.13462 0.0087692 -0.044809 -7.6283e-05 -0.00017245 0.10337 0.00044661 -0.11907 0.00016062
77 0.0078396 -0.24581 0.01466 -0.066032 -6.447e-05 -0.0003786 0.20916 0.0009861 0.0041795 2.2166e-05 0.0033058 -0.10595 0.0066261 -0.026105 -4.9423e-05 -0.00015811 0.14611 0.0007227 0.031677 1.0575e-05
78 0.0074742 -0.24476 0.025574 -0.092725 -0.00022116 -4.6701e-05 0.11507 0.00055153 -0.098493 0.00019649 0.0031701 -0.10418 0.0095977 -0.038917 -9.3724e-05 -5.7348e-05 0.08903 0.00043008 -0.050554 0.00011163
79 0.0080025 -0.24144 -0.017213 -0.030162 7.9816e-05 -0.00065238 0.14178 0.00049742 -0.17575 5.7111e-05 0.0019862 -0.061794 -0.010745 0.0012051 5.3054e-06 -0.00015578 0.044373 0.00015823 -0.05308 8.9204e-07
80 0.0055769 -0.18118 -0.20805 0.26874 2.8473e-05 -2.7348e-05 -0.0053715 -4.5413e-05 0.0049273 -6.2928e-05 0.0054372 -0.17983 -0.21688 0.28182 -6.9849e-07 4.0359e-05 -0.008146 -4.5157e-05 0.0084151 -4.9164e-05
81 0.0075053 -0.24489 0.03148 -0.10128 -0.0002123 -0.00011464 0.24855 0.0012971 0.1178 9.2416e-07 0.0026537 -0.086944 0.010535 -0.036104 -7.484e-05 -8.7262e-05 0.15302 0.00079588 0.08202 -2.6259e-05
82 0.007729 -0.24473 0.0058357 -0.055396 -9.1309e-05 -0.00029993 0.15862 0.00071509 -0.097383 0.00017312 0.0041586 -0.13396 0.00084942 -0.024109 -6.8011e-05 -0.00016634 0.13136 0.00061284 -0.080295 0.00018169
83 0.0072568 -0.23733 0.025556 -0.090805 -0.00020975 -8.2777e-05 0.21952 0.0011514 0.11074 3.1389e-06 0.0046516 -0.153 0.015118 -0.05892 -0.00013926 -0.00011657 0.25841 0.0013612 0.16188 -5.4155e-05
84 0.0069276 -0.23183 -0.042887 0.012394 -0.00022903 0.00020221 0.008082 0.00010733 0.080273 -6.905e-05 0.0021672 -0.072504 -0.018072 0.010222 -6.6107e-05 4.0271e-05 0.031973 0.0001875 0.043456 -2.7628e-05
85 0.0052628 -0.1763 -0.21534 0.28098 -3.0803e-05 0.00012814 -0.019486 -7.0834e-05 0.017667 -1.3792e-05 0.0061746 -0.2076 -0.2629 0.34432 -3.5555e-05 0.00015531 -0.02607 -0.00010036 0.025717 -3.5102e-05
86 0.0052705 -0.17722 -0.21264 0.27689 -4.2604e-05 0.00015225 -0.022604 -7.952e-05 0.017337 3.8149e-07 0.0071142 -0.2398 -0.30081 0.39371 -5.2295e-05 0.0002091 -0.033369 -0.00012074 0.02789 -8.1974e-06
87 0.0075963 -0.24146 0.027054 -0.085817 -0.00011833 -0.00027824 0.20779 0.0010112 0.0061335 0.0001016 0.0056633 -0.18335 0.020664 -0.063836 -0.00012106 -0.00023105 0.28253 0.0014257 0.037348 0.00018052
88 0.0080526 -0.25034 -0.012973 -0.038419 -2.7713e-05 -0.00041022 0.11861 0.00045985 -0.13618 0.00012602 0.0022609 -0.0718 -0.0081134 -0.0047849 -2.1364e-05 -9.5796e-05 0.039154 0.00015939 -0.042348 5.1844e-05
89 0.0074222 -0.23433 0.023358 -0.086057 -9.5079e-05 -0.00034578 0.25355 0.0012452 0.070161 -3.5351e-05 0.0058362 -0.18862 0.019104 -0.073118 -0.00012469 -0.00028916 0.38095 0.0019585 0.18481 -6.6826e-05
90 0.0073002 -0.23634 -0.017352 -0.026836 -0.00013972 -0.00019935 0.18802 0.00087823 -0.21531 0.00054843 0.0028453 -0.092587 -0.0087413 -0.0085923 -5.3297e-05 -0.00012502 0.10716 0.00049059 -0.13905 0.00033732
91 0.0070471 -0.22901 0.028685 -0.092741 -0.00018379 -0.00015353 0.27393 0.0014341 0.17012 -7.9461e-05 0.0032101 -0.10519 0.013077 -0.044347 -9.0538e-05 -0.0001194 0.21651 0.0011329 0.12976 -5.5599e-05
92 0.0077315 -0.24362 0.032482 -0.093483 -9.4912e-05 -0.00034554 0.24715 0.0012231 0.11405 -0.00010593 0.0041117 -0.13254 0.018669 -0.050715 -8.2107e-05 -0.0001879 0.23707 0.0012209 0.1404 -8.3064e-05
93 0.005484 -0.1844 -0.19146 0.24398 -6.8646e-05 0.000172 -0.031184 -0.00011751 0.029429 -2.8134e-05 0.0054068 -0.18213 -0.20255 0.2604 -5.9116e-05 0.00016206 -0.02663 -9.5764e-05 0.036487 -4.4425e-05
94 0.0053876 -0.18026 -0.20676 0.26742 -3.8898e-05 0.00012208 -0.01572 -5.552e-05 0.0081816 1.8377e-06 0.0057593 -0.19336 -0.23232 0.3021 -3.861e-05 0.000129 -0.017219 -6.4981e-05 0.010181 -1.2179e-05
95 0.0063187 -0.20232 -0.13159 0.14953 -4.6238e-06 -0.00017656 0.081803 0.00035011 -0.096608 0.00017923 0.0059373 -0.19351 -0.13425 0.15379 -3.3462e-05 -0.00015268 0.11012 0.0004827 -0.15791 0.00032787
96 0.0073899 -0.24135 0.042073 -0.098558 -0.00020579 -0.00012732 0.34395 0.0018633 0.36338 -0.00020158 0.0012659 -0.041858 0.0097024 -0.018437 -4.0108e-05 -4.2463e-05 0.14233 0.00079013 0.20445 -0.00015094
97 0.0078603 -0.25969 0.03606 -0.095664 -0.00026139 5.3204e-05 0.09631 0.00049772 -0.059218 0.00023352 0.0022969 -0.075872 0.010685 -0.023924 -6.9201e-05 -1.8274e-05 0.052152 0.00025696 -0.036984 0.000119
98 0.0083534 -0.25236 0.013224 -0.078424 5.3567e-05 -0.00068245 0.19457 0.00077042 -0.18763 0.00016499 0.0017767 -0.055523 0.0011015 -0.015164 -8.9504e-06 -0.00012287 0.05511 0.0002333 -0.060897 9.516e-05
99 0.0075198 -0.23464 0.022175 -0.085505 -5.7939e-05 -0.00043975 0.29595 0.0014564 0.12487 -0.00012466 0.0042555 -0.1369 0.013797 -0.053742 -8.2167e-05 -0.00023976 0.30922 0.0015983 0.18626 -0.0001187
100 0.0053482 -0.17822 -0.20385 0.26312 -2.903e-05 8.5957e-05 0.0006974 1.8629e-05 0.00079126 1.2812e-05 0.008447 -0.28262 -0.33337 0.43124 -4.5992e-05 0.00012141 0.0023829 2.1516e-05 0.0056572 -3.7879e-05
101 0.0057249 -0.18964 -0.16885 0.20863 -5.2044e-05 3.1147e-05 0.044671 0.00022487 -0.054002 0.00016476 0.0075323 -0.25066 -0.22836 0.28191 -7.2366e-05 7.7677e-06 0.094053 0.00045844 -0.11992 0.00034784
102 0.0053316 -0.17887 -0.21276 0.2768 -3.9466e-05 0.000147 -0.030603 -0.00012268 0.028687 -4.4057e-05 0.0033549 -0.1129 -0.14034 0.18349 -2.2998e-05 9.3506e-05 -0.020345 -8.3376e-05 0.019832 -3.4292e-05
103 0.0058172 -0.18543 -0.1973 0.25164 6.178e-05 -0.00011651 -0.012297 -0.0001082 0.010405 -0.0001373 0.0032469 -0.10628 -0.12081 0.15545 7.491e-06 -1.1074e-06 -0.0089315 -5.6396e-05 0.0084394 -5.8158e-05
104 0.0052451 -0.17661 -0.21619 0.28209 -4.26e-05 0.00015988 -0.023784 -8.2771e-05 0.01953 3.0871e-07 0.0051392 -0.17338 -0.22057 0.289 -3.7871e-05 0.00015803 -0.025382 -9.0466e-05 0.023342 -6.0432e-06
105 0.0042013 -0.15028 0.69752 0.44389 0.00043048 4.062e-06 -0.00082223 3.5187e-06 0.010671 -5.2515e-06 0.003896 -0.14339 0.94288 0.63405 0.00066825 -6.0217e-05 -0.002028 -2.2526e-05 -0.012845 5.2561e-06
106 0.0043513 -0.15519 0.68906 0.43456 0.00041527 1.2266e-05 -0.00087628 6.1286e-06 0.014133 -6.8865e-06 0.0032283 -0.11867 0.77018 0.51698 0.00054351 -4.7142e-05 -0.001476 -1.6445e-05 -0.0088699 3.4684e-06
107 0.0072649 -0.23835 0.060029 -0.087305 -0.00020279 -6.7845e-05 0.29607 0.0016335 0.38884 -0.00027711 0.0012694 -0.042052 0.012174 -0.016944 -3.8837e-05 -4.33e-05 0.14641 0.0008114 0.20119 -0.00013868
108 0.0059201 -0.18608 -0.1919 0.24309 9.4187e-05 -0.00022278 0.016434 5.4326e-06 -0.0098316 -0.00013977 0.0031977 -0.10343 -0.11107 0.14119 2.2224e-05 -7.8458e-05 0.012254 1.8801e-05 -0.012414 -8.0415e-05
109 0.005528 -0.17975 -0.2087 0.26984 2.8853e-05 -3.4013e-05 0.0051072 5.9916e-06 -0.0059383 -3.0618e-05 0.0062938 -0.2082 -0.25004 0.32437 -1.2143e-06 3.4075e-05 0.0020994 1.6721e-06 -0.0038221 -2.3833e-05
110 0.18124 0.0028342 -0.00014475 -0.00036828 0.063286 -0.081087 0.0023006 -0.013704 -0.0015205 -0.0006078 0.39152 0.0041259 -0.00075005 -0.00067575 0.13486 -0.20064 0.0068119 -0.04167 -0.0039813 -0.066379
111 0.0053406 -0.17446 -0.21952 0.28739 2.9993e-05 3.1463e-06 -0.011468 -6.5368e-05 0.014904 -6.7459e-05 0.0066667 -0.22146 -0.28606 0.37544 6.8819e-07 8.6778e-05 -0.020595 -9.5258e-05 0.024768 -7.3298e-05
112 0.0068728 -0.20155 -0.12125 0.13334 0.00023009 -0.00070443 0.07061 0.00012547 -0.078052 -0.00026436 0.0017293 -0.053635 -0.035414 0.039545 2.6902e-05 -0.00013659 0.026582 7.4451e-05 -0.036297 -4.4494e-05
113 0.0052156 -0.17535 -0.21827 0.28573 -3.5471e-05 0.00014655 -0.0189 -6.0701e-05 0.019436 1.298e-06 0.0061497 -0.20732 -0.2644 0.34689 -4.2222e-05 0.00018129 -0.026843 -9.1859e-05 0.029243 -8.9654e-06
114 0.007125 -0.22604 -0.0042686 -0.047404 -8.0232e-05 -0.0004081 0.29904 0.0013739 -0.69093 0.0022313 0.00033391 -0.010772 -0.0004507 -0.0022189 -5.1451e-06 -2.6076e-05 0.023289 0.00010758 -0.05354 0.00016831
115 0.0052257 -0.17498 -0.22249 0.29172 -2.1886e-05 0.00011315 -0.0094526 -2.479e-05 0.0060312 1.2484e-05 0.0061539 -0.20675 -0.26631 0.34929 -2.88e-05 0.00013433 -0.012336 -3.8127e-05 0.0072174 5.7037e-06
116 0.005184 -0.17424 -0.22603 0.29731 -2.7467e-05 0.00014288 -0.019881 -6.6698e-05 0.021961 -9.4906e-06 0.004144 -0.13965 -0.18396 0.24219 -2.2979e-05 0.00011789 -0.018597 -6.6295e-05 0.021036 -1.527e-05
117 0.0051864 -0.17427 -0.228 0.30026 -2.5463e-05 0.00014449 -0.024129 -8.7634e-05 0.028775 -2.9857e-05 0.0033416 -0.11261 -0.1495 0.19704 -1.7736e-05 9.701e-05 -0.017361 -6.4856e-05 0.020377 -2.2355e-05
118 0.0052963 -0.1762 -0.20939 0.27204 -1.9364e-05 8.9884e-05 -0.02057 -9.0531e-05 0.01734 -5.0648e-05 0.0053397 -0.17838 -0.2201 0.28693 -1.703e-05 6.8343e-05 -0.01557 -8.3167e-05 0.010162 -8.8534e-05
119 0.0052399 -0.17573 -0.22289 0.29218 -2.6217e-05 0.00012459 -0.01032 -2.4635e-05 0.0073552 2.186e-05 0.0051349 -0.17275 -0.22214 0.29133 -2.8181e-05 0.00012673 -0.012153 -3.4151e-05 0.0090381 1.7491e-05
120 0.0051892 -0.17409 -0.22701 0.29877 -2.2269e-05 0.00013112 -0.018875 -6.6048e-05 0.018691 -1.1828e-05 0.0039339 -0.13238 -0.17475 0.23008 -1.8485e-05 0.00010077 -0.015874 -5.9395e-05 0.014774 -1.5721e-05
121 0.0052078 -0.17464 -0.21614 0.2824 -3.0283e-05 0.00012673 -0.012432 -3.3799e-05 0.01553 2.1088e-06 0.0060691 -0.20425 -0.25653 0.33521 -3.974e-05 0.00015824 -0.016462 -4.5065e-05 0.029511 -1.5655e-05
122 0.0051979 -0.17444 -0.22714 0.29883 -2.2948e-05 0.00012748 -0.01209 -3.2555e-05 0.010669 1.2561e-05 0.0053115 -0.17873 -0.23473 0.30878 -2.5514e-05 0.00012999 -0.013518 -4.1386e-05 0.011014 5.2316e-06
123 0.0052447 -0.17545 -0.22647 0.29754 -1.7011e-05 0.00010568 -0.0081982 -2.1442e-05 0.0049784 6.3057e-06 0.0037471 -0.12577 -0.16364 0.21494 -1.4386e-05 7.4867e-05 -0.0067442 -2.2422e-05 0.0041776 -5.1092e-06
124 0.0051348 -0.17281 -0.22785 0.30033 -2.6973e-05 0.00014475 -0.016646 -4.9834e-05 0.016091 8.7115e-06 0.005712 -0.19267 -0.25737 0.33949 -3.1296e-05 0.00016675 -0.022418 -7.325e-05 0.022457 2.0532e-06
125 0.0051886 -0.17423 -0.22412 0.29437 -2.6508e-05 0.00013066 -0.010426 -2.27e-05 0.007248 2.8701e-05 0.0057421 -0.19336 -0.25178 0.33082 -3.1676e-05 0.00014924 -0.014422 -3.9407e-05 0.010415 2.5301e-05
126 0.0052038 -0.17482 -0.22546 0.29624 -2.7009e-05 0.00013238 -0.0094889 -1.7344e-05 0.0066714 3.2079e-05 0.0053163 -0.17906 -0.23331 0.30659 -2.9739e-05 0.00013902 -0.011688 -2.7183e-05 0.0082373 3.106e-05
127 0.0052611 -0.17668 -0.22406 0.29361 -2.9069e-05 0.00012418 -0.00076956 2.3106e-05 -0.0085382 6.849e-05 0.0035334 -0.1189 -0.15171 0.19867 -2.0356e-05 8.1901e-05 -0.0012906 1.0364e-05 -0.005477 4.3067e-05
128 0.0051677 -0.17321 -0.22283 0.29267 -2.2148e-05 0.00011996 -0.011648 -3.2927e-05 0.0095765 1.0192e-05 0.0071808 -0.24151 -0.31541 0.41458 -3.4442e-05 0.00017298 -0.019704 -6.4432e-05 0.016482 4.268e-07
129 0.0051545 -0.1735 -0.22734 0.29944 -2.8849e-05 0.00014951 -0.019305 -6.1418e-05 0.020767 -4.3617e-07 0.0053194 -0.17946 -0.2385 0.31441 -3.086e-05 0.00016032 -0.02405 -8.2105e-05 0.026706 -9.3016e-06
130 0.0052396 -0.17569 -0.22492 0.29517 -2.3911e-05 0.00011809 -0.0050961 -7.2309e-07 -5.3699e-05 3.7747e-05 0.0043356 -0.1458 -0.1882 0.24692 -2.2098e-05 9.9642e-05 -0.0053859 -7.0463e-06 0.00035315 2.9347e-05
131 0.005234 -0.1758 -0.22598 0.29676 -2.7083e-05 0.00012856 -0.0067186 -5.5769e-06 0.00079371 4.2122e-05 0.0045145 -0.15196 -0.19675 0.25827 -2.4657e-05 0.00011022 -0.0067066 -1.0505e-05 0.00070804 3.4687e-05
132 0.0052558 -0.17576 -0.22203 0.29083 -2.0016e-05 0.00010317 -0.0056663 -9.4335e-06 -0.00025092 2.2549e-05 0.0043722 -0.14678 -0.18773 0.24596 -1.9825e-05 8.9527e-05 -0.0065517 -1.8233e-05 0.00098813 1.1678e-05
133 0.0052528 -0.17654 -0.22858 0.30052 -2.7575e-05 0.00013741 -0.013457 -3.7026e-05 0.011218 1.4343e-05 0.0033135 -0.11155 -0.14481 0.19017 -1.8052e-05 8.3112e-05 -0.0082228 -2.4114e-05 0.0055376 9.2558e-06
134 0.0051405 -0.17367 -0.22855 0.30125 -3.6615e-05 0.00017215 -0.019822 -5.4989e-05 0.022477 1.9912e-05 0.0033397 -0.11292 -0.15038 0.19832 -2.2852e-05 0.00011211 -0.015536 -4.8449e-05 0.018399 4.6293e-06
135 0.0050365 -0.16993 -0.2299 0.3042 -2.8272e-05 0.00016771 -0.030073 -0.00010893 0.03716 -3.2958e-05 0.0025714 -0.086937 -0.11927 0.15796 -1.4844e-05 8.9286e-05 -0.017354 -6.4131e-05 0.021187 -1.9001e-05
136 0.0051004 -0.1721 -0.23336 0.30877 -2.7958e-05 0.00016294 -0.02218 -7.0913e-05 0.024933 -1.0776e-06 0.0035218 -0.119 -0.16246 0.21495 -1.9621e-05 0.00011382 -0.017306 -5.8136e-05 0.019261 -3.0621e-06
137 0.0037466 -0.13626 0.78826 0.52121 0.00053604 -3.6232e-05 -0.00070451 -9.7866e-06 -0.0061821 2.7644e-06 0.002334 -0.086128 0.57877 0.39002 0.00041211 -3.6292e-05 -0.0015893 -1.447e-05 -0.0057367 2.0619e-06
138 0.003603 -0.13137 0.78363 0.52057 0.00053906 -4.1192e-05 -0.00068344 -1.1488e-05 -0.0083161 3.7375e-06 0.0036393 -0.13447 0.91687 0.61922 0.00065635 -6.1806e-05 -0.0026453 -2.6125e-05 -0.013256 5.4334e-06
139 0.0036302 -0.13258 0.80699 0.53779 0.0005595 -4.6569e-05 -0.00095496 -1.5049e-05 -0.011416 5.1904e-06 0.0017812 -0.065825 0.44977 0.30385 0.00032222 -3.063e-05 -0.0012965 -1.2979e-05 -0.0067545 2.7905e-06
140 0.003677 -0.13392 0.78845 0.52274 0.00053975 -3.926e-05 -0.00071041 -1.0922e-05 -0.0075198 3.3812e-06 0.0029659 -0.10951 0.74079 0.49969 0.00052872 -4.7906e-05 -0.002077 -1.9567e-05 -0.0086745 3.3342e-06
141 0.0036472 -0.1329 0.78723 0.52244 0.00054022 -4.0425e-05 -0.00074239 -1.1611e-05 -0.0082667 3.7299e-06 0.0030031 -0.11094 0.7548 0.50962 0.00053997 -5.0564e-05 -0.0021661 -2.1302e-05 -0.010699 4.3544e-06
142 0.183 0.0052205 -3.632e-06 -3.7806e-05 0.079288 -0.20765 -0.00011459 -0.057882 0.00035329 0.041599 0.13773 0.0039373 -2.914e-06 -2.739e-05 0.061426 -0.16753 -0.00015296 -0.050321 0.0003503 0.035636
143 0.1805 0.0052597 1.3338e-05 -9.4722e-06 0.060213 -0.10588 -0.00027087 0.0042767 0.0001235 0.0056871 0.31506 0.0092455 3.4214e-05 2.0586e-06 0.089505 -0.19004 -0.00092224 0.063716 0.0003647 0.015255
144 0.18453 0.0054275 2.921e-05 1.665e-05 0.033803 0.050324 -7.1924e-06 0.037668 -0.00019136 0.050895 0.13276 0.0039319 2.6944e-05 2.6456e-05 0.0091064 0.030986 -0.00020064 0.049704 -7.1635e-05 0.055349
145 0.1839 0.0052514 -2.4774e-06 -3.6057e-05 0.077926 -0.19866 -0.00011368 -0.052308 0.00031678 0.034565 0.13417 0.0038378 -2.1104e-06 -2.5283e-05 0.05831 -0.15582 -0.00014072 -0.044891 0.00030967 0.030153
146 0.1848 0.0055086 2.9491e-05 9.7187e-06 0.063955 0.12359 0.00025108 -0.032392 2.2455e-05 -0.0073222 0.26355 0.0078687 4.3417e-05 1.7253e-05 0.090045 0.17537 0.00027002 -0.043077 0.00010611 -0.0071186
147 0.18689 0.005472 2.2523e-05 3.5109e-06 0.05019 0.039365 0.00010267 0.019434 -0.00028312 0.010846 0.1443 0.0042357 1.9166e-05 8.9927e-06 0.03335 0.027623 -3.034e-06 0.020242 -0.00019133 0.016089
148 0.18539 0.005419 1.7438e-05 -3.6991e-06 0.056814 -0.064551 -0.00015455 0.0053388 -1.8427e-06 0.0042341 0.27306 0.008012 3.1317e-05 5.4207e-06 0.073638 -0.097363 -0.00036845 0.021613 2.1533e-05 0.0084919
149 0.18439 0.0054841 2.9103e-05 1.0382e-05 0.059628 0.11558 0.00027715 -0.029082 -7.7142e-05 -0.031626 0.28465 0.0084718 4.5457e-05 1.8449e-05 0.089934 0.17328 0.00055005 -0.058583 -0.00037038 -0.1659
150 0.17934 0.0052005 8.0711e-06 -1.8694e-05 0.068669 -0.13264 -0.00023196 -0.01946 0.00025633 0.031594 0.26768 0.0078236 1.8278e-05 -1.9569e-05 0.10332 -0.20536 -0.00074643 -0.0061544 0.00079221 0.13248
151 0.18534 0.0054504 2.3406e-05 3.3796e-06 0.055878 0.057163 0.00017647 -0.0077164 -0.00015701 -0.0039122 0.15743 0.0046395 2.1821e-05 9.3777e-06 0.04114 0.040506 5.8212e-05 -0.0017239 -0.00010009 -0.0043877
152 0.18312 0.0052331 -2.4392e-06 -3.5973e-05 0.078581 -0.20079 -0.00013874 -0.051723 0.00033434 0.038706 0.14523 0.0041595 -1.9051e-06 -2.7216e-05 0.063863 -0.16938 -0.00017711 -0.047082 0.00034205 0.033233
153 0.1827 0.0052606 2.9052e-06 -2.7273e-05 0.073972 -0.17134 -0.00018693 -0.034431 0.00024261 0.012165 0.20226 0.0058434 4.623e-06 -2.7668e-05 0.083028 -0.19995 -0.00029215 -0.043641 0.00034907 0.014311
154 0.18271 0.0054167 2.8924e-05 1.3998e-05 0.047282 0.046833 -8.9653e-05 0.025506 -6.6796e-05 0.032446 0.34784 0.010365 6.5354e-05 4.5819e-05 0.071419 0.092698 -0.00049381 0.098796 -0.0001011 0.091773
155 0.18317 0.0054085 2.708e-05 1.0767e-05 0.048095 0.060216 0.00010019 0.0062663 -0.00017188 0.034584 0.19761 0.0058588 3.3618e-05 2.1849e-05 0.042429 0.066243 2.1256e-05 0.013631 -0.00017174 0.050813
156 0.18355 0.0052386 -2.0486e-06 -3.4997e-05 0.075589 -0.19335 -9.7626e-05 -0.046257 0.00022988 0.018013 0.1185 0.0033895 -1.2792e-06 -2.0819e-05 0.049555 -0.13058 -0.00012537 -0.03329 0.00021304 0.016815
157 0.18419 0.0052891 8.3752e-07 -3.0974e-05 0.076599 -0.18539 -0.00014535 -0.047833 0.00028974 0.024521 0.16753 0.0048196 9.2577e-07 -2.698e-05 0.070954 -0.17999 -0.00019435 -0.050528 0.00034555 0.026629
158 0.18278 0.0053439 1.5066e-05 -8.1625e-06 0.063512 -0.073078 -0.00012465 -0.012615 5.721e-05 0.013068 0.37992 0.011148 3.6647e-05 -9.5643e-06 0.12821 -0.16386 -0.00040111 -0.022011 0.00014587 0.035744
159 0.18604 0.0053608 6.3517e-06 -2.1989e-05 0.068139 -0.11456 -6.8504e-05 -0.0086156 -0.0001052 -0.04538 0.15422 0.0044523 5.7527e-06 -1.5479e-05 0.055933 -0.09734 -0.00010099 -0.0085572 -8.7897e-05 -0.051658
160 0.18227 0.005225 -1.1971e-08 -3.137e-05 0.074832 -0.18852 -0.00013483 -0.043463 0.00022673 0.013349 0.19407 0.0055785 5.4248e-07 -3.2075e-05 0.08184 -0.21689 -0.00020962 -0.057172 0.00032657 0.015184
161 0.18434 0.0054382 2.854e-05 1.381e-05 0.042561 0.06528 4.2144e-05 0.025675 -0.00019204 0.055406 0.16349 0.0048445 2.9324e-05 2.2394e-05 0.02818 0.054819 -9.3876e-05 0.034731 -0.00013021 0.062368
162 0.18412 0.0054919 3.0955e-05 1.2713e-05 0.059962 0.13816 0.00026335 -0.022416 -4.8658e-05 0.0025704 0.26711 0.0079837 4.6935e-05 2.327e-05 0.084446 0.2026 0.00031264 -0.030496 -2.4414e-05 0.013302
163 0.17891 0.0051912 8.3697e-06 -1.8095e-05 0.068234 -0.13563 -0.00027202 -0.015578 0.00028889 0.041833 0.27449 0.00803 2.0061e-05 -1.785e-05 0.10392 -0.21096 -0.00084851 0.005585 0.00085582 0.1471
164 0.18072 0.0053455 3.1867e-05 2.3037e-05 0.027901 0.010296 -0.00042599 0.091428 -9.0297e-05 0.0080617 0.26833 0.0080185 6.7257e-05 7.4315e-05 -0.0044848 0.0037396 -0.0018576 0.36465 -0.00011665 -0.022488
165 0.18543 0.0055361 3.1324e-05 1.2305e-05 0.062631 0.14868 0.00030653 -0.032306 -2.6527e-06 -0.0057154 0.24482 0.0073183 4.2503e-05 1.9908e-05 0.080615 0.19826 0.00035888 -0.043579 4.082e-05 -0.0084735
166 0.18364 0.0052713 4.9229e-07 -3.1104e-05 0.076098 -0.19255 -0.0001724 -0.043914 0.00027908 0.02346 0.18737 0.0053907 1.0335e-06 -3.0339e-05 0.079203 -0.20785 -0.00023969 -0.052769 0.0003649 0.025871
167 0.18724 0.005471 1.8665e-05 -4.3939e-06 0.060337 0.021671 5.0357e-05 0.013328 -0.00016944 0.012955 0.13108 0.0038373 1.3802e-05 1.0007e-06 0.039665 0.013141 -6.599e-05 0.018291 -7.987e-05 0.015088
168 0.18283 0.0052619 2.4016e-06 -2.8228e-05 0.074937 -0.17198 -0.00014132 -0.043891 0.00025771 0.016285 0.19639 0.0056671 3.4474e-06 -2.8544e-05 0.081906 -0.19582 -0.00021964 -0.054759 0.00036089 0.023355
169 0.18208 0.0053271 1.7272e-05 -4.3947e-06 0.05873 -0.044565 -0.00010641 0.00054403 -1.1307e-07 0.040641 0.23734 0.0069749 2.6676e-05 1.9765e-06 0.072202 -0.056991 -0.00026407 0.0091957 3.329e-05 0.068178
170 0.18455 0.0053304 9.8933e-06 -1.4227e-05 0.057758 -0.12244 -0.00013179 -0.0048812 -6.7845e-06 -0.016618 0.17665 0.0051223 1.2606e-05 -6.1392e-06 0.049344 -0.12037 -0.00019581 -0.0049879 2.2194e-05 -0.02118
171 0.18324 0.005281 3.864e-06 -2.5682e-05 0.072867 -0.15838 -0.00013753 -0.034333 0.00018238 0.011108 0.22746 0.0065715 5.7089e-06 -3.0222e-05 0.09191 -0.21324 -0.00024589 -0.051009 0.00029962 0.01522
172 0.18505 0.0054619 2.7749e-05 1.1922e-05 0.046164 0.053751 5.6331e-05 0.011953 -0.00015773 0.054735 0.17424 0.0051642 2.9967e-05 2.0565e-05 0.035141 0.05081 -6.8445e-05 0.022184 -0.00010895 0.071625
173 0.18469 0.0053131 5.7028e-06 -2.3651e-05 0.069306 -0.087958 0.00010933 -0.025238 -0.0002583 -0.12866 0.13279 0.0038326 3.8605e-06 -1.5971e-05 0.052486 -0.059794 0.00025016 -0.041398 -0.00055829 -0.303
174 0.18375 0.0053476 1.3551e-05 -9.3146e-06 0.059394 -0.096068 -0.00014854 -0.005947 3.2673e-05 0.0027286 0.28682 0.0083839 2.6487e-05 -5.255e-06 0.086412 -0.15527 -0.00034701 -0.0067624 8.7477e-05 0.008537
175 0.18269 0.0052734 6.838e-06 -2.1092e-05 0.068367 -0.10998 -0.00013713 -0.0024898 -5.2285e-06 -0.014725 0.16614 0.0048165 8.2061e-06 -1.4458e-05 0.060977 -0.10297 -0.00030674 0.017549 3.3237e-05 -0.02108
176 0.18328 0.0052976 1.7184e-05 -2.949e-06 0.043731 0.025522 0.00021896 0.018066 -0.00037093 0.0083405 0.080643 0.0023426 8.9529e-06 4.6356e-06 0.015123 0.010912 6.4938e-07 0.015056 -0.00011785 0.012331
177 0.18702 0.005352 3.1865e-06 -2.6853e-05 0.067601 -0.12454 -1.9176e-05 -0.006144 -0.00018592 -0.046661 0.10008 0.0028693 1.8732e-06 -1.1445e-05 0.035201 -0.064955 -5.7186e-05 -0.0025173 -8.0543e-05 -0.024145
178 0.18478 0.0054468 2.5716e-05 8.4387e-06 0.049933 0.043716 7.6428e-05 0.0040541 -0.00013977 0.043841 0.20352 0.0060207 3.2651e-05 1.9577e-05 0.044947 0.04694 -4.0239e-06 0.011022 -0.00013855 0.065751
179 0.18417 0.0053029 2.9862e-06 -2.7481e-05 0.074527 -0.17003 -0.00014802 -0.041886 0.0002579 0.02429 0.18722 0.0054018 3.5566e-06 -2.6392e-05 0.076765 -0.18547 -0.00021731 -0.049757 0.000343 0.028225
180 0.18557 0.0054836 2.5993e-05 8.0308e-06 0.053974 0.044553 6.337e-05 -0.0015751 -8.3631e-05 0.0077266 0.29635 0.0087793 4.5871e-05 2.2178e-05 0.076894 0.064214 -8.279e-06 0.005523 -0.00010343 0.019966
181 0.18129 0.0051405 -6.7161e-06 -4.1944e-05 0.078501 -0.21906 -8.2346e-05 -0.058043 0.00033533 0.039304 0.11147 0.00317 -4.1452e-06 -2.4021e-05 0.049576 -0.14178 -0.00011726 -0.040673 0.00027795 0.027025
182 0.1822 0.005199 -3.2262e-06 -3.6866e-05 0.078056 -0.20524 -0.00012721 -0.053557 0.00033689 0.036423 0.14288 0.0040874 -2.5058e-06 -2.7599e-05 0.062883 -0.17287 -0.00016077 -0.050101 0.0003495 0.0341
183 0.17875 0.0051847 8.0805e-06 -1.8361e-05 0.068091 -0.13978 -0.0002746 -0.015524 0.00028141 0.034265 0.29321 0.0085737 2.0714e-05 -2.0311e-05 0.11149 -0.23749 -0.00088514 -0.00043677 0.00090414 0.14673
184 0.18336 0.0052514 -1.2247e-06 -3.3997e-05 0.077912 -0.20033 -0.00015059 -0.051557 0.00031893 0.028498 0.16482 0.004731 -8.8806e-07 -2.9371e-05 0.07177 -0.19184 -0.0002001 -0.054186 0.0003695 0.028016
185 0.18062 0.0052477 1.143e-05 -1.4149e-05 0.065847 -0.049471 9.0969e-05 -0.022135 -0.00020484 -0.10141 0.23185 0.0067622 1.4732e-05 -1.8763e-05 0.090648 -0.077047 0.00044485 -0.072479 -0.0011355 -0.61395
186 0.18935 0.0054377 4.8546e-06 -2.4857e-05 0.06882 -0.12909 -9.1957e-05 -0.0046516 -9.5121e-05 -0.028316 0.10931 0.0031405 2.7377e-06 -1.1815e-05 0.038394 -0.073743 -9.5964e-05 -0.0017941 -2.9304e-05 -0.017693
187 0.18501 0.0053308 4.1705e-06 -2.5886e-05 0.073419 -0.15022 -0.00011041 -0.033632 0.00010523 -0.015665 0.17337 0.0050069 4.5643e-06 -2.2099e-05 0.069359 -0.14416 -0.0001454 -0.035837 0.00011768 -0.028016
188 0.18354 0.0053294 1.0187e-05 -1.6647e-05 0.069011 -0.085602 -4.6268e-05 -0.023736 4.433e-05 0.006465 0.20371 0.00593 1.2485e-05 -1.5631e-05 0.076645 -0.10101 -0.00012438 -0.027325 7.4381e-05 0.0032103
189 0.1854 0.0053886 1.2377e-05 -1.1841e-05 0.06221 -0.10163 -7.4839e-05 -0.022425 1.5057e-05 -0.032371 0.24166 0.0070449 1.9344e-05 -8.9551e-06 0.076004 -0.14079 -0.00014728 -0.03439 2.1683e-05 -0.061829
190 0.1837 0.0054104 2.7223e-05 1.325e-05 0.039956 0.019131 -0.00013318 0.042422 -0.00014571 0.041941 0.21017 0.0062339 3.9644e-05 3.2754e-05 0.028652 0.022157 -0.0003994 0.079204 -8.8658e-05 0.077408
191 0.18231 0.0052897 8.714e-06 -1.8353e-05 0.069809 -0.11644 -0.00016869 -0.01507 8.5669e-05 -0.020459 0.27162 0.0079117 1.617e-05 -2.2635e-05 0.10365 -0.18184 -0.00044611 -0.0058657 0.00017724 -0.041448
192 0.17416 0.0052574 7.1926e-05 0.00010844 -0.091461 0.005763 -0.0001456 0.040197 -0.00011694 0.017116 0.40989 0.012677 0.00027364 0.00047173 -0.50215 -0.0042033 -0.00085661 0.18226 -0.00018509 0.012085
193 0.1822 0.0053565 2.6014e-05 1.3127e-05 0.036187 -0.029061 -0.00035228 0.067074 -0.00011568 -0.02778 0.26714 0.0079275 5.535e-05 5.3436e-05 0.015031 -0.047519 -0.0015162 0.28471 -0.00016299 -0.073719
194 0.18551 0.00534 1.0348e-05 -1.6431e-05 0.060435 -0.011599 0.00019912 -0.0016145 -0.00023324 0.039993 0.077409 0.0022322 4.1624e-06 -3.9788e-06 0.024261 -0.0060978 2.2681e-05 0.00018411 -5.7891e-05 0.020231
195 0.18679 0.0054779 2.3528e-05 6.3833e-06 0.046545 0.0050765 -4.1499e-05 0.026062 -0.00019011 0.036054 0.19663 0.0057866 2.8753e-05 1.6469e-05 0.039581 0.0041819 -0.00013079 0.03372 -0.00017616 0.047496
196 0.18286 0.0051273 -1.0355e-05 -4.8111e-05 0.076426 -0.1861 0.00014435 -0.053952 9.7062e-05 0.014851 0.061488 0.0017264 -4.2396e-06 -1.4572e-05 0.026291 -0.06786 -9.5817e-06 -0.020927 9.6544e-05 0.0080646
197 0.18404 0.0053537 1.3963e-05 -9.2648e-06 0.059461 -0.07458 -0.00014572 0.011142 -0.00011731 -0.049388 0.19867 0.0058041 1.8778e-05 -2.0593e-06 0.058354 -0.079232 -0.00033586 0.03768 -0.00012767 -0.064012
198 0.18428 0.0052679 4.2445e-06 -2.5873e-05 0.06588 -0.068283 -6.0711e-06 0.020102 -0.00021994 -0.0166 0.074278 0.002131 2.034e-06 -6.908e-06 0.025538 -0.02507 -0.00010527 0.017672 -4.5434e-05 -0.0043786
199 0.18752 0.0054182 9.5397e-06 -1.6089e-05 0.061945 -0.12055 -0.00016588 0.0025698 -3.2746e-05 -0.014541 0.16187 0.0046888 1.0112e-05 -8.4467e-06 0.049179 -0.10546 -0.00019714 0.0016542 3.7271e-06 -0.015405
200 0.18386 0.0052477 -2.2758e-06 -3.5547e-05 0.076585 -0.19518 -0.00010763 -0.047359 0.00024953 0.012275 0.12721 0.0036384 -1.6249e-06 -2.3002e-05 0.053935 -0.1419 -0.00012293 -0.038444 0.00023388 0.011535
201 0.18306 0.0052167 -3.9454e-06 -3.8231e-05 0.078791 -0.2065 -0.00011483 -0.054762 0.00033594 0.033665 0.13144 0.003754 -3.069e-06 -2.6312e-05 0.058273 -0.15987 -0.00013854 -0.047387 0.00031455 0.023736
202 0.18542 0.005531 3.1123e-05 1.2422e-05 0.061092 0.13998 0.0003387 -0.041728 6.579e-06 -0.010015 0.22956 0.0068573 4.0225e-05 2.035e-05 0.071571 0.17633 0.00038676 -0.054123 5.6414e-05 -0.011166
203 0.18485 0.005416 2.2602e-05 4.646e-06 0.04802 0.015465 -6.1348e-05 0.035936 -0.00019363 0.033832 0.16788 0.0049391 2.371e-05 1.2377e-05 0.036973 0.011796 -0.00018507 0.045074 -0.00014099 0.043106
204 0.18652 0.0054975 2.6336e-05 8.2641e-06 0.051392 0.07128 0.00013821 0.0064636 -0.00019169 0.051081 0.14626 0.0043221 2.2607e-05 1.2832e-05 0.034866 0.056102 2.7218e-05 0.011035 -0.00012388 0.050877
205 0.1854 0.0054264 2.5783e-05 1.2051e-05 0.034544 0.011567 -4.5202e-05 0.038122 -0.00020025 0.033074 0.13847 0.0040773 2.449e-05 2.1986e-05 0.012543 0.0090815 -0.00016251 0.042937 -0.00011562 0.033275
206 0.18893 0.005452 1.3151e-05 -1.0972e-05 0.054799 -0.024384 -1.2275e-05 0.040031 -0.00029383 0.019947 0.092751 0.0026808 6.8898e-06 -1.2243e-06 0.023994 -0.010353 -6.1513e-05 0.02264 -0.00011684 0.012018
207 0.18458 0.0054819 3.046e-05 1.5086e-05 0.049264 0.081628 9.944e-05 -0.00057468 -7.3762e-05 0.013444 0.26801 0.0079876 4.9903e-05 3.3984e-05 0.059247 0.10984 1.1676e-05 0.0063372 -3.0654e-05 0.041318
208 0.18441 0.0053949 1.4603e-05 -1.0933e-05 0.07002 -0.048494 -2.1336e-05 -0.031294 0.00014405 0.00076454 0.29029 0.008506 2.3883e-05 -1.5738e-05 0.11089 -0.098851 -0.00012686 -0.055485 0.0003123 0.0010557
209 0.18714 0.0054689 2.1756e-05 3.0535e-06 0.047792 0.0065622 -5.1454e-05 0.033915 -0.00019397 0.036127 0.12953 0.0038018 1.7373e-05 8.893e-06 0.028125 0.0024976 -0.00014619 0.029359 -5.7487e-05 0.042536
210 0.18594 0.0055539 3.2418e-05 1.46e-05 0.059361 0.13951 0.0002556 -0.028049 2.4757e-05 -0.0027473 0.24047 0.0071967 4.445e-05 2.5132e-05 0.071665 0.18635 0.00027913 -0.035911 9.7674e-05 -0.0022144
211 0.18231 0.0053086 1.092e-05 -1.5166e-05 0.069357 -0.097834 -0.00012819 -0.021957 0.00011173 -0.0061084 0.3506 0.010241 2.4171e-05 -2.5691e-05 0.13443 -0.20611 -0.00040107 -0.040546 0.00028462 -0.020532
212 0.18632 0.0053164 -1.7797e-06 -3.5841e-05 0.077509 -0.17706 -5.7938e-05 -0.048143 0.00022534 0.021593 0.099264 0.0028351 -1.47e-06 -1.77e-05 0.041876 -0.099475 -8.1253e-05 -0.028748 0.00017376 0.012059
213 0.18468 0.0054159 1.9632e-05 -2.1242e-06 0.060046 0.012092 0.00015217 -0.021842 -0.00012463 -0.034589 0.23616 0.0069286 2.5109e-05 -8.5804e-07 0.074776 -0.0015268 0.00027081 -0.038425 -0.00034794 -0.11589
214 0.18277 0.0051894 -4.7619e-06 -3.961e-05 0.077182 -0.18856 -2.2185e-05 -0.05534 0.00028276 0.044989 0.09236 0.0026282 -2.759e-06 -1.8367e-05 0.039875 -0.10228 -7.3364e-05 -0.031842 0.00020695 0.023429
215 0.18283 0.0052223 -2.2059e-06 -3.5015e-05 0.076377 -0.1994 -0.0001221 -0.048571 0.00028472 0.028238 0.15364 0.0043983 -1.8039e-06 -2.8108e-05 0.065768 -0.17941 -0.00016547 -0.048637 0.00032376 0.029175
216 0.18636 0.0055435 3.0415e-05 1.1577e-05 0.059354 0.14193 0.00035924 -0.035767 -3.8971e-05 -0.014083 0.17714 0.0052727 2.9759e-05 1.5443e-05 0.052077 0.12934 0.00028382 -0.033743 6.3721e-06 -0.012093
217 0.18419 0.0052921 1.78e-06 -2.9732e-05 0.075778 -0.16585 -8.998e-05 -0.046708 0.00020382 -0.0013857 0.15331 0.0044138 1.6753e-06 -2.3166e-05 0.064031 -0.14527 -0.00012663 -0.044144 0.00022147 -0.0023446
218 0.1847 0.0054973 2.7857e-05 7.1698e-06 0.065726 0.10474 0.0002222 -0.035855 6.2372e-05 -0.0081337 0.2633 0.0078517 4.1264e-05 1.3516e-05 0.093276 0.1555 0.00026639 -0.053511 0.00016514 -0.01198
219 0.18298 0.0053344 1.425e-05 -8.3027e-06 0.059779 -0.093032 -0.00018161 -0.0032342 6.6129e-05 -0.0030607 0.3452 0.010109 3.4194e-05 -3.4642e-06 0.10287 -0.18611 -0.00060853 0.024475 0.00015732 -0.017947
220 0.18452 0.0052907 2.4138e-07 -3.1827e-05 0.076213 -0.18812 -0.00014808 -0.045616 0.00028787 0.02416 0.1523 0.004375 3.8243e-07 -2.4695e-05 0.063755 -0.16322 -0.00017917 -0.043265 0.0003065 0.022808
221 0.18542 0.0053832 1.2374e-05 -1.228e-05 0.06214 -0.079459 -4.9613e-05 -0.0096145 -7.1854e-05 -0.018919 0.17389 0.0050645 1.4308e-05 -4.7185e-06 0.052613 -0.073796 -0.0001019 -0.0075871 -5.8845e-05 -0.019965
222 0.18207 0.005353 2.5201e-05 9.7246e-06 0.043166 0.019704 -0.00010618 0.03852 -0.00014561 0.057874 0.19201 0.005677 3.1874e-05 2.1857e-05 0.035581 0.018792 -0.00030518 0.062677 -0.00010142 0.083703
223 0.18794 0.0053697 1.7563e-06 -2.9961e-05 0.070821 -0.12519 3.0627e-05 -0.015819 -0.00020356 -0.064923 0.088018 0.0025167 4.5737e-07 -1.1904e-05 0.032774 -0.058205 -2.6123e-05 -0.0077458 -7.0754e-05 -0.034058
224 0.18427 0.0053019 4.5279e-06 -2.4281e-05 0.069097 -0.14208 -0.00012215 -0.014598 1.7382e-06 -0.0261 0.17095 0.004932 5.1296e-06 -1.9659e-05 0.064082 -0.13622 -0.00016783 -0.016153 1.4496e-05 -0.034243
225 0.18414 0.0052882 8.69e-07 -3.0723e-05 0.076262 -0.1893 -0.00017049 -0.044898 0.00029917 0.030449 0.18324 0.005273 1.1949e-06 -2.9366e-05 0.077384 -0.20132 -0.00023344 -0.053439 0.00038991 0.034972
226 0.18205 0.0053678 2.1986e-05 2.6261e-06 0.057449 -0.014543 -8.4503e-05 -0.0061349 5.6719e-05 0.018291 0.52712 0.01561 7.5046e-05 2.4856e-05 0.15151 -0.052187 -0.00049149 0.0027066 0.00021284 0.070237
227 0.18203 0.0052307 1.5298e-06 -2.9363e-05 0.074781 -0.17432 -0.00014096 -0.043009 0.00027333 0.034557 0.18666 0.0053807 2.4679e-06 -2.8201e-05 0.078435 -0.19145 -0.00022527 -0.052052 0.00038233 0.04195
228 0.18364 0.0052755 1.0918e-06 -3.0247e-05 0.075817 -0.18514 -0.00016043 -0.043526 0.00027013 0.021744 0.19146 0.0055123 1.6281e-06 -3.0209e-05 0.080661 -0.20626 -0.00023668 -0.053741 0.00037193 0.026771
229 0.18498 0.0054823 2.716e-05 8.9954e-06 0.056352 0.062446 5.7003e-05 0.0010362 -9.1882e-05 0.010062 0.31147 0.0092556 5.0047e-05 2.3694e-05 0.087373 0.10429 -1.7379e-05 0.01305 -0.00014019 0.032612
230 0.18428 0.0054776 2.9684e-05 1.3184e-05 0.053316 0.078822 5.1112e-05 0.0035119 -5.7522e-05 0.0095425 0.32892 0.0098078 5.8646e-05 3.4539e-05 0.084588 0.12688 -0.00016243 0.035605 -4.4758e-05 0.034635
231 0.186 0.0053965 1.6487e-05 -3.3317e-06 0.047286 -0.059665 -8.7612e-05 0.022944 -0.00015886 0.017032 0.14221 0.0041433 1.5695e-05 5.7794e-06 0.028778 -0.045186 -0.00015136 0.023038 -8.7511e-05 0.020274
232 0.18451 0.0053202 5.1807e-06 -2.381e-05 0.070991 -0.14197 -0.0001344 -0.021916 7.7987e-05 -0.011485 0.18442 0.0053296 5.9668e-06 -2.1393e-05 0.071047 -0.15008 -0.00020045 -0.024563 0.00011259 -0.017318
233 0.18536 0.0053757 1.0657e-05 -1.5853e-05 0.066798 -0.078255 -0.00010384 0.003154 -0.00010598 -0.040065 0.17134 0.0049828 1.1071e-05 -1.0948e-05 0.060607 -0.074351 -0.00020433 0.012288 -7.9273e-05 -0.044351
234 0.18611 0.0053979 1.1413e-05 -1.3028e-05 0.061458 -0.11332 -0.00011563 -0.014957 2.1665e-05 -0.022901 0.22048 0.006412 1.6458e-05 -8.7973e-06 0.066891 -0.14449 -0.00019953 -0.021792 6.28e-05 -0.034776
235 0.18354 0.0052901 5.7775e-06 -2.3276e-05 0.070159 -0.11142 1.2772e-05 -0.027088 -0.00015706 -0.097843 0.14348 0.0041612 5.9861e-06 -1.5047e-05 0.057456 -0.083657 6.6795e-05 -0.043697 -0.00042264 -0.3278
236 0.18558 0.0052786 -1.4141e-06 -3.4257e-05 0.071881 -0.13844 0.0001081 -0.030266 -0.00018905 -0.067136 0.088843 0.0025317 -1.0142e-06 -1.4401e-05 0.034882 -0.065958 1.2225e-05 -0.017062 -6.9219e-05 -0.044086
237 0.18659 0.0055082 2.6456e-05 7.129e-06 0.055875 0.0945 0.00031907 -0.02766 -0.00014124 0.0023824 0.14673 0.0043366 2.1837e-05 1.0527e-05 0.039423 0.071801 0.00019297 -0.019479 -8.3123e-05 0.0082619
238 0.18304 0.004849 -3.1338e-05 -8.1264e-05 0.07017 -0.037452 0.0013634 -0.051627 -0.0013705 -0.3042 0.03231 0.00087623 -5.5564e-06 -1.1248e-05 0.01423 -0.016001 0.00027392 -0.02027 -0.00044123 -0.17142
239 0.18765 0.0054757 1.8574e-05 -2.9725e-06 0.055632 -0.0079179 3.5218e-05 0.0065689 -0.0001574 0.010574 0.15145 0.0044284 1.646e-05 3.0814e-06 0.040114 -0.0134 -4.2139e-05 0.0071383 -0.00011291 -0.0010663
240 0.18385 0.0053391 1.1978e-05 -1.1715e-05 0.060605 -0.10404 -0.00011695 -0.010357 -4.9938e-06 -0.010165 0.29257 0.0085268 2.3282e-05 -1.1111e-05 0.091263 -0.17694 -0.00024517 -0.023138 -4.7506e-06 -0.035126
241 0.18185 0.0052715 4.7056e-06 -2.4334e-05 0.076555 -0.18902 -0.00025922 -0.047769 0.00038351 0.035702 0.12779 0.0037149 4.3697e-06 -1.7726e-05 0.055329 -0.14482 -0.00019635 -0.040226 0.00030189 0.029506
242 0.18285 0.0053165 6.9544e-06 -2.1131e-05 0.075451 -0.17933 -0.00030575 -0.040753 0.00040482 0.031375 0.15455 0.0045064 7.4076e-06 -1.8153e-05 0.064825 -0.16461 -0.00027291 -0.041796 0.00037462 0.027981
243 0.183 0.005313 5.5919e-06 -2.3401e-05 0.077188 -0.18491 -0.00024091 -0.050787 0.000329 0.0041492 0.13085 0.0038091 5.1514e-06 -1.7288e-05 0.056571 -0.13943 -0.0001675 -0.042519 0.00023592 -0.0017797
244 0.18378 0.0054482 2.1711e-05 -9.2061e-07 0.070655 -0.012813 -0.00017973 -0.013302 0.00022418 -0.00015533 0.042314 0.0012587 5.6566e-06 2.3726e-07 0.016107 -0.0025263 -6.352e-05 0.00066216 4.9835e-05 0.0013688
245 0.18626 0.0055592 3.3493e-05 2.1422e-05 0.04429 0.023181 -0.00028796 0.032144 0.00010583 0.057406 0.12416 0.0037226 2.633e-05 2.0347e-05 0.022161 0.01467 -0.00024449 0.031661 4.9905e-05 0.043781
246 0.18457 0.0055166 3.2399e-05 1.7812e-05 0.052346 0.065488 -4.1344e-05 0.0052328 -4.7759e-05 0.043812 0.1493 0.004479 3.0018e-05 1.9824e-05 0.035744 0.048834 -9.4276e-05 0.013221 -4.4953e-05 0.05263
247 0.18727 0.0055299 2.4262e-05 6.7768e-06 0.05362 -0.0328 -0.00015833 0.0052879 -2.4016e-05 -0.011667 0.17012 0.0050395 2.6029e-05 1.179e-05 0.041551 -0.033287 -0.00016085 0.0068819 -4.4811e-05 -0.014767
248 0.18545 0.0055697 3.2872e-05 1.4635e-05 0.065542 0.12051 0.00017592 -0.038045 0.00010025 -0.010167 0.15862 0.0047727 2.9712e-05 1.3387e-05 0.055315 0.10422 0.00015204 -0.032984 8.2189e-05 -0.0083225
249 0.18408 0.0054112 1.9408e-05 -3.0639e-07 0.057495 -0.07657 -0.00022394 -0.0022291 9.3109e-05 -0.0047376 0.25654 0.0075724 3.371e-05 8.4722e-06 0.069806 -0.11703 -0.00048176 0.024209 0.00011617 -0.01703
250 0.18539 0.0054036 9.3167e-06 -1.8005e-05 0.074452 -0.15452 -0.00024647 -0.03371 0.00017862 -0.038979 0.11348 0.0033177 6.9835e-06 -1.0943e-05 0.04633 -0.095294 -0.00013288 -0.024456 6.7541e-05 -0.042892
251 0.18077 0.0053825 2.8932e-05 1.4158e-05 0.050625 0.0056666 -0.00049269 0.07114 5.6099e-05 0.068332 0.12948 0.0038783 2.4984e-05 1.5848e-05 0.030887 0.0062233 -0.00054606 0.087978 3.0804e-05 0.053129
252 0.159 0.0050504 0.00015477 0.00028391 -0.33199 -0.012835 7.0016e-05 -0.017736 2.3551e-05 0.0020571 0.18238 0.0058684 0.0002063 0.00038484 -0.46175 -0.015864 0.00015776 -0.033361 3.3246e-05 0.0011585
253 0.17275 0.005134 2.5189e-05 1.018e-05 0.049949 -0.071591 -0.0010599 0.12921 0.00042609 0.065188 0.046146 0.001386 9.3932e-06 6.5309e-06 0.010105 -0.013674 -0.0004459 0.067376 0.00010411 0.01656
254 0.18292 0.0054396 2.6207e-05 7.8511e-06 0.060176 0.0040136 -0.00037824 0.044231 5.606e-05 -0.0055644 0.088871 0.0026541 1.4806e-05 6.2265e-06 0.026848 -0.0024291 -0.00032498 0.046029 3.177e-05 -0.004108
255 0.1843 0.0054358 1.749e-05 -6.3893e-06 0.07121 -0.10969 -0.00061322 0.01294 0.00059977 0.086053 0.024213 0.00071793 2.8896e-06 -2.9807e-07 0.009096 -0.012161 -8.4811e-05 0.0036009 6.5596e-05 0.0091139
256 0.16885 0.005075 4.3813e-05 4.8308e-05 -0.00020591 -0.023679 -0.0016097 0.29507 3.938e-06 -0.018936 0.09324 0.0028411 3.3359e-05 4.2717e-05 -0.01826 -0.013171 -0.0016465 0.31249 6.09e-06 -0.033409
257 0.1843 0.0055555 3.7746e-05 2.3779e-05 0.05538 0.14931 0.00020709 -0.029841 4.0335e-05 -0.015361 0.24118 0.0072891 5.4279e-05 3.8044e-05 0.063187 0.18843 0.00023926 -0.036665 5.3456e-05 -0.021563
258 0.1786 0.0053147 2.7086e-05 1.1051e-05 0.053931 -0.00082476 -0.00045924 0.059831 7.0192e-05 0.02766 0.12238 0.003665 2.252e-05 1.2455e-05 0.033085 -0.00070834 -0.00047406 0.062857 0.00011022 0.037487
259 0.17562 0.0052365 3.0639e-05 1.9075e-05 0.041996 -0.0012113 -0.0007512 0.12372 2.6259e-05 0.025013 0.13085 0.0039372 3.0185e-05 2.5837e-05 0.019157 -0.0039634 -0.001134 0.19946 5.5174e-05 0.022881
260 0.1661 0.0049936 4.4419e-05 5.0489e-05 -0.0047766 -0.022469 -0.001629 0.30345 -2.3779e-05 -0.036978 0.1123 0.0034266 4.2051e-05 5.541e-05 -0.027374 -0.016434 -0.0021511 0.41322 -2.0413e-05 -0.057573
261 0.18412 0.0055485 3.5134e-05 1.763e-05 0.065321 0.15711 0.00025152 -0.044439 0.00013613 -0.0027018 0.13841 0.0041799 2.7738e-05 1.3896e-05 0.049002 0.11896 0.0001843 -0.034899 0.00011569 -0.0027452
262 0.18142 0.0054214 3.1459e-05 1.7244e-05 0.051008 0.031105 -0.0005528 0.083665 0.00013789 0.048259 0.11725 0.0035255 2.5135e-05 1.8616e-05 0.024483 0.014791 -0.00076901 0.13512 5.9556e-05 0.021832
263 0.17456 0.0052398 4.343e-05 4.5901e-05 0.0051182 -0.0088921 -0.0008608 0.13916 0.00011522 0.043797 0.12502 0.0038048 4.6308e-05 6.1493e-05 -0.032563 -0.0070406 -0.0012732 0.23531 2.6611e-05 0.0037547
264 0.17641 0.005244 2.8713e-05 1.5468e-05 0.045184 0.021692 -0.00042693 0.076965 -4.6868e-06 0.080684 0.063536 0.0019009 1.2458e-05 8.4756e-06 0.01379 0.0094957 -0.00021756 0.039525 -9.2002e-06 0.033558
265 0.16615 0.0051082 9.2832e-05 0.00015216 -0.14655 -0.0035014 -0.00064177 0.12607 -7.067e-05 0.00055324 0.073934 0.0023172 5.6492e-05 9.8239e-05 -0.10591 -0.0040699 -0.00051291 0.10209 -2.7826e-05 -0.010741
266 0.17621 0.0053566 7.4172e-05 0.00011003 -0.084086 0.024531 2.591e-05 -0.0072514 -3.3068e-05 0.0099179 0.36964 0.011481 0.00025062 0.00042663 -0.44641 0.023653 0.00030663 -0.067103 -3.2111e-05 0.032019
267 0.18232 0.0054312 3.4194e-05 2.5701e-05 0.032739 0.0046621 -0.00035048 0.047925 6.1975e-05 0.077809 0.10647 0.0031971 2.6786e-05 2.7139e-05 0.0040426 0.0018246 -0.00026108 0.036112 4.2884e-05 0.051485
268 0.18408 0.0055317 3.5014e-05 1.9707e-05 0.057435 0.12722 0.00014303 -0.019785 2.4078e-05 0.015124 0.31474 0.0094821 6.4813e-05 3.9228e-05 0.092039 0.21665 0.00020977 -0.02954 3.2387e-05 0.03387
269 0.18404 0.0055494 3.6258e-05 1.9955e-05 0.062197 0.15774 0.00021295 -0.034809 0.00012046 -0.002247 0.1991 0.0060177 4.1763e-05 2.3789e-05 0.065499 0.17471 0.00022756 -0.038714 0.00014887 -0.0010071
270 0.18024 0.0053786 3.256e-05 2.1335e-05 0.041707 0.023727 -0.00039663 0.064207 -1.315e-05 0.083245 0.11214 0.0033664 2.4215e-05 1.8889e-05 0.020291 0.016445 -0.00035892 0.059769 -6.5676e-06 0.062192
271 0.17787 0.0052835 2.5754e-05 9.456e-06 0.053477 -0.030768 -0.0005655 0.054591 0.00031445 0.11228 0.042562 0.0012734 7.7964e-06 4.4704e-06 0.01088 -0.0049022 -0.00017843 0.021349 6.8424e-05 0.028486
272 0.18414 0.0055449 3.5359e-05 1.8792e-05 0.062213 0.14963 0.00020197 -0.03135 8.5888e-05 0.0033663 0.23361 0.0070498 4.7343e-05 2.5471e-05 0.07792 0.19049 0.00025944 -0.044222 0.00012454 -0.0010686
273 0.1812 0.0054193 3.2208e-05 1.7969e-05 0.051644 0.072837 -0.00011511 0.02545 -8.0405e-05 0.076411 0.099678 0.0029939 2.0046e-05 1.2733e-05 0.025811 0.042053 -0.0001142 0.023979 -6.3079e-05 0.052663
274 0.18481 0.0055802 3.8249e-05 2.3345e-05 0.059011 0.16958 0.00029059 -0.045504 9.9904e-05 -0.0092031 0.19331 0.0058491 4.2828e-05 2.7693e-05 0.057604 0.17638 0.00030382 -0.049431 0.00011686 -0.0081639
275 0.18292 0.005492 3.5505e-05 2.2107e-05 0.051382 0.10929 5.8616e-05 -0.006637 2.6133e-05 0.020448 0.37735 0.011369 8.2305e-05 5.8567e-05 0.090324 0.21879 -1.2149e-05 0.0057933 6.2405e-05 0.06393
276 0.18316 0.005473 3.3653e-05 2.1237e-05 0.045919 0.069414 -9.02e-05 0.024206 -9.475e-05 0.075578 0.11622 0.0034873 2.4284e-05 1.7518e-05 0.024904 0.044343 -9.8869e-05 0.021959 -6.8032e-05 0.062067
277 0.18068 0.0052917 1.4788e-05 -7.937e-06 0.064213 -0.091952 -0.00014192 -0.025167 0.00012421 -0.0079849 0.21499 0.0063185 2.1481e-05 -5.4766e-06 0.071102 -0.13085 -8.9324e-05 -0.037672 -0.00014537 -0.13869
278 0.18327 0.0055131 3.4798e-05 1.8412e-05 0.061051 0.14521 0.00019625 -0.02754 4.5522e-05 0.010783 0.23525 0.007093 4.7065e-05 2.5105e-05 0.077799 0.18453 0.00024866 -0.038647 1.1226e-05 -0.025747
279 0.18239 0.0052981 6.4547e-06 -2.1459e-05 0.074493 -0.18563 -0.00028452 -0.043184 0.00036945 0.015687 0.12628 0.0036794 5.9214e-06 -1.4784e-05 0.052177 -0.13632 -0.00021216 -0.034183 0.00027999 0.015099
280 0.1867 0.0056396 3.8858e-05 2.3765e-05 0.059938 0.1745 0.00028921 -0.044684 0.00010464 -0.0022962 0.15978 0.0048364 3.5539e-05 2.2975e-05 0.047984 0.14894 0.00024891 -0.040413 0.00010924 -0.0018292
281 0.1869 0.0056341 3.6662e-05 1.9906e-05 0.063558 0.16743 0.00027792 -0.039684 5.8303e-05 -0.020589 0.14566 0.0043967 2.9828e-05 1.6366e-05 0.048244 0.12689 0.00020779 -0.031402 5.2194e-05 -0.016456
282 0.18605 0.0056224 3.942e-05 2.4956e-05 0.058352 0.18063 0.00030915 -0.044057 7.3552e-05 -0.014316 0.13249 0.0040123 3.0551e-05 2.1428e-05 0.036299 0.12397 0.00021442 -0.032189 5.3591e-05 -0.011345
283 0.18481 0.0055719 3.7204e-05 2.1899e-05 0.059332 0.16456 0.00030455 -0.043588 3.1952e-05 -0.019994 0.19662 0.0059403 4.2734e-05 2.7429e-05 0.057458 0.1709 0.00032583 -0.048914 3.6619e-05 -0.021915
284 0.18562 0.005611 4.054e-05 2.7657e-05 0.053918 0.17678 0.00027665 -0.03794 7.8708e-05 -0.0055538 0.17097 0.0051814 4.1253e-05 3.162e-05 0.041173 0.15876 0.00025181 -0.036481 7.8596e-05 -0.0057384
285 0.18361 0.0055384 3.6771e-05 2.1e-05 0.060892 0.16419 0.00021648 -0.029496 7.5839e-05 -0.010854 0.22153 0.0066991 4.8001e-05 2.9771e-05 0.068222 0.194 0.00010011 -0.0067822 0.00010151 -0.015646
286 0.1844 0.0055732 3.7639e-05 2.1208e-05 0.063954 0.18468 0.00031932 -0.048334 0.00010529 -0.010677 0.20712 0.0062723 4.4313e-05 2.4963e-05 0.071379 0.21298 0.00038501 -0.060396 0.00013743 -0.015183
287 0.18485 0.0055586 3.339e-05 1.5385e-05 0.065534 0.11554 9.7294e-05 -0.03546 0.00023691 0.02071 0.13737 0.0041405 2.5969e-05 1.1518e-05 0.049297 0.073153 -1.0559e-05 -0.027845 0.00032194 0.039703
288 0.1869 0.0056412 3.8681e-05 2.4004e-05 0.058297 0.16336 0.0002218 -0.032084 6.3174e-05 -0.0046764 0.1458 0.0044089 3.2217e-05 2.1163e-05 0.042032 0.12225 0.00015268 -0.023493 5.2491e-05 -0.00011006
289 0.17703 0.0052757 2.6847e-05 9.6632e-06 0.057931 0.018205 -0.00024712 0.011728 0.00020189 0.031691 0.085644 0.0025678 1.5361e-05 7.3463e-06 0.026281 0.0056018 -0.0002594 0.024649 0.00015008 0.035533
290 0.18315 0.0055071 3.3124e-05 1.5461e-05 0.064454 0.11259 6.9031e-05 -0.029139 0.00022024 0.024455 0.16242 0.0048972 3.1058e-05 1.4242e-05 0.057681 0.088624 -6.086e-05 -0.018568 0.00031707 0.047127
291 0.18586 0.0056119 3.7124e-05 2.0304e-05 0.064617 0.17056 0.00022546 -0.036922 0.00013978 0.017929 0.10442 0.0031582 2.1764e-05 1.1873e-05 0.035805 0.09261 9.4457e-05 -0.016549 8.6018e-05 0.014754
292 0.18373 0.0055402 3.6162e-05 1.9787e-05 0.06241 0.16015 0.00021107 -0.032283 0.00010201 0.0061706 0.20804 0.0062863 4.3092e-05 2.3801e-05 0.069678 0.17954 0.0002058 -0.033726 0.00013166 0.010937
293 0.18589 0.0056 3.6054e-05 1.9481e-05 0.062565 0.15353 0.00022691 -0.035407 7.6294e-05 -0.0075226 0.17685 0.0053365 3.6124e-05 1.9956e-05 0.057732 0.14438 0.00021639 -0.035302 7.8477e-05 -0.0077161
294 0.18452 0.0055553 3.5299e-05 1.8761e-05 0.062052 0.14457 0.00019262 -0.030288 5.0769e-05 -0.011715 0.24347 0.0073458 4.9342e-05 2.6902e-05 0.079793 0.18501 0.00022067 -0.038133 1.6608e-05 -0.06127
295 0.18643 0.0056413 3.8876e-05 2.2286e-05 0.065255 0.20275 0.00035076 -0.050075 0.00011753 -0.0082986 0.10861 0.0032903 2.3424e-05 1.3349e-05 0.037395 0.11489 0.00019332 -0.028423 6.7908e-05 -0.0046621
296 0.18641 0.0056319 3.7976e-05 2.1407e-05 0.06429 0.18845 0.00033229 -0.047429 8.5893e-05 -0.012688 0.14894 0.0045064 3.1527e-05 1.7701e-05 0.050701 0.14936 0.00026618 -0.039788 7.832e-05 -0.011076
297 0.18485 0.0055722 3.7225e-05 2.231e-05 0.058119 0.14995 0.00016668 -0.024492 8.2333e-05 0.0021141 0.23733 0.0071718 5.1519e-05 3.2925e-05 0.06966 0.19143 0.00017681 -0.027443 0.00012328 0.0021182
298 0.18646 0.0056271 3.7194e-05 2.0595e-05 0.063678 0.16962 0.00026511 -0.041863 0.0001081 -0.0036096 0.1629 0.0049243 3.3999e-05 1.8924e-05 0.054708 0.14531 0.00021295 -0.037975 0.00013547 0.0022491
299 0.18628 0.0056147 3.757e-05 2.2524e-05 0.058489 0.15845 0.0002468 -0.034993 5.6071e-05 -0.002709 0.207 0.0062515 4.4837e-05 2.885e-05 0.059944 0.1742 0.00026973 -0.039527 6.7225e-05 -0.0024771
300 0.18342 0.0055337 3.8878e-05 2.6096e-05 0.052326 0.15226 0.00018334 -0.027355 0.00010281 0.0083231 0.18941 0.005737 4.7005e-05 3.8865e-05 0.037944 0.15161 0.00013906 -0.020935 0.00011452 0.011948
301 0.18319 0.0055297 3.7383e-05 2.2299e-05 0.059292 0.15729 0.00011365 -0.01445 0.00010364 -0.0038687 0.23983 0.0072633 5.417e-05 3.6315e-05 0.06935 0.20074 -0.00018982 0.044896 0.00014749 -0.0068506
302 0.1827 0.0055157 3.6829e-05 2.1004e-05 0.061503 0.16241 0.00019748 -0.031711 0.00011813 0.011996 0.20062 0.0060718 4.313e-05 2.5493e-05 0.065277 0.17642 0.00015881 -0.027891 0.00015121 0.02295
303 0.18576 0.0055919 3.7363e-05 2.3372e-05 0.054712 0.14028 0.00020402 -0.02956 3.8718e-05 -0.0046523 0.20297 0.0061265 4.5295e-05 3.213e-05 0.051101 0.15193 0.0002216 -0.033209 4.3032e-05 -0.0018771
304 0.18455 0.0055739 3.711e-05 2.0382e-05 0.064431 0.18103 0.00030015 -0.044484 9.9689e-05 -0.0077729 0.16689 0.0050492 3.4937e-05 1.8978e-05 0.058012 0.16233 0.00025976 -0.040786 0.00010595 -0.0072681
305 0.18436 0.0055625 3.845e-05 2.4655e-05 0.055425 0.16041 0.00026778 -0.039105 5.5115e-05 -0.007877 0.23959 0.0072466 5.4165e-05 3.7459e-05 0.065166 0.20658 0.00034918 -0.054104 8.6516e-05 -0.010282
306 0.1801 0.0053636 2.7841e-05 1.1643e-05 0.054831 0.011216 -0.00038009 0.047938 5.8147e-05 0.034427 0.15169 0.0045436 2.7861e-05 1.5166e-05 0.041752 0.0057362 -0.00054485 0.073228 0.00012385 0.061633
307 0.18572 0.0055997 3.6258e-05 1.9322e-05 0.064112 0.16233 0.00025368 -0.040998 0.00010198 -4.7204e-05 0.17687 0.0053424 3.6187e-05 1.9364e-05 0.060238 0.15442 0.00023481 -0.039816 0.00010976 0.0020681
308 0.18622 0.0056254 4.0575e-05 2.8171e-05 0.052131 0.16172 0.00024969 -0.041271 0.00012508 0.0052694 0.13282 0.004028 3.458e-05 3.0485e-05 0.022484 0.1087 0.00016964 -0.030177 9.7943e-05 0.006683
309 0.1826 0.0055066 3.6316e-05 2.0616e-05 0.060508 0.15522 0.00017298 -0.025629 9.5551e-05 0.01201 0.24668 0.0074581 5.2495e-05 3.11e-05 0.078738 0.20906 0.00015793 -0.023269 0.00013884 0.026476
310 0.18594 0.0056046 3.813e-05 2.4277e-05 0.055104 0.14389 0.00025145 -0.043162 5.5174e-05 -0.02268 0.17229 0.0052055 3.8709e-05 2.7391e-05 0.043942 0.12183 0.00026112 -0.047697 -8.8229e-05 -0.11645
311 0.18364 0.005535 3.5169e-05 1.7826e-05 0.064955 0.15885 0.00027492 -0.045457 8.694e-05 -0.021148 0.1363 0.0041146 2.698e-05 1.3065e-05 0.048691 0.11419 0.0002101 -0.03782 6.187e-05 -0.027702
312 0.18595 0.0055772 3.2309e-05 1.4192e-05 0.064494 0.10898 0.00012181 -0.027773 7.3387e-05 -0.014946 0.10139 0.0030467 1.8677e-05 8.4562e-06 0.03428 0.055146 3.9134e-05 -0.012797 4.8462e-05 -0.0066905
313 0.1856 0.0056054 3.7126e-05 2.0201e-05 0.065029 0.17425 0.00027079 -0.044692 0.00013634 -0.0038369 0.12821 0.0038777 2.662e-05 1.427e-05 0.044536 0.1163 0.00016353 -0.029494 0.00010948 0.00086067
314 0.18295 0.0055251 3.6828e-05 2.0557e-05 0.063005 0.17081 0.00025619 -0.040305 0.00010767 -0.0022986 0.19981 0.0060488 4.2143e-05 2.3139e-05 0.069352 0.18667 0.00025631 -0.045927 0.00016014 0.0041115
315 0.18169 0.0054844 3.6864e-05 2.146e-05 0.060199 0.16831 0.00020222 -0.02367 3.346e-05 0.0026218 0.14335 0.0043372 3.0516e-05 1.7651e-05 0.047397 0.13028 0.00015237 -0.01916 -4.4732e-05 -0.042847
316 0.17928 0.0053364 3.1158e-05 1.9779e-05 0.040733 0.027419 -9.5678e-05 0.018486 -0.00015374 0.072508 0.068992 0.0020664 1.4866e-05 1.2108e-05 0.01063 0.012756 -5.118e-05 0.0097386 -7.1365e-05 0.032943
317 0.18758 0.0055845 3.1136e-05 1.7009e-05 0.048766 0.024684 -0.00011376 0.0096765 -2.2869e-05 -0.007237 0.088585 0.0026466 1.7115e-05 1.1601e-05 0.018517 0.011734 -6.7291e-05 0.0062168 -3.2709e-06 0.00095753
318 0.18643 0.0054804 1.9395e-05 -1.1885e-06 0.060049 -0.063151 -0.00022158 0.010291 6.1424e-06 0.032442 0.08463 0.0024948 1.0183e-05 8.6541e-07 0.025711 -0.030645 -0.00011321 0.0054569 4.7326e-06 0.017283
319 0.18578 0.0056096 3.7265e-05 2.0258e-05 0.065161 0.18987 0.00037684 -0.054834 9.2071e-05 -0.022123 0.040111 0.0012129 8.3351e-06 4.4807e-06 0.013991 0.040679 8.0504e-05 -0.012237 2.2403e-05 -0.0042555
320 0.18478 0.0055126 2.9693e-05 1.2463e-05 0.058744 0.059321 0.0001429 -0.042735 7.2981e-05 -0.024256 0.21261 0.0063565 3.7828e-05 1.9175e-05 0.060274 0.053219 0.00015794 -0.053302 7.4091e-05 -0.035943
321 0.18639 0.0056356 3.8479e-05 2.2042e-05 0.064366 0.19377 0.00032378 -0.045018 8.6677e-05 -0.0046563 0.10533 0.0031888 2.2567e-05 1.2916e-05 0.035638 0.10652 0.00017345 -0.024975 5.0508e-05 -0.0025916
322 0.18611 0.0056078 3.585e-05 1.8852e-05 0.063925 0.15043 0.00020086 -0.035247 9.1792e-05 -0.010233 0.11108 0.0033531 2.228e-05 1.1486e-05 0.038156 0.086927 0.00013696 -0.025773 -9.4935e-06 -0.056327
323 0.18486 0.0055228 3.1968e-05 1.6953e-05 0.053317 0.065669 -2.938e-05 0.0022487 -2.5337e-05 0.042471 0.15924 0.0047727 3.085e-05 1.8876e-05 0.040912 0.053873 -6.7638e-05 0.0087725 -4.2903e-05 0.045618
324 0.18539 0.0055353 3.1596e-05 1.6032e-05 0.054599 0.077631 7.9635e-06 0.0077539 -0.00011776 0.055423 0.092778 0.0027773 1.7278e-05 9.6961e-06 0.025359 0.03649 -1.7814e-05 0.0075799 -7.4384e-05 0.035497
325 0.17397 0.0051884 2.5167e-05 5.3364e-06 0.066064 0.078298 0.00033589 -0.055995 -0.00043583 -0.30477 0.047373 0.0014184 6.6008e-06 -1.7007e-07 0.020988 0.0095591 0.0001717 -0.034435 -0.00042605 -0.30894
326 0.1851 0.0054536 1.5742e-05 -1.0101e-05 0.076059 -0.11813 -0.00051457 -0.024078 0.00081224 0.12859 0.016084 0.00047627 1.7108e-06 -6.1725e-07 0.0065961 -0.0084377 -4.2058e-05 -0.0018931 6.2515e-05 0.0095238
327 0.18142 0.0054163 2.6341e-05 5.9012e-06 0.068244 0.018838 -0.00027056 -0.0081017 0.00044722 0.072699 0.035794 0.0010727 5.774e-06 1.532e-06 0.013405 0.0042334 -6.7184e-05 0.00098067 8.0614e-05 0.013949
328 0.18925 0.0055862 2.2556e-05 2.4157e-06 0.061001 -0.041248 -0.00031096 0.017845 0.00018323 0.081104 0.027408 0.00081163 3.7543e-06 8.9668e-07 0.0083055 -0.005841 -4.8938e-05 0.0033684 2.0519e-05 0.011077
329 0.17719 0.0052733 2.6373e-05 1.0102e-05 0.054582 -0.022024 -0.00044608 0.03367 0.00024613 0.1039 0.068904 0.0020656 1.272e-05 6.9152e-06 0.019103 -0.0054977 -0.00027705 0.029508 0.00012736 0.049922
330 0.18947 0.0056221 3.0082e-05 1.6912e-05 0.044038 -0.032315 -0.00034932 0.027321 0.00015491 0.061934 0.056043 0.0016709 1.0874e-05 8.0854e-06 0.0092822 -0.0092211 -0.00011602 0.010018 4.4189e-05 0.018235
331 0.18346 0.0055129 3.2764e-05 1.4955e-05 0.064469 0.10384 1.0775e-05 -0.023032 0.00025588 0.034034 0.10981 0.0033099 2.1189e-05 1.0237e-05 0.03779 0.058388 -9.4049e-05 -0.00026508 0.00019161 0.029206
332 0.17904 0.0053007 2.4104e-05 6.9439e-06 0.054266 -0.01748 -0.00044894 0.066781 -5.1846e-05 -0.020033 0.13117 0.0039087 2.1866e-05 1.06e-05 0.035091 -0.020553 -0.00062063 0.093849 3.0023e-05 -0.0057698
333 0.17446 0.0053454 8.2824e-05 0.00012606 -0.1011 0.055824 0.00010389 -0.018048 -3.1657e-05 0.020065 0.17689 0.0055252 0.00012658 0.00021609 -0.22565 0.035248 0.00018333 -0.035441 -2.6567e-05 0.025544
334 0.18187 0.0054289 3.342e-05 2.2102e-05 0.042135 0.051911 -5.9876e-05 0.012979 -9.4529e-05 0.039095 0.18704 0.0056148 4.2468e-05 3.6299e-05 0.026467 0.048772 -0.00017835 0.032742 -0.00010784 0.059476
335 0.18247 0.0054509 3.2362e-05 1.9023e-05 0.048504 0.054224 -0.0001547 0.027857 -6.5932e-05 0.065005 0.18978 0.005695 3.8507e-05 2.596e-05 0.044412 0.053286 -0.00029794 0.047901 -4.3783e-05 0.097973
336 0.19479 0.0058454 3.5817e-05 1.8877e-05 0.061754 0.11722 -4.5221e-05 0.012953 3.901e-05 0.048933 0.022376 0.0006725 4.4171e-06 2.559e-06 0.0065173 0.013163 -6.798e-06 0.0018559 3.5545e-06 0.0044368
337 0.18545 0.0055475 3.4953e-05 2.2894e-05 0.045644 0.074322 -6.7985e-05 0.019928 -9.8387e-05 0.074907 0.09857 0.0029602 2.1208e-05 1.6006e-05 0.019783 0.039639 -5.7902e-05 0.01475 -7.2648e-05 0.047583
338 0.17725 0.00532 4.1246e-05 3.9748e-05 0.016684 0.0049212 -0.00056965 0.075273 0.00018704 0.067791 0.078807 0.0023911 2.5583e-05 3.0922e-05 -0.0092944 9.4095e-05 -0.00037722 0.054055 0.00010326 0.041739
339 0.18334 0.0054908 3.8682e-05 3.2396e-05 0.029646 0.0424 -0.00025131 0.046681 -0.00011107 0.074843 0.095615 0.0028843 2.5773e-05 2.6609e-05 0.0034179 0.024097 -0.00026597 0.052741 -8.0571e-05 0.040169
340 0.18396 0.005458 2.6907e-05 1.0759e-05 0.052526 -0.0053459 -5.9084e-05 -0.012343 -4.7364e-05 -0.013484 0.15305 0.0045601 2.681e-05 1.5234e-05 0.036214 -0.0040014 -6.0979e-05 -0.0085204 -6.0013e-05 -0.014928
341 0.16302 0.0049578 6.5023e-05 9.3852e-05 -0.064658 -0.019948 -0.001985 0.38698 -9.0953e-05 -0.066109 0.069923 0.0021595 3.6518e-05 5.6172e-05 -0.046687 -0.0081403 -0.0014792 0.2925 -5.4019e-05 -0.052463
342 0.15586 0.0049296 0.00014177 0.00025701 -0.29486 -0.007845 -0.00031455 0.063199 -1.2831e-05 -0.012536 0.27734 0.008895 0.0002985 0.00055219 -0.65407 -0.024431 -0.00080572 0.16406 -1.2373e-05 -0.044991
343 0.1636 0.0049638 5.7757e-05 7.748e-05 -0.039626 -0.0062637 -0.0019602 0.37981 -5.0704e-05 -0.064563 0.073547 0.002265 3.499e-05 5.1605e-05 -0.038184 -0.0052236 -0.0015651 0.30889 -5.0755e-05 -0.05365
344 0.15499 0.0047384 6.7903e-05 0.00010077 -0.074413 -0.0081058 -0.0021835 0.42949 -7.3222e-05 -0.060763 0.075642 0.0023456 4.1762e-05 6.5029e-05 -0.055264 -0.0060133 -0.0017483 0.34744 -6.5768e-05 -0.057465
345 0.16071 0.0049198 7.4919e-05 0.00011426 -0.091771 -0.006385 -0.0021478 0.4274 -9.8356e-05 -0.059314 0.054857 0.001702 3.13e-05 4.9473e-05 -0.043634 -0.0038095 -0.0012035 0.23973 -4.4786e-05 -0.039779
346 0.16008 0.0048837 6.4187e-05 9.0577e-05 -0.056294 0.018133 -0.001922 0.38288 -6.7741e-05 -0.069631 0.083444 0.0025823 4.3881e-05 6.7035e-05 -0.054251 -0.00064427 -0.0018324 0.36553 -7.1266e-05 -0.065497
347 0.16073 0.0049176 7.4727e-05 0.00011423 -0.092497 -0.0080992 -0.0019417 0.38608 -0.00011362 -0.058568 0.085886 0.0026657 4.979e-05 7.9243e-05 -0.07112 -0.0063314 -0.0017902 0.35686 -7.8083e-05 -0.060576
348 0.18622 0.0054916 1.9485e-05 -3.4797e-06 0.068612 -0.02598 4.5579e-05 -0.033964 -0.0001417 -0.1145 0.05879 0.0017362 6.386e-06 -1.5647e-06 0.022246 -0.011741 2.713e-05 -0.013861 -6.6739e-05 -0.049429
349 0.16865 0.0049681 1.6071e-05 -5.9728e-06 0.065834 -0.015733 0.0002961 -0.063087 -0.00067546 -0.46233 0.034882 0.001038 3.862e-06 -1.5849e-06 0.016072 -0.0041345 0.00013617 -0.029026 -0.00037591 -0.26993
350 0.16499 0.0048494 1.3501e-05 -9.2835e-06 0.067041 -0.036801 0.00029216 -0.065982 -0.00082105 -0.55898 0.024622 0.00073307 2.6696e-06 -1.3003e-06 0.01173 -0.0027942 0.00010145 -0.021616 -0.00027373 -0.19709
351 0.17552 0.0049973 -1.3645e-06 -3.1671e-05 0.069249 -0.081653 0.00055019 -0.056269 -0.00092452 -0.39571 0.017018 0.00048145 -9.2222e-07 -4.6386e-06 0.00762 -0.0094113 0.00017745 -0.010965 -0.00027431 -0.087032
352 0.15812 0.0050524 0.00016784 0.00031202 -0.37238 -0.015262 -2.2997e-07 0.0061541 -2.3833e-05 -0.011973 0.074185 0.0023974 8.9031e-05 0.00016763 -0.20384 -0.0094951 3.4017e-05 -0.0033773 -1.0647e-05 -0.008731
353 0.15993 0.0050953 0.00016144 0.00029743 -0.34986 -0.0075413 0.00012944 -0.026264 1.8526e-05 0.0051792 0.15174 0.0048902 0.00017506 0.00032748 -0.39449 -0.012563 0.00021861 -0.043985 3.3772e-05 0.0029334
354 0.16085 0.0051235 0.00016158 0.00029729 -0.34896 -0.0030305 0.00019176 -0.037136 5.5537e-06 0.0074248 0.13065 0.0042095 0.00014993 0.00028012 -0.33672 -0.0067125 0.00024941 -0.049559 1.9773e-05 0.0084517
355 0.15699 0.0050251 0.00016871 0.00031364 -0.37402 -0.0099887 0.0002371 -0.046424 1.8361e-05 0.0032798 0.17449 0.0056409 0.0002094 0.00039391 -0.47818 -0.015674 0.00040205 -0.080011 4.2177e-05 0.0051904
356 0.15635 0.0050083 0.00016975 0.00031606 -0.37774 -0.010864 0.00023971 -0.046789 1.9004e-05 0.0027351 0.19087 0.0061732 0.0002304 0.00043379 -0.52728 -0.018201 0.00043321 -0.085646 4.3544e-05 0.0044263
357 0.16053 0.005119 0.00016386 0.00030229 -0.35628 -0.0050211 0.00018615 -0.035884 7.2319e-06 0.0066354 0.13648 0.0043996 0.00015789 0.00029541 -0.3559 -0.0090693 0.00023462 -0.046064 2.0604e-05 0.0051544
358 0.16171 0.0051778 0.00017561 0.00032725 -0.39185 -0.015002 0.00012331 -0.021622 5.2504e-06 -0.0042709 0.08059 0.0026028 9.5749e-05 0.00017994 -0.21816 -0.0084904 0.00010109 -0.019205 1.1056e-05 -0.0018708
359 0.15593 0.0050073 0.00017528 0.00032804 -0.39516 -0.015338 0.0002198 -0.042076 2.065e-05 -0.0025144 0.13807 0.0044712 0.00016942 0.00031978 -0.3901 -0.016137 0.00029401 -0.057833 3.5323e-05 -0.0024209
360 0.1617 0.0051271 0.00015191 0.00027656 -0.31933 -0.0015655 7.0957e-05 -0.015525 1.0075e-05 0.012343 0.11923 0.0038289 0.0001309 0.00024289 -0.28911 -0.0048287 0.00014193 -0.029721 2.057e-05 0.011324
361 0.16589 0.0052615 0.00015702 0.00028628 -0.33138 0.00032169 0.00010098 -0.018324 -9.9893e-06 0.0084259 0.081948 0.0026314 9.0134e-05 0.00016737 -0.19947 -0.0032117 9.1538e-05 -0.017751 6.0896e-06 0.0035782
362 0.15843 0.0050476 0.00015948 0.0002935 -0.34458 -0.0023891 0.00020459 -0.039655 4.7658e-06 0.0091018 0.14358 0.0046301 0.00016646 0.00031142 -0.37506 -0.0072211 0.00032585 -0.065216 2.5579e-05 0.012893
363 0.15956 0.0051025 0.00016989 0.00031554 -0.37585 -0.0095118 0.00028747 -0.056352 1.6971e-05 0.005962 0.11863 0.0038329 0.00014156 0.00026613 -0.32285 -0.010287 0.00028506 -0.056524 2.7411e-05 0.0040386
364 0.16018 0.0050889 0.00015324 0.00027915 -0.32229 0.011294 0.00021566 -0.04119 2.4678e-05 0.0074668 0.1815 0.0058491 0.00020835 0.00038906 -0.46722 -0.002977 0.00045336 -0.089951 5.6329e-05 0.010153
365 0.15884 0.0050839 0.00017162 0.00031957 -0.38227 -0.013045 0.00028945 -0.056778 1.8705e-05 0.002633 0.10424 0.0033717 0.00012651 0.00023853 -0.29065 -0.011824 0.00026568 -0.052799 2.9673e-05 -0.00029041
366 0.15399 0.0049311 0.00016676 0.00031049 -0.37109 -0.012267 0.00011686 -0.020266 2.8664e-06 -0.003565 0.19254 0.0062305 0.00023403 0.00044113 -0.53704 -0.021713 0.00024854 -0.044309 1.3935e-05 -0.013715
367 0.1632 0.0051799 0.00015846 0.00029089 -0.34071 -0.013274 -0.00021478 0.049322 -4.7182e-05 -0.012611 0.05253 0.0016873 5.8232e-05 0.00010837 -0.1296 -0.005548 -6.9874e-05 0.015791 -1.1632e-05 -0.0054664
368 0.15364 0.0049198 0.00016639 0.00030981 -0.37031 -0.012315 0.00016792 -0.031475 1.0415e-05 -0.0024517 0.24204 0.0078365 0.00029646 0.00055947 -0.68236 -0.028082 0.00046441 -0.08812 4.2105e-05 -0.012066
369 0.16548 0.0052826 0.00017335 0.00032154 -0.38251 -0.013132 5.6361e-05 -0.0065127 -1.4119e-05 -0.0039336 0.050495 0.0016279 5.8746e-05 0.00011009 -0.13297 -0.004746 4.9411e-05 -0.0090578 3.6387e-06 -0.00089351
370 0.15608 0.0050026 0.00017109 0.00031906 -0.3823 -0.012759 0.00021247 -0.040638 1.6363e-05 -0.0015505 0.18074 0.0058513 0.00022122 0.00041745 -0.50911 -0.020922 0.00035123 -0.067479 3.7152e-05 -0.0081612
371 0.16489 0.0052505 0.00016838 0.00031162 -0.36977 -0.014283 3.2657e-05 0.0013701 -4.3576e-05 -0.0057607 0.038242 0.0012331 4.4864e-05 8.4259e-05 -0.10213 -0.0044528 2.7661e-05 -0.0039171 -4.1501e-06 -0.0031622
372 0.15617 0.0049717 0.00015604 0.00028711 -0.33702 -0.0078843 3.3575e-05 -0.0056564 2.0705e-06 0.0017619 0.24318 0.0078395 0.00028142 0.00052663 -0.63464 -0.022478 0.00010873 -0.01758 1.3184e-05 -0.010371
373 0.15489 0.0047041 5.4412e-05 7.2387e-05 -0.034759 -0.010743 -0.0023802 0.46425 -6.5439e-05 -0.069532 0.066795 0.0020585 3.0851e-05 4.4475e-05 -0.030316 -0.0058809 -0.0017373 0.34386 -5.5982e-05 -0.056985
374 0.15402 0.004969 0.00018264 0.00034403 -0.41818 -0.01857 0.00028941 -0.057502 4.4555e-05 -0.006508 0.077271 0.002507 9.6849e-05 0.00018328 -0.22437 -0.0099006 0.00018389 -0.036537 2.4729e-05 -0.0019602
375 0.16092 0.0051104 0.00015342 0.00027956 -0.32294 0.0043483 0.0001868 -0.038402 1.2816e-05 0.012991 0.072159 0.0023204 8.0295e-05 0.00014918 -0.17783 -0.0010796 0.00014424 -0.029666 1.3753e-05 0.008963
376 0.15291 0.0049242 0.00017711 0.00033256 -0.40233 -0.015992 0.0002516 -0.049618 3.4523e-05 -0.0035052 0.12548 0.0040681 0.00015582 0.00029448 -0.3598 -0.015066 0.00027378 -0.053837 3.2356e-05 -0.0024259
377 0.16299 0.005172 0.00015393 0.00028015 -0.32315 0.0037774 0.00028941 -0.060738 2.1937e-05 0.018698 0.035435 0.0011393 3.9439e-05 7.3299e-05 -0.08744 -0.00057914 8.2587e-05 -0.016967 7.994e-06 0.004469
378 0.15826 0.0050724 0.0001726 0.00032144 -0.38423 -0.010948 0.00025645 -0.050795 2.4119e-05 -0.00070644 0.08335 0.002696 0.00010062 0.00018942 -0.23022 -0.0082705 0.00017167 -0.033619 1.6321e-05 -0.0012675
379 0.162 0.0051752 0.00016942 0.00031372 -0.37185 -0.0106 8.0643e-05 -0.013667 -1.8067e-07 -0.010269 0.053643 0.001732 6.3417e-05 0.00011907 -0.1442 -0.0057147 4.5911e-05 -0.0077739 1.0418e-06 -0.0045775
380 0.16316 0.0051752 0.00015305 0.0002782 -0.32025 0.0067197 0.00030962 -0.063029 9.7719e-06 0.020669 0.047278 0.0015187 5.2095e-05 9.6692e-05 -0.11516 -0.00066475 0.00010867 -0.021869 6.6186e-06 0.005649
381 0.16037 0.005136 0.0001734 0.0003226 -0.38509 -0.011805 0.00021577 -0.042588 2.4583e-05 -0.004163 0.059175 0.001913 7.1059e-05 0.00013371 -0.16242 -0.0062902 0.00011031 -0.021657 1.3807e-05 -0.0015776
382 0.16033 0.0051597 0.00018401 0.00034506 -0.41655 -0.017708 -2.1698e-06 0.004191 1.3028e-05 -0.020491 0.030664 0.00099217 3.7064e-05 6.9767e-05 -0.084746 -0.0035435 1.1017e-05 -0.0015149 2.475e-06 -0.0028539
383 0.15158 0.0048913 0.00018013 0.00033936 -0.4126 -0.016425 0.00038954 -0.077652 4.6144e-05 0.00033105 0.094773 0.0030771 0.00011987 0.00022713 -0.27853 -0.011702 0.00028673 -0.05711 3.366e-05 2.0138e-05
384 0.15848 0.0051073 0.00018481 0.00034712 -0.42002 -0.010704 0.00037766 -0.072828 4.2199e-05 -0.0042849 0.023787 0.00077105 2.9399e-05 5.5501e-05 -0.067689 -0.0020581 5.5547e-05 -0.010602 5.3434e-06 -0.00049091
385 0.16126 0.0051893 0.0001843 0.00034517 -0.41583 -0.0094168 0.00032469 -0.062945 4.1734e-05 -0.0015909 0.023085 0.00074726 2.8014e-05 5.274e-05 -0.064068 -0.0017549 4.6198e-05 -0.0088713 5.1268e-06 -5.2128e-05
