42 20
0 9.8717 0.38763 -1.351 0.36831 0.2055 -0.22861 -0.099319 0.088533 -0.13915 -0.15808 9.8564 0.38858 -1.3497 0.36759 0.2055 -0.22811 -0.099186 0.08846 -0.13948 -0.15772
1 9.8841 0.31041 -1.0732 0.30571 0.080403 -0.16358 -0.067622 0.046317 0.20994 0.25283 9.8687 0.31166 -1.0719 0.30469 0.080654 -0.16283 -0.067391 0.046245 0.20937 0.25466
2 9.8792 0.3248 -1.193 0.28939 0.22469 -0.1074 -0.046379 0.046364 -0.31076 -0.23553 9.8639 0.3259 -1.1919 0.28862 0.22469 -0.10682 -0.046228 0.046366 -0.31053 -0.23671
3 9.8792 0.3248 -1.193 0.28939 0.22469 -0.1074 -0.046379 0.046364 -0.31076 -0.23553 9.8639 0.3259 -1.1919 0.28862 0.22469 -0.10682 -0.046228 0.046366 -0.31053 -0.23671
4 9.8859 0.43508 -1.0734 0.25211 0.087825 -0.22754 -0.068462 0.037319 0.12208 -0.046534 9.926 0.43879 -1.0786 0.25283 0.088401 -0.22848 -0.068825 0.037586 0.12214 -0.044671
5 9.9081 0.058295 -0.29351 -0.051796 0.090883 0.30523 0.1343 -0.11441 -0.19849 0.22451 10.076 0.061646 -0.30001 -0.05424 0.093613 0.31524 0.13935 -0.11957 -0.20796 0.25825
6 9.8944 0.25767 -0.66741 0.26973 -0.18242 -0.20652 -0.072778 0.02636 0.51216 0.35102 9.9011 0.26033 -0.66808 0.26856 -0.18181 -0.20633 -0.072625 0.026085 0.51123 0.33732
7 9.9032 0.70334 0.010188 -0.33043 -0.22156 -0.25922 0.054198 -0.09981 0.39304 -0.093086 9.9972 0.71397 0.010962 -0.33635 -0.22592 -0.26342 0.054657 -0.10245 0.41086 -0.099746
8 9.8786 -0.71654 0.19944 0.39631 -0.40229 0.0053316 -0.16566 -0.077902 -0.065314 0.022439 9.9632 -0.71988 0.20057 0.39744 -0.40317 0.005119 -0.16755 -0.079027 -0.066289 0.013648
9 9.8921 -0.12709 0.054987 -0.35975 0.068325 -0.34809 0.63084 -0.46014 -0.2499 0.16544 9.8767 -0.12521 0.054687 -0.35939 0.068576 -0.34668 0.62919 -0.45775 -0.24857 0.16161
10 9.8945 0.061226 -0.31968 -0.058925 0.10606 0.37762 0.18053 -0.16951 -0.3172 0.46421 9.7431 0.062367 -0.31529 -0.059106 0.10491 0.3731 0.17807 -0.16682 -0.31106 0.45175
11 9.8799 -0.68696 0.13974 0.43227 -0.4075 0.33143 0.1131 -0.012046 0.064222 -0.10342 9.9646 -0.68995 0.14008 0.43386 -0.40849 0.33556 0.11504 -0.012196 0.065059 -0.11006
12 9.8939 0.45564 -0.12207 -0.75811 -0.4196 0.18487 -0.12033 0.023085 0.0086147 -0.0033579 9.8786 0.45769 -0.12217 -0.7601 -0.42078 0.18614 -0.12135 0.023658 0.008435 -0.0040085
13 9.8925 0.49707 -0.14398 -0.98524 -0.58751 0.31316 -0.30184 0.1559 -0.12129 0.0045806 9.8994 0.50088 -0.14482 -0.99358 -0.59312 0.31744 -0.3072 0.15984 -0.12523 0.0046353
14 9.8907 -0.17504 -0.23198 0.015413 0.31893 1.0633 0.43267 -0.22836 0.18006 -0.19578 9.807 -0.17177 -0.23074 0.014453 0.3172 1.0571 0.43003 -0.22656 0.17963 -0.19303
15 9.897 -0.082586 0.15898 -0.50571 0.12546 -0.38472 0.24264 -0.40609 -0.10269 0.026024 9.9503 -0.081423 0.16001 -0.50919 0.12632 -0.38713 0.24365 -0.41038 -0.10359 0.031049
16 9.88 -0.68015 0.18081 0.34576 -0.34363 -0.016225 -0.14822 -0.094924 -0.034665 0.01523 9.9447 -0.68181 0.18144 0.34554 -0.34293 -0.016764 -0.1498 -0.096038 -0.035284 0.0062156
17 9.889 -0.56251 0.25021 -0.27423 0.5157 -0.21916 0.041126 0.33197 -0.065026 0.060039 9.9421 -0.56455 0.25188 -0.27685 0.52015 -0.2218 0.042347 0.3396 -0.065897 0.043801
18 9.8734 1.2698 0.60048 0.36498 0.13356 0.07899 -0.011914 0.0099345 -0.071434 0.037933 9.8983 1.2776 0.6042 0.36695 0.13441 0.079586 -0.012095 0.010236 -0.072016 0.036782
19 9.8773 -0.68765 0.16629 0.44835 -0.52094 0.048765 -0.010669 0.046473 -0.070857 0.070115 9.9523 -0.68975 0.16677 0.44937 -0.52246 0.049091 -0.01039 0.04692 -0.071729 0.062157
20 9.89 -0.40076 -0.08311 0.070789 0.35018 1.0096 0.33453 -0.11017 0.26087 -0.22986 9.8745 -0.39818 -0.084026 0.069571 0.35139 1.0127 0.33668 -0.11256 0.2613 -0.2378
21 9.8886 -0.55363 0.15012 -0.22951 0.75843 0.31637 -0.056388 0.17166 0.17636 -0.003307 9.9286 -0.55493 0.15067 -0.23106 0.76287 0.31895 -0.056898 0.17207 0.17809 0.0025659
22 9.8869 -0.50558 0.12294 -0.24923 0.81383 0.14998 -0.35973 0.10668 0.07539 0.24053 9.8714 -0.50375 0.12281 -0.24947 0.81327 0.1495 -0.36013 0.10652 0.07536 0.22885
23 9.8805 -0.71958 0.21594 0.32383 -0.28634 -0.03359 -0.12958 0.047045 -0.073029 0.044595 9.9651 -0.72312 0.21727 0.32464 -0.2867 -0.034114 -0.13127 0.04638 -0.074099 0.037055
24 9.8945 -0.50743 0.29176 -0.14395 -0.052894 -0.34127 0.32082 0.2247 -0.019596 -0.11547 10.039 -0.51362 0.29686 -0.14849 -0.05228 -0.35066 0.3313 0.23556 -0.021532 -0.14014
25 9.8968 0.25232 -0.0031832 -0.74687 -0.34087 -0.015217 0.00087951 -0.0015005 -0.057814 -0.059895 9.9216 0.25547 -0.0034602 -0.75166 -0.34342 -0.013747 -0.00065801 0.00020192 -0.05794 -0.061169
26 9.8958 0.058661 0.080218 -0.37476 0.0080705 -0.37762 0.57171 -0.447 -0.07128 0.10152 9.9025 0.060673 0.08029 -0.37558 0.0081454 -0.37759 0.57229 -0.44696 -0.07146 0.10224
27 9.8812 -0.57263 -0.014856 0.45852 -0.45475 -0.12706 -0.063847 0.082304 0.31009 0.23382 9.9208 -0.57177 -0.015637 0.45765 -0.45355 -0.12822 -0.063451 0.083019 0.31213 0.25276
28 9.865 1.3792 0.64676 0.29209 0.059051 -0.06467 -0.033077 0.020366 0.071261 -0.060495 9.8499 1.3817 0.648 0.29247 0.059081 -0.064401 -0.033398 0.020695 0.070407 -0.05917
29 9.8901 0.74376 0.011326 -0.38293 -0.26507 -0.33103 0.075716 -0.15582 0.67127 -0.20289 9.7389 0.73525 0.011722 -0.37839 -0.26198 -0.32587 0.074127 -0.15316 0.66035 -0.19724
30 9.8728 -0.74696 0.24808 0.38392 -0.45865 -0.0043165 0.0097957 0.045588 -0.073573 -0.071354 9.8972 -0.74541 0.24779 0.38183 -0.45636 -0.0049038 0.010569 0.046058 -0.073077 -0.062369
31 9.8854 -0.72325 0.34204 -0.12448 0.42887 -0.20506 -0.55758 -0.37016 -0.0098303 -0.088816 9.9502 -0.72749 0.3452 -0.12703 0.43612 -0.20862 -0.57125 -0.38287 -0.0098593 -0.089787
32 9.8684 -0.77558 0.21392 0.50689 -0.52913 0.14289 -0.079768 -0.0051069 -0.070653 -0.0061513 9.8527 -0.77067 0.21249 0.50276 -0.52451 0.14213 -0.079083 -0.0051787 -0.069782 0.0011147
33 9.8728 -0.74696 0.24808 0.38392 -0.45865 -0.0043165 0.0097957 0.045588 -0.073573 -0.071354 9.8972 -0.74541 0.24779 0.38183 -0.45636 -0.0049038 0.010569 0.046058 -0.073077 -0.062369
34 9.8795 0.52657 -0.15961 -1.1466 -0.7063 0.40315 -0.42761 0.24677 -0.20947 0.0098861 9.7285 0.52168 -0.15779 -1.1351 -0.69943 0.39972 -0.42388 0.24449 -0.20726 0.0097203
35 9.8819 -0.6148 0.25621 -0.3107 0.77186 -0.0071122 -0.049353 0.46912 0.13004 0.17471 9.8664 -0.61259 0.25573 -0.31063 0.77083 -0.0072559 -0.049402 0.46734 0.12958 0.18601
36 9.881 -0.58946 0.31978 -0.26455 0.31924 -0.40011 0.27941 0.53634 -0.085273 -0.084518 9.7973 -0.58281 0.31693 -0.263 0.31683 -0.39693 0.27714 0.53034 -0.084219 -0.074276
37 9.8499 1.474 0.76358 0.45845 0.152 0.03768 -0.047769 0.050944 -0.090279 -0.0018954 9.8066 1.4722 0.76255 0.45759 0.15174 0.03772 -0.047776 0.050968 -0.090254 -0.0020845
38 9.8461 1.4978 0.79599 0.50892 0.18125 0.071259 -0.052923 0.062717 -0.15565 0.024581 9.8028 1.4961 0.795 0.50806 0.18099 0.071184 -0.052923 0.062735 -0.15543 0.024385
39 9.8499 1.474 0.76358 0.45845 0.152 0.03768 -0.047769 0.050944 -0.090279 -0.0018954 9.8066 1.4722 0.76255 0.45759 0.15174 0.03772 -0.047776 0.050968 -0.090254 -0.0020845
40 9.8811 -0.5339 0.31984 -0.1651 -0.062076 -0.42849 0.43985 0.34225 -0.032906 -0.25631 9.7298 -0.52382 0.31486 -0.16398 -0.059755 -0.42266 0.43336 0.3374 -0.032647 -0.24855
41 9.8726 -0.76982 0.38249 -0.14687 0.52367 -0.26922 -0.81127 -0.60626 -0.01736 -0.20027 9.7214 -0.75696 0.37689 -0.14572 0.51781 -0.26577 -0.80103 -0.5978 -0.016989 -0.19569
