543 20
0 0.090666 0.2093 -0.22202 0.063328 0.03367 4.4454e-05 -4.7694e-05 -0.0014812 0.0010044 0.012014 0.10379 0.23946 -0.25637 0.077765 -0.039753 3.008e-05 1.6497e-05 -0.0017523 0.0011603 0.010469
1 0.081171 0.18494 -0.15814 0.042029 0.044322 5.6465e-06 0.00037547 0.0020494 0.00030831 0.029301 0.16007 0.3664 -0.35091 0.075278 0.088827 5.6114e-07 0.00021834 0.012549 -0.0029704 0.181
2 0.09091 0.20991 -0.22157 0.062197 0.047077 4.0156e-05 -2.2601e-05 -0.00066274 0.00082987 0.050803 0.061748 0.14243 -0.15147 0.040525 0.0214 2.2567e-05 1.2647e-06 -0.0003633 0.00052669 0.03942
3 0.090771 0.20926 -0.22129 0.056051 0.051962 4.0481e-05 -1.8883e-05 -0.00083072 0.0005656 0.014193 0.12799 0.29437 -0.31221 0.067806 0.057066 4.1788e-05 6.2177e-05 -0.00075679 0.00050376 0.025561
4 0.089432 0.20611 -0.21628 0.05398 0.052927 3.3889e-05 1.8642e-05 -0.00082387 0.00066582 0.042376 0.13869 0.31927 -0.33706 0.077186 0.074805 4.6081e-05 0.00019018 -0.0011644 0.0011884 0.20282
5 0.084534 0.19308 -0.16286 0.053525 0.04413 1.2793e-06 0.0010695 -0.0052345 0.004166 0.064019 0.023328 0.053621 -0.053051 0.015144 0.010054 5.9168e-06 0.00010261 -0.00031925 0.00041224 0.019099
6 0.092525 0.21378 -0.23005 0.065973 0.044102 5.6662e-05 -0.00012315 -0.0018491 0.00081837 -0.022242 0.092174 0.21253 -0.2289 0.062649 0.01934 4.9089e-05 -8.1163e-05 -0.0016929 0.00068209 -0.023361
7 0.090854 0.20873 -0.22155 0.042206 0.05084 2.9359e-05 -0.0002766 -0.0012971 0.00083661 0.0058171 0.14882 0.34075 -0.3632 0.034039 0.06276 -1.8875e-05 -8.3344e-05 -0.0018753 0.001184 0.016439
8 0.0901 0.20821 -0.22378 0.069012 0.017563 5.3286e-05 -3.9721e-05 -0.0015503 0.00029615 -0.05171 0.051332 0.11861 -0.12824 0.045499 -0.05422 1.2693e-05 1.7178e-05 -0.00071296 -9.6411e-05 -0.042995
9 0.091504 0.21125 -0.22555 0.063296 0.047441 5.4392e-05 -8.9139e-05 -0.0014017 0.00079195 0.0021034 0.12713 0.29292 -0.31387 0.083546 0.039499 7.0625e-05 -7.738e-05 -0.0017773 0.00095046 0.0052553
10 0.084017 0.19481 -0.21108 0.093077 -0.20912 -1.4316e-05 -1.4911e-05 -0.001099 0.00061674 -0.0020416 0.024364 0.056906 -0.063635 0.047767 -0.23488 -5.1499e-05 1.067e-05 -2.9629e-05 1.7081e-05 -0.0033137
11 0.090596 0.20924 -0.22508 0.062902 0.047307 5.65e-05 -9.7459e-05 -0.0018252 0.00073411 -0.027751 0.070869 0.16338 -0.1758 0.046244 0.026751 3.8854e-05 -1.4082e-05 -0.0012101 0.00013562 -0.04681
12 0.090356 0.20715 -0.21901 0.033208 0.050511 1.7439e-05 -0.00036131 -0.001156 0.00083986 0.0099319 0.1454 0.33196 -0.3527 0.0024137 0.063364 -6.9633e-05 -0.00039764 -0.0015877 0.0013398 0.029498
13 0.09086 0.20866 -0.22159 0.040585 0.051304 2.839e-05 -0.00030115 -0.0014221 0.00078259 -0.018319 0.14072 0.3222 -0.34406 0.030343 0.064733 -1.9895e-05 -0.0001024 -0.0021615 0.00080719 -0.084057
14 0.089641 0.20675 -0.2168 0.061385 0.048059 5.0164e-05 -7.9112e-05 -0.00048059 0.00044554 0.022186 0.15271 0.35179 -0.37093 0.10237 0.060474 8.371e-05 -6.8967e-05 0.0007285 0.00033893 0.16659
15 0.089633 0.20571 -0.21735 0.037723 0.047649 2.1121e-05 -0.00030689 -0.0010522 0.00081493 0.015663 0.17056 0.39013 -0.41461 0.022661 0.068373 -5.7604e-05 -0.00038248 -0.0017319 0.0015848 0.049455
16 0.092151 0.21278 -0.22908 0.063474 0.046472 5.8398e-05 -0.00012779 -0.0019524 0.00084705 -0.025519 0.1009 0.23244 -0.25045 0.064928 0.030898 5.8826e-05 -7.2613e-05 -0.0019884 0.00070051 -0.038542
17 0.090952 0.20967 -0.22082 0.056371 0.052916 3.8855e-05 4.7075e-05 -0.00095625 0.000746 0.024184 0.10954 0.25206 -0.26707 0.061394 0.050827 3.8144e-05 0.00017608 -0.0010473 0.00094792 0.047627
18 0.092944 0.21453 -0.23115 0.060686 0.053127 5.6832e-05 -0.00016501 -0.0021158 0.0011011 -0.01775 0.045479 0.10467 -0.11276 0.02649 0.019486 2.5675e-05 -5.5671e-05 -0.00095801 0.00045962 -0.010896
19 0.089811 0.20712 -0.21766 0.054472 0.052558 2.7763e-05 4.765e-05 -0.00074875 0.00067116 0.027383 0.12782 0.29446 -0.31171 0.068821 0.064264 1.8147e-05 0.00021365 -0.00084608 0.00094492 0.054708
20 0.091762 0.21166 -0.2251 0.058885 0.049983 4.6374e-05 -9.3498e-05 -0.0012363 0.00081485 0.016934 0.1193 0.27452 -0.29291 0.067401 0.043872 4.8504e-05 -8.4595e-05 -0.0014389 0.00095331 0.028185
21 0.091547 0.21152 -0.22758 0.064645 0.04835 5.6721e-05 -0.00011661 -0.0018548 0.00083663 -0.023533 0.1014 0.23389 -0.2521 0.06902 0.034793 5.7575e-05 -8.4356e-05 -0.0019325 0.00084627 -0.022576
22 0.091622 0.21149 -0.22572 0.06277 0.048368 5.4383e-05 -8.7948e-05 -0.0014025 0.00069942 -0.0086471 0.1194 0.27501 -0.29422 0.076217 0.041459 6.5055e-05 -5.9278e-05 -0.0015572 0.00050808 -0.0259
23 0.091928 0.21231 -0.22883 0.067192 0.013694 5.078e-05 -0.00013642 -0.0018749 0.00085385 -0.018991 0.099329 0.22933 -0.24901 0.091059 -0.19324 -5.1568e-07 -7.979e-05 -0.0015203 0.00064601 -0.019236
24 0.090244 0.20676 -0.22128 0.05857 0.049516 8.9716e-05 -4.028e-05 -0.0016158 0.0005651 -0.031294 0.1381 0.31263 -0.33437 0.083332 0.058097 0.00034989 3.4076e-05 -0.0028098 0.00059087 -0.079611
25 0.089582 0.20698 -0.22006 0.069162 0.0078313 4.2868e-05 -3.1461e-05 -0.0009575 0.00076241 0.028753 0.11927 0.2759 -0.29765 0.12044 -0.25371 -1.1185e-05 3.1696e-06 -0.00090293 0.00076937 0.033356
26 0.090288 0.20838 -0.22223 0.059497 0.053258 4.9206e-05 -0.00010059 -0.0014273 0.00080189 -0.0035199 0.1683 0.38845 -0.41847 0.1132 0.10098 9.9489e-05 -0.00021371 -0.0038521 0.0018392 -0.097412
27 0.088395 0.20361 -0.2094 0.056891 0.052281 3.9347e-05 -2.9919e-05 0.00051301 8.381e-05 0.055658 0.10414 0.23971 -0.24898 0.06571 0.056481 4.9575e-05 4.2842e-05 0.0014793 -6.8299e-05 0.19658
28 0.089272 0.20419 -0.20655 0.016027 0.060942 -4.8395e-05 0.00033434 0.0016495 -0.0010216 -0.054274 0.020618 0.047005 -0.048391 -0.0041475 0.012972 -2.6396e-05 0.00010424 0.00044741 -0.00029428 -0.012319
29 0.090696 0.20923 -0.21896 0.058711 0.048563 3.2061e-05 -2.0497e-05 -5.5462e-05 0.0006946 0.072135 0.046494 0.10716 -0.11325 0.028573 0.017269 1.2727e-05 -3.711e-07 2.5354e-05 0.00033664 0.040284
30 0.087417 0.20152 -0.21253 0.055925 0.063735 5.0182e-05 -2.6128e-05 -0.00093024 -0.00030591 -0.12996 0.054267 0.12535 -0.13477 0.037345 0.049787 3.5874e-05 -2.5272e-05 -0.0011312 -0.00082261 -0.23505
31 0.091442 0.21108 -0.22503 0.062204 0.051508 5.3064e-05 -8.1972e-05 -0.0012877 0.00074589 0.0040542 0.13599 0.31333 -0.33533 0.086973 0.057586 7.4324e-05 -7.4868e-05 -0.0017456 0.00093128 0.00045682
32 0.054695 0.11298 0.124 0.0039612 -0.00047051 -0.00015469 0.0029543 -0.031434 0.010689 0.0021163 0.061829 0.12721 0.12545 0.005157 0.0011983 -9.1704e-05 -3.2596e-05 -0.028682 0.0015132 0.0047568
33 0.087475 0.20093 -0.21138 0.041031 0.051115 2.579e-05 -0.00019455 -0.00092295 -4.7219e-05 -0.052568 0.1941 0.44554 -0.46955 0.062319 0.11986 -2.9383e-05 0.00013141 -0.00099535 -0.0052522 -0.47957
34 0.089914 0.20723 -0.21205 0.060355 0.04964 3.5778e-05 0.00012063 -0.0010264 0.00088285 0.031501 0.054916 0.12648 -0.13077 0.035816 0.02335 1.9256e-05 0.0001812 -0.0010617 0.00084535 0.030245
35 0.09118 0.21031 -0.21945 0.064978 0.057191 5.9626e-05 5.0335e-05 -9.1119e-05 0.00056103 0.062481 0.041073 0.094516 -0.099282 0.027281 0.021858 2.8502e-05 3.1223e-05 8.682e-06 0.00021657 0.029415
36 0.088399 0.20075 -0.20842 -0.0085991 0.051716 -4.3817e-05 -0.00073922 -0.00056174 0.00094804 0.029516 0.077503 0.17515 -0.18431 -0.062611 0.043043 -0.00015213 -0.00077876 -0.00056342 0.0012211 0.044579
37 0.055659 0.12177 -0.01351 0.016115 0.02511 -4.5142e-05 -0.00052706 0.022776 -0.011168 -0.0044032 0.04273 0.09472 -0.03256 0.013039 0.026012 -3.6558e-05 -0.00051229 0.02774 -0.012342 -0.038406
38 0.092048 0.21198 -0.22334 0.045321 0.060686 1.2761e-05 -2.0795e-05 -0.00054112 0.00072486 0.044951 0.065935 0.15146 -0.16044 0.021428 0.038803 -9.7994e-06 3.1181e-05 -0.00026301 0.00043782 0.035763
39 0.052168 0.11147 0.041828 0.013663 0.015252 -7.1781e-05 0.00033199 0.039202 -0.008664 0.016503 0.019086 0.041417 0.0027415 0.006551 0.0085792 -1.8002e-05 -0.00031045 0.020986 -0.0069791 0.0067876
40 0.052227 0.11272 0.019065 0.017308 0.018447 -4.4661e-05 -0.00067432 0.026566 -0.01232 0.018331 0.027928 0.061003 -0.0028717 0.011145 0.013022 -2.1178e-05 -0.00059044 0.026607 -0.010536 0.011318
41 0.08989 0.20755 -0.21828 0.060652 0.057735 3.9394e-05 -1.1785e-05 -0.00059124 0.00090564 0.050621 0.052973 0.12264 -0.13154 0.040944 0.040868 2.8899e-05 -5.5189e-06 -0.00056434 0.00098179 0.076319
42 0.049815 0.10492 0.051376 0.011744 0.012641 -3.3055e-05 7.8554e-05 0.019289 -0.008278 0.011824 0.029064 0.061703 0.013319 0.0093418 0.011724 1.3764e-05 -0.00042777 0.025983 -0.010329 0.0089044
43 0.054594 0.1128 0.12382 0.0033356 -0.00056192 -0.00016812 0.004601 -0.021113 0.015621 0.0016162 0.065696 0.13537 0.13432 0.004159 0.00091304 -0.00014964 0.0043562 -0.013619 0.014483 0.0041938
44 0.054142 0.11142 0.12087 0.0033555 -0.00015957 -0.00013541 0.0041106 -0.016427 0.013279 0.00024538 0.071543 0.1453 0.13893 0.005587 0.0028382 -1.3688e-05 0.0041654 -0.0073444 0.012069 -0.001286
45 0.090681 0.20926 -0.22301 0.05977 0.050013 4.7664e-05 -1.9743e-05 -0.0012126 0.00059345 -0.0071396 0.14927 0.34385 -0.36799 0.0915 0.059491 6.864e-05 8.006e-05 -0.0018308 0.00061823 -0.035127
46 0.0906 0.20886 -0.22004 0.060197 0.050088 5.3546e-05 -3.045e-06 -0.00058202 0.00047209 0.02238 0.065737 0.15117 -0.15987 0.039827 0.027192 3.6804e-05 4.0097e-05 -0.00014036 -2.3287e-05 0.0020205
47 0.048502 0.1037 0.037193 0.013325 0.01507 -6.104e-05 -8.9462e-05 0.048527 -0.011542 0.015788 0.026911 0.05818 0.0107 0.0090795 0.011421 -4.0361e-05 8.5502e-05 0.046122 -0.0096195 0.009927
48 0.089561 0.20629 -0.21182 0.061582 0.050254 5.2452e-05 -3.9848e-05 0.00091233 -0.00015612 0.031781 0.078707 0.18092 -0.18678 0.051018 0.032902 4.6143e-05 -2.6781e-05 0.0019457 -0.0006058 0.03611
49 0.08242 0.18996 -0.19331 0.057668 0.061216 4.5136e-05 0.00010365 0.0018046 0.00043657 0.34441 0.035855 0.083268 -0.088446 0.035906 0.04457 4.1955e-05 9.436e-05 0.0017076 0.00070567 0.67329
50 0.084809 0.19278 -0.19596 -0.011251 0.049087 -8.5759e-05 0.00067009 0.0010613 -0.00088325 -0.032789 0.1196 0.27093 -0.27948 -0.097271 0.068491 -0.00035245 0.0036767 0.002903 -0.0037727 -0.19104
51 0.055319 0.11043 0.12127 0.0033428 -0.00046371 -7.4455e-06 0.0041389 -0.018535 0.01212 0.0017889 0.065571 0.12368 0.12352 0.0044406 0.0011755 0.00048361 0.0031923 0.045107 -8.1337e-05 0.0041838
52 0.091243 0.21025 -0.22156 0.048672 0.060092 1.9348e-05 -2.5844e-06 -0.00046282 0.00072594 0.072027 0.077565 0.17849 -0.18933 0.033714 0.050641 3.7123e-06 5.8387e-05 0.00011144 0.00062051 0.18319
53 0.086158 0.19328 -0.19249 -0.048968 0.046118 -9.7302e-05 -0.00093634 0.0010597 7.1885e-05 0.0014626 0.035169 0.078662 -0.080144 -0.045336 0.016922 -0.0001007 5.263e-05 0.00072943 -0.00033603 -0.010443
54 0.08998 0.20576 -0.21733 0.060077 0.049898 0.00010145 -5.1786e-05 -0.001448 0.00074767 0.019333 0.12241 0.27651 -0.29248 0.081467 0.059841 0.00036417 3.1874e-05 -0.0025134 0.00143 0.14248
55 0.09281 0.21439 -0.2309 0.064164 0.05044 5.7091e-05 -0.00013461 -0.0019214 0.00081996 -0.02983 0.076063 0.17527 -0.18877 0.048246 0.028065 4.1606e-05 -7.6298e-05 -0.0014589 0.00057292 -0.024891
56 0.07992 0.18262 -0.17494 0.032794 0.052184 7.6097e-06 0.0001279 0.0027247 -0.0020459 -0.014106 0.047045 0.10746 -0.1045 0.013873 0.034175 -5.8951e-06 9.8704e-05 0.0020917 -0.0022725 -0.050918
57 0.079735 0.18076 -0.13799 0.045575 0.045359 1.6948e-05 0.001168 -0.0075227 0.0041508 0.050578 0.017179 0.03924 -0.037776 0.010108 0.010872 1.2981e-05 8.5143e-05 -0.00031544 0.00010692 0.0088191
58 0.082749 0.19066 -0.20016 0.061377 0.061182 8.3163e-05 4.8544e-05 1.6806e-05 0.00085045 0.3446 0.036477 0.084578 -0.091148 0.038092 0.044709 6.5061e-05 7.1725e-05 0.00055573 0.0010037 0.67314
59 0.092863 0.21453 -0.23103 0.064336 0.052175 5.7766e-05 -0.0001269 -0.0019858 0.00087561 -0.023755 0.087445 0.20152 -0.21701 0.055659 0.034513 4.873e-05 -8.0664e-05 -0.0017304 0.0007066 -0.023186
60 0.054246 0.11202 0.12457 0.0032998 -0.00092602 -0.0001708 0.0049278 -0.028788 0.017594 0.00079242 0.078302 0.1615 0.15948 0.0066316 0.0014515 -0.00018606 0.0063615 -0.034539 0.023319 0.007568
61 0.092861 0.21436 -0.23098 0.063067 0.051768 6.2661e-05 -0.00015863 -0.0020577 0.00089497 -0.027329 0.090823 0.20954 -0.22739 0.064129 0.045522 7.3291e-05 -0.00017448 -0.0028734 0.0012603 -0.051072
62 0.092472 0.21363 -0.23043 0.064692 0.048888 5.891e-05 -0.00014367 -0.002054 0.00081627 -0.039059 0.080763 0.18617 -0.2009 0.053139 0.025309 4.6007e-05 -8.7156e-05 -0.0016846 0.00059493 -0.036329
63 0.092626 0.21407 -0.23107 0.067228 0.050419 6.4776e-05 -0.00013039 -0.0021172 0.00082366 -0.042401 0.068921 0.15892 -0.17158 0.047161 0.025404 4.5432e-05 -7.5332e-05 -0.0015027 0.00055575 -0.030467
64 0.075864 0.14327 -0.11297 -0.28569 -0.010391 0.00014042 -0.011874 -0.0026304 0.0043745 -0.010001 0.13393 0.26267 -0.24907 -1.1431 -0.1056 -0.0020189 0.0038023 0.0015943 0.00022624 0.011534
65 0.09208 0.21181 -0.22555 0.035453 0.060779 6.6321e-07 -0.00027986 -0.0012455 0.0011397 0.042829 0.031227 0.071604 -0.076362 0.005667 0.018503 -1.0389e-05 -8.0967e-05 -0.00033023 0.00035758 0.018876
66 0.08195 0.1883 -0.19608 0.037172 0.053235 1.0818e-05 0.00028504 0.0001458 -0.0022591 -0.18742 0.045569 0.10482 -0.10938 0.019602 0.033307 -4.702e-06 0.00023988 0.00054111 -0.0027348 -0.19115
67 0.072803 0.16934 -0.18611 0.11221 -0.47432 -9.4997e-05 -7.3697e-06 -0.00026604 0.00021381 0.0018029 0.07306 0.17217 -0.19852 0.22385 -1.4206 -0.00035746 8.3247e-05 0.0015431 -0.00067143 -0.0015428
68 0.081578 0.18736 -0.19337 0.038801 0.054081 1.8826e-05 0.00025845 0.00048691 -0.0020693 -0.13033 0.036504 0.083788 -0.08592 0.015313 0.02741 1.972e-06 0.00011266 0.00075476 -0.0022045 -0.11082
69 0.086855 0.20011 -0.21235 0.044259 0.056095 1.3056e-05 0.00028999 -0.00061508 -0.00099445 -0.12289 0.034425 0.07922 -0.084031 0.014518 0.02231 -2.0669e-06 0.00018763 -2.6034e-05 -0.00087356 -0.072558
70 0.086027 0.19024 -0.19426 -0.10253 0.035444 -0.00013406 -0.0023795 -0.0013044 0.0019085 0.031473 0.027152 0.060046 -0.062845 -0.060084 0.011727 -0.0001126 -0.00060759 -0.00044201 0.00081561 0.022315
71 0.084213 0.1943 -0.20784 0.049248 0.067362 3.3342e-05 -0.00012966 -0.0016644 -0.00071334 -0.24761 0.028462 0.065946 -0.071824 0.020612 0.031188 1.6807e-05 -4.6228e-05 -0.0009621 -0.00048106 -0.17775
72 0.050174 0.10722 0.038024 0.01474 0.014273 -5.2046e-05 -0.00035246 0.024371 -0.010718 0.013862 0.023148 0.050075 0.005931 0.0085 0.009377 -1.9554e-05 -0.0003752 0.02252 -0.0084325 0.0075306
73 0.092149 0.15196 -0.15053 0.049753 0.04183 0.0016264 -0.00017435 -0.004159 0.0021287 0.0089874 0.013784 0.02091 -0.01992 0.0069403 0.0055312 0.00048384 -8.289e-05 -0.0012965 0.00073402 0.0025198
74 0.098246 0.22748 -0.24597 0.076151 0.072881 7.1145e-05 -0.00017032 -0.0028582 0.0015232 -0.057291 0.0039638 0.0091588 -0.0098976 0.0028119 0.0025742 2.5402e-06 -5.6813e-06 -9.9584e-05 4.9494e-05 -0.0021734
75 0.08188 0.18924 -0.20297 0.056539 0.068125 4.834e-05 -0.00010713 -0.0019153 -0.00026435 -0.23546 0.023881 0.05543 -0.060626 0.019392 0.027566 1.7531e-05 -4.4809e-05 -0.00087771 -0.00039084 -0.15871
76 0.082064 0.18946 -0.2025 0.050972 0.06881 3.651e-05 -9.5714e-05 -0.0015779 -0.0010775 -0.28791 0.023986 0.055634 -0.060685 0.018526 0.027627 1.5822e-05 -4.0396e-05 -0.00084908 -0.00044098 -0.15927
77 0.054128 0.11153 0.12676 0.0030865 -0.0011528 -0.000145 0.0020489 -0.027201 0.0061725 0.00055013 0.068703 0.14028 0.15477 0.0034933 -0.00077497 -6.8777e-05 -0.0033811 -0.024585 -0.013344 0.00075038
78 0.054368 0.11226 0.12801 0.0031766 -0.001308 -0.0001877 0.0052295 -0.034582 0.019282 0.00084294 0.043338 0.088994 0.099178 0.0021916 -0.00081863 -0.000125 0.0035643 -0.024196 0.013362 0.00069935
79 0.05045 0.10406 0.10035 0.0054721 0.0031087 -4.4571e-05 -0.0034279 -0.0034116 -0.018241 0.002571 0.044192 0.091262 0.062247 0.0086816 0.0094782 6.8154e-05 -0.0068522 0.022275 -0.034296 0.0057965
80 0.053784 0.11099 0.12607 0.003174 -0.001117 -0.00017214 0.0043373 -0.019844 0.014568 0.00051641 0.048082 0.098672 0.10895 0.0026352 -0.00057153 -0.00012163 0.0029607 -0.007002 0.0094165 0.00056406
81 0.054204 0.11165 0.12683 0.0032748 -0.0011002 -0.00014942 0.003346 -0.027265 0.011779 0.0001337 0.064045 0.13065 0.14386 0.0038035 -0.00053606 -7.9417e-05 0.00087247 -0.024103 0.0039303 6.0276e-05
82 0.054206 0.1115 0.12682 0.0032216 -0.0011592 -0.00014176 0.0029365 -0.020885 0.0098148 0.00056004 0.064815 0.13141 0.14555 0.0036427 -0.00081897 -4.2612e-05 0.000393 0.0025523 0.00084674 0.0006984
83 0.054225 0.1119 0.12742 0.0030412 -0.0012414 -0.00017557 0.0046249 -0.028452 0.016338 0.00022009 0.079948 0.16398 0.18223 0.0038192 -0.0013396 -0.00020455 0.0053738 -0.031056 0.01899 -6.0998e-05
84 0.054238 0.11191 0.12745 0.0030927 -0.0012621 -0.00017651 0.0047769 -0.031582 0.017084 0.00070306 0.069786 0.14306 0.15905 0.0033785 -0.0012477 -0.00017864 0.0050428 -0.034534 0.018377 0.00093301
85 0.054158 0.11161 0.12703 0.0029044 -0.0012439 -0.0001601 0.0039853 -0.02215 0.013845 0.00018873 0.092082 0.18823 0.20918 0.0040508 -0.0015921 -0.0001742 0.0036278 -0.0080895 0.012593 0.00011768
86 0.054332 0.1121 0.1278 0.0033437 -0.0012533 -0.00017727 0.0049153 -0.032067 0.017712 0.0006872 0.066155 0.1356 0.15113 0.0037666 -0.0011601 -0.00016913 0.0049196 -0.033242 0.01807 0.00087224
87 0.053972 0.11124 0.12649 0.0031211 -0.0011735 -0.00015415 0.0030003 -0.029261 0.010104 0.0004872 0.088972 0.18182 0.20137 0.0045838 -0.0012751 -0.0001287 -0.0011752 -0.038512 -0.0047966 0.0009777
88 0.054347 0.11205 0.12752 0.0028833 -0.0012477 -0.00016752 0.0046336 -0.026601 0.016217 0.00012852 0.084231 0.17231 0.19131 0.0035614 -0.0014523 -0.00018424 0.0057661 -0.030904 0.020249 7.664e-05
89 0.053586 0.11053 0.1255 0.0028183 -0.0011557 -0.00016498 0.0040721 -0.019635 0.013481 0.00033153 0.070346 0.14425 0.15936 0.0031097 -0.00096233 -0.00016882 0.0041204 -0.011981 0.013038 0.00049856
90 0.054335 0.11196 0.12774 0.0034018 -0.0012453 -0.000153 0.0026869 -0.03303 0.0099759 0.00073063 0.045588 0.093059 0.10392 0.0026302 -0.00078988 -6.0622e-05 -0.00069956 -0.023599 -0.00061256 0.00061628
91 0.053999 0.11128 0.12652 0.0027948 -0.0012108 -0.00015357 0.0032325 -0.020955 0.010918 0.00016468 0.068502 0.14001 0.15534 0.0027457 -0.0011672 -0.00011485 0.0010203 -0.015969 0.0041876 0.00014977
92 0.054014 0.11099 0.12634 0.0028246 -0.0012287 -0.00014057 0.0038226 -0.022117 0.012969 4.6385e-05 0.098252 0.19781 0.22041 0.0041146 -0.0016768 4.9641e-05 0.0040183 -0.025481 0.012234 -0.00047272
93 0.054232 0.1119 0.12755 0.0029259 -0.0012918 -0.00017488 0.0045857 -0.026953 0.016071 0.00021504 0.068121 0.13974 0.1558 0.0030662 -0.0012529 -0.00017784 0.0046116 -0.021863 0.015875 0.0001002
94 0.054309 0.11203 0.12766 0.0034059 -0.00122 -0.00017556 0.0048295 -0.03066 0.0172 0.00075514 0.03962 0.081199 0.090403 0.0023353 -0.00065356 -0.00010057 0.0029307 -0.017725 0.010538 0.00054445
95 0.054293 0.11207 0.12752 0.0030501 -0.0012289 -0.00017911 0.0046968 -0.027165 0.016545 0.00048272 0.062289 0.1279 0.14162 0.0031399 -0.00087172 -0.00017077 0.0046365 -0.0092558 0.01543 0.00078479
96 0.053642 0.11038 0.12538 0.002519 -0.001191 -0.00014012 0.0031256 -0.015523 0.010112 -0.00048259 0.069465 0.14159 0.15708 0.0023675 -0.0011528 -9.3241e-05 0.0013309 -0.0093689 0.0046111 -0.0016371
97 0.05417 0.11182 0.12736 0.0033918 -0.0012056 -0.00017916 0.0046661 -0.029413 0.016608 0.00078434 0.051385 0.10546 0.11721 0.00303 -0.00080518 -0.00013574 0.0035455 -0.021443 0.012738 0.00069017
98 0.054475 0.11233 0.12775 0.0027014 -0.0012577 -0.00016985 0.0047773 -0.027987 0.016858 -0.00040216 0.038904 0.079598 0.088186 0.0013876 -0.00064691 -8.4217e-05 0.0027832 -0.015547 0.0097055 -0.00113
99 0.054247 0.11183 0.12753 0.0034132 -0.0012514 -0.00016877 0.0045658 -0.0318 0.0164 0.00082926 0.027696 0.056671 0.063228 0.0016228 -0.00048751 -6.317e-05 0.0018219 -0.012665 0.006605 0.00041446
100 0.054237 0.11176 0.12742 0.0030031 -0.0012934 -0.00015875 0.0036634 -0.025937 0.013015 0.00043374 0.07356 0.1503 0.16757 0.003402 -0.0013783 -0.00012749 0.0016438 -0.02428 0.0071447 0.00052231
101 0.054085 0.11156 0.1272 0.0028805 -0.0013187 -0.00017521 0.0050457 -0.025659 0.017838 0.00033743 0.084576 0.1733 0.19336 0.0036437 -0.0016783 -0.00021648 0.0067241 -0.028065 0.023787 0.0005536
102 0.054747 0.11294 0.1287 0.0033626 -0.0012153 -0.00017079 0.0042991 -0.030141 0.015068 0.00040474 0.054842 0.11234 0.12493 0.0030843 -0.0008585 -0.00012417 0.0030408 -0.023874 0.010757 0.000381
103 0.054003 0.11142 0.12716 0.0031251 -0.0013353 -0.00018134 0.0053969 -0.033113 0.019873 0.00066831 0.051699 0.10602 0.11855 0.002649 -0.0010539 -0.00014419 0.0046662 -0.027598 0.017521 0.00067992
104 0.053907 0.1112 0.12633 0.0027965 -0.0011846 -0.00016719 0.0042176 -0.019448 0.013922 0.00015083 0.06587 0.13503 0.14953 0.002709 -0.001053 -0.00015863 0.0039961 -0.010999 0.0127 9.6535e-05
105 0.054296 0.11188 0.12746 0.0030026 -0.0012769 -0.0001719 0.0051775 -0.030147 0.018694 0.0002919 0.076494 0.1559 0.17323 0.0036907 -0.0012675 -0.00014919 0.006343 -0.035084 0.023295 0.000509
106 0.053777 0.11087 0.12623 0.0029794 -0.0012305 -0.00016839 0.0047026 -0.027466 0.016539 0.00026752 0.10937 0.22386 0.24904 0.0052039 -0.0019028 -0.00025757 0.0080131 -0.043166 0.028295 0.00045077
107 0.054281 0.11204 0.12769 0.0033706 -0.0012336 -0.00017995 0.0048084 -0.03148 0.017333 0.00073588 0.055162 0.11319 0.12595 0.0032014 -0.00090156 -0.00014596 0.0039502 -0.025345 0.014405 0.00069478
108 0.05414 0.11152 0.12642 0.002871 -0.0010781 -0.00014281 0.0025274 -0.019765 0.0075446 -0.00053893 0.081045 0.16546 0.18059 0.003878 -0.00036246 -8.1418e-05 -0.0024838 -0.013815 -0.011494 -0.0037508
109 0.053662 0.11053 0.12579 0.0029075 -0.0012167 -0.00015169 0.0033994 -0.02361 0.011338 0.00020061 0.10658 0.2176 0.24196 0.0049524 -0.0017623 -0.00016264 0.0011061 -0.017441 0.0016757 0.00037417
110 0.053766 0.11095 0.12579 0.0028163 -0.0011237 -0.000172 0.0045608 -0.01484 0.01508 0.00039048 0.05939 0.12195 0.13383 0.0027996 -0.00055322 -0.00015867 0.0045055 0.01342 0.013221 0.00087781
111 0.054386 0.10179 0.1164 0.0024727 -0.00076583 0.0005535 -0.028171 -0.013756 -0.071142 -0.00050224 0.072931 0.11635 0.13352 0.00062306 -0.00062519 0.0038888 -0.25 -0.01811 -0.7919 0.0011062
112 0.055128 0.11383 0.12979 0.003438 -0.0012949 -0.0001869 0.0049396 -0.035404 0.018027 0.00093308 0.030835 0.063281 0.07042 0.0017477 -0.00054247 -8.2305e-05 0.002128 -0.016562 0.0079132 0.00051618
113 0.05436 0.11209 0.12672 0.003047 -0.0010594 -0.00015756 0.0033622 -0.026558 0.011687 0.00052144 0.075819 0.15526 0.16725 0.0040498 7.6235e-06 -0.00012707 0.0010513 -0.024057 0.0038656 0.00147
114 0.053414 0.11021 0.12506 0.0031445 -0.0010779 -0.00016786 0.0042823 -0.014526 0.013876 0.00053487 0.048989 0.10054 0.11079 0.0027766 -0.00050848 -0.00012574 0.0034136 0.013382 0.0095695 0.00060805
115 0.054219 0.11172 0.12709 0.0033214 -0.0011376 -0.00016691 0.0046206 -0.027966 0.016243 0.00019515 0.056665 0.11538 0.12747 0.0034016 -0.0005864 -9.395e-05 0.0038221 -0.022008 0.013462 -0.00025038
116 0.054644 0.11271 0.12818 0.0027405 -0.0012843 -0.00017669 0.0052195 -0.024428 0.018348 0.00020295 0.067995 0.13937 0.15461 0.0022937 -0.0013087 -0.0001799 0.0059887 -0.022607 0.021427 9.4649e-05
117 0.054436 0.11228 0.12806 0.0033874 -0.0012488 -0.00015938 0.0027268 -0.031197 0.0083348 0.00077964 0.046283 0.09469 0.10568 0.0026599 -0.00079849 -7.028e-05 -0.0012265 -0.021244 -0.0063314 0.00072938
118 0.053762 0.1109 0.12601 0.0026667 -0.0012187 -0.00017182 0.0047841 -0.018654 0.016245 0.00030556 0.051432 0.10544 0.1168 0.0019759 -0.0008448 -0.00013231 0.0040208 -0.0075988 0.013337 0.00029889
119 0.054153 0.11159 0.12712 0.0033136 -0.0011937 -0.00014925 0.0025094 -0.028869 0.0081921 0.0004975 0.077839 0.15894 0.17698 0.0044116 -0.0012405 -9.272e-05 -0.0025202 -0.03169 -0.0096051 0.00078173
120 0.054583 0.11262 0.12835 0.0031982 -0.0012747 -0.00017705 0.0046027 -0.031542 0.016448 0.00057926 0.053691 0.11005 0.12255 0.0027149 -0.00096887 -0.00013547 0.0035463 -0.025328 0.012934 0.0005955
121 0.053915 0.11117 0.12629 0.0027184 -0.0012072 -0.00016592 0.004487 -0.021674 0.015259 2.9816e-05 0.090016 0.18444 0.20435 0.0033844 -0.0015168 -0.00022018 0.0064788 -0.023714 0.022129 -0.00054089
122 0.053909 0.11113 0.12641 0.0029187 -0.0011977 -0.00016632 0.0045782 -0.023097 0.01566 0.00012392 0.086038 0.17602 0.19529 0.0038767 -0.0013709 -0.00019203 0.0059532 -0.02376 0.020004 3.3056e-05
123 0.054319 0.11216 0.12623 0.0035754 -0.00085915 -0.00017035 0.0040179 -0.026999 0.013593 0.00066681 0.043126 0.088702 0.094096 0.0032203 0.0003822 -0.00010236 0.0021654 -0.01338 0.0066183 0.0013509
124 0.054296 0.11217 0.12465 0.0035364 -0.00075826 -0.00016976 0.0043933 -0.028208 0.01538 0.00074373 0.072655 0.15016 0.14351 0.0073779 0.003439 -0.00016195 0.0043425 -0.028143 0.015128 0.0072881
125 0.053911 0.11109 0.12503 0.0035635 -0.00082845 -0.00013112 0.0007761 -0.02919 0.00128 0.0009928 0.048742 0.099643 0.10535 0.0037106 0.0007086 -1.8451e-05 -0.004911 -0.01711 -0.019361 0.001982
126 0.053636 0.11052 0.12553 0.0033739 -0.0010519 -0.00015853 0.0039168 -0.025578 0.013124 0.00036715 0.052095 0.10644 0.11749 0.0032332 -0.00048028 -9.4414e-05 0.0026023 -0.015156 0.0079171 0.00017023
127 0.054454 0.11235 0.12809 0.0033776 -0.0012505 -0.0001768 0.0047469 -0.031849 0.017029 0.00076074 0.058889 0.12071 0.13451 0.0033775 -0.0010163 -0.00014814 0.0040994 -0.028261 0.014944 0.00085592
128 0.053531 0.11039 0.12565 0.0028554 -0.0012327 -0.00016555 0.0041932 -0.021866 0.013968 0.00019635 0.12117 0.24831 0.27671 0.0052423 -0.0022928 -0.00028512 0.006224 -0.02038 0.018645 0.00017267
129 0.053955 0.11133 0.12661 0.0031848 -0.0011686 -0.00017322 0.0045786 -0.027443 0.016062 0.00042103 0.084139 0.17263 0.19067 0.0047119 -0.00094766 -0.00021258 0.0055489 -0.029754 0.019011 0.0010174
130 0.054156 0.11142 0.1268 0.0033958 -0.0011465 -0.00012286 0.00048699 -0.029017 0.00019083 0.00076257 0.042452 0.086267 0.095836 0.0024713 -0.00061149 4.8033e-06 -0.0051076 -0.017074 -0.019034 0.00065526
131 0.053827 0.11106 0.12606 0.0029276 -0.0011414 -0.00016973 0.0043241 -0.018362 0.014377 0.00019238 0.055264 0.11338 0.12498 0.0025966 -0.00069244 -0.00013706 0.0034336 -0.0080586 0.010841 7.6709e-05
132 0.054622 0.11264 0.12846 0.003417 -0.0012806 -0.00017662 0.0050037 -0.034113 0.018299 0.0007968 0.024319 0.049801 0.055478 0.001415 -0.00041528 -6.0047e-05 0.001834 -0.011909 0.0067518 0.00027932
133 0.053974 0.11126 0.12634 0.0033524 -0.0010679 -0.0001532 0.0030052 -0.027095 0.010389 0.0003663 0.069283 0.14169 0.156 0.0042125 -0.00060096 -0.00010938 0.00028271 -0.024848 0.0015744 0.00034998
134 0.055037 0.11349 0.12921 0.003383 -0.0011895 -0.00016943 0.0044716 -0.030334 0.01569 0.00039346 0.03794 0.077623 0.086091 0.0021378 -0.00054482 -8.0921e-05 0.0022465 -0.016098 0.007914 0.00026019
135 0.053957 0.1112 0.12639 0.0029885 -0.001173 -0.00014956 0.0023475 -0.027211 0.0074289 0.00058114 0.081729 0.1673 0.18584 0.0043234 -0.001233 -0.00014292 -0.00086495 -0.043936 -0.0021319 0.0019866
136 0.053679 0.11075 0.12563 0.002661 -0.001163 -0.00017063 0.0045207 -0.017814 0.015092 0.00021061 0.045621 0.093571 0.10305 0.0017447 -0.00061883 -0.00011518 0.0031524 -0.0064392 0.01015 0.00023932
137 0.054522 0.11232 0.12799 0.0030664 -0.0012596 -0.0001449 0.0018587 -0.029821 0.0056704 0.00061913 0.059225 0.12077 0.13444 0.0027242 -0.0010378 -4.7177e-05 -0.0038477 -0.024982 -0.014302 0.00074601
138 0.054233 0.11191 0.12754 0.0030441 -0.0012813 -0.00017722 0.0048241 -0.030804 0.017289 0.00046786 0.078631 0.16125 0.17966 0.0037416 -0.0014665 -0.00020481 0.0057739 -0.037324 0.021063 0.00072179
139 0.054349 0.11176 0.12693 0.0034777 -0.0011016 -0.0001579 0.004593 -0.031246 0.016399 0.00064532 0.051106 0.10313 0.11285 0.0034882 -0.00021063 -3.1202e-05 0.0034168 -0.02441 0.012345 0.00021244
140 0.054667 0.11289 0.12897 0.003292 -0.0013807 -0.00019115 0.0054266 -0.035284 0.020256 0.00079541 0.02929 0.060155 0.067325 0.0015958 -0.00060725 -8.5565e-05 0.0024727 -0.01657 0.0094926 0.00043501
141 0.054029 0.11129 0.12681 0.0028969 -0.0012831 -0.00015562 0.0035681 -0.02524 0.012468 0.00036086 0.091242 0.18496 0.2066 0.0038573 -0.0017766 9.5893e-05 -0.016945 -0.031217 -0.059517 0.0010846
142 0.054583 0.11262 0.12824 0.0032101 -0.001255 -0.00017876 0.0047971 -0.031654 0.017194 0.00084647 0.0426 0.087324 0.097009 0.0021679 -0.00073736 -0.00010898 0.0030188 -0.020214 0.010997 0.00068347
143 0.054337 0.11198 0.12756 0.0028965 -0.0012854 -0.0001597 0.0037272 -0.028274 0.013349 0.00027115 0.080285 0.16407 0.18258 0.0033959 -0.0014825 -0.00014473 0.0021505 -0.032666 0.009366 0.00032883
144 0.054807 0.11311 0.12879 0.0030967 -0.0012722 -0.00017873 0.0045751 -0.03302 0.016424 0.00062699 0.053409 0.10951 0.12154 0.0024491 -0.0009328 -0.00013406 0.0033353 -0.027088 0.012271 0.00060901
145 0.053835 0.11095 0.12624 0.0027972 -0.0012397 -0.00015903 0.0038308 -0.025697 0.013465 0.0002201 0.10455 0.21392 0.23804 0.004107 -0.0019753 -0.00021668 0.0044648 -0.039925 0.017518 3.3994e-05
146 0.05373 0.11065 0.12586 0.0031729 -0.0011446 -0.00013501 0.0013476 -0.023749 0.003206 0.0006029 0.055472 0.11312 0.12572 0.0029585 -0.00083782 -3.86e-05 -0.0040176 -0.0088349 -0.016084 0.00066042
147 0.054021 0.11132 0.1259 0.0030138 -0.0010027 -0.00015887 0.0043858 -0.023348 0.014799 0.000207 0.093218 0.19063 0.2067 0.0049804 -0.00013685 -0.00017452 0.0056087 -0.020528 0.017123 0.00074514
148 0.054771 0.11298 0.12858 0.0028768 -0.0012835 -0.00017692 0.0050725 -0.027877 0.01799 0.00027479 0.064775 0.13271 0.14717 0.0026263 -0.0011405 -0.00016065 0.004951 -0.017535 0.017104 0.0002932
149 0.054551 0.11258 0.12815 0.0032246 -0.0012158 -0.00017727 0.0046886 -0.030756 0.016717 0.00051689 0.061705 0.12654 0.14041 0.003214 -0.00098085 -0.00015496 0.0041232 -0.028114 0.014818 0.00059838
150 0.054021 0.11144 0.12691 0.0030802 -0.0012388 -0.00017334 0.0047043 -0.028774 0.016626 0.00039282 0.096301 0.19739 0.21958 0.0047778 -0.0016808 -0.0002418 0.0068227 -0.04038 0.024301 0.00069645
151 0.054478 0.11239 0.12807 0.0030719 -0.0012947 -0.00017695 0.0047114 -0.032073 0.016925 0.00071192 0.059875 0.12272 0.1366 0.0028006 -0.0011201 -0.00015212 0.0041218 -0.029159 0.015106 0.00083566
152 0.054492 0.11242 0.12794 0.0029356 -0.0012592 -0.00017493 0.0046363 -0.029838 0.016422 0.00044812 0.066649 0.13659 0.15156 0.0028229 -0.0011657 -0.00016539 0.0044712 -0.028516 0.015974 0.00056613
153 0.054454 0.11224 0.1277 0.0032362 -0.0011848 -0.00016919 0.0043839 -0.030168 0.015456 0.00040507 0.069977 0.14264 0.15784 0.0038457 -0.00092814 -0.00012314 0.0041905 -0.032019 0.015099 0.00058023
154 0.053882 0.11102 0.12609 0.0026802 -0.0011955 -0.00015576 0.0038002 -0.02121 0.013074 -0.00051129 0.090261 0.18458 0.20369 0.0034444 -0.0012177 -0.00017043 0.0033668 -0.022493 0.012505 -0.0046848
155 0.053891 0.11108 0.1264 0.0031819 -0.0011677 -0.00016495 0.0041045 -0.027403 0.014139 0.00040201 0.049262 0.10075 0.11183 0.002637 -0.00070131 -0.0001035 0.0026646 -0.016526 0.0087789 0.00016478
156 0.05428 0.11182 0.12753 0.0033407 -0.0012235 -0.00014342 0.0017505 -0.030394 0.0053105 0.0006008 0.054991 0.11213 0.12516 0.0031004 -0.00090916 -4.0796e-05 -0.0038771 -0.024342 -0.014387 0.0006502
157 0.05433 0.11209 0.12778 0.0034192 -0.0012384 -0.00017599 0.0046459 -0.028773 0.016448 0.00086418 0.044718 0.091667 0.10216 0.0026435 -0.00076544 -0.00011357 0.0030748 -0.017752 0.010994 0.0007484
158 0.054151 0.11162 0.12739 0.0030306 -0.0013193 -0.0001722 0.0051102 -0.02913 0.018233 0.00029986 0.056232 0.11502 0.12861 0.0027455 -0.0010961 -0.00013144 0.0045776 -0.023961 0.016337 0.00030934
159 0.054024 0.11155 0.1268 0.0033597 -0.0011562 -0.00017882 0.0044339 -0.027835 0.015446 0.00090162 0.018438 0.037872 0.041963 0.0010732 -0.00027515 -4.9723e-05 0.001182 -0.0074376 0.0041517 0.00032919
160 0.054204 0.11182 0.1272 0.0033215 -0.0011449 -0.00016991 0.0043984 -0.028984 0.015418 0.0003076 0.063852 0.13085 0.14504 0.0036576 -0.0008843 -0.00015019 0.0039549 -0.027108 0.013969 0.00022551
161 0.053752 0.11087 0.12616 0.0029041 -0.0012296 -0.00017204 0.0047903 -0.025208 0.016817 0.00025631 0.10721 0.22012 0.24635 0.005407 -0.0022118 -0.00032668 0.010656 -0.060045 0.041243 0.0011847
162 0.053946 0.11116 0.12661 0.0033864 -0.0011978 -0.00016913 0.0045434 -0.031593 0.016247 0.00077686 0.060343 0.12302 0.13716 0.0038704 -0.00096908 -0.00012518 0.0049417 -0.037252 0.01922 0.0012762
163 0.054356 0.11214 0.12789 0.0028735 -0.0013572 -0.00018069 0.0052324 -0.03268 0.019132 0.00052912 0.066706 0.13673 0.15254 0.0027357 -0.0013878 -0.00017819 0.0055465 -0.034071 0.020665 0.00067543
164 0.071515 0.16282 -0.13791 0.033423 0.054436 5.6376e-06 -0.0008095 0.00092718 -0.0078212 -0.30414 0.016391 0.037395 -0.030475 0.0087723 0.016835 8.1564e-07 -0.00048471 0.00048729 -0.0045183 -0.14336
165 0.093259 0.21377 -0.2242 0.0087077 0.068338 -8.1751e-05 0.00095781 0.00046611 -0.0024604 -0.22318 0.0084236 0.019232 -0.020117 -0.0018303 0.0054498 -1.2899e-05 0.00013123 8.3495e-05 -0.00024321 -0.01711
166 0.087333 0.20039 -0.20999 0.017814 0.063678 -5.1897e-05 0.00075104 0.00042908 -0.0026975 -0.23741 0.013891 0.031843 -0.033418 0.00095425 0.010213 -1.2988e-05 0.00016646 0.00014152 -0.00061636 -0.04677
167 0.069937 0.15919 -0.13527 0.031411 0.05025 2.6058e-07 -0.00037862 0.004866 -0.006699 -0.20572 0.036177 0.082706 -0.07174 0.01862 0.035464 -4.0958e-07 -0.00060042 0.0025425 -0.007542 -0.25088
168 0.080816 0.18142 -0.18799 -0.061092 0.044531 -0.00011461 -0.0016006 -0.0010078 0.00168 0.044564 0.011353 0.025429 -0.02687 -0.018093 0.0069159 -3.541e-05 -0.00034837 -0.00022883 0.0003999 0.010499
169 0.046224 0.098072 0.047089 0.011417 0.013591 -4.8029e-05 -0.0011876 0.034307 -0.01621 0.008258 0.018211 0.039179 0.0095948 0.0060761 0.0082085 -1.9162e-05 -0.0005397 0.023078 -0.0090694 0.0046565
170 0.048109 0.099971 0.08261 0.007154 0.0061374 -5.8871e-05 0.00026853 0.0132 -0.0065327 0.0031861 0.030059 0.063335 0.032458 0.0076559 0.009271 -1.8065e-05 -0.00055209 0.02705 -0.011233 0.0051985
171 0.048426 0.10147 0.07816 0.0080751 0.0074933 -9.5025e-05 0.0013364 0.041794 -0.0046739 0.004556 0.023938 0.050977 0.022937 0.0066354 0.0082452 -3.7693e-05 7.438e-05 0.048074 -0.0091095 0.0045435
172 0.045209 0.095667 0.051758 0.010574 0.01202 -5.5067e-05 -0.00086521 0.030797 -0.014371 0.0076401 0.0219 0.046942 0.016139 0.0069031 0.0088362 -3.2491e-05 -0.00036629 0.027031 -0.0098513 0.0054448
173 0.052406 0.10869 0.10936 0.0048688 0.0022022 -0.00013497 0.0022506 -0.015553 0.0049474 -0.00062476 0.013339 0.027905 0.019992 0.0020115 0.0023824 -2.0868e-05 2.4586e-05 0.0010664 -0.0016189 -0.0015973
174 0.048477 0.10085 0.079843 0.0076328 0.0069676 -1.6545e-05 -0.0043112 0.013292 -0.02194 0.0041564 0.032075 0.067655 0.032654 0.0084432 0.010432 9.0985e-06 -0.0035949 0.029848 -0.021258 0.0064089
175 0.05144 0.10604 0.11935 0.0027404 -0.00086545 -0.00015938 0.0050126 0.053723 0.012266 -0.00032043 0.075374 0.15513 0.16887 0.0054128 0.00016842 -0.00025936 0.01237 0.47772 0.010585 -0.00042539
176 0.054152 0.11165 0.12549 0.0028749 -0.00089622 -0.00015159 0.0033809 -0.016723 0.010035 -0.00084282 0.06279 0.12866 0.1357 0.0035022 0.00069911 -9.1566e-05 0.00016349 -0.0024444 -0.0039114 -0.0033638
177 0.083174 0.19232 -0.20348 0.060806 0.06025 4.2002e-05 -1.2207e-05 -0.00074355 0.0012191 0.08557 0.0051373 0.011923 -0.012871 0.0044097 0.0045932 3.2885e-06 -8.5167e-07 -6.6561e-05 0.00011354 0.0084626
178 0.053497 0.09699 0.09967 0.0048673 0.0019759 0.00029385 0.0022205 -0.012709 0.0061611 -0.0049032 0.01701 0.025804 0.018752 0.003173 0.0027565 0.00046017 0.00031902 -0.0015285 0.0010854 -0.003285
179 0.048365 0.10088 0.086222 0.0071671 0.0059069 -9.3502e-05 0.00059326 0.0084806 -0.0053127 0.0057019 0.017816 0.037652 0.021277 0.004546 0.0052194 -2.4567e-05 -0.00023502 0.015977 -0.0063979 0.0049297
180 0.053548 0.11033 0.12475 0.0027373 -0.001043 -0.00015881 0.004607 -0.018882 0.015536 -0.00070303 0.093215 0.19079 0.20716 0.0042654 -0.00029776 -0.00020219 0.007275 -0.020044 0.024152 -0.0052241
181 0.051353 0.1053 0.10999 0.0043737 0.0013084 -8.8873e-05 0.0030013 0.02272 0.005845 -0.0039477 0.01868 0.037766 0.032302 0.0027725 0.002304 2.4724e-05 0.00078287 0.026814 -0.00094197 -0.0033009
182 0.051763 0.10579 0.1158 0.003672 0.00021934 -5.2845e-05 -0.00057289 -0.0042344 -0.0050606 -0.0019895 0.035781 0.071922 0.070474 0.0036854 0.0022624 7.5195e-05 -0.0030498 0.0091313 -0.013392 -0.004013
183 0.05223 0.10771 0.12228 0.0026744 -0.0011165 -0.00016125 0.0043388 0.010541 0.012535 -0.00012635 0.023097 0.047427 0.052761 0.0011386 -0.00034131 -6.3833e-05 0.0017964 0.024211 0.0038014 -5.5477e-05
184 0.054305 0.11131 0.12645 0.0024249 -0.0012206 -0.00012405 0.0037754 -0.014651 0.011102 -0.00028969 0.052752 0.10488 0.11666 0.0015587 -0.00091107 0.00013672 0.0010924 -0.0045642 -0.0014834 -0.00035265
185 0.054405 0.11225 0.1278 0.0023017 -0.0013753 -0.00018049 0.0053788 -0.015266 0.018393 -8.2224e-05 0.037405 0.076693 0.085229 0.00088432 -0.00078224 -9.9942e-05 0.0031724 -0.0025741 0.0105 -7.468e-05
186 0.055035 0.11328 0.12873 0.002392 -0.0012841 -0.00013977 0.0024229 -0.022007 0.0082159 -0.00034713 0.04071 0.082885 0.091729 0.00097673 -0.00073682 -3.4784e-05 -0.0010646 -0.010637 -0.0027361 -0.00034606
187 0.054978 0.11339 0.12895 0.002778 -0.0012572 -0.00016873 0.0039749 -0.02456 0.012957 0.00014253 0.05118 0.10471 0.11591 0.0018562 -0.00085767 -9.0451e-05 0.00038984 -0.013959 -0.00090013 0.00015797
188 0.054239 0.11175 0.12678 0.0027325 -0.0011522 -0.00014999 0.0031413 -0.018296 0.010295 -2.3728e-05 0.065026 0.13284 0.14585 0.0026637 -0.00067983 -9.3538e-05 0.00038767 -0.0097944 0.0011615 0.00013423
189 0.054549 0.11251 0.12798 0.0031009 -0.0012278 -0.00016819 0.0045313 -0.024755 0.015577 0.00018033 0.025291 0.051799 0.057461 0.001257 -0.00041719 -5.6931e-05 0.0016109 -0.0077761 0.0055221 4.1757e-06
190 0.053544 0.11031 0.12537 0.0031386 -0.0011053 -0.00016089 0.0041469 -0.025546 0.014053 0.00033157 0.038773 0.079233 0.087706 0.0020832 -0.00048564 -7.7455e-05 0.0022057 -0.011288 0.0070048 3.3443e-05
191 0.053756 0.11078 0.12558 0.0027091 -0.0011019 -0.00015746 0.0043618 -0.013127 0.014139 -0.001004 0.05666 0.11597 0.12706 0.0024503 -0.00046155 -0.00011782 0.003464 -0.0010202 0.0104 -0.0046743
192 0.054674 0.11272 0.12803 0.0024593 -0.0012609 -0.00016719 0.0047878 -0.021194 0.016315 -0.00032032 0.046035 0.09414 0.10407 0.0012897 -0.0008007 -9.5839e-05 0.0032696 -0.010538 0.010887 -0.00042512
193 0.053947 0.11117 0.12619 0.0027676 -0.0011461 -0.00016231 0.0045261 -0.021372 0.015423 -0.00067771 0.084441 0.17279 0.18971 0.0037834 -0.00071345 -0.00018284 0.0058537 -0.01913 0.01932 -0.0046796
194 0.054134 0.11152 0.12425 -0.0016369 -0.0015645 -0.00017303 0.004834 -0.021429 0.016942 -0.00010336 0.089374 0.18272 0.18275 -0.04051 -0.0055568 -0.00029448 0.0076287 -0.026332 0.027231 -0.00076112
195 0.053734 0.11068 0.12558 0.0026562 -0.0011897 -0.00016307 0.0050098 -0.026631 0.017659 0.00026686 0.055446 0.11341 0.1246 0.0024059 -0.00055868 -0.0001234 0.0043912 -0.016981 0.014534 0.0002896
196 0.053883 0.11117 0.1261 0.0030927 -0.0011022 -0.0001709 0.0047013 -0.02401 0.016225 0.00033951 0.08929 0.18323 0.20034 0.0050012 -0.00049025 -0.00022212 0.0064637 -0.0049883 0.020097 0.00059293
197 0.054425 0.11173 0.12722 0.0027036 -0.0012709 -0.00014573 0.0049585 -0.018009 0.016537 5.2953e-05 0.069965 0.14013 0.15632 0.0026299 -0.0012568 6.5268e-05 0.0059428 -0.0030651 0.016815 -3.0668e-05
198 0.05216 0.10743 0.12197 0.0026701 -0.0010902 -0.00014302 0.0032398 0.04001 0.0069217 -0.00043987 0.073201 0.15004 0.16753 0.0041911 -0.0010009 -0.0001852 0.0061482 0.3533 -0.0016169 -0.0012074
199 0.053798 0.1108 0.12337 -0.0014888 -0.0014902 -0.00016537 0.0044209 -0.018763 0.015144 -0.00074622 0.094651 0.1935 0.1936 -0.040115 -0.0052541 -0.00029263 0.007167 -0.022771 0.02492 -0.0053827
200 0.054503 0.11244 0.12802 0.0024381 -0.001349 -0.00017715 0.0051022 -0.016366 0.017442 -0.00011706 0.042241 0.086574 0.096207 0.0011884 -0.00083794 -0.0001077 0.0032995 -0.0033363 0.010952 -0.00012911
201 0.054035 0.11085 0.12362 -0.0014315 -0.001513 -0.00013847 0.0037753 -0.018836 0.012043 -0.00022416 0.092662 0.18598 0.18672 -0.039936 -0.0053919 -5.8228e-06 0.0033688 -0.018312 0.0064749 -0.0011918
202 0.054545 0.11173 0.1271 0.002643 -0.0012068 -0.00011683 0.0033383 -0.02109 0.011043 -0.00027363 0.061104 0.12144 0.13518 0.0021388 -0.00096712 0.00015562 0.0011884 -0.012417 0.0020706 -0.00042622
203 0.053953 0.1113 0.12625 0.0027502 -0.0011343 -0.00016981 0.0046674 -0.0067676 0.014941 -0.00011754 0.064923 0.13324 0.14628 0.0029683 -0.00057403 -0.00016669 0.0049431 0.049046 0.011999 -4.2619e-05
204 0.053514 0.10996 0.12471 0.0025809 -0.0011233 -0.00012487 0.0025335 -0.012916 0.0078951 -0.00022266 0.040547 0.082335 0.090949 0.0015786 -0.00053683 -2.4023e-05 -0.00037377 -0.001826 -0.0012929 -0.00016586
205 0.053414 0.11008 0.12467 0.0023882 -0.0011233 -0.00015847 0.0043189 -0.0024568 0.013174 -0.00027351 0.046506 0.095257 0.10479 0.0016017 -0.00058746 -0.0001064 0.0030381 0.02573 0.0072846 -0.00032222
206 0.053343 0.11009 0.1247 0.0026338 -0.0011056 -0.00017538 0.0046795 -0.01394 0.01552 0.00038298 0.026998 0.055509 0.061066 0.0011894 -0.00028577 -8.0074e-05 0.0022494 0.018076 0.0057491 0.00030115
207 0.054398 0.11221 0.1278 0.0027812 -0.0013164 -0.00017818 0.005287 -0.023222 0.01859 0.00030373 0.058692 0.12027 0.13372 0.0022835 -0.0011242 -0.00015206 0.0048491 -0.014856 0.016843 0.00034551
208 0.054323 0.11204 0.1276 0.0029386 -0.0012639 -0.00017196 0.0046841 -0.028407 0.016521 0.00027644 0.083584 0.17122 0.1903 0.0036823 -0.001471 -0.00020117 0.005721 -0.033219 0.020306 0.00042911
209 0.053983 0.11134 0.12675 0.0025732 -0.0012916 -0.00017172 0.0048758 -0.013716 0.01621 -0.00012338 0.038823 0.079576 0.088499 0.0013934 -0.0007125 -9.7923e-05 0.0029588 -0.0011205 0.0094512 -8.2419e-05
210 0.054352 0.11213 0.1276 0.0024389 -0.0013366 -0.00017865 0.0052988 -0.016749 0.018214 -1.7912e-05 0.042428 0.086983 0.096553 0.0012224 -0.00083316 -0.00011148 0.0035253 -0.0037466 0.011769 -4.3844e-05
211 0.054396 0.11214 0.1273 0.002798 -0.0011655 -0.00016409 0.0045038 -0.023393 0.015343 -5.446e-05 0.069515 0.14232 0.15641 0.0029791 -0.00071852 -0.00015185 0.004427 -0.018832 0.014448 0.00027497
212 0.051492 0.10547 0.1182 0.0029485 -0.00054675 -6.6549e-05 -0.0013854 0.0066129 -0.0093571 -0.0022969 0.032706 0.066188 0.070267 0.0022424 0.00061063 4.3322e-05 -0.0049324 0.02969 -0.021957 -0.0049382
213 0.054564 0.11201 0.12702 0.0027895 -0.0011163 -0.00014598 0.0050854 -0.020335 0.017167 0.00011558 0.051497 0.10279 0.11262 0.0022593 -0.00028841 8.7208e-05 0.004689 0.010597 0.011905 0.0003114
214 0.054244 0.11179 0.12696 0.0026401 -0.0012094 -0.00016354 0.0047257 -0.018283 0.015874 -0.000156 0.060988 0.12474 0.13764 0.0023699 -0.00082982 -0.00013126 0.0044361 -0.010893 0.014546 -0.00041798
215 0.056956 0.10267 0.11167 0.0045678 0.00057027 0.00031192 0.0034153 -0.02316 0.011423 0.001366 0.013272 0.018 0.014143 0.002234 0.001638 0.00045982 0.00020901 -0.0031142 0.0013614 0.0007257
216 0.054487 0.11224 0.12766 0.002702 -0.0012351 -0.00015251 0.0035602 -0.020368 0.012185 -0.00016331 0.064532 0.13171 0.14608 0.0023353 -0.001087 -9.5868e-05 0.0011249 -0.01256 0.0044504 -0.00031154
217 0.053436 0.1102 0.12519 0.0032448 -0.0010981 -0.00016447 0.004482 -0.0082203 0.014241 0.00013953 0.036681 0.075189 0.083071 0.0023239 -0.00034277 -8.8374e-05 0.0031252 0.032424 0.0077323 -6.5192e-05
218 0.056079 0.11568 0.13099 0.0012528 -0.0014393 -0.00018454 0.0054346 -0.027317 0.01936 -0.00050743 0.014843 0.030404 0.033282 -0.00027327 -0.00032232 -3.8394e-05 0.001199 -0.0055192 0.0042791 -0.00018315
219 0.050588 0.10417 0.11644 0.0033852 -0.00039441 -0.00012526 0.0028042 0.030659 0.0045188 -0.00069935 0.020456 0.04197 0.044834 0.0017291 0.00032408 -4.0563e-05 0.0010175 0.049382 -0.0012246 -0.00029911
220 0.0536 0.10955 0.12426 0.0029763 -0.00097306 -7.2507e-05 7.5439e-06 -0.01426 -0.0031789 -0.0001973 0.048326 0.095378 0.10553 0.0024743 -0.00035672 0.00022291 -0.0045695 0.0022154 -0.021306 -0.00023424
221 0.054022 0.1113 0.12619 0.0030256 -0.0010571 -0.00014843 0.0032037 -0.014329 0.010262 -9.4804e-05 0.071026 0.14517 0.15901 0.0037572 -0.00043806 -0.00010813 0.0010774 0.015215 0.0016323 -9.6989e-05
222 0.052956 0.10876 0.12312 0.0027874 -0.00097928 -0.00010265 0.00027204 -0.0074599 -0.0022477 -2.8721e-05 0.051846 0.10523 0.1157 0.0024821 -0.00042675 8.2799e-06 -0.0047019 0.022071 -0.021129 -0.00038448
223 0.054302 0.11202 0.12768 0.0027998 -0.0013342 -0.00017858 0.0051788 -0.027746 0.018487 0.00027703 0.072066 0.14772 0.16464 0.0028644 -0.0014515 -0.00019138 0.0059616 -0.028173 0.021456 0.00037052
224 0.053624 0.11048 0.12514 0.0027989 -0.0010572 -0.00015731 0.004377 -0.018275 0.014388 -0.00010877 0.072476 0.14827 0.16205 0.0034729 -0.00041925 -0.00014562 0.0045216 -0.0076597 0.013273 -0.00020895
225 0.05368 0.10853 0.12251 0.0017079 -0.0010713 -5.1677e-05 0.0050926 -0.021463 0.016461 -0.00067431 0.016389 0.030671 0.03383 0.00026233 -0.00014632 0.00018183 0.0019361 -0.0036634 0.0042206 -0.00081425
226 0.053154 0.10929 0.12309 0.0031351 -0.00075326 -0.00011953 0.0019308 -0.010363 0.0049096 -0.0011589 0.058705 0.11961 0.12786 0.0038984 0.00072327 -3.7154e-05 -0.0010076 0.019292 -0.00682 -0.0047036
227 0.053291 0.10976 0.12371 0.0014114 -0.0011076 -0.00014957 0.0039278 -0.0090752 0.01213 -0.001235 0.018951 0.038756 0.042173 6.7863e-05 -0.00022116 -3.8427e-05 0.0011074 0.0004752 0.003153 -0.00080885
228 0.054093 0.11121 0.1265 0.0028401 -0.0011868 -0.00012494 0.0016823 -0.021335 0.0042589 -0.00015005 0.062402 0.12674 0.14072 0.0026872 -0.00094746 -1.6742e-05 -0.0038258 -0.012484 -0.015727 -0.00057117
229 0.053643 0.11024 0.12411 0.0029964 -0.00077139 -0.00011741 0.0019835 -0.01415 0.0054184 -0.0012278 0.051743 0.10518 0.11223 0.0030471 0.00057499 -1.3663e-05 -0.0014506 0.00041735 -0.0067697 -0.0044446
230 0.05466 0.11279 0.12847 0.0025799 -0.0013557 -0.00018029 0.0050307 -0.022468 0.017546 3.9019e-05 0.051864 0.10636 0.11827 0.0016247 -0.0010542 -0.00013634 0.0039244 -0.013004 0.013636 -1.0379e-05
231 0.052451 0.10721 0.11129 0.0033001 0.0012471 -2.071e-05 -0.0031745 -0.012533 -0.012662 -0.01708 0.02365 0.048621 0.026117 0.0049671 0.0082489 7.2816e-05 -0.0033006 -0.0017304 -0.012736 -0.08877
232 0.054511 0.11241 0.12775 0.0027016 -0.0012043 -0.00016814 0.0046324 -0.025075 0.015978 -0.00025012 0.058152 0.11907 0.13166 0.0021345 -0.0008789 -0.00013228 0.0039056 -0.017683 0.013169 -0.00044519
233 0.054392 0.11218 0.12735 0.0025764 -0.0012123 -0.00016799 0.0044231 -0.021462 0.01496 9.5389e-05 0.052997 0.10859 0.11972 0.0017782 -0.00077101 -0.00012429 0.0033412 -0.010783 0.010894 -8.8265e-06
234 0.054336 0.11207 0.12756 0.0028572 -0.001245 -0.00016989 0.0044899 -0.020289 0.015202 -6.4368e-05 0.073025 0.14961 0.16619 0.0030984 -0.0012347 -0.00017373 0.0047715 0.0026414 0.014661 -0.00035224
235 0.05452 0.11244 0.1271 0.0030117 -0.00098051 -0.0001635 0.0042798 -0.020642 0.014342 -0.00083806 0.058683 0.12028 0.12945 0.0031344 0.00020293 -0.00011961 0.0030525 -0.011007 0.0092629 -0.004122
236 0.053321 0.10986 0.12264 0.00084857 -0.00088616 -0.00015299 0.0041264 -0.019816 0.01366 -0.0049318 0.014032 0.028776 0.029942 2.6313e-05 0.00022367 -2.8426e-05 0.00079158 -0.0025466 0.0023011 -0.0044696
237 0.054112 0.11099 0.12576 0.0027704 -0.001072 -0.00012429 0.0030352 -0.024958 0.010327 -0.00015498 0.066838 0.13439 0.14686 0.0032941 -0.0002721 2.2447e-05 0.0010985 -0.023093 0.0044794 -0.00040462
238 0.05418 0.11153 0.12655 0.0028734 -0.0011005 -0.0001415 0.0029967 -0.02026 0.0098006 -0.00077149 0.074484 0.15186 0.16637 0.0034297 -0.00054008 -8.5451e-05 0.00032606 -0.012937 0.00074951 -0.0047806
239 0.0537 0.10912 0.12186 0.0034829 -0.00045079 -9.3153e-05 0.0048469 -0.025884 0.017297 -0.0011606 0.0068295 0.013221 0.013735 0.00061491 0.00021505 2.8602e-05 0.00053106 -0.0028222 0.0018858 -0.00048971
240 0.05472 0.11291 0.12859 0.0031019 -0.001243 -0.00017801 0.0049931 -0.029331 0.017879 8.017e-05 0.053368 0.1094 0.12142 0.0026116 -0.00084525 -0.00013355 0.003904 -0.021894 0.014066 -5.2134e-05
241 0.052343 0.10795 0.11926 0.002754 -0.00023462 -0.00014162 0.0031912 -0.017626 0.0096412 -0.0015609 0.030403 0.062564 0.062948 0.0020569 0.0013563 -5.8311e-05 0.0010633 -0.0036075 0.0017893 -0.0037401
242 0.054561 0.11252 0.12803 0.0027987 -0.0012515 -0.00016781 0.0044446 -0.027812 0.01546 -1.2779e-05 0.067245 0.13768 0.15264 0.0026164 -0.0011321 -0.00015007 0.0041081 -0.027235 0.014426 -0.00010092
243 0.055347 0.10479 0.11951 0.0029461 -0.00067873 0.00022594 0.004224 -0.0088047 0.0099032 -0.0005764 0.027977 0.046733 0.051897 0.0014996 0.00023582 0.00051292 0.0023184 0.002193 0.0015363 -0.00022236
244 0.044601 0.092373 0.10008 0.0039595 0.00036206 -0.00016971 0.0066688 0.25872 0.0049793 0.00066297 0.020467 0.042662 0.044511 0.0027602 0.00078654 -0.00011155 0.0055656 0.28333 0.00044681 0.00062396
245 0.052716 0.10924 0.11364 0.0046677 0.0012619 -0.00015738 0.0040451 -0.01469 0.01236 0.0028284 0.0061999 0.012945 0.010435 0.0010009 0.0009244 -1.4537e-05 0.00032764 0.0026172 0.00022121 0.0012567
246 0.074638 0.17226 -0.17638 0.057131 0.064221 5.073e-05 0.00012555 0.0022631 0.00069401 0.66805 0.0082013 0.019081 -0.020309 0.0087101 0.010925 9.7927e-06 2.4269e-05 0.00044442 0.00015992 0.15285
247 0.064582 0.12938 -0.11796 -0.5762 -0.057253 -0.0014925 0.018361 0.0016702 -0.0038056 -0.0044962 0.056724 0.11367 -0.10765 -0.70492 -0.08069 -0.0020035 0.026709 0.0024318 -0.0056339 0.0082506
248 0.053634 0.11065 0.12617 0.003197 -0.0012958 -0.00018181 0.0056208 -0.030059 0.020574 0.00074048 0.030396 0.062451 0.069508 0.0018895 -0.00043579 -9.3908e-05 0.003135 -0.011696 0.011216 0.00087498
249 0.054368 0.11216 0.12799 0.0028235 -0.0013839 -0.00018076 0.0053848 -0.030734 0.01951 0.00034707 0.050939 0.10441 0.11664 0.0020472 -0.0010871 -0.00013646 0.0043084 -0.023369 0.015749 0.00034444
250 0.047057 0.096892 0.10958 0.0032401 -0.00068236 -0.00014116 0.0048963 0.16556 0.0042889 -0.00065258 0.025779 0.053207 0.059947 0.0025534 -0.00019116 -0.00011674 0.0059027 0.30693 0.00035217 -0.0008431
251 0.05438 0.1122 0.12804 0.0030122 -0.0013367 -0.00018088 0.0053216 -0.027795 0.019103 0.00027361 0.055997 0.11484 0.12833 0.0026347 -0.0011154 -0.00015264 0.0047827 -0.02238 0.017298 0.00029399
252 0.054553 0.11254 0.12829 0.0029389 -0.0013134 -0.00017733 0.0049027 -0.025383 0.017259 0.00026094 0.061118 0.12528 0.13948 0.0026759 -0.0011359 -0.00015632 0.0044523 -0.018742 0.015644 0.00023838
253 0.054005 0.11136 0.12687 0.0028445 -0.0012796 -0.00016924 0.0047108 -0.027692 0.01654 0.00018199 0.080226 0.16422 0.1829 0.003432 -0.0014786 -0.00018518 0.0057216 -0.031468 0.020032 0.00021706
254 0.051835 0.10605 0.1194 0.0029233 -0.00071897 -5.6946e-05 -0.0022333 0.002355 -0.012663 -0.0001781 0.029206 0.058902 0.06381 0.0017997 0.00014137 5.296e-05 -0.0054688 0.026806 -0.023596 -8.8626e-05
255 0.054701 0.11288 0.12887 0.0029979 -0.0013899 -0.00018748 0.0056436 -0.030181 0.020621 0.00052627 0.039551 0.081117 0.090654 0.0017796 -0.00083266 -0.00011157 0.0035795 -0.016622 0.013158 0.00039954
256 0.052128 0.10686 0.1204 0.0020607 -0.0009171 -7.0943e-05 -0.0019323 0.023479 -0.012865 -0.00018651 0.030284 0.061379 0.067167 0.0011492 -0.0001646 2.6967e-05 -0.004991 0.067145 -0.024499 7.417e-05
257 0.053429 0.10982 0.12466 0.0023042 -0.0011803 -0.00012466 0.002243 0.0012415 0.0057607 -0.00042913 0.04431 0.090158 0.10008 0.0014771 -0.00068116 -3.8382e-05 -0.00038552 0.042421 -0.0047811 -0.00048876
258 0.054538 0.11254 0.12837 0.0028114 -0.0013781 -0.00018679 0.0057572 -0.031126 0.021097 0.00024613 0.045593 0.093515 0.10433 0.0017946 -0.00095848 -0.00012961 0.0042813 -0.021483 0.01584 0.00022197
259 0.044774 0.09168 0.10269 0.0036503 -0.00032944 -0.00012704 0.0086883 0.35175 0.0064322 2.7586e-05 0.0065265 0.01344 0.015125 0.00075826 -2.4415e-05 -3.3361e-05 0.002276 0.11521 0.00059333 -0.00019019
260 0.054268 0.11194 0.12777 0.0030269 -0.0013568 -0.00017943 0.0053746 -0.032688 0.019638 0.0004352 0.041169 0.084371 0.094293 0.0019617 -0.00083058 -0.00010947 0.0035598 -0.021219 0.013178 0.00032994
261 0.054102 0.11114 0.12558 0.0026441 -0.00098208 -0.0001082 0.00042926 -0.014998 5.6244e-05 9.8518e-05 0.030161 0.061261 0.066783 0.0012816 -0.0001379 1.8334e-07 -0.0025923 0.005273 -0.0098455 0.00023633
262 0.05401 0.11139 0.12706 0.0032157 -0.0012589 -0.00017411 0.0050318 -0.02969 0.018035 0.00027937 0.064007 0.13109 0.14637 0.0035495 -0.0011058 -0.00015583 0.0051086 -0.027914 0.018283 0.00012819
263 0.05155 0.10585 0.11557 0.0033613 0.00019304 -0.00010616 0.0037114 0.01706 0.0090166 0.00032934 0.007576 0.015498 0.015296 0.00068019 0.00042246 -8.6048e-06 0.00035434 0.0049156 0.00030756 -1.8217e-07
264 0.054174 0.11174 0.12751 0.0028615 -0.001345 -0.00017677 0.0051946 -0.028467 0.018516 0.00021617 0.062653 0.12838 0.14349 0.0026808 -0.0012772 -0.00016283 0.0051504 -0.025844 0.018413 0.00027057
265 0.054474 0.11236 0.12807 0.0031341 -0.0012538 -0.00017262 0.0046492 -0.023387 0.015995 0.00026156 0.070438 0.14431 0.16065 0.0035814 -0.0011913 -0.00016863 0.0046772 -0.017203 0.015822 0.0003328
266 0.051454 0.10374 0.11772 0.0026904 -0.00091531 0.00020177 -0.025339 -0.0045793 -0.10379 0.00085083 0.039764 0.07451 0.085002 0.0017527 -0.00070492 0.0013613 -0.12936 0.015159 -0.53043 0.0034786
267 0.14235 -0.039483 0.021 0.0025209 -3.3672e-05 0.01168 0.022873 -0.002186 -0.00095746 0.00015543 0.064125 -0.016178 0.011227 0.0012901 -9.8744e-05 0.0062649 0.016132 -0.0036831 0.00061568 -3.4929e-05
268 0.074997 0.17303 -0.18257 0.060777 0.06423 8.9862e-05 6.9729e-05 0.00025161 0.0011822 0.66813 0.0083154 0.019321 -0.020955 0.0092494 0.010946 1.5962e-05 1.6047e-05 9.591e-05 0.00024847 0.15285
269 0.054245 0.11199 0.12795 0.0029439 -0.0014052 -0.00018889 0.0055843 -0.031271 0.020544 0.000395 0.035884 0.073695 0.082583 0.0016136 -0.00079766 -0.00010746 0.0033032 -0.017011 0.012331 0.00028806
270 0.054705 0.11283 0.12856 0.0027234 -0.0013141 -0.00017531 0.0051312 -0.023361 0.017946 -0.00016629 0.037089 0.075967 0.084433 0.0013488 -0.00068105 -9.0554e-05 0.0028609 -0.0095777 0.0098907 -0.00013412
271 0.054552 0.11256 0.12833 0.0028731 -0.0013183 -0.0001787 0.0051041 -0.02986 0.01838 2.4093e-05 0.057701 0.11831 0.13176 0.0023852 -0.0010868 -0.00014992 0.0045416 -0.026011 0.016556 -0.00039817
272 0.052662 0.10836 0.12324 0.0027109 -0.0011785 -0.0001199 0.00049577 -0.019622 -0.00038375 0.00057076 0.050222 0.10259 0.11431 0.0026825 -0.00061696 -4.9067e-05 -0.003779 0.0050473 -0.017426 0.0017126
273 0.056785 0.11726 0.13075 -0.0020867 -0.0016721 -0.00021169 0.0068138 -0.029875 0.025285 -0.00050782 0.0033952 0.0069709 0.0073077 -0.00045276 -9.2434e-05 -1.0602e-05 0.00033566 -0.0013604 0.0012241 -1.8921e-05
274 0.054471 0.11239 0.12826 0.0026591 -0.0014064 -0.00018223 0.0053629 -0.029929 0.019457 0.00019178 0.055712 0.11423 0.12762 0.0019297 -0.001226 -0.0001511 0.0047079 -0.024657 0.017286 0.00020399
275 0.054876 0.11313 0.12876 0.0024945 -0.0013321 -0.00017064 0.0049177 -0.027422 0.017326 -0.00018683 0.040377 0.082541 0.09155 0.0011355 -0.00075116 -8.3954e-05 0.0028661 -0.015058 0.0099352 -0.00025502
276 0.054059 0.11136 0.12729 0.0031408 -0.0013535 -0.0001549 0.0032421 -0.031393 0.01257 0.00038703 0.035726 0.072914 0.081828 0.0018867 -0.00073119 -4.919e-05 -0.000247 -0.017204 0.001181 0.00026971
277 0.054552 0.11262 0.12878 0.0032075 -0.0013907 -0.00018855 0.0054818 -0.032289 0.020162 0.00047916 0.037988 0.077989 0.08748 0.0020042 -0.00080455 -0.00010969 0.0032768 -0.018293 0.012229 0.00033226
278 0.053881 0.11109 0.12681 0.0030075 -0.0013181 -0.0001744 0.0051475 -0.026087 0.018239 0.000292 0.061396 0.12569 0.14067 0.0030107 -0.0012108 -0.00015291 0.0051117 -0.02113 0.017986 0.00026483
279 0.054266 0.11173 0.12659 0.0031326 -0.0010034 -0.00012825 0.00093968 -0.021175 0.0012943 4.9882e-05 0.053848 0.10977 0.11963 0.0030486 -8.4354e-05 -1.7153e-05 -0.0049645 -0.0092649 -0.020088 0.00048993
280 0.054265 0.11201 0.12797 0.0032284 -0.0013421 -0.00018622 0.0055843 -0.032508 0.020521 0.00035736 0.024995 0.051296 0.057432 0.0013588 -0.00049847 -7.0525e-05 0.002243 -0.012993 0.0084095 0.00016099
281 0.054583 0.11265 0.12862 0.0026988 -0.0014366 -0.00018523 0.0054253 -0.031817 0.019811 0.00036221 0.038836 0.079672 0.08907 0.0013659 -0.00088397 -0.00010868 0.0033037 -0.018548 0.012254 0.00028264
282 0.053957 0.11137 0.12724 0.0031928 -0.0013293 -0.00018348 0.0053562 -0.030772 0.019573 0.00032676 0.041274 0.084735 0.094961 0.0022651 -0.00081695 -0.00011893 0.0036612 -0.019243 0.01353 0.00024192
283 0.054271 0.11206 0.12806 0.0032369 -0.0013521 -0.00018787 0.0052967 -0.025582 0.01895 0.0004432 0.047226 0.097423 0.11094 0.0032618 -0.00131 -0.00020302 0.0074691 0.050935 0.024571 0.00061251
284 0.054388 0.11222 0.128 0.002983 -0.0013166 -0.00017178 0.0039709 -0.027335 0.013214 0.00042722 0.05581 0.11433 0.12761 0.0024908 -0.0010837 -0.00011346 0.00079082 -0.020209 0.00094214 0.00048361
285 0.051038 0.10478 0.11725 0.0034252 -0.00045909 -0.00011886 0.0034844 -0.014028 0.010444 -0.00015894 0.016195 0.032972 0.03487 0.0013453 0.00032681 -1.5763e-05 0.00073131 0.00086425 0.0012965 -3.0537e-05
286 0.053885 0.11086 0.12597 0.0030002 -0.0011409 -0.0001444 0.0027376 -0.026566 0.0078895 0.00012446 0.038216 0.077346 0.085225 0.0019805 -0.00035395 -5.6691e-06 -0.0010023 -0.013929 -0.0058461 -0.00060334
287 0.052833 0.10892 0.12257 0.0025502 -0.000912 -0.00015833 0.0046046 -0.022967 0.015711 0.00025762 0.018677 0.0383 0.041112 0.00099428 0.00012914 -4.3075e-05 0.0015405 -0.0060517 0.0049519 0.00037759
288 0.054121 0.1117 0.12737 0.0027832 -0.0013397 -0.00018003 0.0049163 -0.02972 0.017582 0.00032126 0.069565 0.14278 0.15933 0.0027453 -0.0014338 -0.00019388 0.0054422 -0.031894 0.019886 0.00041032
289 0.090535 0.20937 -0.22734 0.068098 0.056451 7.4861e-05 -0.00020408 -0.0029761 0.0013374 -0.051699 0.0042411 0.0098047 -0.010704 0.0032743 0.0025167 3.8459e-06 -1.006e-05 -0.00015815 7.0513e-05 -0.0027926
290 0.063174 0.12383 -0.11017 -0.64066 -0.070362 -0.0016408 0.020243 0.0016353 -0.0040126 0.0093108 0.037927 0.07532 -0.070905 -0.49677 -0.058514 -0.0014104 0.019026 0.0017133 -0.004035 0.0093766
291 0.066854 0.12904 -0.11095 -0.55081 -0.053514 -0.0010391 0.005126 -8.2778e-05 0.00032061 0.0053846 0.021454 0.042202 -0.039212 -0.25559 -0.028299 -0.00061104 0.0051081 0.00031004 -0.00050851 0.0044145
292 0.066854 0.12904 -0.11095 -0.55081 -0.053514 -0.0010391 0.005126 -8.2778e-05 0.00032061 0.0053846 0.021454 0.042202 -0.039212 -0.25559 -0.028299 -0.00061104 0.0051081 0.00031004 -0.00050851 0.0044145
293 0.062535 0.12261 -0.10921 -0.64259 -0.071046 -0.001661 0.020734 0.001685 -0.0041355 0.0098159 0.044718 0.088803 -0.083567 -0.59159 -0.069987 -0.0016881 0.022909 0.0020521 -0.0048558 0.011531
294 0.17034 -0.066402 -0.0025505 -0.015748 -0.0014264 0.012859 -0.078364 0.00038068 -0.0053166 -9.9298e-06 0.22444 -0.074653 -0.0070746 -0.0732 -0.0082181 0.036248 -1.1001 0.016391 0.17445 0.00033627
295 0.063488 0.1238 -0.10882 -0.59275 -0.062105 -0.0013706 0.013613 0.00089455 -0.0021029 0.0069556 0.042562 0.084124 -0.078502 -0.53782 -0.061513 -0.0014028 0.015134 0.001134 -0.0024309 0.0094649
296 0.062535 0.12261 -0.10921 -0.64259 -0.071046 -0.001661 0.020734 0.001685 -0.0041355 0.0098159 0.044718 0.088803 -0.083567 -0.59159 -0.069987 -0.0016881 0.022909 0.0020521 -0.0048558 0.011531
297 0.063174 0.12383 -0.11017 -0.64066 -0.070362 -0.0016408 0.020243 0.0016353 -0.0040126 0.0093108 0.037927 0.07532 -0.070905 -0.49677 -0.058514 -0.0014104 0.019026 0.0017133 -0.004035 0.0093766
298 0.062635 0.12273 -0.10918 -0.63847 -0.070254 -0.0016319 0.019862 0.0015795 -0.0038537 0.009579 0.045308 0.089912 -0.0845 -0.59528 -0.070058 -0.0016764 0.02207 0.0019376 -0.0045397 0.011364
299 0.081594 0.15583 -0.13 -0.50113 -0.037708 -0.00047563 -0.0085838 -0.001555 0.0038219 -0.002072 0.0051471 0.010077 -0.0094633 -0.043175 -0.0038584 -6.9779e-05 -6.1697e-05 9.6603e-06 9.1422e-05 0.0001762
300 0.062635 0.12273 -0.10918 -0.63847 -0.070254 -0.0016319 0.019862 0.0015795 -0.0038537 0.009579 0.045308 0.089912 -0.0845 -0.59528 -0.070058 -0.0016764 0.02207 0.0019376 -0.0045397 0.011364
301 0.060593 0.14178 -0.15937 0.14727 -0.90708 -0.00022872 5.8002e-05 0.0012503 -0.00061228 -0.0013451 0.034976 0.082778 -0.096859 0.13335 -0.9559 -0.00025593 8.4486e-05 0.0019291 -0.0010156 -0.00307
302 0.071216 0.16625 -0.18527 0.14596 -0.79163 -0.00018609 2.6776e-05 0.00043284 -0.00012551 0.00067249 0.0119 0.028049 -0.032354 0.035938 -0.22287 -5.5306e-05 1.1306e-05 0.00019967 -7.8812e-05 -5.1066e-05
303 0.071216 0.16625 -0.18527 0.14596 -0.79163 -0.00018609 2.6776e-05 0.00043284 -0.00012551 0.00067249 0.0119 0.028049 -0.032354 0.035938 -0.22287 -5.5306e-05 1.1306e-05 0.00019967 -7.8812e-05 -5.1066e-05
304 0.10286 0.031748 0.0091576 0.011429 0.0083939 0.0049536 -0.00041527 -0.0075673 0.0042651 0.0010807 0.019882 0.01446 -0.0078145 0.0064431 0.0058651 0.0010038 -0.00029726 -0.0027335 0.001574 0.0020872
305 0.054122 0.1114 0.12672 0.0030833 -0.0011429 -0.00012471 0.00046406 -0.021475 -0.00047485 0.00030291 0.048345 0.098435 0.109 0.0024896 -0.00057257 -7.9566e-06 -0.0053375 -0.0085823 -0.020849 0.0004244
306 0.054337 0.11178 0.12648 0.002336 -0.0011164 -0.00015501 0.0046261 -0.022193 0.015672 -0.00064133 0.035939 0.072833 0.079089 0.0012631 -0.00012692 -3.6816e-05 0.0025309 -0.007366 0.0081376 -0.0010817
307 0.053038 0.10917 0.12277 0.0033523 -0.00069042 -0.00012065 0.0013394 0.0072274 0.002097 5.479e-05 0.03518 0.07192 0.076659 0.0027388 0.00056763 -3.2276e-05 -0.00087226 0.076885 -0.008473 0.00035091
308 0.052931 0.10923 0.12366 0.0032585 -0.00093542 -0.00016039 0.003182 -0.020701 0.0097832 0.00077063 0.021528 0.0442 0.048354 0.0013457 -0.0001019 -4.9157e-05 0.00071177 -0.0037197 0.0017066 0.00038767
309 0.054889 0.11297 0.12869 0.0033667 -0.0011788 -0.00016299 0.0045062 -0.030626 0.015946 0.0003237 0.034988 0.070809 0.078336 0.0021111 -0.00036774 -3.2526e-05 0.0021444 -0.015787 0.0077229 0.0002898
310 0.051862 0.10693 0.12096 0.0028944 -0.00091367 -0.00015072 0.0037414 -0.018317 0.011762 0.00024279 0.041064 0.084463 0.092986 0.0027008 -9.3367e-05 -0.00011688 0.0028658 0.0071917 0.0064747 0.0012993
311 0.053165 0.10966 0.12483 0.0028617 -0.0011849 -0.00016838 0.0045787 -0.00071259 0.014209 -0.00020721 0.034317 0.070391 0.078482 0.0016622 -0.00056807 -9.0877e-05 0.0026807 0.024581 0.0068071 -0.00027737
312 0.053738 0.11067 0.126 0.0031988 -0.0011232 -0.00015576 0.004311 -0.017227 0.01411 -0.00014892 0.044841 0.091556 0.10188 0.002576 -0.00059849 -8.4457e-05 0.0028121 0.0061296 0.0077626 -0.00022701
313 0.04606 0.095105 0.10744 0.0034533 -0.00060677 -0.00017011 0.0065993 0.24213 0.0062373 -0.00072202 0.022589 0.046812 0.052671 0.0024902 -7.6737e-05 -0.00012221 0.0064248 0.32568 0.0013347 -0.00090654
314 0.054949 0.11328 0.12857 0.0010575 -0.0014952 -0.00017134 0.0046407 -0.023256 0.016049 -0.00072809 0.01614 0.033062 0.03654 -0.00028593 -0.00040381 -4.1247e-05 0.0012017 -0.0056269 0.0042601 -0.00023286
315 0.055254 0.114 0.12957 0.0014425 -0.001496 -0.00018268 0.0047906 -0.024216 0.016857 -0.00036646 0.012368 0.025371 0.028065 -8.6788e-05 -0.00029269 -3.381e-05 0.00088093 -0.004123 0.0031299 -8.8476e-05
316 0.054526 0.11249 0.12741 0.00064348 -0.0014971 -0.00018158 0.0051491 -0.02184 0.017915 -0.00098765 0.015581 0.032005 0.035403 -0.00045045 -0.00043756 -4.9776e-05 0.0015563 -0.0061062 0.0056929 -0.00040606
317 0.064007 0.086173 0.10672 0.0012597 -0.0011713 0.0017334 0.0073824 -0.016367 0.0097701 -0.00030049 0.019301 0.012133 0.01917 0.00031368 -0.00023932 0.0019004 0.0062159 -0.0044209 0.0023466 -0.0001124
318 0.053556 0.11007 0.12368 0.0010915 -0.0010222 -0.00012639 0.0032914 -0.019544 0.010132 -0.0057235 0.010625 0.021599 0.02262 6.9432e-05 0.00016085 -4.5543e-06 0.00027959 -0.0024952 0.00051625 -0.004369
319 0.046177 0.095359 0.10768 0.0029574 -0.00068568 -0.00015182 0.0035383 0.020789 0.0082841 0.0010804 0.013496 0.028021 0.031306 0.0013183 4.6147e-05 -6.3018e-05 0.0015131 0.018402 0.0023266 0.0012268
320 0.054898 0.11324 0.12822 0.00084482 -0.0014485 -0.00018369 0.0055427 -0.026438 0.019932 -0.001346 0.011126 0.022838 0.025171 -0.00025479 -0.00027071 -3.4037e-05 0.001135 -0.0052588 0.0041878 -0.00039832
321 0.056156 0.1159 0.13136 0.00026697 -0.0016595 -0.00019926 0.0058363 -0.028387 0.021433 -0.0012169 0.0080433 0.016526 0.018234 -0.00037634 -0.00024397 -2.6749e-05 0.00083313 -0.0038968 0.0031468 -0.00024249
322 0.052701 0.10841 0.12253 0.0032377 -0.00083423 -0.00013891 0.0037299 -0.017288 0.01157 -0.00037736 0.030385 0.061983 0.067278 0.002062 0.0001089 -4.3772e-05 0.0014624 -0.0026227 0.0035288 -0.00020252
323 0.049447 0.10191 0.11559 0.0032688 -0.00082138 -0.00014791 0.0044825 0.13345 0.0046617 -0.00069412 0.019397 0.039944 0.044747 0.0016971 -0.00014021 -7.0298e-05 0.0031092 0.16384 -0.00040251 -0.0005057
324 0.044793 0.080902 0.094178 0.0016707 -0.00094485 0.0016061 -0.14176 -0.014002 -0.55706 0.0031039 0.019681 0.033195 0.040369 0.0006966 -0.00069828 0.0015459 -0.14865 -0.014574 -0.61399 0.0037679
325 0.09158 0.035834 0.066797 -0.0090485 -0.0018129 0.0085594 -0.269 -0.01018 -0.33117 0.0015402 0.010184 0.0042456 0.0075191 -0.0018493 -0.00033882 0.0013395 -0.054228 -0.0020723 -0.090891 0.00057197
326 0.050465 0.08022 0.095606 0.00078758 -0.0011066 0.0020786 -0.13808 -0.015599 -0.47391 0.0027825 0.022234 0.029548 0.037453 -0.00058321 -0.00079227 0.0023138 -0.15935 -0.012124 -0.53132 0.0033849
327 0.046232 0.083469 0.09718 0.0017133 -0.0009825 0.0016378 -0.14429 -0.013853 -0.56729 0.0032353 0.011656 0.019117 0.023241 0.00029712 -0.0003967 0.00091237 -0.081475 -0.0071353 -0.3242 0.00206
328 0.045376 0.081898 0.09538 0.0016812 -0.00097186 0.0016301 -0.14435 -0.013842 -0.56922 0.0032732 0.014904 0.02468 0.030023 0.00042892 -0.00052095 0.0011698 -0.10733 -0.0095847 -0.43345 0.0027834
329 0.046232 0.083469 0.09718 0.0017133 -0.0009825 0.0016378 -0.14429 -0.013853 -0.56729 0.0032353 0.011656 0.019117 0.023241 0.00029712 -0.0003967 0.00091237 -0.081475 -0.0071353 -0.3242 0.00206
330 0.048067 0.087337 0.10135 0.00191 -0.00090799 0.0017187 -0.15133 -0.018776 -0.58866 0.0024642 0.0043192 0.007337 0.0088234 0.00015607 -0.00013365 0.00031128 -0.029696 -0.0029669 -0.12235 0.00071535
331 0.058254 0.12012 0.13526 -0.0025809 -0.0020531 -0.00019891 0.0057571 -0.028761 0.020591 -0.0011221 0.0046586 0.0095233 0.010201 -0.00073765 -0.00017283 -1.1817e-05 0.00033493 -0.0015755 0.0011722 -8.9728e-05
332 0.050981 0.10534 0.12081 0.0033066 -0.0013832 -0.00019443 0.00538 -0.045622 0.022 0.0014101 0.0079971 0.016663 0.019698 0.00078669 -0.00037603 -5.6686e-05 0.0021346 -0.018497 0.0099579 0.00071885
333 0.050981 0.10534 0.12081 0.0033066 -0.0013832 -0.00019443 0.00538 -0.045622 0.022 0.0014101 0.0079971 0.016663 0.019698 0.00078669 -0.00037603 -5.6686e-05 0.0021346 -0.018497 0.0099579 0.00071885
334 0.050415 0.10415 0.11948 0.003355 -0.0013725 -0.00019678 0.0062412 -0.045797 0.025572 0.0013621 0.0080077 0.016683 0.019729 0.00079129 -0.00037759 -5.6823e-05 0.0021202 -0.018554 0.0098372 0.00072409
335 0.058185 0.1289 -0.04933 0.021742 0.035533 2.9964e-06 -0.0018163 -0.0017247 -0.011484 -0.23905 0.014635 0.033252 -0.024472 0.0085143 0.016351 3.4028e-06 -0.0005324 0.00055073 -0.0046184 -0.14802
336 0.043868 0.090591 0.10076 0.0035719 -0.0001177 -0.0001538 0.0061453 0.27741 0.0017764 -0.00027551 0.026975 0.056018 0.061856 0.0033254 0.00029363 -0.00015037 0.00827 0.44374 1.2274e-05 -0.00057358
337 0.042628 0.088331 0.092344 0.0039422 0.0013005 -0.00012371 0.0019143 0.018792 0.0006991 0.0027285 0.011162 0.023345 0.02331 0.0016187 0.00085528 -5.0452e-05 0.0010216 0.016739 0.00024919 0.0016727
338 0.040552 0.083858 0.095197 0.0034261 -0.00052875 -0.00018059 0.0084937 0.423 0.0019848 -0.0011507 0.020486 0.042649 0.049147 0.0025404 -0.00026437 -0.00014448 0.0082502 0.44976 0.00053219 -0.0012315
339 0.042083 0.086999 0.097889 0.0035055 -0.00034351 -0.00017209 0.0073195 0.34104 0.0021328 -0.00040176 0.011171 0.023223 0.026215 0.0013113 -2.1041e-05 -6.5337e-05 0.0031249 0.16068 9.7972e-05 -8.9686e-05
340 0.040471 0.083752 0.094637 0.0035449 -0.00040967 -0.00018694 0.0089147 0.44428 0.0020085 -0.00097984 0.012477 0.025986 0.029732 0.0015617 -0.00011096 -8.7e-05 0.0048391 0.26338 0.00018177 -0.00061687
341 0.040462 0.083639 0.094657 0.0034564 -0.00046436 -0.0001784 0.0086241 0.42458 0.0023609 -0.00098274 0.019616 0.040823 0.046901 0.0024707 -0.00021021 -0.00013648 0.0080881 0.43303 0.0010663 -0.0010122
342 0.041905 0.086665 0.098568 0.0034514 -0.00061666 -0.00018807 0.0087193 0.44042 0.0016031 -0.0012306 0.010518 0.021887 0.025229 0.0012716 -0.00014908 -7.2879e-05 0.0040992 0.22843 -0.00011728 -0.00061388
343 0.04012 0.082988 0.094213 0.0034476 -0.00051126 -0.00018383 0.0088377 0.45109 0.0015126 -0.0011824 0.017964 0.037415 0.043166 0.0022639 -0.00023349 -0.00013002 0.0075137 0.41418 0.00025871 -0.0011147
344 0.040813 0.084355 0.095317 0.0034779 -0.00042737 -0.00017592 0.0083546 0.40556 0.0024379 -0.00087641 0.021894 0.045543 0.052096 0.0027193 -0.0001817 -0.00014601 0.0084114 0.44427 0.001189 -0.00090934
345 0.042387 0.087438 0.098985 0.0032905 -0.00054487 -0.00013306 0.0032774 0.3179 -0.013718 -0.00065394 0.030458 0.063177 0.072539 0.0035539 -0.00041208 -0.00016374 0.0072016 0.53927 -0.011256 -0.0011387
346 0.044116 0.091099 0.10223 0.0029714 -0.000431 -0.0001389 0.0027874 0.010317 0.0055268 0.001605 0.0099427 0.020678 0.023 0.0010633 0.00010407 -4.8373e-05 0.0010915 0.014221 0.0013123 0.0010966
347 0.038297 0.079219 0.089855 0.0034865 -0.00042341 -0.00018131 0.0092786 0.47669 0.0017987 -0.0012774 0.009912 0.020649 0.023809 0.001272 -0.00011691 -7.2094e-05 0.0042104 0.22757 0.00046133 -0.00061645
348 0.039468 0.081594 0.092493 0.0034925 -0.0004374 -0.00017259 0.0081082 0.43679 -0.0003776 -0.0010999 0.014286 0.029736 0.034221 0.0018022 -0.00016212 -9.9062e-05 0.0056442 0.31391 -8.5002e-05 -0.00082591
349 0.04418 0.091106 0.10242 0.0028166 -0.00049714 -0.0001233 0.0018986 0.047195 -2.7942e-06 0.0010368 0.013808 0.028662 0.032059 0.0014188 6.8661e-05 -6.4218e-05 0.0016158 0.048439 0.00069483 0.0011532
350 0.18032 -0.082684 -0.0035161 0.0025315 0.00013271 0.015335 0.022759 -0.00035023 -0.0032004 -2.1146e-05 0.16196 -0.07363 -0.0026435 0.0023898 0.00012786 0.014579 0.02773 -0.00066322 -0.0041153 -2.9307e-05
351 0.17445 -0.079227 -0.0026394 0.0026214 0.00013731 0.015094 0.027013 -0.00058794 -0.0038575 -2.2129e-05 0.099093 -0.044384 -0.00092815 0.0016052 8.1098e-05 0.0090047 0.019915 -0.00066221 -0.0028072 -1.5307e-05
352 0.18848 -0.086691 -0.0039604 0.0024825 0.00012022 0.015799 0.019331 -0.00023054 -0.0025744 -2.1407e-05 0.22253 -0.10126 -0.0040363 0.0024755 9.8822e-05 0.01697 0.019081 -0.00046742 -0.0023704 -2.135e-05
353 0.18514 -0.084002 -0.0028421 0.0024099 0.00010509 0.016728 0.017593 -0.00033382 -0.002098 -1.2325e-05 0.054405 -0.024113 -0.00037697 0.00062941 1.822e-05 0.0047444 0.0050558 -0.00027809 -0.00047602 -1.4701e-06
354 0.093031 0.019581 0.056354 0.0017879 -0.00055834 0.0069038 0.017293 -0.0096155 0.0044232 -0.00010271 0.0070016 0.00096902 0.0038604 0.00015926 -5.8192e-05 0.00076058 0.0022458 -0.0013287 0.00065188 -2.2744e-05
355 0.18178 -0.083499 -0.003663 0.002597 0.00013883 0.015746 0.024133 -0.00035988 -0.0034486 -2.4119e-05 0.20978 -0.095523 -0.0035979 0.0030515 0.00016629 0.018419 0.034452 -0.00079366 -0.005077 -3.5001e-05
356 0.18199 -0.083272 -0.0034003 0.0025164 0.00012853 0.015805 0.022002 -0.00037038 -0.0030197 -1.8207e-05 0.13157 -0.059545 -0.0019527 0.0018111 8.955e-05 0.012181 0.018328 -0.00052369 -0.0024602 -1.3107e-05
357 0.17793 -0.080801 -0.0026983 0.0025936 0.00012793 0.016006 0.025319 -0.00054065 -0.00353 -2.2686e-05 0.085216 -0.038124 -0.00076616 0.0013343 6.2159e-05 0.0083265 0.016514 -0.00056026 -0.0023204 -1.466e-05
358 0.18445 -0.08485 -0.0038316 0.0025996 0.00013627 0.012473 0.023141 -0.00031216 -0.003272 -2.5806e-05 0.22599 -0.10303 -0.0040735 0.003045 0.00015578 0.011993 0.030224 -0.00065825 -0.0042704 -3.2375e-05
359 0.17943 -0.081286 -0.0025302 0.0026734 0.00013459 0.016712 0.027343 -0.00061474 -0.0038694 -2.329e-05 0.071383 -0.031766 -0.00049052 0.0011161 5.1286e-05 0.0069136 0.01376 -0.00050527 -0.001901 -1.1049e-05
360 0.17537 -0.079949 -0.0029586 0.0025572 0.0001326 0.015927 0.0253 -0.0005046 -0.0036123 -2.2112e-05 0.11882 -0.05355 -0.0014599 0.0018524 9.6705e-05 0.011743 0.022554 -0.00067424 -0.0032501 -1.8125e-05
361 0.17768 -0.081144 -0.0031229 0.0025883 0.0001336 0.015143 0.025377 -0.00047791 -0.0036265 -2.4838e-05 0.13687 -0.061787 -0.0017796 0.0020928 0.00010611 0.011963 0.024857 -0.000726 -0.0035623 -2.2479e-05
362 0.17164 -0.076898 -0.0016925 0.0023628 0.00010412 -0.00418 0.019497 -0.00055798 -0.0024521 -1.1733e-05 0.046827 -0.020577 -8.1913e-05 0.00070391 2.8335e-05 -0.0023946 0.0077717 -0.0003748 -0.00096523 -3.9844e-06
363 0.042871 0.088551 0.099128 0.0029983 -0.00032421 -0.00013377 0.0023229 0.016212 0.0031815 0.0017873 0.0090658 0.01887 0.020982 0.0009999 0.00010941 -4.5165e-05 0.0010118 0.013799 0.0011635 0.0010392
364 0.046042 0.095194 0.10901 0.0035442 -0.0010417 -0.00019044 0.0065553 0.25026 0.00527 -0.00023621 0.0023911 0.0049594 0.0057187 0.00024969 -5.0984e-05 -1.2919e-05 0.00051937 0.030275 -0.00027372 -5.3151e-05
365 0.052164 0.10788 0.12399 0.0034884 -0.0015075 -0.00021952 0.0074666 6.5267e-06 0.027351 0.00071814 0.00082589 0.0017077 0.0019608 6.1472e-05 -2.6022e-05 -3.9988e-06 0.00014826 0.0005679 0.00051855 1.3468e-05
366 0.1883 -0.086862 -0.0044034 0.001925 6.63e-05 0.013578 0.0094085 -7.1199e-06 -0.0011141 -1.6993e-05 0.31315 -0.14304 -0.0073167 0.00019363 -0.00021277 0.019576 -0.034719 0.00071512 0.006197 -8.6359e-06
367 0.18379 -0.084149 -0.0043129 0.00021129 -0.00011673 0.0051061 -0.022818 0.0004819 0.0040031 4.5837e-06 0.092472 -0.041595 -0.0022459 -0.0016626 -0.00024153 5.7084e-05 -0.034895 0.00057929 0.0055366 9.09e-06
368 0.17972 -0.080192 -0.0039388 0.0013524 0.00029986 0.0080538 -0.0071561 -6.9397e-05 0.0016363 9.6615e-05 0.13615 -0.055297 -0.0042682 0.00092295 0.0014264 0.0045405 -0.024974 -0.00080308 0.0047665 0.0005555
369 0.18337 -0.084057 -0.0042766 0.00086248 -2.1253e-05 0.004048 -0.010009 0.00024769 0.0019197 8.7841e-06 0.10328 -0.046608 -0.0024916 -0.00091069 -0.00013055 -0.000908 -0.023685 0.00037733 0.0037797 1.6323e-05
370 0.18614 -0.085848 -0.0043448 0.0018956 6.78e-05 0.011071 0.0084307 5.9491e-06 -0.0009253 -1.339e-05 0.30188 -0.13809 -0.0070146 0.0011754 -7.0888e-05 0.011416 -0.0097461 0.00030577 0.0019969 -1.4258e-05
371 0.19084 -0.08757 -0.0044662 0.00076501 -6.1687e-05 0.0076268 -0.012376 0.00032062 0.0022997 -4.1023e-06 0.092136 -0.041534 -0.0022067 -0.0013218 -0.00020311 0.00069758 -0.028526 0.0004726 0.0045049 5.5549e-06
372 0.18444 -0.085008 -0.0042174 0.0020552 9.0662e-05 0.013717 0.012338 -9.5844e-05 -0.0015683 -1.2712e-05 0.42689 -0.19513 -0.0095791 0.002832 6.1166e-05 0.030087 0.0086467 -8.9121e-05 -0.00082944 -1.6619e-05
373 0.18585 -0.085573 -0.004369 0.0015505 3.9379e-05 0.009386 0.0012858 0.00011215 0.00023741 -3.2305e-06 0.2165 -0.09861 -0.0051711 -8.3992e-05 -0.00011407 0.0062712 -0.023455 0.00046376 0.0040463 1.3231e-05
374 0.17346 -0.066119 -0.0031329 -0.029926 -0.0034596 0.021613 -0.50322 0.0073235 0.075309 0.000179 0.0059037 -0.0020017 -0.0001767 -0.0018272 -0.00020487 0.00096113 -0.026838 0.00039154 0.0040513 7.786e-06
375 0.18855 -0.086837 -0.0044399 0.0015506 3.315e-05 0.011228 0.0017438 0.0001156 0.00013269 -5.0986e-06 0.15484 -0.070515 -0.0036939 -0.00030134 -0.00012402 0.0061578 -0.018166 0.000366 0.0030054 3.1979e-06
376 0.18964 -0.087138 -0.0044404 0.0010313 -3.3024e-05 0.01029 -0.0082816 0.00026414 0.0017354 -5.0009e-06 0.14708 -0.066552 -0.0035017 -0.001633 -0.00028606 0.0051206 -0.04398 0.00075436 0.0072371 9.0793e-06
377 0.18509 -0.085355 -0.0042757 0.0020506 8.8241e-05 0.014907 0.011792 -6.7496e-05 -0.0014552 -1.3712e-05 0.41123 -0.18818 -0.0094489 0.0026248 4.7897e-05 0.033039 0.0021644 0.0001313 0.00044274 -1.3722e-05
378 0.18625 -0.085036 -0.0043234 0.00073741 1.3538e-05 0.014913 -0.011576 0.00020208 0.0021202 4.1335e-05 0.075114 -0.033369 -0.0018591 -0.001057 -6.5863e-05 0.0056344 -0.023483 0.00029266 0.003716 4.5074e-05
379 0.18814 -0.086811 -0.0043967 0.0020822 9.1124e-05 0.01328 0.011809 -5.1228e-05 -0.001464 -1.3943e-05 0.35038 -0.1602 -0.0081868 0.0018405 2.216e-05 0.019296 -0.0036324 0.00019816 0.0010772 -1.7709e-06
380 0.18752 -0.086456 -0.0043872 0.0019991 9.1927e-05 0.012863 0.010024 -3.4477e-05 -0.0011699 -6.3875e-06 0.33128 -0.15125 -0.0078059 0.001604 4.9098e-05 0.018814 -0.0068805 0.00020046 0.0016087 2.0636e-05
381 0.18417 -0.084493 -0.0043028 0.00073529 -6.0002e-05 0.0060558 -0.011485 0.00030012 0.0021052 -5.9656e-06 0.10091 -0.045604 -0.0024178 -0.0012074 -0.00019949 0.0009561 -0.027215 0.00045942 0.0042757 1.7957e-06
382 0.18532 -0.08455 -0.0042853 -0.0004238 -0.00020018 0.014099 -0.032461 0.00061746 0.0054508 4.8563e-07 0.074982 -0.033561 -0.0018123 -0.0020182 -0.00029087 0.0061851 -0.042518 0.00070241 0.0068972 6.7905e-06
383 0.18803 -0.086405 -0.004357 0.0016207 6.7066e-05 0.015867 0.0033384 3.9038e-05 -0.00012164 8.4959e-06 0.15673 -0.070835 -0.003683 -0.00021978 -3.0123e-05 0.012576 -0.017985 0.00024216 0.003024 3.7925e-05
384 0.18145 -0.082871 -0.0042143 -0.00014962 -0.00015568 0.0034903 -0.026547 0.00051562 0.0044244 2.6933e-06 0.064793 -0.029038 -0.0015708 -0.0014514 -0.00020301 -0.00020729 -0.027742 0.00045008 0.0043348 5.5798e-06
385 0.18522 -0.085097 -0.0043324 0.0012245 8.8948e-06 0.013501 -0.0036338 0.00016566 0.00096477 2.8859e-06 0.14532 -0.065836 -0.0034803 -0.00077133 -0.00014355 0.0089065 -0.025917 0.00043565 0.0042355 1.7208e-05
386 0.18775 -0.086569 -0.0044149 0.0018795 7.3297e-05 0.012705 0.0078888 1.3219e-05 -0.00084043 -8.1256e-06 0.27561 -0.12583 -0.0065448 0.00071187 -5.9454e-05 0.014541 -0.015225 0.00036856 0.0027862 8.3664e-06
387 0.18963 -0.087285 -0.004464 0.0015154 3.4427e-05 0.011647 0.00034526 0.0001289 0.000383 -1.6802e-06 0.19608 -0.089063 -0.0046922 -0.00055794 -0.00014563 0.0081755 -0.02845 0.00051147 0.0047508 1.885e-05
388 0.14266 -0.054402 -0.0026097 -0.027749 -0.0035001 0.022762 -0.79723 0.014515 0.21272 -0.00046895 0.046819 -0.017676 -0.0010167 -0.016712 -0.0025269 0.017239 -0.8941 0.018175 0.29851 -0.00099228
389 0.17552 -0.078019 -0.0039213 -0.0051601 -0.00072294 0.013515 -0.1091 0.0017091 0.016948 2.9338e-05 0.022532 -0.0095909 -0.0005714 -0.0018899 -0.00022694 0.0021038 -0.03052 0.00046333 0.0047038 7.6221e-06
390 0.18789 -0.086599 -0.0044105 0.0018428 7.1405e-05 0.012869 0.0067204 2.9873e-05 -0.00061995 -5.2979e-06 0.26047 -0.11879 -0.0061788 0.00067877 -3.3632e-05 0.014289 -0.014659 0.00033108 0.0027171 1.8142e-05
391 0.18358 -0.083717 -0.0042696 0.00060891 1.4951e-05 0.015117 -0.013804 0.00022114 0.0024723 5.2578e-05 0.076029 -0.033786 -0.0019021 -0.0009945 -4.6362e-05 0.006459 -0.02312 0.00027657 0.0036916 5.7958e-05
392 0.18675 -0.086137 -0.0043506 0.0020619 9.347e-05 0.013514 0.011727 -6.259e-05 -0.0014578 -1.0909e-05 0.33908 -0.15496 -0.0079017 0.0018728 4.9877e-05 0.020259 -0.0012047 0.00011896 0.00064053 8.9947e-06
393 0.18746 -0.085865 -0.0043721 0.0003092 -0.00012132 0.013801 -0.019912 0.00044129 0.0034957 -7.3111e-06 0.083488 -0.037528 -0.0020062 -0.0016063 -0.00023886 0.005498 -0.03249 0.00053802 0.0051376 3.7101e-06
394 0.18623 -0.085877 -0.0043275 0.0018879 6.3301e-05 0.011492 0.0084491 1.0266e-06 -0.0009346 -1.5981e-05 0.31274 -0.14298 -0.007194 0.0011348 -9.1159e-05 0.012985 -0.010334 0.00029378 0.0020412 -2.0856e-05
395 0.18808 -0.082242 -0.0041235 -0.0086577 -0.0011256 0.018052 -0.16677 0.0025606 0.025555 4.6201e-05 0.01289 -0.0052064 -0.00034007 -0.0017937 -0.00020674 0.0014508 -0.027195 0.00040236 0.0041271 7.299e-06
396 0.18729 -0.086439 -0.0043958 0.002003 7.9592e-05 0.01285 0.0099613 -9.8519e-06 -0.0011388 -1.3123e-05 0.35944 -0.16462 -0.0084466 0.0017787 -3.0863e-05 0.020059 -0.0065473 0.00032154 0.0016431 -1.0512e-05
397 0.17346 -0.066119 -0.0031329 -0.029926 -0.0034596 0.021613 -0.50322 0.0073235 0.075309 0.000179 0.0059037 -0.0020017 -0.0001767 -0.0018272 -0.00020487 0.00096113 -0.026838 0.00039154 0.0040513 7.786e-06
398 0.19021 -0.08765 -0.0044456 0.0017026 4.0025e-05 0.015203 0.0045321 7.3158e-05 -0.00029871 -1.3013e-05 0.21592 -0.098524 -0.0050545 6.3882e-05 -0.00014361 0.016859 -0.01882 0.00041644 0.0032835 -1.0812e-05
399 0.055973 0.13125 -0.14867 0.15531 -1.0324 -0.00026983 8.2833e-05 0.0018865 -0.0009852 -0.0028547 0.018735 0.04437 -0.052033 0.07331 -0.53028 -0.00014247 4.7417e-05 0.0010868 -0.00057173 -0.0016797
400 0.18194 -0.080689 -0.0038996 0.0025252 0.00053794 0.014454 0.0097602 -0.00042699 -0.00083375 0.00012567 0.091391 -0.03554 -0.0031408 0.0023994 0.0015852 0.0067413 0.0020236 -0.0011973 0.00054678 0.00052752
401 0.19012 -0.087855 -0.0044439 0.0024499 0.00013386 0.013003 0.017499 -0.00014102 -0.0023088 -1.329e-05 0.22307 -0.10238 -0.0051624 0.0023789 0.00015476 0.010742 0.01551 -0.00015224 -0.0020279 -2.9811e-06
402 0.18758 -0.086676 -0.0043755 0.0024263 0.00013177 0.013164 0.017806 -0.00015095 -0.0023878 -1.4977e-05 0.30982 -0.14226 -0.0071501 0.0034186 0.00022087 0.01664 0.024489 -0.00026446 -0.0033324 -6.5579e-06
403 0.18982 -0.087757 -0.0044216 0.0024598 0.00012353 0.012832 0.018208 -0.00014468 -0.0024457 -2.1551e-05 0.2132 -0.098031 -0.0048773 0.0023091 0.00011137 0.010096 0.016694 -0.00014649 -0.0022784 -2.1378e-05
404 0.19088 -0.088258 -0.0044929 0.0023884 0.00011871 0.012611 0.015651 -8.5888e-05 -0.0019757 -1.6011e-05 0.2186 -0.1005 -0.0050923 0.0022116 0.00010715 0.0097219 0.013309 -6.6229e-05 -0.0016784 -1.4111e-05
405 0.18899 -0.087347 -0.0043824 0.0024318 0.00011956 0.015589 0.018022 -0.00014463 -0.0024138 -2.2016e-05 0.25943 -0.11921 -0.0058728 0.0027416 0.00012263 0.018892 0.019401 -0.00017879 -0.0025942 -2.6976e-05
406 0.18622 -0.086065 -0.0042742 0.0025347 0.00013319 0.013496 0.021136 -0.00021719 -0.0029701 -2.4928e-05 0.29497 -0.13566 -0.0065705 0.0036767 0.00019769 0.017494 0.03346 -0.0004269 -0.0048848 -4.0919e-05
407 0.16918 -0.077962 -0.0036259 0.0024586 0.00013761 0.00082523 0.024045 -0.00036973 -0.0036325 -2.8836e-05 0.073409 -0.033752 -0.0014867 0.001217 7.5082e-05 -5.8042e-05 0.015665 -0.00029061 -0.0025288 -1.9851e-05
408 0.18731 -0.086482 -0.0043975 0.0023082 0.00013142 0.014973 0.01477 -0.00010577 -0.0018526 -3.7911e-06 0.3071 -0.14067 -0.0072376 0.0030616 0.00025378 0.022263 0.015544 -0.00015475 -0.0017633 3.7358e-05
409 0.18574 -0.085786 -0.0043126 0.002408 0.00013442 0.015266 0.018146 -0.00017411 -0.002465 -1.3021e-05 0.1939 -0.08903 -0.0044653 0.00226 0.00015631 0.014727 0.018392 -0.00023651 -0.0026416 -5.7135e-06
410 0.16848 -0.077758 -0.0037619 0.0023599 0.00012754 0.01456 0.024045 -0.00034273 -0.0037315 -3.0327e-05 0.040755 -0.018787 -0.00089752 0.00061425 3.592e-05 0.0040934 0.008088 -0.00012977 -0.0013517 -1.1436e-05
411 0.18781 -0.086778 -0.0044007 0.0023747 0.00012744 0.013491 0.016261 -0.00011775 -0.0021054 -1.228e-05 0.35164 -0.16139 -0.0082013 0.0036772 0.00024559 0.019868 0.022591 -0.00019846 -0.0028641 4.7953e-06
412 0.17822 -0.082399 -0.0040599 0.0025954 0.00014252 0.016249 0.025988 -0.00031601 -0.0039383 -3.477e-05 0.054765 -0.025284 -0.0012212 0.00087285 5.2077e-05 0.0056323 0.011144 -0.00015838 -0.0018078 -1.6796e-05
413 0.18853 -0.087112 -0.0043505 0.0024279 0.00012001 0.015884 0.01769 -0.00013887 -0.0023327 -2.0144e-05 0.24129 -0.11093 -0.0054093 0.002733 0.00012518 0.019968 0.020184 -0.00019204 -0.0026418 -2.9231e-05
414 0.19167 -0.088642 -0.004512 0.0024724 0.00012871 0.012822 0.017658 -0.00011943 -0.0023325 -1.7386e-05 0.19119 -0.087929 -0.0044563 0.0020288 0.00010749 0.0088068 0.013494 -9.1905e-05 -0.0017862 -1.1339e-05
415 0.18723 -0.086527 -0.0043693 0.0023492 0.00011671 0.013303 0.016049 -0.00010999 -0.0020763 -1.6796e-05 0.34207 -0.15722 -0.0078635 0.0035322 0.00016786 0.019832 0.022983 -0.00017495 -0.002993 -2.5459e-05
416 0.17831 -0.082158 -0.003799 0.0026492 0.00014916 0.015775 0.02761 -0.00044024 -0.0041672 -3.0041e-05 0.090537 -0.041495 -0.0017826 0.0013809 8.2263e-05 0.0080304 0.016651 -0.00032163 -0.0025822 -1.8026e-05
417 0.18204 -0.084107 -0.0041031 0.0026204 0.00014299 0.016026 0.025366 -0.00032393 -0.0037681 -3.0728e-05 0.13488 -0.062083 -0.0029344 0.0019409 0.00011206 0.012167 0.022033 -0.00033453 -0.0034393 -2.7567e-05
418 0.18827 -0.086979 -0.0044197 0.0023217 0.0001214 0.012863 0.014699 -8.7238e-05 -0.0018254 -1.0562e-05 0.30689 -0.14082 -0.0071807 0.0030139 0.00018855 0.0161 0.01535 -8.727e-05 -0.0017537 2.9604e-06
419 0.19109 -0.088342 -0.0044849 0.0024009 0.00011927 0.012405 0.016243 -0.0001041 -0.002097 -1.7527e-05 0.19395 -0.08912 -0.0044964 0.0019119 9.1079e-05 0.0082216 0.011223 -6.9255e-05 -0.001424 -1.1376e-05
420 0.18368 -0.084762 -0.0041506 0.0025206 0.00014666 0.015462 0.021755 -0.00026978 -0.003094 -1.5773e-05 0.24604 -0.11283 -0.0053735 0.003203 0.00022336 0.02029 0.030951 -0.00051041 -0.0045819 -1.439e-05
421 0.18927 -0.087524 -0.0044241 0.0024761 0.00012743 0.01259 0.018446 -0.00014388 -0.002479 -2.0384e-05 0.19579 -0.090119 -0.0045121 0.0022708 0.00011889 0.009547 0.018277 -0.00016843 -0.0025978 -2.3385e-05
422 0.18867 -0.087252 -0.0044038 0.0025055 0.00013034 0.012939 0.019551 -0.00016245 -0.0026836 -2.2593e-05 0.28025 -0.12898 -0.0064417 0.003232 0.00016654 0.014391 0.025382 -0.00022798 -0.0035483 -3.1735e-05
423 0.18327 -0.084626 -0.0041713 0.0023907 0.0001186 0.012026 0.01923 -0.00020505 -0.0026971 -2.4472e-05 0.20565 -0.094392 -0.0045447 0.0019863 6.0105e-05 0.011019 0.010302 -0.00011264 -0.0012211 -2.4815e-05
424 0.18648 -0.08622 -0.0042715 0.002594 0.00013193 0.016505 0.023325 -0.00024622 -0.0033788 -3.3846e-05 0.053487 -0.024647 -0.0011942 0.00073329 3.8568e-05 0.0049089 0.0078977 -9.9168e-05 -0.0012177 -1.2411e-05
425 0.19205 -0.088777 -0.004472 0.0025377 0.00013742 0.016341 0.019324 -0.00017169 -0.0026056 -1.4962e-05 0.053123 -0.024414 -0.001212 0.0006043 3.4367e-05 0.0039355 0.004647 -4.9495e-05 -0.0006398 -3.2114e-06
426 0.15973 -0.073613 -0.0033842 0.0024637 0.00014118 0.011781 0.028061 -0.00044998 -0.0044252 -3.5833e-05 0.055155 -0.025474 -0.0011533 0.0010677 6.862e-05 0.0053642 0.016263 -0.00027763 -0.0027545 -2.422e-05
427 0.17622 -0.081201 -0.0037408 0.0026468 0.00014958 0.012734 0.027472 -0.00042857 -0.0041318 -3.0308e-05 0.028537 -0.013088 -0.00055757 0.00045589 2.7247e-05 0.0019303 0.0056156 -0.00010793 -0.00087385 -6.3379e-06
428 0.17883 -0.082367 -0.0039398 0.0023312 0.00012977 0.013003 0.017545 -0.00022203 -0.0023433 -1.0083e-05 0.066604 -0.030463 -0.0013868 0.00090191 7.4087e-05 0.0044085 0.0084681 -0.00018293 -0.0012076 1.091e-05
429 0.18759 -0.086681 -0.0042794 0.0025559 0.00013079 0.01594 0.021827 -0.00023319 -0.0030931 -2.7753e-05 0.12629 -0.058046 -0.0027708 0.0015636 7.9505e-05 0.0098213 0.014603 -0.00019896 -0.0021383 -1.9151e-05
430 0.17157 -0.079227 -0.0037894 0.0026119 0.00014994 0.01433 0.028445 -0.00041365 -0.0044061 -3.4841e-05 0.093795 -0.043264 -0.0020118 0.0016062 0.0001009 0.0087663 0.021921 -0.00036127 -0.0036122 -2.9312e-05
431 0.18842 -0.087079 -0.0043946 0.002387 0.00012008 0.012965 0.016663 -0.00011912 -0.0021757 -1.7435e-05 0.27061 -0.12435 -0.0062173 0.0027489 0.00012942 0.014229 0.016684 -0.00011442 -0.0020932 -1.7995e-05
432 0.18803 -0.086945 -0.0044078 0.0024178 0.00012225 0.013069 0.017464 -0.0001253 -0.0023222 -1.9582e-05 0.33386 -0.15361 -0.0077405 0.00363 0.00017964 0.017795 0.025866 -0.00019183 -0.0035098 -3.1665e-05
433 0.17719 -0.081727 -0.0038996 0.0025814 0.00015336 0.0098877 0.0249 -0.00036509 -0.0036896 -2.2249e-05 0.14696 -0.067496 -0.0030943 0.0022991 0.0001683 0.0075306 0.027068 -0.00050924 -0.0042351 -1.0191e-05
434 0.19042 -0.088089 -0.0044365 0.0026158 0.00013896 0.016422 0.021546 -0.00018519 -0.0029845 -2.5131e-05 0.13342 -0.061409 -0.0030341 0.0016326 8.7089e-05 0.010409 0.013875 -0.00014109 -0.0019564 -1.6691e-05
435 0.18722 -0.086478 -0.0043099 0.0025312 0.00014358 0.013035 0.020324 -0.00020911 -0.0028108 -1.7264e-05 0.25412 -0.11659 -0.0057229 0.0031208 0.00022361 0.013922 0.025925 -0.00036306 -0.0036622 -7.8327e-06
436 0.16953 -0.078022 -0.0035826 0.002347 0.00012415 0.012189 0.020862 -0.00032827 -0.0029382 -1.9286e-05 0.052062 -0.023888 -0.0010471 0.00075216 4.0357e-05 0.003232 0.0075218 -0.00013489 -0.0010718 -7.9561e-06
437 0.187 -0.086411 -0.0043141 0.0024391 0.00012337 0.013357 0.018516 -0.00016327 -0.0025074 -2.1415e-05 0.34736 -0.15965 -0.0077977 0.0039536 0.00019423 0.020461 0.032206 -0.00036997 -0.0045798 -4.3596e-05
438 0.18961 -0.087675 -0.0044264 0.0024989 0.00012988 0.015742 0.018907 -0.00014888 -0.0025376 -1.998e-05 0.23319 -0.10725 -0.0053455 0.0026495 0.00013933 0.017343 0.020278 -0.0001846 -0.0027752 -2.1573e-05
439 0.16811 -0.076977 -0.0030818 0.0026445 0.00014765 0.015896 0.030556 -0.00063768 -0.0046257 -3.0206e-05 0.029261 -0.013313 -0.00045502 0.00050091 2.8903e-05 0.0030921 0.0066524 -0.00016287 -0.0010168 -6.4543e-06
440 0.18624 -0.086013 -0.0042872 0.0024278 0.00013006 0.012803 0.018124 -0.00016789 -0.0024318 -1.6445e-05 0.27886 -0.12801 -0.0062643 0.0032458 0.00019765 0.015648 0.025896 -0.00033739 -0.0036252 -1.8619e-05
441 0.18655 -0.085991 -0.0041848 0.0026148 0.00016894 0.016329 0.023206 -0.00032471 -0.0033286 -9.6647e-06 0.099816 -0.045559 -0.0021732 0.00133 0.00013184 0.0081599 0.012159 -0.00024689 -0.0017565 1.0199e-05
442 0.18978 -0.087762 -0.0043676 0.002686 0.00014681 0.012024 0.023884 -0.00025103 -0.0034362 -2.8878e-05 0.15195 -0.069902 -0.0033825 0.0019554 0.00010899 0.0059831 0.018048 -0.00022823 -0.0026389 -2.1995e-05
443 0.18804 -0.086886 -0.0043574 0.0023717 0.00011327 0.015154 0.017183 -0.00013813 -0.0022952 -2.193e-05 0.19456 -0.089378 -0.004416 0.0019691 8.3204e-05 0.013662 0.013343 -0.00012169 -0.0017814 -1.9305e-05
444 0.18974 -0.087775 -0.0044429 0.0025335 0.00013058 0.013063 0.019943 -0.00015868 -0.0027443 -2.4896e-05 0.20304 -0.093493 -0.0046904 0.0023515 0.00011808 0.010212 0.01857 -0.00015142 -0.0026012 -2.6416e-05
445 0.18925 -0.087449 -0.0043884 0.0026109 0.00015552 0.012662 0.021817 -0.00022747 -0.0030787 -1.7551e-05 0.16153 -0.074101 -0.0037033 0.002067 0.00017099 0.0075792 0.017838 -0.00024976 -0.0025751 -1.4725e-07
446 0.18934 -0.087509 -0.0044638 0.0023983 0.00013183 0.014706 0.015946 -0.00010152 -0.002015 -9.1042e-06 0.25708 -0.11802 -0.0060541 0.0027722 0.00020077 0.016832 0.017053 -0.00013962 -0.0021211 9.0718e-06
447 0.19079 -0.088248 -0.0044794 0.0025008 0.00012945 0.010938 0.018496 -0.00013521 -0.0024828 -2.1171e-05 0.14007 -0.064437 -0.0032478 0.0015114 7.6193e-05 0.0039927 0.010312 -7.2953e-05 -0.0013837 -1.2672e-05
448 0.18771 -0.086811 -0.0043647 0.0025366 0.00013329 0.013207 0.020588 -0.00018747 -0.0028673 -2.4359e-05 0.25262 -0.11629 -0.0057664 0.0030762 0.0001655 0.013675 0.026509 -0.00028028 -0.0038211 -3.2537e-05
449 0.19161 -0.088617 -0.0044354 0.0026594 0.00014227 0.015985 0.022863 -0.00021954 -0.0032412 -2.723e-05 0.13247 -0.060928 -0.0029701 0.0016276 8.7314e-05 0.0096187 0.014286 -0.00016588 -0.0020439 -1.6995e-05
450 0.19077 -0.088253 -0.0044619 0.0025773 0.00013497 0.01558 0.020917 -0.00017871 -0.0029093 -2.5082e-05 0.19666 -0.090519 -0.0045236 0.0022973 0.00011944 0.013617 0.018727 -0.00017692 -0.0026539 -2.3631e-05
451 0.18607 -0.086029 -0.004335 0.0024356 0.00012492 0.013088 0.018454 -0.00015179 -0.0025042 -2.0941e-05 0.35483 -0.16329 -0.008136 0.0041133 0.00021232 0.020564 0.032842 -0.00031408 -0.0046155 -3.9463e-05
452 0.19105 -0.088298 -0.0044796 0.0023106 0.00010537 0.016249 0.014516 -7.1732e-05 -0.0017956 -1.819e-05 0.1341 -0.061595 -0.0031075 0.0011982 4.3151e-05 0.009964 0.0057716 -6.3612e-06 -0.00064724 -9.6474e-06
453 0.1868 -0.086308 -0.0043635 0.0023684 0.00012602 0.013052 0.016491 -0.00012731 -0.0021576 -1.3269e-05 0.33107 -0.15205 -0.0076677 0.0035378 0.0002152 0.018252 0.0234 -0.00021266 -0.0030645 -8.6455e-06
454 0.18933 -0.087552 -0.0044492 0.0023823 0.00011423 0.012898 0.016153 -9.2752e-05 -0.0020774 -2.0776e-05 0.25876 -0.11916 -0.0060458 0.002717 0.00011208 0.015027 0.016279 -3.6999e-05 -0.0019729 -3.1759e-05
455 0.1828 -0.084459 -0.0042859 0.0021751 0.00010067 0.01359 0.012815 -6.0575e-05 -0.0015304 -1.302e-05 0.12324 -0.056722 -0.0028906 0.0012198 4.8701e-05 0.0081583 0.0060205 9.0995e-07 -0.0006423 -8.0908e-06
456 0.19025 -0.087979 -0.0044551 0.0024531 0.00012199 0.015792 0.017964 -0.00012954 -0.002394 -2.1367e-05 0.2508 -0.11539 -0.0057839 0.0027757 0.00013642 0.019014 0.021737 -0.00019431 -0.0030719 -2.8818e-05
457 0.1913 -0.088503 -0.0044566 0.0026272 0.00013764 0.014844 0.022045 -0.00019952 -0.0031006 -2.8361e-05 0.10063 -0.046316 -0.0022979 0.0012033 6.2714e-05 0.0063641 0.010141 -0.00010098 -0.0014474 -1.3404e-05
458 0.19226 -0.088946 -0.004522 0.0025349 0.00013019 0.015351 0.019274 -0.00014147 -0.0026095 -2.2449e-05 0.18037 -0.083001 -0.0041885 0.0019728 9.826e-05 0.011802 0.014136 -0.00010213 -0.0019123 -1.7135e-05
459 0.18623 -0.085979 -0.0043151 0.0022098 0.00010391 0.010808 0.012802 -7.3148e-05 -0.0015116 -1.1248e-05 0.18299 -0.083992 -0.0041596 0.0017251 7.1602e-05 0.0069434 0.008592 -5.6384e-05 -0.00095058 -8.6612e-06
460 0.19026 -0.087953 -0.0044683 0.002493 0.00013848 0.015776 0.018709 -0.00015085 -0.0025197 -1.4746e-05 0.23574 -0.10826 -0.0055 0.0025776 0.00017204 0.017027 0.017794 -0.00016835 -0.0023699 -2.7067e-06
461 0.18741 -0.086657 -0.0043715 0.0024818 0.00013032 0.015647 0.019085 -0.00015629 -0.0025831 -1.9479e-05 0.23196 -0.10672 -0.0053232 0.0026744 0.00014122 0.017904 0.020277 -0.0001821 -0.0027453 -1.9758e-05
462 0.18869 -0.087241 -0.0043724 0.0025386 0.00013266 0.015758 0.020624 -0.00019131 -0.0028668 -2.37e-05 0.21458 -0.098703 -0.0048497 0.0025743 0.00013584 0.016264 0.022537 -0.00025913 -0.0032616 -2.7772e-05
463 0.18806 -0.086952 -0.0044045 0.002467 0.00013218 0.015146 0.018618 -0.00015142 -0.002512 -1.6968e-05 0.30064 -0.13827 -0.0069801 0.003419 0.0002072 0.021592 0.025178 -0.00023666 -0.0034043 -4.7844e-06
464 0.19188 -0.088741 -0.004521 0.0024338 0.00012157 0.012605 0.016563 -9.833e-05 -0.0021344 -1.8118e-05 0.21341 -0.098152 -0.0049771 0.0021886 0.0001054 0.0089941 0.013634 -7.2389e-05 -0.001759 -1.6191e-05
465 0.18853 -0.087156 -0.0044182 0.0023637 0.00011495 0.013505 0.016006 -9.6644e-05 -0.0020603 -1.8671e-05 0.30369 -0.13963 -0.0070205 0.0030783 0.00013567 0.017252 0.019049 -0.00010104 -0.0024174 -2.6817e-05
466 0.18327 -0.084588 -0.0042058 0.0022061 0.00010237 0.0065367 0.013779 -9.8141e-05 -0.0017359 -1.7611e-05 0.13047 -0.059862 -0.0029081 0.0012737 5.191e-05 0.00037167 0.0069759 -7.1748e-05 -0.00083386 -1.0165e-05
467 0.19025 -0.087915 -0.0044596 0.0024511 0.00013542 0.015723 0.017085 -0.00012099 -0.0022061 -1.1805e-05 0.20492 -0.093991 -0.0047583 0.0022639 0.00016841 0.015079 0.015016 -0.00015651 -0.0019322 5.0423e-06
468 0.19357 -0.089495 -0.0045146 0.0025367 0.00013327 0.011391 0.018623 -0.00014375 -0.0024821 -1.8523e-05 0.11293 -0.051891 -0.0025662 0.0012505 6.6929e-05 0.0032524 0.0089255 -8.8068e-05 -0.0011967 -8.1805e-06
469 0.18685 -0.086372 -0.0043013 0.0025571 0.00013568 0.01593 0.020976 -0.00019011 -0.0028957 -2.3984e-05 0.067603 -0.031075 -0.0015004 0.0008235 4.3237e-05 0.0054783 0.0068671 -7.7968e-05 -0.00094726 -7.877e-06
470 0.19149 -0.088553 -0.0044637 0.0025573 0.00013409 0.016115 0.020001 -0.00016492 -0.0027234 -2.1747e-05 0.18974 -0.087253 -0.0043232 0.0021655 0.00011259 0.013835 0.016548 -0.00015661 -0.0022514 -1.8208e-05
471 0.18741 -0.086593 -0.0043793 0.0022908 0.00010907 0.012902 0.015436 -9.634e-05 -0.0020126 -1.802e-05 0.246 -0.11283 -0.0056783 0.00144 -2.9742e-05 0.014472 -0.011134 0.00032979 0.0025725 -1.0449e-05
472 0.18916 -0.087455 -0.0044226 0.002415 0.0001196 0.012844 0.017354 -0.00012554 -0.0023078 -2.0934e-05 0.24217 -0.11135 -0.0055825 0.0024883 0.00011142 0.011769 0.016312 -0.00011145 -0.0021589 -2.3949e-05
473 0.16979 -0.078253 -0.0037112 0.0022861 0.00011942 0.00061729 0.019763 -0.00027657 -0.0028981 -2.4854e-05 0.086334 -0.039735 -0.0018194 0.0013456 7.9616e-05 0.00036477 0.01715 -0.00029648 -0.0028188 -2.4952e-05
474 0.18573 -0.085822 -0.0042306 0.0025778 0.00013778 0.015854 0.02273 -0.00025919 -0.0032599 -2.6218e-05 0.1892 -0.086998 -0.0041575 0.0024843 0.00013911 0.015559 0.024869 -0.00035716 -0.0037346 -2.8885e-05
475 0.16534 -0.076251 -0.0036444 0.0024361 0.00014843 0.014014 0.025141 -0.00038542 -0.0038518 -2.3121e-05 0.077524 -0.035704 -0.0016914 0.0013494 0.00010955 0.0077816 0.017961 -0.00032628 -0.0029465 -4.5265e-06
476 0.17958 -0.083008 -0.0040887 0.0025858 0.00014309 0.014359 0.024756 -0.00030225 -0.0036771 -2.9617e-05 0.15053 -0.069373 -0.0033384 0.0022159 0.00013185 0.012013 0.025474 -0.00037228 -0.0040202 -3.1838e-05
477 0.19085 -0.088274 -0.0044996 0.002438 0.00012329 0.012448 0.016807 -9.8562e-05 -0.0021756 -1.8132e-05 0.17206 -0.079154 -0.0040173 0.0018017 8.9122e-05 0.0072795 0.011586 -6.2047e-05 -0.0015071 -1.3259e-05
478 0.18718 -0.086556 -0.0043604 0.0024931 0.00013004 0.013364 0.019851 -0.00017591 -0.002758 -2.3096e-05 0.29152 -0.13425 -0.0066771 0.0036155 0.00019706 0.017598 0.033852 -0.00038403 -0.0050969 -4.5188e-05
479 0.1846 -0.085373 -0.0042312 0.0026373 0.00013975 0.017308 0.02533 -0.00028944 -0.0037734 -3.5336e-05 0.034968 -0.016128 -0.00078444 0.0005059 2.8064e-05 0.0034564 0.005771 -7.4172e-05 -0.00090428 -8.8508e-06
480 0.18657 -0.086159 -0.004379 0.0022402 0.00011745 0.009606 0.01328 -7.5266e-05 -0.0016155 -7.7039e-06 0.2015 -0.092442 -0.0047206 0.0019269 0.00012007 0.0048914 0.0090067 -5.2449e-05 -0.0010027 2.4592e-06
481 0.18784 -0.086829 -0.0043152 0.0025856 0.00013633 0.016792 0.022548 -0.00024591 -0.0032302 -2.6548e-05 0.090883 -0.041802 -0.0020305 0.0011396 6.2356e-05 0.0076421 0.010842 -0.00014489 -0.0016168 -1.2177e-05
482 0.18455 -0.085112 -0.0043414 0.0021574 0.00013047 0.013952 0.011217 -6.2633e-05 -0.0012281 9.1995e-06 0.20679 -0.094535 -0.0049401 0.0019382 0.00019896 0.014349 0.0059119 -5.9494e-05 -0.00034992 5.2881e-05
483 0.18244 -0.084251 -0.0041196 0.0025635 0.00014278 0.016158 0.023822 -0.00030408 -0.003493 -2.415e-05 0.11841 -0.054408 -0.0025725 0.0015916 9.5087e-05 0.010729 0.016924 -0.00027676 -0.0025913 -1.609e-05
484 0.19484 -0.089716 -0.0042805 0.0023322 0.00010636 0.018009 0.015228 -0.00020056 -0.0018878 -1.2259e-05 0.010977 -0.0050106 -0.00022346 0.00010991 4.8085e-06 0.00094161 0.00082503 -1.7575e-05 -0.0001086 -6.7746e-07
485 0.18804 -0.086905 -0.0044189 0.0023158 0.00011815 0.014698 0.014214 -7.5064e-05 -0.0017052 -8.4514e-06 0.14228 -0.065403 -0.003311 0.0014601 7.5185e-05 0.0096601 0.0085245 -4.8711e-05 -0.0010239 -4.5145e-06
486 0.19116 -0.088336 -0.0044553 0.0023841 0.00011626 0.015356 0.016068 -0.00010904 -0.0020537 -1.7034e-05 0.167 -0.076693 -0.0038171 0.0016566 7.5543e-05 0.011576 0.010202 -8.001e-05 -0.0012889 -1.0839e-05
487 0.18766 -0.086786 -0.0043359 0.0026221 0.00014203 0.011708 0.022995 -0.0002357 -0.003311 -2.8412e-05 0.14571 -0.067087 -0.0032761 0.0019066 0.00010696 0.0062436 0.01845 -0.00023128 -0.0027598 -2.3759e-05
488 0.19011 -0.087923 -0.0044675 0.0024371 0.00012129 0.012769 0.01766 -0.00012197 -0.0023645 -2.1884e-05 0.2507 -0.11531 -0.0058296 0.0025621 0.00011515 0.011585 0.016522 -9.485e-05 -0.0021882 -2.4836e-05
489 0.1824 -0.084274 -0.0042638 0.0022009 0.00010412 0.0054644 0.013866 -8.1908e-05 -0.0017769 -1.7566e-05 0.11072 -0.050915 -0.0025695 0.0010834 4.4618e-05 -1.7721e-05 0.0062364 -3.1451e-05 -0.00081006 -1.142e-05
490 0.18389 -0.084978 -0.0042942 0.0022536 0.0001066 0.0020792 0.014274 -8.7345e-05 -0.0018263 -2.0256e-05 0.075305 -0.034637 -0.0017472 0.00074979 3.1964e-05 -0.0025778 0.0038234 -1.1216e-05 -0.00045059 -6.778e-06
491 0.19163 -0.088644 -0.0045088 0.0024894 0.00012597 0.015843 0.018356 -0.00012582 -0.0024503 -2.1148e-05 0.18153 -0.083528 -0.0042192 0.0019736 9.7822e-05 0.013169 0.014447 -0.00010378 -0.0019751 -1.8128e-05
492 0.19021 -0.087947 -0.0044403 0.0025022 0.00013086 0.010645 0.019234 -0.00016657 -0.0026485 -2.1918e-05 0.12113 -0.055685 -0.0027867 0.0013152 7.0132e-05 0.0032709 0.0094614 -9.1811e-05 -0.0013142 -9.0598e-06
