543 20
0 251.89 -116.95 -69.412 -147.58 3.9584 -0.24195 2.7072 8.3876 -7.6428 3.3568 -22.965 -45.371 -9.4489 1.3118 0.029795 -3.5446 -0.74504 0.2969 -0.57618 -1.6104
1 231.9 -112.66 -37.624 -75.973 23.639 14.569 -24.335 -43.613 -32.662 25.663 -10.366 -24.071 3.6796 -0.38423 -0.79457 -10.722 6.3058 -2.494 3.5243 3.1952
2 269.23 -125.64 -70.776 -150.45 16.078 0.78851 1.0064 1.6159 -23.073 11.521 -38.923 -78.66 -14.068 2.6671 0.38164 -14.071 -1.1378 -0.61094 -1.8915 -3.74
3 226.35 -104.13 -66.515 -133.65 6.392 -2.7633 6.1975 12.905 -3.1491 0.94712 -16.507 -31.984 -7.1251 0.57092 0.43152 -2.3656 -1.9345 0.3893 -0.53952 -0.43756
4 233.75 -108.54 -64.019 -134.98 13.174 -0.90214 4.7623 8.0358 -14.799 8.3629 -16.118 -32.167 -6.649 1.1508 0.33284 -4.5262 -1.8389 0.012729 -0.99748 -1.8475
5 307.1 -150.28 -46.275 -123.81 17.066 18.99 -36.288 -64.37 -61.817 40.285 -86.833 -205.11 12.277 8.7954 -9.2326 -77.198 60.348 -21.93 13.713 -0.41005
6 249.03 -112.88 -81.384 -152.78 -1.4536 -6.1824 12.375 26.067 17.009 -9.0628 -25.976 -48.134 -12.228 -0.40025 0.89277 1.1599 -4.4672 1.3686 0.62697 1.9072
7 163.21 -72.401 -60.029 -97.795 29.258 -6.5858 23.819 39.658 9.191 -0.49108 -11.148 -19.439 -5.6498 -0.91265 1.7254 -3.8915 -8.1764 2.0512 1.0111 1.0863
8 251.74 -114.32 -81.661 -156.25 -18.075 -6.2947 7.1142 20.568 21.141 -13.256 -52.514 -97.85 -24.442 -0.58224 0.17851 10.889 -1.4578 1.2028 0.58547 3.2166
9 241.51 -110.46 -74.184 -145.37 -4.6257 -3.8389 6.3935 15.273 8.1338 -5.0246 -17.915 -34.119 -7.8657 0.19822 0.17764 0.24109 -0.97549 0.30274 0.018784 0.31155
10 335.96 -154.85 -98.4 -201.13 -9.381 -3.1735 3.9195 14.244 4.0107 -4.0819 -202.8 -393.24 -86.841 6.7671 -0.83452 1.5276 1.3588 1.0667 -3.575 -4.4986
11 245.43 -110.91 -81.724 -151.93 -6.2374 -6.9243 12.206 26.609 21.272 -11.73 -34.387 -63.249 -16.389 -0.82773 1.0294 3.8284 -5.2817 1.7123 1.066 3.1167
12 145.32 -63.955 -55.656 -86.687 31.738 -6.7645 25.17 41.656 8.8499 0.42622 -10.629 -18.138 -5.4754 -1.1332 1.9901 -4.4401 -9.2945 2.3355 1.2065 1.035
13 157.83 -69.672 -59.592 -94.834 29.283 -6.8686 24.718 41.078 11.298 -1.1042 -11.819 -20.343 -6.0462 -1.1517 1.9216 -4.0678 -9.1254 2.292 1.3293 1.3834
14 247.53 -115.76 -64.164 -142.68 -2.6783 -0.56992 -5.1562 -4.7556 -18.88 6.1386 -14.674 -29.927 -5.6636 1.3663 -0.1705 -2.0025 1.7165 -0.54034 -1.8122 -1.5941
15 156.7 -69.641 -57.023 -92.991 32.055 -6.276 23.684 39.33 5.0741 1.6506 -9.6366 -16.875 -4.8703 -0.73343 1.623 -4.1057 -7.645 1.8982 0.71763 0.56847
16 231.88 -104.2 -79.993 -144.84 -7.4092 -7.2218 14.016 29.506 27.418 -13.72 -22.792 -41.251 -11.03 -1.004 0.73809 3.4808 -4.0739 1.3137 1.4773 2.8523
17 229.76 -106.59 -63.378 -134.43 4.2946 -0.69204 2.6223 7.5417 -7.6973 3.0103 -19.442 -38.417 -8.0012 1.12 0.10672 -3.15 -0.75001 0.23297 -0.64614 -1.3095
18 224.46 -100.41 -79.293 -140.32 -2.1836 -7.4866 16.891 33.338 29.158 -13.644 -48.226 -86.156 -23.658 -2.8225 2.2591 5.5259 -12.133 3.7259 4.3446 7.2724
19 250.73 -117.05 -65.607 -140.94 25.295 0.47739 5.0971 8.5918 -25.817 13.358 -18.157 -36.579 -7.0596 1.4161 0.64643 -8.1734 -3.1364 0.50716 -1.2344 -2.3665
20 228.07 -104.38 -69.633 -136.17 3.94 -3.3852 8.2514 16.653 3.8283 -2.0119 -17.951 -34.228 -7.92 0.26323 0.44728 -1.5338 -2.3793 0.5769 0.0073739 0.12718
21 251.82 -114.14 -82.282 -154.13 -1.1463 -6.2176 12.538 26.004 16.97 -8.9326 -24.233 -44.917 -11.334 -0.39615 0.78904 0.87807 -4.1055 1.2185 0.68355 1.7339
22 238.09 -108.83 -73.44 -143.62 -4.9891 -4.0263 6.3904 15.396 8.419 -5.3754 -18.828 -35.805 -8.3231 0.18954 0.20255 0.44024 -1.0788 0.33233 -0.025895 0.37146
23 232.8 -104.59 -80.756 -145.77 -8.9612 -7.1993 13.991 29.936 29.056 -14.412 -24.84 -44.87 -12.036 -1.1681 0.74473 4.2814 -4.2349 1.4092 1.7331 3.2182
24 99.065 -39.574 -56.695 -71.866 -65.712 -12.295 15.485 48.202 71.08 -31.887 -9.4266 -12.99 -4.7513 -3.6656 -0.75247 14.274 0.24715 0.19351 4.09 4.0235
25 268.89 -124.69 -75.071 -157.59 -7.3512 -1.0678 -1.0192 3.1875 -4.9579 0.80641 -22.761 -45.07 -9.0507 1.1702 -0.35664 -1.1265 1.8972 -0.56858 -0.82904 -1.2667
26 240.14 -109.82 -73.712 -143.56 4.0033 -3.8372 8.9047 18.049 4.7517 -2.5262 -15.05 -28.638 -6.6647 0.18076 0.38661 -1.1993 -2.0539 0.50634 0.036778 0.17648
27 246.44 -116.58 -57.413 -136.6 4.7168 2.4211 -9.1915 -13.121 -32.382 12.948 -21.238 -44.782 -7.1284 2.6717 -0.34066 -6.6566 3.6238 -1.2844 -2.8845 -3.5064
28 159.18 -73.729 -43.367 -83.211 45.317 -1.1721 14.074 21.019 -33.16 19.295 -73.73 -146.17 -27.681 3.6363 10.995 -74.057 -52.451 9.9838 -9.4546 -22.303
29 261.47 -122.6 -65.875 -142.6 22.435 1.8059 -0.11977 -1.5004 -31.117 15.857 -49.641 -101.84 -16.708 4.0443 0.7677 -23.952 -1.9193 -1.103 -3.1799 -6.1117
30 228.97 -105.42 -66.687 -134.65 -6.9693 -2.0684 1.1327 5.2339 0.22662 -1.7282 -49.95 -97.353 -20.062 1.464 -0.67419 -1.2431 3.0363 -1.1312 -0.68603 -1.2659
31 241.42 -110.61 -73.212 -144.55 -2.6923 -3.6038 5.9738 14.153 5.3265 -3.7516 -16.803 -32.168 -7.3083 0.28715 0.19324 -0.30729 -0.94625 0.26238 -0.12273 0.11791
32 430.95 -199.27 -28.853 3.5436 57.243 26.286 -23.048 -26.718 -12.755 23.209 -8.349 -20.356 11.996 -2.4667 0.084674 -5.3708 0.76305 0.6581 2.6176 2.4951
33 172.75 -77.895 -57.769 -101.77 29.296 -5.6989 18.311 30.551 -4.7494 3.2073 -10.052 -18.387 -4.946 -0.22574 1.3215 -4.0873 -6.2483 1.4659 -0.18458 -0.075425
34 266.45 -126.86 -58.161 -143.16 11.521 5.9644 -10.316 -18.2 -39.842 21.997 -41.763 -89.907 -12.189 5.872 -1.6575 -19.138 7.9145 -3.9255 -3.2414 -9.2961
35 244.85 -114.67 -62.376 -140.23 -22.85 1.3387 -11.254 -12.61 -9.7548 2.2275 -51.366 -105.28 -17.28 4.0196 -3.3931 1.8586 18.211 -4.9672 -2.6063 -5.5494
36 98.724 -42.264 -42.567 -56.816 35.547 -6.745 26.637 43.753 3.6057 4.3295 -15.973 -25.453 -8.3403 -2.9992 4.9081 -11.055 -21.891 5.5305 2.5614 -0.56074
37 287.2 -140.79 -37.039 -64.104 -1.1224 22.936 -47.267 -69.103 -17.569 22.189 -31.373 -76.189 23.491 -4.4381 -4.2039 -21.438 31.512 -8.4181 14.779 17.166
38 217.47 -100.15 -62.966 -122.46 35.827 -2.4112 14.109 22.196 -20.298 12.04 -30.431 -59.092 -12.847 1.0944 2.8055 -16.887 -13.239 2.7045 -1.7572 -3.2029
39 329.36 -161.31 -38.543 -36.604 -25.097 28.365 -57.503 -62.573 10.775 14.315 -53.866 -131.84 60.194 -16.203 -7.6261 -13.229 54.945 -7.7759 28.511 31.413
40 316.23 -155.07 -38.491 -49.499 -33.446 26.802 -59.104 -70.953 4.1702 15.282 -41.242 -100.65 40.671 -10.145 -6.8949 -10.339 48.227 -9.2995 21.708 24.026
41 279.68 -131.09 -70.576 -152.06 20.81 2.2726 -1.0563 -3.4243 -30.649 16.096 -57.94 -118.82 -18.845 4.3732 0.24587 -26.658 0.13245 -1.9906 -2.4064 -6.4278
42 158.63 -76.489 -19.951 -46.497 -123.39 6.2738 -43.61 -32.495 -25.373 17.618 -18.197 -43.844 11.66 -1.2739 -7.095 19.679 40.524 -9.7554 3.5764 -5.6343
43 455.44 -210.95 -28.745 46.668 -4.216 25.904 -30.508 24.971 15.687 18.676 -8.2044 -20.027 14.32 -3.6945 0.049395 1.43 0.49408 2.5243 0.9963 -1.847
44 251.36 -111.89 -11.872 -7.231 -133.24 5.9527 -39.664 -24.694 -4.6228 8.9041 -4.8598 -11.728 6.9387 -1.1083 -1.2735 5.1641 7.0506 -1.2522 1.2326 0.042379
45 238.06 -108.91 -72.958 -142.87 -0.48627 -3.9222 7.2051 16.068 5.6974 -3.7881 -15.313 -29.183 -6.77 0.20737 0.30172 -0.45759 -1.4148 0.38344 -0.11564 0.22463
46 224.13 -103.44 -64.414 -133.52 -15.085 -2.0894 -1.456 3.2329 2.1604 -3.3396 -31.589 -61.937 -12.884 1.2839 -0.77241 2.5665 4.2025 -1.0706 -1.111 -1.2882
47 341.39 -167.2 -40.454 -52.722 -37.31 28.447 -63.662 -76.938 3.868 16.044 -44.399 -108.63 44.258 -10.703 -7.5038 -10.555 52.222 -10.062 23.128 25.762
48 239.01 -113.03 -55.873 -134.34 -16.164 1.9311 -15.339 -19.48 -24.487 7.336 -25.604 -54.053 -8.2607 3.0836 -1.2955 -1.9138 9.8092 -2.6835 -3.5824 -4.098
49 289.89 -137.9 -63.175 -146.09 0.58654 7.6375 -18.803 -33.313 -36.397 19.116 -126.25 -272.38 -21.714 10.925 -8.6841 -54.742 53.839 -20.362 1.856 -9.0144
50 116.88 -52.404 -39.732 -66.413 35.753 -5.4366 18.783 32.156 -12.312 8.0416 -11.278 -20.354 -5.6735 -0.36681 2.813 -8.4648 -11.857 2.8905 -1.1621 -1.6757
51 64.223 -18.712 11.499 30.075 -109.77 -17.6 17.459 82.16 -90.698 47.801 -1.3103 -2.8486 3.2397 0.024519 0.096168 3.5559 -1.2876 0.61503 -2.4859 -6.1173
52 228.9 -105.74 -64.849 -128.6 33.075 -1.8574 11.983 18.277 -21.449 12.127 -28.463 -55.795 -11.659 1.2603 2.1356 -14.866 -9.9875 1.8855 -1.67 -2.915
53 70.904 -30.393 -29.852 -39.853 28.738 -5.1239 19.846 32.873 -2.2295 5.3365 -24.114 -38.849 -12.414 -4.1901 8.2825 -20.018 -36.398 8.9737 1.9898 -4.4109
54 89.774 -36.837 -46.865 -64.507 -68.742 -9.8537 10.507 40.937 55.093 -22.76 -9.5875 -14.095 -4.7431 -3.0745 -1.1394 15.747 1.8809 -0.34603 3.4104 1.6535
55 242.12 -109.2 -81.552 -149.23 -0.0333 -6.9316 14.671 29.373 20.775 -10.39 -30.616 -55.987 -14.644 -0.95588 1.2937 1.5705 -6.5899 1.9207 1.3512 3.0828
56 188.72 -89.715 -41.326 -103.46 10.428 1.9758 -7.5785 -12.642 -36.035 15.689 -37.593 -81.332 -12.932 6.5165 -0.11892 -16.871 4.406 -2.7707 -8.3264 -10.324
57 218.16 -106.1 -36.361 -108.69 -44.322 9.656 -34.708 -51.705 -34.989 20.645 -89.628 -210.12 -6.5424 16.761 -17.752 0.079068 99.786 -30.905 -4.3874 -32.341
58 217.96 -99.99 -65.432 -135.98 -57.392 -3.8558 -7.4072 3.4364 20.263 -14.254 -107.04 -206.72 -44.366 2.0354 -9.4964 64.065 44.543 -8.2063 -3.3873 -9.4727
59 244.36 -110.35 -81.675 -150.47 -0.15948 -6.6789 14.348 28.835 20.059 -9.91 -26.799 -49.171 -12.782 -0.72312 1.0676 1.2801 -5.5687 1.6134 1.1229 2.4667
60 457.85 -210.19 -25.698 52.58 -12.512 35.331 -31.542 36.974 11.273 25.77 -7.0969 -17.288 12.686 -3.1457 0.003834 1.9588 0.15083 2.2732 0.4835 -2.3916
61 223.48 -99.899 -79.491 -140.81 -9.334 -7.8452 15.147 31.646 32.364 -15.741 -27.512 -49.117 -13.508 -1.6653 0.95151 5.498 -5.3066 1.7104 2.3553 4.2994
62 243.04 -109.34 -83.212 -150.64 -1.7549 -7.4589 15.474 31.183 24.322 -12.065 -29.453 -53.479 -14.226 -1.1672 1.2556 2.4496 -6.4571 1.9233 1.5971 3.459
63 248.76 -112.05 -84.582 -154.88 -9.3152 -7.4448 13.249 28.879 26.822 -14.019 -35.126 -64.028 -16.812 -1.2791 0.95429 5.3999 -5.1991 1.7569 1.7675 3.9227
64 12.336 -3.5406 -10.901 -6.9721 5.7815 -2.7968 7.8375 12.022 7.8376 1.7028 -2.1059 -1.817 -1.0184 -1.4154 1.5167 -0.8604 -3.6069 1.0998 2.7231 -0.30065
65 192.57 -86.352 -66.415 -112.29 41.926 -6.413 26.703 43.855 -2.7722 5.8446 -60.912 -109.31 -29.844 -2.9359 9.9538 -31.516 -47.352 11.596 1.8807 -0.67562
66 204.79 -94.048 -60.874 -123.06 2.544 -4.7228 3.6046 10.254 -7.3836 -1.2757 -54.968 -106.46 -25.548 2.6421 2.1062 -3.4623 -6.5366 1.6569 -6.414 -2.6595
67 426.86 -195.68 -130.02 -257.96 -13.461 -6.056 9.0412 25.192 14.892 -9.5144 -173.88 -332.31 -76.568 2.8391 0.53042 8.0043 -4.679 2.3818 -0.47446 1.4584
68 205.82 -95.268 -57.593 -123.21 -4.0811 -3.5292 -1.2988 2.8882 -11.495 0.23233 -61.012 -121.19 -27.39 4.8726 0.83208 -0.99296 0.70351 -0.28788 -9.3158 -6.2595
69 228.67 -104.15 -71.933 -136.53 18.326 -5.9544 13.413 24.754 -3.1951 0.13072 -70.231 -132.36 -33.304 0.83006 5.4436 -14.587 -23.392 5.5544 -3.5397 0.31767
70 49.246 -18.427 -32.597 -28.893 21.033 -7.0074 23.872 37.478 18.181 0.78542 -33.254 -39.601 -17.774 -16.252 15.753 -15.489 -58.188 15.222 23.127 6.556
71 247.95 -112.26 -80.934 -146.95 26.921 -6.3319 19.972 33.76 0.71787 0.83291 -123.26 -228.14 -57.921 -1.9183 10.582 -34.012 -51.974 12.041 1.026 2.9548
72 307.34 -150.45 -36.852 -45.988 -54.947 25.994 -61.254 -69.233 7.9692 13.51 -43.154 -105.43 44.2 -11.143 -8.5407 -1.0084 56.371 -10.487 22.417 22.949
73 5.1406 0.83283 -14.751 -3.2417 -19.014 -2.9569 12.26 21.698 17.495 2.8328 -16.56 -1.1696 -6.637 -24.585 -13.331 25.052 -17.715 -10.048 32.697 11.187
74 282.52 -129.21 -86.721 -168.89 4.7098 -4.5144 10.476 21.235 5.5902 -2.972 -690.55 -1314 -305.79 8.282 17.74 -55.029 -94.236 23.241 1.6924 8.0935
75 288.36 -131.71 -88.96 -170.82 12.678 -4.9763 12.688 23.298 0.83282 -0.77464 -176.07 -334.48 -77.881 1.6758 6.7373 -27.664 -34.384 7.4109 -0.84201 0.97248
76 266.46 -121.3 -83.969 -157.38 22.472 -5.6507 16.41 28.236 -2.3505 1.2034 -163.62 -307.84 -74.661 0.31562 10.63 -39.925 -52.451 11.618 -1.6763 0.62549
77 430.44 -165.54 19.795 2.1452 53.753 -1.5021 10.343 -37.401 -19.776 -0.064144 -7.2747 -17.253 10.846 0.44531 0.12435 -4.1843 -0.42727 -1.2596 0.78448 2.6752
78 541.22 -214.29 17.539 33.842 -12.04 2.4594 -5.3707 -13.278 12.87 -6.5515 -13.874 -33.076 23.448 -1.1952 -0.33464 1.8201 1.5474 -0.37683 0.60969 0.8979
79 213 -99.407 -19.123 -44.016 -32.073 14.277 -32.722 -59.45 -13.28 9.6737 -9.5827 -23.232 8.2123 -0.65523 -1.9238 -2.1268 12.254 -3.9994 3.9361 4.922
80 506.4 -203.42 11.899 28.264 3.1968 3.1898 -5.1713 -16.675 8.3403 -4.6889 -12.085 -28.876 20.057 -1.2385 -0.17021 0.13468 1.0595 -0.26848 0.84418 1.4343
81 406.54 -155.4 20.087 12.218 26.496 -2.0296 10.274 -28.832 -8.7574 -6.0968 -7.4311 -17.598 11.751 0.22438 -0.051129 -2.0488 -0.034583 -1.0512 0.4459 2.0619
82 331.45 -116.37 29.991 -19.397 -45.861 -10.715 -0.90008 -68.59 -1.0992 -21.512 -6.1393 -14.359 8.5329 1.6243 -0.8877 0.78805 4.4432 -3.2014 0.92839 3.4759
83 514.17 -202.26 18.887 31.609 -1.0226 0.054184 -2.3337 -13.096 9.5361 -6.295 -7.2438 -17.255 12.208 -0.51845 -0.092522 0.47697 0.45886 -0.22479 0.2507 0.58559
84 496.78 -194.37 19.77 41.043 -17.155 -2.1176 0.4523 2.5288 9.9521 -6.3295 -7.8954 -18.78 13.829 -0.72813 -0.1015 1.892 0.24412 0.1047 -0.2201 -0.61239
85 438.95 -166.46 24.731 24.262 30.788 -6.3526 12.241 -13.514 -4.3617 -7.0479 -5.4488 -12.897 9.0481 0.069356 0.11504 -1.0451 -0.68401 -0.34921 0.0097807 0.68923
86 495.72 -192.84 21.409 41.107 -26.745 -4.0208 3.0949 0.64995 7.9758 -9.1366 -8.2708 -19.654 14.526 -0.6786 -0.1895 2.4509 0.51992 -0.042313 -0.33633 -0.70754
87 439.19 -168.88 20.459 14.557 35.902 -3.1816 10.309 -26.799 -8.3136 -5.3395 -5.6486 -13.395 8.9635 0.10442 0.047838 -1.8098 -0.28602 -0.65698 0.3653 1.4153
88 460.53 -176.71 23.406 41.721 -15.563 -5.4702 4.2962 8.1073 7.5533 -6.168 -6.142 -14.564 10.928 -0.42193 -0.023824 1.6648 -0.17032 0.11892 -0.46975 -0.82438
89 488.67 -194.1 14.722 31.619 8.4425 1.539 -2.1806 -8.6057 8.1032 -3.6196 -8.0951 -19.308 13.655 -0.75775 -0.00031864 0.096464 0.10961 -0.0007351 0.30968 0.50903
90 433.36 -160.08 28.487 -6.4019 56.768 -8.1665 21.395 -50.246 -29.286 -5.029 -10.753 -25.345 15.467 1.7627 0.072196 -7.1768 -0.53694 -2.9352 1.0568 4.7644
91 440.34 -167.93 22.277 11.473 54.207 -5.6509 13.257 -26.952 -14.58 -2.29 -7.4026 -17.537 11.531 0.35651 0.23888 -3.6255 -1.024 -0.87355 0.50488 2.0192
92 308.12 -101.66 40.008 51.753 -16.222 -22.234 33.7 46.909 -19.564 -3.9624 -3.5796 -8.2782 7.2558 0.31875 0.26014 2.1805 -2.1282 0.34518 -1.9663 -3.2567
93 513.4 -199.59 22.592 36.334 8.9628 -3.0641 2.4544 -4.5261 6.9543 -5.4567 -8.5662 -20.37 14.668 -0.51399 0.065022 0.34802 -0.31513 -0.056535 -0.048604 0.19879
94 480.7 -186.3 22.008 46.593 -30.33 -4.1918 6.2329 11.941 5.3462 -7.4417 -13.465 -31.966 24.199 -1.2756 -0.21238 4.992 0.066133 0.38465 -1.2066 -2.6448
95 521.63 -208.05 14.577 29.239 -2.7834 3.05 -6.6291 -16.917 11.622 -5.523 -9.6032 -22.927 16.002 -0.8701 -0.19135 0.52753 1.0457 -0.29951 0.64317 1.096
96 374.78 -136.15 29.345 28.62 31.144 -13.158 19.707 0.48051 -6.852 -7.568 -6.4187 -15.081 11.096 0.36078 0.32781 -0.95103 -1.912 -0.25711 -0.66978 -0.12698
97 528.39 -210.46 15.337 32.942 -3.7579 2.9221 -1.8626 -13.913 7.7667 -6.2872 -11.462 -27.348 19.296 -1.0784 -0.21249 0.87009 0.89669 -0.2644 0.47512 0.84313
98 465.61 -180.03 21.728 43.957 -11.342 -4.9777 1.68 12.608 8.3265 -3.2489 -13.718 -32.563 24.503 -1.2203 0.060947 3.5193 -0.79058 0.67275 -1.098 -2.1754
99 449.43 -170.35 26.322 49.069 -23.9 -10.041 14.366 19.444 -0.15803 -8.1968 -17.925 -42.384 32.89 -1.2174 0.038559 6.9154 -1.8747 0.75241 -2.872 -5.2445
100 436.45 -162.7 28.518 21.114 44.259 -8.0904 18.398 -16.115 -11.611 -6.4998 -6.7003 -15.816 10.969 0.38413 0.23329 -2.1821 -1.3218 -0.6277 -0.056198 1.0616
101 489.25 -187.53 25.858 47.477 -10.981 -6.9036 6.0718 15.005 6.7377 -5.7248 -6.46 -15.321 11.613 -0.46523 0.059515 1.6864 -0.56463 0.30056 -0.63287 -1.1891
102 498.87 -194.26 20.706 32.078 -2.8331 -1.8066 3.8939 -13.118 5.3622 -8.5505 -10.035 -23.855 17.006 -0.56396 -0.14658 0.82866 0.45218 -0.4479 0.10626 0.62465
103 497.62 -191.7 25.303 52.974 -24.349 -6.6958 6.9042 22.473 5.2486 -5.2276 -10.691 -25.362 19.517 -1.0006 0.024298 3.9344 -0.82876 0.71146 -1.3469 -2.8875
104 493.56 -195.17 16.358 36.032 7.6724 -0.59569 -0.21398 -2.6586 8.1095 -3.98 -8.5809 -20.451 14.694 -0.8212 0.053224 0.40997 -0.21035 0.17894 0.088819 0.059191
105 397.52 -145.32 29.035 1.1001 -115.19 -11.442 -16.738 -45.261 9.2117 -16.507 -6.0159 -14.162 9.4864 0.64104 -0.99235 4.2519 4.9642 -2.1521 0.48492 1.2289
106 453.31 -172.49 25.873 50.69 -22.196 -7.9578 9.69 24.425 3.2067 -4.8285 -4.6528 -11.017 8.5769 -0.37624 0.03656 1.8114 -0.55367 0.3178 -0.74147 -1.4681
107 527.62 -209 17.025 34.32 -6.7315 1.8793 -1.0129 -12.104 8.1298 -6.6046 -10.62 -25.317 17.99 -0.93717 -0.20001 1.1142 0.78614 -0.24549 0.31087 0.57532
108 414.47 -160.96 16.718 10.162 41.793 -2.2127 6.6266 -27.684 -10.24 -1.0102 -6.0256 -14.313 9.3565 0.05671 0.092733 -2.5183 -0.32612 -0.6893 0.51858 1.7795
109 409.8 -151.98 28.299 31.567 21.834 -9.4436 16.881 -0.45527 -4.3261 -8.0253 -4.4411 -10.473 7.6974 0.088803 0.13547 -0.22647 -0.92139 -0.15228 -0.37836 -0.10055
110 500.2 -203.18 9.4156 33.128 2.7492 5.6553 -8.4924 -6.7578 11.218 -1.6007 -9.9514 -23.822 16.798 -1.3705 -0.063258 0.51719 0.5467 0.29092 0.59687 0.50688
111 39.309 16.371 44.18 -16.522 7.9168 -31.227 40.722 -15.148 -35.74 -15.368 -1.1592 -1.7897 0.46852 4.7075 0.33242 -1.328 -2.6064 -3.3177 -3.1731 -0.39181
112 539.46 -215.3 14.901 30.116 -8.883 1.7378 -4.9402 -19.93 9.8596 -7.5343 -19.054 -45.466 31.741 -1.6989 -0.5002 1.5857 2.5499 -0.81081 1.1993 2.1224
113 441 -181.4 3.2753 9.2336 43.578 7.052 -2.3466 -29.67 -8.7759 3.3279 -6.7842 -16.253 10.346 -0.59892 0.042008 -2.986 0.11717 -0.40586 1.0837 2.0416
114 497.28 -200.44 10.687 27.196 -8.9547 4.7274 -8.3087 -18.106 10.802 -5.6747 -11.88 -28.401 19.723 -1.3074 -0.33248 1.0081 1.8121 -0.34597 0.92804 1.4246
115 385.44 -141.9 25.087 -21.498 -128.53 -8.6874 -21.925 -72.126 1.8193 -17.077 -8.0476 -18.972 11.361 1.3133 -1.7664 5.1993 8.9282 -4.1256 1.2714 2.8916
116 479.4 -187.87 19.224 50.515 -13.332 -3.4939 2.4801 22.412 7.9301 -2.0927 -8.0366 -19.119 14.581 -1.003 0.096772 2.4061 -0.77523 0.7922 -0.77963 -2.0143
117 495.07 -191.45 22.025 20.975 20.902 -3.9267 7.7258 -27.8 -2.5291 -8.6506 -11.992 -28.475 19.456 -0.086411 -0.047654 -1.8372 0.25274 -1.2274 0.62877 2.4434
118 486.83 -191.6 17.935 32.578 -15.385 -0.81044 -6.3441 -8.3102 13.948 -7.0656 -10.972 -26.13 18.723 -0.9236 -0.23567 1.9967 1.2148 -0.16814 0.31791 0.38143
119 440.7 -166.56 24.811 7.7554 47.15 -5.6207 16.531 -35.43 -18.107 -5.55 -6.4642 -15.29 9.9427 0.49681 0.086934 -3.0229 -0.4989 -1.1244 0.42785 2.0824
120 493.74 -191.85 21.482 39.284 -12.068 -5.2864 3.7205 -0.62474 8.2688 -8.6892 -10.145 -24.104 17.681 -0.75302 -0.085774 2.0145 0.15344 -0.031035 -0.29205 -0.51524
121 463.28 -180.85 18.94 38.159 -10.811 -3.003 -0.0080917 3.0321 9.8346 -5.2465 -6.0476 -14.381 10.583 -0.53654 -0.027531 1.2579 0.043125 0.12471 -0.18239 -0.40467
122 445.44 -169.67 24.612 47.017 -22.981 -7.6574 7.5913 18.987 5.3115 -5.6478 -5.8306 -13.808 10.644 -0.44783 0.0076925 2.1953 -0.44603 0.29455 -0.77681 -1.5276
123 502.15 -218.11 -12.028 26.138 3.1167 23.882 -21.998 -15.313 12.028 14.1 -13.579 -32.827 22.039 -3.3675 -0.39995 -0.37607 2.3974 0.78826 2.3818 1.6156
124 484.3 -222.04 -28.657 26.925 -9.9039 44.306 -39.471 -7.7798 17.839 20.051 -8.1157 -19.786 13.155 -2.9832 -0.36057 0.44497 2.3215 1.1645 1.9688 0.58424
125 401.14 -167.89 -2.1241 -6.9133 66.767 9.0699 2.7573 -38.655 -33.169 13.505 -10.02 -24.046 13.821 -0.55821 0.21914 -8.4119 -0.37317 -1.2015 2.0228 3.9451
126 406.67 -154.52 23.351 52.297 -22.761 -7.7327 15.592 32.561 -5.067 -2.1788 -8.931 -21.12 16.851 -0.90674 0.15007 4.0844 -1.8629 0.9145 -2.0964 -4.1378
127 495.88 -192.71 21.762 43.359 -16.317 -3.7738 6.3561 4.7608 5.5913 -8.0053 -9.2703 -22.025 16.369 -0.78052 -0.084208 2.296 -0.078828 0.12681 -0.52609 -1.0319
128 482.88 -187.05 22.142 36.823 -1.5673 -3.9759 2.9335 -1.7269 7.2674 -7.1067 -4.6469 -11.042 8.0496 -0.2898 0.001324 0.57979 -0.079877 -0.0097253 -0.11258 -0.090432
129 496.65 -197.17 16.189 42.34 -0.1526 1.6919 2.112 6.2382 5.8155 -2.214 -6.6867 -15.945 11.696 -0.79692 0.025288 0.91693 -0.34642 0.31037 -0.18955 -0.5694
130 372.76 -135.83 27.391 3.4171 54.843 -10.012 26.597 -32.677 -28.959 -5.4181 -10.077 -23.672 15.176 1.5879 0.33719 -6.5502 -2.0563 -2.3217 0.25195 3.3533
131 497.91 -200.02 11.844 32.162 5.9061 3.547 -4.5228 -8.8519 8.8171 -3.4712 -10.394 -24.834 17.503 -1.1974 -0.032276 0.26357 0.38755 0.11265 0.50307 0.66562
132 458.56 -175.75 24.218 52.206 -36.194 -9.2399 10.794 24.41 1.333 -6.6641 -20.762 -49.179 38.377 -2.003 -0.11607 9.8427 -1.3225 1.2999 -3.3685 -7.0848
133 440.13 -171.78 16.18 2.933 42.884 1.359 7.8951 -40.314 -15.762 -1.7838 -7.3718 -17.524 11.047 0.21235 -0.016307 -3.5092 0.14318 -1.2459 0.91794 2.7613
134 459.69 -176.97 22.402 41.207 -24.536 -4.3758 6.7072 5.1759 4.9978 -8.295 -13.336 -31.624 23.692 -0.98533 -0.22967 4.2525 0.20182 -0.013515 -1.0063 -1.7763
135 440.65 -170.24 18.886 2.0195 51.462 -1.9938 9.2233 -39.492 -16.274 0.26808 -6.7178 -15.947 10.017 0.35674 0.078406 -3.6761 -0.19093 -1.153 0.82792 2.5017
136 493.82 -197.92 12.455 34.487 1.6531 1.6803 -6.3164 -4.4185 11.736 -2.5777 -12.45 -29.734 21.188 -1.4897 -0.035003 0.93785 0.42911 0.32049 0.48041 0.31908
137 430.77 -160.66 26.588 2.2998 63.804 -8.0437 19.587 -36.576 -25.896 -1.678 -8.2477 -19.469 12.311 0.99582 0.27935 -5.4297 -1.2787 -1.6117 0.59018 2.8829
138 517.16 -202.35 20.36 37.118 -5.1116 -1.4593 0.055515 -5.6463 9.58 -6.4814 -7.3312 -17.446 12.59 -0.55472 -0.066327 0.92733 0.21626 -0.063051 0.019729 0.063424
139 287.08 -99.409 26.43 -30.902 -176.73 -13.306 -19.376 -57.435 -26.995 -5.4399 -6.9606 -16.243 8.9321 2.1669 -2.2635 7.6817 11.107 -5.2517 0.50503 0.92836
140 553.43 -218.05 20.323 44.73 3.6542 -0.64533 3.691 2.7922 5.9409 -4.4006 -20.707 -49.318 35.988 -1.969 0.109 2.0944 -1.0509 0.60701 -0.46864 -1.0775
141 402.98 -146.66 30.762 8.7928 57.848 -11.122 22.633 -26.982 -22.52 -4.898 -5.1393 -12.085 7.9726 0.72497 0.21716 -2.9594 -1.1667 -0.90658 0.079166 1.4388
142 487.07 -190.73 19.301 43.526 -20.705 -2.9411 2.6147 7.3518 8.7231 -6.8965 -12.613 -29.992 22.334 -1.2966 -0.13729 3.5877 0.16653 0.38243 -0.60575 -1.6557
143 438.3 -164.74 26.57 19.272 37.449 -8.1303 13.574 -19.742 -7.0778 -6.912 -6.1783 -14.601 10.046 0.27935 0.1436 -1.753 -0.76209 -0.63057 0.12134 1.1793
144 515.44 -204.05 16.319 26.13 -7.1917 0.32806 -5.8774 -22.351 12.114 -8.1813 -10.663 -25.415 17.634 -0.75188 -0.2893 0.6809 1.5842 -0.62609 0.80546 1.515
145 445 -169.38 23.975 21.962 30.435 -5.779 10.026 -17.25 -2.9406 -6.6134 -4.9826 -11.801 8.186 0.06419 0.084226 -1.0292 -0.445 -0.38586 0.12665 0.8117
146 417.25 -156.94 23.679 -0.0085328 63.515 -6.8521 19.784 -38.067 -28.973 -0.91583 -8.7926 -20.779 12.937 1.0147 0.2863 -6.1446 -1.2829 -1.7859 0.70226 3.2427
147 409.28 -162.75 12.947 49.251 -27.299 0.59763 1.657 29.424 3.1619 2.4649 -5.0792 -12.1 9.4145 -0.90546 0.0068384 2.3096 -0.43847 0.69211 -0.72357 -1.9626
148 483.08 -188.55 20.336 48.16 -11.205 -3.4123 3.2653 17.491 7.7498 -3.1817 -8.2703 -19.665 14.878 -0.90738 0.074498 2.2038 -0.67875 0.61385 -0.70316 -1.6847
149 513.32 -203.38 16.271 31.513 -7.054 1.2282 -3.0569 -14.297 9.9163 -6.5213 -9.2413 -22.03 15.56 -0.78786 -0.18997 0.90198 0.89076 -0.28838 0.39297 0.72222
150 493.7 -192.48 20.966 39.979 -14.225 -2.9279 1.5668 1.0293 8.7602 -7.0068 -5.7352 -13.637 10.022 -0.47309 -0.063426 1.2472 0.12587 0.034719 -0.17479 -0.35674
151 492.22 -191.46 21.664 39.72 -12.724 -3.8027 2.2532 0.9957 9.2661 -7.7358 -9.1118 -21.652 15.917 -0.70813 -0.072736 1.9019 0.13718 0.040446 -0.25538 -0.5675
152 489.38 -191.25 19.704 40.205 -7.3093 -2.9154 1.4616 3.0253 9.645 -5.7932 -8.1587 -19.404 14.257 -0.72706 -0.013853 1.4657 -0.085045 0.17181 -0.20809 -0.55493
153 405.21 -151.46 23.4 -17.12 -108.02 -6.8846 -21.565 -70.809 7.6266 -18.062 -6.7337 -15.908 9.7012 0.849 -1.253 3.4767 6.5178 -3.0003 1.1578 2.6056
154 422.41 -161.53 21.568 18.72 26.069 -6.2134 6.016 -19.326 -1.4357 -5.8681 -5.5879 -13.244 9.0973 0.033253 0.06067 -1.1156 -0.24351 -0.47714 0.21659 1.1142
155 425.37 -160.22 26.457 53.058 -15.265 -10.43 16.86 32.226 -2.4746 -3.9888 -9.7217 -22.967 18.257 -0.76866 0.26116 3.8227 -2.2937 0.92868 -2.1611 -4.1589
156 428.13 -157.79 28.869 -3.2863 58.673 -8.2448 21.919 -45.554 -29.149 -3.8018 -8.9207 -21.024 13.014 1.414 0.14896 -5.9313 -0.83136 -2.2839 0.70654 3.6916
157 489.82 -190.05 21.809 40.741 -20.954 -3.3435 5.4796 1.0343 6.4006 -9.2275 -12.134 -28.818 21.305 -0.93044 -0.21086 3.2007 0.38653 -0.072124 -0.54234 -1.0206
158 443.23 -163.63 33.428 63.993 -25.674 -13.576 20.216 51.111 -7.5511 -0.42253 -8.7636 -20.646 17.021 -0.59256 0.33262 4.6491 -2.8042 1.2256 -2.8193 -5.5189
159 540.86 -220.3 8.4658 32.324 9.6351 4.1629 -4.1398 -14.67 6.8209 -3.2878 -32.726 -78.33 54.432 -4.2348 -0.23656 -0.69966 1.7652 0.20015 2.447 3.0301
160 494.55 -195.12 16.589 26.503 -17.689 0.7258 -3.9551 -21.352 9.7434 -8.6486 -8.7376 -20.814 14.556 -0.60925 -0.33476 1.2185 1.5329 -0.62536 0.47784 1.0691
161 480.08 -186.69 21.002 34.271 -24.223 -3.2711 -2.5973 -6.6952 12.577 -7.4899 -5.5902 -13.29 9.6461 -0.38161 -0.15371 1.4237 0.649 -0.1685 -0.0095844 -0.0053806
162 380.91 -138.48 27.732 -13.992 -132.38 -10.891 -17.023 -62.931 1.49 -17.341 -7.7331 -18.188 11.364 1.2533 -1.6353 5.6351 8.1584 -3.8 0.96582 2.2244
163 494.72 -190.45 24.864 44.877 -18.719 -6.1871 2.1623 9.8859 10.118 -6.2972 -8.231 -19.531 14.66 -0.60499 -0.031662 2.3563 -0.12303 0.21451 -0.56296 -1.159
164 252.7 -122.43 -43.754 -117.97 21.721 9.6881 -23.366 -44.212 -70.814 34.993 -172.16 -397.77 -18.517 30.863 -10.016 -146.31 70.899 -32.26 -22.164 -45.58
165 164.01 -73.733 -55.408 -94.685 41.181 -6.641 22.579 38.161 -11.597 7.7897 -205.45 -372.91 -102.75 -5.7733 40.994 -125.59 -178.96 42.972 -13.105 -15.172
166 183.49 -83.025 -59.757 -107.17 35.545 -6.4436 19.127 32.678 -11.539 5.9566 -151.46 -280.28 -74.833 -0.61666 23.568 -73.292 -101.86 24.118 -11.749 -7.0512
167 252.75 -122.44 -43.953 -119.17 13.332 9.439 -25.46 -45.558 -63.932 30.764 -74.001 -170.78 -7.5265 12.813 -4.9123 -54.222 36.877 -15.022 -8.61 -15.606
168 77.105 -30.818 -42.718 -45.041 31.381 -8.4431 30.273 48.828 16.458 1.405 -118.82 -161.61 -63.864 -42.807 48.111 -67.419 -195.37 50.675 52.497 13.391
169 311.2 -151.72 -36.169 -40.928 -45.104 25.821 -58.341 -65.894 9.1834 12.036 -56.486 -137.86 60.502 -15.439 -9.8986 -4.6561 67.77 -11.808 29.127 31.605
170 234.94 -112.4 -21.115 33.669 -42.517 16.709 -24.078 34.113 8.774 17.46 -17.4 -42.312 32.127 -10.661 -0.46553 13.497 3.7374 7.522 0.44592 -10.546
171 375.36 -182.46 -39.101 -7.73 -15.917 33.067 -55.061 -39.905 19.865 15.865 -38.689 -94.923 53.386 -15.57 -3.4679 -4.4687 26.813 1.5596 17.299 16.477
172 329.52 -160.6 -37.761 -40.47 -46.709 27.608 -61.116 -67.809 10.716 12.989 -49.673 -121.39 54.528 -14.009 -8.4821 -3.6636 58.46 -9.7114 25.549 27.659
173 424.14 -202.45 -38.339 -8.6295 -3.1182 36.152 -52.966 -45.795 14.577 18.298 -49.332 -120.96 68.174 -17.578 -3.8763 -11.462 29.259 0.59803 20.86 21.19
174 242 -116.26 -25.689 -33.107 41 18.995 -21.955 -39.232 -29.23 25.321 -18.933 -46.079 18.129 -3.395 -0.533 -22.206 7.3247 -2.4567 8.0506 9.8796
175 415.02 -171.86 3.9683 55.082 -20.658 3.0596 -2.4972 41.137 3.0536 5.6779 -7.9832 -19.141 14.958 -2.1359 0.1914 3.494 -1.189 1.9316 -1.1264 -3.8469
176 431.04 -183.05 -3.8732 24.127 -3.6856 13.096 -18.877 -11.682 10.878 5.1261 -8.3344 -20.065 13.7 -1.7827 -0.23264 0.37437 1.4914 0.35246 1.0761 0.88802
177 329.04 -154.22 -83.031 -178.9 24.482 2.6733 -1.2427 -4.0286 -36.058 18.936 -749.81 -1537.6 -243.87 56.59 3.1844 -344.99 1.7139 -25.762 -31.154 -83.175
178 18.323 -1.6217 5.6053 -6.6536 -59.913 -4.9752 8.9854 17.496 -43.137 19.498 -3.4844 -6.3228 -0.07639 4.9314 -2.4177 10.193 4.0235 -5.4824 -5.2815 -8.4416
179 359.74 -173.72 -36.831 -22.81 -41.72 30.258 -58.347 -56.905 16.439 13.245 -45.589 -111.69 58.036 -15.279 -6.567 -0.52493 44.258 -4.475 21.807 22.427
180 400.47 -158.9 12.928 42.222 -41.04 -2.6052 -4.2191 18.261 7.9445 -1.1487 -5.2619 -12.532 9.5658 -0.84066 -0.12324 2.6873 0.37401 0.4326 -0.49956 -1.4298
181 168.92 -73.752 -7.7709 -27.873 -144.46 2.5105 -33.754 -25.336 -33.485 19.309 -16.623 -39.772 17.188 -0.41705 -6.6127 21.92 34.976 -9.9549 2.9103 -3.5961
182 180.86 -70.839 4.6469 -5.059 -41.193 0.16394 -6.472 -29.363 -2.153 -6.4645 -7.5595 -17.8 10.895 0.067532 -1.2967 3.2074 6.4007 -2.7957 1.2072 2.9234
183 482.96 -190.22 17.506 42.298 19.526 -3.4436 5.5643 10.164 3.1766 -2.4148 -26.17 -62.331 45.805 -2.7409 0.89242 0.53978 -4.2637 1.9222 -1.2138 -2.4074
184 246.34 -74.278 42.477 59.68 -61.424 -30.447 36.545 84.738 -46.39 13.168 -5.4411 -12.397 12.195 0.70729 0.5536 6.9684 -4.5558 1.2218 -5.495 -10.634
185 508.67 -198.27 21.75 48.648 10.367 -5.1727 2.2239 18.243 8.648 -1.2265 -15.228 -36.221 27.142 -1.5188 0.49353 1.8797 -2.374 1.3887 -1.0325 -2.4988
186 389.95 -143.59 26.343 0.26629 61.282 -11.202 16.174 -33.526 -22.579 -0.88656 -11.083 -26.1 16.397 1.62 0.45471 -7.7229 -1.847 -2.2408 0.84565 4.0959
187 482.27 -188.46 18.688 24.404 1.0971 -1.3735 -3.7371 -20.303 10 -7.4519 -10.614 -25.248 17.557 -0.49782 -0.18876 0.18204 1.0947 -0.66869 0.65693 1.5824
188 422.77 -163.92 17.629 13.208 52.574 -1.9908 9.6653 -21.71 -13.416 0.84743 -7.5543 -17.937 11.843 0.074387 0.25887 -3.6122 -1.1241 -0.63108 0.52542 1.86
189 489.51 -193.63 16.522 41.767 -2.5755 -1.6557 2.4926 4.7481 5.3119 -4.4391 -21.692 -51.664 37.945 -2.4096 0.090296 3.2831 -0.85939 0.92087 -0.73666 -1.7731
190 401.77 -149.77 27.228 55.174 -28.68 -9.9973 17.488 40.139 -4.7468 -2.0644 -11.74 -27.677 22.528 -0.95509 0.24723 6.3352 -2.8645 1.3278 -3.2803 -6.5864
191 435.29 -170.06 17.595 39.349 -12.626 -4.4702 -0.61 8.8507 7.7711 -3.5655 -9.0369 -21.49 16.012 -0.96438 0.014602 2.2967 -0.17112 0.40448 -0.58254 -1.1077
192 461.15 -179.4 20.119 47.952 -1.3895 -4.9059 3.6119 21.029 6.4807 -0.75927 -11.364 -26.998 20.544 -1.2465 0.28163 2.5269 -1.6953 1.1059 -1.1648 -2.626
193 423.81 -163.01 20.9 40.543 -28.119 -5.7941 0.93117 11.56 8.3179 -4.4573 -5.9342 -14.076 10.664 -0.52688 -0.082903 2.2982 0.1062 0.16308 -0.55393 -1.082
194 363.89 -152.67 -2.3284 9.2952 67.562 10.691 -23.76 -2.1842 -1.0709 28.235 -5.2137 -12.519 7.9126 -0.72952 0.4072 -3.6246 -0.88591 0.55498 1.2003 0.99308
195 395.2 -151.41 22.115 63.647 -29.052 -7.8533 12.87 60.929 -7.7148 7.345 -8.4095 -19.908 16.627 -1.3482 0.39207 5.2113 -2.9654 2.0008 -2.9009 -6.6994
196 484.08 -196 10.443 44.819 -5.9025 5.7072 -3.2644 12.964 7.267 0.90842 -6.2642 -14.985 11.063 -1.0579 0.017822 1.2279 -0.25012 0.58107 -0.17963 -0.88357
197 274.51 -85.005 44.564 67.786 -72.65 -31.623 39.214 98.814 -53.098 17.901 -4.4382 -10.162 9.9904 0.39442 0.44197 5.8535 -3.681 1.1564 -4.4756 -8.9462
198 419.53 -159.21 22.859 13.633 57.605 -7.25 14.958 -20.45 -17.158 -1.7578 -7.8107 -18.495 12.301 0.39518 0.38734 -4.0212 -1.6577 -0.73273 0.26748 1.8659
199 356.93 -149.34 -1.7784 8.7001 64.123 9.1504 -23.164 -3.74 -0.29029 26.38 -4.9088 -11.782 7.4428 -0.66636 0.36891 -3.32 -0.73784 0.4617 1.0895 1.0299
200 500.16 -194.2 22.282 43.509 9.3234 -4.9955 2.142 9.9592 8.6224 -3.0407 -13.333 -31.693 23.451 -1.0857 0.30708 1.3102 -1.5041 0.74651 -0.61286 -1.286
201 242.39 -92.258 12.771 38.82 20.545 -3.4836 -6.1418 48.089 1.4576 20.611 -3.2711 -7.7037 6.3921 -0.54087 0.50313 0.63003 -2.1446 1.2918 -0.87711 -2.8566
202 237.59 -67.682 45.987 46.795 -22.345 -28.291 40.528 51.201 -28.476 -3.2598 -4.4751 -10.124 9.5518 1.1823 0.45189 3.7282 -3.8001 0.24046 -3.7425 -5.9868
203 487.54 -196.09 12.288 38.58 7.9952 4.7664 -4.1452 4.091 8.1358 0.011063 -8.929 -21.343 15.412 -1.218 0.091024 0.5823 -0.37241 0.56774 0.072667 -0.32078
204 322.66 -113.71 30.049 26.264 30.976 -13.967 24.19 2.6857 -11.02 -8.3342 -9.4901 -22.163 16.56 0.97692 0.57108 -1.6276 -3.7414 -0.55704 -1.5206 -0.59367
205 436.53 -171.58 16.582 46.386 2.4905 -3.0177 3.7361 22.631 5.2544 -0.17776 -11.251 -26.772 20.362 -1.4816 0.36344 2.2608 -1.9778 1.3556 -1.1258 -2.7929
206 500.42 -203.35 8.9974 35.781 8.9713 6.3348 -7.416 -0.83606 11.764 0.30491 -22.836 -54.675 38.847 -3.3257 0.12313 0.75763 0.034117 1.2729 1.072 0.44372
207 482.32 -186.73 23.171 51.87 -12.338 -4.6159 5.0792 24.679 6.4302 -2.7266 -9.1771 -21.794 16.746 -0.95898 0.15102 2.8 -1.1604 0.85748 -1.1108 -2.4869
208 483.83 -187.07 23.039 44.268 -4.5375 -3.9941 5.2811 10.59 6.3871 -4.7382 -6.4481 -15.311 11.456 -0.5183 0.057125 1.2752 -0.5291 0.25393 -0.46251 -0.88259
209 493.71 -191.39 22.611 47.801 8.0293 -5.6533 5.5942 17.304 5.8561 -2.6966 -14.517 -34.496 25.943 -1.3205 0.43572 2.0137 -2.3545 1.1707 -1.2356 -2.4793
210 500.66 -195.95 20.154 44.688 1.5944 -3.1091 -0.88102 11.784 10.396 -2.0768 -13.35 -31.771 23.576 -1.3339 0.22075 2.0554 -1.0724 0.87804 -0.59672 -1.5268
211 452.77 -177.5 17.533 41.997 -12.008 -1.4797 0.94872 10.912 8.4674 -2.4631 -7.4623 -17.751 13.265 -0.83509 -0.0017849 1.8772 -0.26946 0.39952 -0.42293 -1.1048
212 248.92 -91.255 17.479 15.46 27.995 -5.7938 15.959 -4.147 -13.616 -2.7898 -10.512 -24.632 17.512 0.5352 0.52386 -3.3624 -3.3783 -0.76706 -0.99302 0.7638
213 260.29 -85.645 34.771 64.257 -82.88 -21.759 29.502 95.76 -50.536 22.919 -5.843 -13.482 13.05 -0.081181 0.37434 8.2464 -3.9469 1.6919 -5.3968 -11.566
214 436.34 -168.58 20.502 41.357 -25.383 -4.4463 -0.22316 11.679 9.1873 -4.9071 -8.3334 -19.779 14.938 -0.76399 -0.072244 3.0003 0.10776 0.32893 -0.68696 -1.4274
215 18.264 1.3336 10.065 -5.7397 -59.821 -0.018138 12.415 16.358 -45.917 22.533 -3.6832 -6.1989 0.84798 7.533 -3.0487 10.053 3.9995 -7.9622 -4.7998 -9.5577
216 422.32 -157.89 25.946 13.494 44.643 -6.6781 13.119 -24.166 -10.378 -4.4703 -7.5348 -17.795 11.951 0.53159 0.19456 -2.9902 -0.97777 -0.96661 0.30867 1.9242
217 471.73 -187.68 15.288 43.806 -12.113 2.4728 0.35865 10.686 3.649 -3.0467 -15.555 -37.1 27.583 -2.1114 -0.023133 3.7461 -0.4585 1.0049 -0.93262 -2.1996
218 472.68 -188.19 13.276 26.122 -9.6048 -0.88969 -17.398 -12.639 21.663 -2.1356 -36.436 -86.884 60.786 -3.4932 -0.66407 4.2089 6.0422 -0.37641 3.4123 3.9869
219 384.2 -159.33 2.369 37.659 -7.8906 7.4689 -3.1827 13.227 1.9645 2.7542 -25.911 -62.077 45.833 -5.8367 0.03421 5.8627 -0.83037 3.397 -0.89901 -4.5509
220 211.27 -59.916 41.004 37.984 -6.4378 -23.848 39.855 34.795 -26.187 -6.3173 -5.3409 -12.061 11.103 1.5588 0.58247 3.2101 -4.7014 -0.12213 -4.2234 -5.8716
221 418.34 -162.84 16.398 10.294 39.226 0.72751 6.6047 -28.123 -9.9541 -1.7292 -6.9775 -16.58 10.849 0.049522 0.059607 -2.7439 -0.26238 -0.80468 0.64424 2.061
222 318.67 -114.64 26.055 18.279 36.054 -8.6459 21.089 -8.074 -13.904 -6.2754 -7.6721 -17.981 12.771 0.77323 0.39301 -2.5376 -2.382 -0.84804 -0.68449 0.80374
223 493.06 -190.29 24.168 45.86 -15.108 -5.912 2.3394 12.188 9.5276 -5.3893 -7.6661 -18.201 13.691 -0.61812 0.016151 2.0875 -0.31047 0.30581 -0.56872 -1.1837
224 411.57 -160.59 18.166 54.702 -16.29 -2.5479 7.5133 40.218 -0.76661 3.2455 -6.6651 -15.834 12.61 -1.0477 0.20468 2.8477 -1.5678 1.16 -1.4182 -3.3139
225 117.8 -21.237 40.277 41.346 -114.8 -34.664 33.7 95.759 -90.685 42.617 -9.5931 -20.386 23.697 5.8495 0.97788 22.171 -11.514 0.23273 -18.335 -35.17
226 328.17 -126.85 14.437 22.965 23.042 -1.3229 10.59 -2.6406 -7.3466 -1.3125 -7.0095 -16.604 11.852 -0.35988 0.19509 -1.0579 -1.3234 -0.067568 -0.27337 0.23709
227 413.87 -163.42 13.092 19.828 -13.866 -2.0316 -13.828 -17.254 17.308 -5.2663 -27.05 -64.394 44.628 -2.0114 -0.79243 3.5777 5.8281 -1.4077 2.4892 4.3596
228 346.23 -121.25 33.645 27.928 32.14 -15.356 26.761 1.7187 -12.288 -8.9462 -6.4443 -15.05 11.257 0.74093 0.39506 -1.058 -2.488 -0.48239 -1.1187 -0.37651
229 311.25 -118.46 16.037 20.662 15.833 -2.3906 9.7429 -5.3488 -4.4794 -3.1328 -7.4056 -17.49 12.501 -0.18037 0.091921 -0.68384 -0.99299 -0.33327 -0.26126 0.43963
230 514.15 -201.21 20.506 41.117 10.536 -2.783 0.15017 4.4757 9.1086 -2.7185 -11.09 -26.395 19.255 -0.94532 0.1885 0.71032 -0.8441 0.43954 -0.20405 -0.48401
231 151.25 -65.71 -8.1231 -41.971 -33.451 8.4966 -27.151 -45.8 -17.324 11.368 -13.57 -32.357 9.1619 1.8559 -3.3757 -1.1137 19.446 -7.573 3.9792 4.5419
232 475.04 -184.8 19.967 33.104 -11.227 -1.9525 -3.1356 -6.3305 12.134 -5.8134 -9.3251 -22.167 15.995 -0.63895 -0.14621 1.577 0.64095 -0.1848 0.075321 0.19839
233 477.35 -188.62 15.664 28.654 -3.5398 1.3668 -6.5915 -12.197 12.458 -4.5405 -10.49 -24.999 17.628 -0.86805 -0.15849 0.84915 0.96888 -0.24653 0.55471 0.92524
234 486.6 -188.62 22.004 32.652 -1.5323 -2.3114 -0.084234 -8.0203 9.0197 -7.0235 -7.6029 -18.068 12.973 -0.40551 -0.052408 0.72684 0.21426 -0.19921 0.033942 0.33412
235 456.18 -186.1 6.3641 25.438 -10.139 7.559 -12.916 -14.44 11.387 -1.1778 -9.1103 -21.813 15.116 -1.2954 -0.27636 0.92142 1.5594 -0.097809 0.76648 1.0388
236 396.42 -163.68 1.5592 10.883 -24.304 5.5829 -30.242 -24.822 21.386 1.393 -37.726 -90.402 59.691 -5.4371 -2.2152 5.4475 15.583 -2.0426 7.2344 9.346
237 247.93 -80.605 30.619 -15.292 -85.146 -14.009 -3.1782 -50.599 -1.9291 -17.19 -4.7776 -11.035 6.7894 1.7012 -1.0733 3.2539 5.0118 -3.1267 0.35192 1.9074
238 388.14 -146.18 22.212 13.036 22.541 -5.7626 7.5432 -24.814 -3.6766 -6.8456 -6.0998 -14.417 9.7556 0.26591 -0.0064352 -1.3693 -0.028551 -0.85892 0.25654 1.6088
239 119.4 -33.179 20.287 -36.014 -179.65 -19.045 -2.406 -3.2389 -84.618 30.281 -29.093 -65.445 18.471 24.532 -15.443 56.188 66.195 -36.721 -15.009 -32.047
240 505.36 -197.92 19.551 34.069 -12.772 0.028362 -2.5004 -9.1886 10.682 -6.8322 -10.541 -25.085 17.995 -0.7849 -0.22416 1.6913 0.89213 -0.2735 0.14934 0.38255
241 408.71 -178.69 -12.474 8.9589 -14.408 18.556 -30.204 -29.491 15.314 5.5046 -18.49 -44.714 28.489 -4.3633 -1.1567 0.25173 7.6073 -0.32672 4.5725 5.2449
242 483 -187.37 21.242 36.121 -0.62877 -2.2219 1.0569 -2.1608 8.7438 -4.8553 -8.059 -19.147 13.913 -0.53201 -0.008601 0.92396 -0.088158 -0.021601 -0.1189 -0.071703
243 40.389 14.82 44.269 15.402 -93.264 -35.787 42.215 50.283 -91.474 26.11 -1.9917 -2.9469 5.0079 6.6405 0.12032 5.3912 -4.5274 -4.3046 -7.4271 -8.043
244 553.49 -257.64 -36.568 44.946 8.8585 36.078 -40.075 13.446 16.005 22.036 -58.794 -143.71 98.767 -25.478 0.070507 1.5327 5.8834 15.003 9.9345 -2.9083
245 453.7 -215.48 -37.857 9.3783 -37.469 34.336 -56.206 -29.575 25.654 15.868 -112.15 -274.93 170.37 -45.548 -9.9655 14.718 67.685 8.8802 39.1 26.899
246 341.05 -162.23 -74.324 -171.87 0.69 8.985 -22.121 -39.192 -42.82 22.489 -742.67 -1602.2 -127.73 64.265 -51.083 -322.01 316.7 -119.78 10.915 -53.024
247 30.269 -9.4852 -25.322 -17.332 14.088 -6.5078 18.824 28.441 17.722 3.1359 -13.16 -12.341 -6.6147 -8.5587 8.5934 -5.1973 -23.829 6.3173 14.911 0.53562
248 485.82 -190.13 21.353 65.17 -27.04 -4.7102 10.367 47.343 -2.2651 2.1543 -18.849 -44.803 35.765 -2.9629 0.45644 8.9291 -3.9448 3.1508 -4.0572 -9.6745
249 493.58 -188.51 27.626 56.664 -10.383 -8.111 9.4708 31.493 3.816 -2.2501 -10.71 -25.378 19.795 -0.94601 0.2853 3.4243 -2.032 1.0897 -1.7416 -3.5953
250 402.92 -156.65 18.702 59.905 -10.975 -6.7445 18.321 49.29 -11.942 1.2341 -27.944 -66.241 53.921 -4.6282 1.5035 12.155 -10.441 5.9867 -8.4441 -17.843
251 499.55 -191.47 26.493 54.989 -8.4367 -7.0234 10.244 26.957 3.1918 -3.3058 -9.9448 -23.584 18.228 -0.87513 0.22685 2.8576 -1.7186 0.86931 -1.4512 -2.88
252 491.72 -189.68 24.299 46.398 -1.0472 -3.9469 6.6506 13.962 5.5359 -4.493 -8.9657 -21.284 16.004 -0.70596 0.14452 1.677 -1.0479 0.45312 -0.76696 -1.4104
253 470.32 -179.19 26.554 50.496 -6.5967 -6.4674 9.6803 22.987 3.264 -3.3011 -6.6116 -15.662 12.074 -0.49631 0.14273 1.7944 -1.1139 0.48832 -0.94803 -1.7642
254 236.07 -81.3 24.486 23.334 34.256 -10.888 28.403 9.9247 -20.41 -4.8273 -10.672 -24.752 19.004 1.2653 1.145 -3.1219 -7.1386 -0.25405 -3.1227 -2.6419
255 498.36 -191.18 26.806 56.722 -16.936 -7.1466 8.6075 30.566 4.1958 -3.0198 -13.888 -32.929 25.639 -1.3189 0.25998 4.9056 -2.1383 1.3282 -2.1468 -4.5787
256 282.18 -101.39 22.626 3.55 55.192 -9.6344 19.183 -16.984 -24.965 0.33358 -12.974 -30.374 19.534 2.2428 1.049 -10.349 -4.7353 -2.3212 -0.087195 3.6251
257 343.41 -121.78 30.828 18.581 48.997 -14.021 22.668 -7.3184 -15.518 -4.7672 -9.7964 -22.934 16.209 1.3137 0.71646 -4.2801 -3.7421 -0.99392 -0.82261 1.0422
258 500.28 -192.64 25.84 58.706 -16.294 -6.8882 6.9089 34.752 5.1892 -0.99462 -12.115 -28.744 22.472 -1.3078 0.27255 4.3841 -2.0573 1.4147 -1.943 -4.3667
259 245.61 -90.313 19.774 74.001 -121.72 -21.177 28.255 130.68 -84.66 44.013 -80.869 -188.32 186.92 -20.273 6.4782 141.46 -59.546 42.593 -89.303 -215.43
260 482.75 -183.57 27.86 57.105 -22.366 -8.6582 10.759 32.488 2.4315 -3.12 -13.009 -30.797 24.217 -1.1262 0.20325 5.2661 -2.0834 1.214 -2.3749 -4.8333
261 314.06 -115.37 21.522 2.1208 54.288 -6.1646 18.784 -23.277 -24.052 0.50041 -13.056 -30.688 19.454 1.8468 0.69819 -9.6747 -3.386 -2.5449 0.52484 4.2617
262 475.07 -180.42 27.912 52.754 -21.04 -7.9105 11.718 24.199 0.90293 -4.8357 -8.365 -19.804 15.4 -0.62296 0.064073 3.1081 -1.0868 0.51442 -1.397 -2.5328
263 262 -111.01 -1.7978 43.219 -59.133 4.6175 -5.6044 45.33 -7.3813 12.783 -48.916 -117.05 95.563 -18.324 -1.3048 47.505 0.66697 14.775 -11.655 -41.978
264 489.57 -185.75 28.988 53.126 -12.059 -9.3215 9.8296 24.728 4.4668 -4.4837 -8.7095 -20.623 15.965 -0.605 0.16949 2.7022 -1.3408 0.62161 -1.2893 -2.4476
265 485.53 -186.87 24.598 46.398 -1.2739 -4.0961 9.1878 13.553 2.7768 -5.0986 -7.6816 -18.229 13.736 -0.57843 0.11778 1.4569 -0.9772 0.35081 -0.75083 -1.2681
266 140.66 -27.49 42.069 -27.703 47.443 -28.757 46.367 -26.913 -71.403 1.2003 -6.7367 -14.652 5.7549 8.3105 1.026 -13.062 -6.228 -6.707 -4.305 -0.0048219
267 45.973 95.988 153.29 -16.068 -26.658 -112.67 129.36 -56.887 -40.324 -86.239 -5.4775 2.4342 9.4585 56.741 -0.75403 7.3451 -15.161 -39.396 -22.209 14.281
268 256.42 -117.64 -76.979 -159.98 -67.52 -4.5359 -8.7141 4.0427 23.839 -16.769 -629.66 -1216 -260.98 11.972 -55.863 376.85 262.02 -48.272 -19.924 -55.723
269 547.44 -212.62 25.124 48.759 3.8901 -2.9064 3.6333 11.968 7.4554 -2.844 -17.022 -40.463 30.087 -1.3971 0.27323 2.3797 -1.7395 0.82814 -1.0094 -1.9625
270 491.82 -189.18 24.397 43.253 -6.2904 -4.461 1.7565 9.0659 9.2984 -4.3906 -14.755 -35.014 26.108 -1.0173 0.095639 2.9961 -0.82861 0.45251 -0.92207 -1.5901
271 512.44 -198.4 23.511 42.55 -1.5755 -2.267 2.351 5.0877 8.7231 -4.2986 -9.9048 -23.533 17.353 -0.72063 0.047042 1.4922 -0.4939 0.22071 -0.41211 -0.69312
272 394.25 -145.01 27.095 -0.97081 74.131 -6.7141 21.888 -31.58 -34.655 4.5314 -10.503 -24.741 15.336 1.6795 0.61594 -8.7496 -2.7788 -2.1875 0.49117 3.6289
273 475.65 -202.92 -6.1263 34.294 34.32 17.661 -28.091 12.171 17.702 19.021 -161.01 -387.82 270.12 -38.856 5.7537 -22.36 -9.7475 27.771 20.427 -0.10924
274 514.49 -197.5 26.635 44.761 -2.0058 -5.4473 2.2382 9.2495 9.7946 -4.2351 -10.287 -24.408 18.177 -0.63431 0.11374 1.7838 -0.74434 0.31927 -0.60813 -1.0603
275 458.46 -174.56 25.372 45.239 -7.5697 -6.4296 3.8119 16.603 7.788 -2.4853 -12.809 -30.334 23.085 -0.85216 0.17821 3.2614 -1.41 0.67577 -1.3498 -2.5042
276 423.96 -151.82 35.865 2.2183 76.624 -12.466 30.289 -32.704 -38.53 -0.98524 -13.604 -31.91 20.316 2.7112 0.72948 -10.576 -4.0974 -3.0558 0.087411 4.373
277 547.6 -211.67 26.441 45.96 -0.60115 -3.3687 5.8307 5.3428 5.7721 -5.7473 -15.871 -37.699 27.853 -1.0494 0.097034 2.3022 -1.0455 0.26496 -0.84081 -1.2138
278 453.81 -167.76 33.682 60.95 -24.126 -12.754 18.148 43.827 -4.1851 -2.5391 -8.2952 -19.556 15.885 -0.47675 0.24834 4.0299 -2.2288 0.91963 -2.3083 -4.3825
279 392.97 -151.93 16.139 -3.3623 57.328 -0.44842 11.109 -38.382 -25.827 4.1703 -8.742 -20.739 12.584 0.63903 0.1763 -6.1685 -0.63672 -1.7161 1.067 3.5653
280 535.95 -207.66 25.062 53.319 -7.7433 -3.0095 7.1735 18.826 3.9758 -3.1371 -23.649 -56.173 42.551 -2.1875 0.25228 5.6382 -2.6673 1.4745 -2.416 -4.6897
281 528.85 -204.28 25.824 49.111 5.5012 -4.431 3.6952 15.625 7.8412 -2.1637 -15.036 -35.705 26.753 -1.1764 0.34522 2.202 -1.9652 0.91023 -1.0949 -2.2049
282 536.31 -207.17 26.278 50.394 -1.3072 -3.7178 8.1624 14.179 3.7887 -4.454 -14.511 -34.461 25.88 -1.1393 0.18774 2.6648 -1.6785 0.67667 -1.2834 -2.2169
283 553.13 -215.48 24.887 42.583 4.4383 -1.4313 3.722 0.051547 5.3785 -5.7374 -16.334 -38.857 28.296 -1.1297 0.089752 1.4841 -0.77197 0.12439 -0.44687 -0.38311
284 512.55 -197.98 24.327 35.048 20.889 -3.3488 5.7205 -5.806 2.6632 -4.7797 -10.281 -24.419 17.499 -0.43267 0.16817 -0.46591 -0.89352 -0.1382 -0.10011 0.39011
285 271.31 -103.99 14.994 61.271 -51.488 -5.6043 19.447 81.537 -33.815 19.987 -21.337 -50.276 45.658 -5.3326 1.3576 22.806 -12.576 8.5478 -14.346 -33.87
286 327.52 -114.99 28.517 -27.546 -117.16 -9.996 -18.108 -71.762 -3.0435 -15.755 -10.711 -25.067 14.389 2.8878 -2.5361 6.8955 12.925 -6.7066 1.5115 4.3684
287 422.46 -174.11 3.0955 18.733 -55.141 8.8468 -25.011 -20.784 19.051 -0.28424 -30.095 -72.097 49.378 -4.6396 -2.5613 11.666 13.936 -1.8445 3.9903 3.637
288 531.33 -207.22 22.521 40.651 8.8603 -0.97606 0.92752 1.238 8.7832 -3.4128 -8.5998 -20.46 14.866 -0.63794 0.088913 0.55225 -0.48692 0.16548 -0.11141 -0.18374
289 262.92 -117.53 -93.518 -165.66 -10.981 -9.2296 17.82 37.23 38.076 -18.518 -679.7 -1213.5 -333.73 -41.151 23.506 135.83 -131.1 42.269 58.216 106.2
290 27.238 -8.0621 -23.718 -15.466 12.736 -6.112 17.3 26.277 17.007 3.4979 -18.34 -16.247 -8.9959 -12.275 12.756 -7.3245 -32.157 9.1951 22.835 -1.3
291 20.886 -6.0438 -18.393 -11.819 9.7839 -4.7282 13.275 20.306 13.229 2.8358 -28.424 -24.69 -13.799 -19.098 20.283 -11.531 -49.008 14.669 36.421 -3.4917
292 20.886 -6.0438 -18.393 -11.819 9.7839 -4.7282 13.275 20.306 13.229 2.8358 -28.424 -24.69 -13.799 -19.098 20.283 -11.531 -49.008 14.669 36.421 -3.4917
293 27.801 -8.2278 -24.21 -15.786 12.999 -6.2386 17.657 26.821 17.36 3.5711 -16.046 -14.213 -7.8701 -10.74 11.162 -6.4085 -28.132 8.0458 19.981 -1.141
294 8.9622 19.094 -16.863 1.9887 1.6227 -18.095 -3.9758 1.4983 7.2852 15.323 -3.3139 1.3828 -0.37182 -2.4138 5.8329 0.50219 0.058429 -2.3365 1.6696 -0.81505
295 24.978 -7.3389 -21.837 -14.168 11.687 -5.6247 15.874 24.162 15.682 3.272 -16.879 -14.854 -8.2516 -11.316 11.838 -6.7709 -29.441 8.5359 21.224 -1.4744
296 27.801 -8.2278 -24.21 -15.786 12.999 -6.2386 17.657 26.821 17.36 3.5711 -16.046 -14.213 -7.8701 -10.74 11.162 -6.4085 -28.132 8.0458 19.981 -1.141
297 27.238 -8.0621 -23.718 -15.466 12.736 -6.112 17.3 26.277 17.007 3.4979 -18.34 -16.247 -8.9959 -12.275 12.756 -7.3245 -32.157 9.1951 22.835 -1.3
298 27.526 -8.1393 -23.981 -15.627 12.872 -6.1796 17.483 26.564 17.201 3.5442 -15.894 -14.067 -7.7925 -10.64 11.067 -6.3509 -27.849 7.9774 19.815 -1.1604
299 14.513 -4.1655 -12.825 -8.2024 6.8018 -3.2904 9.2206 14.144 9.2207 2.0033 -59.462 -51.304 -28.756 -39.964 42.825 -24.294 -101.84 31.056 76.889 -8.4882
300 27.526 -8.1393 -23.981 -15.627 12.872 -6.1796 17.483 26.564 17.201 3.5442 -15.894 -14.067 -7.7925 -10.64 11.067 -6.3509 -27.849 7.9774 19.815 -1.1604
301 641.55 -294.1 -195.41 -387.7 -20.231 -9.1006 13.588 37.862 22.382 -14.299 -783.99 -1498.3 -345.23 12.8 2.3913 36.09 -21.096 10.74 -2.1382 6.5749
302 502.19 -230.22 -152.96 -303.49 -15.836 -7.1247 10.637 29.638 17.52 -11.193 -1227.4 -2345.8 -540.48 20.04 3.744 56.501 -33.028 16.813 -3.3487 10.295
303 502.19 -230.22 -152.96 -303.49 -15.836 -7.1247 10.637 29.638 17.52 -11.193 -1227.4 -2345.8 -540.48 20.04 3.744 56.501 -33.028 16.813 -3.3487 10.295
304 2.0369 1.4223 -3.7403 -0.9456 -7.2753 1.1475 6.951 6.4543 1.8452 2.6511 -3.6824 0.15376 -0.93835 -3.2927 -3.9575 4.6362 -4.0942 -4.1427 6.3053 -0.32952
305 396.54 -146.73 26.368 -3.2555 71.386 -7.3041 21.707 -36.091 -36.068 3.1716 -9.6756 -22.81 13.96 1.5203 0.46923 -8.0074 -2.1064 -2.1995 0.58279 3.6125
306 313.48 -113.07 22.82 -25.544 -143.67 -9.2949 -28.181 -59.394 -2.998 -7.9648 -11.119 -26.111 15.014 2.3579 -2.942 9.6846 15.229 -6.5838 1.768 3.0736
307 366.18 -148.2 5.6 -1.4808 77.529 6.4138 12.46 -24.658 -40.994 15.192 -13.643 -32.575 19.305 -0.060812 0.82943 -13.125 -3.5987 -1.3063 1.5998 4.0974
308 501.88 -205.06 6.1203 14.932 15.97 11.83 -9.0154 -32.777 3.3121 -0.27211 -27.601 -66.116 43.409 -2.7071 -0.61977 -4.6762 4.1313 -1.9467 4.0392 7.3784
309 329.72 -112.38 33.21 -34.945 -157.3 -13.48 -18.144 -75.029 -14.578 -14.012 -11.295 -26.336 14.624 3.8218 -3.2347 9.6768 15.988 -8.2632 1.2686 3.43
310 469.59 -189.25 10.67 40.257 9.0221 6.6011 -0.73112 8.0675 4.8419 2.7714 -15.813 -37.784 27.526 -2.3828 0.21897 1.1637 -1.3207 1.2305 -0.22492 -1.2767
311 494.92 -191.01 23.151 32.464 -2.2105 -4.3315 0.68549 -9.6846 9.0635 -8.5997 -17.044 -40.488 29.031 -0.7579 -0.12572 1.6402 0.57962 -0.58992 0.05328 0.97503
312 399.4 -144.69 33.304 55.193 -28.221 -12.187 22.151 39.657 -8.5295 -4.0025 -10.215 -23.995 19.714 -0.32 0.24484 5.5938 -2.8657 0.87349 -3.3014 -5.819
313 505.81 -210.25 1.8916 22.92 -33.254 10.394 -19.536 -25.837 12.413 -3.8044 -45.424 -109 74.045 -7.3303 -2.5679 8.7208 14.668 -1.626 5.4352 7.3087
314 471.4 -181.9 21.871 36.398 25.798 -4.711 -3.3937 7.0733 10.858 2.5653 -34.469 -81.81 59.501 -2.1183 1.3492 -1.4195 -5.0271 1.7253 -0.25923 -1.026
315 502.42 -196.25 19.699 29.497 32.318 -2.1185 -6.1155 -6.1892 10.632 1.818 -47.13 -112.11 78.602 -2.6232 1.3081 -6.8316 -3.5143 0.41443 2.4925 4.6268
316 496.12 -196.02 16.389 36.394 25.606 -1.2817 -10.313 5.6996 14.846 5.1187 -39.801 -94.835 68.044 -3.9901 1.3481 -1.9449 -3.777 2.6978 1.3291 -0.083794
317 27.405 42.703 74.912 -2.0346 -46.42 -54.026 51.436 1.2395 -47.075 -12.608 -4.3481 -0.65968 9.8032 42.341 0.58204 8.8051 -12.983 -30.042 -21.757 3.2607
318 329.57 -125.6 17.154 35.317 -14.099 -4.1749 -9.4119 21.207 8.435 7.3602 -39.492 -93.346 72.068 -4.2708 0.74498 14.925 -2.8688 4.2534 -4.5368 -11.384
319 572.76 -241.35 -2.1656 35.927 47.11 17.807 -7.6448 -3.6114 -2.3149 11.018 -88.137 -212.18 145.23 -17.213 2.4426 -20.598 -8.062 7.8517 7.792 6.5751
320 479.85 -189.44 16.352 41.028 12.301 -1.6039 -9.2197 12.889 15.925 4.9563 -53.799 -128.13 94.079 -6.3981 1.5167 4.2103 -5.0452 4.8368 -0.21024 -4.813
321 502.07 -198.87 15.74 31.675 30.692 -0.7185 -13.741 -0.44739 16.227 6.9347 -77.056 -183.67 129.3 -7.0374 2.418 -8.8624 -4.9686 3.8101 5.2867 4.9776
322 341.31 -128.91 21.194 59.718 -38.01 -7.4415 18.198 60.831 -17.207 8.0576 -13.473 -31.781 27.163 -2.1097 0.53211 10.171 -5.2494 3.231 -5.8763 -12.92
323 453.74 -178.23 17.628 46.272 19.955 -2.0917 13.161 18.493 -6.8513 -1.3487 -36.214 -86.121 64.73 -4.259 1.5669 1.8384 -9.4167 3.7055 -4.2388 -7.3384
324 55.046 30.606 73.02 -23.229 9.1152 -51.68 62.35 -24.629 -47.911 -28.01 -14.187 -19.916 7.3882 66.862 4.3987 -13.628 -33.231 -47.05 -42.183 -0.92856
325 13.888 25.099 39.127 -6.8259 1.5204 -24.502 4.6305 -2.892 2.5554 -0.91678 -9.6502 1.2018 11.113 74.861 11.607 6.3965 -17.761 -48.036 -20.447 13.135
326 33.462 37.847 70.826 -15.019 1.0926 -49.341 47.084 -20.491 -21.724 -28.691 -7.3373 -5.5902 6.7376 53.122 3.3502 -0.36522 -19.902 -37.134 -27.358 7.7107
327 52.869 29.966 70.954 -22.318 8.6095 -50.208 60.262 -23.897 -45.813 -27.374 -19.057 -26.541 10.101 90.79 5.9328 -18.026 -44.768 -63.857 -56.946 -0.84127
328 54.052 30.637 72.543 -22.817 8.8023 -51.333 61.61 -24.433 -46.84 -27.987 -16.237 -22.613 8.6058 77.352 5.0548 -15.358 -38.141 -54.406 -48.518 -0.71741
329 52.869 29.966 70.954 -22.318 8.6095 -50.208 60.262 -23.897 -45.813 -27.374 -19.057 -26.541 10.101 90.79 5.9328 -18.026 -44.768 -63.857 -56.946 -0.84127
330 53.798 25.42 64.871 -22.648 10.06 -45.914 57.862 -22.093 -48.19 -23.581 -48.909 -72.8 22.031 211.35 14.586 -52.47 -111.86 -149.03 -139.08 -11.27
331 444 -176.5 12.771 32.927 42.587 0.74305 -16.245 13.049 12.947 15.237 -106.84 -254.58 181.76 -12.213 6.8747 -19.785 -20.15 13.011 5.8056 -3.2526
332 612.67 -236.23 28.155 18.845 1.5037 -3.7385 -0.34451 -45.4 8.2567 -12.525 -260.56 -618.58 416.99 1.4933 -8.5273 -13.377 43.724 -37.7 23.819 69.124
333 612.67 -236.23 28.155 18.845 1.5037 -3.7385 -0.34451 -45.4 8.2567 -12.525 -260.56 -618.58 416.99 1.4933 -8.5273 -13.377 43.724 -37.7 23.819 69.124
334 589.86 -224.22 31.274 10.353 -70.111 -6.876 -12.425 -59.439 18.016 -20.642 -252.39 -597.88 401.02 8.8234 -24.07 72.261 120.84 -59.716 26.905 70.071
335 240.41 -117.42 -34.742 -88.128 -10.089 15.413 -39.568 -65.353 -41.276 25.571 -156.02 -373.81 46.084 8.6768 -25.434 -99.237 165 -54.265 32.819 19.435
336 490.34 -214.45 -12.266 54.773 17.841 20.944 -10.038 33.424 -0.8362 15.914 -41.275 -99.743 73.487 -14.178 1.6006 3.2908 -7.3353 10.972 -0.64051 -11.408
337 541.73 -255.42 -42.726 13.302 36.43 42.251 -47.158 -25.547 8.5382 27.704 -133.18 -326.08 199.69 -50.491 -1.6036 -45.531 30.888 17.865 42.4 36.201
338 625.06 -258.86 5.1649 57.14 26.918 10.297 0.47572 17.844 -2.4709 4.5973 -80.991 -194.15 141.04 -16.503 2.5223 0.24172 -12.075 10.91 -1.5397 -9.4259
339 570.75 -244.29 -6.5125 55.288 16.064 16.738 -8.9814 22.578 1.927 9.6434 -120.29 -289.87 210.41 -33.421 3.1476 7.4784 -12.69 22.514 0.62843 -18.85
340 638.2 -273.21 -7.4049 57.686 16.568 18.187 -12.185 17.986 3.7885 8.8228 -134.7 -324.59 233.19 -36.251 2.5791 6.2288 -8.8662 22.529 3.7151 -14.684
341 576.45 -240.32 3.1942 69.952 3.1493 8.4875 2.2437 44.598 -3.255 7.318 -80.57 -193.18 147.37 -20.966 3.0508 18.167 -16.979 17.883 -8.7432 -29.269
342 622.15 -255.73 7.9246 53.962 37.382 7.4663 3.4911 13.922 -4.5883 3.1404 -149.73 -358.55 258.64 -27.002 5.6369 -10.154 -26.275 17.8 -2.1322 -12.403
343 637.1 -264.83 3.9755 60.198 33.759 11.271 1.4209 22.494 -4.3189 6.4081 -97.502 -233.84 170.32 -20.869 3.7748 -1.9583 -18.106 14.918 -2.479 -13.734
344 565.34 -236.72 1.6606 69.249 1.9085 9.6301 1.0071 45.15 -2.9638 8.4201 -67.729 -162.52 124.03 -18.336 2.5463 15.903 -14.066 15.594 -7.2848 -25.246
345 510.41 -206.96 10.148 25.48 69.538 5.2546 11.748 -11.648 -24.558 4.879 -43.269 -103.31 69.37 -4.0193 2.2778 -20.498 -10.046 0.76786 1.8426 5.7543
346 563.79 -242.28 -8.9977 38.32 49.992 22.696 -10.434 2.3695 -3.4225 15.896 -136.39 -329.12 225.5 -32.996 4.4633 -33.373 -15.373 17.824 12.9 5.0856
347 636.52 -265.03 3.6651 72.62 18.453 11.606 3.5772 42.289 -5.5439 8.9503 -178.05 -426.94 321.44 -43.944 7.5111 22.441 -40.809 36.66 -15.714 -53.334
348 605.93 -250.94 4.9534 55.788 44.76 11.137 6.4293 19.986 -10.861 7.163 -113.36 -271.62 196.74 -22.818 5.3389 -11.459 -26.646 16.449 -3.4687 -14.267
349 503.72 -210.26 0.14248 22.285 66.971 14.195 0.27665 -12.243 -16.434 12.486 -85.564 -205.44 135.24 -12.44 3.7935 -41.31 -14.002 3.7683 8.9453 14.243
350 224.13 487.16 476.98 -75.785 -0.89023 -11.829 16.379 -4.4649 24.041 40.316 -25.441 11.63 12.63 79.139 0.14055 4.5415 -7.0362 -16.265 7.6188 -1.0583
351 210.71 454.29 560.03 -84.627 -15.104 -89.208 107.99 -46.592 29.219 7.0088 -29.686 13.736 23.401 146.69 -0.4716 11.277 -20.17 -51.73 2.6784 6.2337
352 220.27 481.75 370.33 -60.344 7.5367 -3.4237 -33.89 13.126 12.67 32.245 -19.629 8.9072 6.7263 41.95 0.95664 1.7185 -1.966 -3.6756 5.0319 -1.4365
353 178.53 384.95 465.78 -70.838 -6.8462 -88.495 63.901 -32.22 25.464 10.359 -41.416 19.103 31.063 195.36 1.7805 14.263 -24.899 -64.939 3.5381 8.0301
354 35.772 71.978 119.13 -11.499 -25.986 -84.094 87.419 -34.983 -33.696 -53.192 -29.479 10.758 60.161 345 0.61366 47.028 -93.138 -248.25 -150.63 85.973
355 233.67 508.97 463.48 -74.436 0.24481 6.792 6.5338 1.6348 21.375 42.32 -21.03 9.5906 9.2753 58.028 -0.10687 3.0772 -4.5825 -9.9023 6.5392 -1.475
356 208.69 452.82 465.08 -73.383 -2.4614 -21.25 26.641 -9.4228 24.396 36.24 -27.304 12.5 14.74 92.472 0.13226 5.6018 -8.9812 -21.428 7.8639 -0.47843
357 208.95 450.31 559.07 -84.163 -12.459 -109.9 97.914 -46.518 29.875 3.6103 -33.23 15.383 26.575 166.65 0.68716 12.747 -22.656 -59.034 1.3977 8.2401
358 239.74 523.63 440.78 -71.362 3.9334 4.3787 -15.096 8.4884 18.081 40.149 -20.375 9.2717 7.9557 49.714 0.37541 2.3575 -3.192 -6.5041 5.8864 -1.5509
359 201.41 433.52 551.91 -82.289 -15.854 -116.37 116.83 -53.829 27.888 -6.5326 -35.804 16.605 30.477 190.97 0.10134 15.237 -27.554 -71.793 -0.82148 11.097
360 215.5 465.76 536.98 -82.734 -8.9367 -59.61 69.661 -29.413 29.604 24.972 -27.797 12.804 18.849 118.21 -0.031978 8.3024 -14.244 -35.845 5.7049 2.5694
361 221.3 478.87 538.32 -83.409 -6.6464 -55.367 56.395 -24.294 29.759 29.757 -25.2 11.594 16.2 101.61 0.24911 6.8681 -11.585 -28.996 5.6987 1.6092
362 172.11 370.37 495.86 -72.173 -16.735 -152.24 124.47 -61.805 21.943 -31.147 -45.56 21.208 44.151 276.54 1.7525 23.446 -43.211 -115.36 -13.204 24.334
363 582.85 -253.19 -13.884 28.356 63.541 26.475 -14.114 -11.236 -8.5454 19.624 -165.22 -399.4 262.34 -38.648 4.8568 -64.452 -11.712 15.962 24.971 24.423
364 624.38 -248.89 19.751 39.282 49.174 3.1097 9.0591 -9.1571 -10.554 -2.4616 -526.98 -1257.6 878.56 -44.177 15.782 -110.3 -74.711 8.1952 7.0254 40.77
365 650.74 -253.5 29.279 50.097 5.2215 -1.6839 4.3787 0.06065 6.3277 -6.7499 -1095.3 -2605.7 1897.5 -75.735 6.0282 99.519 -51.758 8.3416 -29.931 -25.743
366 185.53 418.28 -126.39 19.132 11.001 -98.913 -48.308 2.4054 2.6 5.7173 -23.829 10.612 -0.19385 -3.2899 8.6585 -0.020304 1.9323 -0.11049 -3.3093 1.6028
367 106.12 241.31 -151.16 23.624 8.4642 -120.07 -32.926 -3.9597 20.7 53.696 -55.399 24.532 -3.5501 -27.763 43.334 1.9662 4.4741 -15.32 -8.4305 3.9192
368 24.63 56.606 -86.899 12.596 -13.42 17.218 64.491 -15.109 20.471 42.013 -12.684 5.5173 -1.9583 -13.47 -10.042 2.3058 -7.3211 -13.388 10.808 -3.729
369 107.6 244.87 -158.3 24.704 1.0888 -70.953 2.0856 -11.859 18.048 39.668 -52.028 23.049 -3.2743 -26.26 21.49 1.4542 0.43395 -15.948 -6.2355 2.3278
370 185.55 417.99 -109.44 16.277 9.7193 -83.75 -44.522 2.9985 0.46694 0.70488 -24.542 10.935 -0.010281 -2.1204 7.6552 -0.088664 1.8722 0.40677 -2.9984 1.4532
371 116.62 264.67 -146.77 22.984 9.387 -120.48 -39.135 -2.13 16.532 41.983 -56.624 25.105 -2.9794 -24.243 40.174 1.4322 5.1735 -11.195 -9.753 4.6571
372 182.33 408.44 -33.119 3.7236 5.8391 -24.923 -29.178 5.9233 -4.7144 -9.9192 -15.715 7.0168 0.59934 2.5813 2.048 -0.10537 0.83871 1.3925 -0.54113 0.28826
373 150.95 342.38 -177.4 27.373 2.2782 -74.896 -3.4458 -11.049 13.337 27.282 -31.49 13.985 -1.3653 -11.739 9.892 0.40303 0.77192 -5.7058 -3.894 1.6436
374 10.544 22.463 -19.839 2.3396 1.9091 -21.288 -4.6774 1.7626 8.5709 18.027 -140.35 58.566 -15.748 -102.23 247.04 21.26 2.4725 -98.956 70.724 -34.49
375 155.44 352.16 -168.57 26.157 8.1676 -109.82 -31.825 -4.6722 12.399 28.788 -43.332 19.25 -1.6858 -14.744 20.31 0.53428 2.892 -5.9715 -6.8957 3.1647
376 131.27 297.45 -148.52 23.137 10.08 -119.97 -42.007 -1.4931 13.341 33.763 -39.836 17.68 -1.7345 -14.677 24.752 0.66715 3.6185 -5.842 -7.0297 3.3976
377 183.97 413.3 -79.191 10.977 3.9448 -27.78 -16.693 0.61391 -2.6477 -6.343 -17.544 7.8234 0.26771 0.25998 2.2451 -0.096621 0.72179 0.64567 -0.94181 0.43885
378 78.015 177.78 -153.15 23.853 -6.2035 -27.417 39.263 -19.828 22.712 48.434 -53.064 23.428 -4.6936 -36 7.874 2.6931 -5.8842 -28.158 0.55656 -1.4746
379 184.83 417.04 -138.1 20.531 1.6033 -39.614 -3.3032 -6.2045 2.9323 3.1448 -20.796 9.2596 -0.22602 -3.2899 3.1281 0.0015644 0.54794 -0.91313 -1.6221 0.69908
380 166.39 376.5 -165.85 25.094 -3.5227 -23.099 23.003 -13.506 8.0708 12.315 -21.429 9.5285 -0.61057 -5.9094 1.8165 0.14167 -0.20107 -2.6789 -1.27 0.48087
381 118.65 269.27 -148 23.252 9.8572 -122.47 -40.293 -1.6134 16.257 42.051 -55.28 24.514 -2.8621 -23.398 39.194 1.3803 5.1119 -10.627 -9.584 4.5965
382 87.666 198.53 -118.61 18.597 9.9536 -113.63 -39.975 0.35263 16.692 46.53 -63.782 28.215 -3.8788 -30.372 59.148 2.3415 7.2483 -14.803 -9.8455 4.8982
383 120.57 272.95 -147.34 22.515 -4.3553 -17.976 28.316 -14.354 10.127 18.281 -33.501 14.862 -1.4669 -12.669 2.4733 0.46269 -1.1034 -6.8159 -1.7666 0.51326
384 92.456 210.14 -130.16 20.408 9.1012 -115.77 -36.689 -1.1379 18.681 50.626 -72.282 31.988 -4.6022 -35.943 63.903 2.826 7.2261 -18.985 -10.86 5.2147
385 126.38 286.71 -166.91 26.018 2.2278 -74.326 -1.4701 -11.178 15.661 33.881 -40.625 18.018 -2.1644 -17.881 15.076 0.81581 0.78511 -9.7497 -5.1596 2.0993
386 170.18 385.32 -176.04 26.978 1.9366 -64.781 -1.6886 -10.367 9.9695 18.77 -26.243 11.666 -0.86599 -7.9894 6.3773 0.20504 0.6182 -3.4471 -2.875 1.2175
387 143.75 326.24 -180.41 27.966 1.9741 -75.891 -0.71713 -12.007 15.185 31.976 -32.131 14.262 -1.5679 -13.142 10.658 0.52114 0.61823 -6.8384 -3.968 1.6301
388 13.469 28.697 -25.344 2.9836 2.4905 -27.191 -5.9747 2.2211 10.995 22.999 -89.649 37.409 -10.059 -65.301 157.8 13.577 1.5785 -63.208 45.179 -22.019
389 40.43 91.243 -69.911 10.667 5.5926 -71.156 -20.682 0.18647 17.56 48.432 -107.26 47.029 -9.4241 -68.725 146.36 9.4912 10.573 -49.601 6.263 -3.5288
390 162.2 367.28 -171.78 26.207 -0.37793 -48.231 9.3385 -12.104 9.6766 17.663 -26.528 11.79 -0.90579 -8.2765 4.9122 0.21388 0.22053 -3.7837 -2.4457 0.98884
391 73.94 168.62 -153.91 23.992 -6.9448 -25.414 43.103 -20.982 24.76 52.987 -53.95 23.802 -5.1054 -38.809 7.0803 3.165 -7.143 -31.816 2.2583 -2.344
392 179.07 403.98 -132.86 19.674 0.25213 -29.238 2.7201 -6.8354 2.7381 2.3476 -20.985 9.3432 -0.21042 -3.2137 2.4764 0.011349 0.4011 -0.94204 -1.3919 0.59654
393 107.13 242.75 -138.25 21.763 11.022 -126.64 -44.484 -0.10765 17.277 46.937 -59.494 26.358 -3.3215 -26.568 49.455 1.7797 6.3678 -12.243 -10.037 4.9534
394 186.43 419.28 -85.782 12.55 11.761 -86.723 -55.094 6.7074 -1.7288 -2.8125 -22.844 10.185 0.23618 -0.36038 7.4272 -0.13656 2.0032 1.2193 -2.727 1.3728
395 27.955 62.57 -50.805 7.5689 4.1263 -52.649 -14.24 0.59602 15.169 40.308 -125.17 54.538 -11.948 -85.271 189.02 14.09 10.212 -68.713 23.007 -13.184
396 196.28 442.74 -137.89 20.649 7.3321 -76.673 -30.578 -1.445 2.509 4.0681 -21.91 9.7584 -0.19578 -3.1353 5.8585 -0.026683 1.2677 -0.45639 -2.4881 1.1664
397 10.544 22.463 -19.839 2.3396 1.9091 -21.288 -4.6774 1.7626 8.5709 18.027 -140.35 58.566 -15.748 -102.23 247.04 21.26 2.4725 -98.956 70.724 -34.49
398 166.59 375.63 -124.95 19.121 11.346 -102.95 -48.255 2.3702 3.6749 10.045 -31.988 14.234 -0.45331 -5.6516 13.41 0.019612 2.8051 -0.66625 -4.9003 2.3831
399 754.76 -346 -229.89 -456.12 -23.801 -10.707 15.985 44.544 26.332 -16.822 -1844.7 -3525.5 -812.31 30.116 5.6265 84.917 -49.638 25.271 -5.0309 15.47
400 19.981 45.279 -74.359 9.2871 -17.301 22.521 73.671 -6.1152 21.002 39.035 -15.065 6.5134 -2.4844 -16.381 -15.782 4.0704 -11.495 -16.493 17.336 -4.0798
401 223.4 502.63 -104.18 13.715 -8.1128 44.765 38.181 -7.9206 -1.8754 -5.7845 -36.443 16.256 0.54318 0.48067 -3.1198 -0.019151 -0.65599 0.21657 1.2301 -0.60229
402 227.24 510.78 -89.722 11.435 -6.7631 42.611 31.145 -5.6602 -2.9176 -7.469 -26.737 11.932 0.56231 1.4206 -1.9463 -0.034386 -0.29786 0.58627 0.89616 -0.43195
403 256.38 574.01 -12.517 -0.76545 4.8471 -1.302 -27.031 8.4002 -7.8059 -14.104 -40.003 17.89 2.0763 10.283 2.3506 -0.22652 1.5178 3.9736 0.31076 -0.070692
404 249.57 561.13 -96.966 12.872 1.137 -8.0251 -5.5163 -0.832 -3.9633 -9.9926 -40.717 18.173 0.79866 1.8366 2.3509 -0.19224 1.027 1.544 -0.94125 0.43468
405 252.16 563.34 20.111 -5.8604 6.5309 -1.4345 -34.944 11.474 -8.3355 -13.487 -31.341 14.025 2.0474 10.811 2.0161 -0.16492 1.3136 3.6665 0.61824 -0.2041
406 265.1 590.36 97.303 -18.606 5.3433 26.589 -32.996 15.501 -7.9835 -8.9665 -27.617 12.385 2.7463 15.655 0.437 0.020865 0.78383 3.5755 2.1673 -0.89878
407 265.79 584.6 368.7 -61.266 5.6763 34.624 -33.833 19.133 8.0424 29.13 -102.81 46.507 27.777 171.53 0.12073 5.9031 -5.7237 -4.2652 25.275 -8.9453
408 192.42 435.06 -181.04 26.352 -15.412 51.303 77.934 -21.306 7.2233 9.9095 -25.922 11.533 -0.55972 -5.9014 -4.3209 0.22191 -1.7683 -3.0053 1.2093 -0.57225
409 214.08 481.13 -92.539 11.929 -9.5754 57.16 44.535 -7.9237 -1.7444 -5.5194 -42.794 19.091 0.79539 1.5417 -5.2157 0.033283 -1.1579 0.39942 2.305 -1.0778
410 258.66 573.73 162.5 -28.557 8.953 13.775 -50.725 20.209 -5.6874 -2.8826 -225.8 101.4 30.25 178.1 10.467 1.709 7.0952 30.565 23.042 -8.7879
411 219.44 494.44 -131.19 18.164 -9.1075 39.634 44.728 -11.288 0.30459 -2.5887 -23.661 10.548 0.089101 -1.4188 -1.9904 0.016357 -0.57202 -0.54883 0.56449 -0.28966
412 295.98 656.86 180.77 -32.19 6.1153 42.622 -38.28 20.38 -6.432 -2.1009 -179.78 80.763 23.754 139.92 -0.11828 1.5464 3.0474 22.454 21.957 -9.096
413 249.92 557.03 65.615 -13.238 6.9533 9.4079 -37.13 14.176 -8.5212 -10.801 -33.846 15.163 2.9139 16.297 1.5725 -0.099592 1.2983 4.4053 1.7003 -0.67794
414 251.88 566.41 -100.79 13.359 -0.65684 2.1061 2.5702 -2.2636 -3.6023 -9.783 -47.294 21.108 0.89726 1.9134 1.5492 -0.18138 0.85138 1.5418 -0.65129 0.27501
415 243.31 545.53 -44.854 4.5806 3.0582 -1.8048 -16.762 4.4771 -6.3035 -12.744 -25.004 11.172 0.96349 4.2349 1.3473 -0.14181 0.81623 1.9264 -0.095588 0.077484
416 259.79 570.26 371.84 -61.775 2.9 50.399 -18.637 16.312 9.1876 31.886 -68.69 31.085 19.352 119.59 -2.0328 4.4498 -5.1872 -5.0213 18.604 -6.7504
417 278.95 617.9 210 -36.652 6.4634 40.337 -39.788 20.657 -4.2963 3.0211 -60.427 27.175 9.241 55.162 0.085487 0.85071 0.67293 6.9706 8.6661 -3.504
418 215.2 485.25 -141.1 19.899 -8.4113 30.359 42.36 -12.053 1.2835 -1.0423 -27.081 12.068 -0.033152 -2.5098 -1.758 0.021251 -0.60265 -0.96484 0.31634 -0.19106
419 244.91 550.46 -87.884 11.486 1.5053 -7.6586 -7.6781 0.04968 -4.2699 -10.453 -44.75 19.976 1.0002 2.791 2.6348 -0.21525 1.2034 1.9877 -0.95032 0.45546
420 218.37 486.26 64.676 -13.709 -6.6037 86.629 23.067 5.7712 -5.2171 -2.9063 -28.842 12.921 2.707 15.259 -4.1501 0.20756 -0.62489 2.7041 4.3169 -1.9407
421 262 587.2 -32.587 2.3029 2.7829 6.4004 -16.697 5.7677 -7.3006 -13.932 -46.233 20.668 2.0632 9.6709 1.7714 -0.23981 1.3891 3.9219 0.39806 -0.13532
422 264.39 592.15 -19.96 0.27743 3.4415 6.6622 -20.31 7.1788 -7.7344 -14.252 -31.93 14.278 1.5797 7.6957 1.2841 -0.16559 1.0186 2.9571 0.40898 -0.15322
423 242.36 539.65 91.497 -17.009 10.299 -10.2 -54.919 17.77 -7.8397 -9.5674 -37.78 16.939 3.7624 21.429 3.5057 -0.058622 1.9393 5.5079 1.7007 -0.555
424 284.82 632.73 151.77 -27.196 10.11 10.642 -55.589 21.329 -7.7804 -6.2017 -164.18 73.704 19.738 115.32 8.7423 0.54335 5.9625 22.906 13.862 -5.4118
425 249.76 559.04 -18.499 -0.14538 -0.74929 32.01 -1.1249 3.9532 -6.6344 -12.479 -156.68 70.045 7.9166 38.791 -2.8784 -0.50063 2.4485 13.108 6.1669 -2.6932
426 296.4 649.91 460.73 -75.884 3.72 45.061 -21.624 17.166 13.99 41.083 -172.3 78.102 53.613 332.56 -2.881 13.401 -16.402 -22.715 48.388 -16.476
427 271.2 594.6 423.15 -69.753 3.3152 41.654 -19.018 15.438 12.763 37.996 -224.71 101.87 70.228 435.95 -4.0026 17.576 -21.696 -30.534 63.46 -21.582
428 198.9 440.82 133.22 -24.484 -5.7188 89.841 18.27 8.8291 -2.7007 6.3892 -96.495 43.321 13.856 82.385 -14.84 1.8625 -3.6148 7.877 20.653 -9.1067
429 266.67 592.28 145.63 -26.162 8.4642 17.524 -47.169 19.392 -7.1923 -4.9315 -61.258 27.501 7.4924 43.842 2.3636 0.25813 1.9398 8.3249 5.7218 -2.2742
430 295.62 652.18 319.35 -54.209 4.9517 58.03 -33.062 21.926 1.7587 18.962 -96.563 43.553 20.126 122.71 -2.1959 3.2605 -2.2273 5.1493 20.266 -7.9702
431 242.9 544.56 -40.882 3.8662 2.8758 0.33211 -16.408 4.5968 -6.4125 -12.819 -31.173 13.929 1.2509 5.6097 1.5441 -0.17596 0.99986 2.4664 -0.013111 0.0469
432 257.81 578.67 -66.661 7.9395 2.5126 -4.3714 -13.704 2.8488 -5.8414 -12.714 -27.239 12.168 0.85811 3.3496 1.5186 -0.14656 0.82264 1.7429 -0.31571 0.16222
433 240.85 533.07 206.63 -36.528 -4.7574 98.765 11.343 13.157 -1.133 12.586 -50.609 22.772 8.7178 52.491 -6.4441 1.3878 -2.0334 3.3575 11.688 -5.0188
434 277.76 620.34 31.913 -8.3455 3.5602 25.346 -21.77 10.855 -8.9639 -13.357 -65.741 29.43 4.5959 24.667 0.7539 -0.22476 1.7927 7.323 3.1154 -1.3485
435 220.98 494.77 -19.778 -0.26444 -9.6756 83.199 40.499 -1.2945 -4.9911 -6.5518 -29.802 13.32 1.5268 7.5098 -4.7048 0.054928 -0.81513 1.7953 3.1676 -1.4629
436 249.13 547.06 355.81 -59.003 5.6859 29.816 -31.624 17.301 8.4032 28.9 -126.44 57.203 35.34 218.76 0.53142 7.6521 -7.7627 -7.5685 31.697 -10.994
437 251.93 562.14 51.515 -10.941 6.0558 9.2434 -34.634 13.16 -8.1495 -12.046 -23.333 10.451 1.8556 10.207 1.0516 -0.07857 0.88344 2.9326 1.0146 -0.39381
438 260.06 582.18 -20.724 0.31534 1.8992 17.093 -12.225 5.7819 -7.4804 -13.537 -37.135 16.604 1.8326 8.9301 0.62488 -0.17558 0.94418 3.2768 0.84334 -0.36049
439 259.89 563.81 588.74 -92.719 -6.0062 -20.463 47.388 -15.521 31.179 44.815 -157.42 72.159 87.843 550.44 -2.2099 34.477 -56.366 -134.12 46.548 -2.2204
440 226.42 506.27 6.1733 -4.0114 -3.1019 52.283 9.9189 4.1423 -6.419 -9.3794 -27.731 12.405 1.7158 8.9205 -1.9452 -0.03692 0.04951 2.4411 2.099 -0.95361
441 172.34 385.36 -18.637 -0.68005 -19.259 128.07 83.232 -5.7145 -2.14 3.2915 -60.44 26.986 3.2025 15.934 -21.571 0.87395 -5.7646 1.6091 13.146 -5.6977
442 277.88 618.7 113.62 -21.47 4.8039 35.162 -31.36 16.453 -8.18 -7.8975 -53.947 24.2 5.6539 32.497 0.16792 0.11394 1.2899 6.8977 4.8713 -2.0726
443 244.94 547.7 2.1073 -2.7904 6.9414 -10.981 -36.334 10.442 -7.8901 -13.664 -41.875 18.73 2.4106 12.293 3.5159 -0.26045 1.9284 4.6682 0.1416 0.047381
444 272.44 610.6 -33.869 2.5148 4.2311 -1.6557 -23.163 6.9781 -7.8241 -14.647 -45.548 20.362 2.0207 9.4561 2.549 -0.26042 1.5863 3.9854 0.041592 0.013902
445 212.2 477.18 -91.809 11.13 -17.015 99.836 77.167 -11.14 -1.2361 -1.7052 -48.08 21.449 0.96941 2.3171 -11.465 0.25487 -2.9993 -0.13531 5.4634 -2.4774
446 218.81 494.1 -174.65 25.009 -13.643 48.755 68.39 -18.619 4.5488 4.6641 -33.447 14.895 -0.38718 -5.3794 -4.2328 0.15553 -1.5934 -2.5361 1.0986 -0.5533
447 261.32 586.86 -71.637 8.6509 1.8684 -1.5513 -10.542 2.2712 -5.8126 -12.558 -64.433 28.778 1.9429 7.3538 3.1163 -0.32985 1.7785 3.87 -0.64546 0.28914
448 270.54 604.99 13.079 -5.1395 3.6882 16.567 -22.629 9.7857 -8.5076 -13.999 -35.344 15.818 2.2122 11.542 0.89522 -0.14085 1.0724 3.771 1.1718 -0.48416
449 273.85 610.35 76.883 -15.49 4.5155 29.104 -28.448 14.11 -8.5428 -10.84 -62.172 27.862 5.5301 31.043 0.60636 -0.047091 1.6873 7.7283 4.3142 -1.8426
450 272.36 609.99 -26.941 1.2865 2.7338 10.481 -16.658 6.2042 -7.5962 -14.534 -46.054 20.592 2.1792 10.425 1.4524 -0.22512 1.3248 4.045 0.65084 -0.256
451 260.69 583.64 -13.877 -0.6568 3.5083 7.5064 -20.985 7.4961 -7.6658 -14.111 -25.182 11.262 1.3035 6.4441 0.98669 -0.1272 0.81469 2.4081 0.39639 -0.14447
452 240.72 540.46 -78.847 10.352 5.2641 -27.586 -23.921 3.141 -4.9346 -10.774 -63.21 28.216 1.5443 4.8378 6.9976 -0.39393 2.6443 3.6267 -2.4934 1.2181
453 226.6 509.52 -95.848 12.495 -5.7095 33.172 26.401 -5.7311 -2.6136 -7.3861 -25.355 11.314 0.46016 0.8804 -1.2849 -0.047225 -0.15172 0.46944 0.53431 -0.26401
454 258.35 580.29 -78.878 10.073 5.0215 -23.658 -23.323 3.5335 -5.7818 -11.929 -37.192 16.609 0.98822 3.3852 3.6387 -0.23572 1.4615 2.2446 -1.2158 0.58722
455 238.94 537.24 -102.1 14.034 3.3375 -26.072 -15.05 -0.13817 -3.1212 -8.7306 -78.626 35.08 1.2351 1.4838 8.0444 -0.394 2.7519 2.7138 -3.4231 1.6421
456 259.54 581.77 -47.301 4.8988 3.7044 -3.6612 -19.231 5.0854 -6.713 -13.647 -35.793 15.995 1.3878 6.0944 2.0746 -0.20068 1.2011 2.7971 -0.19642 0.12679
457 278.3 622.15 15.178 -5.5514 4.29 14.365 -25.621 10.434 -8.7968 -14.505 -87.616 39.209 5.5312 28.946 2.7199 -0.38029 2.7943 9.499 2.7376 -1.1397
458 267.73 601 -75.57 9.2106 1.7688 -1.4219 -10.131 1.7135 -5.5797 -12.857 -50.85 22.711 1.496 5.5524 2.4238 -0.25686 1.3761 2.9704 -0.52657 0.25348
459 226.64 507.46 -14.277 -0.095652 5.0028 -7.6207 -27.581 7.7825 -6.8668 -12.64 -43.449 19.422 2.1784 10.698 3.2372 -0.28499 1.8463 4.3191 -0.00015947 0.12862
460 228.89 515.57 -137.2 19.023 -10.091 45.478 49.818 -12.196 0.42484 -2.4803 -36.1 16.093 0.13914 -2.1624 -3.4299 0.039115 -0.99387 -0.87987 1.0347 -0.53648
461 259.85 581.67 -19.482 0.07507 1.6745 18.801 -11.337 5.7131 -7.4755 -13.475 -38.221 17.09 1.9057 9.3239 0.50826 -0.17366 0.93309 3.3804 0.94622 -0.40594
462 264.96 591.49 38.785 -9.1813 4.3297 19.801 -25.85 11.527 -8.4783 -12.784 -39.409 17.646 2.8917 15.641 0.86486 -0.1219 1.2021 4.5901 1.835 -0.75722
463 248.91 559 -83.717 10.406 -3.2479 25.874 14.198 -2.6966 -4.1863 -10.257 -29.961 13.377 0.7613 2.4779 -0.59667 -0.089314 0.19651 1.1807 0.42992 -0.20168
464 255.93 575.54 -102.02 13.655 1.3816 -10.685 -6.5124 -0.90997 -3.8839 -10.051 -42.536 18.985 0.79482 1.6491 2.6779 -0.19846 1.1061 1.549 -1.1086 0.50632
465 251.33 563.91 -58.875 6.8285 4.3118 -13.835 -21.926 4.4559 -6.2049 -12.778 -28.897 12.908 0.96431 3.9282 2.2965 -0.17906 1.0879 2.0707 -0.55463 0.28248
466 224.43 501.24 36.419 -8.1285 7.1138 -7.2194 -39.621 12.579 -7.505 -11.76 -58.729 26.287 4.3511 23.643 4.8092 -0.30471 2.8209 7.5604 1.2957 -0.38285
467 214.1 482.17 -128.8 17.506 -13.232 66.106 64.317 -13.479 0.54546 -0.94768 -39.008 17.385 0.17302 -2.1332 -6.2599 0.10837 -1.7991 -1.1778 2.3389 -1.1146
468 251.33 562.64 -5.5037 -2.0708 2.1047 18.298 -14.394 7.1481 -7.6871 -13.021 -73.059 32.674 4.0327 20.405 1.1336 -0.31493 1.9353 7.0197 2.1561 -0.93297
469 265.66 591.03 107.92 -20.507 4.6411 34.638 -29.136 15.422 -7.8972 -7.472 -116.72 52.339 12.175 70.13 0.11904 0.216 2.7159 14.856 10.594 -4.5975
470 261.83 585.5 2.4702 -3.4256 2.7247 19.565 -16.806 8.0604 -8.1082 -13.46 -44.74 20.014 2.6171 13.45 0.71649 -0.19348 1.2081 4.4869 1.4687 -0.63426
471 231.8 520.43 -67.519 8.6575 7.056 -37.792 -33.541 5.1405 -5.1533 -11.014 -34.782 15.53 0.95061 3.3346 4.9235 -0.22927 1.7995 2.3968 -1.6822 0.82861
472 252.87 567.1 -47.784 5.0924 4.7096 -12.477 -24.467 5.7577 -6.633 -13.405 -35.971 16.073 1.3596 5.9094 2.8143 -0.22124 1.3983 2.8712 -0.52209 0.28811
473 245.3 541.99 254.11 -42.975 8.7766 16.245 -50.733 21.339 0.11097 11.524 -94.917 42.772 18.856 114.73 3.7996 2.5444 0.32687 7.8156 16.031 -5.9254
474 265.56 589.97 139.04 -25.316 4.9068 38.281 -31.389 16.945 -6.6335 -4.4216 -42.119 18.907 5.059 29.509 -0.11864 0.24298 0.81937 5.3454 4.6367 -1.9348
475 234.56 520.39 138.53 -26.097 -10.955 127.48 40.324 8.0846 -3.0543 8.0385 -116.36 52.224 15.558 91.536 -23.573 2.3958 -6.0531 8.7565 26.654 -11.817
476 284.4 631.79 155.39 -28.151 4.7477 44.73 -31.831 18.203 -6.7457 -3.825 -60.172 27.02 7.423 43.401 -0.54443 0.42146 1.012 7.5256 7.0199 -2.9146
477 257.66 579.47 -102.76 13.717 1.0844 -8.3325 -4.8098 -1.1371 -4.0087 -10.024 -53.314 23.796 0.99812 2.0886 3.0524 -0.24353 1.3102 1.9022 -1.2669 0.57085
478 265.27 593.82 -10.346 -1.1542 3.3492 10.773 -20.095 7.9179 -7.7333 -14.29 -31.759 14.206 1.6977 8.4452 1.0515 -0.14362 0.97875 3.0751 0.63163 -0.24359
479 293.77 652.84 147.1 -26.638 8.3526 22.523 -47.866 20.353 -7.9251 -6.8413 -265.7 119.25 30.927 179.83 8.4891 0.94494 8.1622 35.885 23.864 -9.6244
480 206.48 466.18 -152.21 21.88 -8.558 23.214 42.813 -13.562 3.0389 1.5109 -41.603 18.531 -0.31818 -5.6689 -2.2443 0.080214 -1.0139 -2.3104 0.11836 -0.11413
481 267.32 595.43 83.689 -16.391 4.9609 26.981 -30.53 14.485 -7.9677 -10.231 -91.469 40.997 8.5049 47.937 1.2615 0.006934 2.5845 11.611 6.5962 -2.6939
482 166.77 378.53 -214.52 31.929 -19.54 52.755 100.36 -28.956 14.286 24.489 -37.293 16.561 -1.6639 -14.133 -8.7162 0.68659 -4.2123 -8.183 2.8227 -1.2621
483 252.19 560.01 135.63 -24.757 2.4497 50.612 -20.065 14.939 -5.8111 -2.7507 -65.529 29.412 8.042 46.959 -2.0794 0.51648 0.6549 7.8579 8.314 -3.5114
484 205.89 454.94 180.21 -30.929 7.2859 15.863 -40.665 17.195 -2.1642 4.9122 -501.4 225.42 85.927 518.44 17.959 8.814 7.5699 54.848 72.877 -28.408
485 240.14 539.78 -98.353 13.037 -1.3432 6.58 6.4047 -3.0592 -3.1994 -9.0443 -62.531 27.902 1.1395 2.2522 1.3019 -0.24274 0.9117 1.815 -0.57485 0.2712
486 240.67 539.08 -31.654 2.4606 3.6642 -1.8021 -20.355 5.6332 -6.5891 -13.039 -48.855 21.833 2.1328 9.9121 2.7603 -0.28651 1.7174 4.2133 0.013582 0.074422
487 277.35 618.59 75.967 -15.349 4.5395 28.171 -29.344 14.396 -8.7023 -11.203 -59.956 26.871 5.2872 29.592 0.72086 -0.04804 1.6695 7.4582 4.0434 -1.7128
488 257.32 578.17 -86.317 11.269 3.5539 -18.624 -17.386 2.03 -4.9188 -11.531 -36.238 16.18 0.87352 2.6824 3.0729 -0.19744 1.2547 1.905 -1.0866 0.51752
489 237.52 533.9 -79.606 10.498 4.9916 -30.964 -25.744 3.2447 -4.4378 -10.756 -81.938 36.577 1.9454 5.8458 9.8096 -0.48878 3.5991 4.6721 -3.5571 1.7735
490 244.29 548.78 -65.397 8.0415 5.1129 -25.405 -27.156 4.7778 -5.638 -12.161 -120.38 53.756 3.6138 13.609 12.871 -0.77896 5.2329 8.3167 -3.9748 2.0019
491 263.76 592.18 -81.453 10.286 1.9703 -4.7648 -10.068 1.355 -5.2498 -12.21 -50.39 22.502 1.3554 4.6646 2.7111 -0.25739 1.3868 2.7223 -0.76921 0.3468
492 251.33 563.97 -52.444 5.64 1.345 7.3989 -8.9135 3.2066 -6.1364 -12.711 -71.826 32.09 2.6354 11.209 2.2329 -0.33383 1.8234 5.0127 0.24679 -0.072363
493 271.87 610.15 -61.487 6.8219 1.1027 8.1674 -8.1253 2.823 -6.4114 -13.57 -51.999 23.234 1.816 7.5562 1.5502 -0.24546 1.2687 3.456 0.11724 -0.047416
494 251.36 559.08 109.47 -20.378 5.2216 27.297 -32.81 15.51 -6.9625 -7.0077 -122.5 54.936 13.256 76.374 1.6378 0.31239 3.3253 15.975 10.994 -4.3716
495 214.15 482.92 -106.61 14.472 -4.4346 15.371 19.056 -5.7069 -1.5942 -5.9925 -25.812 11.513 0.28753 -0.28495 -0.30031 -0.059001 0.03283 0.16577 -0.045344 0.0040658
496 249.89 562.61 -131.7 18.59 0.94212 -20.047 -1.9846 -4.1551 -1.5107 -6.1846 -113.23 50.496 0.84635 -4.0099 8.9485 -0.41291 2.6473 0.96558 -4.6485 2.1279
497 274.86 617.29 -89.223 11.482 2.3769 -7.7319 -10.992 1.2422 -5.3846 -12.364 -48.079 21.47 1.2221 3.9732 2.8345 -0.24334 1.3511 2.4797 -0.90024 0.40908
498 254.94 574 -128.63 17.947 0.080995 -12.951 1.1693 -4.2523 -1.9492 -7.1186 -33.054 14.745 0.31504 -0.70961 2.0592 -0.1161 0.6729 0.40497 -1.0978 0.47992
499 231.93 523.38 -149.4 21.946 5.1743 -61.181 -21.219 -2.8733 1.0111 -0.057962 -130.59 58.197 -0.44764 -13.954 24.499 -0.37166 5.6034 -1.4802 -11.292 5.2105
500 181.41 412.04 -221.98 33.427 -11.781 3.0539 63.553 -25.019 14.631 24.696 -65.766 29.219 -2.8126 -24.253 -2.3446 0.86807 -3.8192 -13.331 -0.76737 0.02497
501 261.76 589.04 -127.78 17.7 0.21779 -12.275 0.33411 -4.1171 -2.2215 -7.872 -75.135 33.519 0.8239 -0.92051 4.5803 -0.26971 1.5697 1.2008 -2.3767 1.0396
502 197.82 448.16 -207.65 30.559 -17.168 50.189 87.738 -25.047 9.9857 15.39 -31.331 13.935 -0.919 -8.7311 -5.3076 0.33708 -2.4197 -4.6049 1.4194 -0.70827
503 273.16 613.78 -99.141 12.812 -0.92143 8.9786 4.153 -1.9277 -4.5322 -11.255 -66.98 29.903 1.5026 4.2392 1.3686 -0.26804 1.0903 2.6094 -0.37776 0.13686
504 237.26 535.07 -150.13 21.635 -0.74392 -19.772 6.8066 -7.326 0.71414 -2.1738 -45.98 20.495 -0.054068 -4.2465 3.421 -0.086945 0.73297 -0.85705 -2.0751 0.91683
505 268.08 602.38 -99.59 13.076 0.061535 1.9408 0.021873 -1.334 -4.4027 -10.975 -50.005 22.323 1.075 2.8467 1.7594 -0.21117 0.98963 1.9491 -0.63224 0.25679
506 200.23 453.73 -208.79 31.103 -11.385 13.968 61.185 -21.917 10.125 15.564 -49.239 21.899 -1.4932 -14.067 -2.6263 0.41054 -2.2868 -7.0668 -0.28174 -0.039743
507 234.02 528.25 -164.43 24.092 0.040086 -32.971 3.5489 -8.238 2.4504 1.0301 -47.764 21.282 -0.34075 -6.2826 5.0695 -0.05237 0.91664 -1.6662 -2.8755 1.2719
508 91.632 210.26 -226.63 34.577 -25.709 43.97 132.18 -39.53 33.266 69.141 -224.16 98.881 -24.196 -177.57 -110.88 17.112 -69.561 -142.05 71.866 -28.88
509 172.75 392.85 -237.1 35.277 -22.842 60.075 115.43 -33.332 17.254 30.213 -37.853 16.807 -1.8841 -15.617 -9.958 0.82958 -4.8392 -9.3065 3.4518 -1.5207
510 186.52 423.51 -223.92 33.375 -17.001 36.52 87.554 -27.712 13.691 22.528 -69.371 30.826 -2.7704 -24.198 -10.293 0.98252 -5.7816 -13.437 2.4543 -1.2744
511 58.335 133.85 -159.88 23.155 -28.901 60.69 133.35 -24.893 24.629 50.233 -148.3 65.171 -17.272 -123.4 -131.21 18.093 -69.031 -95.754 88.152 -24.564
512 93.795 216.08 -236.34 35.336 -33.663 71.478 164.1 -40.511 32.799 68.501 -106.79 47.12 -11.553 -83.756 -72.831 9.2005 -38.92 -64.288 45.051 -15.468
513 178.36 405.02 -214.35 32.107 -15.241 28.456 79.145 -25.683 13.196 21.795 -78.656 34.95 -3.1558 -27.646 -9.8666 1.0875 -6.1642 -15.265 1.9643 -1.1888
514 200.26 451.62 -116.93 17.205 8.1603 -74.436 -37.591 1.7556 -0.021263 -0.78535 -176.43 78.613 0.1303 -14.05 45.835 -0.75859 11.355 2.2317 -18.802 9.1168
515 247.16 556.62 -135.48 18.989 -1.738 -5.6691 9.7288 -6.5201 -0.84418 -5.6289 -184.77 82.387 1.1469 -8.1404 7.8691 -0.45543 2.374 -0.030513 -5.1675 2.1971
516 236.99 534.2 -132.87 19.095 2.7008 -36.815 -11.358 -2.9154 -0.76719 -4.4879 -95.761 42.697 0.40066 -5.4865 11.829 -0.35472 3.1161 0.45456 -5.7451 2.6179
517 249.6 562.19 -140.78 20.181 1.7196 -29.703 -5.4013 -4.3522 -0.65473 -4.8111 -72.835 32.476 0.30013 -4.1886 7.346 -0.24365 1.9415 0.11316 -3.7717 1.6833
518 241.86 543.75 -100.87 13.692 1.9698 -16.761 -9.4384 -1.0093 -3.1365 -9.2304 -74.586 33.281 1.267 1.9876 5.8667 -0.34245 2.1917 2.5463 -2.4994 1.2088
519 260.37 585.12 -99.412 13.112 0.10134 0.80221 0.13637 -1.5929 -4.1992 -10.384 -119.48 53.332 2.4569 6.0591 4.4281 -0.52322 2.3786 4.4188 -1.6806 0.75641
520 221.31 499.79 -176.2 26.192 1.428 -50.379 -1.7846 -9.2022 4.853 6.2706 -348.57 155.19 -5.1852 -63.869 54.404 0.14689 8.4577 -20.316 -28.209 12.416
521 242.03 543.69 -59.102 6.9314 3.4041 -12.722 -19.984 4.1465 -5.7024 -12.347 -263.64 117.73 8.6046 34.267 20.372 -1.5083 9.8276 18.296 -4.9784 2.7504
522 268.96 603.66 -76.117 9.2711 0.82111 6.8964 -4.0992 1.1212 -5.7807 -12.517 -98.378 43.936 2.9156 10.854 2.8877 -0.46304 2.1574 5.5022 -0.2721 0.086551
523 238.62 537.98 -137.86 19.447 -2.7208 -3.04 13.717 -7.2989 -0.28314 -4.477 -93.12 41.518 0.36054 -5.5294 3.1973 -0.18072 0.83965 -0.75702 -2.4544 1.0122
524 254.68 573.14 -115.51 15.749 -0.83124 -2.0437 4.3024 -3.5558 -2.8238 -8.5765 -45.837 20.453 0.65334 0.42122 1.805 -0.16037 0.78246 0.99287 -0.93804 0.39808
525 213.72 483.06 -188.52 28.102 -4.0522 -19.585 26.069 -14.491 6.6063 8.8914 -95.801 42.637 -1.9341 -20.968 6.005 0.31981 -0.45419 -8.6373 -4.7386 1.9135
526 241.35 544.78 -158.83 22.626 -5.7593 7.4698 28.546 -11.237 1.5455 -1.6363 -136.1 60.655 -0.31021 -13.557 0.26384 -0.021759 -0.529 -4.2517 -2.3313 0.93685
527 239.69 541.26 -185.3 27.191 -3.3699 -19.068 20.432 -12.744 4.4115 3.8466 -292.07 130.08 -3.5101 -48.029 18.33 0.31588 1.048 -16.935 -13.6 5.6838
528 250.25 562.97 -124.53 17.889 8.5393 -66.632 -36.689 1.9249 -2.3695 -5.6181 -864.42 385.43 7.3998 -24.382 169.88 -4.6796 46.991 24.576 -71.098 33.736
529 215.51 487.12 -174.34 25.965 0.82581 -47.247 0.69371 -9.2987 5.0422 6.5667 -76.881 34.23 -1.2129 -14.527 11.5 0.098619 1.7142 -4.8131 -6.0702 2.6789
530 220.39 496.6 -139.43 20.521 5.2426 -57.932 -21.05 -2.5973 0.90916 -0.53122 -293.74 130.87 -0.69433 -29.714 55.182 -0.76869 12.923 -2.4244 -25.24 11.868
531 208.92 471.22 -155.78 23.689 12.004 -113.71 -50.591 1.0518 4.1848 10.116 -380.63 169.43 -5.065 -65.317 140.34 -0.087042 29.272 -9.2953 -53.887 25.876
532 239.57 540.27 -155.72 21.915 -10.115 38.481 49.989 -13.716 1.517 -1.321 -127.99 57.042 -0.069748 -11.343 -9.7667 0.17824 -3.1426 -4.4978 2.2245 -1.1123
533 269.67 606.22 -110.29 14.89 0.98954 -7.7269 -3.3988 -1.5948 -3.9355 -10.216 -171.19 76.399 3.069 5.7168 9.3347 -0.74703 3.9669 5.6867 -4.0221 1.7627
534 274.7 616.57 -75.842 9.1173 0.88125 6.9297 -4.9047 1.2912 -5.9545 -12.919 -123.13 54.996 3.7224 14.101 3.6876 -0.5823 2.7869 7.0466 -0.28422 0.12259
535 15.846 33.761 -29.817 3.51 2.9303 -31.989 -7.0291 2.6129 12.936 27.057 -210.94 88.022 -23.669 -153.65 371.29 31.945 3.7142 -148.72 106.3 -51.809
536 234.04 525.03 -69.266 9.3786 13.351 -79.32 -61.678 9.7837 -5.4661 -9.4347 -1160.4 517.82 29.687 98.479 289.61 -9.303 91.348 95.708 -100.06 50.669
537 300.92 666.71 227.08 -40.006 1.822 74.803 -20.304 19.61 -3.9168 5.9062 -325.84 146.51 50.294 300.16 -16.472 5.5827 -2.0275 33.1 55.678 -23.339
538 306.83 679.81 241.28 -41.817 8.775 33.309 -52.374 24.253 -4.4705 3.9296 -576.3 259.24 90.809 543.7 11.397 8.303 8.9388 67.19 80.34 -31.754
539 391.73 883.49 -195.02 26.463 -8.164 28.11 34.867 -10.398 -2.9405 -10.96 -1353.6 603.79 15.064 -14.937 -15.758 -3.0642 1.7626 8.6776 -2.3872 0.16585
540 208.16 473.12 -270.51 40.494 -20.471 38.867 106.14 -34.773 18.774 32.018 -1261.4 560.29 -58.579 -494.04 -192.72 21.61 -117.52 -285.31 49.001 -25.172
541 460.85 1039.4 -229.44 31.133 -9.6047 33.071 41.02 -12.233 -3.4594 -12.895 -4777.6 2131 53.165 -52.718 -55.615 -10.815 6.2209 30.627 -8.4255 0.58524
542 460.85 1039.4 -229.44 31.133 -9.6047 33.071 41.02 -12.233 -3.4594 -12.895 -4777.6 2131 53.165 -52.718 -55.615 -10.815 6.2209 30.627 -8.4255 0.58524
