277 20
0 -10.255 1.0884 0.0012568 0.47397 -0.10075 -0.20565 -0.0024354 -0.21296 0.031111 -0.0078471 10.107 1.0757 0.0020482 0.472 -0.099964 -0.20466 -0.0018467 -0.21106 0.030929 -0.0073245
1 -10.25 1.0219 -0.019832 0.41876 -0.14289 -0.13214 -0.0057323 -0.036153 0.042118 -0.055697 10.131 1.013 -0.018447 0.41895 -0.14197 -0.13281 -0.0054503 -0.037368 0.041926 -0.055396
2 -10.239 0.91141 0.062241 0.49162 -0.041831 -0.0079874 -0.17763 0.020649 -0.090469 0.27767 10.109 0.90215 0.063222 0.48956 -0.042701 -0.0097778 -0.17469 0.019637 -0.089211 0.27413
3 -10.237 0.89361 -0.1562 0.30414 -0.27062 -0.29733 -0.088946 -0.11236 -0.12659 -0.27994 10.096 0.88437 -0.15307 0.30512 -0.26692 -0.29444 -0.086397 -0.11273 -0.12455 -0.27448
4 -10.26 1.1337 0.10977 0.42828 -0.10641 -0.12455 0.027556 -0.12134 -0.036377 0.1745 10.178 1.1273 0.11003 0.43051 -0.10671 -0.12562 0.02778 -0.12134 -0.036186 0.17348
5 -10.25 1.0603 0.10607 0.42956 -0.042601 -0.23414 0.25757 0.078904 0.36017 0.24004 10.119 1.0494 0.1056 0.42874 -0.043173 -0.23273 0.25384 0.076312 0.3552 0.23655
6 -10.263 1.1556 0.088648 0.52142 -0.071103 -0.14572 0.051571 -0.14147 0.069126 0.032426 10.195 1.1508 0.089189 0.523 -0.071609 -0.14661 0.051662 -0.14152 0.069314 0.032449
7 -10.26 1.2591 0.063156 0.53936 0.12965 -0.38626 0.0026835 -0.0085796 0.009538 -0.080811 10.105 1.2413 0.062749 0.53379 0.12612 -0.37977 0.0025124 -0.0094345 0.0096033 -0.078842
8 -10.261 1.215 0.028284 0.53811 -0.047285 -0.1522 0.017275 -0.058689 0.044352 -0.01831 10.094 1.1974 0.028747 0.53341 -0.047232 -0.1511 0.017299 -0.05883 0.043974 -0.017989
9 -10.265 1.2533 0.09691 0.54574 -0.00098174 -0.30687 -0.028187 -0.095397 0.066567 0.083147 10.162 1.2428 0.09655 0.54415 -0.0021458 -0.30441 -0.027589 -0.094895 0.06598 0.082544
10 -10.255 1.1211 -0.03341 0.43367 -0.11819 -0.15081 -0.011974 -0.032131 -0.012756 -0.10177 10.101 1.107 -0.031865 0.43223 -0.11721 -0.15056 -0.01148 -0.03303 -0.012339 -0.099775
11 -10.209 0.6595 -0.49565 0.39085 -0.13348 0.25596 0.076379 0.66815 -0.11315 -0.33677 10.033 0.64944 -0.48352 0.38473 -0.13083 0.24616 0.073057 0.64724 -0.11008 -0.32445
12 -10.264 1.1442 0.072271 0.50367 -0.085804 -0.13196 0.097616 -0.17386 -0.036918 0.06632 10.201 1.1403 0.073119 0.50613 -0.086417 -0.13328 0.097787 -0.17404 -0.036533 0.065906
13 -10.247 1.018 0.16866 0.46183 -0.074391 -0.12793 -0.16927 -0.053034 -0.0090842 0.17606 10.117 1.0075 0.16734 0.46064 -0.074635 -0.12808 -0.16677 -0.053208 -0.0092242 0.17463
14 -10.262 1.1845 0.013185 0.46999 -0.076299 -0.13535 0.0079151 -0.047576 0.030384 -0.090045 10.113 1.1701 0.01401 0.46813 -0.075996 -0.13533 0.0079975 -0.048372 0.03031 -0.088515
15 -10.263 1.2658 0.024469 0.44843 -0.058874 -0.21503 0.005006 -0.052184 0.059564 -0.0097169 10.125 1.2506 0.024882 0.44668 -0.058809 -0.2136 0.0053035 -0.052682 0.058959 -0.009443
16 -10.258 1.1754 -0.066935 0.42167 -0.012424 -0.078224 -0.067394 -0.11298 0.068763 -0.030363 10.136 1.1638 -0.06478 0.42127 -0.013322 -0.07973 -0.065559 -0.11274 0.068193 -0.030349
17 -10.265 1.2155 0.03496 0.50824 -0.024058 -0.13288 0.042715 -0.091563 0.05893 0.0082336 10.134 1.2028 0.035367 0.50681 -0.024702 -0.13306 0.042487 -0.0912 0.058571 0.0081211
18 -10.264 1.1618 0.029423 0.45958 -0.10652 -0.15279 0.022295 -0.11575 -0.034251 -0.010961 10.148 1.1519 0.03009 0.45998 -0.10637 -0.15328 0.022612 -0.11551 -0.033875 -0.011
19 -10.261 1.1554 0.017157 0.51799 -0.074774 -0.15463 -0.035859 -0.031128 0.039202 -0.031523 10.125 1.143 0.018069 0.51587 -0.074609 -0.15457 -0.035364 -0.032272 0.038948 -0.03076
20 -10.248 1.1717 0.054493 0.087247 -0.11748 -0.041784 0.13073 -0.01124 0.27715 0.17336 10.095 1.1558 0.054282 0.093204 -0.11674 -0.043945 0.12926 -0.012276 0.27263 0.1704
21 -10.212 -0.53888 -0.070951 -0.086556 -0.19008 -0.36012 -0.29407 -0.70462 0.13907 0.023452 10.251 -0.53951 -0.070925 -0.084874 -0.19019 -0.36071 -0.29252 -0.70729 0.13939 0.024345
22 -10.246 1.0152 0.074014 0.47496 -0.13309 -0.079984 -0.24244 -0.18273 0.11666 -0.087911 10.087 1.0027 0.072867 0.47211 -0.13124 -0.080885 -0.23669 -0.17963 0.11434 -0.085653
23 -10.245 1.1847 -0.042805 0.15204 -0.07528 -0.003537 -0.21268 -0.16341 -0.0068907 0.023371 10.082 1.1667 -0.040868 0.1557 -0.075172 -0.0066969 -0.20689 -0.16007 -0.0067953 0.022117
24 -10.262 1.1849 -0.011571 0.44665 0.020693 -0.22638 0.042725 5.7175e-05 0.042417 -0.082542 10.131 1.1728 -0.010448 0.44614 0.019263 -0.22565 0.042383 -0.0015592 0.042165 -0.081269
25 -10.259 1.1421 0.024048 0.50173 -0.090106 -0.1232 0.045371 -0.05156 -0.0065394 -0.022924 10.121 1.1296 0.024954 0.49985 -0.089775 -0.12374 0.045141 -0.052535 -0.0061795 -0.022187
26 -10.232 0.78209 0.21094 0.31087 -0.30617 -0.1003 0.45721 -0.22765 -0.58172 0.21833 10.126 0.77584 0.21026 0.31247 -0.30413 -0.10078 0.45301 -0.22732 -0.57593 0.2158
27 -10.26 1.2306 0.040247 0.5394 0.032779 -0.228 0.0007267 -0.027613 0.02535 0.012538 10.086 1.2116 0.04045 0.53352 0.031152 -0.22492 0.0009094 -0.028159 0.024923 0.012525
28 -10.259 1.2917 0.054026 0.094601 -0.062348 -0.072552 0.024672 -0.024968 0.05316 -0.091248 10.129 1.2767 0.053743 0.10112 -0.062374 -0.074237 0.024623 -0.026403 0.05298 -0.089916
29 -10.253 1.2478 0.12916 0.095398 -0.078059 -0.092761 0.08727 -0.035151 -0.029009 0.024219 10.117 1.2321 0.12767 0.10114 -0.077875 -0.093591 0.086083 -0.03626 -0.028547 0.023702
30 -10.26 1.1739 0.048264 0.47333 -0.088117 -0.15354 -0.0033366 -0.052682 -0.052094 0.033666 10.127 1.1613 0.048729 0.4722 -0.087866 -0.15362 -0.0030854 -0.053548 -0.051494 0.033944
31 -10.222 0.69889 0.11029 0.48046 -0.15505 0.1469 -0.005141 -0.080664 0.0055881 -0.30111 10.12 0.69351 0.11057 0.47833 -0.15351 0.14371 -0.0048776 -0.080943 0.007226 -0.29752
32 -10.261 1.148 0.0057534 0.49729 -0.097639 -0.11502 0.011668 -0.041197 0.045768 -0.087338 10.128 1.1361 0.0068128 0.49588 -0.097171 -0.11577 0.011715 -0.042272 0.045759 -0.086031
33 -10.257 1.1127 0.041605 0.53392 -0.054057 -0.092377 0.083038 -0.060996 0.056661 0.066033 10.116 1.1003 0.042221 0.53125 -0.054237 -0.093141 0.081964 -0.06174 0.056173 0.064942
34 -10.262 1.1895 -0.025127 0.42265 -0.056673 -0.14959 0.022171 -0.020954 0.040441 -0.076575 10.16 1.1804 -0.023839 0.42355 -0.057003 -0.15047 0.022241 -0.022602 0.040357 -0.075548
35 -10.27 1.2285 0.06581 0.56574 -0.065686 -0.23574 0.0014265 -0.10067 0.10291 0.057431 10.201 1.2233 0.066082 0.56679 -0.06615 -0.23581 0.0017385 -0.10095 0.10242 0.05718
36 -10.273 1.2968 0.04086 0.51148 -0.036299 -0.26624 -0.029238 -0.092854 0.053102 -0.026816 10.265 1.2979 0.041415 0.51533 -0.037048 -0.26713 -0.028923 -0.093646 0.053164 -0.026695
37 -10.262 1.1576 0.021339 0.50437 -0.095284 -0.14814 0.014796 -0.046973 -0.023823 0.0123 10.118 1.1445 0.022174 0.50244 -0.0949 -0.14832 0.014841 -0.047925 -0.023471 0.012648
38 -10.263 1.1467 0.074997 0.46693 -0.10938 -0.12242 0.064733 -0.1322 -0.0017691 0.088899 10.172 1.1395 0.075454 0.46841 -0.10949 -0.12342 0.064787 -0.13216 -0.0017819 0.08835
39 -10.234 0.86912 -0.039704 0.46264 0.021334 0.10057 0.26148 -0.20283 -0.03878 -0.10595 10.06 0.8566 -0.036273 0.45887 0.019504 0.095794 0.25716 -0.20056 -0.03706 -0.10506
40 -10.264 1.1889 0.067433 0.52985 -0.029661 -0.15639 0.084832 -0.11271 0.00017227 0.10299 10.161 1.1799 0.067736 0.52953 -0.030511 -0.1564 0.084409 -0.11262 0.00010102 0.10231
41 -10.261 1.1587 0.0044895 0.52928 -0.066288 -0.11588 0.066658 -0.056561 0.0025572 -0.0014749 10.118 1.1455 0.0056494 0.52677 -0.066295 -0.11641 0.066093 -0.057398 0.0026558 -0.0011239
42 -10.243 0.95945 0.060312 0.51674 0.19761 -0.071381 0.068118 0.026497 0.087565 -0.16767 10.191 0.95659 0.062191 0.51771 0.19513 -0.072324 0.068469 0.023818 0.088203 -0.1666
43 -10.261 1.1319 -0.016767 0.44436 -0.13209 -0.102 0.050024 -0.062849 -0.036811 -0.090099 10.158 1.1236 -0.015339 0.44525 -0.13168 -0.10356 0.050004 -0.064262 -0.036283 -0.089063
44 -10.252 1.1277 0.017464 0.39231 0.15087 -0.17158 0.055368 -0.12099 0.044117 0.089481 10.121 1.1157 0.018347 0.39216 0.14721 -0.17113 0.055435 -0.11986 0.043732 0.087287
45 -10.258 1.1224 -0.0065881 0.47412 -0.080359 -0.050198 0.0040698 -0.015139 0.0030692 -0.1293 10.18 1.1167 -0.0052335 0.47533 -0.080513 -0.05218 0.0041635 -0.016938 0.0036869 -0.12803
46 -10.241 0.87857 0.20092 0.46928 -0.052665 0.041637 0.0076241 -0.23525 0.085315 -0.17152 10.113 0.86993 0.20064 0.46854 -0.052914 0.040138 0.0086128 -0.23404 0.085338 -0.16995
47 -10.197 5.5338e-05 -0.45043 -0.052976 -0.57957 -0.39937 -0.45426 0.14797 -0.094304 -0.39414 10.146 0.0021305 -0.4466 -0.049611 -0.57561 -0.39729 -0.45011 0.14556 -0.093679 -0.3891
48 -10.203 -0.16105 0.45288 0.11595 -0.10261 0.16622 0.36394 -0.14024 0.025398 0.63671 10.112 -0.15914 0.45055 0.11726 -0.10321 0.16376 0.36078 -0.13871 0.02427 0.6263
49 -10.261 1.1871 0.011303 0.41381 -0.096015 -0.097239 0.010083 -0.026207 0.0085748 -0.10349 10.142 1.1759 0.012145 0.41418 -0.095642 -0.098346 0.010144 -0.027531 0.0089211 -0.10201
50 -10.251 1.0725 -0.059795 0.47231 -0.10806 -0.080514 0.075621 -0.054794 0.15683 0.17527 10.126 1.0621 -0.057542 0.47086 -0.10767 -0.082147 0.075482 -0.055347 0.15424 0.17228
51 -10.207 -0.41805 0.13612 0.13943 -0.063122 0.13716 -0.62675 0.57422 -0.31112 0.70275 10.169 -0.41468 0.13675 0.14039 -0.064363 0.13578 -0.62502 0.57123 -0.31014 0.70079
52 -10.248 1.0136 -0.31912 0.59044 0.2965 0.39655 0.22366 0.11369 -0.054129 -0.058087 10.224 1.0137 -0.3157 0.59254 0.29419 0.3915 0.2223 0.11107 -0.053314 -0.057153
53 -10.239 0.85293 0.14075 0.48706 -0.050854 -0.0023913 -0.13706 0.07718 -0.050113 -0.034672 10.166 0.84923 0.14166 0.4881 -0.051445 -0.0039578 -0.13605 0.074414 -0.048729 -0.034629
54 -10.261 1.1126 0.068584 0.5079 -0.11006 -0.12824 0.063588 -0.1412 -0.012097 0.051524 10.162 1.1051 0.069039 0.50834 -0.10999 -0.12912 0.063548 -0.14089 -0.0118 0.051192
55 -10.226 -0.67597 0.55748 0.064918 -0.0045379 0.033893 0.36979 -0.27257 0.057304 -0.02131 10.128 -0.66959 0.55494 0.065685 -0.0051476 0.035132 0.3671 -0.27198 0.057265 -0.022953
56 -10.265 1.262 0.13558 0.65116 -0.06421 -0.29223 -0.095532 -0.1034 0.069035 0.12793 10.174 1.2518 0.13459 0.64723 -0.064113 -0.28916 -0.094334 -0.10217 0.068383 0.1265
57 -10.215 -0.48761 0.205 0.12065 -0.24274 0.054254 -0.74103 0.5863 -0.23229 0.60524 10.158 -0.48413 0.2058 0.12062 -0.24168 0.053852 -0.73746 0.58187 -0.23115 0.60473
58 -10.268 1.1852 0.078062 0.62335 -0.031546 -0.20735 -0.099673 -0.046054 0.0050771 0.16179 10.365 1.1984 0.079767 0.63261 -0.032748 -0.21003 -0.10041 -0.04687 0.0050983 0.16356
59 -10.195 0.1937 -0.5529 0.096017 0.26707 0.58329 -0.57043 -0.55873 0.087167 0.32946 10.133 0.19365 -0.54543 0.09768 0.26256 0.57412 -0.56088 -0.55148 0.086336 0.32366
60 -10.263 1.1934 -0.0040305 0.52133 -0.065221 -0.16855 0.0094623 -0.014457 0.020093 -0.088608 10.168 1.185 -0.0029418 0.52105 -0.065313 -0.16896 0.0094995 -0.016201 0.020219 -0.087316
61 -10.253 1.0405 -0.094787 0.28864 -0.22093 -0.23243 -0.11902 -0.066809 0.061754 -0.16347 10.207 1.0391 -0.093555 0.29334 -0.22067 -0.2337 -0.1175 -0.067282 0.061762 -0.16269
62 -10.213 -0.62227 -1.0644 -0.30345 -0.20241 -0.29672 -0.60173 -0.32721 0.050497 -0.36522 10.104 -0.61396 -1.0495 -0.29882 -0.19997 -0.29359 -0.59056 -0.32217 0.04918 -0.35798
63 -10.216 -0.60406 0.05063 -0.049736 -0.65817 -0.12109 0.36602 -0.21593 -0.89353 -0.11622 10.121 -0.59803 0.052283 -0.048603 -0.65138 -0.11965 0.3636 -0.21586 -0.88449 -0.11413
64 -10.208 -0.87624 0.094899 -0.092183 -0.53283 -0.075696 -0.18339 0.46543 -0.045895 -0.29797 9.9873 -0.85561 0.094826 -0.089378 -0.51783 -0.072644 -0.17696 0.44893 -0.043681 -0.28597
65 -10.26 1.3903 0.07466 0.0034482 -0.049168 -0.12621 0.0038536 0.046137 0.031539 -0.10635 10.173 1.3783 0.0739 0.010802 -0.049267 -0.12698 0.0038696 0.043833 0.031407 -0.10425
66 -10.257 1.3802 0.25593 -0.20333 -0.051143 -0.11642 -0.0038044 -0.071284 -0.14437 0.18847 10.225 1.3751 0.25466 -0.19413 -0.052056 -0.11754 -0.003422 -0.071456 -0.14433 0.18828
67 -10.23 0.807 0.35879 0.34909 -0.069679 -0.20648 -0.495 0.0027042 -0.1451 0.40969 10.185 0.80496 0.35742 0.3518 -0.070869 -0.20593 -0.49248 0.0034493 -0.14528 0.4088
68 -10.22 -0.21931 0.23919 -0.17642 -0.38005 -0.27263 0.79669 0.4033 1.1694 0.60902 10.222 -0.21862 0.23997 -0.17284 -0.38081 -0.27123 0.79622 0.40144 1.1691 0.6078
69 -10.245 0.97821 0.14453 0.22605 1.0573 -0.86527 0.19538 0.18407 -0.0041866 -0.15539 10.248 0.98034 0.14447 0.23075 1.0524 -0.8629 0.19515 0.18223 -0.0030267 -0.15526
70 -10.276 1.3268 0.12398 0.60274 -0.0042501 -0.3543 -0.020631 -0.093813 0.048779 0.045757 10.315 1.3326 0.12466 0.60701 -0.0049763 -0.35511 -0.02043 -0.094302 0.04886 0.045665
71 -10.279 1.3105 0.16653 0.17383 0.73076 -0.75358 0.12267 0.14159 -0.044849 -0.14237 10.334 1.3181 0.16709 0.1796 0.73079 -0.7555 0.12286 0.14126 -0.044548 -0.14257
72 -10.278 1.3455 0.082363 0.52435 0.014943 -0.35859 -0.038969 -0.096117 0.043587 0.040361 10.375 1.3592 0.083564 0.53237 0.014173 -0.36202 -0.038829 -0.097212 0.044157 0.040549
73 -10.265 1.1901 0.11562 0.65212 -0.030496 -0.23727 -0.011989 -0.092098 0.038887 -0.084811 10.32 1.1977 0.11676 0.65768 -0.03118 -0.23844 -0.01196 -0.092904 0.03972 -0.085394
74 -10.275 1.3025 0.14933 0.24998 0.63632 -0.69162 0.10569 0.091915 -0.028126 -0.088651 10.301 1.3067 0.14959 0.25527 0.63438 -0.69172 0.10562 0.091211 -0.027719 -0.088381
75 -10.275 1.2712 0.064617 0.55601 0.13407 -0.40489 0.0028146 -0.009129 0.010233 -0.087073 10.518 1.3028 0.066739 0.57221 0.13578 -0.41436 0.0027558 -0.010327 0.010698 -0.0886
76 -10.282 1.3722 0.1526 0.1949 0.5136 -0.62517 0.083602 0.087676 -0.032065 -0.11937 10.379 1.3856 0.15386 0.20166 0.51553 -0.62985 0.084066 0.087602 -0.032002 -0.11994
77 -10.264 1.4335 0.15936 -0.078127 0.30645 -0.37163 0.061352 0.039901 -0.015235 -0.071173 10.178 1.4213 0.15763 -0.069915 0.30151 -0.36862 0.06085 0.038658 -0.014756 -0.070148
78 -10.274 1.3877 0.10298 0.35009 -0.056078 -0.24329 -0.10351 -0.15109 0.011214 0.11555 10.314 1.3927 0.10358 0.35485 -0.056918 -0.24429 -0.10273 -0.15098 0.011104 0.11505
79 -10.208 0.15252 -0.21993 0.30376 -0.3511 0.40833 0.41847 0.70434 0.023415 -0.32799 10.377 0.15558 -0.21997 0.30902 -0.35588 0.41218 0.42413 0.70829 0.02523 -0.3292
80 -10.229 -0.94759 0.5373 -0.033447 0.63155 -0.19291 0.0020758 0.24282 -0.027015 -0.54295 10.079 -0.93299 0.5316 -0.032398 0.61849 -0.18674 0.0035917 0.2338 -0.025287 -0.53
81 -10.242 0.20311 -1.1489 0.35186 0.66292 1.3471 0.3408 0.27566 -0.1257 -0.07954 10.282 0.20461 -1.1479 0.35233 0.66247 1.3436 0.34071 0.27332 -0.12516 -0.078557
82 -10.249 0.19606 -1.2118 0.33799 0.71395 1.3378 0.36069 0.26937 -0.12417 -0.074792 10.275 0.19729 -1.2092 0.33801 0.71252 1.3325 0.36038 0.26681 -0.12343 -0.073891
83 -10.225 0.66561 -0.50649 0.40239 -0.13789 0.26756 0.080033 0.70443 -0.1208 -0.36149 10.467 0.6829 -0.51518 0.41292 -0.14095 0.26893 0.080065 0.71312 -0.12284 -0.36464
84 -10.225 0.66561 -0.50649 0.40239 -0.13789 0.26756 0.080033 0.70443 -0.1208 -0.36149 10.467 0.6829 -0.51518 0.41292 -0.14095 0.26893 0.080065 0.71312 -0.12284 -0.36464
85 -10.211 -0.30418 0.17899 0.13865 -0.27757 0.0017143 -0.85983 0.56621 -0.28326 0.57815 10.166 -0.30179 0.17969 0.13913 -0.27657 0.0012985 -0.85663 0.56258 -0.28235 0.57921
86 -10.202 0.28357 -0.80561 0.25734 0.093293 0.58772 -0.62905 0.028826 -0.08511 -0.0012047 10.205 0.28519 -0.80159 0.25854 0.092194 0.58344 -0.62673 0.028838 -0.084488 0.00040955
87 -10.215 -0.36885 -0.73361 -0.12602 -0.68818 -0.35836 0.38766 0.67085 0.56594 -0.11696 10.229 -0.36804 -0.73245 -0.12572 -0.68681 -0.35889 0.38757 0.66603 0.566 -0.11411
88 -10.225 -0.57575 -1.2128 -0.32611 -0.4451 -0.54024 0.2113 0.11377 0.31876 -0.02624 10.144 -0.56993 -1.201 -0.32316 -0.44064 -0.5358 0.20936 0.11005 0.3152 -0.023984
89 -10.248 0.68954 -0.55549 0.45752 -0.15949 0.33016 0.10016 0.91241 -0.16899 -0.52563 10.417 0.70158 -0.5599 0.46405 -0.1612 0.32934 0.099594 0.91417 -0.16964 -0.52512
90 -10.211 -0.67521 -0.1904 -0.07941 -0.43208 -0.16249 -0.73896 0.44474 -0.19984 0.10358 10.125 -0.66858 -0.18667 -0.078244 -0.42799 -0.16088 -0.73142 0.43991 -0.19869 0.10605
91 -10.211 0.16035 -0.34465 0.27736 -0.41319 0.40093 -0.0041344 0.96825 -0.093481 -0.52367 10.38 0.1645 -0.34658 0.28231 -0.41736 0.40352 -0.0039279 0.9733 -0.093325 -0.525
92 -10.211 -0.25076 -0.77926 -0.081704 -0.57902 -0.34548 0.19153 0.59365 0.39517 -0.31817 10.266 -0.25069 -0.78125 -0.081493 -0.58001 -0.34782 0.19242 0.59061 0.39751 -0.31582
93 -10.213 0.026964 -0.88187 -0.01539 -0.53067 -0.39786 0.27742 0.48052 0.4439 -0.23493 10.268 0.028966 -0.88456 -0.013984 -0.53209 -0.40103 0.2785 0.47788 0.44612 -0.23319
94 -10.225 0.10256 -0.88392 0.36384 0.50169 1.3854 0.26078 0.16399 -0.10933 -0.040512 10.3 0.10365 -0.88525 0.3653 0.50262 1.3868 0.26069 0.16182 -0.10912 -0.039565
95 -10.218 -0.54463 0.68606 0.097433 0.23601 0.095757 -0.25342 -0.40543 0.27374 0.030613 10.18 -0.54185 0.68463 0.098671 0.23293 0.096517 -0.24856 -0.4026 0.2716 0.029264
96 -10.277 1.2353 -0.00064503 0.52634 -0.053881 -0.1808 -0.041995 -0.088402 0.059164 -0.0493 10.374 1.2499 0.00034533 0.53624 -0.05528 -0.18447 -0.04208 -0.090425 0.060056 -0.049941
97 -10.267 1.1432 0.058565 0.46795 -0.073725 -0.069679 0.023059 -0.14899 0.050161 -0.12233 10.269 1.1468 0.059781 0.47399 -0.074678 -0.071902 0.023589 -0.15044 0.050823 -0.12302
98 -10.305 1.7748 0.34658 -1.3841 0.018776 0.16543 -0.010341 0.022511 -0.013409 -0.0090585 10.259 1.7615 0.34266 -1.3607 0.017793 0.16137 -0.0097806 0.021708 -0.012995 -0.008706
99 -10.233 -0.95164 0.53063 -0.020172 -0.039935 0.10884 -0.24974 -0.52242 0.21472 -0.18542 10.07 -0.93644 0.5247 -0.019303 -0.039305 0.10826 -0.24192 -0.51249 0.21034 -0.18285
100 -10.26 -0.77639 -1.4388 -0.43036 -0.0027121 -0.51233 -0.01317 -0.61414 0.19449 0.043971 10.245 -0.7738 -1.435 -0.42946 -0.0034494 -0.51194 -0.011606 -0.6125 0.19376 0.044588
101 -10.223 -0.76517 0.37835 0.032838 -0.15689 0.16629 -0.81838 -0.28199 0.023702 0.48328 10.141 -0.7585 0.37648 0.03265 -0.15616 0.16347 -0.80844 -0.27468 0.021235 0.47891
102 -10.234 -0.74698 0.42226 0.0054528 -0.15265 -0.04127 -0.49889 -0.78044 0.10942 0.17381 10.29 -0.75021 0.42511 0.0063433 -0.15356 -0.041432 -0.49789 -0.78098 0.10829 0.17387
103 -10.238 -0.94889 0.59235 -0.018042 -0.15487 0.045931 0.33935 -0.41234 -0.30114 -0.08488 10.09 -0.93556 0.58645 -0.017334 -0.15279 0.046747 0.33608 -0.40731 -0.29592 -0.084428
104 -10.221 -0.3245 0.61459 0.16727 -0.084278 0.020314 -0.69438 -0.80897 0.31177 0.11924 10.295 -0.32507 0.61834 0.17056 -0.085479 0.019703 -0.69497 -0.80896 0.31117 0.11911
105 -10.234 0.84066 -0.52957 0.25889 0.064841 0.32831 -0.51419 -0.084993 -0.024029 0.014773 10.361 0.85245 -0.53342 0.26559 0.064643 0.32914 -0.51818 -0.085433 -0.024256 0.015552
106 -10.242 0.86212 -0.3557 0.077818 0.14147 0.36351 -0.56713 -0.53495 0.060224 0.26585 10.411 0.87686 -0.35848 0.083655 0.14132 0.36389 -0.57061 -0.53968 0.060772 0.26649
107 -10.258 1.0787 -0.17141 0.52142 0.040996 0.008932 -0.158 -0.061972 0.07565 0.0017611 10.332 1.0887 -0.17055 0.5288 0.040397 0.0068305 -0.15743 -0.063049 0.076301 0.0018034
108 -10.23 -0.4819 0.16297 -0.073342 -0.62314 -0.22652 0.80997 -0.3655 -1.1106 0.3242 10.233 -0.48151 0.16461 -0.071488 -0.62369 -0.22586 0.81133 -0.36715 -1.1117 0.32381
109 -10.225 -0.52028 0.031084 -0.045217 -0.61747 0.060198 0.90248 -0.21207 -0.96318 0.31635 10.193 -0.5183 0.032824 -0.043902 -0.61584 0.05953 0.90013 -0.21299 -0.96122 0.31483
110 -10.23 -0.56556 0.20125 -0.051048 -0.66 -0.11334 0.73275 -0.35868 -1.0848 0.14372 10.191 -0.56314 0.20225 -0.049505 -0.65766 -0.11223 0.73119 -0.35857 -1.081 0.1434
111 -10.237 -0.83482 0.67355 0.014218 -0.039843 0.11939 0.38315 -0.26045 -0.093641 -0.095333 10.101 -0.82434 0.6679 0.015057 -0.039983 0.11948 0.37995 -0.259 -0.09192 -0.095352
112 -10.276 1.2424 0.041186 0.55601 0.03387 -0.23901 0.00077363 -0.029252 0.027151 0.01353 10.518 1.2739 0.043093 0.573 0.033628 -0.24582 0.00098652 -0.030997 0.027858 0.014076
113 -10.209 -0.4259 -0.012342 0.147 -0.42111 0.36176 0.46065 0.44938 0.071178 -0.12939 10.235 -0.42675 -0.0093925 0.14723 -0.42093 0.36184 0.46114 0.44522 0.072375 -0.12744
114 -10.213 -0.44212 0.23677 0.29014 0.096227 0.97598 0.0052755 -0.026128 -0.11384 0.18573 10.206 -0.44176 0.23987 0.28962 0.094258 0.97108 0.0043508 -0.025988 -0.11358 0.18458
115 -10.216 0.036788 0.42609 0.30001 -0.40046 0.021011 0.28267 -0.18053 -0.503 -0.2717 10.384 0.037934 0.43492 0.30702 -0.40718 0.022033 0.28823 -0.18498 -0.51031 -0.27663
116 -10.237 -0.82809 0.7038 0.12116 0.098493 0.39813 0.076076 -0.32331 0.22093 -0.23565 10.121 -0.81888 0.6983 0.12003 0.096638 0.3932 0.07787 -0.31933 0.21812 -0.23421
117 -10.237 -0.74991 0.71175 0.10664 0.070547 0.16593 0.14415 -0.20466 0.1667 -0.29521 10.125 -0.74221 0.70759 0.10666 0.069352 0.16622 0.14449 -0.20458 0.16607 -0.29363
118 -10.215 -0.30721 0.0093618 0.024514 -0.62793 -0.22782 0.50006 -0.2095 -0.9664 -0.076746 10.288 -0.30774 0.010868 0.027097 -0.6321 -0.22904 0.50565 -0.21397 -0.9737 -0.075695
119 -10.228 -0.54312 0.58565 0.08473 0.11049 -0.027473 0.32406 -0.47128 0.17611 -0.10778 10.253 -0.54427 0.59005 0.087129 0.10934 -0.025821 0.32674 -0.47461 0.17725 -0.1102
120 -10.243 0.21073 -1.1341 0.34775 0.7384 1.4464 0.23693 -0.013024 -0.099405 0.069828 10.236 0.21148 -1.1272 0.34704 0.73369 1.435 0.23676 -0.013691 -0.098342 0.068835
121 -10.24 -0.77149 0.71276 0.079761 0.19909 0.13455 0.20256 -0.27173 0.08804 -0.25653 10.172 -0.76678 0.71177 0.080693 0.19689 0.13559 0.20344 -0.2722 0.088441 -0.25644
122 -10.236 -0.72167 0.69609 0.067683 0.13414 0.085508 0.26589 -0.34733 0.15805 -0.12091 10.163 -0.71674 0.69416 0.068673 0.1321 0.086481 0.26564 -0.34671 0.15748 -0.12184
123 -10.227 -0.74494 0.58914 0.071789 -0.029425 0.23414 -0.0015705 -0.12462 0.31436 -0.023236 10.132 -0.73809 0.58658 0.071855 -0.029692 0.23299 0.0016451 -0.12504 0.31202 -0.025451
124 -10.239 -0.81639 0.71057 0.068995 0.056315 0.23746 0.14259 -0.26633 0.1806 -0.23211 10.114 -0.80688 0.70549 0.069319 0.055201 0.23626 0.14285 -0.26509 0.17927 -0.23107
125 -10.234 -0.70976 0.66989 0.09874 -0.073019 0.27784 0.058619 -0.29371 0.26708 -0.20463 10.177 -0.70587 0.66956 0.099672 -0.072825 0.27778 0.06076 -0.29388 0.26653 -0.205
126 -10.24 -0.80438 0.70979 0.069542 -0.010855 0.18835 0.1201 -0.2541 0.18368 -0.25791 10.145 -0.79734 0.70683 0.070177 -0.011144 0.18851 0.12121 -0.2541 0.18301 -0.25689
127 -10.22 -0.74816 -0.29995 -0.18045 -0.60196 -0.18169 -0.72156 0.25238 -0.080882 -0.41971 10.223 -0.74692 -0.29751 -0.17921 -0.60019 -0.18079 -0.71859 0.25112 -0.080893 -0.41527
128 -10.222 -0.75428 0.041983 -0.062565 -0.32256 -0.086582 -0.97654 0.39995 -0.16636 0.50944 10.154 -0.74837 0.043551 -0.061453 -0.32027 -0.08557 -0.9683 0.39697 -0.16537 0.50681
129 -10.217 -0.51987 -0.74795 -0.20653 -0.71311 -0.43591 0.062239 0.52941 0.50279 -0.10353 10.21 -0.51811 -0.74543 -0.20559 -0.71073 -0.43512 0.062239 0.52606 0.50098 -0.10117
130 -10.223 -0.89223 0.14092 -0.11462 -0.45573 -0.071145 -0.3155 0.1369 -0.13121 -0.44523 10.151 -0.88503 0.14218 -0.11302 -0.4507 -0.069234 -0.31032 0.13338 -0.12968 -0.43827
131 -10.221 -0.70506 -0.59757 -0.21329 -0.45017 -0.081475 -0.89765 -0.22174 0.11085 -0.65558 10.197 -0.70186 -0.59166 -0.21124 -0.44711 -0.080644 -0.88928 -0.21995 0.10991 -0.64876
132 -10.228 -0.87744 0.46726 0.0011663 -0.26765 0.2732 0.2532 0.25493 0.39437 0.27867 10.067 -0.86412 0.46288 0.001343 -0.26299 0.26946 0.24895 0.24884 0.38699 0.27293
133 -10.23 -0.86563 0.28581 -0.17998 0.31918 -0.29321 0.53313 -0.39343 0.4776 0.28348 10.198 -0.8629 0.28649 -0.17803 0.31508 -0.28949 0.53138 -0.39421 0.47567 0.27951
134 -10.233 -0.73118 0.19969 -0.085678 -0.63642 -0.10767 0.69456 -0.28631 -1.0054 0.29138 10.195 -0.72815 0.20054 -0.084689 -0.6338 -0.10673 0.69285 -0.28656 -1.002 0.2898
135 -10.24 -0.94846 0.64679 0.017655 -0.020416 0.2642 0.24697 -0.25984 0.15898 -0.0023331 10.083 -0.93429 0.6396 0.017813 -0.020312 0.26073 0.24385 -0.25639 0.15688 -0.0041931
136 -10.242 -0.92439 0.6636 0.017473 -0.017865 0.22865 0.23871 -0.18971 0.20902 -0.11111 10.12 -0.91416 0.65934 0.017831 -0.018048 0.22747 0.23778 -0.18926 0.20705 -0.1115
137 -10.215 -0.57465 0.052731 0.058967 0.051351 0.10541 -0.82173 0.53884 -0.33046 0.84655 10.199 -0.57266 0.054406 0.059392 0.049493 0.1049 -0.8205 0.53775 -0.33 0.84556
138 -10.218 -0.16281 0.465 0.12019 -0.1068 0.17555 0.38575 -0.14965 0.027442 0.69453 10.459 -0.16618 0.47786 0.12542 -0.11089 0.17888 0.39528 -0.15307 0.027269 0.70746
139 -10.209 -0.11532 0.16901 0.10241 -0.42575 -0.077635 0.57575 0.24976 0.65071 0.60605 10.306 -0.11541 0.17208 0.10579 -0.43006 -0.078122 0.58122 0.25161 0.65663 0.60965
140 -10.244 -0.93133 0.69638 0.031019 0.034862 0.19252 0.06853 -0.10191 0.10923 -0.073526 10.125 -0.92131 0.69191 0.031291 0.034145 0.19185 0.069106 -0.10243 0.10861 -0.073891
141 -10.232 -0.74185 0.33746 -0.11291 -0.49225 0.043679 0.61187 0.38754 0.9175 0.46241 10.201 -0.73945 0.33842 -0.11147 -0.48996 0.044496 0.60999 0.38446 0.91368 0.45931
142 -10.224 -0.82269 0.17178 -0.059951 0.096193 -0.27085 -0.59229 0.51174 -0.45816 0.91281 10.208 -0.81998 0.17195 -0.059242 0.094205 -0.2695 -0.59215 0.51128 -0.45774 0.91185
143 -10.217 -0.67989 -0.32623 0.016364 -0.43893 0.55887 -0.056967 0.53933 0.0038438 0.096049 10.256 -0.6822 -0.32323 0.015812 -0.43951 0.55874 -0.055518 0.53831 0.0035389 0.099885
144 -10.227 -0.80004 0.30498 0.012588 -0.243 0.023331 -0.6926 0.45483 -0.28338 0.55602 10.159 -0.79434 0.30486 0.01285 -0.24182 0.02371 -0.68751 0.45122 -0.28185 0.55382
145 -10.219 -0.79356 -0.15293 -0.08422 1.0614 -0.011515 -0.60762 0.14972 -0.15561 0.71457 10.245 -0.79423 -0.15191 -0.083889 1.0585 -0.011568 -0.60667 0.15043 -0.1558 0.71291
146 -10.228 -0.7426 0.24976 0.027706 -0.24581 0.034519 -0.87974 0.52372 -0.28926 0.6882 10.177 -0.73823 0.25031 0.028042 -0.2448 0.034644 -0.87493 0.52079 -0.28796 0.68599
147 -10.226 -0.75651 0.25392 0.021764 -0.38569 0.084943 -0.69026 0.47866 -0.16877 0.46853 10.188 -0.75324 0.25494 0.022079 -0.38413 0.084987 -0.68775 0.4769 -0.16876 0.4693
148 -10.223 -0.67331 0.19342 0.088355 -0.33575 0.24326 -0.59837 0.49956 -0.41374 0.46183 10.226 -0.67287 0.19533 0.088543 -0.33619 0.24234 -0.59966 0.4995 -0.41422 0.46509
149 -10.24 0.053355 -0.9344 0.3437 1.0247 1.2567 0.4197 0.13723 -0.090823 -0.10457 10.253 0.054078 -0.93011 0.34391 1.0221 1.2514 0.41977 0.13523 -0.08966 -0.10542
150 -10.243 -0.95042 0.7214 0.043506 0.032043 0.26746 0.02665 -0.33346 0.20609 -0.2657 10.11 -0.93845 0.71487 0.043324 0.031398 0.26505 0.029382 -0.32926 0.20318 -0.26332
151 -10.247 -0.96051 0.68013 0.018733 0.089948 0.18123 0.1469 -0.18266 0.16785 -0.1484 10.125 -0.94993 0.67586 0.01911 0.088278 0.18095 0.14691 -0.18264 0.16673 -0.14791
152 -10.248 -0.9633 0.68933 0.01603 0.10864 0.14614 0.22422 -0.24237 0.10201 -0.24145 10.139 -0.95381 0.68566 0.016438 0.10694 0.1465 0.22379 -0.24215 0.10192 -0.24015
153 -10.248 -0.93762 0.72385 0.036542 0.083326 0.18691 0.17673 -0.23962 0.17859 -0.24273 10.123 -0.92697 0.71883 0.036778 0.08196 0.18642 0.17659 -0.23885 0.17734 -0.24107
154 -10.248 -0.94778 0.70213 0.037955 0.054277 0.22583 0.178 -0.21668 0.12256 -0.23666 10.129 -0.93767 0.69792 0.038054 0.053318 0.22501 0.17802 -0.21634 0.12224 -0.23529
155 -10.232 -0.96983 -0.23185 -0.24057 -0.072639 -0.3411 0.20506 -0.29429 -0.18973 0.64004 10.306 -0.97681 -0.23216 -0.24197 -0.073771 -0.34252 0.20608 -0.29683 -0.191 0.64368
156 -10.251 -0.94158 0.71222 0.034514 -0.026711 0.20627 0.15276 -0.21157 0.16424 -0.26079 10.189 -0.93672 0.71197 0.035055 -0.026372 0.20693 0.15382 -0.21287 0.16435 -0.26057
157 -10.241 -0.95502 0.6276 0.017056 -0.028359 0.15271 -0.084824 -0.036529 0.053968 0.0184 10.093 -0.94205 0.62195 0.017198 -0.028503 0.15203 -0.082813 -0.037224 0.053649 0.017779
158 -10.245 -0.95395 0.72294 0.04013 0.035894 0.23359 0.073672 -0.35209 0.14787 -0.1823 10.115 -0.94237 0.71672 0.039966 0.035014 0.23166 0.075763 -0.34772 0.14553 -0.18141
159 -10.224 -0.87318 0.14606 -0.034302 -0.55937 0.27981 0.26154 0.2984 -0.020499 0.032286 10.142 -0.86642 0.14803 -0.034219 -0.55411 0.27744 0.25988 0.29366 -0.020766 0.03289
160 -10.249 -0.95358 0.71267 0.026378 0.10261 0.16072 0.14629 -0.22446 0.12687 -0.26203 10.146 -0.94483 0.70938 0.026781 0.10124 0.16099 0.14694 -0.22454 0.12657 -0.26058
161 -10.229 -0.86361 0.042151 -0.13949 -0.66216 -0.19946 0.56604 -0.085082 -0.6347 0.15671 10.184 -0.85989 0.043909 -0.13866 -0.65859 -0.19755 0.5641 -0.086347 -0.63218 0.15674
162 -10.247 -0.95529 0.70117 0.0298 0.03873 0.18183 0.15126 -0.2272 0.10518 -0.2005 10.131 -0.94527 0.69684 0.029955 0.037969 0.18142 0.15137 -0.22638 0.10479 -0.19917
163 -10.292 1.3288 0.14239 0.70036 -0.044653 -0.37422 -0.079353 -0.12053 0.07697 0.12447 10.42 1.3456 0.14422 0.70988 -0.045663 -0.37766 -0.079899 -0.12159 0.077657 0.12543
164 -10.293 1.3137 0.1447 0.71196 -0.058799 -0.35971 -0.096456 -0.1231 0.08221 0.14417 10.463 1.3359 0.14717 0.72464 -0.060188 -0.36454 -0.097616 -0.12464 0.083335 0.146
165 -10.221 -0.55622 0.26437 0.032323 -0.24004 -0.10091 -0.8708 0.44949 -0.26023 0.66773 10.189 -0.55387 0.26493 0.033163 -0.23971 -0.099881 -0.86838 0.44847 -0.25998 0.66794
166 -10.228 -0.7115 0.22247 0.017385 -0.24771 -0.025337 -0.75024 0.63098 -0.23703 0.74073 10.231 -0.711 0.22431 0.017936 -0.24807 -0.024673 -0.75117 0.63048 -0.23727 0.74332
167 -10.231 -0.56919 -1.4659 -0.28442 0.63359 0.11981 -0.20991 -0.40836 -0.0083853 0.30176 10.245 -0.56857 -1.4649 -0.28457 0.63053 0.11668 -0.20739 -0.40716 -0.0082167 0.30066
168 -10.208 -0.3277 -0.86488 -0.064777 -0.24791 0.36238 -0.75145 -0.10803 0.083013 -0.28385 10.263 -0.32811 -0.86483 -0.064157 -0.24865 0.3615 -0.75006 -0.10773 0.083167 -0.28273
169 -10.226 -0.80425 0.4354 0.034773 -0.14322 0.39381 0.11199 -0.30645 -0.17828 -0.083462 10.144 -0.7981 0.43527 0.034709 -0.14305 0.38998 0.11402 -0.3042 -0.17686 -0.083782
170 -10.211 0.1956 -0.56574 0.099094 0.27637 0.61177 -0.59996 -0.59129 0.093488 0.35545 10.452 0.20139 -0.57512 0.10372 0.28013 0.62104 -0.60854 -0.60191 0.095485 0.36056
171 -10.225 0.49749 -0.49999 0.052333 0.24445 0.55233 -0.65286 -0.63835 0.088359 0.35503 10.394 0.50617 -0.50444 0.056411 0.24563 0.55561 -0.65699 -0.64411 0.089361 0.35669
172 -10.211 -0.52202 -0.051601 -0.016831 0.52138 0.30723 -0.79323 0.077393 -0.028789 0.65364 10.308 -0.5258 -0.049218 -0.015692 0.52279 0.30822 -0.79499 0.078095 -0.027646 0.65487
173 -10.234 -0.78085 0.52634 0.087122 0.04146 0.57532 0.017711 -0.4257 0.18918 -0.058153 10.177 -0.77743 0.52784 0.086916 0.040207 0.57134 0.020837 -0.42292 0.18859 -0.060641
174 -10.237 -0.69237 -0.92076 -0.29085 -0.3562 -0.20809 -0.85451 -0.33395 0.11031 -0.63394 10.364 -0.69925 -0.92807 -0.29299 -0.35929 -0.21035 -0.8595 -0.33669 0.11096 -0.6374
175 -10.257 -0.7658 -1.6463 -0.39754 0.29131 -0.19964 0.23451 -0.31535 0.084504 0.068119 10.195 -0.7599 -1.6332 -0.39538 0.28731 -0.19999 0.23339 -0.31306 0.083864 0.068236
176 -10.263 -0.83125 -1.4593 -0.45596 0.016037 -0.50988 0.09519 -0.48348 0.095756 0.16967 10.248 -0.82881 -1.455 -0.45516 0.015171 -0.50939 0.095866 -0.48245 0.095629 0.16957
177 -10.231 -0.68304 -0.90215 -0.28375 -0.3324 -0.21241 -0.79611 -0.32901 0.10104 -0.56362 10.4 -0.69275 -0.91334 -0.2871 -0.33689 -0.21575 -0.80442 -0.33326 0.1021 -0.5694
178 -10.257 -0.72418 -1.5799 -0.42016 0.088287 -0.36187 -0.023636 -0.36041 0.10852 0.027664 10.283 -0.72467 -1.5815 -0.42115 0.087086 -0.36398 -0.022012 -0.36108 0.10851 0.028451
179 -10.261 -0.74136 -1.5553 -0.43873 -0.044042 -0.47779 0.019636 -0.34724 0.1312 -0.060877 10.3 -0.74292 -1.559 -0.4403 -0.044924 -0.48028 0.021082 -0.34871 0.13133 -0.059714
180 -10.231 -0.68304 -0.90215 -0.28375 -0.3324 -0.21241 -0.79611 -0.32901 0.10104 -0.56362 10.4 -0.69275 -0.91334 -0.2871 -0.33689 -0.21575 -0.80442 -0.33326 0.1021 -0.5694
181 -10.237 -0.69695 -0.90597 -0.28306 -0.37654 -0.17404 -0.86868 -0.2984 0.11036 -0.65711 10.335 -0.70181 -0.91029 -0.28429 -0.37851 -0.17544 -0.87099 -0.30001 0.11073 -0.65852
182 -10.224 -0.68987 -0.77491 -0.22489 -0.41056 -0.026113 -0.80074 -0.13399 0.089163 -0.60377 10.298 -0.69318 -0.77626 -0.22535 -0.41152 -0.026551 -0.80073 -0.13496 0.089561 -0.60332
183 -10.256 -0.83314 -1.456 -0.45983 0.10524 -0.54687 0.19906 -0.45562 -0.18787 0.034939 10.193 -0.82668 -1.4449 -0.45688 0.10321 -0.54343 0.19887 -0.45284 -0.18653 0.035912
184 -10.264 -0.74866 -1.585 -0.44834 -0.020845 -0.48377 0.028743 -0.37353 0.13631 -0.036176 10.278 -0.74835 -1.5848 -0.4488 -0.021672 -0.48504 0.030094 -0.37407 0.13614 -0.034998
185 -10.263 -0.84112 -1.448 -0.45728 0.2537 -0.43233 0.13635 -0.60322 0.21778 0.13811 10.24 -0.83807 -1.4423 -0.4561 0.2508 -0.43158 0.13718 -0.6015 0.21717 0.13742
186 -10.231 -0.85954 0.3865 0.025037 -0.21657 0.39042 -0.066636 -0.26812 0.092883 -0.27044 10.179 -0.85525 0.38851 0.025456 -0.21533 0.38895 -0.062926 -0.26697 0.092302 -0.26848
187 -10.242 -0.75261 0.15403 -0.094645 -0.6632 -0.13191 0.76027 -0.37251 -1.1263 0.14339 10.245 -0.75286 0.15592 -0.094153 -0.66342 -0.13132 0.76159 -0.37397 -1.1274 0.14352
188 -10.244 -0.64775 0.0617 -0.099803 -0.70275 -0.16339 0.81766 -0.38391 -1.2436 0.21496 10.27 -0.64908 0.063505 -0.099145 -0.70465 -0.16338 0.82078 -0.38641 -1.2478 0.2156
189 -10.237 -0.67022 -0.27638 -0.19261 -0.61166 -0.32985 0.81716 -0.55202 -1.188 0.19801 10.24 -0.66989 -0.27508 -0.19168 -0.61192 -0.32912 0.81809 -0.55353 -1.1886 0.19831
190 -10.236 -0.89647 0.27906 -0.077118 -0.61233 -0.095781 0.33015 -0.042655 -0.6685 -0.18707 10.291 -0.90093 0.28248 -0.077262 -0.6142 -0.095274 0.33342 -0.045712 -0.67147 -0.18599
191 -10.234 -0.87889 0.48825 0.00030808 -0.48426 0.060307 0.35523 -0.137 -0.59226 -0.092687 10.157 -0.87264 0.48686 0.00033432 -0.47977 0.061081 0.35332 -0.1371 -0.5864 -0.091368
192 -10.229 -0.84717 0.064235 -0.15991 -0.50861 -0.26802 0.5801 0.045747 -0.48328 0.75796 10.268 -0.85003 0.065579 -0.16007 -0.51099 -0.26838 0.58167 0.045494 -0.48678 0.75957
193 -10.239 -0.74015 0.12106 -0.10703 -0.69072 -0.16538 0.70526 -0.28048 -1.1116 0.13344 10.232 -0.73929 0.1227 -0.10619 -0.68993 -0.16459 0.70622 -0.28244 -1.1116 0.13413
194 -10.238 -0.98211 0.45704 0.031146 0.9736 0.26089 0.24274 0.10553 -0.042433 -0.14027 10.116 -0.97058 0.45535 0.03087 0.95751 0.25899 0.24065 0.10208 -0.04081 -0.14058
195 -10.23 -0.9077 0.12006 -0.11156 -0.54818 -0.08621 -0.28385 0.37285 -0.10086 -0.45229 10.399 -0.92147 0.12414 -0.1127 -0.55482 -0.086332 -0.28621 0.37477 -0.10174 -0.45583
196 -10.234 -0.88175 -0.03123 -0.1517 -0.61906 -0.13941 -0.51347 0.36204 -0.1048 -0.56135 10.331 -0.88865 -0.029279 -0.15218 -0.62226 -0.13941 -0.51532 0.36209 -0.10516 -0.56199
197 -10.224 -0.6895 -0.36638 -0.20558 -0.73321 -0.1457 0.79949 0.62555 0.82218 0.50983 10.173 -0.68525 -0.36295 -0.20404 -0.72795 -0.1446 0.79377 0.6195 0.81601 0.50633
198 -10.226 -0.71774 -0.60242 -0.2417 -0.78201 -0.40226 0.47603 0.48171 0.37011 0.055237 10.265 -0.71959 -0.60307 -0.24246 -0.7831 -0.4032 0.47786 0.47984 0.37036 0.057387
199 -10.23 -0.80037 0.025766 -0.067885 -0.18753 0.079879 -0.98839 0.54678 -0.21201 0.55373 10.305 -0.8047 0.028113 -0.067815 -0.18914 0.079679 -0.99079 0.54823 -0.21238 0.55644
200 -10.247 -0.96812 0.67003 0.01408 -0.0521 0.18912 0.09428 -0.16753 0.15225 -0.1609 10.156 -0.96038 0.66781 0.014416 -0.0519 0.1892 0.095399 -0.16802 0.15169 -0.16027
201 -10.248 -0.97876 0.68439 0.01099 -0.068856 0.17219 0.13644 -0.18061 0.095533 -0.29728 10.146 -0.96978 0.68126 0.011352 -0.068125 0.17226 0.13719 -0.1811 0.095576 -0.29509
202 -10.238 -0.69234 0.15461 -0.1863 -0.60484 -0.099115 0.6631 0.6081 1.0612 0.5199 10.264 -0.69351 0.15648 -0.18533 -0.60512 -0.098222 0.6644 0.60697 1.0629 0.52113
203 -10.249 -0.97986 0.64616 0.0017605 -0.14983 0.15638 0.1409 -0.22735 0.0035653 -0.25668 10.242 -0.9799 0.64928 0.0021193 -0.14925 0.15792 0.14312 -0.22943 0.0044271 -0.2572
204 -10.25 -0.97794 0.68181 0.016445 0.10656 0.17906 0.15469 -0.11935 0.17481 -0.24537 10.172 -0.97134 0.6806 0.016885 0.10543 0.1797 0.15556 -0.12086 0.17449 -0.24463
205 -10.251 -0.9699 0.67733 0.023417 0.078544 0.19767 0.13451 -0.20109 0.11737 -0.24272 10.193 -0.96535 0.67767 0.023912 0.078017 0.1985 0.13587 -0.20237 0.11784 -0.24297
206 -10.226 -0.67812 -0.67942 -0.24441 -0.73866 -0.40603 0.37898 0.57147 0.5946 0.023429 10.282 -0.68062 -0.68146 -0.24544 -0.74047 -0.40762 0.38084 0.57052 0.59703 0.025589
207 -10.246 -0.9793 0.60358 -0.022459 -0.20681 0.1522 0.19317 -0.05212 0.25919 -0.16656 10.189 -0.97457 0.60392 -0.021831 -0.20517 0.15306 0.19406 -0.05417 0.2583 -0.16657
208 -10.22 -0.81456 -0.49288 -0.13809 -0.51169 0.23176 0.60772 0.31384 0.04868 0.19676 10.233 -0.81537 -0.4909 -0.13877 -0.51143 0.23125 0.60822 0.31086 0.048274 0.19877
209 -10.245 -0.98688 0.59995 0.0088123 0.11109 0.21551 0.001286 -0.12794 0.15544 -0.24331 10.259 -0.98841 0.60402 0.0093246 0.11123 0.21727 0.0030371 -0.12996 0.15639 -0.24425
210 -10.237 -0.86441 0.068525 -0.078887 -0.39578 0.0042498 -0.8648 0.64915 -0.22715 0.37774 10.364 -0.87358 0.071302 -0.079331 -0.39954 0.0043297 -0.87133 0.65326 -0.22879 0.38273
211 -10.248 -0.94756 0.68024 0.018076 -0.024055 0.2071 0.20515 -0.2503 0.2191 -0.16669 10.153 -0.9397 0.67782 0.018509 -0.02426 0.20707 0.20529 -0.25031 0.21803 -0.16688
212 -10.234 -0.88175 -0.03123 -0.1517 -0.61906 -0.13941 -0.51347 0.36204 -0.1048 -0.56135 10.331 -0.88865 -0.029279 -0.15218 -0.62226 -0.13941 -0.51532 0.36209 -0.10516 -0.56199
213 -10.256 -1.0179 0.38012 -0.10569 0.1488 -0.3225 -0.1424 0.79065 -0.11374 -1.0134 10.354 -1.0248 0.38412 -0.10565 0.14939 -0.3217 -0.14138 0.78803 -0.11294 -1.0103
214 -10.224 -0.88328 0.09672 -0.094476 -0.54772 -0.078614 -0.19092 0.48686 -0.048477 -0.31649 10.466 -0.90266 0.10112 -0.095977 -0.55777 -0.079176 -0.19329 0.49288 -0.048533 -0.31936
215 -10.23 -0.9077 0.12006 -0.11156 -0.54818 -0.08621 -0.28385 0.37285 -0.10086 -0.45229 10.399 -0.92147 0.12414 -0.1127 -0.55482 -0.086332 -0.28621 0.37477 -0.10174 -0.45583
216 -10.213 -0.44469 -0.2082 0.097931 -0.53266 0.3855 -0.090278 0.88151 -0.071409 -0.40612 10.34 -0.44918 -0.20698 0.098693 -0.536 0.38792 -0.089803 0.8829 -0.070779 -0.4042
217 -10.238 -0.94866 0.32827 -0.075637 -0.514 -0.063945 0.16517 0.051576 -0.42918 -0.26333 10.365 -0.95979 0.33451 -0.076145 -0.51847 -0.063451 0.16919 0.048522 -0.43349 -0.26408
218 -10.25 -0.96931 0.65039 0.01527 -0.08056 0.22321 0.022982 -0.13975 0.1852 -0.25265 10.263 -0.97109 0.65478 0.015889 -0.080156 0.22511 0.024699 -0.14223 0.18639 -0.25344
219 -10.217 -0.70081 -0.39842 0.052943 -0.40809 0.83837 0.66222 0.5463 -0.050983 0.17072 10.231 -0.70163 -0.39495 0.051891 -0.4085 0.83607 0.66247 0.5439 -0.051566 0.17245
220 -10.224 -0.88328 0.09672 -0.094476 -0.54772 -0.078614 -0.19092 0.48686 -0.048477 -0.31649 10.466 -0.90266 0.10112 -0.095977 -0.55777 -0.079176 -0.19329 0.49288 -0.048533 -0.31936
221 -10.275 1.4057 0.076661 0.0038289 -0.051181 -0.13349 0.0040891 0.049134 0.034201 -0.11605 10.518 1.4388 0.078371 0.011293 -0.052932 -0.13855 0.0042367 0.048497 0.03518 -0.11782
222 -10.242 -0.64822 0.15664 -0.18683 -0.57162 -0.087909 0.77913 0.55811 1.1611 0.62792 10.282 -0.65047 0.15881 -0.18604 -0.57316 -0.087192 0.78134 0.55837 1.1645 0.62916
223 -10.244 -0.60313 0.098988 -0.20606 -0.60271 -0.13937 0.83253 0.57996 1.2095 0.64611 10.3 -0.60593 0.10082 -0.20547 -0.60525 -0.1391 0.83617 0.58103 1.2148 0.64843
224 -10.242 -0.64822 0.15664 -0.18683 -0.57162 -0.087909 0.77913 0.55811 1.1611 0.62792 10.282 -0.65047 0.15881 -0.18604 -0.57316 -0.087192 0.78134 0.55837 1.1645 0.62916
225 -10.23 -0.54439 0.073197 -0.19927 1.586 -0.86635 0.20337 0.11572 -0.089317 -0.25184 10.256 -0.54517 0.074139 -0.198 1.5832 -0.86317 0.20425 0.11332 -0.087769 -0.25225
226 -10.287 1.3835 0.17257 0.083571 0.60681 -0.65817 0.10646 0.10701 -0.03832 -0.11615 10.414 1.4009 0.17435 0.090322 0.61098 -0.66498 0.10747 0.10741 -0.03836 -0.11708
227 -10.291 1.3999 0.10514 0.35996 -0.057854 -0.25395 -0.10827 -0.15893 0.011929 0.12367 10.533 1.4326 0.10781 0.37176 -0.059823 -0.25993 -0.10963 -0.16195 0.012058 0.12563
228 -10.257 -0.92513 0.34527 -0.11553 1.6091 -0.47941 0.039211 0.37071 -0.18622 -0.071451 10.283 -0.92656 0.34773 -0.11515 1.6053 -0.47641 0.040306 0.36829 -0.1852 -0.072544
229 -10.271 -1.0198 0.45961 -0.10718 1.6203 -0.47809 0.11928 0.47446 -0.18812 -0.017644 10.274 -1.0189 0.46101 -0.10656 1.6125 -0.47385 0.11906 0.471 -0.1871 -0.018168
230 -10.259 -0.9512 0.33694 -0.12127 1.6317 -0.49516 -0.0095987 0.41774 -0.20877 0.079678 10.252 -0.94952 0.338 -0.12055 1.6228 -0.49075 -0.0092406 0.41452 -0.20751 0.078795
231 -10.245 -0.95662 0.54959 -0.034451 0.65306 -0.202 0.0022588 0.25637 -0.028833 -0.5847 10.487 -0.97867 0.56511 -0.034728 0.66526 -0.20372 0.003845 0.25747 -0.02828 -0.59496
232 -10.269 -1.0171 0.46356 -0.095443 1.5552 -0.4331 0.0988 0.47355 -0.20438 -0.045161 10.295 -1.0186 0.46622 -0.095103 1.5518 -0.43016 0.098911 0.47132 -0.20382 -0.045467
233 -10.262 -0.94184 0.39829 -0.11391 1.5845 -0.51823 0.092096 0.42288 -0.21217 -0.09296 10.276 -0.94229 0.40033 -0.11341 1.5794 -0.51463 0.092383 0.42021 -0.21112 -0.093198
234 -10.261 -0.93 0.39453 -0.11214 1.5842 -0.50112 0.13173 0.37971 -0.17315 -0.17787 10.287 -0.9316 0.39713 -0.11178 1.581 -0.49812 0.13239 0.37737 -0.17231 -0.17832
235 -10.247 -0.077208 -1.4932 0.15152 0.7827 1.1521 0.31097 -0.03322 -0.0753 0.047943 10.25 -0.076376 -1.4885 0.15065 0.77919 1.1446 0.31052 -0.034764 -0.074271 0.048108
236 -10.24 -0.00011397 -1.1576 0.29291 0.52364 1.4111 0.36162 0.26702 -0.11437 0.064431 10.254 0.00050192 -1.1535 0.29231 0.52143 1.405 0.36175 0.26584 -0.11385 0.064976
237 -10.257 0.068825 -1.2496 0.29695 0.80832 1.3874 0.36768 0.12449 -0.1043 0.0086402 10.331 0.070039 -1.253 0.29833 0.81055 1.3891 0.36983 0.12368 -0.10407 0.0086135
238 -10.257 0.068825 -1.2496 0.29695 0.80832 1.3874 0.36768 0.12449 -0.1043 0.0086402 10.331 0.070039 -1.253 0.29833 0.81055 1.3891 0.36983 0.12368 -0.10407 0.0086135
239 -10.276 -0.79277 -1.6259 -0.47553 0.057899 -0.52577 0.15524 -0.46781 0.15342 0.089205 10.245 -0.78908 -1.6188 -0.47405 0.056584 -0.52465 0.15546 -0.4664 0.15276 0.089453
240 -10.272 -0.77437 -1.6297 -0.45892 0.12316 -0.4497 0.11102 -0.46283 0.14116 0.13295 10.24 -0.77074 -1.6225 -0.45755 0.12128 -0.44923 0.11168 -0.46125 0.14058 0.13271
241 -10.277 -0.79762 -1.6117 -0.47391 0.061756 -0.5289 0.18099 -0.46951 0.15294 0.10414 10.262 -0.79518 -1.6073 -0.47323 0.060497 -0.52863 0.18131 -0.46893 0.15255 0.10447
242 -10.264 0.69335 -0.56214 0.46476 -0.1623 0.3381 0.10271 0.93848 -0.17496 -0.54583 10.506 0.71027 -0.57045 0.4745 -0.16513 0.33965 0.10286 0.94674 -0.1768 -0.54914
243 -10.237 -0.80416 0.070122 -0.051058 -0.34165 -0.020359 -1.0603 0.61498 -0.29156 0.61483 10.293 -0.80743 0.072349 -0.050885 -0.34338 -0.020566 -1.0634 0.6167 -0.29292 0.61834
244 -10.245 -0.86889 0.68213 0.056059 -0.012683 0.29804 -0.022814 -0.37855 0.23463 -0.21922 10.229 -0.868 0.68456 0.056732 -0.013111 0.29896 -0.020136 -0.379 0.23481 -0.22042
245 -10.244 -0.79532 0.78993 0.10489 0.023361 0.26701 -0.6035 -0.85547 0.44374 0.072529 10.269 -0.79615 0.79103 0.10537 0.022648 0.26617 -0.5988 -0.84954 0.44009 0.071338
246 -10.389 1.932 0.43393 -1.8957 0.026728 0.28713 -0.018617 0.045241 -0.035629 -0.028534 10.415 1.9296 0.43181 -1.8799 0.025991 0.28402 -0.018208 0.044621 -0.035258 -0.028214
247 -10.321 1.7872 0.35211 -1.4133 0.019205 0.17083 -0.010688 0.023373 -0.014047 -0.0095269 10.565 1.8239 0.35804 -1.4294 0.018755 0.17158 -0.010431 0.023235 -0.014036 -0.0094507
248 -10.378 1.9174 0.42618 -1.851 0.026039 0.27687 -0.017924 0.04336 -0.033846 -0.026997 10.477 1.9282 0.42693 -1.8474 0.025454 0.27548 -0.017615 0.042997 -0.033675 -0.026832
249 -10.389 1.932 0.43393 -1.8957 0.026728 0.28713 -0.018617 0.045241 -0.035629 -0.028534 10.415 1.9296 0.43181 -1.8799 0.025991 0.28402 -0.018208 0.044621 -0.035258 -0.028214
250 -10.387 1.9345 0.43566 -1.9065 0.026901 0.29003 -0.018818 0.045814 -0.036237 -0.029088 10.428 1.9345 0.43404 -1.8928 0.026195 0.2872 -0.018428 0.045236 -0.035893 -0.028789
251 -10.393 1.9518 0.44567 -1.9659 0.027831 0.30457 -0.019812 0.048567 -0.038982 -0.031519 10.397 1.9445 0.44225 -1.9442 0.027028 0.30043 -0.019346 0.047781 -0.038456 -0.03107
252 -10.383 1.9191 0.42659 -1.8523 0.026051 0.27665 -0.017902 0.043266 -0.033677 -0.026813 10.439 1.9224 0.42579 -1.8423 0.025383 0.27442 -0.017542 0.042781 -0.033419 -0.026583
253 -10.385 1.9244 0.42964 -1.8703 0.026332 0.28101 -0.0182 0.044089 -0.034492 -0.027532 10.426 1.9247 0.42816 -1.8574 0.025629 0.27835 -0.017815 0.043538 -0.034181 -0.02726
254 -10.379 1.9082 0.42031 -1.815 0.025468 0.26754 -0.01728 0.041543 -0.031959 -0.025293 10.455 1.9152 0.42036 -1.8087 0.02484 0.26586 -0.016948 0.041141 -0.031773 -0.02512
255 -10.242 -0.84596 0.47192 0.0087675 -0.12683 0.091398 -0.63017 -0.59604 0.12798 0.22786 10.369 -0.85615 0.47938 0.0092817 -0.12866 0.092531 -0.63497 -0.6001 0.12818 0.23012
256 -10.283 -0.8249 -1.6219 -0.48182 0.13841 -0.50351 0.17373 -0.55378 0.10638 0.12905 10.286 -0.82391 -1.6204 -0.48203 0.13702 -0.50426 0.17452 -0.55377 0.10638 0.12939
257 -10.281 -0.82261 -1.6104 -0.47777 0.13358 -0.49878 0.16681 -0.54762 0.10672 0.12788 10.296 -0.82251 -1.6107 -0.47851 0.13235 -0.50014 0.16782 -0.54826 0.10684 0.12839
258 -10.235 -0.63585 0.46403 0.24441 0.15423 0.87959 0.052731 -0.18164 0.046427 -0.012858 10.404 -0.64658 0.47498 0.24822 0.1553 0.89148 0.054328 -0.18436 0.047253 -0.014459
259 -10.252 -0.84417 0.82188 0.1341 0.069336 0.41052 -0.35877 -0.76637 0.44494 -0.070739 10.422 -0.85734 0.83545 0.13629 0.069817 0.41583 -0.35925 -0.77308 0.44886 -0.073561
260 -10.259 0.21217 -1.1516 0.35492 0.75537 1.4926 0.245 -0.013545 -0.10405 0.073388 10.501 0.21809 -1.1726 0.36282 0.76898 1.5174 0.25078 -0.014533 -0.10553 0.074201
261 -10.274 -1.0174 0.41384 -0.20066 1.3672 -0.63472 0.46772 0.14137 0.1955 0.28114 10.402 -1.0288 0.4194 -0.20196 1.3762 -0.63825 0.47273 0.13994 0.19812 0.28224
262 -10.256 -0.95758 0.66171 0.018211 -0.021129 0.27701 0.25969 -0.27484 0.17036 -0.0026634 10.497 -0.98074 0.68051 0.019089 -0.021858 0.2845 0.26685 -0.28229 0.17505 -0.0045545
263 -10.264 -0.99819 0.38794 -0.1122 1.4029 -0.54891 -0.17185 0.62993 -0.39202 0.40131 10.338 -1.0041 0.39164 -0.11237 1.4063 -0.54924 -0.1742 0.63267 -0.39423 0.40411
264 -10.248 -0.88239 0.055876 -0.10857 1.4709 -0.26913 -0.39557 0.30235 -0.20936 0.44567 10.417 -0.89568 0.058167 -0.10984 1.4881 -0.27169 -0.40022 0.30621 -0.21212 0.45068
265 -10.246 -0.77687 -1.0968 -0.42839 1.0963 -0.82699 0.31476 -0.1758 -0.11328 -0.14661 10.374 -0.78561 -1.1094 -0.43367 1.1056 -0.83539 0.31917 -0.17872 -0.11403 -0.14799
266 -10.283 -0.82556 -1.6271 -0.47783 0.17434 -0.47627 0.21686 -0.51779 0.081475 0.10909 10.339 -0.82885 -1.634 -0.48057 0.17365 -0.47958 0.21873 -0.52066 0.081913 0.11012
267 -10.287 -1.0305 0.39094 -0.10966 0.15509 -0.3415 -0.15127 0.84619 -0.12366 -1.1111 10.457 -1.0446 0.39753 -0.11036 0.1567 -0.34298 -0.15129 0.8492 -0.12371 -1.1153
268 -10.287 -1.0305 0.39094 -0.10966 0.15509 -0.3415 -0.15127 0.84619 -0.12366 -1.1111 10.457 -1.0446 0.39753 -0.11036 0.1567 -0.34298 -0.15129 0.8492 -0.12371 -1.1153
269 -10.292 -1.043 0.44932 -0.1633 1.6429 -0.61751 0.31005 0.36986 0.0019486 0.16302 10.419 -1.0545 0.45545 -0.16442 1.6542 -0.62042 0.31294 0.37097 0.0024248 0.16356
270 -10.286 -1.0329 0.43951 -0.14989 1.6877 -0.59428 0.22986 0.41631 -0.066305 0.13373 10.361 -1.039 0.44339 -0.15017 1.691 -0.59391 0.23074 0.41591 -0.066192 0.13349
271 -10.283 -0.81789 0.84611 0.11512 0.025865 0.30961 -0.70604 -1.0213 0.55431 0.092589 10.453 -0.82964 0.85768 0.11694 0.025505 0.31219 -0.70933 -1.0265 0.55644 0.092438
272 -10.405 1.9455 0.44088 -1.9359 0.027351 0.2966 -0.019261 0.047006 -0.037354 -0.030046 10.577 1.9703 0.44492 -1.9472 0.027002 0.29768 -0.019128 0.047057 -0.037517 -0.030157
273 -10.402 1.9502 0.44412 -1.9561 0.027674 0.30201 -0.019636 0.048076 -0.038487 -0.03108 10.574 1.9746 0.44794 -1.9662 0.027311 0.30283 -0.019488 0.048079 -0.038602 -0.031149
274 -10.407 1.9575 0.44815 -1.9798 0.028044 0.30772 -0.020026 0.04915 -0.039548 -0.032014 10.579 1.982 0.45207 -1.9906 0.027698 0.30871 -0.019893 0.049188 -0.039692 -0.03211
275 -10.41 1.9621 0.45072 -1.9951 0.028284 0.3115 -0.020285 0.049871 -0.040275 -0.032662 10.656 2.0003 0.45775 -2.0196 0.028132 0.31461 -0.020291 0.050247 -0.040691 -0.032978
276 -10.3 -0.82205 0.85532 0.11677 0.026266 0.31636 -0.72226 -1.0475 0.57181 0.095768 10.543 -0.83958 0.87282 0.11939 0.026091 0.3211 -0.73053 -1.06 0.57786 0.096287
