433 20
0 8.6693 -6.0634 -2.8151 2.3587 -4.8099 -1.0019 2.8393 -1.386 1.6357 -0.99993 8.7789 -6.166 -2.8897 2.3343 4.8407 -1.0995 -2.8538 -1.429 1.6198 1.0422
1 8.2856 -5.6121 -4.017 1.8898 -3.4122 -0.9138 2.7415 -0.095672 0.80941 -0.025196 8.3021 -5.655 -4.0309 1.847 3.3721 -0.97126 -2.7321 -0.11658 0.78554 0.074235
2 8.6887 -6.0682 -2.8174 2.359 -4.8503 -1.0119 2.8567 -1.3962 1.6468 -1.0002 8.7495 -6.1365 -2.8763 2.3212 4.8541 -1.1044 -2.8554 -1.4315 1.6217 1.0367
3 8.9555 -6.8048 0.040606 0.74904 -5.2598 -3.081 1.7021 -0.28803 2.078 1.1558 9.0852 -6.9222 -0.026621 0.68542 5.2643 -3.2142 -1.7152 -0.28577 2.0737 -1.1359
4 8.6863 -6.0672 -2.8172 2.3591 -4.8459 -1.0112 2.8542 -1.3952 1.6458 -0.99993 8.7523 -6.1391 -2.8778 2.3227 4.8527 -1.1042 -2.8546 -1.4313 1.6217 1.037
5 8.6809 -6.0908 -2.7803 2.3572 -4.8277 -0.99087 2.8664 -1.3929 1.6379 -1.0346 8.7842 -6.1892 -2.8526 2.3309 4.8553 -1.0879 -2.8792 -1.4353 1.6204 1.0762
6 8.6748 -6.0646 -2.8152 2.3602 -4.8202 -1.0043 2.8455 -1.3878 1.6376 -1.0014 8.7745 -6.1602 -2.8866 2.333 4.8456 -1.101 -2.8569 -1.4293 1.6199 1.0425
7 8.6796 -6.0666 -2.8151 2.3604 -4.8289 -1.0055 2.8512 -1.3901 1.6397 -1.0022 8.7681 -6.1544 -2.8828 2.3302 4.8482 -1.101 -2.859 -1.4299 1.6198 1.0419
8 8.8089 -6.1211 -3.13 0.86638 -4.5721 -1.8149 3.1172 -0.61986 2.3597 -1.2466 8.9197 -6.2207 -3.2074 0.80974 4.554 -1.9196 -3.1517 -0.65593 2.3504 1.2707
9 8.8161 -6.7355 0.37409 2.2274 -5.5171 -2.3222 1.4082 -1.0509 1.3693 1.403 8.9127 -6.8313 0.3103 2.1907 5.5507 -2.4401 -1.3956 -1.0526 1.352 -1.3616
10 8.1027 -5.5042 -3.6951 2.9043 -2.9139 -0.089395 2.1657 -0.50708 0.11844 -0.42613 8.019 -5.4806 -3.6611 2.8341 2.8629 -0.13181 -2.1107 -0.50967 0.099665 0.46187
11 8.6895 -6.0682 -2.8175 2.3603 -4.8517 -1.0116 2.8574 -1.3967 1.6468 -1.0002 8.7502 -6.1364 -2.8764 2.3224 4.8556 -1.1041 -2.8561 -1.432 1.6217 1.0367
12 8.689 -6.1152 -2.8316 2.3726 -4.8796 -0.84975 2.8582 -1.4645 1.6508 -0.95364 8.7925 -6.2144 -2.9049 2.3462 4.9117 -0.94543 -2.8687 -1.5081 1.6339 0.99475
13 9.2811 -5.3374 -2.516 1.9181 -4.0833 -0.62882 3.5678 -1.4375 0.74242 -0.67885 9.3971 -5.4332 -2.5846 1.8931 4.1117 -0.70314 -3.58 -1.4954 0.7208 0.62932
14 8.6742 -6.0652 -2.8149 2.359 -4.819 -1.0029 2.8454 -1.3881 1.6376 -1.0008 8.7739 -6.1608 -2.8863 2.3318 4.8444 -1.0995 -2.8568 -1.4296 1.6199 1.0419
15 8.6895 -6.0682 -2.8175 2.3603 -4.8517 -1.0116 2.8574 -1.3967 1.6468 -1.0002 8.7502 -6.1364 -2.8764 2.3224 4.8556 -1.1041 -2.8561 -1.432 1.6217 1.0367
16 8.6808 -6.0626 -2.8279 2.3578 -4.8243 -1.0059 2.8543 -1.3861 1.6372 -0.99172 8.761 -6.1445 -2.8929 2.3253 4.8389 -1.1001 -2.8594 -1.4246 1.6159 1.0306
17 8.6722 -6.0646 -2.8148 2.3581 -4.8155 -1.0026 2.8432 -1.387 1.6369 -1.0006 8.7753 -6.1626 -2.8873 2.3319 4.8428 -1.0996 -2.8557 -1.4291 1.6198 1.0421
18 8.4566 -6.2605 -2.7156 2.167 -4.865 -0.61914 2.2784 -1.036 1.4362 -1.0701 8.4731 -6.3021 -2.7602 2.1118 4.8487 -0.70562 -2.2559 -1.0521 1.3923 1.1072
19 8.6918 -6.0691 -2.8182 2.3608 -4.8553 -1.0126 2.8587 -1.3981 1.648 -0.99996 8.7469 -6.1335 -2.8753 2.3215 4.8561 -1.1044 -2.8555 -1.4325 1.6219 1.0357
20 8.688 -6.0682 -2.8173 2.3581 -4.8489 -1.0122 2.8562 -1.3959 1.6468 -1.0003 8.7488 -6.1364 -2.8761 2.3203 4.8527 -1.1046 -2.8549 -1.4312 1.6218 1.0367
21 8.6761 -6.0651 -2.8154 2.361 -4.8224 -1.0047 2.8464 -1.3888 1.6383 -1.0012 8.7722 -6.1582 -2.8857 2.3328 4.8458 -1.1009 -2.8567 -1.4298 1.6199 1.0419
22 8.6997 -6.0646 -2.8339 2.3597 -4.8663 -1.0178 2.8643 -1.3968 1.6488 -0.9885 8.7354 -6.1153 -2.8846 2.315 4.8561 -1.1074 -2.8547 -1.4281 1.6192 1.0221
23 8.6933 -6.1125 -2.751 2.3568 -4.8529 -0.98531 2.8948 -1.4035 1.644 -1.0583 8.7737 -6.1949 -2.816 2.3241 4.8682 -1.0801 -2.9001 -1.4428 1.6221 1.0966
24 8.6748 -6.0646 -2.8152 2.3602 -4.8202 -1.0043 2.8455 -1.3878 1.6376 -1.0014 8.7745 -6.1602 -2.8866 2.333 4.8456 -1.101 -2.8569 -1.4293 1.6199 1.0425
25 8.6911 -6.0962 -2.7791 2.3554 -4.8449 -0.99427 2.8805 -1.3961 1.6419 -1.0384 8.767 -6.1754 -2.8427 2.3216 4.8574 -1.0883 -2.8844 -1.4343 1.6193 1.0767
26 8.6732 -6.0647 -2.8152 2.359 -4.8171 -1.0026 2.8438 -1.3874 1.637 -1.0005 8.7763 -6.1628 -2.8877 2.3327 4.8443 -1.0996 -2.8563 -1.4295 1.6199 1.042
27 8.2929 -5.6156 -4.0245 1.8724 -3.4254 -0.92346 2.743 -0.092056 0.81363 -0.014746 8.3246 -5.6689 -4.0458 1.8328 3.3911 -0.98306 -2.7387 -0.11311 0.79124 0.064099
28 8.8094 -6.1384 -3.1022 0.86864 -4.5722 -1.8028 3.1303 -0.62431 2.3583 -1.2684 8.9295 -6.2447 -3.1829 0.81293 4.5592 -1.9093 -3.1682 -0.6614 2.3512 1.2938
29 8.7292 -5.9839 -2.7935 2.3589 -4.7711 -1.3721 3.0233 -1.2112 1.5859 -0.99697 8.6686 -5.9666 -2.8111 2.2881 4.6946 -1.4502 -2.987 -1.2264 1.5375 1.0073
30 8.968 -6.8795 0.02726 -0.4473 -5.0977 -3.3248 1.3829 -0.69595 1.4142 1.4173 8.9712 -6.8981 -0.039124 -0.53292 4.9974 -3.4084 -1.3643 -0.68158 1.3779 -1.4404
31 8.7292 -5.9839 -2.7935 2.3589 -4.7711 -1.3721 3.0233 -1.2112 1.5859 -0.99697 8.6686 -5.9666 -2.8111 2.2881 4.6946 -1.4502 -2.987 -1.2264 1.5375 1.0073
32 8.5667 -7.0548 0.61468 1.835 -5.5476 -1.814 0.88093 -0.64915 1.1054 1.388 8.5393 -7.0578 0.54541 1.7636 5.5082 -1.8997 -0.8437 -0.62703 1.0605 -1.322
33 8.5846 -7.3241 2.3837 1.7414 -5.3246 -2.6148 0.84842 -1.113 1.5021 1.4762 8.6613 -7.4174 2.3501 1.6925 5.3585 -2.7282 -0.80264 -1.1007 1.4755 -1.465
34 8.5898 -7.0706 0.62256 1.9289 -5.6081 -1.7305 0.88662 -0.72428 1.1244 1.4215 8.5032 -7.0251 0.54879 1.8441 5.5335 -1.8043 -0.84159 -0.69736 1.0716 -1.3463
35 8.7292 -5.9839 -2.7935 2.3589 -4.7711 -1.3721 3.0233 -1.2112 1.5859 -0.99697 8.6686 -5.9666 -2.8111 2.2881 4.6946 -1.4502 -2.987 -1.2264 1.5375 1.0073
36 8.7691 -7.0745 0.27386 0.2444 -5.2955 -2.6627 1.3968 -0.064937 1.8541 1.3597 8.77 -7.0961 0.206 0.16623 5.2286 -2.7498 -1.3814 -0.052774 1.8143 -1.3235
37 8.5813 -7.0244 0.61168 1.9169 -5.5402 -1.8642 0.90981 -0.66027 1.1172 1.3492 8.5669 -7.0383 0.54359 1.8481 5.509 -1.9525 -0.87406 -0.63916 1.0732 -1.2852
38 8.3074 -5.6271 -4.0536 1.7779 -3.4688 -0.95813 2.7145 -0.068098 0.82122 0.031023 8.1346 -5.5412 -3.9757 1.6948 3.3484 -0.99415 -2.6442 -0.086237 0.77964 0.018072
39 8.264 -6.2879 -2.3342 3.2031 -4.4603 0.60461 1.7979 -1.6157 0.75681 -1.431 8.1457 -6.2296 -2.3383 3.1044 4.4069 0.52377 -1.7228 -1.5968 0.70763 1.4358
40 10.593 -2.0978 -1.8064 1.4655 0.4922 2.6651 2.891 1.7255 -0.93123 1.1332 10.515 -2.1177 -1.7882 1.4517 -0.42216 2.6759 -2.8581 1.6664 -0.89334 -1.1618
41 8.3517 -6.8524 1.0364 2.8862 -4.8384 -1.3214 0.44926 -0.8944 0.352 0.99166 8.3063 -6.8413 0.96993 2.8115 4.8049 -1.3948 -0.39934 -0.85501 0.31528 -0.9454
42 8.553 -6.9397 0.6799 1.894 -5.368 -2.1864 1.0054 -0.487 1.0594 1.4049 8.5247 -6.9406 0.61305 1.8224 5.3161 -2.2723 -0.97341 -0.46277 1.0132 -1.3505
43 8.3068 -5.6393 -4.0412 1.7759 -3.4531 -0.94382 2.735 -0.064222 0.81384 0.019532 8.1341 -5.5532 -3.9633 1.6931 3.3334 -0.9797 -2.6641 -0.082922 0.77251 0.029272
44 8.8408 -5.6295 -2.7482 -3.3748 -3.2113 -1.3721 2.9226 -1.5821 -1.4121 -1.6222 8.8553 -5.6724 -2.7885 -3.4728 3.0817 -1.4372 -2.8886 -1.6191 -1.4756 1.4247
45 7.456 -6.9938 -2.6613 -3.0235 -3.0536 -0.029896 -0.65962 1.3216 -1.5192 0.43369 7.4218 -6.9795 -2.6778 -3.0855 2.9233 -0.086873 0.64856 1.3543 -1.521 -0.51454
46 7.0759 -8.4787 2.7241 -2.4873 -3.3159 -0.67756 -3.7325 3.0829 -1.0153 2.6085 7.1125 -8.5366 2.6882 -2.5687 3.2869 -0.74701 3.7408 3.1622 -1.028 -2.6185
47 8.8337 -5.6297 -2.749 -3.3771 -3.2105 -1.3679 2.917 -1.5748 -1.4062 -1.6347 8.8566 -5.678 -2.7921 -3.4785 3.084 -1.4345 -2.8857 -1.6132 -1.4711 1.4392
48 6.6017 -8.0988 1.752 0.20813 -3.1123 1.7279 -4.8553 2.7702 -2.9765 2.1432 6.5514 -8.0569 1.683 0.15179 3.0989 1.6532 4.8256 2.8361 -2.9601 -2.0829
49 6.8322 -8.5274 3.1305 -0.89184 -3.5682 0.32288 -4.4105 2.5295 -1.7791 2.5981 6.8393 -8.5557 3.0842 -0.95084 3.5749 0.25168 4.4245 2.6049 -1.7906 -2.5739
50 6.7803 -8.2948 1.386 -0.7899 -3.7931 1.3143 -4.3064 2.9058 -2.1735 2.5223 6.8008 -8.3379 1.3273 -0.85176 3.8041 1.2454 4.3127 2.984 -2.1916 -2.4648
51 6.6141 -8.4262 3.5123 0.12976 -3.0069 1.1835 -4.9341 2.0808 -2.4598 2.1601 6.6017 -8.4332 3.4612 0.077188 3.0318 1.1238 4.9556 2.1622 -2.4579 -2.1393
52 6.8069 -8.2922 1.3767 -0.83585 -3.8348 1.2219 -4.3532 2.9709 -2.1876 2.5427 6.712 -8.1944 1.2952 -0.88347 3.7781 1.1318 4.2844 2.9988 -2.1685 -2.4427
53 6.8393 -8.5241 3.097 -0.88156 -3.5828 0.34307 -4.4064 2.5416 -1.7929 2.6066 6.8716 -8.5839 3.0618 -0.94421 3.6027 0.27255 4.4365 2.6266 -1.8111 -2.5917
54 6.8021 -8.5399 3.1464 -0.91033 -3.55 0.41021 -4.3517 2.4507 -1.7442 2.6072 6.823 -8.5857 3.1063 -0.97066 3.5664 0.34086 4.3758 2.53 -1.7589 -2.5885
55 6.6049 -8.2121 1.6723 0.29153 -3.3507 2.3046 -4.8841 2.4369 -2.8758 2.1572 6.5103 -8.116 1.5898 0.23325 3.3324 2.212 4.8298 2.4834 -2.8394 -2.0716
56 6.7736 -8.2833 1.3806 -0.81455 -3.7739 1.2782 -4.2942 2.9199 -2.1682 2.5193 6.7531 -8.2761 1.3141 -0.87101 3.7609 1.2022 4.2739 2.98 -2.1729 -2.4466
57 6.8484 -8.5692 3.1044 -0.86688 -3.652 0.48305 -4.4079 2.4523 -1.7683 2.6571 6.8557 -8.5981 3.0571 -0.92638 3.663 0.41111 4.4241 2.527 -1.7797 -2.6329
58 6.5846 -8.167 1.6972 0.24043 -3.2185 2.1016 -4.8751 2.5391 -2.8896 2.0776 6.5499 -8.1452 1.6306 0.18557 3.2259 2.0323 4.8623 2.6085 -2.8792 -2.0115
59 6.8115 -8.6288 3.8591 -0.93343 -3.4202 0.011635 -4.2304 2.1582 -1.4787 2.4221 6.8386 -8.6836 3.8369 -0.99371 3.4376 -0.061621 4.26 2.2303 -1.4885 -2.4153
60 6.7686 -8.2808 1.4239 -0.8252 -3.7805 1.2406 -4.2964 2.9289 -2.1678 2.5253 6.748 -8.2734 1.357 -0.88174 3.7667 1.1645 4.2758 2.9892 -2.1725 -2.4528
61 6.6039 -8.2091 1.7176 0.23371 -3.3053 2.1862 -4.8875 2.4894 -2.8818 2.1313 6.5358 -8.1458 1.6413 0.17725 3.2978 2.1043 4.8514 2.5459 -2.8567 -2.0539
62 6.6218 -8.1917 1.7118 0.26995 -3.3032 2.1134 -4.9321 2.5549 -2.914 2.1011 6.4816 -8.0394 1.6179 0.21041 3.2579 2.0095 4.8408 2.5831 -2.8575 -2.002
63 6.6166 -8.4313 3.524 0.10547 -3.0312 1.1802 -4.9331 2.0759 -2.4575 2.1855 6.5941 -8.4254 3.4672 0.052628 3.0512 1.1183 4.9472 2.1541 -2.4516 -2.161
64 6.4937 -7.5418 -1.5335 0.45597 -2.6172 3.5298 -3.4315 2.1776 -2.6298 -0.42997 6.4014 -7.4591 -1.543 0.40227 2.6032 3.4269 3.3882 2.1926 -2.6019 0.45164
65 6.7927 -8.3126 1.3453 -0.8316 -3.8474 1.3645 -4.3064 2.8797 -2.1565 2.5818 6.7598 -8.2903 1.2759 -0.88705 3.8289 1.2843 4.2795 2.9346 -2.157 -2.505
66 6.4679 -7.4368 -1.5109 0.38556 -2.4004 3.1348 -3.3304 2.4174 -2.71 -0.39506 6.3752 -7.3532 -1.5176 0.3329 2.3741 3.0366 3.2813 2.4322 -2.6819 0.40715
67 6.5545 -8.1502 1.626 0.35538 -3.364 2.3914 -4.8556 2.3647 -2.8429 2.1784 6.5874 -8.2132 1.5748 0.30217 3.4143 2.3428 4.8973 2.4587 -2.8623 -2.1346
68 10.974 -0.41878 -0.68576 0.39903 1.8721 3.3613 0.94448 0.32153 1.0294 -0.7583 10.952 -0.44133 -0.66181 0.41329 -1.8025 3.4021 -0.92947 0.29789 1.0411 0.76734
69 10.322 -1.4484 -1.5655 1.8219 1.574 1.6981 3.0805 2.2479 -1.4898 1.3924 10.347 -1.4774 -1.5484 1.8437 -1.5524 1.7537 -3.0935 2.2045 -1.4582 -1.4619
70 10.892 -0.40368 -0.68488 0.4352 1.8056 3.3121 0.91455 0.36658 0.97956 -0.78153 10.986 -0.43052 -0.66844 0.45328 -1.7555 3.3865 -0.90976 0.34695 1.0011 0.79783
71 6.644 -8.4166 3.4983 0.18986 -3.0392 1.1436 -4.9867 2.1416 -2.5011 2.1538 6.6313 -8.4235 3.4471 0.13648 3.0629 1.0829 5.0073 2.2237 -2.4996 -2.1329
72 6.5692 -8.0566 1.7012 0.24665 -3.0539 1.7596 -4.7843 2.7645 -2.9746 2.0868 6.5557 -8.06 1.6429 0.1919 3.0585 1.6955 4.7815 2.8449 -2.9751 -2.039
73 10.198 -2.1375 -2.0358 -5.7243 1.8007 1.8698 3.7013 -0.16165 0.089673 -0.92324 10.206 -2.1727 -2.0254 -5.7618 -1.8546 1.9154 -3.697 -0.23983 0.098751 0.80668
74 8.2377 -4.9668 -3.9386 -4.8322 -0.75563 -1.1944 4.3263 -2.0546 -1.1225 -0.18449 8.2076 -4.9845 -3.9201 -4.8848 0.59258 -1.1945 -4.2733 -2.1058 -1.1384 -0.027566
75 8.2131 -4.9715 -3.9699 -4.9749 -0.73997 -1.3046 4.2976 -1.8625 -0.89056 -0.16078 8.2252 -5.0148 -3.9723 -5.0558 0.57533 -1.3131 -4.2689 -1.919 -0.90537 -0.054016
76 8.2319 -4.949 -3.9362 -4.8452 -0.75347 -1.2199 4.3422 -2.0673 -1.1149 -0.17281 8.1869 -4.9577 -3.9105 -4.8888 0.58876 -1.2175 -4.2813 -2.1147 -1.1287 -0.039119
77 6.433 -6.5264 -3.9686 -5.2405 0.34847 0.15443 0.53279 1.062 -0.52559 1.474 6.438 -6.5443 -3.9523 -5.2826 -0.48745 0.17157 -0.55071 1.0841 -0.47809 -1.6136
78 8.2442 -4.9687 -3.9431 -4.8392 -0.77007 -1.196 4.3333 -2.0491 -1.1143 -0.2026 8.1991 -4.9774 -3.9175 -4.8832 0.60571 -1.1942 -4.2726 -2.0966 -1.1285 -0.0096684
79 8.2377 -4.9668 -3.9386 -4.8322 -0.75563 -1.1944 4.3263 -2.0546 -1.1225 -0.18449 8.2076 -4.9845 -3.9201 -4.8848 0.59258 -1.1945 -4.2733 -2.1058 -1.1384 -0.027566
80 6.4311 -6.5211 -3.8579 -4.8237 0.31769 0.45472 0.4561 0.68341 -1.0562 1.2719 6.3914 -6.4936 -3.8139 -4.8273 -0.43951 0.47014 -0.46377 0.69676 -1.0109 -1.3825
81 5.9099 -8.863 3.3021 -2.4199 -1.5433 1.3517 -3.8737 0.92969 -0.40183 2.0028 5.8737 -8.8162 3.2416 -2.4328 1.5601 1.3186 3.8654 0.97678 -0.39173 -2.0165
82 5.8791 -8.5515 1.5209 -2.432 -1.6396 1.9373 -3.7514 1.5809 -0.88092 1.9824 5.7617 -8.3859 1.4418 -2.4135 1.6129 1.8695 3.6689 1.6016 -0.85796 -1.9422
83 5.9127 -8.8717 3.3071 -2.4156 -1.5626 1.3756 -3.8776 0.91426 -0.3982 2.0082 5.8765 -8.8249 3.2463 -2.4287 1.58 1.342 3.8697 0.96139 -0.38814 -2.0218
84 6.3705 -6.4576 -3.8443 -4.8673 0.31139 0.38211 0.46196 0.69699 -0.99338 1.2535 6.3669 -6.4665 -3.8222 -4.8981 -0.43686 0.39986 -0.47269 0.71446 -0.95411 -1.3701
85 5.6831 -8.5084 1.853 -1.232 -1.2181 3.149 -4.3838 0.96257 -1.539 1.4658 5.6846 -8.521 1.8058 -1.2584 1.2662 3.136 4.4038 1.0261 -1.5257 -1.4646
86 5.6438 -8.4003 1.8406 -1.2779 -1.0185 2.8454 -4.2521 1.1412 -1.5935 1.4958 5.6056 -8.3527 1.7841 -1.2951 1.0462 2.812 4.2367 1.1984 -1.57 -1.4954
87 5.6113 -8.4629 1.7624 -1.1735 -1.3499 3.4669 -4.2856 0.73436 -1.4575 1.5981 5.6405 -8.5178 1.7228 -1.2061 1.4141 3.4696 4.3316 0.79944 -1.4509 -1.6046
88 5.6498 -8.8196 4.721 -1.3813 -0.88905 1.6598 -4.209 0.042829 -0.70298 1.3659 5.6255 -8.7943 4.6818 -1.3984 0.93722 1.635 4.2298 0.096169 -0.67698 -1.4081
89 5.4849 -7.8367 -1.4344 -1.1076 -0.66188 4.8212 -2.7668 0.37554 -1.1757 -0.85144 5.4881 -7.8552 -1.454 -1.1271 0.71635 4.8137 2.7852 0.40072 -1.1662 0.82599
90 4.9668 -7.7567 -1.1036 0.77394 0.43872 5.7007 -2.6137 -0.37738 -0.45847 -4.2309 4.9546 -7.7501 -1.1111 0.75835 -0.34382 5.7034 2.646 -0.37736 -0.48633 4.1355
91 4.989 -7.7834 -1.1053 0.77427 0.43789 5.6976 -2.641 -0.36228 -0.4633 -4.2701 4.9423 -7.7231 -1.1053 0.75322 -0.34104 5.6608 2.6546 -0.35957 -0.48804 4.145
92 4.9491 -7.7393 -1.1084 0.74814 0.4469 5.6977 -2.5819 -0.38461 -0.45263 -4.206 4.979 -7.7987 -1.1252 0.7391 -0.35527 5.7491 2.6369 -0.38811 -0.48429 4.1461
93 4.981 -7.7776 -1.1104 0.74856 0.44382 5.6928 -2.6215 -0.36071 -0.46162 -4.2643 4.9597 -7.7569 -1.1159 0.73161 -0.34911 5.6851 2.6489 -0.36004 -0.48872 4.1606
94 4.9735 -7.7649 -1.1041 0.77466 0.44128 5.699 -2.6213 -0.37284 -0.45993 -4.2415 4.9522 -7.7442 -1.1096 0.75766 -0.34584 5.6915 2.6487 -0.37211 -0.48695 4.1383
95 4.9624 -7.7481 -1.1184 0.75075 0.44488 5.6908 -2.6072 -0.36135 -0.46524 -4.2299 4.9579 -7.7535 -1.1275 0.73639 -0.35127 5.7022 2.6436 -0.36193 -0.49372 4.1408
96 4.951 -7.7405 -1.1077 0.74721 0.43973 5.6962 -2.5879 -0.38094 -0.45415 -4.2145 4.9733 -7.7878 -1.1229 0.7369 -0.34762 5.7386 2.6387 -0.38377 -0.48516 4.1481
97 4.9517 -7.7263 -1.1101 0.79555 0.42957 5.6971 -2.6262 -0.38001 -0.46021 -4.2107 4.9395 -7.7198 -1.1176 0.77995 -0.33411 5.7 2.6584 -0.37981 -0.48798 4.1164
98 4.9619 -7.7541 -1.109 0.74834 0.44404 5.6948 -2.599 -0.37408 -0.45638 -4.2299 4.9698 -7.7791 -1.121 0.73587 -0.35109 5.7207 2.6421 -0.3757 -0.48611 4.1513
99 4.9645 -7.7401 -1.1109 0.79668 0.43481 5.6871 -2.6435 -0.36651 -0.46435 -4.2341 4.9322 -7.7022 -1.1139 0.77783 -0.33839 5.6669 2.6646 -0.36468 -0.49027 4.1225
100 9.7711 0.049682 -1.0154 3.4383 3.7226 -0.43021 3.5519 3.7344 -3.2813 2.6361 9.8237 0.045486 -0.98199 3.5248 -3.7689 -0.32934 -3.6184 3.722 -3.2612 -2.7468
101 9.8882 -0.0039773 -1.0164 3.3748 3.8818 -0.34179 3.6405 3.7475 -3.3189 2.6831 9.7369 -0.0083294 -0.96117 3.3917 -3.8474 -0.23088 -3.6309 3.658 -3.2304 -2.7374
102 9.7766 0.041466 -1.0077 3.4005 3.7286 -0.3896 3.556 3.7466 -3.3035 2.6174 9.8351 0.037264 -0.97459 3.4887 -3.7768 -0.28828 -3.6246 3.7367 -3.286 -2.7299
103 9.8664 0.00565 -1.0138 3.3795 3.8491 -0.35001 3.6226 3.752 -3.3193 2.6691 9.7549 0.0011613 -0.96283 3.4097 -3.8308 -0.24087 -3.628 3.6774 -3.2443 -2.7346
104 10.586 1.2606 -0.13131 1.5066 4.0785 1.0672 1.0108 0.89708 -1.2076 0.18092 10.681 1.2691 -0.093555 1.5787 -4.1087 1.1733 -1.0251 0.89169 -1.1992 -0.2186
105 9.749 0.030532 -1.0145 3.415 3.7055 -0.40469 3.5364 3.7367 -3.2955 2.5872 9.8073 0.026294 -0.98161 3.5028 -3.7538 -0.30416 -3.6048 3.727 -3.2783 -2.6994
106 7.8932 -2.3805 -2.561 5.9274 1.6239 -2.9421 4.5051 0.88606 -2.209 -1.4179 7.7706 -2.3495 -2.4901 5.8719 -1.681 -2.8463 -4.4472 0.83348 -2.2001 1.2524
107 9.7627 0.014578 -1.018 3.4114 3.736 -0.39482 3.5381 3.7401 -3.3011 2.5915 9.787 0.010213 -0.98139 3.4875 -3.7713 -0.29246 -3.594 3.7175 -3.2724 -2.6945
108 9.7347 0.038833 -1.0134 3.4188 3.6851 -0.41345 3.5266 3.7321 -3.2893 2.5793 9.787 0.034648 -0.9801 3.5042 -3.731 -0.31334 -3.5927 3.7202 -3.2702 -2.6896
109 10.348 1.0594 -0.13824 2.0124 3.9705 1.2304 1.3756 1.8538 -0.82029 0.43922 10.438 1.067 -0.098155 2.0934 -3.9909 1.341 -1.4149 1.8622 -0.8098 -0.46197
110 9.7597 0.021405 -1.0155 3.4108 3.7233 -0.39639 3.5451 3.7412 -3.3013 2.5927 9.7839 0.01703 -0.97897 3.4867 -3.7586 -0.2943 -3.601 3.7185 -3.2726 -2.6957
111 10.346 1.0806 -0.13219 2.0095 3.9527 1.2261 1.3777 1.8473 -0.81149 0.44451 10.427 1.0873 -0.092126 2.0883 -3.969 1.335 -1.4157 1.8538 -0.80014 -0.46656
112 9.7449 0.067873 -1.0053 3.4165 3.6791 -0.4183 3.5314 3.735 -3.2851 2.6052 9.8285 0.064055 -0.97517 3.5132 -3.7366 -0.31938 -3.6091 3.7349 -3.276 -2.7241
113 9.7385 0.060116 -1.01 3.4254 3.6783 -0.42541 3.5253 3.7305 -3.2805 2.5986 9.7626 0.055899 -0.974 3.5009 -3.7134 -0.32466 -3.5812 3.7079 -3.2517 -2.7009
114 10.318 1.0864 -0.13711 2.0318 3.9265 1.196 1.3478 1.851 -0.8073 0.42951 10.438 1.0974 -0.097708 2.1182 -3.9574 1.3087 -1.3907 1.8648 -0.79918 -0.45239
115 9.8411 0.0013052 -1.0137 3.3759 3.8258 -0.34819 3.6057 3.7501 -3.3206 2.6437 9.6235 -0.0030852 -0.95228 3.3685 -3.7662 -0.23706 -3.5718 3.6356 -3.2105 -2.6798
116 10.345 1.0964 -0.12822 2.0088 3.947 1.2215 1.364 1.8419 -0.80081 0.44486 10.409 1.1015 -0.088073 2.0841 -3.9566 1.328 -1.3995 1.8455 -0.78808 -0.46567
117 9.7429 0.075358 -1.0025 3.4104 3.6749 -0.41529 3.5266 3.7328 -3.2829 2.6053 9.7889 0.071361 -0.9686 3.4935 -3.718 -0.31521 -3.5905 3.7185 -3.2613 -2.7136
118 10.351 1.1045 -0.12466 2.0039 3.9424 1.2255 1.373 1.839 -0.79838 0.45168 10.401 1.1083 -0.084422 2.0765 -3.947 1.3303 -1.4069 1.8402 -0.7846 -0.47201
119 9.7467 0.048233 -1.0128 3.4253 3.6939 -0.42021 3.535 3.7326 -3.2849 2.6027 9.7314 0.043769 -0.97268 3.4869 -3.714 -0.31775 -3.5764 3.6949 -3.2429 -2.6944
120 9.7252 0.067508 -1.01 3.4313 3.6601 -0.43589 3.5125 3.7249 -3.2732 2.5874 9.7942 0.063643 -0.97858 3.5226 -3.7122 -0.33721 -3.5847 3.7195 -3.2595 -2.7018
121 9.7298 0.072649 -1.0075 3.4275 3.6644 -0.43311 3.5126 3.728 -3.2744 2.5936 9.8038 0.068865 -0.97654 3.5206 -3.7183 -0.33446 -3.5867 3.7245 -3.2623 -2.7093
122 10.414 1.1215 -0.10714 1.9576 3.986 1.2751 1.4219 1.8225 -0.78985 0.47125 10.369 1.115 -0.065759 2.0121 -3.9538 1.369 -1.4423 1.8065 -0.76871 -0.48701
123 4.9692 -7.5729 -0.99788 0.57678 1.1412 4.5901 -2.4078 0.35599 -0.68341 -4.4017 4.9006 -7.4772 -0.98602 0.55692 -1.0778 4.5445 2.3921 0.35756 -0.70335 4.2308
124 10.776 -0.32349 -1.0453 -6.1143 2.3985 0.78571 1.7335 -0.087777 -0.89774 -3.6971 10.814 -0.34977 -1.0256 -6.1676 -2.4825 0.82768 -1.7606 -0.13968 -0.93751 3.708
125 7.2358 -4.2993 -3.3912 -6.1602 2.2982 -2.9143 6.6835 -3.7852 0.40301 1.9618 7.0819 -4.2354 -3.2856 -6.0501 -2.4344 -2.7757 -6.4971 -3.7771 0.39859 -2.026
126 5.2891 -5.865 -3.5463 -7.1278 3.5314 -1.9874 2.8596 -0.0054831 1.8667 3.7724 5.2717 -5.8484 -3.4864 -7.0933 -3.6944 -1.8795 -2.8653 0.012905 1.9437 -3.8072
127 5.3276 -5.8961 -3.514 -6.9697 3.5643 -1.836 2.8864 -0.24888 1.5933 3.7884 5.31 -5.8792 -3.4527 -6.932 -3.7217 -1.725 -2.8888 -0.23422 1.6657 -3.8194
128 4.6338 -6.3878 -3.293 -6.8159 4.1419 -0.80606 1.2647 2.2146 2.5773 3.2316 4.6228 -6.3666 -3.2355 -6.769 -4.2558 -0.70605 -1.316 2.207 2.6395 -3.2021
129 4.6328 -6.389 -3.3249 -6.9407 4.1446 -0.91028 1.2537 2.3749 2.7755 3.2647 4.6303 -6.3796 -3.2739 -6.9089 -4.2707 -0.81358 -1.3093 2.3756 2.8482 -3.2445
130 4.6338 -6.3878 -3.293 -6.8159 4.1419 -0.80606 1.2647 2.2146 2.5773 3.2316 4.6228 -6.3666 -3.2355 -6.769 -4.2558 -0.70605 -1.316 2.207 2.6395 -3.2021
131 4.6353 -6.3986 -3.2934 -6.8068 4.1489 -0.79123 1.2661 2.2173 2.582 3.2135 4.6242 -6.3775 -3.2358 -6.7601 -4.2623 -0.69114 -1.3173 2.2097 2.6441 -3.1837
132 4.6337 -6.3788 -3.1038 -6.1229 4.1152 -0.31678 1.1534 1.5703 1.7249 2.9162 4.5989 -6.3247 -3.0293 -6.0393 -4.1845 -0.21466 -1.1874 1.5511 1.7673 -2.8398
133 4.6189 -6.3525 -3.1058 -6.1453 4.0853 -0.35197 1.1423 1.5874 1.7384 2.8941 4.5342 -6.2299 -2.9986 -5.9958 -4.1104 -0.24765 -1.1639 1.5511 1.7608 -2.7872
134 4.6189 -6.3525 -3.1058 -6.1453 4.0853 -0.35197 1.1423 1.5874 1.7384 2.8941 4.5342 -6.2299 -2.9986 -5.9958 -4.1104 -0.24765 -1.1639 1.5511 1.7608 -2.7872
135 4.6082 -6.3389 -3.0983 -6.1218 4.0899 -0.35905 1.1282 1.5858 1.7271 2.8668 4.5551 -6.2597 -3.0121 -6.0142 -4.1433 -0.2563 -1.158 1.5605 1.7617 -2.7793
136 4.069 -7.7844 -0.80293 -0.75069 2.3919 5.6431 -0.43385 -3.0807 1.9106 -2.208 4.0194 -7.6923 -0.78849 -0.72066 -2.2477 5.6472 0.49888 -3.0518 1.8763 2.185
137 4.0557 -7.7602 -0.81636 -0.72128 2.3942 5.6684 -0.42362 -3.0844 1.8967 -2.1581 4.0568 -7.7651 -0.81155 -0.70006 -2.2773 5.744 0.49511 -3.0939 1.8864 2.1635
138 4.0577 -7.7651 -0.80279 -0.74429 2.3809 5.6434 -0.42905 -3.0785 1.9047 -2.193 4.0246 -7.7044 -0.79157 -0.71729 -2.2458 5.6702 0.49618 -3.062 1.8781 2.1792
139 4.0701 -7.7856 -0.80317 -0.75063 2.4004 5.6394 -0.42977 -3.0758 1.909 -2.2043 4.0205 -7.6935 -0.78862 -0.72053 -2.2564 5.6436 0.49472 -3.0468 1.8748 2.1812
140 4.2221 -8.7056 5.5209 -1.1322 2.3068 2.0448 -1.8051 -3.1891 2.3094 0.066755 4.1688 -8.5964 5.4527 -1.1015 -2.1812 2.0862 1.8671 -3.1269 2.2822 -0.094234
141 4.2204 -8.669 5.1922 -1.1268 2.3136 2.2282 -1.8 -3.1016 2.227 0.086212 4.1672 -8.5599 5.1234 -1.0959 -2.1864 2.2707 1.8623 -3.0382 2.1986 -0.11086
142 4.2204 -8.669 5.1922 -1.1268 2.3136 2.2282 -1.8 -3.1016 2.227 0.086212 4.1672 -8.5599 5.1234 -1.0959 -2.1864 2.2707 1.8623 -3.0382 2.1986 -0.11086
143 4.2131 -8.6555 5.1885 -1.1215 2.3135 2.2243 -1.7897 -3.0951 2.2197 0.085881 4.1769 -8.5812 5.1406 -1.0951 -2.1953 2.2761 1.8594 -3.0442 2.2003 -0.11097
144 3.9277 -7.2443 -2.1848 -0.94161 3.5664 5.8587 -0.12179 -2.4163 1.3481 -1.1513 3.9632 -7.317 -2.1663 -0.91455 -3.4759 6.0166 0.1933 -2.4586 1.3721 1.1979
145 3.93 -7.2483 -2.1873 -0.9571 3.5671 5.8503 -0.12204 -2.4066 1.3468 -1.1648 3.9428 -7.2789 -2.1564 -0.92487 -3.4572 5.9736 0.19239 -2.4347 1.3629 1.2044
146 3.6686 -6.7628 -1.6006 0.70904 4.6538 6.1024 0.63823 -2.8671 0.47971 0.3226 3.637 -6.7102 -1.5326 0.7659 -4.4764 6.1934 -0.56552 -2.8724 0.50196 -0.31443
147 3.6568 -6.7475 -1.5946 0.69585 4.6292 6.1042 0.65778 -2.856 0.46525 0.32405 3.6611 -6.761 -1.542 0.76009 -4.4963 6.2554 -0.59059 -2.8898 0.49239 -0.3196
148 3.6596 -6.7522 -1.5943 0.6936 4.6343 6.1035 0.65797 -2.8571 0.46506 0.3213 3.659 -6.7568 -1.5396 0.75689 -4.4955 6.2465 -0.58997 -2.887 0.49157 -0.31662
149 3.6538 -6.7433 -1.5899 0.69214 4.6263 6.0976 0.66361 -2.8536 0.46407 0.32159 3.6475 -6.7374 -1.5328 0.75414 -4.4808 6.2308 -0.5948 -2.8792 0.48982 -0.31651
150 3.6416 -6.7114 -1.5945 0.72279 4.6171 6.0656 0.61497 -2.8548 0.48665 0.32107 3.6353 -6.7056 -1.5377 0.78449 -4.471 6.1989 -0.54671 -2.8796 0.51211 -0.31341
151 3.6592 -6.7407 -1.6019 0.72226 4.6476 6.0792 0.61569 -2.8614 0.4871 0.32025 3.6276 -6.6883 -1.534 0.7789 -4.4703 6.1703 -0.54355 -2.8663 0.50915 -0.31082
152 3.6355 -6.7017 -1.592 0.72213 4.6039 6.0641 0.61546 -2.8541 0.48656 0.32209 3.6041 -6.6497 -1.5247 0.77827 -4.427 6.1543 -0.5434 -2.859 0.50843 -0.31218
153 9.0496 1.4716 -0.56179 4.4801 3.4853 -2.4861 2.4301 3.8688 -2.3706 1.1539 9.0405 1.4757 -0.52744 4.5352 -3.5083 -2.3978 -2.4848 3.8391 -2.3332 -1.1152
154 9.0792 1.4933 -0.5489 4.4576 3.5067 -2.468 2.4518 3.8823 -2.3812 1.1826 9.1036 1.5029 -0.51629 4.5296 -3.5423 -2.3877 -2.516 3.8666 -2.352 -1.1479
155 9.059 1.4748 -0.55853 4.4742 3.4954 -2.481 2.4377 3.8734 -2.3746 1.1591 9.0682 1.4818 -0.52515 4.5385 -3.5254 -2.3971 -2.4975 3.8513 -2.3418 -1.1225
156 7.0521 -0.85703 -2.0747 6.9662 1.329 -5.0527 3.3312 0.98421 -1.208 -2.7527 7.0247 -0.85111 -2.0425 6.9713 -1.4058 -5.0041 -3.3416 0.94547 -1.2283 2.735
157 9.0721 1.4804 -0.55406 4.4675 3.5086 -2.4751 2.4451 3.8818 -2.3802 1.1688 9.0813 1.4875 -0.52058 4.532 -3.5385 -2.3909 -2.5049 3.8598 -2.3472 -1.132
158 9.026 1.4475 -0.57076 4.4863 3.4656 -2.4904 2.4236 3.8547 -2.3677 1.1112 8.9943 1.448 -0.5351 4.5295 -3.4802 -2.3964 -2.472 3.8156 -2.3251 -1.0699
159 10.026 2.6108 0.038138 1.7699 3.8119 -1.0368 -0.75514 0.47976 -0.43399 -1.1362 10.086 2.6332 0.069179 1.8328 -3.8474 -0.96354 0.75838 0.48362 -0.41611 1.1843
160 10.031 2.6347 0.041798 1.7187 3.797 -1.0264 -0.78601 0.4417 -0.437 -1.1072 10.148 2.6724 0.073023 1.7912 -3.8544 -0.95902 0.79457 0.44819 -0.42119 1.1603
161 10.032 2.587 0.012465 1.7637 3.8002 -1.0784 -0.77097 0.46302 -0.47252 -1.1068 10.079 2.6061 0.043183 1.8242 -3.8324 -1.0046 0.77349 0.4663 -0.45396 1.1517
162 10.024 2.6409 0.049817 1.7231 3.7988 -1.0131 -0.77806 0.44826 -0.42553 -1.1175 10.15 2.6812 0.081243 1.7974 -3.8594 -0.94632 0.7873 0.45523 -0.41013 1.1722
163 10.224 2.4762 -0.31748 0.57585 3.7695 -1.4827 -1.1834 -0.84912 -1.9221 -2.6644 10.322 2.5053 -0.29607 0.6225 -3.8563 -1.4314 1.2067 -0.88598 -1.9629 2.698
164 10.045 2.6232 0.041617 1.7567 3.823 -1.0245 -0.80145 0.47794 -0.43464 -1.1369 10.115 2.6487 0.072724 1.8216 -3.8626 -0.9522 0.80596 0.48273 -0.41705 1.186
165 10.253 2.4681 -0.32144 0.57992 3.8022 -1.4842 -1.2189 -0.83386 -1.9416 -2.6844 10.295 2.4838 -0.29829 0.62356 -3.8687 -1.4248 1.2356 -0.86584 -1.972 2.7039
166 10.245 2.4711 -0.31904 0.57548 3.7961 -1.4812 -1.2089 -0.83852 -1.9372 -2.6787 10.301 2.4901 -0.2963 0.61986 -3.8676 -1.4237 1.2274 -0.87165 -1.9701 2.7015
167 10.08 2.6042 0.035506 1.7561 3.8766 -1.0289 -0.8357 0.49925 -0.4682 -1.144 10.051 2.6035 0.066278 1.8035 -3.8783 -0.94614 0.83207 0.49955 -0.44603 1.1812
168 10.077 2.6127 0.038873 1.7509 3.8664 -1.0228 -0.84163 0.49624 -0.46024 -1.1416 10.073 2.6185 0.0697 1.8027 -3.8776 -0.94271 0.84003 0.49776 -0.43925 1.1819
169 10.018 2.6352 0.046492 1.7333 3.7915 -1.0216 -0.76114 0.44678 -0.42048 -1.1245 10.141 2.6746 0.07783 1.8072 -3.8508 -0.95479 0.76975 0.45333 -0.4049 1.1792
170 9.8113 2.736 0.41565 2.6624 3.6995 -0.62085 0.40572 1.7551 0.2771 -0.79514 9.7924 2.7393 0.45121 2.7121 -3.6755 -0.53482 -0.43807 1.7494 0.29469 0.90662
171 10.038 2.6152 0.040296 1.7607 3.8239 -1.0291 -0.78139 0.48029 -0.43799 -1.1385 10.091 2.6361 0.071334 1.8225 -3.857 -0.95506 0.78441 0.48411 -0.41975 1.1857
172 10.028 2.5758 0.013791 1.7955 3.8131 -1.0769 -0.75943 0.48411 -0.45885 -1.1411 10.044 2.5868 0.044534 1.8506 -3.8329 -0.99967 0.75921 0.48583 -0.43915 1.1836
173 9.073 1.4858 -0.54984 4.4537 3.5069 -2.4631 2.4453 3.8823 -2.383 1.1719 9.0639 1.4899 -0.5153 4.509 -3.5295 -2.3741 -2.5001 3.8525 -2.3453 -1.1329
174 9.0699 1.4914 -0.54846 4.4496 3.4976 -2.4609 2.4451 3.8786 -2.381 1.1757 8.9877 1.4835 -0.50984 4.4684 -3.4917 -2.3529 -2.4797 3.8178 -2.3243 -1.1277
175 9.0568 1.4771 -0.55428 4.4595 3.4919 -2.4674 2.4339 3.8776 -2.3803 1.1569 9.0477 1.4812 -0.51984 4.5146 -3.5146 -2.3788 -2.4887 3.8479 -2.3429 -1.118
176 9.0466 1.5159 -0.55521 4.4579 3.4424 -2.4738 2.4083 3.8477 -2.3511 1.2008 8.9026 1.4974 -0.51349 4.4451 -3.413 -2.3508 -2.426 3.7616 -2.279 -1.1453
177 10.319 1.0049 -0.9327 -5.7736 2.881 -1.8012 0.40193 0.89896 -1.8232 -6.4651 10.343 0.99489 -0.91964 -5.8143 -3.0112 -1.7683 -0.443 0.86777 -1.8973 6.5607
178 10.347 1.0078 -0.92989 -5.7724 2.892 -1.7913 0.39991 0.93198 -1.8042 -6.4958 10.324 0.99325 -0.91261 -5.7869 -3.0084 -1.7504 -0.43934 0.89685 -1.87 6.5623
179 10.342 1.0125 -0.94837 -5.9324 2.884 -1.9459 0.43867 0.33841 -2.6396 -6.4361 10.333 0.99938 -0.93278 -5.9588 -3.0112 -1.911 -0.4774 0.29061 -2.7282 6.5042
180 10.497 1.1021 -0.97413 -5.6133 2.747 -2.0849 0.13548 0.49229 -2.7743 -6.3354 10.54 1.0937 -0.96605 -5.6651 -2.8882 -2.067 -0.17195 0.45133 -2.8789 6.4241
181 10.318 0.97171 -0.94549 -5.7862 2.9107 -1.814 0.41534 0.91224 -1.8092 -6.4682 10.279 0.95584 -0.92657 -5.7915 -3.0233 -1.7698 -0.45394 0.87568 -1.8718 6.5246
182 10.342 1.0125 -0.94837 -5.9324 2.884 -1.9459 0.43867 0.33841 -2.6396 -6.4361 10.333 0.99938 -0.93278 -5.9588 -3.0112 -1.911 -0.4774 0.29061 -2.7282 6.5042
183 10.319 1.0049 -0.9327 -5.7736 2.881 -1.8012 0.40193 0.89896 -1.8232 -6.4651 10.343 0.99489 -0.91964 -5.8143 -3.0112 -1.7683 -0.443 0.86777 -1.8973 6.5607
184 10.325 1.005 -0.9323 -5.7732 2.8836 -1.7989 0.40122 0.90746 -1.8172 -6.4708 10.339 0.99404 -0.91835 -5.8084 -3.011 -1.7644 -0.44196 0.87548 -1.8895 6.5603
185 10.324 1.0095 -0.95013 -5.9288 2.876 -1.9488 0.44055 0.32997 -2.6328 -6.407 10.347 0.99963 -0.93757 -5.9741 -3.0128 -1.92 -0.48065 0.28322 -2.7298 6.4955
186 10.318 0.97171 -0.94549 -5.7862 2.9107 -1.814 0.41534 0.91224 -1.8092 -6.4682 10.279 0.95584 -0.92657 -5.7915 -3.0233 -1.7698 -0.45394 0.87568 -1.8718 6.5246
187 10.522 1.1041 -0.95411 -5.4591 2.762 -1.933 0.099128 1.0753 -1.9614 -6.4289 10.525 1.0915 -0.94195 -5.4858 -2.886 -1.9036 -0.13615 1.047 -2.0346 6.5014
188 4.0892 -5.1286 -3.2952 -7.0281 4.8626 -4.0175 0.14697 3.6041 2.2363 0.51064 4.0127 -5.0212 -3.1941 -6.8683 -4.9594 -3.8368 -0.22733 3.5543 2.2463 -0.42218
189 4.0892 -5.1286 -3.2952 -7.0281 4.8626 -4.0175 0.14697 3.6041 2.2363 0.51064 4.0127 -5.0212 -3.1941 -6.8683 -4.9594 -3.8368 -0.22733 3.5543 2.2463 -0.42218
190 4.0225 -5.05 -3.2698 -7.012 4.7705 -4.0223 0.17248 3.6348 2.312 0.48861 4.0187 -5.0337 -3.2273 -6.9775 -4.9571 -3.9132 -0.25715 3.6489 2.3619 -0.41054
191 3.5135 -6.7059 -1.5342 0.62978 4.7056 5.8748 0.82663 -2.9682 0.43703 0.31176 3.4944 -6.6738 -1.471 0.69007 -4.5439 5.9888 -0.75379 -2.9846 0.46361 -0.30356
192 3.4956 -6.6734 -1.5234 0.62463 4.6763 5.8506 0.82611 -2.9564 0.43491 0.30831 3.4665 -6.6225 -1.4564 0.68262 -4.5024 5.9468 -0.75132 -2.9644 0.46002 -0.2994
193 3.6557 -7.7593 6.3948 0.28753 3.9967 0.95541 -0.62156 -3.0521 1.229 1.6426 3.6702 -7.7862 6.4561 0.33794 -3.9447 1.0648 0.68936 -3.0496 1.2573 -1.7334
194 3.4979 -6.6464 -1.6412 0.63056 4.8122 5.8394 0.80825 -2.8339 0.38281 0.40756 3.4549 -6.5692 -1.5648 0.68722 -4.6188 5.9155 -0.733 -2.8318 0.40839 -0.39074
195 3.4939 -6.6412 -1.6392 0.62815 4.7941 5.8459 0.80662 -2.8393 0.38292 0.40478 3.4509 -6.5643 -1.563 0.68469 -4.6007 5.9217 -0.7312 -2.8372 0.40843 -0.38804
196 3.2054 -6.2895 -1.0991 1.5956 4.7883 5.9133 1.653 -2.5166 0.72457 0.58958 3.178 -6.2427 -1.0305 1.6391 -4.5837 6.0151 -1.5814 -2.5394 0.75216 -0.49707
197 3.1786 -6.2116 -1.0925 1.6 4.8236 5.7483 1.5313 -2.5217 0.76403 0.37788 3.1164 -6.0965 -1.0126 1.625 -4.5704 5.785 -1.444 -2.5157 0.78193 -0.27161
198 3.1559 -6.1698 -1.086 1.5903 4.776 5.7252 1.5189 -2.5129 0.76027 0.37707 3.1373 -6.1401 -1.0208 1.6376 -4.5875 5.8415 -1.4519 -2.5419 0.78886 -0.27506
199 5.6811 -0.086313 -2.8959 8.106 -1.4414 -6.084 -0.3537 -1.2626 2.2374 -1.5674 5.6529 -0.073545 -2.8878 8.0673 1.3754 -6.1124 0.3471 -1.2421 2.207 1.5934
200 5.6909 -0.087191 -2.9006 8.1161 -1.439 -6.0937 -0.35021 -1.2708 2.2454 -1.57 5.6437 -0.074148 -2.8827 8.0503 1.3684 -6.1015 0.34254 -1.246 2.2076 1.5908
201 5.6853 -0.086721 -2.8979 8.1103 -1.4403 -6.0882 -0.35224 -1.2661 2.2408 -1.5686 5.6485 -0.073829 -2.8853 8.0592 1.3722 -6.1072 0.34514 -1.2436 2.207 1.5922
202 5.6811 -0.086313 -2.8959 8.106 -1.4414 -6.084 -0.3537 -1.2626 2.2374 -1.5674 5.6529 -0.073545 -2.8878 8.0673 1.3754 -6.1124 0.3471 -1.2421 2.207 1.5934
203 5.6811 -0.086313 -2.8959 8.106 -1.4414 -6.084 -0.3537 -1.2626 2.2374 -1.5674 5.6529 -0.073545 -2.8878 8.0673 1.3754 -6.1124 0.3471 -1.2421 2.207 1.5934
204 5.6935 -0.087079 -2.9019 8.1194 -1.4406 -6.0958 -0.3505 -1.2711 2.2461 -1.5711 5.6463 -0.074027 -2.884 8.0535 1.3699 -6.1036 0.34282 -1.2463 2.2082 1.5918
205 9.3704 4.0149 -0.56283 1.903 1.9197 -1.7482 -3.9003 -1.9406 1.7883 1.1628 9.4084 4.0496 -0.55624 1.935 -1.9275 -1.7321 3.9429 -1.9038 1.8352 -1.1834
206 9.379 3.9933 -0.5866 1.9156 1.9198 -1.7878 -3.9207 -1.952 1.7718 1.1871 9.4231 4.0306 -0.58051 1.949 -1.9299 -1.7732 3.966 -1.9163 1.8202 -1.2093
207 9.0558 4.2202 -0.10305 2.952 1.6297 -1.2749 -2.5149 -0.55746 2.6442 1.3911 9.0615 4.2427 -0.089953 2.9771 -1.5945 -1.2506 2.5094 -0.51993 2.6791 -1.3175
208 9.4035 4.002 -0.58422 1.9062 1.9509 -1.7782 -3.9674 -1.9513 1.7721 1.1964 9.3177 3.9837 -0.57004 1.9132 -1.9341 -1.7388 3.9578 -1.8888 1.7959 -1.2019
209 9.3991 4.0181 -0.56362 1.9167 1.9642 -1.7433 -3.9568 -1.9306 1.7974 1.1634 9.378 4.0275 -0.55333 1.937 -1.9594 -1.7156 3.9747 -1.8813 1.8332 -1.1761
210 9.3568 3.9738 -0.59617 1.9476 1.9018 -1.8073 -3.89 -1.9417 1.7718 1.1763 9.3738 3.9994 -0.58848 1.9753 -1.9066 -1.788 3.9236 -1.9008 1.8147 -1.1947
211 9.3839 4.0088 -0.57017 1.9241 1.9377 -1.7591 -3.9241 -1.9358 1.7937 1.1624 9.458 4.059 -0.56567 1.9639 -1.953 -1.7495 3.9821 -1.906 1.8478 -1.1873
212 9.6161 3.8276 -0.96027 0.65266 1.9755 -2.1956 -4.3224 -3.1997 0.22515 -0.39744 9.6505 3.8573 -0.96116 0.66833 -2.0238 -2.1924 4.3766 -3.1972 0.22128 0.34782
213 9.3719 4.0215 -0.5573 1.8961 1.9224 -1.7385 -3.8996 -1.9405 1.7898 1.1593 9.4321 4.0657 -0.55198 1.9326 -1.9345 -1.7263 3.9517 -1.9082 1.841 -1.1828
214 9.3867 4.0246 -0.55743 1.8942 1.9431 -1.7358 -3.9275 -1.9402 1.7911 1.1661 9.4564 4.0729 -0.55257 1.9329 -1.9572 -1.725 3.9838 -1.9095 1.8445 -1.1907
215 9.5986 3.8125 -0.96859 0.69132 1.9531 -2.2159 -4.2877 -3.1935 0.24321 -0.40682 9.685 3.8628 -0.9748 0.71082 -2.0122 -2.2251 4.3649 -3.2085 0.24055 0.35972
216 9.0817 4.2236 -0.10344 2.9688 1.6611 -1.2681 -2.5735 -0.54114 2.6495 1.3855 9.0584 4.2327 -0.089909 2.9846 -1.6204 -1.2394 2.5599 -0.50131 2.676 -1.3074
217 9.3785 4.0042 -0.57238 1.9307 1.9319 -1.7628 -3.9209 -1.933 1.7935 1.1573 9.4436 4.0505 -0.56739 1.9687 -1.9454 -1.7516 3.975 -1.9014 1.8457 -1.181
218 9.6062 3.8284 -0.95741 0.65161 1.9614 -2.1927 -4.3041 -3.1991 0.22769 -0.40681 9.6406 3.858 -0.95836 0.66712 -2.0096 -2.1897 4.3582 -3.1969 0.22357 0.35727
219 9.6298 3.8054 -0.9881 0.65131 1.9733 -2.2406 -4.3488 -3.2266 0.19807 -0.39177 9.6989 3.8487 -0.99274 0.66932 -2.0304 -2.2459 4.4189 -3.2359 0.19459 0.34249
220 9.0668 4.2188 -0.1055 2.9656 1.6417 -1.2752 -2.5445 -0.54684 2.645 1.3867 9.0316 4.2222 -0.091933 2.9773 -1.5992 -1.2451 2.5275 -0.50666 2.6679 -1.307
221 9.5981 3.7812 -1.0072 0.62352 1.9186 -2.279 -4.2998 -3.2561 0.1568 -0.36718 9.5902 3.7939 -1.0043 0.63574 -1.9613 -2.2675 4.3348 -3.2404 0.15152 0.31381
222 9.0471 4.2094 -0.11114 2.9613 1.6153 -1.289 -2.5059 -0.55119 2.629 1.3985 8.9981 4.2063 -0.097532 2.9682 -1.5709 -1.2574 2.4852 -0.51058 2.6477 -1.3173
223 9.6057 3.8105 -0.97186 0.69404 1.9601 -2.2196 -4.3041 -3.1911 0.23861 -0.39882 9.6922 3.8608 -0.97807 0.71362 -2.0194 -2.2287 4.3815 -3.2059 0.23605 0.35161
224 9.6079 3.8109 -0.97281 0.68742 1.9609 -2.221 -4.3064 -3.1969 0.23631 -0.39941 9.6767 3.8543 -0.97726 0.70566 -2.0166 -2.2261 4.3759 -3.206 0.23326 0.35144
225 9.3883 4.0074 -0.56949 1.9337 1.953 -1.7553 -3.9416 -1.9253 1.7971 1.16 9.3233 3.9979 -0.55659 1.9447 -1.9394 -1.7196 3.9407 -1.8674 1.8242 -1.1671
226 9.5943 3.7825 -1.0053 0.63174 1.9117 -2.277 -4.2893 -3.2501 0.16016 -0.36999 9.6056 3.8028 -1.0044 0.64517 -1.9582 -2.2702 4.3329 -3.241 0.15512 0.31734
227 9.3328 3.9967 -0.56594 1.9535 1.8804 -1.7629 -3.827 -1.9086 1.7926 1.1474 9.364 4.0284 -0.55904 1.9839 -1.8864 -1.7462 3.866 -1.871 1.8375 -1.1661
228 9.3807 4.0193 -0.56042 1.9141 1.9322 -1.7424 -3.9166 -1.9315 1.7968 1.1538 9.3895 4.0414 -0.55204 1.9403 -1.9336 -1.7207 3.9469 -1.8887 1.8381 -1.1704
229 9.6672 3.8348 -0.96793 0.64393 2.028 -2.1966 -4.417 -3.2014 0.21473 -0.40405 9.6025 3.8251 -0.95881 0.65328 -2.0555 -2.1704 4.4257 -3.1658 0.20884 0.35072
230 9.3598 3.9771 -0.59734 1.9354 1.8942 -1.811 -3.8837 -1.9513 1.7656 1.1847 9.4039 4.0143 -0.59142 1.9688 -1.9046 -1.797 3.9286 -1.9161 1.8138 -1.207
231 9.3491 3.9629 -0.60965 1.9189 1.8791 -1.8325 -3.8713 -1.9539 1.7273 1.2273 9.2845 3.9537 -0.5969 1.9295 -1.8686 -1.7978 3.8708 -1.8966 1.755 -1.2367
232 9.608 3.8171 -0.96661 0.68028 1.9658 -2.2089 -4.3094 -3.1928 0.23523 -0.40144 9.6769 3.8604 -0.97099 0.69849 -2.0213 -2.2138 4.379 -3.2017 0.23219 0.35347
233 9.3384 4.0015 -0.56284 1.9384 1.8923 -1.7548 -3.8425 -1.9175 1.7922 1.1458 9.3174 4.0107 -0.5528 1.9579 -1.8878 -1.7282 3.8602 -1.8693 1.8271 -1.1584
234 9.3481 4.0053 -0.56234 1.9334 1.9014 -1.7525 -3.8579 -1.9175 1.7913 1.1547 9.3146 4.0091 -0.55152 1.9504 -1.8943 -1.7235 3.8703 -1.8666 1.8238 -1.1656
235 9.3588 3.9937 -0.57457 1.9579 1.9134 -1.771 -3.8844 -1.9182 1.7977 1.1468 9.3756 4.0193 -0.56671 1.9857 -1.9168 -1.7512 3.9178 -1.8772 1.8402 -1.1639
236 9.6101 3.8304 -0.95716 0.64929 1.9637 -2.1914 -4.31 -3.1993 0.22599 -0.40699 9.6373 3.8572 -0.9574 0.6643 -2.0104 -2.1868 4.3608 -3.1947 0.22169 0.35713
237 9.3548 3.9963 -0.57048 1.9489 1.9156 -1.764 -3.8792 -1.9217 1.7982 1.1455 9.3447 4.0103 -0.56099 1.9709 -1.9135 -1.7391 3.9015 -1.8754 1.8354 -1.1593
238 9.9354 3.3966 -1.4349 -1.2253 1.0289 -2.5903 -4.676 -2.2898 0.86706 -1.9077 9.9888 3.4187 -1.4601 -1.2576 -1.0876 -2.6291 4.7258 -2.2671 0.86103 1.9137
239 9.3892 4.0058 -0.57228 1.938 1.9484 -1.7618 -3.9363 -1.9284 1.8001 1.1602 9.3681 4.0151 -0.56202 1.9582 -1.9439 -1.7344 3.954 -1.8793 1.8358 -1.1727
240 9.3496 4.0185 -0.55391 1.9062 1.8957 -1.7363 -3.8605 -1.9269 1.7874 1.1515 9.3286 4.0277 -0.54392 1.9258 -1.891 -1.7097 3.8783 -1.8785 1.8224 -1.1645
241 9.3774 4.0058 -0.56979 1.9338 1.9363 -1.7597 -3.9153 -1.9319 1.8026 1.1534 9.3564 4.0151 -0.55959 1.9539 -1.9318 -1.7324 3.933 -1.883 1.8382 -1.1659
242 9.0552 4.2272 -0.098083 2.9364 1.6195 -1.266 -2.5136 -0.55455 2.6354 1.4006 8.9697 4.207 -0.084187 2.9316 -1.5682 -1.2294 2.4826 -0.51183 2.6434 -1.3139
243 9.3751 4.0225 -0.56087 1.8883 1.91 -1.7433 -3.9051 -1.9391 1.7747 1.1756 9.3542 4.0318 -0.55085 1.9081 -1.9057 -1.7166 3.9229 -1.8903 1.8102 -1.1892
244 9.0463 4.2158 -0.10408 2.9521 1.6215 -1.276 -2.5083 -0.55538 2.6384 1.3891 8.899 4.1667 -0.089494 2.9268 -1.5595 -1.2307 2.4605 -0.50915 2.6281 -1.2935
245 9.3377 4.0039 -0.56303 1.9256 1.8812 -1.7546 -3.8441 -1.921 1.7858 1.1552 9.29 4.0016 -0.55147 1.9395 -1.8714 -1.7232 3.8505 -1.8673 1.8154 -1.1645
246 9.0683 4.2203 -0.10275 2.9659 1.6563 -1.2691 -2.5507 -0.54883 2.6531 1.3778 8.859 4.1424 -0.087413 2.9204 -1.5824 -1.2148 2.4849 -0.49884 2.6245 -1.273
247 9.3615 3.9929 -0.57619 1.9549 1.9182 -1.7727 -3.8933 -1.9258 1.8023 1.1416 9.328 3.9969 -0.56529 1.9721 -1.9114 -1.7435 3.9057 -1.8746 1.835 -1.1525
248 9.0518 4.2077 -0.11213 2.959 1.6283 -1.289 -2.5216 -0.55484 2.6347 1.4021 8.9664 4.1877 -0.098053 2.9541 -1.5774 -1.252 2.4907 -0.51197 2.6428 -1.3153
249 9.7329 2.2456 -0.99417 -4.9217 1.3351 -2.2739 -2.1405 -1.9333 -2.1255 -4.8226 9.6712 2.2328 -0.98932 -4.941 -1.4169 -2.2692 2.1205 -1.9377 -2.1888 4.838
250 9.8076 2.3173 -0.94119 -4.7183 1.301 -2.0564 -2.188 -1.2412 -1.2005 -4.9109 9.5896 2.2671 -0.9215 -4.6591 -1.3518 -2.0171 2.1314 -1.2146 -1.2275 4.8546
251 10.211 2.5346 -1.1825 -3.2919 1.3087 -3.0807 -2.4058 -1.2938 -0.73035 -4.4462 10.167 2.5231 -1.1839 -3.3105 -1.3905 -3.0826 2.3885 -1.2906 -0.7743 4.4736
252 3.2142 -3.9607 -3.4879 -6.745 3.2802 -4.8404 -2.3643 2.8104 4.1284 1.3023 3.1971 -3.933 -3.4561 -6.7214 -3.4483 -4.7662 2.2766 2.8591 4.1813 -1.237
253 3.228 -3.9768 -3.497 -6.7524 3.2995 -4.8485 -2.378 2.805 4.1252 1.3093 3.1945 -3.9289 -3.4474 -6.6944 -3.4501 -4.7495 2.2785 2.8393 4.1569 -1.2369
254 3.1933 -3.9359 -3.4724 -6.7275 3.249 -4.8228 -2.3453 2.8101 4.1209 1.2859 3.2015 -3.9394 -3.4682 -6.7573 -3.4438 -4.7869 2.2758 2.881 4.2063 -1.2311
255 3.1946 -3.938 -3.4752 -6.7349 3.2565 -4.8301 -2.344 2.8204 4.1361 1.2929 3.1998 -3.9378 -3.4676 -6.7584 -3.4484 -4.7896 2.2721 2.8888 4.2179 -1.2375
256 3.1975 -3.941 -3.4749 -6.7282 3.2583 -4.826 -2.3483 2.8097 4.1229 1.2893 3.1993 -3.9366 -3.4636 -6.7444 -3.4463 -4.7803 2.2742 2.875 4.2 -1.2319
257 2.9309 -5.8963 -0.68482 1.2527 4.5327 5.5049 2.2126 -2.3598 0.57577 0.44662 2.8699 -5.7837 -0.60577 1.275 -4.2886 5.5376 -2.1281 -2.3618 0.59123 -0.3629
258 2.9134 -6.495 7.6074 0.85526 4.509 -0.82241 0.86017 -1.4642 1.1285 1.8244 2.937 -6.5512 7.7381 0.90762 -4.492 -0.70533 -0.85099 -1.4835 1.1708 -1.8719
259 2.9184 -6.5028 7.5924 0.85855 4.5193 -0.81038 0.86094 -1.4622 1.1261 1.8319 2.9345 -6.5422 7.7031 0.9087 -4.4907 -0.69102 -0.84968 -1.4776 1.1653 -1.8744
260 2.9212 -6.509 7.604 0.85919 4.5289 -0.81533 0.86388 -1.4679 1.1311 1.8322 2.9337 -6.5402 7.7055 0.9083 -4.4947 -0.69495 -0.85152 -1.4816 1.169 -1.8726
261 2.916 -6.4993 7.604 0.85688 4.5155 -0.81911 0.86047 -1.4658 1.1296 1.8284 2.9353 -6.5459 7.7235 0.90798 -4.492 -0.70077 -0.85007 -1.483 1.1703 -1.8732
262 2.9149 -6.4976 7.6077 0.85616 4.5131 -0.82204 0.85926 -1.466 1.13 1.8286 2.9357 -6.5476 7.7311 0.9077 -4.4919 -0.70417 -0.84926 -1.4839 1.1712 -1.8744
263 2.914 -6.4957 7.6047 0.85585 4.5104 -0.82078 0.85966 -1.4647 1.1289 1.8262 2.9362 -6.5488 7.7318 0.90781 -4.4913 -0.7033 -0.85009 -1.4834 1.1706 -1.8729
264 2.9363 -6.5371 7.6039 0.86524 4.5659 -0.80329 0.87586 -1.471 1.1328 1.8398 2.9303 -6.5273 7.6576 0.90903 -4.5032 -0.67754 -0.85821 -1.4757 1.1637 -1.8684
265 2.9099 -6.4926 7.6553 0.851 4.5078 -0.85311 0.85785 -1.4779 1.1418 1.8227 2.9384 -6.5599 7.8001 0.90479 -4.4984 -0.73791 -0.84969 -1.5001 1.1863 -1.8743
266 2.9201 -6.5073 7.6075 0.85838 4.5263 -0.81789 0.86385 -1.4679 1.1312 1.8302 2.9344 -6.5428 7.7139 0.90804 -4.495 -0.69806 -0.85201 -1.4826 1.1699 -1.8719
267 2.9138 -6.4954 7.607 0.85572 4.51 -0.8224 0.85834 -1.4654 1.1295 1.828 2.936 -6.5486 7.7342 0.90767 -4.4909 -0.70496 -0.84874 -1.4841 1.1713 -1.8748
268 2.929 -6.5234 7.6012 0.86241 4.5476 -0.80716 0.87223 -1.4691 1.1315 1.8319 2.9324 -6.5344 7.679 0.90891 -4.4994 -0.68408 -0.85731 -1.4784 1.166 -1.8665
269 2.4374 -4.9399 -0.89049 1.426 3.5605 5.3237 1.6635 -2.0976 0.65793 0.65472 2.3972 -4.8681 -0.8318 1.4411 -3.3479 5.37 -1.6037 -2.0967 0.6585 -0.553
270 2.4374 -4.9399 -0.89049 1.426 3.5605 5.3237 1.6635 -2.0976 0.65793 0.65472 2.3972 -4.8681 -0.8318 1.4411 -3.3479 5.37 -1.6037 -2.0967 0.6585 -0.553
271 4.9363 0.4109 -2.515 7.6108 -2.9654 -5.1962 -0.20867 -0.49793 1.4983 -1.4475 4.8855 0.42252 -2.5021 7.5187 2.914 -5.2364 0.18499 -0.46179 1.4293 1.4438
272 8.8552 4.6864 -0.22117 1.1217 0.25902 -1.0273 -3.1107 -1.6128 1.0794 1.4877 8.7883 4.6765 -0.21309 1.1087 -0.22902 -1.024 3.0924 -1.5507 1.082 -1.5238
273 9.4559 3.913 -1.133 -2.0035 -0.45957 -2.1027 -3.9406 -2.0019 0.27975 -1.7479 9.3916 3.8963 -1.144 -2.0428 0.42493 -2.1388 3.9184 -1.9497 0.24093 1.7039
274 8.5035 4.8704 0.23201 2.2208 -0.065933 -0.57086 -1.6653 -0.1977 1.933 1.6984 8.3014 4.7818 0.23736 2.1629 0.12816 -0.5597 1.5962 -0.14988 1.8913 -1.6161
275 9.4636 4.0026 -1.0331 -2.1937 -0.34978 -1.9129 -4.0295 -2.005 0.32726 -1.7723 9.3786 3.9762 -1.0422 -2.2258 0.3184 -1.9436 3.9984 -1.9479 0.28806 1.7261
276 9.1043 4.6547 -0.36439 -0.46209 0.75044 -1.0793 -3.7194 -2.7727 -0.32786 -0.25856 9.1315 4.6908 -0.36333 -0.47463 -0.75805 -1.0901 3.75 -2.7627 -0.3591 0.18116
277 6.6353 3.859 -0.21038 -6.4627 -1.2411 -1.5481 2.851 -4.6547 -3.47 0.45602 6.5625 3.8027 -0.23775 -6.4432 1.1319 -1.5716 -2.7795 -4.6834 -3.4724 -0.53193
278 8.4663 4.9458 0.20464 -4.4125 -3.3166 -0.32278 -1.8854 -0.4475 -1.901 -3.2501 8.2834 4.8266 0.15654 -4.3875 3.2026 -0.42359 1.8601 -0.43182 -1.9197 3.0948
279 1.5354 -1.6522 -2.5851 -7.6672 -1.5371 -3.7406 -1.4608 3.3414 3.1176 1.2246 1.5323 -1.6524 -2.6028 -7.6717 1.3441 -3.7795 1.3936 3.3724 3.1405 -1.2532
280 1.5327 -1.6499 -2.5822 -7.6586 -1.5346 -3.7372 -1.4569 3.3395 3.1172 1.2184 1.5368 -1.6579 -2.6121 -7.6992 1.348 -3.7939 1.3963 3.3863 3.1548 -1.2529
281 1.5277 -1.6457 -2.5771 -7.6434 -1.5298 -3.7317 -1.45 3.3372 3.1189 1.2083 1.5274 -1.649 -2.5995 -7.6619 1.3397 -3.7773 1.3855 3.3741 3.1473 -1.2394
282 1.5321 -1.6494 -2.5818 -7.6576 -1.5339 -3.7372 -1.4561 3.3403 3.1191 1.2187 1.5256 -1.646 -2.5937 -7.6451 1.3381 -3.7676 1.3859 3.3637 3.1349 -1.2446
283 1.5265 -1.6447 -2.5749 -7.6358 -1.5297 -3.7273 -1.4495 3.3317 3.113 1.2041 1.5096 -1.6299 -2.5689 -7.5706 1.3251 -3.7317 1.37 3.3318 3.1069 -1.2216
284 1.5296 -1.6473 -2.5791 -7.6494 -1.5316 -3.734 -1.4527 3.3385 3.1189 1.2132 1.5265 -1.6476 -2.5967 -7.654 1.3389 -3.7728 1.3856 3.3693 3.1416 -1.242
285 1.5195 -1.6368 -2.5678 -7.623 -1.5146 -3.7269 -1.4379 3.3456 3.1365 1.2274 1.5087 -1.6288 -2.5721 -7.589 1.3156 -3.7462 1.3638 3.3595 3.1438 -1.251
286 1.5042 -4.1641 9.3126 -0.32226 1.3458 -2.4755 2.2332 0.50237 -0.32545 -2.4129 1.5149 -4.1874 9.3749 -0.3061 -1.3407 -2.4585 -2.2191 0.45819 -0.33036 2.4355
287 1.5001 -4.1553 9.3055 -0.32177 1.3335 -2.4762 2.2173 0.49858 -0.32255 -2.3947 1.5218 -4.2091 9.4363 -0.308 -1.338 -2.4775 -2.2193 0.45807 -0.32986 2.4348
288 1.5 -4.1552 9.306 -0.32184 1.3341 -2.4767 2.2183 0.49744 -0.32155 -2.3962 1.5172 -4.1964 9.4086 -0.30714 -1.3347 -2.4706 -2.2136 0.45551 -0.32785 2.429
289 1.4959 -4.1469 9.3058 -0.32181 1.3237 -2.4814 2.2042 0.49006 -0.3154 -2.3807 1.5086 -4.1759 9.3812 -0.30637 -1.3203 -2.4685 -2.193 0.44705 -0.32069 2.406
290 1.4957 -4.1466 9.3068 -0.32185 1.3238 -2.4824 2.204 0.4891 -0.31454 -2.3806 1.5051 -4.1663 9.3614 -0.30573 -1.3175 -2.464 -2.1879 0.44508 -0.31911 2.4005
291 1.4993 -4.1539 9.3069 -0.32191 1.3328 -2.478 2.2166 0.49552 -0.31991 -2.3946 1.5121 -4.183 9.3824 -0.30636 -1.3295 -2.4648 -2.2055 0.4523 -0.32526 2.4203
292 1.4875 -4.1293 9.2941 -0.32138 1.3006 -2.4837 2.1785 0.47697 -0.30487 -2.3534 1.4888 -4.1267 9.298 -0.30389 -1.2871 -2.4526 -2.1506 0.43109 -0.30772 2.3599
293 1.5016 -4.1581 9.3023 -0.3217 1.3374 -2.4725 2.2238 0.50149 -0.32505 -2.4024 1.518 -4.1972 9.4 -0.3068 -1.3373 -2.465 -2.2181 0.45927 -0.33126 2.4342
294 1.4924 -4.14 9.3055 -0.32186 1.315 -2.4851 2.1935 0.48337 -0.30983 -2.3691 1.5018 -4.1598 9.3599 -0.30585 -1.3086 -2.467 -2.1773 0.43954 -0.31435 2.3887
295 1.5001 -4.155 9.3011 -0.32165 1.3342 -2.4737 2.2196 0.49881 -0.32282 -2.398 1.5119 -4.1812 9.3701 -0.30586 -1.33 -2.4588 -2.2071 0.45525 -0.32799 2.4222
296 1.4981 -4.1545 9.341 -0.32362 1.3349 -2.4994 2.2118 0.48236 -0.30786 -2.3889 1.516 -4.1978 9.4489 -0.30911 -1.336 -2.4949 -2.2078 0.44051 -0.314 2.4219
297 1.4983 -4.1516 9.305 -0.32185 1.3298 -2.4783 2.212 0.49516 -0.31968 -2.3887 1.5064 -4.1678 9.3514 -0.30538 -1.3223 -2.4575 -2.1941 0.45063 -0.324 2.4068
298 1.5028 -4.1594 9.2912 -0.32129 1.3404 -2.4651 2.2292 0.5071 -0.33002 -2.4081 1.4991 -4.1428 9.2642 -0.30228 -1.3226 -2.4248 -2.1941 0.45869 -0.33185 2.4078
299 1.4999 -4.1538 9.293 -0.32123 1.3326 -2.4694 2.2179 0.50212 -0.32584 -2.3953 1.5081 -4.17 9.3393 -0.30471 -1.3252 -2.4485 -2.2001 0.45754 -0.33026 2.4139
300 1.5011 -4.1572 9.305 -0.32183 1.3374 -2.475 2.2226 0.49946 -0.32324 -2.4011 1.5092 -4.1734 9.3515 -0.30526 -1.33 -2.4541 -2.2048 0.45474 -0.3276 2.4195
301 1.4988 -4.151 9.2874 -0.32102 1.3296 -2.4675 2.2159 0.50055 -0.32467 -2.394 1.5001 -4.1483 9.2914 -0.30316 -1.3161 -2.4356 -2.1882 0.45395 -0.32762 2.4016
302 1.4998 -4.1555 9.3156 -0.32235 1.3364 -2.4831 2.2181 0.49375 -0.31811 -2.3959 1.5031 -4.1584 9.3325 -0.30483 -1.3248 -2.4544 -2.1932 0.44764 -0.32137 2.4063
303 1.5018 -4.1597 9.3201 -0.3227 1.3424 -2.4836 2.2242 0.49664 -0.32037 -2.4014 1.5031 -4.1572 9.3247 -0.3047 -1.329 -2.4515 -2.1963 0.44978 -0.32317 2.4088
304 1.4739 -4.0988 9.3143 -0.32456 1.3271 -2.5298 2.1715 0.43317 -0.2647 -2.346 1.4844 -4.1218 9.3781 -0.30879 -1.3218 -2.5143 -2.1563 0.38948 -0.26857 2.3645
305 1.4985 -4.153 9.3158 -0.32239 1.3326 -2.4844 2.2139 0.49103 -0.31586 -2.3915 1.4998 -4.1504 9.3203 -0.30452 -1.3192 -2.4526 -2.1861 0.44439 -0.31868 2.3986
306 1.4797 -4.1106 9.3176 -0.32497 1.343 -2.5252 2.191 0.44342 -0.27311 -2.3662 1.4811 -4.1082 9.3237 -0.3071 -1.3297 -2.4937 -2.1625 0.39693 -0.27534 2.3705
307 8.108 5.7475 0.91779 -2.7402 -2.6467 0.58146 -1.3738 -1.3208 -2.8826 -1.7584 7.9315 5.6171 0.86913 -2.7167 2.5634 0.48722 1.3778 -1.3078 -2.8726 1.5841
308 8.1079 5.7983 0.98286 -2.7895 -2.5382 0.70946 -1.439 -1.2891 -2.8003 -1.7933 7.9864 5.7061 0.93978 -2.783 2.4781 0.61896 1.4515 -1.2851 -2.8108 1.6325
309 7.7471 6.087 1.5106 -1.5277 -2.4252 1.5065 -1.0307 0.15789 -1.146 -0.21905 7.6989 6.0466 1.4796 -1.5434 2.4417 1.4336 1.046 0.17267 -1.1484 0.1248
310 7.693 6.0748 1.5362 -1.5496 -2.3434 1.5632 -1.0319 0.16399 -1.0975 -0.22828 7.7626 6.1273 1.5288 -1.5884 2.3985 1.515 1.0632 0.18126 -1.1165 0.13821
311 7.6804 6.0701 1.5409 -1.5546 -2.324 1.5761 -1.0436 0.16838 -1.09 -0.2343 7.7594 6.1301 1.5355 -1.5952 2.3821 1.5303 1.0764 0.18597 -1.1102 0.14484
312 7.662 6.0861 1.5771 -1.6002 -2.2535 1.6517 -1.092 0.16305 -1.0292 -0.25976 7.7991 6.1926 1.5843 -1.6529 2.3301 1.6202 1.1335 0.1824 -1.0567 0.17423
313 7.7037 6.0835 1.5407 -1.5576 -2.3422 1.5739 -1.0599 0.16441 -1.0942 -0.24198 7.7402 6.1098 1.5267 -1.5897 2.3872 1.519 1.0868 0.18116 -1.1086 0.15142
314 7.6844 6.0706 1.5381 -1.5514 -2.3328 1.5692 -1.0376 0.16689 -1.0942 -0.23107 7.7604 6.1281 1.5319 -1.5914 2.3899 1.5224 1.0698 0.18434 -1.1141 0.14134
315 7.7132 6.0779 1.525 -1.5401 -2.3759 1.5392 -1.0323 0.16222 -1.1187 -0.22442 7.7325 6.0906 1.5074 -1.5689 2.4147 1.4802 1.0567 0.1784 -1.1308 0.1325
316 7.6959 6.0753 1.5354 -1.5497 -2.3461 1.5626 -1.0402 0.16479 -1.0999 -0.23203 7.7507 6.1161 1.525 -1.5855 2.3965 1.5113 1.0696 0.18179 -1.1169 0.14162
317 7.7121 6.0732 1.5207 -1.5355 -2.3797 1.5327 -1.0367 0.16846 -1.1283 -0.22313 7.7174 6.0749 1.5003 -1.5615 2.4139 1.471 1.0592 0.18432 -1.1382 0.13075
318 7.7149 6.0758 1.521 -1.5361 -2.3833 1.5312 -1.0284 0.16261 -1.1255 -0.22127 7.7275 6.0833 1.5021 -1.5636 2.4198 1.4708 1.052 0.17862 -1.1366 0.12896
319 7.7053 6.0793 1.5338 -1.5489 -2.3544 1.5592 -1.0476 0.16652 -1.1062 -0.2338 7.7365 6.1014 1.5186 -1.5799 2.3974 1.503 1.0737 0.18309 -1.1199 0.14268
320 7.6871 6.0721 1.5385 -1.553 -2.3328 1.5709 -1.0465 0.16741 -1.0949 -0.2351 7.7497 6.119 1.5297 -1.5903 2.3858 1.5215 1.077 0.18463 -1.1128 0.1451
321 7.7141 6.0781 1.525 -1.5405 -2.3762 1.5402 -1.0381 0.16348 -1.1194 -0.22733 7.7268 6.0855 1.5061 -1.568 2.4129 1.4798 1.0617 0.17954 -1.1305 0.13528
322 3.948 1.736 -1.4655 -4.3521 -2.5597 -4.4238 4.3954 -8.4333 -6.333 2.4899 3.9125 1.7114 -1.4721 -4.3577 2.3433 -4.4324 -4.2602 -8.4476 -6.3425 -2.6976
323 3.9286 1.7274 -1.4603 -4.3472 -2.5445 -4.4147 4.3709 -8.4306 -6.3597 2.4639 3.9151 1.7125 -1.4751 -4.3772 2.3417 -4.4481 -4.2601 -8.4925 -6.4052 -2.6857
324 0.81387 -1.2666 -2.1265 -5.7029 -0.87369 -2.8533 -0.93493 2.7122 3.5273 -1.589 0.80797 -1.2571 -2.1208 -5.6601 0.70825 -2.8637 0.88189 2.6965 3.4804 1.4556
325 0.80871 -1.259 -2.115 -5.6744 -0.86753 -2.841 -0.92639 2.7036 3.5159 -1.5762 0.80844 -1.2582 -2.1241 -5.671 0.70779 -2.8712 0.87964 2.7067 3.4935 1.4536
326 0.75811 -2.6949 8.7934 -0.3913 -0.87845 -2.7929 0.16272 -0.8706 0.80331 -0.15906 0.75842 -2.6963 8.8025 -0.4024 0.90639 -2.8263 -0.11951 -0.88348 0.80683 0.094469
327 0.75905 -2.6978 8.7992 -0.39153 -0.88045 -2.7934 0.16282 -0.86973 0.80253 -0.15898 0.75026 -2.6668 8.7029 -0.39783 0.89754 -2.793 -0.11817 -0.87205 0.79639 0.093319
328 0.75808 -2.6948 8.7929 -0.39132 -0.87797 -2.7928 0.16336 -0.87098 0.80362 -0.15984 0.75839 -2.6961 8.8021 -0.40241 0.9059 -2.8262 -0.12015 -0.88389 0.80715 0.095239
329 0.75544 -2.6879 8.7833 -0.38964 -0.88159 -2.793 0.15353 -0.87465 0.8064 -0.15141 0.75304 -2.6797 8.7611 -0.39935 0.90621 -2.8164 -0.10998 -0.88416 0.80702 0.086497
330 0.75655 -2.6905 8.7857 -0.39035 -0.87905 -2.7924 0.1591 -0.87258 0.80484 -0.15631 0.75163 -2.6733 8.734 -0.39868 0.90066 -2.8063 -0.11514 -0.87928 0.80278 0.091107
331 0.75509 -2.6865 8.7793 -0.38954 -0.87962 -2.7923 0.15509 -0.87429 0.80617 -0.15303 0.7527 -2.6783 8.7571 -0.39923 0.90421 -2.8157 -0.11156 -0.88385 0.80681 0.088128
332 0.7578 -2.6936 8.7897 -0.39127 -0.87605 -2.7923 0.16511 -0.87091 0.80364 -0.16157 0.75811 -2.695 8.7989 -0.40234 0.90396 -2.8257 -0.12193 -0.88387 0.80719 0.096993
333 0.75918 -2.6983 8.8007 -0.39157 -0.88105 -2.7937 0.16258 -0.87004 0.80276 -0.15875 0.75039 -2.6674 8.7043 -0.39788 0.89814 -2.7933 -0.11793 -0.87235 0.79661 0.093079
334 0.75487 -2.6863 8.7804 -0.38932 -0.88208 -2.7926 0.15172 -0.87509 0.80671 -0.14984 0.75349 -2.6817 8.7699 -0.39957 0.90789 -2.8198 -0.10833 -0.88573 0.80839 0.08503
335 0.75779 -2.6943 8.7929 -0.39088 -0.8809 -2.7928 0.15958 -0.87096 0.80347 -0.15617 0.75118 -2.671 8.7216 -0.39834 0.90055 -2.8005 -0.11532 -0.87569 0.7996 0.090782
336 0.7616 -2.7044 8.8062 -0.39309 -0.8783 -2.7913 0.17211 -0.86627 0.79972 -0.16699 0.75279 -2.6734 8.7098 -0.39933 0.89553 -2.7908 -0.12729 -0.86883 0.7936 0.10122
337 0.75917 -2.6975 8.7949 -0.39191 -0.87758 -2.7912 0.16698 -0.86902 0.80197 -0.16284 0.75423 -2.6802 8.7433 -0.40021 0.89932 -2.8051 -0.1229 -0.8759 0.79992 0.09759
338 7.6385 6.1433 1.632 -1.9852 -2.392 1.7616 -0.74903 0.024205 -0.98349 -0.34006 7.6798 6.1738 1.6201 -2.0241 2.4366 1.7113 0.77314 0.034077 -0.99684 0.26167
339 7.3067 6.38 2.1312 -0.89735 -2.6337 2.3045 0.69048 1.4765 -0.12358 -0.19747 7.2422 6.3231 2.097 -0.91988 2.6818 2.2295 -0.69758 1.4653 -0.13816 0.20605
340 7.2826 6.3929 2.1687 -0.95205 -2.5399 2.3885 0.62149 1.4609 -0.061013 -0.23458 7.3316 6.4354 2.1681 -0.98849 2.6316 2.351 -0.63878 1.4731 -0.077044 0.24844
341 7.2678 6.3763 2.1584 -0.93975 -2.5416 2.3706 0.63839 1.462 -0.073072 -0.22532 7.289 6.3943 2.1497 -0.97244 2.6229 2.3243 -0.65309 1.4683 -0.088559 0.23783
342 7.2671 6.3733 2.155 -0.93477 -2.5456 2.3636 0.64623 1.4661 -0.080604 -0.21876 7.2615 6.3679 2.1383 -0.96388 2.6171 2.3086 -0.65861 1.467 -0.09579 0.23012
343 7.2667 6.3742 2.1563 -0.93645 -2.5421 2.3661 0.64578 1.4658 -0.079354 -0.21877 7.2758 6.3816 2.1439 -0.96745 2.619 2.3159 -0.6595 1.4697 -0.094741 0.23058
344 7.2721 6.3745 2.1525 -0.93051 -2.5554 2.357 0.65164 1.4678 -0.086177 -0.21619 7.3037 6.4017 2.1466 -0.96464 2.6402 2.3136 -0.66747 1.4762 -0.10193 0.22856
345 7.263 6.3714 2.1557 -0.93654 -2.5399 2.3658 0.64505 1.4646 -0.078359 -0.21896 7.2651 6.3727 2.1412 -0.96661 2.6142 2.3134 -0.65808 1.467 -0.093592 0.23061
346 7.2536 6.3687 2.1589 -0.94469 -2.5223 2.3733 0.64766 1.4546 -0.067259 -0.21503 7.3225 6.4287 2.1643 -0.98354 2.6207 2.3427 -0.66665 1.4704 -0.083086 0.22894
347 7.2709 6.3869 2.1701 -0.95594 -2.5248 2.394 0.61883 1.456 -0.054221 -0.23686 7.3338 6.4416 2.1737 -0.99412 2.6215 2.3613 -0.63722 1.4709 -0.070252 0.25128
348 7.2853 6.3793 2.148 -0.92199 -2.578 2.3449 0.66006 1.4725 -0.096973 -0.21281 7.312 6.4021 2.1406 -0.95565 2.6608 2.2993 -0.6756 1.48 -0.11287 0.22473
349 7.2709 6.3742 2.1528 -0.9311 -2.5532 2.3578 0.65199 1.4677 -0.085543 -0.21534 7.3026 6.4014 2.147 -0.96521 2.638 2.3145 -0.66782 1.4761 -0.10128 0.22771
350 7.2393 6.3615 2.1603 -0.95207 -2.5047 2.3782 0.64981 1.4411 -0.054658 -0.21239 7.2708 6.3886 2.1548 -0.98577 2.5898 2.3362 -0.66516 1.4492 -0.069768 0.22538
351 7.2504 6.3685 2.1608 -0.94898 -2.5149 2.3775 0.64766 1.4498 -0.061341 -0.21434 7.2715 6.3865 2.1522 -0.98134 2.5964 2.3318 -0.66226 1.4559 -0.076575 0.22684
352 7.2726 6.3758 2.1541 -0.93176 -2.5536 2.3609 0.64577 1.4701 -0.084772 -0.21972 7.2747 6.3771 2.1396 -0.96197 2.6278 2.3081 -0.65893 1.4727 -0.10014 0.23127
353 7.2401 6.3646 2.1636 -0.9559 -2.499 2.385 0.64482 1.4415 -0.050806 -0.21511 7.2807 6.3997 2.1609 -0.99081 2.5875 2.346 -0.66097 1.4515 -0.065982 0.22851
354 7.2474 6.37 2.1648 -0.95625 -2.5047 2.3856 0.6451 1.4419 -0.050511 -0.21574 7.2564 6.3773 2.1526 -0.98688 2.582 2.3363 -0.65848 1.4456 -0.065525 0.22814
355 7.2435 6.3571 2.1527 -0.93742 -2.5247 2.3639 0.64754 1.4586 -0.075593 -0.21529 7.1299 6.2569 2.1042 -0.95189 2.5575 2.275 -0.64987 1.4376 -0.089178 0.2233
356 7.2215 6.3583 2.1703 -0.96765 -2.465 2.4029 0.63316 1.4365 -0.03832 -0.22122 7.2074 6.3454 2.1515 -0.99474 2.5346 2.3471 -0.64423 1.4356 -0.052905 0.23303
357 7.2003 6.3586 2.1882 -1.098 -2.4106 2.4422 0.59354 1.3432 0.023577 -0.10437 7.2526 6.4043 2.1896 -1.1345 2.5029 2.4095 -0.61036 1.3556 0.010029 0.12017
358 7.2114 6.3597 2.1769 -0.98821 -2.4392 2.4139 0.65573 1.4006 -0.0044898 -0.20048 7.1877 6.3383 2.1554 -1.0136 2.5057 2.3556 -0.66557 1.3976 -0.018756 0.21267
359 7.2415 6.3682 2.168 -0.95928 -2.4928 2.3949 0.63126 1.4478 -0.049295 -0.22413 7.2178 6.3468 2.1462 -0.98535 2.5587 2.3353 -0.64177 1.4451 -0.064065 0.23552
360 7.1933 6.3582 2.195 -1.012 -2.4027 2.4623 0.57334 1.4037 0.030728 -0.25591 7.1698 6.3369 2.1735 -1.0371 2.4704 2.4043 -0.58369 1.4016 0.015829 0.26928
361 7.1831 6.3464 2.1908 -1.0561 -2.3986 2.4567 0.54683 1.4001 0.0074992 -0.18552 7.1693 6.3336 2.1723 -1.0823 2.4689 2.402 -0.55848 1.4004 -0.0067456 0.19962
362 7.2236 6.3689 2.1865 -0.98576 -2.4493 2.4411 0.57189 1.4431 -0.01166 -0.2614 7.1104 6.2685 2.1379 -0.99878 2.485 2.3524 -0.57539 1.4231 -0.026437 0.27052
363 7.1868 6.3482 2.1904 -1.0485 -2.4035 2.4555 0.54871 1.406 0.0058199 -0.19304 7.1634 6.327 2.1689 -1.0733 2.4705 2.3974 -0.55966 1.4044 -0.0085251 0.20677
364 7.252 6.3821 2.1804 -0.9713 -2.4871 2.4214 0.59041 1.4571 -0.035725 -0.25008 7.089 6.2382 2.1169 -0.97813 2.5043 2.316 -0.58974 1.4269 -0.049899 0.25705
365 7.1681 6.3395 2.1945 -1.0368 -2.3805 2.4704 0.53594 1.4054 0.024998 -0.23835 7.1626 6.3342 2.1786 -1.0642 2.4543 2.4187 -0.54806 1.4073 0.010351 0.25268
366 7.2592 6.3838 2.1734 -1.0653 -2.4975 2.3979 0.6252 1.3716 -0.024592 -0.086105 7.1953 6.3272 2.1396 -1.0848 2.548 2.3253 -0.63254 1.3621 -0.038338 0.099205
367 7.1678 6.3391 2.1942 -1.0596 -2.3788 2.468 0.53522 1.395 0.020781 -0.20026 7.1768 6.3466 2.1826 -1.089 2.4572 2.4214 -0.54849 1.3998 0.0065429 0.21526
368 7.2191 6.3647 2.1814 -1.0881 -2.4435 2.424 0.60132 1.3524 0.0047026 -0.094791 7.2283 6.3723 2.1696 -1.1182 2.5204 2.3763 -0.61474 1.3568 -0.0091038 0.10957
369 7.2061 6.3575 2.184 -1.0918 -2.4309 2.4343 0.58164 1.3493 0.017563 -0.11191 7.2273 6.3758 2.1759 -1.1236 2.5123 2.3907 -0.59596 1.356 0.0037493 0.12739
370 7.2129 6.3608 2.1849 -1.0444 -2.4364 2.4365 0.56712 1.4134 -0.018347 -0.16768 7.1493 6.3042 2.1512 -1.0636 2.4888 2.3646 -0.57494 1.4038 -0.032401 0.17998
371 7.1666 6.3364 2.1926 -1.0449 -2.3842 2.4672 0.52985 1.4035 0.021653 -0.22429 7.1612 6.3311 2.1766 -1.0723 2.4579 2.4154 -0.54211 1.4055 0.0070907 0.23878
372 7.1592 6.3358 2.1966 -1.0226 -2.3694 2.4784 0.52899 1.4072 0.035064 -0.27852 7.1537 6.3305 2.1807 -1.0499 2.4436 2.4269 -0.54094 1.409 0.020089 0.29267
373 7.1989 6.3557 2.1872 -1.0955 -2.4157 2.4427 0.57778 1.3489 0.021945 -0.11601 7.235 6.3871 2.1837 -1.1295 2.5024 2.4045 -0.59319 1.3584 0.0082857 0.13179
374 7.1702 6.3405 2.1943 -1.0458 -2.3824 2.4692 0.53359 1.4029 0.021758 -0.2237 7.1648 6.3353 2.1784 -1.0731 2.4561 2.4175 -0.54575 1.4049 0.0072693 0.23813
375 7.1504 6.329 2.1957 -1.0466 -2.3616 2.4776 0.52394 1.398 0.033178 -0.23852 7.1713 6.347 2.1878 -1.0777 2.4445 2.4352 -0.53797 1.4051 0.018723 0.25401
376 7.1727 6.3446 2.1953 -1.0559 -2.38 2.4667 0.55697 1.3838 0.032449 -0.19849 7.199 6.3674 2.1891 -1.088 2.4645 2.4259 -0.57149 1.3917 0.018302 0.2141
377 7.2211 6.3632 2.1823 -1.0561 -2.4527 2.4322 0.56181 1.3983 -0.011299 -0.15789 7.2698 6.4057 2.1823 -1.0922 2.544 2.397 -0.57868 1.4108 -0.025938 0.17337
378 7.1977 6.3539 2.1857 -1.0979 -2.4171 2.4391 0.58149 1.3452 0.021033 -0.10785 7.2383 6.3893 2.1835 -1.1325 2.5052 2.4023 -0.59734 1.3556 0.0073549 0.12362
379 7.2064 6.3631 2.1883 -1.0949 -2.4142 2.4403 0.6025 1.3441 0.021149 -0.1029 7.255 6.4055 2.1886 -1.1308 2.5052 2.4063 -0.61905 1.3556 0.007589 0.11845
380 7.1913 6.3503 2.1895 -1.042 -2.4102 2.4529 0.55102 1.4101 0.0031165 -0.19877 7.1569 6.3194 2.1646 -1.0653 2.4733 2.391 -0.56107 1.4063 -0.011271 0.21207
381 7.184 6.3477 2.1884 -1.1048 -2.3969 2.4479 0.57707 1.3399 0.029753 -0.10869 7.2524 6.4076 2.1948 -1.1437 2.4947 2.4209 -0.5951 1.3555 0.016292 0.12506
382 7.1672 6.3386 2.1939 -1.0592 -2.3773 2.4678 0.536 1.397 0.018278 -0.19888 7.1762 6.3461 2.1824 -1.0886 2.4557 2.4211 -0.54931 1.4018 0.0040427 0.21379
383 7.2218 6.368 2.1873 -0.99055 -2.447 2.4437 0.56402 1.4397 -0.0093876 -0.26396 7.1086 6.2677 2.1386 -1.0035 2.4828 2.3549 -0.5677 1.4198 -0.024249 0.27309
384 7.169 6.3393 2.1937 -1.0529 -2.3817 2.4674 0.53531 1.3993 0.020255 -0.20904 7.1712 6.3408 2.18 -1.0814 2.4578 2.4184 -0.54807 1.4028 0.005906 0.22378
385 7.1795 6.3464 2.1904 -1.1052 -2.3883 2.4533 0.57385 1.3405 0.033766 -0.11451 7.2561 6.4136 2.1994 -1.1454 2.4891 2.4294 -0.59245 1.3576 0.020422 0.13117
386 7.1711 6.3409 2.1937 -1.058 -2.3813 2.4661 0.53775 1.3988 0.015126 -0.19765 7.1733 6.3423 2.18 -1.0865 2.4574 2.4171 -0.55057 1.4023 0.00084423 0.21225
387 7.1606 6.3388 2.1974 -1.0772 -2.3615 2.4723 0.5522 1.3724 0.036499 -0.17352 7.2194 6.3904 2.2012 -1.1142 2.4569 2.4431 -0.56921 1.3866 0.022818 0.19013
388 7.2111 6.3613 2.1877 -1.013 -2.4344 2.4461 0.55835 1.4298 -0.0074531 -0.23175 7.1269 6.2866 2.1478 -1.0296 2.4802 2.3672 -0.56449 1.4159 -0.022076 0.2427
389 1.9282 0.5201 -1.2339 -4.5843 -1.1872 -3.4167 0.75825 -6.9361 -7.3864 3.9343 1.9131 0.51855 -1.227 -4.5569 0.99889 -3.401 -0.69099 -6.8818 -7.3204 -4.0364
390 1.9243 0.51919 -1.2316 -4.5789 -1.1843 -3.4122 0.75529 -6.9284 -7.3821 3.9243 1.9147 0.51914 -1.2282 -4.5647 0.99914 -3.4063 -0.69016 -6.8942 -7.3373 -4.0378
391 1.9198 0.51814 -1.2291 -4.5739 -1.1809 -3.4083 0.75252 -6.9239 -7.3839 3.9113 1.8971 0.51452 -1.2172 -4.5283 0.98908 -3.3789 -0.6828 -6.8422 -7.2886 -3.9968
392 1.9112 0.51593 -1.2252 -4.5667 -1.1729 -3.4055 0.75269 -6.9364 -7.4164 3.8695 1.8962 0.5144 -1.2183 -4.5397 0.98544 -3.3899 -0.68593 -6.8828 -7.3514 -3.971
393 1.9112 0.51593 -1.2252 -4.5667 -1.1729 -3.4055 0.75269 -6.9364 -7.4164 3.8695 1.8962 0.5144 -1.2183 -4.5397 0.98544 -3.3899 -0.68593 -6.8828 -7.3514 -3.971
394 0.61423 -1.0226 -1.8619 -5.0949 -0.91196 -2.7042 -0.59062 2.7685 3.6181 -1.4113 0.61373 -1.0218 -1.869 -5.0947 0.7687 -2.7314 0.53717 2.775 3.5954 1.3061
395 0.61221 -1.0195 -1.8568 -5.082 -0.90907 -2.6984 -0.58661 2.7636 3.6113 -1.4063 0.60749 -1.0117 -1.851 -5.0467 0.76087 -2.7067 0.52959 2.7509 3.5638 1.2924
396 0.61072 -1.0174 -1.8538 -5.0756 -0.90768 -2.6969 -0.58227 2.7641 3.6105 -1.4032 0.60848 -1.0137 -1.8556 -5.0609 0.76275 -2.7161 0.52743 2.7626 3.5775 1.2948
397 0.46235 -2.027 8.2245 -0.19562 -1.7031 -2.8901 -1.2281 -1.6997 1.4261 1.0576 0.4551 -1.9963 8.0928 -0.21388 1.6999 -2.897 1.2491 -1.6574 1.4058 -1.1121
398 0.46241 -2.0273 8.2253 -0.19563 -1.7035 -2.8904 -1.2283 -1.6998 1.4262 1.0578 0.45516 -1.9965 8.0936 -0.21388 1.7002 -2.8972 1.2493 -1.6575 1.4059 -1.1122
399 0.46049 -2.0197 8.2031 -0.19506 -1.6933 -2.8864 -1.2218 -1.6968 1.4241 1.0508 0.45511 -1.9972 8.1048 -0.21407 1.6969 -2.9049 1.2478 -1.6614 1.4096 -1.1098
400 0.45942 -2.0155 8.1908 -0.19467 -1.6883 -2.8841 -1.2192 -1.6946 1.4225 1.0479 0.45536 -1.9988 8.1161 -0.21424 1.6967 -2.9109 1.2487 -1.6641 1.4121 -1.11
401 6.265 6.2836 2.5286 -3.0292 -0.40664 2.9738 3.1241 -2.2618 2.9297 2.4035 6.2711 6.2903 2.532 -3.0342 0.48953 2.9902 -3.1073 -2.2998 2.9616 -2.3371
402 6.2704 6.2857 2.5263 -3.027 -0.41582 2.967 3.1357 -2.2657 2.9293 2.4112 6.2638 6.2798 2.5246 -3.0259 0.49752 2.9772 -3.1127 -2.2992 2.9552 -2.3403
403 6.2676 6.2845 2.5272 -3.0279 -0.41117 2.9698 3.1311 -2.2636 2.9283 2.4082 6.2677 6.2852 2.5281 -3.03 0.49349 2.9832 -3.1114 -2.2995 2.9573 -2.3398
404 6.2835 6.2928 2.5231 -3.0271 -0.43271 2.9549 3.1593 -2.277 2.9282 2.4302 6.2516 6.2614 2.5111 -3.014 0.51199 2.9528 -3.1236 -2.3012 2.9422 -2.3498
405 6.2727 6.2887 2.5279 -3.0288 -0.41308 2.9694 3.137 -2.2657 2.9284 2.412 6.2662 6.2828 2.5262 -3.0278 0.49486 2.9797 -3.114 -2.2991 2.9543 -2.3411
406 6.1733 6.2648 2.5774 -2.76 -0.33848 3 3.2944 -2.0394 3.0761 2.3195 6.1661 6.2578 2.5757 -2.7574 0.42578 3.0123 -3.2745 -2.0749 3.1037 -2.2399
407 6.2057 6.2857 2.5726 -2.7324 -0.37253 2.9761 3.3682 -2.0539 3.0801 2.3288 6.1059 6.1849 2.5323 -2.6894 0.45274 2.9434 -3.2979 -2.0591 3.0614 -2.2162
408 6.1593 6.254 2.5763 -2.7721 -0.32523 3.002 3.2737 -2.0325 3.062 2.3309 6.2045 6.3002 2.5966 -2.7929 0.41589 3.0403 -3.2816 -2.0851 3.116 -2.2707
409 6.1694 6.2632 2.5785 -2.7534 -0.33056 3.0039 3.2928 -2.0311 3.0741 2.3084 6.1688 6.2628 2.5795 -2.7537 0.41844 3.0196 -3.2764 -2.0688 3.1049 -2.2314
410 6.1575 6.2547 2.5789 -2.7643 -0.31985 3.0092 3.2695 -2.028 3.0692 2.3101 6.1818 6.2797 2.5905 -2.7757 0.40942 3.0373 -3.2663 -2.0737 3.1127 -2.2421
411 6.1769 6.254 2.5521 -2.6723 -0.37459 2.9405 3.4109 -2.0347 3.0517 2.2929 6.0774 6.1536 2.5122 -2.6303 0.45428 2.9085 -3.3394 -2.0408 3.0333 -2.1826
412 6.1368 6.2391 2.5775 -2.7781 -0.30274 3.0127 3.2391 -2.022 3.0559 2.3153 6.1875 6.2909 2.6002 -2.8013 0.39376 3.0543 -3.2497 -2.0761 3.1125 -2.2572
413 6.1352 6.2381 2.5778 -2.7706 -0.30137 3.015 3.2383 -2.0192 3.0601 2.3015 6.1404 6.2437 2.5814 -2.7733 0.38961 3.0341 -3.2249 -2.0581 3.0938 -2.2267
414 6.1272 6.2343 2.5796 -2.7615 -0.29095 3.0219 3.2305 -2.0139 3.0642 2.2749 6.1324 6.2399 2.5832 -2.7641 0.37951 3.0411 -3.2171 -2.0528 3.0977 -2.2003
415 6.1193 6.2365 2.5865 -2.7223 -0.27123 3.0397 3.2335 -2.012 3.0927 2.182 6.0874 6.2043 2.5746 -2.7084 0.3585 3.0409 -3.2002 -2.0388 3.1066 -2.0949
416 6.1416 6.2416 2.5764 -2.7798 -0.30919 3.0083 3.2464 -2.0264 3.0554 2.3248 6.1273 6.2273 2.5718 -2.7737 0.39591 3.0176 -3.2228 -2.0587 3.0795 -2.2429
417 6.1181 6.2275 2.5791 -2.7567 -0.28433 3.0255 3.2193 -2.0082 3.0647 2.26 6.1233 6.2331 2.5828 -2.7592 0.37302 3.0448 -3.2059 -2.047 3.0982 -2.1853
418 6.1242 6.231 2.5785 -2.7705 -0.29053 3.0209 3.222 -2.0138 3.0591 2.2881 6.1485 6.256 2.5902 -2.7817 0.38012 3.0496 -3.2186 -2.0589 3.1023 -2.2202
419 6.1403 6.2387 2.5735 -2.7825 -0.31185 3.002 3.2501 -2.0272 3.048 2.3377 6.1084 6.2066 2.5615 -2.7684 0.39719 3.0027 -3.2172 -2.0536 3.0633 -2.2495
420 6.127 6.2302 2.5748 -2.7874 -0.29901 3.0093 3.2271 -2.0236 3.0474 2.3263 6.0705 6.173 2.5525 -2.762 0.38296 2.998 -3.1813 -2.0413 3.0502 -2.229
421 6.1223 6.2294 2.5782 -2.768 -0.29015 3.0213 3.2202 -2.0133 3.0607 2.2823 6.1275 6.2349 2.5818 -2.7705 0.37861 3.0405 -3.2069 -2.052 3.0942 -2.2076
422 0.97803 0.33111 -0.58082 -3.7757 -0.61728 -2.2845 -0.044643 -4.4359 -6.625 2.9875 0.98232 0.33657 -0.58397 -3.7824 0.49767 -2.3029 0.049337 -4.4641 -6.6382 -3.0069
423 0.26052 -0.54154 -1.1849 -3.6666 -0.65456 -2.4354 0.54239 2.9414 3.5292 -0.82036 0.25762 -0.5362 -1.1741 -3.6279 0.54282 -2.4201 -0.58625 2.8921 3.4629 0.77723
424 0.38013 -1.7593 7.8455 -0.1031 -1.6025 -3.0565 -1.5324 -1.4098 1.2006 1.1771 0.37047 -1.7166 7.6601 -0.1201 1.5779 -3.04 1.5327 -1.3475 1.1681 -1.2175
425 0.77032 0.22558 -0.48212 -3.3837 -0.62149 -2.1165 -0.39518 -4.1319 -6.553 2.43 0.7703 0.22811 -0.48511 -3.3798 0.51066 -2.1315 0.40098 -4.1431 -6.5471 -2.4208
426 0.77321 0.22627 -0.48345 -3.3931 -0.62525 -2.1212 -0.39597 -4.1366 -6.5639 2.448 0.76925 0.22764 -0.48398 -3.3719 0.51153 -2.1254 0.39967 -4.1268 -6.5245 -2.4262
427 0.77343 0.22633 -0.48355 -3.3937 -0.62534 -2.1214 -0.39637 -4.1359 -6.5631 2.4479 0.76948 0.22771 -0.48407 -3.3725 0.51161 -2.1256 0.40008 -4.126 -6.5236 -2.4262
428 0.76838 0.22513 -0.48131 -3.378 -0.619 -2.114 -0.39442 -4.1316 -6.5496 2.4185 0.77096 0.22842 -0.48592 -3.3856 0.51004 -2.1361 0.40161 -4.1568 -6.5659 -2.4175
429 0.77141 0.22581 -0.48256 -3.3869 -0.62309 -2.1178 -0.39533 -4.132 -6.5552 2.4377 0.76968 0.22784 -0.48447 -3.3754 0.51104 -2.1281 0.40021 -4.134 -6.5346 -2.423
430 0.34543 0.14065 -0.32036 -2.1803 0.024048 -1.6459 -0.38895 -4.2759 -5.8215 -0.57771 0.34394 0.14115 -0.31977 -2.1734 -0.10516 -1.6439 0.40725 -4.2738 -5.8146 0.54798
431 0.3467 0.14105 -0.32112 -2.1854 0.022968 -1.6491 -0.39032 -4.282 -5.8303 -0.57234 0.34143 0.14001 -0.31703 -2.1547 -0.10313 -1.6292 0.40418 -4.2332 -5.7598 0.53671
432 0.3447 0.14044 -0.31996 -2.1776 0.024702 -1.6444 -0.38821 -4.2739 -5.818 -0.58042 0.33946 0.1394 -0.31588 -2.147 -0.10457 -1.6244 0.40207 -4.2252 -5.7477 0.54461
