433 20
0 9.5927 -1.3825 1.1227 -0.23297 0.40866 -0.49383 -0.84061 -0.6415 -0.55151 -0.10348 9.7209 -1.4051 1.1344 -0.24108 0.41485 -0.49813 -0.84672 -0.64642 -0.55491 -0.10393
1 9.5855 -1.4031 1.0948 -0.25265 0.39505 -0.49478 -0.87473 -0.66163 -0.52156 -0.10117 9.614 -1.4112 1.0947 -0.25837 0.39676 -0.4939 -0.87214 -0.65981 -0.51883 -0.1005
2 9.5982 -1.3717 1.1226 -0.23348 0.40265 -0.48787 -0.81314 -0.61065 -0.53323 -0.092516 9.6722 -1.3863 1.128 -0.24032 0.40651 -0.48934 -0.81423 -0.61168 -0.53332 -0.092256
3 9.637 -1.484 0.95293 -0.36204 0.38168 -0.38279 -0.77431 -0.52126 -0.29951 -0.015763 9.7821 -1.5106 0.96471 -0.37311 0.38816 -0.3865 -0.78199 -0.52672 -0.30083 -0.015303
4 9.5974 -1.3721 1.1231 -0.23351 0.40318 -0.48864 -0.81554 -0.61328 -0.53573 -0.093322 9.6772 -1.3876 1.1292 -0.2405 0.40728 -0.4904 -0.81712 -0.61467 -0.53614 -0.093121
5 9.5997 -1.4227 1.0837 -0.21296 0.41377 -0.47153 -0.83326 -0.64706 -0.46913 -0.12184 9.7207 -1.4447 1.0942 -0.22062 0.41985 -0.47519 -0.83895 -0.65178 -0.47085 -0.1225
6 9.5945 -1.3797 1.1214 -0.22968 0.40678 -0.49132 -0.82979 -0.63098 -0.53975 -0.10206 9.7116 -1.4007 1.1318 -0.2375 0.41248 -0.49499 -0.8347 -0.63493 -0.54221 -0.10234
7 9.596 -1.3793 1.12 -0.22813 0.4063 -0.48896 -0.82328 -0.62504 -0.53265 -0.10134 9.7008 -1.3984 1.129 -0.23564 0.41149 -0.49198 -0.82707 -0.62814 -0.53435 -0.10147
8 9.6173 -1.3604 1.0236 -0.44022 0.29351 -0.49859 -0.89208 -0.54269 -0.45318 0.05232 9.7424 -1.3821 1.0338 -0.45182 0.29722 -0.50313 -0.89915 -0.5468 -0.45578 0.054116
9 9.6057 -1.4554 1.0562 -0.19167 0.43145 -0.43567 -0.78301 -0.62075 -0.44085 -0.13215 9.7191 -1.4767 1.0656 -0.19888 0.43762 -0.43843 -0.7874 -0.62463 -0.44192 -0.13284
10 9.5809 -1.3776 1.1284 -0.23234 0.41016 -0.49824 -0.84592 -0.64752 -0.56911 -0.10468 9.4944 -1.3691 1.1149 -0.23511 0.40713 -0.49141 -0.83307 -0.6379 -0.55987 -0.10278
11 9.5986 -1.3704 1.1237 -0.23148 0.40346 -0.48699 -0.80887 -0.60765 -0.53253 -0.092792 9.6725 -1.3851 1.1291 -0.23831 0.40733 -0.48844 -0.80992 -0.60864 -0.5326 -0.09253
12 9.6033 -1.4361 1.1699 -0.26789 0.59729 -0.29443 -0.55898 -0.48503 -0.63134 -0.079856 9.7245 -1.4587 1.1818 -0.27628 0.60673 -0.29499 -0.55993 -0.48705 -0.63616 -0.079927
13 9.6599 -1.1009 1.2689 0.090582 0.39721 -0.63158 -0.669 -0.51417 -0.5 -0.15373 9.7886 -1.1202 1.2826 0.087139 0.40414 -0.63888 -0.67369 -0.51845 -0.50356 -0.15487
14 9.5943 -1.3815 1.1204 -0.23109 0.40756 -0.49001 -0.83009 -0.63145 -0.53944 -0.10178 9.7114 -1.4024 1.1308 -0.23893 0.41327 -0.49365 -0.83499 -0.6354 -0.5419 -0.10205
15 9.5986 -1.3704 1.1237 -0.23148 0.40346 -0.48699 -0.80887 -0.60765 -0.53253 -0.092792 9.6725 -1.3851 1.1291 -0.23831 0.40733 -0.48844 -0.80992 -0.60864 -0.5326 -0.09253
16 9.5965 -1.3774 1.1215 -0.23157 0.4058 -0.48894 -0.82287 -0.62309 -0.53419 -0.098745 9.692 -1.3952 1.1294 -0.2389 0.41059 -0.4915 -0.8259 -0.62561 -0.53547 -0.098769
17 9.5936 -1.3822 1.1201 -0.23246 0.40722 -0.49094 -0.83364 -0.63421 -0.54119 -0.10177 9.7146 -1.4037 1.1309 -0.24041 0.41308 -0.49478 -0.83891 -0.63844 -0.54387 -0.10209
18 9.592 -1.4205 1.0885 -0.27515 0.4246 -0.44768 -0.81353 -0.61513 -0.51826 -0.082898 9.6207 -1.4288 1.0886 -0.28102 0.42661 -0.44653 -0.81069 -0.61321 -0.51572 -0.0822
19 9.5993 -1.3702 1.1258 -0.23186 0.40429 -0.48891 -0.81274 -0.61162 -0.53967 -0.093561 9.667 -1.384 1.1306 -0.23855 0.40795 -0.49015 -0.81353 -0.61249 -0.53977 -0.093311
20 9.5978 -1.373 1.1218 -0.23466 0.4023 -0.48857 -0.81683 -0.61371 -0.53368 -0.092869 9.6718 -1.3876 1.1272 -0.24151 0.40615 -0.49005 -0.81796 -0.61477 -0.53378 -0.092617
21 9.5948 -1.3794 1.123 -0.229 0.40776 -0.49211 -0.83079 -0.6327 -0.54386 -0.10291 9.7081 -1.3998 1.133 -0.23671 0.41334 -0.49563 -0.83551 -0.63656 -0.54634 -0.1032
22 9.6022 -1.3575 1.1306 -0.23677 0.39867 -0.48835 -0.79738 -0.59091 -0.53559 -0.082964 9.6484 -1.3681 1.1328 -0.243 0.40136 -0.48846 -0.79611 -0.59017 -0.53432 -0.082403
23 9.6071 -1.4731 1.0305 -0.17371 0.41256 -0.45193 -0.82764 -0.66205 -0.37939 -0.1597 9.7028 -1.4918 1.0378 -0.18031 0.41762 -0.4543 -0.83148 -0.66553 -0.37922 -0.16054
24 9.5945 -1.3797 1.1214 -0.22968 0.40678 -0.49132 -0.82979 -0.63098 -0.53975 -0.10206 9.7116 -1.4007 1.1318 -0.2375 0.41248 -0.49499 -0.8347 -0.63493 -0.54221 -0.10234
25 9.6034 -1.4295 1.0731 -0.20902 0.41206 -0.4648 -0.82432 -0.63923 -0.44455 -0.12214 9.694 -1.4471 1.0802 -0.21598 0.41687 -0.46696 -0.82743 -0.64197 -0.44461 -0.12245
26 9.594 -1.3812 1.1209 -0.23183 0.40743 -0.49061 -0.83124 -0.63213 -0.54141 -0.10138 9.715 -1.4026 1.1317 -0.23977 0.41329 -0.49445 -0.83648 -0.63633 -0.5441 -0.10168
27 9.588 -1.4005 1.0895 -0.27123 0.38543 -0.49592 -0.87998 -0.65374 -0.51787 -0.086766 9.6341 -1.4112 1.0914 -0.27759 0.38777 -0.496 -0.8791 -0.65319 -0.51618 -0.086209
28 9.619 -1.3983 0.99788 -0.40849 0.30481 -0.48682 -0.90015 -0.57288 -0.40425 0.017126 9.7544 -1.422 1.0089 -0.42 0.30911 -0.49177 -0.90854 -0.5782 -0.40661 0.018351
29 9.6351 -1.2721 1.1577 -0.088913 0.36665 -0.53906 -0.71666 -0.52664 -0.42891 -0.12262 9.5756 -1.2687 1.1478 -0.093363 0.36572 -0.53447 -0.70875 -0.52136 -0.42373 -0.12125
30 9.729 -1.3075 0.21546 -1.1264 0.1443 -0.28874 -0.73249 -0.29136 0.12633 0.3759 9.7369 -1.3131 0.21461 -1.1354 0.14231 -0.28804 -0.73054 -0.29097 0.12907 0.37803
31 9.6351 -1.2721 1.1577 -0.088913 0.36665 -0.53906 -0.71666 -0.52664 -0.42891 -0.12262 9.5756 -1.2687 1.1478 -0.093363 0.36572 -0.53447 -0.70875 -0.52136 -0.42373 -0.12125
32 9.6297 -1.8354 0.52748 -0.39189 0.54344 -0.03745 -0.55118 -0.40823 0.27178 -0.044357 9.6098 -1.836 0.52556 -0.39661 0.54399 -0.035222 -0.54783 -0.40671 0.27366 -0.044004
33 9.6212 -1.9635 0.43402 -0.35941 0.66696 0.13398 -0.35894 -0.32649 0.36266 -0.080654 9.7177 -1.988 0.43829 -0.3686 0.67655 0.13812 -0.36043 -0.32947 0.36887 -0.081345
34 9.6285 -1.8615 0.70547 -0.30114 0.72951 0.09906 -0.28592 -0.32164 0.049725 -0.10047 9.5422 -1.8496 0.6985 -0.30362 0.7262 0.10124 -0.28009 -0.31746 0.051463 -0.099461
35 9.6351 -1.2721 1.1577 -0.088913 0.36665 -0.53906 -0.71666 -0.52664 -0.42891 -0.12262 9.5756 -1.2687 1.1478 -0.093363 0.36572 -0.53447 -0.70875 -0.52136 -0.42373 -0.12125
36 9.6691 -1.7675 0.35576 -0.68799 0.57458 0.073133 -0.42025 -0.21322 0.30177 0.12997 9.6772 -1.7737 0.35587 -0.69499 0.5762 0.075433 -0.41812 -0.21303 0.30382 0.13073
37 9.6236 -1.8143 0.62539 -0.29287 0.52129 -0.1157 -0.62909 -0.50987 0.1945 -0.11368 9.6184 -1.8177 0.6238 -0.298 0.52287 -0.11337 -0.62644 -0.50862 0.19795 -0.11335
38 9.6022 -1.3596 1.0251 -0.44103 0.2946 -0.50193 -0.90217 -0.5514 -0.46395 0.053703 9.4117 -1.3364 1.0017 -0.4379 0.28862 -0.49001 -0.87966 -0.53743 -0.45135 0.05365
39 9.589 -1.7463 1.1404 -0.29561 1.1526 0.35955 0.27125 -0.061437 -0.64285 -0.073226 9.4645 -1.729 1.1245 -0.29642 1.1428 0.36008 0.27516 -0.056082 -0.63286 -0.071479
40 9.7354 -0.17042 1.5141 0.88705 0.29866 -0.72441 -0.36765 -0.025085 -0.205 -0.084991 9.6741 -0.17476 1.5015 0.87809 0.29925 -0.71963 -0.36246 -0.024081 -0.20137 -0.08325
41 9.6053 -1.871 0.60782 -0.18235 0.53681 -0.10397 -0.61241 -0.55909 0.23407 -0.20573 9.5679 -1.868 0.60427 -0.18655 0.53675 -0.10148 -0.608 -0.55603 0.23623 -0.20478
42 9.6134 -1.8236 0.65306 -0.1907 0.50567 -0.15882 -0.66277 -0.5809 0.16014 -0.19352 9.5934 -1.824 0.65029 -0.19524 0.50641 -0.15647 -0.65919 -0.57863 0.16294 -0.1929
43 9.6038 -1.3974 0.99925 -0.4092 0.30589 -0.48997 -0.90998 -0.58177 -0.41353 0.01758 9.4133 -1.3735 0.97645 -0.40658 0.29979 -0.47832 -0.88755 -0.56737 -0.40193 0.018143
44 9.7074 -0.79223 -0.12777 -1.6289 -0.29938 -0.28674 -0.30063 -0.51151 0.13466 0.48068 9.7371 -0.7997 -0.12888 -1.6439 -0.30395 -0.28825 -0.30029 -0.51201 0.13712 0.48447
45 9.6988 -0.98377 -0.027832 -1.5406 -0.16002 -0.37237 -0.47093 -0.42493 0.15319 0.54163 9.6614 -0.98483 -0.028535 -1.5444 -0.16271 -0.3716 -0.46763 -0.42303 0.15484 0.5425
46 9.6444 -1.8696 0.13949 -0.59931 0.49441 0.055604 -0.5013 -0.30009 0.54361 0.046305 9.6995 -1.885 0.1405 -0.60918 0.49847 0.057848 -0.50308 -0.30243 0.54954 0.047168
47 9.7003 -0.81173 -0.12039 -1.6404 -0.29258 -0.30995 -0.32656 -0.52696 0.14975 0.54058 9.7393 -0.82007 -0.12162 -1.6572 -0.29744 -0.31206 -0.32688 -0.52863 0.15255 0.54596
48 9.6071 -1.9252 0.43439 -0.31059 0.55009 -0.00040195 -0.53279 -0.43441 0.37949 -0.11045 9.5485 -1.9179 0.43118 -0.31402 0.54871 0.0017649 -0.52773 -0.43135 0.37967 -0.1096
49 9.6134 -1.9781 0.28966 -0.36592 0.5733 0.088152 -0.44051 -0.34631 0.47761 -0.078235 9.6327 -1.9866 0.29023 -0.37226 0.57656 0.090551 -0.43981 -0.34703 0.48065 -0.078193
50 9.6052 -1.9778 0.35182 -0.44971 0.70414 0.19715 -0.33082 -0.29027 0.47506 -0.042135 9.6438 -1.9907 0.35346 -0.45718 0.70956 0.20047 -0.33048 -0.29155 0.47894 -0.042167
51 9.5973 -2.0416 0.25691 -0.28304 0.58624 0.11487 -0.40988 -0.36265 0.52249 -0.13614 9.5924 -2.0451 0.25689 -0.28829 0.58839 0.1171 -0.40828 -0.36257 0.52437 -0.13595
52 9.6221 -1.9101 0.27523 -0.51023 0.58033 0.097567 -0.44286 -0.30059 0.47512 0.0051782 9.4976 -1.8901 0.27175 -0.50958 0.57472 0.098599 -0.43552 -0.29686 0.47144 0.005478
53 9.6099 -1.9678 0.34698 -0.39142 0.62057 0.10701 -0.43866 -0.36379 0.4713 -0.077581 9.6646 -1.9837 0.34893 -0.39924 0.62632 0.10984 -0.43984 -0.36613 0.47637 -0.077947
54 9.6049 -2.036 0.24886 -0.38045 0.66763 0.20922 -0.29431 -0.26823 0.51058 -0.07605 9.6436 -2.0489 0.25025 -0.38759 0.67294 0.21256 -0.29388 -0.26942 0.5145 -0.076158
55 9.5798 -2.0598 0.57818 -0.43804 1.0936 0.56308 0.24626 -0.0036928 0.124 -0.030181 9.4559 -2.0386 0.57154 -0.43769 1.0845 0.56023 0.24716 -0.0023195 0.12296 -0.029654
56 9.6036 -1.9586 0.33456 -0.4568 0.65877 0.15135 -0.3966 -0.32165 0.49189 -0.040624 9.584 -1.9594 0.33405 -0.46158 0.65987 0.1535 -0.39427 -0.32125 0.49318 -0.040403
57 9.6138 -2.051 0.3938 -0.43157 0.89 0.41434 0.031076 -0.080759 0.29337 -0.026741 9.6333 -2.0604 0.39539 -0.43809 0.89587 0.41885 0.034281 -0.080281 0.29487 -0.026615
58 9.5917 -1.9516 0.44088 -0.37141 0.64757 0.085464 -0.48503 -0.42917 0.45302 -0.10619 9.5546 -1.9487 0.43902 -0.37537 0.64759 0.087467 -0.4819 -0.42783 0.45398 -0.10588
59 9.6151 -2.1532 0.015666 -0.173 0.50264 0.14797 -0.31282 -0.27899 0.57722 -0.17094 9.6621 -2.1682 0.01633 -0.17937 0.50764 0.15098 -0.31309 -0.28064 0.58203 -0.17154
60 9.6015 -1.9755 0.26532 -0.42835 0.60509 0.12066 -0.44004 -0.34468 0.54941 -0.061016 9.5819 -1.9762 0.26497 -0.4332 0.60605 0.12264 -0.43794 -0.34441 0.55064 -0.060753
61 9.6013 -2.0038 0.40628 -0.42459 0.78724 0.27716 -0.19331 -0.2237 0.38329 -0.047932 9.5155 -1.9908 0.40304 -0.42633 0.78354 0.27777 -0.18923 -0.22141 0.38156 -0.047375
62 9.6059 -1.9618 0.43433 -0.35976 0.66856 0.13463 -0.36184 -0.33031 0.36908 -0.082185 9.4159 -1.9276 0.42563 -0.35803 0.65809 0.13464 -0.35259 -0.32342 0.36409 -0.080415
63 9.5992 -2.0525 0.20432 -0.2976 0.58193 0.13792 -0.37212 -0.32087 0.53723 -0.1192 9.5795 -2.0528 0.20415 -0.30248 0.58316 0.13994 -0.36991 -0.32032 0.53815 -0.11877
64 9.5999 -1.9272 0.57244 -0.30678 0.69458 0.098903 -0.38315 -0.39055 0.27935 -0.12841 9.4755 -1.907 0.5647 -0.30797 0.68858 0.10025 -0.37615 -0.38519 0.27796 -0.12687
65 9.6105 -1.9785 0.36907 -0.56219 0.8544 0.36968 -0.077089 -0.10848 0.37781 0.039671 9.5735 -1.9759 0.36817 -0.56576 0.85389 0.37109 -0.074475 -0.10782 0.37753 0.039823
66 9.5972 -1.8806 0.55976 -0.32026 0.58856 -0.026846 -0.58304 -0.50152 0.32794 -0.12518 9.4728 -1.8607 0.55173 -0.32131 0.58311 -0.024251 -0.57378 -0.49471 0.32686 -0.12352
67 9.5049 -2.0812 0.76192 -0.43454 1.3738 0.81944 0.67498 0.21359 -0.16413 -0.0108 9.5664 -2.1007 0.76803 -0.44254 1.3896 0.83067 0.68557 0.21765 -0.16563 -0.010643
68 9.6893 0.36116 1.5449 1.1443 0.058093 -0.43912 -0.30309 0.22028 -0.059994 -0.040078 9.682 0.35531 1.5409 1.1408 0.060141 -0.43751 -0.30166 0.22122 -0.058461 -0.039472
69 9.6381 0.27097 1.6245 1.1763 0.10126 -0.55738 -0.41704 0.40458 -0.038581 -0.0078875 9.6744 0.26647 1.6273 1.1776 0.10371 -0.55835 -0.41676 0.40593 -0.037611 -0.0074415
70 9.6347 0.43953 1.6092 1.2303 0.016373 -0.43972 -0.36669 0.40979 -0.012514 -0.014676 9.7289 0.43824 1.6218 1.2394 0.018482 -0.44254 -0.36905 0.414 -0.011698 -0.014554
71 9.6002 -2.017 0.33938 -0.22552 0.5591 0.048018 -0.47922 -0.43391 0.45997 -0.17459 9.5953 -2.0204 0.33898 -0.23061 0.56113 0.050151 -0.47755 -0.43361 0.46201 -0.17443
72 9.583 -1.9327 0.49732 -0.29873 0.60475 0.01188 -0.56178 -0.50632 0.41647 -0.15613 9.578 -1.9363 0.49658 -0.30377 0.6068 0.013991 -0.56038 -0.50632 0.41921 -0.15622
73 9.7274 -0.41716 -0.27109 -1.6948 -0.53997 -0.039234 -0.067091 -0.70491 0.14104 0.45709 9.7467 -0.42335 -0.27227 -1.7084 -0.54521 -0.039418 -0.067065 -0.70483 0.14326 0.46044
74 9.6924 -0.64496 -0.19841 -1.7174 -0.42162 -0.25621 -0.16777 -0.57979 0.13501 0.48163 9.6725 -0.6488 -0.19869 -1.7241 -0.42467 -0.25661 -0.16655 -0.57735 0.13661 0.48301
75 9.6801 -0.67049 -0.20332 -1.8393 -0.47316 -0.46013 -0.068847 -0.43184 0.11693 0.42694 9.7097 -0.67779 -0.20472 -1.8561 -0.47885 -0.46382 -0.067662 -0.43156 0.11891 0.43035
76 9.6919 -0.61779 -0.20998 -1.7283 -0.44278 -0.24917 -0.13999 -0.58135 0.13143 0.4658 9.6544 -0.62058 -0.20985 -1.7319 -0.44502 -0.24915 -0.13857 -0.57768 0.13274 0.46618
77 9.6551 -0.81866 -0.13501 -1.788 -0.36555 -0.52459 -0.21655 -0.40699 0.14281 0.53001 9.6632 -0.82443 -0.13594 -1.8004 -0.3698 -0.52725 -0.21533 -0.40657 0.1447 0.5332
78 9.6888 -0.65764 -0.19697 -1.7465 -0.42947 -0.30721 -0.15543 -0.55316 0.13599 0.49018 9.6513 -0.66026 -0.19692 -1.7501 -0.43177 -0.30724 -0.15389 -0.54981 0.1373 0.49069
79 9.6924 -0.64496 -0.19841 -1.7174 -0.42162 -0.25621 -0.16777 -0.57979 0.13501 0.48163 9.6725 -0.6488 -0.19869 -1.7241 -0.42467 -0.25661 -0.16655 -0.57735 0.13661 0.48301
80 9.6552 -0.88622 -0.086827 -1.6505 -0.25594 -0.38712 -0.39925 -0.52389 0.17906 0.65528 9.5965 -0.88584 -0.087092 -1.6509 -0.25798 -0.38609 -0.39617 -0.52134 0.18033 0.65581
81 9.6068 -2.0149 0.1266 -0.38125 0.52694 0.1 -0.44815 -0.33442 0.60192 -0.0809 9.5484 -2.0072 0.1262 -0.3847 0.5257 0.10142 -0.4445 -0.33303 0.60057 -0.080184
82 9.6291 -1.868 0.1396 -0.59996 0.49568 0.055891 -0.50558 -0.30379 0.55367 0.047239 9.4388 -1.8357 0.13705 -0.59435 0.48706 0.056645 -0.49449 -0.29834 0.54531 0.046865
83 9.6087 -2.0343 0.1027 -0.3697 0.54145 0.13556 -0.37916 -0.28474 0.58059 -0.075298 9.5503 -2.0264 0.1025 -0.37321 0.54018 0.13687 -0.3756 -0.28334 0.57907 -0.074486
84 9.6223 -0.84476 -0.11671 -1.7449 -0.32271 -0.46226 -0.32971 -0.52935 0.18855 0.70274 9.6176 -0.84947 -0.11748 -1.7553 -0.32642 -0.46416 -0.3292 -0.53023 0.19086 0.70791
85 9.5871 -1.9863 0.36206 -0.35406 0.62914 0.10015 -0.47178 -0.41576 0.51979 -0.11887 9.595 -1.9927 0.3624 -0.35979 0.63215 0.10243 -0.47121 -0.41669 0.52271 -0.11911
86 9.5734 -1.9621 0.41319 -0.34746 0.62472 0.070194 -0.51272 -0.45379 0.49506 -0.12794 9.5151 -1.9548 0.41053 -0.35066 0.62329 0.07188 -0.50869 -0.45159 0.49475 -0.12735
87 9.4678 -2.1308 0.63381 -0.51248 1.4183 0.92799 0.77051 0.30797 -0.016009 0.041999 9.5221 -2.1491 0.63915 -0.52081 1.4335 0.93929 0.78087 0.31205 -0.016611 0.042564
88 9.5448 -2.454 -0.559 0.33819 0.16493 0.085741 -0.2201 -0.22254 0.69953 -0.38761 9.5079 -2.448 -0.55563 0.33176 0.16674 0.087186 -0.21872 -0.22221 0.69854 -0.38565
89 9.478 -2.0891 0.58056 -0.60512 1.3645 0.87737 0.65543 0.27314 0.078083 0.086718 9.4862 -2.0968 0.58256 -0.61109 1.3714 0.88309 0.66067 0.27488 0.077795 0.087074
90 9.4379 -2.1161 0.72332 -0.49923 1.4813 0.96445 0.84643 0.33304 -0.11648 0.037492 9.4189 -2.1179 0.72343 -0.50342 1.4856 0.96864 0.85101 0.335 -0.11682 0.037738
91 9.456 -2.1099 0.71885 -0.48548 1.4447 0.92318 0.79167 0.29946 -0.11122 0.026766 9.3718 -2.0971 0.71389 -0.48629 1.4388 0.92083 0.79059 0.29927 -0.11071 0.026806
92 9.427 -2.1161 0.70063 -0.53374 1.4909 0.9835 0.85441 0.3495 -0.083838 0.057451 9.4881 -2.1359 0.70675 -0.54243 1.5074 0.99566 0.86571 0.35405 -0.084946 0.058095
93 9.4514 -2.1079 0.68882 -0.52419 1.4431 0.93173 0.78087 0.30779 -0.063843 0.048728 9.4152 -2.1058 0.68765 -0.52739 1.4442 0.93378 0.78346 0.3088 -0.064077 0.048801
94 9.4441 -2.1138 0.72309 -0.49233 1.4681 0.94904 0.82719 0.32047 -0.11677 0.032363 9.4079 -2.1118 0.72186 -0.49563 1.4697 0.95153 0.83031 0.32189 -0.11687 0.03256
95 9.4326 -2.1064 0.70235 -0.5345 1.4709 0.95881 0.81916 0.33003 -0.079819 0.056706 9.4282 -2.1114 0.70349 -0.53942 1.4768 0.96392 0.82429 0.33203 -0.080278 0.056926
96 9.4262 -2.1156 0.69823 -0.53576 1.4895 0.98282 0.85239 0.34938 -0.081174 0.058564 9.4727 -2.1321 0.70324 -0.54362 1.5036 0.99342 0.86231 0.35335 -0.082141 0.05912
97 9.4116 -2.1082 0.78525 -0.4788 1.5294 0.99431 0.92143 0.35573 -0.26385 0.011067 9.3928 -2.1103 0.78544 -0.48305 1.5345 0.99929 0.92713 0.3583 -0.26497 0.011252
98 9.4354 -2.1131 0.69729 -0.52886 1.4733 0.96425 0.82773 0.33397 -0.076593 0.053837 9.4547 -2.1234 0.70025 -0.53515 1.4831 0.97193 0.83511 0.3369 -0.077263 0.054215
99 9.4218 -2.0989 0.78832 -0.46334 1.4978 0.95556 0.87319 0.32416 -0.2657 -8.1052e-05 9.3648 -2.0925 0.78522 -0.46573 1.4968 0.95667 0.8754 0.32548 -0.26565 0.00012251
100 9.5727 0.56532 1.7173 1.37 -0.051982 -0.45699 -0.51362 0.89902 0.17743 0.16824 9.6447 0.56408 1.7269 1.3774 -0.050722 -0.45873 -0.51652 0.90573 0.17944 0.16983
101 9.6518 0.38936 1.5807 1.1863 0.043287 -0.44985 -0.3408 0.31449 -0.041306 -0.029998 9.5244 0.37876 1.5569 1.1679 0.044695 -0.4426 -0.3351 0.31095 -0.039592 -0.029188
102 9.5777 0.54569 1.6667 1.3196 -0.041052 -0.42307 -0.42893 0.64121 0.06793 0.046216 9.6556 0.54457 1.6767 1.3272 -0.039637 -0.42462 -0.43108 0.64566 0.069001 0.046662
103 9.6332 0.43037 1.6058 1.2239 0.021396 -0.4438 -0.3662 0.40415 -0.012383 -0.01055 9.5447 0.42093 1.588 1.2098 0.023114 -0.43827 -0.36161 0.40072 -0.01127 -0.010127
104 9.6546 1.1288 1.3349 1.1317 -0.41446 0.021704 0.13898 -0.022242 -0.010297 -0.098988 9.758 1.1349 1.3462 1.1407 -0.41767 0.024557 0.13989 -0.021072 -0.0095977 -0.10004
105 9.5706 0.54026 1.6739 1.324 -0.038299 -0.4323 -0.43997 0.66189 0.07162 0.050474 9.6484 0.5391 1.6839 1.3315 -0.036869 -0.43391 -0.44214 0.66638 0.072693 0.050947
106 9.6016 0.35071 1.6465 1.2278 0.061342 -0.52689 -0.43442 0.49797 -0.0054622 0.0097253 9.4749 0.34067 1.6214 1.2085 0.062455 -0.51858 -0.42697 0.49091 -0.0045298 0.009915
107 9.5795 0.50093 1.6668 1.3033 -0.016666 -0.45054 -0.43617 0.61695 0.050493 0.036977 9.6238 0.49772 1.6711 1.3062 -0.014952 -0.45089 -0.43682 0.61913 0.051284 0.037256
108 9.5655 0.55292 1.6768 1.3311 -0.045301 -0.42706 -0.44148 0.6753 0.076594 0.052543 9.6374 0.55153 1.6858 1.3379 -0.04392 -0.42833 -0.44342 0.67945 0.077634 0.052987
109 9.584 0.62553 1.6469 1.3299 -0.084173 -0.36312 -0.39122 0.62312 0.079202 0.045094 9.6869 0.62663 1.661 1.341 -0.083384 -0.36489 -0.39432 0.62924 0.080585 0.045619
110 9.5744 0.52735 1.6706 1.3165 -0.031358 -0.43719 -0.43782 0.64709 0.065974 0.047259 9.6187 0.52426 1.6748 1.3194 -0.029751 -0.43736 -0.43845 0.6493 0.066817 0.047569
111 9.5829 0.65906 1.6419 1.3364 -0.10324 -0.34061 -0.37806 0.62296 0.085232 0.044832 9.6764 0.65988 1.6544 1.3464 -0.10259 -0.34173 -0.38073 0.6285 0.086579 0.045291
112 9.5656 0.58068 1.6811 1.3445 -0.060509 -0.41456 -0.44418 0.71036 0.095403 0.067995 9.6682 0.58135 1.6955 1.3557 -0.059469 -0.41702 -0.44766 0.71714 0.096884 0.068774
113 9.5648 0.57118 1.6856 1.3451 -0.05516 -0.4247 -0.45482 0.73136 0.10334 0.079906 9.6091 0.5683 1.6899 1.3481 -0.05373 -0.42475 -0.45567 0.73396 0.10428 0.080343
114 9.5767 0.64179 1.6599 1.3463 -0.093542 -0.36368 -0.40322 0.66257 0.090386 0.052214 9.7062 0.64487 1.6789 1.3616 -0.093159 -0.36656 -0.40775 0.67118 0.092105 0.052956
115 9.6194 0.43921 1.6109 1.232 0.016433 -0.44224 -0.37029 0.41555 -0.012755 -0.015002 9.4268 0.425 1.5756 1.2045 0.017982 -0.43191 -0.36162 0.40731 -0.011606 -0.014443
116 9.5833 0.66235 1.6404 1.336 -0.10472 -0.33845 -0.37631 0.62088 0.085188 0.045185 9.6611 0.66213 1.6502 1.3438 -0.10392 -0.339 -0.37837 0.6254 0.086385 0.045567
117 9.5657 0.5804 1.6722 1.3367 -0.060088 -0.40776 -0.43121 0.6751 0.082407 0.05418 9.6314 0.57883 1.68 1.3427 -0.058798 -0.40854 -0.43284 0.67876 0.083391 0.05456
118 9.5835 0.68521 1.6379 1.3409 -0.1179 -0.3247 -0.37013 0.6312 0.094902 0.05189 9.6492 0.6843 1.6456 1.3471 -0.11708 -0.32469 -0.37174 0.63504 0.096046 0.052249
119 9.5669 0.56348 1.6871 1.3436 -0.050967 -0.43084 -0.46032 0.74272 0.10926 0.089047 9.5723 0.5583 1.6845 1.3412 -0.04931 -0.42921 -0.45934 0.74243 0.10981 0.089185
120 9.562 0.57626 1.687 1.3481 -0.057962 -0.42262 -0.45451 0.73197 0.10194 0.076585 9.6504 0.57604 1.699 1.3573 -0.056811 -0.42457 -0.45741 0.73782 0.1033 0.077328
121 9.563 0.57651 1.6855 1.3468 -0.05803 -0.42128 -0.45221 0.72606 0.099842 0.074314 9.6564 0.57658 1.6984 1.3568 -0.056907 -0.42343 -0.45533 0.73225 0.10124 0.075077
122 9.6107 0.75705 1.5703 1.3023 -0.15919 -0.23598 -0.26149 0.43745 0.048039 -0.0088815 9.5883 0.74965 1.5633 1.2963 -0.15721 -0.23304 -0.26025 0.43641 0.048543 -0.0088701
123 9.5635 -1.9461 0.45931 -0.3218 0.61654 0.039635 -0.5454 -0.48993 0.46514 -0.14667 9.4396 -1.9254 0.45305 -0.32281 0.6109 0.041199 -0.53739 -0.48404 0.46194 -0.14497
124 9.7122 0.46797 -0.2729 -1.3186 -0.96875 0.60779 0.01427 -0.44067 0.31501 0.46737 9.7589 0.4645 -0.27501 -1.3344 -0.97844 0.61367 0.012131 -0.44097 0.31726 0.47069
125 9.7119 -0.41677 -0.27123 -1.6961 -0.5411 -0.039396 -0.06758 -0.71236 0.14333 0.46504 9.5197 -0.41376 -0.26649 -1.6724 -0.53443 -0.038719 -0.066086 -0.69681 0.14234 0.45814
126 9.6003 -0.72545 -0.21912 -2.158 -0.61739 -1.015 0.22742 0.012032 0.051957 0.21613 9.5635 -0.72797 -0.2193 -2.1631 -0.62008 -1.0171 0.22945 0.014813 0.052665 0.2165
127 9.6359 -0.71308 -0.19089 -1.8836 -0.47049 -0.55107 -0.085933 -0.41877 0.13528 0.50666 9.5987 -0.7155 -0.19096 -1.8877 -0.47287 -0.55166 -0.084305 -0.41608 0.13632 0.50724
128 9.6137 -0.78208 -0.16329 -1.8958 -0.43953 -0.63636 -0.12174 -0.36719 0.14219 0.53889 9.5766 -0.7842 -0.16352 -1.9001 -0.44201 -0.63702 -0.11988 -0.36507 0.14324 0.53975
129 9.6128 -0.78114 -0.17419 -1.9792 -0.48616 -0.7675 -0.028147 -0.24877 0.11887 0.45796 9.5934 -0.78474 -0.17475 -1.9873 -0.48961 -0.77002 -0.026252 -0.24705 0.12004 0.45959
130 9.6137 -0.78208 -0.16329 -1.8958 -0.43953 -0.63636 -0.12174 -0.36719 0.14219 0.53889 9.5766 -0.7842 -0.16352 -1.9001 -0.44201 -0.63702 -0.11988 -0.36507 0.14324 0.53975
131 9.612 -0.80808 -0.15101 -1.8881 -0.41989 -0.64213 -0.16056 -0.38303 0.15498 0.58822 9.5751 -0.81011 -0.15131 -1.8925 -0.42244 -0.64287 -0.15879 -0.38141 0.15616 0.5897
132 9.6146 -0.86538 -0.10231 -1.7068 -0.29264 -0.43465 -0.36981 -0.53936 0.19178 0.71121 9.5287 -0.8627 -0.1022 -1.7024 -0.29376 -0.4326 -0.36616 -0.5357 0.19247 0.71019
133 9.6069 -0.84378 -0.11669 -1.7448 -0.32298 -0.46328 -0.33112 -0.53278 0.19047 0.71047 9.4171 -0.83213 -0.11519 -1.7213 -0.32038 -0.45621 -0.32425 -0.52338 0.18903 0.70177
134 9.6069 -0.84378 -0.11669 -1.7448 -0.32298 -0.46328 -0.33112 -0.53278 0.19047 0.71047 9.4171 -0.83213 -0.11519 -1.7213 -0.32038 -0.45621 -0.32425 -0.52338 0.18903 0.70177
135 9.6033 -0.85404 -0.10991 -1.7287 -0.3092 -0.45191 -0.35138 -0.53972 0.19335 0.71991 9.4791 -0.84803 -0.1093 -1.7174 -0.30897 -0.44806 -0.34654 -0.53394 0.19323 0.71604
136 9.4224 -2.1356 0.65922 -0.52822 1.4877 1.0002 0.87419 0.36735 -0.043939 0.058137 9.3007 -2.1142 0.65254 -0.5267 1.4759 0.99363 0.8694 0.36529 -0.044009 0.057811
137 9.4134 -2.131 0.70866 -0.53924 1.5413 1.0397 0.93807 0.39493 -0.12617 0.057904 9.409 -2.1362 0.71012 -0.54421 1.5479 1.0455 0.94394 0.39728 -0.12716 0.058128
138 9.4098 -2.1359 0.6725 -0.53421 1.5124 1.0237 0.90861 0.38637 -0.0584 0.06357 9.3261 -2.1231 0.66839 -0.53477 1.5066 1.0212 0.90722 0.38574 -0.058564 0.063451
139 9.4262 -2.1304 0.65871 -0.52607 1.4719 0.98083 0.84574 0.34978 -0.042432 0.054298 9.3045 -2.1089 0.65188 -0.52448 1.4598 0.97399 0.84059 0.34752 -0.04241 0.053912
140 9.4907 -2.6145 -0.8874 0.63275 -0.039444 0.044797 -0.14897 -0.16646 0.66829 -0.45368 9.3677 -2.5834 -0.87408 0.61943 -0.036537 0.045707 -0.14661 -0.16461 0.65938 -0.44583
141 9.5138 -2.449 -0.55935 0.33852 0.16552 0.08639 -0.22302 -0.2269 0.72043 -0.40014 9.3906 -2.4209 -0.55095 0.32912 0.16579 0.087023 -0.21969 -0.22456 0.71313 -0.39474
142 9.5138 -2.449 -0.55935 0.33852 0.16552 0.08639 -0.22302 -0.2269 0.72043 -0.40014 9.3906 -2.4209 -0.55095 0.32912 0.16579 0.087023 -0.21969 -0.22456 0.71313 -0.39474
143 9.5102 -2.4488 -0.5596 0.3387 0.1657 0.086557 -0.22372 -0.22792 0.72518 -0.40297 9.4251 -2.4304 -0.55345 0.33065 0.16665 0.087544 -0.2213 -0.22651 0.72087 -0.39925
144 9.4128 -2.1229 0.70085 -0.54993 1.5257 1.0243 0.90706 0.38347 -0.083669 0.069921 9.4865 -2.1458 0.70808 -0.55954 1.5449 1.0385 0.9204 0.38902 -0.085001 0.070824
145 9.4151 -2.1161 0.68517 -0.55794 1.5017 1.0018 0.86899 0.36617 -0.065551 0.071502 9.4344 -2.1264 0.6882 -0.5643 1.5116 1.0095 0.87636 0.36906 -0.066303 0.071914
146 9.4103 -2.1224 0.72894 -0.50902 1.5209 1.01 0.91059 0.37168 -0.12457 0.047667 9.3266 -2.1097 0.7242 -0.50973 1.5151 1.0077 0.90947 0.37142 -0.12416 0.04768
147 9.4032 -2.1212 0.70431 -0.54609 1.5265 1.0243 0.90999 0.38338 -0.093856 0.067 9.4114 -2.1292 0.70657 -0.55175 1.5348 1.031 0.9166 0.38602 -0.094591 0.067338
148 9.4052 -2.1232 0.70034 -0.54533 1.5252 1.0248 0.90996 0.38443 -0.084308 0.068205 9.4008 -2.1284 0.7017 -0.55029 1.5316 1.0303 0.91555 0.38668 -0.084883 0.068501
149 9.4015 -2.124 0.69756 -0.54297 1.5231 1.0237 0.90835 0.38303 -0.082457 0.066665 9.3826 -2.1258 0.69785 -0.54709 1.5272 1.0277 0.91253 0.38468 -0.082896 0.066861
150 9.368 -2.1039 0.79538 -0.47783 1.5504 1.0163 0.96084 0.37513 -0.30421 0.0073149 9.3492 -2.1061 0.79573 -0.48213 1.556 1.0217 0.96718 0.37804 -0.30575 0.0075004
151 9.3885 -2.1027 0.79104 -0.47386 1.5309 0.99439 0.92754 0.35648 -0.2841 0.0060995 9.305 -2.0903 0.78579 -0.47482 1.5255 0.99263 0.92701 0.35669 -0.28336 0.0062435
152 9.3595 -2.105 0.79427 -0.48156 1.5581 1.0263 0.97387 0.38379 -0.30489 0.010159 9.2762 -2.0927 0.78913 -0.48249 1.5529 1.0245 0.97334 0.38396 -0.30429 0.010268
153 9.5548 0.59987 1.6955 1.3636 -0.071138 -0.41692 -0.46591 0.78662 0.12713 0.1001 9.5714 0.59541 1.6949 1.3628 -0.069626 -0.41565 -0.46549 0.78708 0.12774 0.10031
154 9.5613 0.6169 1.6793 1.3553 -0.080459 -0.39315 -0.43676 0.72589 0.10758 0.074619 9.6131 0.6147 1.6848 1.3595 -0.079252 -0.39321 -0.43793 0.72896 0.10857 0.075038
155 9.5571 0.60166 1.69 1.3594 -0.072059 -0.41114 -0.45681 0.76432 0.11933 0.091067 9.5929 0.5984 1.6927 1.3614 -0.070683 -0.41066 -0.45728 0.76625 0.12017 0.091433
156 9.4192 0.5675 1.8039 1.4493 -0.057324 -0.54481 -0.69803 1.435 0.40245 0.42669 9.4119 0.56186 1.7998 1.4459 -0.055849 -0.54328 -0.69731 1.4354 0.40318 0.42723
157 9.5604 0.60299 1.6869 1.3571 -0.072709 -0.40739 -0.45063 0.74813 0.11284 0.083298 9.5963 0.59974 1.6897 1.3592 -0.071344 -0.40697 -0.45123 0.75037 0.11374 0.083689
158 9.5526 0.58795 1.6842 1.3499 -0.064679 -0.41307 -0.4466 0.71798 0.095022 0.064838 9.5451 0.58199 1.6792 1.3456 -0.06297 -0.41071 -0.4449 0.71631 0.095303 0.064773
159 9.5786 1.5568 1.0592 0.7898 -0.81067 0.11658 0.65023 -0.42134 -0.0042505 -0.074264 9.6563 1.563 1.0649 0.79183 -0.81678 0.11894 0.65341 -0.42277 -0.0037929 -0.074318
160 9.5788 1.5826 1.0329 0.74158 -0.8529 0.12205 0.67369 -0.43079 0.0072775 -0.054425 9.7115 1.5981 1.0444 0.74727 -0.86446 0.12507 0.68088 -0.43485 0.0078212 -0.05458
161 9.5849 1.5278 1.0838 0.76409 -0.85537 0.12447 0.63532 -0.39157 0.02458 -0.034344 9.6506 1.532 1.0884 0.76488 -0.86108 0.12682 0.63795 -0.39266 0.025164 -0.034127
162 9.5749 1.5939 1.0209 0.75499 -0.82639 0.11731 0.67401 -0.44001 -0.0078842 -0.074647 9.7168 1.611 1.0332 0.76161 -0.8382 0.12035 0.68161 -0.44437 -0.0075012 -0.075078
163 9.5914 1.6325 0.93687 0.68719 -0.7973 0.10733 0.6154 -0.38572 -0.01313 -0.058844 9.7026 1.6449 0.94503 0.69045 -0.80653 0.1099 0.62029 -0.38818 -0.012632 -0.058621
164 9.5874 1.543 1.0651 0.80834 -0.77899 0.11123 0.613 -0.39217 -0.011082 -0.081734 9.6759 1.551 1.0721 0.81156 -0.78585 0.11378 0.61694 -0.39408 -0.010644 -0.081963
165 9.6066 1.603 0.94523 0.70736 -0.74658 0.098355 0.54117 -0.32496 -0.019488 -0.059914 9.6657 1.6065 0.94842 0.70716 -0.75128 0.10046 0.54262 -0.32514 -0.018864 -0.059364
166 9.6017 1.6168 0.93262 0.69541 -0.75598 0.099458 0.55723 -0.33846 -0.020171 -0.060455 9.6737 1.6225 0.93693 0.69598 -0.76168 0.10164 0.55927 -0.33899 -0.019594 -0.059956
167 9.6054 1.4958 1.0651 0.81109 -0.71794 0.099397 0.49521 -0.29009 -0.011624 -0.067507 9.5977 1.4883 1.0614 0.80615 -0.71692 0.10102 0.49285 -0.2878 -0.010989 -0.06686
168 9.6036 1.5018 1.0681 0.81315 -0.72738 0.10137 0.51144 -0.30328 -0.010968 -0.069849 9.6201 1.4981 1.0671 0.81032 -0.72833 0.10324 0.51065 -0.30201 -0.010383 -0.069414
169 9.572 1.5948 1.0363 0.76452 -0.84563 0.12183 0.70819 -0.4705 -0.0046556 -0.078114 9.7108 1.6116 1.0486 0.77126 -0.85775 0.12493 0.71678 -0.47582 -0.0042605 -0.078759
170 9.5901 1.4651 1.1405 0.88269 -0.74048 0.10815 0.5645 -0.3575 -0.0073093 -0.090144 9.5953 1.4596 1.1382 0.87914 -0.74018 0.10989 0.56304 -0.3558 -0.0068044 -0.089831
171 9.5833 1.5476 1.0588 0.79659 -0.7891 0.11266 0.62104 -0.39776 -0.008078 -0.076674 9.6551 1.5529 1.0639 0.79821 -0.79457 0.11497 0.62367 -0.39877 -0.0076061 -0.076679
172 9.5824 1.5105 1.1059 0.81608 -0.81219 0.11895 0.62701 -0.39881 0.0082144 -0.064208 9.6181 1.5099 1.1073 0.81496 -0.81494 0.12097 0.62785 -0.3988 0.0086906 -0.064105
173 9.5602 0.60453 1.6737 1.3464 -0.073513 -0.39554 -0.43014 0.69471 0.092801 0.060405 9.5768 0.60005 1.673 1.3456 -0.07198 -0.39415 -0.42962 0.69497 0.093364 0.060512
174 9.5587 0.61232 1.6698 1.3457 -0.077909 -0.3879 -0.42313 0.68421 0.090392 0.056025 9.4979 0.60294 1.6556 1.334 -0.07577 -0.38336 -0.41919 0.6789 0.090208 0.055659
175 9.556 0.59928 1.6789 1.3491 -0.070781 -0.40239 -0.4374 0.70608 0.093784 0.061629 9.5726 0.59479 1.6781 1.3483 -0.069245 -0.40102 -0.43684 0.70624 0.094316 0.061722
176 9.5542 0.6242 1.6779 1.3567 -0.084585 -0.38822 -0.43356 0.72212 0.10546 0.070293 9.4279 0.61052 1.6523 1.3357 -0.081868 -0.38111 -0.42678 0.71192 0.10448 0.069385
177 9.6686 0.69513 -0.24026 -1.1892 -1.075 0.74759 -0.0018836 -0.29217 0.37555 0.48613 9.7065 0.69212 -0.24202 -1.2031 -1.0845 0.75418 -0.0047287 -0.29157 0.37726 0.48867
178 9.6741 0.69841 -0.23798 -1.1774 -1.0607 0.7233 0.015008 -0.30079 0.38134 0.49017 9.6682 0.69224 -0.23863 -1.1859 -1.0652 0.72633 0.012242 -0.29891 0.38139 0.49055
179 9.6721 0.70618 -0.24285 -1.2062 -1.1182 0.82558 -0.061095 -0.23108 0.33129 0.43146 9.6791 0.70105 -0.24389 -1.2165 -1.1247 0.83055 -0.064408 -0.22918 0.33153 0.43214
180 9.6913 0.83125 -0.215 -1.0859 -1.0966 0.76651 0.018305 -0.20822 0.39444 0.46848 9.7454 0.83006 -0.21704 -1.1012 -1.1082 0.77484 0.015213 -0.20782 0.397 0.47205
181 9.6703 0.66644 -0.24467 -1.2064 -1.0631 0.73262 -0.00094975 -0.31084 0.36854 0.48484 9.6495 0.65932 -0.24496 -1.213 -1.0661 0.73459 -0.0036889 -0.30841 0.36803 0.48446
182 9.6721 0.70618 -0.24285 -1.2062 -1.1182 0.82558 -0.061095 -0.23108 0.33129 0.43146 9.6791 0.70105 -0.24389 -1.2165 -1.1247 0.83055 -0.064408 -0.22918 0.33153 0.43214
183 9.6686 0.69513 -0.24026 -1.1892 -1.075 0.74759 -0.0018836 -0.29217 0.37555 0.48613 9.7065 0.69212 -0.24202 -1.2031 -1.0845 0.75418 -0.0047287 -0.29157 0.37726 0.48867
184 9.6699 0.69466 -0.23989 -1.1871 -1.0707 0.74033 0.0031603 -0.29632 0.378 0.48881 9.6985 0.69098 -0.24142 -1.1998 -1.0792 0.74612 0.00036309 -0.29547 0.37939 0.49093
185 9.6687 0.70075 -0.24345 -1.2081 -1.1135 0.81636 -0.053479 -0.24402 0.34042 0.44457 9.7066 0.69783 -0.24527 -1.2223 -1.1235 0.82383 -0.05688 -0.24297 0.34182 0.44674
186 9.6703 0.66644 -0.24467 -1.2064 -1.0631 0.73262 -0.00094975 -0.31084 0.36854 0.48484 9.6495 0.65932 -0.24496 -1.213 -1.0661 0.73459 -0.0036889 -0.30841 0.36803 0.48446
187 9.701 0.85428 -0.20451 -1.0348 -1.0468 0.67801 0.086063 -0.24309 0.42875 0.4984 9.7193 0.84995 -0.20567 -1.0458 -1.0537 0.68247 0.083337 -0.24217 0.42982 0.5002
188 9.585 -0.72469 -0.21915 -2.1587 -0.61826 -1.0181 0.22873 0.012161 0.052633 0.21914 9.3958 -0.71559 -0.21583 -2.1292 -0.61102 -1.004 0.22706 0.014672 0.052478 0.21599
189 9.585 -0.72469 -0.21915 -2.1587 -0.61826 -1.0181 0.22873 0.012161 0.052633 0.21914 9.3958 -0.71559 -0.21583 -2.1292 -0.61102 -1.004 0.22706 0.014672 0.052478 0.21599
190 9.4524 -0.73749 -0.2407 -2.4023 -0.75079 -1.4785 0.54102 0.474 -0.040143 -0.10811 9.4335 -0.74132 -0.24138 -2.412 -0.75488 -1.4843 0.54428 0.47781 -0.039947 -0.10872
191 9.3879 -2.135 0.69798 -0.54623 1.5563 1.0644 0.96743 0.41862 -0.085109 0.073605 9.3312 -2.1284 0.69574 -0.54828 1.5549 1.0648 0.96878 0.4192 -0.08538 0.073672
192 9.3687 -2.1355 0.69546 -0.53837 1.5569 1.0684 0.97797 0.42414 -0.086558 0.071144 9.2854 -2.1229 0.69133 -0.53897 1.5514 1.0662 0.97697 0.42378 -0.086635 0.071097
193 9.2906 -2.8246 -1.3742 1.0717 -0.34972 -0.018288 -0.037657 -0.07702 0.59761 -0.53598 9.3358 -2.8401 -1.3783 1.0717 -0.34908 -0.017287 -0.037579 -0.077437 0.59764 -0.53455
194 9.3926 -2.1228 0.70105 -0.54828 1.533 1.0339 0.92203 0.39176 -0.085664 0.070724 9.2714 -2.1015 0.69368 -0.54634 1.5202 1.0265 0.91608 0.3891 -0.085172 0.07014
195 9.3869 -2.1296 0.70342 -0.55171 1.5555 1.0603 0.96016 0.41466 -0.089148 0.075729 9.2657 -2.1083 0.6962 -0.54983 1.5431 1.0531 0.95448 0.41215 -0.08873 0.075194
196 9.3766 -2.1329 0.716 -0.53342 1.5647 1.0682 0.983 0.42197 -0.109 0.067627 9.2932 -2.1203 0.71163 -0.53403 1.5591 1.0659 0.98192 0.42162 -0.10887 0.067589
197 9.353 -2.1015 0.79526 -0.47784 1.5518 1.0187 0.96526 0.37772 -0.30744 0.0074011 9.1685 -2.0663 0.78148 -0.47357 1.5298 1.0059 0.9543 0.37384 -0.30347 0.0074492
198 9.3203 -2.1006 0.79832 -0.4822 1.5714 1.0419 1.0008 0.39836 -0.3277 0.0094188 9.2641 -2.0944 0.79555 -0.48454 1.5709 1.0433 1.0034 0.39979 -0.32818 0.0095605
199 9.3448 0.5654 1.8138 1.4594 -0.058184 -0.5608 -0.7338 1.5422 0.44878 0.48017 9.3376 0.55984 1.8099 1.4561 -0.056758 -0.55939 -0.73325 1.5429 0.44956 0.48081
200 9.3483 0.56546 1.813 1.4586 -0.058126 -0.55977 -0.73155 1.5355 0.44591 0.47687 9.3097 0.55802 1.8031 1.4504 -0.056506 -0.55647 -0.72852 1.531 0.44518 0.47588
201 9.3463 0.56542 1.8134 1.459 -0.058157 -0.56032 -0.73275 1.5391 0.44744 0.47862 9.3247 0.559 1.8068 1.4535 -0.056642 -0.55804 -0.73106 1.5374 0.44752 0.47851
202 9.3448 0.5654 1.8138 1.4594 -0.058184 -0.5608 -0.7338 1.5422 0.44878 0.48017 9.3376 0.55984 1.8099 1.4561 -0.056758 -0.55939 -0.73325 1.5429 0.44956 0.48081
203 9.3448 0.5654 1.8138 1.4594 -0.058184 -0.5608 -0.7338 1.5422 0.44878 0.48017 9.3376 0.55984 1.8099 1.4561 -0.056758 -0.55939 -0.73325 1.5429 0.44956 0.48081
204 9.3506 0.56552 1.8126 1.4582 -0.058094 -0.55919 -0.73026 1.5316 0.44422 0.47491 9.312 0.55807 1.8026 1.45 -0.056473 -0.55589 -0.72722 1.5271 0.44348 0.47391
205 9.5588 1.6431 0.98278 0.69258 -0.90082 0.12889 0.75513 -0.49899 0.0096374 -0.054424 9.6243 1.6479 0.98673 0.6926 -0.90677 0.13085 0.75785 -0.50041 0.01012 -0.054088
206 9.5644 1.62 1.003 0.67241 -0.93846 0.13571 0.74586 -0.47708 0.033475 -0.022542 9.6361 1.6259 1.0078 0.67268 -0.94554 0.13787 0.74931 -0.479 0.034061 -0.022104
207 9.5536 1.6067 1.0416 0.74259 -0.90383 0.13252 0.76792 -0.51359 0.01277 -0.062216 9.5893 1.6064 1.0427 0.74088 -0.90694 0.13418 0.76872 -0.51378 0.013178 -0.061931
208 9.5744 1.6149 0.97689 0.64702 -0.91376 0.12931 0.68393 -0.41916 0.033692 -0.0081295 9.5134 1.5984 0.96796 0.63809 -0.90812 0.12969 0.67748 -0.41483 0.033886 -0.0073686
209 9.5691 1.638 0.962 0.70402 -0.83498 0.11588 0.68455 -0.44608 -0.010255 -0.068435 9.5743 1.6324 0.95975 0.69974 -0.83519 0.11712 0.68247 -0.4442 -0.0097138 -0.06765
210 9.5567 1.61 1.0279 0.70674 -0.92904 0.13569 0.76181 -0.49832 0.026586 -0.038917 9.6007 1.6112 1.0299 0.70543 -0.93334 0.1375 0.7635 -0.49917 0.027044 -0.038598
211 9.5641 1.6325 0.9919 0.70959 -0.88042 0.12557 0.73419 -0.48366 0.0039967 -0.06062 9.6665 1.6435 0.99967 0.71248 -0.88954 0.12805 0.73954 -0.48673 0.0044923 -0.060531
212 9.5853 1.7155 0.82136 0.5733 -0.8417 0.11151 0.65399 -0.40636 -0.001243 -0.03528 9.6443 1.7195 0.82383 0.57172 -0.84717 0.11325 0.65531 -0.40672 -0.00055476 -0.034275
213 9.5591 1.6515 0.97325 0.69631 -0.88712 0.12613 0.75375 -0.50209 0.00061332 -0.065357 9.6473 1.6602 0.97939 0.69797 -0.89499 0.12835 0.75807 -0.50454 0.0010668 -0.065182
214 9.5643 1.6522 0.95756 0.68582 -0.87053 0.12216 0.72386 -0.47539 -0.0015144 -0.061238 9.6622 1.6626 0.96451 0.68802 -0.87914 0.12449 0.72855 -0.47799 -0.001039 -0.061023
215 9.575 1.692 0.89562 0.62939 -0.87787 0.12114 0.72222 -0.4686 0.0041786 -0.046073 9.686 1.7051 0.90341 0.63181 -0.88824 0.12361 0.72826 -0.47219 0.0048094 -0.045642
216 9.5646 1.5781 1.0492 0.77672 -0.83515 0.12052 0.68758 -0.45165 -0.0046752 -0.078159 9.5697 1.5725 1.0469 0.77266 -0.83503 0.12185 0.68553 -0.4497 -0.004232 -0.077572
217 9.562 1.6257 1.0035 0.72317 -0.87621 0.12549 0.7358 -0.48758 0.0012858 -0.06729 9.6552 1.635 1.0104 0.72556 -0.88439 0.12785 0.74048 -0.49022 0.0017365 -0.06724
218 9.5798 1.7139 0.84023 0.59155 -0.85097 0.11413 0.68178 -0.43353 -0.0023404 -0.043479 9.6388 1.7178 0.84279 0.59014 -0.8564 0.11587 0.68327 -0.43405 -0.0016886 -0.042567
219 9.5932 1.6761 0.85576 0.52768 -0.92762 0.12807 0.65625 -0.38219 0.042999 0.017283 9.6868 1.6859 0.86146 0.52747 -0.93727 0.13041 0.66008 -0.38409 0.043937 0.018565
220 9.5589 1.5876 1.0518 0.76522 -0.86858 0.1267 0.7265 -0.48169 0.0046133 -0.070512 9.5513 1.5801 1.0482 0.76017 -0.86749 0.12783 0.72377 -0.47941 0.0050252 -0.069885
221 9.5895 1.6382 0.86678 0.42068 -1.0859 0.16328 0.70014 -0.37189 0.14723 0.13256 9.6062 1.6349 0.86575 0.41571 -1.089 0.1646 0.69918 -0.37149 0.14771 0.1337
222 9.5533 1.5961 1.0503 0.74824 -0.89988 0.13211 0.75576 -0.50221 0.013881 -0.060724 9.5309 1.5861 1.045 0.742 -0.89744 0.13297 0.75183 -0.4992 0.014213 -0.060036
223 9.5791 1.6863 0.88897 0.62064 -0.8686 0.11876 0.69405 -0.44164 0.0047679 -0.039701 9.6901 1.6993 0.89661 0.62287 -0.8788 0.12122 0.69957 -0.44475 0.0054057 -0.039157
224 9.5799 1.6865 0.88669 0.60871 -0.88212 0.12117 0.69766 -0.44065 0.012187 -0.030468 9.6733 1.6964 0.8927 0.60965 -0.89093 0.12343 0.70196 -0.44298 0.012874 -0.029759
225 9.5655 1.6251 0.98221 0.71643 -0.84263 0.11828 0.69156 -0.4516 -0.0060657 -0.067289 9.5258 1.612 0.97533 0.70884 -0.83881 0.11897 0.68624 -0.4476 -0.0055295 -0.066239
226 9.5866 1.6429 0.88187 0.45076 -1.0698 0.15889 0.71206 -0.39141 0.1277 0.10874 9.6226 1.6429 0.88261 0.44686 -1.0749 0.16053 0.71254 -0.39175 0.12842 0.11003
227 9.5501 1.6332 1.0145 0.73417 -0.89514 0.12998 0.7819 -0.53061 0.00079841 -0.076746 9.6088 1.6368 1.0179 0.7341 -0.90023 0.13185 0.78424 -0.53181 0.0012024 -0.076566
228 9.5628 1.6401 0.98577 0.71486 -0.87077 0.12382 0.73849 -0.49138 -0.0027912 -0.070123 9.5984 1.6398 0.98674 0.71295 -0.87385 0.12542 0.73905 -0.49136 -0.0023297 -0.069673
229 9.6131 1.7163 0.76836 0.54083 -0.77782 0.0971 0.54443 -0.31119 -0.0087978 -0.025206 9.5732 1.7027 0.76288 0.53357 -0.77546 0.09795 0.54016 -0.30829 -0.0078836 -0.023713
230 9.5591 1.6167 1.0299 0.69258 -0.96065 0.1414 0.78945 -0.51676 0.03713 -0.028457 9.6309 1.6226 1.0351 0.69322 -0.96813 0.14364 0.79391 -0.51957 0.037751 -0.028182
231 9.5609 1.6097 1.0016 0.61605 -1.0052 0.14726 0.75374 -0.46273 0.072595 0.029774 9.5213 1.5969 0.99487 0.60865 -1.0016 0.1478 0.74899 -0.45973 0.072572 0.030215
232 9.5801 1.6984 0.86595 0.61277 -0.84976 0.11448 0.68082 -0.43383 -0.0040016 -0.047095 9.6735 1.7084 0.87178 0.61378 -0.85822 0.11667 0.68494 -0.43604 -0.0034037 -0.046481
233 9.5499 1.6386 1.0002 0.72608 -0.88512 0.12744 0.76975 -0.52082 -0.0026465 -0.077128 9.555 1.6331 0.99792 0.72188 -0.8852 0.12858 0.76767 -0.51901 -0.0022252 -0.076481
234 9.5533 1.6389 0.99133 0.71463 -0.88295 0.12638 0.75454 -0.50493 -0.00016752 -0.069629 9.5457 1.6311 0.9877 0.7094 -0.88184 0.12734 0.75132 -0.50233 0.00026346 -0.068848
235 9.5567 1.6194 1.0196 0.74362 -0.87355 0.12615 0.74827 -0.50229 -0.0020556 -0.077104 9.6007 1.6205 1.0214 0.74249 -0.87715 0.12787 0.7493 -0.50254 -0.0016431 -0.076809
236 9.5821 1.7157 0.83571 0.58974 -0.84637 0.1131 0.67614 -0.42895 -0.003672 -0.044141 9.6339 1.7184 0.83765 0.58789 -0.85119 0.11475 0.67715 -0.42916 -0.0030055 -0.043179
237 9.5537 1.6289 1.006 0.73562 -0.87042 0.125 0.75023 -0.50544 -0.0054932 -0.079532 9.5701 1.6252 1.0049 0.73231 -0.8715 0.12632 0.74905 -0.50419 -0.005059 -0.078977
238 9.6671 1.8597 0.31764 0.18184 -0.76341 0.13122 0.47759 -0.20421 0.078148 0.044731 9.7398 1.8668 0.31858 0.17705 -0.77155 0.13322 0.47857 -0.2046 0.080148 0.047598
239 9.5662 1.6234 0.99449 0.71649 -0.8643 0.12276 0.71238 -0.46618 0.0019854 -0.060786 9.5714 1.6179 0.99228 0.7123 -0.86456 0.12401 0.71052 -0.46452 0.0024555 -0.060132
240 9.5533 1.648 0.98476 0.70793 -0.89069 0.12758 0.76725 -0.51548 0.00081545 -0.06927 9.5585 1.6424 0.98254 0.70368 -0.89091 0.12871 0.76526 -0.51378 0.0012623 -0.068584
241 9.5605 1.6291 1.0003 0.7172 -0.88369 0.12685 0.7448 -0.49453 0.0057796 -0.061794 9.5656 1.6237 0.99821 0.71307 -0.88406 0.12809 0.74319 -0.49311 0.006233 -0.061195
242 9.5559 1.6038 1.036 0.723 -0.91506 0.13376 0.75328 -0.49278 0.023294 -0.043267 9.4951 1.5874 1.0268 0.71395 -0.90925 0.13411 0.74679 -0.48825 0.023532 -0.042464
243 9.5644 1.6411 0.97478 0.6711 -0.91117 0.1299 0.73831 -0.47633 0.019475 -0.036161 9.5695 1.6357 0.97264 0.66676 -0.91172 0.13108 0.7366 -0.47492 0.019909 -0.035484
244 9.5504 1.6036 1.0397 0.74258 -0.89682 0.13114 0.75771 -0.50541 0.011094 -0.063055 9.424 1.5762 1.0233 0.7284 -0.88479 0.13058 0.74584 -0.49718 0.011307 -0.061746
245 9.5504 1.6337 1.0036 0.70717 -0.91195 0.13211 0.77385 -0.51572 0.013353 -0.055738 9.5281 1.6236 0.99858 0.70093 -0.90964 0.13288 0.76981 -0.51271 0.013696 -0.054998
246 9.5569 1.5937 1.0376 0.76574 -0.84853 0.12261 0.71574 -0.47763 -0.0047497 -0.080007 9.3652 1.5556 1.0141 0.74614 -0.83126 0.1214 0.69953 -0.46641 -0.004216 -0.077888
247 9.5561 1.6167 1.0262 0.74316 -0.88443 0.12851 0.75741 -0.5082 0.0044251 -0.070708 9.5485 1.6091 1.0227 0.73814 -0.88352 0.12959 0.75483 -0.50611 0.0048569 -0.070055
248 9.5531 1.5926 1.0426 0.7333 -0.90102 0.13159 0.73871 -0.48385 0.019043 -0.049193 9.4922 1.5762 1.0332 0.72415 -0.89507 0.13196 0.73196 -0.47905 0.019266 -0.04838
249 9.6544 0.75501 -0.25172 -1.2677 -1.2888 1.1258 -0.2774 -0.013082 0.19146 0.25982 9.6162 0.74669 -0.25175 -1.2727 -1.2909 1.1283 -0.28109 -0.0098971 0.18985 0.25818
250 9.6758 0.83044 -0.21508 -1.0865 -1.0986 0.76943 0.018402 -0.21026 0.40031 0.47605 9.4835 0.80826 -0.21162 -1.0739 -1.0821 0.758 0.014953 -0.20454 0.39263 0.46741
251 9.7363 1.4341 -0.060653 -0.47603 -0.96065 0.46351 0.34561 -0.069237 0.58266 0.53533 9.7146 1.4244 -0.06121 -0.48289 -0.96259 0.46443 0.34184 -0.068858 0.58199 0.53597
252 9.3599 -0.73927 -0.24803 -2.4865 -0.79904 -1.651 0.65996 0.65124 -0.075977 -0.23466 9.3242 -0.74173 -0.2483 -2.492 -0.80175 -1.6543 0.66228 0.6542 -0.075873 -0.23535
253 9.3767 -0.73831 -0.24599 -2.4633 -0.78604 -1.6046 0.62742 0.60146 -0.065338 -0.1965 9.2933 -0.73699 -0.24499 -2.4561 -0.78469 -1.5995 0.62643 0.6012 -0.064836 -0.19602
254 9.3405 -0.73957 -0.24948 -2.5032 -0.80854 -1.6846 0.68258 0.68396 -0.082166 -0.25608 9.3786 -0.7479 -0.25173 -2.5285 -0.81768 -1.7013 0.69036 0.69239 -0.082745 -0.25885
255 9.3366 -0.74176 -0.25215 -2.5331 -0.82466 -1.742 0.72398 0.75005 -0.097496 -0.31222 9.3657 -0.74941 -0.25421 -2.5566 -0.83329 -1.7581 0.73175 0.7588 -0.098243 -0.31559
256 9.3412 -0.7395 -0.24936 -2.5019 -0.80789 -1.6826 0.68155 0.68301 -0.082202 -0.25643 9.3605 -0.74632 -0.2511 -2.5221 -0.81536 -1.6959 0.68791 0.69 -0.082605 -0.25866
257 9.3537 -2.1331 0.69539 -0.53841 1.5584 1.0711 0.98266 0.42717 -0.087512 0.071994 9.1692 -2.0974 0.68372 -0.53311 1.536 1.0572 0.97094 0.42215 -0.086631 0.071162
258 9.1308 -2.9434 -1.6704 1.3394 -0.54097 -0.057499 0.032029 -0.020877 0.55931 -0.59643 9.2309 -2.9767 -1.6854 1.3489 -0.5446 -0.057305 0.032568 -0.020926 0.56067 -0.59747
259 9.1349 -2.9348 -1.6508 1.3216 -0.52764 -0.054449 0.025196 -0.02891 0.61637 -0.64964 9.2113 -2.9602 -1.6612 1.3274 -0.52971 -0.05406 0.02558 -0.029 0.617 -0.64981
260 9.1374 -2.938 -1.6574 1.3277 -0.53276 -0.055869 0.029355 -0.022633 0.55217 -0.58449 9.2023 -2.9599 -1.666 1.332 -0.53427 -0.055435 0.029759 -0.022619 0.55139 -0.5832
261 9.1322 -2.9409 -1.6649 1.3345 -0.53751 -0.056792 0.030756 -0.02194 0.56073 -0.59611 9.2188 -2.9698 -1.6774 1.342 -0.54031 -0.056501 0.031235 -0.021969 0.56125 -0.59621
262 9.1307 -2.9444 -1.6726 1.3414 -0.54256 -0.057898 0.033049 -0.019513 0.54755 -0.58495 9.2221 -2.9748 -1.6861 1.3497 -0.54571 -0.057657 0.033571 -0.019525 0.54825 -0.5853
263 9.1308 -2.942 -1.6674 1.3367 -0.53908 -0.05709 0.031194 -0.021746 0.56383 -0.60018 9.2266 -2.9738 -1.6817 1.3456 -0.54242 -0.056861 0.031708 -0.021794 0.56493 -0.60093
264 9.1578 -2.9258 -1.6254 1.2987 -0.51208 -0.051679 0.022173 -0.027911 0.54501 -0.56585 9.1651 -2.9292 -1.6236 1.2947 -0.51026 -0.050872 0.022403 -0.027783 0.54111 -0.56121
265 9.1269 -2.9844 -1.7571 1.4181 -0.60018 -0.071324 0.064278 0.018939 0.24872 -0.29921 9.2425 -3.0234 -1.7768 1.4316 -0.60599 -0.071545 0.065422 0.019514 0.24659 -0.29721
266 9.1368 -2.9404 -1.6624 1.3322 -0.53613 -0.056643 0.031103 -0.020552 0.53704 -0.57029 9.2076 -2.9641 -1.6721 1.3374 -0.53802 -0.056255 0.031543 -0.020532 0.53647 -0.56925
267 9.1301 -2.9445 -1.6727 1.3415 -0.54247 -0.057817 0.032641 -0.0203 0.55722 -0.59502 9.2259 -2.9763 -1.687 1.3504 -0.54589 -0.057605 0.033174 -0.020332 0.55836 -0.59584
268 9.149 -2.9284 -1.634 1.3066 -0.51776 -0.052824 0.024082 -0.0266 0.54838 -0.57228 9.1854 -2.9411 -1.6373 1.3066 -0.51753 -0.052181 0.024377 -0.026543 0.54589 -0.5691
269 9.2926 -2.0965 0.79851 -0.48249 1.5755 1.048 1.0116 0.40472 -0.33568 0.0096715 9.1727 -2.0759 0.79028 -0.48148 1.5642 1.0422 1.0073 0.40337 -0.33389 0.0097432
270 9.2926 -2.0965 0.79851 -0.48249 1.5755 1.048 1.0116 0.40472 -0.33568 0.0096715 9.1727 -2.0759 0.79028 -0.48148 1.5642 1.0422 1.0073 0.40337 -0.33389 0.0097432
271 9.331 0.56494 1.815 1.4606 -0.058308 -0.56322 -0.73934 1.559 0.4561 0.48865 9.2924 0.55751 1.8051 1.4525 -0.056699 -0.55994 -0.73632 1.5545 0.45535 0.48764
272 9.5641 1.6505 0.93224 0.54891 -1.0235 0.14923 0.76014 -0.45985 0.081364 0.045578 9.5245 1.6374 0.92575 0.54147 -1.0198 0.14961 0.75477 -0.4565 0.081319 0.046154
273 9.6714 1.6417 0.39414 -0.010458 -1.0887 0.26481 0.56825 -0.16898 0.35157 0.28954 9.6318 1.6285 0.39088 -0.017469 -1.087 0.26475 0.56283 -0.16789 0.35048 0.29003
274 9.5441 1.6157 1.0314 0.69381 -0.96424 0.14236 0.79844 -0.52511 0.038031 -0.029182 9.3527 1.5773 1.0082 0.67546 -0.9451 0.14063 0.78088 -0.51344 0.037579 -0.028125
275 9.7076 1.7947 -0.21198 -0.2427 -0.62733 0.30219 0.30382 0.014076 0.70467 0.69797 9.6463 1.7765 -0.21083 -0.24787 -0.62715 0.30166 0.29968 0.01405 0.70094 0.69528
276 9.5134 2.4653 -0.59513 0.23079 0.30391 -0.088823 0.13823 -0.16554 -0.41055 -0.46565 9.5715 2.4721 -0.59732 0.22833 0.30261 -0.088571 0.13808 -0.16569 -0.41144 -0.46634
277 9.5641 0.76693 -0.27223 -1.3862 -1.5151 1.5452 -0.60439 0.28466 -0.041503 -0.012234 9.4779 0.75518 -0.27103 -1.3846 -1.5108 1.5419 -0.60585 0.28688 -0.04323 -0.014204
278 9.7209 1.433 -0.060709 -0.4766 -0.96328 0.46593 0.34867 -0.070122 0.59385 0.54647 9.527 1.398 -0.060176 -0.47484 -0.94807 0.45855 0.33883 -0.068511 0.58265 0.53738
279 9.3262 -0.73968 -0.25045 -2.5144 -0.81519 -1.7091 0.70018 0.71133 -0.088147 -0.27764 9.2907 -0.74213 -0.25072 -2.5199 -0.81789 -1.7125 0.70252 0.71429 -0.088094 -0.27841
280 9.3219 -0.73975 -0.25078 -2.5181 -0.81728 -1.7163 0.70479 0.71757 -0.089145 -0.2809 9.3301 -0.7457 -0.25223 -2.5355 -0.82385 -1.7278 0.71047 0.72393 -0.089519 -0.283
281 9.3146 -0.73984 -0.2513 -2.5241 -0.82079 -1.7291 0.71382 0.73135 -0.092042 -0.29122 9.2961 -0.74365 -0.25204 -2.5343 -0.82502 -1.7357 0.71752 0.73572 -0.092187 -0.2926
282 9.3207 -0.73979 -0.2509 -2.5196 -0.81818 -1.72 0.70786 0.72309 -0.090652 -0.28661 9.2645 -0.74059 -0.25062 -2.5195 -0.81906 -1.7195 0.70863 0.72446 -0.09041 -0.28677
283 9.3137 -0.73908 -0.25052 -2.5155 -0.81631 -1.7137 0.70309 0.71477 -0.088384 -0.27798 9.1935 -0.73476 -0.2485 -2.498 -0.81152 -1.7013 0.69895 0.71111 -0.087518 -0.27617
284 9.3169 -0.73977 -0.2511 -2.5218 -0.81952 -1.7248 0.71107 0.72766 -0.091471 -0.28938 9.2814 -0.74222 -0.25137 -2.5274 -0.82222 -1.7282 0.71342 0.73064 -0.091433 -0.29019
285 9.2541 -0.74369 -0.2593 -2.6155 -0.87281 -1.9207 0.85526 0.96003 -0.14581 -0.48872 9.172 -0.74243 -0.25839 -2.609 -0.87169 -1.9167 0.85472 0.96025 -0.14559 -0.48879
286 9.1127 -2.9568 -1.7044 1.3702 -0.56341 -0.062269 0.041214 -0.012226 0.52783 -0.57505 9.1643 -2.9744 -1.7107 1.3729 -0.56434 -0.061833 0.041635 -0.01208 0.52573 -0.57253
287 9.1058 -2.9621 -1.7166 1.3811 -0.57067 -0.063529 0.042446 -0.013074 0.56715 -0.62083 9.2245 -3.0015 -1.7356 1.394 -0.57584 -0.063575 0.043174 -0.013039 0.56965 -0.62339
288 9.1059 -2.9611 -1.7152 1.38 -0.57017 -0.063555 0.043032 -0.011647 0.54654 -0.59878 9.1969 -2.9915 -1.729 1.3886 -0.57358 -0.063406 0.043638 -0.011549 0.5469 -0.59899
289 9.1002 -2.9677 -1.7308 1.3941 -0.58049 -0.065789 0.047506 -0.0071908 0.52704 -0.58401 9.1648 -2.9896 -1.7398 1.3989 -0.58238 -0.065495 0.048025 -0.0070178 0.52574 -0.58249
290 9.0998 -2.9683 -1.7325 1.3957 -0.58183 -0.066148 0.0485 -0.0057584 0.51319 -0.57011 9.1439 -2.9836 -1.7377 1.3974 -0.58243 -0.065711 0.048922 -0.0055568 0.51059 -0.56716
291 9.1054 -2.9618 -1.717 1.3816 -0.57153 -0.063904 0.043957 -0.010356 0.53443 -0.58668 9.17 -2.9837 -1.7259 1.3863 -0.57333 -0.063581 0.044452 -0.01021 0.53314 -0.5851
292 9.0932 -2.9693 -1.737 1.3997 -0.58469 -0.066668 0.04906 -0.0060144 0.52858 -0.58822 9.0882 -2.9685 -1.7327 1.3939 -0.58214 -0.065879 0.049209 -0.005785 0.52319 -0.58216
293 9.1089 -2.9561 -1.7036 1.3694 -0.56234 -0.061788 0.039189 -0.015974 0.57409 -0.62353 9.1952 -2.9849 -1.7164 1.3772 -0.56537 -0.061579 0.039733 -0.015924 0.57457 -0.6238
294 9.0968 -2.9718 -1.7407 1.4031 -0.58724 -0.067321 0.050858 -0.0033888 0.50231 -0.56163 9.141 -2.9871 -1.7459 1.4049 -0.58791 -0.066902 0.051295 -0.0031719 0.49973 -0.55872
295 9.1066 -2.957 -1.7066 1.3721 -0.56448 -0.062304 0.040409 -0.014476 0.56284 -0.61292 9.1649 -2.9767 -1.7141 1.3758 -0.5658 -0.061913 0.040841 -0.014361 0.56138 -0.61109
296 9.103 -2.9919 -1.7804 1.4391 -0.61462 -0.073908 0.067068 0.017845 0.31953 -0.38239 9.1985 -3.0244 -1.7963 1.4497 -0.61917 -0.074009 0.068056 0.018361 0.31748 -0.38051
297 9.1032 -2.9638 -1.7216 1.3857 -0.5743 -0.064416 0.044622 -0.010276 0.54412 -0.59855 9.1395 -2.9765 -1.7252 1.3862 -0.57435 -0.063905 0.044979 -0.010105 0.54139 -0.5954
298 9.1105 -2.9473 -1.6856 1.3532 -0.55066 -0.059281 0.034148 -0.02111 0.59953 -0.64428 9.0749 -2.9366 -1.6756 1.3427 -0.54618 -0.058242 0.034175 -0.020843 0.59225 -0.63611
299 9.1054 -2.9548 -1.7023 1.3682 -0.56128 -0.06145 0.037999 -0.018037 0.59878 -0.64937 9.1416 -2.9674 -1.7056 1.3684 -0.56119 -0.060898 0.038308 -0.017917 0.59624 -0.64634
300 9.1073 -2.958 -1.7086 1.374 -0.56595 -0.062686 0.041453 -0.012981 0.5485 -0.59855 9.1436 -2.9706 -1.712 1.3743 -0.56592 -0.06215 0.041795 -0.012821 0.5456 -0.59517
301 9.1049 -2.9513 -1.6958 1.3624 -0.55733 -0.060669 0.036682 -0.018979 0.59674 -0.64506 9.0999 -2.9505 -1.6914 1.3564 -0.55468 -0.059833 0.036818 -0.018776 0.59136 -0.63894
302 9.1043 -2.9678 -1.7303 1.3937 -0.58084 -0.066155 0.049456 -0.0032684 0.4757 -0.52974 9.1115 -2.971 -1.7285 1.3899 -0.57913 -0.065455 0.049696 -0.0030336 0.47096 -0.52441
303 9.1065 -2.9683 -1.7305 1.3939 -0.58104 -0.06624 0.049838 -0.0025244 0.46599 -0.51945 9.1016 -2.9677 -1.7265 1.3883 -0.5786 -0.06546 0.05002 -0.0022877 0.46079 -0.51361
304 8.9958 -3.0773 -2.0134 1.6531 -0.78301 -0.11492 0.16731 0.14694 -0.75484 0.66188 9.0469 -3.097 -2.0247 1.6605 -0.7873 -0.11536 0.16905 0.14864 -0.76646 0.67284
305 9.1037 -2.9691 -1.7331 1.3963 -0.58268 -0.066551 0.050261 -0.0024223 0.47082 -0.52544 9.0987 -2.9684 -1.729 1.3906 -0.58021 -0.065768 0.050437 -0.0021798 0.46545 -0.51941
306 9.0014 -3.0703 -1.9972 1.6384 -0.77236 -0.11265 0.16292 0.14278 -0.73993 0.65202 8.9967 -3.0708 -1.9959 1.6355 -0.77175 -0.11236 0.1636 0.14352 -0.74656 0.6586
307 9.6921 1.7929 -0.21205 -0.24285 -0.62847 0.30332 0.30584 0.014214 0.71508 0.70915 9.4983 1.7503 -0.208 -0.24459 -0.61964 0.29863 0.29758 0.013993 0.70163 0.69679
308 9.6643 2.0196 -0.55072 -0.22879 -0.23324 0.22976 0.16304 0.065256 0.71881 0.74461 9.5368 1.9856 -0.5426 -0.23154 -0.23419 0.22796 0.15938 0.064238 0.70931 0.73538
309 9.4171 2.6024 -0.83381 0.22999 0.56983 -0.13781 0.047465 -0.14253 -0.47812 -0.53122 9.3774 2.5829 -0.82814 0.22577 0.56407 -0.1365 0.046779 -0.14124 -0.47463 -0.52718
310 9.3733 2.6751 -0.9676 0.22294 0.71094 -0.16262 -0.0025184 -0.12932 -0.52866 -0.58599 9.4774 2.696 -0.97577 0.22239 0.71527 -0.1637 -0.0028145 -0.1301 -0.53271 -0.59035
311 9.3615 2.6931 -1.0044 0.21901 0.7482 -0.16848 -0.017508 -0.12349 -0.53738 -0.59534 9.477 2.7175 -1.0142 0.21875 0.75388 -0.16985 -0.017949 -0.12439 -0.5423 -0.6007
312 9.352 2.749 -1.2291 0.11903 0.88538 -0.14525 -0.11605 -0.0018652 -0.14437 -0.13859 9.5387 2.7951 -1.2507 0.11857 0.89941 -0.14757 -0.11837 -0.0016849 -0.14658 -0.14057
313 9.374 2.689 -1.008 0.20804 0.73982 -0.15975 -0.023846 -0.10256 -0.43242 -0.47108 9.4376 2.6985 -1.0121 0.20647 0.74115 -0.1601 -0.024177 -0.10265 -0.43364 -0.47228
314 9.3654 2.6841 -0.98653 0.22125 0.73069 -0.16599 -0.010368 -0.12678 -0.53646 -0.59468 9.4772 2.7074 -0.99567 0.22088 0.73581 -0.16723 -0.010741 -0.12761 -0.54086 -0.59943
315 9.3879 2.6483 -0.91649 0.22728 0.65889 -0.15434 0.017101 -0.13669 -0.52011 -0.57758 9.4306 2.6516 -0.9182 0.2252 0.65837 -0.1543 0.016843 -0.13664 -0.52075 -0.57815
316 9.3726 2.6765 -0.97226 0.22138 0.71493 -0.16243 -0.0058598 -0.12541 -0.5154 -0.56994 9.4586 2.6922 -0.97859 0.22038 0.7179 -0.16318 -0.0061807 -0.12589 -0.51821 -0.57291
317 9.3833 2.6486 -0.91723 0.22879 0.66227 -0.15642 0.016604 -0.13992 -0.54384 -0.6058 9.4087 2.6471 -0.91731 0.22629 0.6606 -0.15609 0.016261 -0.13956 -0.54329 -0.60502
318 9.3896 2.6402 -0.90114 0.22925 0.64409 -0.15272 0.023627 -0.14129 -0.53113 -0.59143 9.424 2.6412 -0.90203 0.22695 0.64294 -0.15253 0.023339 -0.1411 -0.5312 -0.59135
319 9.3768 2.6745 -0.97008 0.21982 0.71105 -0.1604 -0.0067765 -0.12084 -0.49052 -0.54011 9.4339 2.6821 -0.9734 0.21813 0.7118 -0.16064 -0.007081 -0.12091 -0.49164 -0.5412
320 9.3651 2.6877 -0.99513 0.21891 0.73784 -0.16598 -0.014876 -0.1219 -0.52004 -0.57482 9.4604 2.7062 -1.0026 0.21814 0.74174 -0.16693 -0.015258 -0.12247 -0.52339 -0.57839
321 9.3859 2.6513 -0.92396 0.22577 0.66617 -0.15485 0.012622 -0.13265 -0.50891 -0.56378 9.4203 2.6523 -0.92482 0.22349 0.665 -0.15465 0.012339 -0.13242 -0.50874 -0.56342
322 9.4772 0.76862 -0.2802 -1.4331 -1.6104 1.7279 -0.74982 0.4184 -0.14692 -0.13545 9.4189 0.75929 -0.27984 -1.4357 -1.6108 1.7296 -0.75311 0.42137 -0.14868 -0.13734
323 9.4533 0.77092 -0.28468 -1.4592 -1.6615 1.8257 -0.82957 0.49452 -0.21157 -0.21257 9.448 0.76596 -0.28596 -1.47 -1.6715 1.838 -0.83766 0.50035 -0.21457 -0.21573
324 9.2028 -0.74202 -0.26058 -2.6313 -0.88402 -1.9663 0.89054 1.0178 -0.1594 -0.53852 9.0842 -0.73778 -0.25864 -2.6144 -0.87942 -1.9547 0.88659 1.0142 -0.1586 -0.5366
325 9.1735 -0.74086 -0.26109 -2.6379 -0.88913 -1.988 0.90764 1.0462 -0.16617 -0.56341 9.1184 -0.74177 -0.26096 -2.6393 -0.8907 -1.9902 0.90998 1.0498 -0.16652 -0.56537
326 8.9403 -3.0819 -2.0507 1.6881 -0.81257 -0.12242 0.18615 0.17154 -0.9624 0.86416 8.9676 -3.0936 -2.0572 1.6917 -0.81521 -0.12267 0.18758 0.173 -0.97282 0.87403
327 8.9452 -3.0802 -2.0446 1.6824 -0.80787 -0.12121 0.18296 0.16715 -0.92217 0.82418 8.8651 -3.055 -2.0265 1.6659 -0.80078 -0.11999 0.18218 0.1666 -0.92151 0.82416
328 8.9406 -3.0824 -2.0517 1.689 -0.81334 -0.12262 0.1867 0.17235 -0.97051 0.87238 8.9679 -3.0942 -2.0584 1.6928 -0.81605 -0.12288 0.18818 0.17386 -0.98126 0.88256
329 8.9355 -3.0823 -2.0539 1.691 -0.81499 -0.123 0.18747 0.1731 -0.97317 0.8741 8.9308 -3.0831 -2.0531 1.6887 -0.81475 -0.12282 0.18824 0.17395 -0.98016 0.88088
330 8.9351 -3.0818 -2.053 1.6903 -0.81446 -0.12289 0.18726 0.1729 -0.97253 0.87372 8.9004 -3.0722 -2.0453 1.6823 -0.81148 -0.12229 0.1874 0.17317 -0.97629 0.87762
331 8.9317 -3.0828 -2.0568 1.6938 -0.81731 -0.12359 0.18897 0.17508 -0.99024 0.89083 8.927 -3.0836 -2.0561 1.6916 -0.81712 -0.12342 0.18976 0.17595 -0.99744 0.89782
332 8.9365 -3.0829 -2.0549 1.692 -0.8158 -0.12325 0.1883 0.17446 -0.98865 0.89015 8.9637 -3.0947 -2.0615 1.6958 -0.81854 -0.12352 0.18978 0.17597 -0.9995 0.90043
333 8.9466 -3.0801 -2.0436 1.6815 -0.80713 -0.12103 0.18254 0.16666 -0.91863 0.82088 8.8665 -3.0548 -2.0255 1.6649 -0.80003 -0.11981 0.18177 0.1661 -0.91795 0.82085
334 8.9343 -3.0821 -2.054 1.6912 -0.81515 -0.12306 0.18764 0.17336 -0.97593 0.87693 8.9415 -3.0869 -2.0559 1.6911 -0.81598 -0.12303 0.18865 0.17443 -0.9841 0.88476
335 8.941 -3.0799 -2.046 1.6838 -0.80915 -0.12156 0.18392 0.16851 -0.93472 0.83668 8.8864 -3.0634 -2.0336 1.6719 -0.80429 -0.12067 0.18362 0.16836 -0.93617 0.8385
336 8.9527 -3.0754 -2.0314 1.6704 -0.79887 -0.1192 0.17875 0.16268 -0.8978 0.80356 8.8725 -3.0501 -2.0134 1.6538 -0.79176 -0.11797 0.17798 0.16211 -0.89693 0.80333
337 8.9434 -3.0785 -2.0425 1.6807 -0.80702 -0.12117 0.18344 0.16853 -0.94365 0.84745 8.9087 -3.069 -2.0348 1.6726 -0.80402 -0.12056 0.18358 0.16879 -0.94731 0.85125
338 9.4702 2.4145 -1.14 -0.17639 0.48388 0.07666 -0.071936 0.1127 0.50601 0.54584 9.5412 2.4244 -1.1458 -0.18197 0.48296 0.078307 -0.072784 0.11319 0.50986 0.55017
339 9.3796 2.6413 -0.90493 0.22963 0.64845 -0.15402 0.023763 -0.14367 -0.54353 -0.60626 9.3193 2.6158 -0.89673 0.22507 0.64084 -0.1523 0.023253 -0.14207 -0.53828 -0.60026
340 9.3554 2.7317 -1.1246 0.1735 0.82925 -0.16097 -0.069846 -0.062022 -0.33602 -0.35879 9.4412 2.7479 -1.1319 0.17225 0.83303 -0.16176 -0.070451 -0.062215 -0.33792 -0.36075
341 9.3475 2.7169 -1.0636 0.20474 0.79763 -0.17128 -0.041498 -0.10419 -0.49435 -0.5443 9.3974 2.7227 -1.0666 0.20297 0.79835 -0.1715 -0.041872 -0.10416 -0.49523 -0.54517
342 9.3471 2.7102 -1.0456 0.21073 0.78475 -0.17158 -0.03416 -0.11159 -0.51388 -0.56688 9.3626 2.706 -1.0446 0.20819 0.78243 -0.17114 -0.034368 -0.11115 -0.51274 -0.5655
343 9.3474 2.7128 -1.0508 0.20964 0.78912 -0.17193 -0.036056 -0.1102 -0.51075 -0.56299 9.3816 2.7139 -1.0519 0.20752 0.78836 -0.17183 -0.036321 -0.10999 -0.51063 -0.56275
344 9.3504 2.7049 -1.0315 0.21452 0.77295 -0.17128 -0.027454 -0.11795 -0.53174 -0.58828 9.4139 2.7144 -1.0357 0.21305 0.77453 -0.1717 -0.027805 -0.1181 -0.53331 -0.5899
345 9.3452 2.7125 -1.0497 0.21075 0.78936 -0.17272 -0.035347 -0.11238 -0.52239 -0.577 9.3705 2.7111 -1.0498 0.20845 0.78789 -0.17247 -0.035589 -0.11207 -0.52186 -0.57631
346 9.3427 2.7188 -1.0611 0.21018 0.80112 -0.17517 -0.038802 -0.11302 -0.53629 -0.59331 9.4542 2.7424 -1.071 0.2098 0.807 -0.17653 -0.039385 -0.11376 -0.54071 -0.59812
347 9.3493 2.7364 -1.1301 0.17635 0.83891 -0.16453 -0.071267 -0.066165 -0.36316 -0.39066 9.453 2.7578 -1.1395 0.17547 0.84429 -0.16564 -0.07199 -0.066506 -0.36587 -0.39351
348 9.3584 2.6922 -1.0046 0.21808 0.74684 -0.16751 -0.016951 -0.12239 -0.52733 -0.58348 9.4154 2.6998 -1.008 0.21644 0.74774 -0.16779 -0.017262 -0.12246 -0.52844 -0.58458
349 9.3501 2.7063 -1.0331 0.21509 0.77538 -0.17216 -0.027746 -0.11908 -0.5392 -0.59705 9.4135 2.7159 -1.0374 0.21364 0.77704 -0.17261 -0.028104 -0.11926 -0.54096 -0.5989
350 9.3378 2.7204 -1.064 0.21115 0.80554 -0.17695 -0.0391 -0.11598 -0.55589 -0.61684 9.4012 2.7301 -1.0684 0.20974 0.8074 -0.17745 -0.039486 -0.1162 -0.55795 -0.61907
351 9.3417 2.7197 -1.0675 0.20652 0.80423 -0.17364 -0.042516 -0.1068 -0.51036 -0.56256 9.3916 2.7254 -1.0703 0.20476 0.8048 -0.17383 -0.042842 -0.10676 -0.51103 -0.56319
352 9.349 2.7087 -1.0429 0.21059 0.78163 -0.1708 -0.033473 -0.11098 -0.50834 -0.56028 9.3744 2.7073 -1.043 0.20827 0.78011 -0.17054 -0.033715 -0.11065 -0.50773 -0.55949
353 9.338 2.727 -1.0794 0.207 0.81793 -0.17726 -0.045706 -0.10991 -0.53974 -0.59763 9.4131 2.7402 -1.0854 0.20585 0.821 -0.17803 -0.046185 -0.1103 -0.54273 -0.60091
354 9.3413 2.7253 -1.0826 0.20146 0.81534 -0.17314 -0.049363 -0.099162 -0.48572 -0.53335 9.3755 2.7265 -1.0837 0.19935 0.81462 -0.17305 -0.049622 -0.09895 -0.48557 -0.53308
355 9.3362 2.709 -1.0421 0.21484 0.78602 -0.17479 -0.031149 -0.12046 -0.55956 -0.62138 9.2121 2.6644 -1.0256 0.20916 0.77206 -0.17177 -0.03089 -0.11827 -0.55037 -0.61109
356 9.3308 2.7371 -1.1104 0.19705 0.84154 -0.17696 -0.0597 -0.09584 -0.49931 -0.54962 9.3353 2.7297 -1.108 0.19436 0.83832 -0.17636 -0.059785 -0.095373 -0.49786 -0.54795
357 9.3481 2.6501 -1.3658 -0.067829 0.84341 -0.043804 -0.16548 0.10985 0.28297 0.32253 9.4389 2.6671 -1.3756 -0.071755 0.84706 -0.043412 -0.16688 0.11057 0.28556 0.32549
358 9.3319 2.7395 -1.1222 0.19044 0.84713 -0.17441 -0.065568 -0.086181 -0.46018 -0.50352 9.3239 2.7284 -1.1183 0.18749 0.84269 -0.17356 -0.06553 -0.085609 -0.45806 -0.50111
359 9.3366 2.7334 -1.1073 0.19355 0.83409 -0.17297 -0.060344 -0.088455 -0.45669 -0.49907 9.3286 2.7223 -1.1034 0.19059 0.82968 -0.17212 -0.060333 -0.087865 -0.45458 -0.49667
360 9.3144 2.7619 -1.329 0.073473 0.95109 -0.13482 -0.16222 0.049443 0.013313 0.046372 9.3065 2.7509 -1.3246 0.070699 0.94639 -0.13412 -0.16188 0.049368 0.013401 0.046414
361 9.328 2.6872 -1.3761 -0.034774 0.88894 -0.06848 -0.17367 0.10431 0.24256 0.28549 9.3327 2.6798 -1.3732 -0.037849 0.88491 -0.06777 -0.17347 0.10403 0.24235 0.28523
362 9.3217 2.7604 -1.2822 0.10184 0.92899 -0.14497 -0.14217 0.022594 -0.075414 -0.054697 9.1978 2.7153 -1.2622 0.097812 0.91299 -0.14248 -0.14017 0.022405 -0.07396 -0.053466
363 9.3256 2.6952 -1.3746 -0.025431 0.89697 -0.074858 -0.17408 0.10121 0.22658 0.26969 9.3178 2.6842 -1.3699 -0.028429 0.89184 -0.074076 -0.17367 0.10082 0.2261 0.26911
364 9.3372 2.7469 -1.2304 0.11918 0.88801 -0.14606 -0.11717 -0.0018876 -0.14731 -0.14163 9.1495 2.6833 -1.2027 0.11406 0.86653 -0.14253 -0.11476 -0.0016431 -0.14359 -0.13793
365 9.3084 2.7296 -1.3842 0.0061684 0.94219 -0.099106 -0.1833 0.094183 0.18077 0.22835 9.3239 2.7253 -1.3829 0.0033152 0.9394 -0.098593 -0.18325 0.094047 0.18065 0.22818
366 9.3942 2.5672 -1.2839 -0.10472 0.71244 -0.0038718 -0.12245 0.093091 0.26958 0.28748 9.3341 2.5423 -1.2725 -0.10765 0.70344 -0.0029363 -0.12171 0.092204 0.26817 0.2861
367 9.3191 2.7022 -1.3919 -0.028022 0.91476 -0.076238 -0.18334 0.10853 0.24942 0.29867 9.3535 2.7035 -1.3934 -0.031119 0.91377 -0.075813 -0.18374 0.10862 0.24998 0.29934
368 9.3651 2.6104 -1.3397 -0.092952 0.78872 -0.021322 -0.15191 0.1105 0.31219 0.34743 9.3998 2.6115 -1.3413 -0.096718 0.78718 -0.020544 -0.15238 0.11058 0.31338 0.34879
369 9.3499 2.6347 -1.3704 -0.085443 0.8326 -0.032314 -0.1696 0.12059 0.33511 0.38188 9.4002 2.6403 -1.3744 -0.089205 0.83267 -0.031683 -0.17037 0.12089 0.3367 0.38372
370 9.3463 2.6636 -1.3372 -0.036856 0.84036 -0.060416 -0.15057 0.086708 0.18487 0.20961 9.2864 2.638 -1.3253 -0.039792 0.83065 -0.059261 -0.14948 0.085922 0.18385 0.20848
371 9.31 2.7133 -1.3919 -0.01535 0.9287 -0.085243 -0.1857 0.10569 0.23293 0.28405 9.3256 2.709 -1.3905 -0.018307 0.92574 -0.084668 -0.18563 0.10551 0.23278 0.28383
372 9.3053 2.7341 -1.3854 0.010445 0.94827 -0.10228 -0.1844 0.093009 0.17412 0.22197 9.3208 2.7299 -1.3841 0.0076221 0.94551 -0.10178 -0.18436 0.09288 0.17399 0.2218
373 9.3416 2.6572 -1.377 -0.065883 0.85917 -0.048206 -0.17182 0.1115 0.27655 0.31774 9.4113 2.6683 -1.3837 -0.069593 0.86111 -0.047779 -0.17289 0.11194 0.27823 0.31966
374 9.3159 2.7127 -1.3891 -0.015463 0.92467 -0.084485 -0.18323 0.10367 0.22641 0.27508 9.3315 2.7085 -1.388 -0.018432 0.92192 -0.083942 -0.18327 0.10357 0.2265 0.27519
375 9.3043 2.7218 -1.3969 -0.008766 0.9416 -0.091052 -0.18882 0.1043 0.2204 0.27208 9.3542 2.7276 -1.4007 -0.011713 0.94218 -0.09084 -0.18945 0.10451 0.22104 0.27285
376 9.3161 2.7199 -1.3784 -0.001447 0.92657 -0.092689 -0.17799 0.092772 0.17954 0.22255 9.373 2.7276 -1.3831 -0.0043887 0.92775 -0.092542 -0.17872 0.093034 0.18029 0.22345
377 9.341 2.669 -1.3666 -0.04838 0.86461 -0.057684 -0.16935 0.10753 0.26525 0.30903 9.4268 2.6848 -1.3756 -0.052008 0.86803 -0.057427 -0.17068 0.10819 0.26752 0.31168
378 9.347 2.6391 -1.3736 -0.082758 0.8387 -0.034663 -0.17093 0.12042 0.33175 0.37862 9.4225 2.6517 -1.3811 -0.086714 0.84094 -0.03413 -0.17212 0.121 0.33407 0.38128
379 9.3521 2.651 -1.3521 -0.059299 0.8351 -0.047462 -0.15692 0.099149 0.23937 0.27024 9.4381 2.6665 -1.361 -0.063123 0.83822 -0.047071 -0.15818 0.099752 0.24162 0.2728
380 9.3252 2.7001 -1.3671 -0.015828 0.89808 -0.080277 -0.17084 0.094952 0.20054 0.24078 9.3031 2.6851 -1.3605 -0.018789 0.89182 -0.079406 -0.17027 0.09452 0.20004 0.2402
381 9.3398 2.6513 -1.3854 -0.077146 0.85801 -0.04044 -0.17773 0.12404 0.34021 0.3918 9.4516 2.6743 -1.3984 -0.081312 0.86373 -0.040122 -0.17962 0.12512 0.34389 0.39604
382 9.3206 2.697 -1.3903 -0.032591 0.90809 -0.072545 -0.18201 0.10966 0.25757 0.30636 9.3549 2.6982 -1.3918 -0.035728 0.90696 -0.07208 -0.18236 0.10971 0.2581 0.30697
383 9.3264 2.7401 -1.3054 0.063556 0.91151 -0.12326 -0.14727 0.044273 0.0055964 0.028262 9.2025 2.6951 -1.2849 0.05992 0.89552 -0.12101 -0.14517 0.043685 0.0058581 0.028261
384 9.3166 2.7077 -1.3896 -0.0208 0.91971 -0.080906 -0.18301 0.10557 0.23565 0.28448 9.3421 2.7063 -1.3899 -0.023824 0.9179 -0.080432 -0.18324 0.10557 0.23599 0.28489
385 9.3353 2.6639 -1.3914 -0.067842 0.87411 -0.048207 -0.18102 0.12251 0.32512 0.37714 9.4577 2.6901 -1.4061 -0.071925 0.88115 -0.048071 -0.18319 0.12376 0.32909 0.38175
386 9.3215 2.6983 -1.3858 -0.028606 0.90687 -0.074744 -0.17948 0.10554 0.23939 0.28524 9.3469 2.6969 -1.3859 -0.031696 0.90478 -0.074203 -0.17961 0.10546 0.23957 0.28542
387 9.3188 2.7068 -1.3937 -0.024533 0.92028 -0.079268 -0.18374 0.10603 0.23442 0.28187 9.4182 2.7268 -1.4049 -0.027799 0.92555 -0.079373 -0.18535 0.10681 0.23654 0.28438
388 9.3265 2.719 -1.3378 0.021158 0.9028 -0.10038 -0.15902 0.071564 0.10879 0.13999 9.2401 2.6853 -1.3222 0.01806 0.89043 -0.098806 -0.1574 0.070795 0.10797 0.13891
389 9.4425 0.76891 -0.28293 -1.4493 -1.6439 1.7933 -0.80285 0.468 -0.18715 -0.18283 9.3576 0.75748 -0.28178 -1.4477 -1.6398 1.7901 -0.80383 0.46958 -0.18834 -0.18416
390 9.4377 0.76897 -0.28333 -1.4517 -1.6487 1.8025 -0.81005 0.47449 -0.19205 -0.18848 9.3797 0.75974 -0.283 -1.4543 -1.6493 1.8045 -0.81339 0.47745 -0.19379 -0.19035
391 9.4308 0.76928 -0.2842 -1.4568 -1.6591 1.8227 -0.82692 0.49089 -0.20637 -0.20567 9.3081 0.75482 -0.28191 -1.4493 -1.6482 1.8121 -0.82451 0.49042 -0.20666 -0.2061
392 9.3845 0.77306 -0.29216 -1.5032 -1.7514 2.0026 -0.97736 0.63808 -0.33653 -0.36251 9.3001 0.76184 -0.29105 -1.5016 -1.7474 1.9995 -0.97812 0.63933 -0.33741 -0.3635
393 9.3845 0.77306 -0.29216 -1.5032 -1.7514 2.0026 -0.97736 0.63808 -0.33653 -0.36251 9.3001 0.76184 -0.29105 -1.5016 -1.7474 1.9995 -0.97812 0.63933 -0.33741 -0.3635
394 9.1541 -0.74018 -0.26151 -2.6432 -0.89304 -2.0041 0.92024 1.067 -0.17108 -0.58143 9.0991 -0.74109 -0.2614 -2.6448 -0.89469 -2.0066 0.92276 1.0708 -0.1715 -0.58362
395 9.1452 -0.73942 -0.26121 -2.6401 -0.8919 -2.0012 0.91868 1.0649 -0.17069 -0.58008 9.0274 -0.73521 -0.25929 -2.6234 -0.88732 -1.9897 0.91471 1.0612 -0.16989 -0.57808
396 9.1438 -0.73949 -0.26138 -2.6421 -0.89301 -2.0053 0.92168 1.0697 -0.17181 -0.58416 9.0627 -0.73828 -0.26051 -2.636 -0.89206 -2.002 0.92148 1.0704 -0.17171 -0.58457
397 8.929 -3.0806 -2.0536 1.6909 -0.81522 -0.12311 0.18781 0.17359 -0.9776 0.87847 8.8132 -3.0431 -2.0273 1.6676 -0.80489 -0.12141 0.18627 0.1723 -0.9726 0.87448
398 8.9297 -3.0806 -2.0531 1.6905 -0.81487 -0.12302 0.18762 0.17335 -0.97595 0.87693 8.8139 -3.043 -2.0269 1.6672 -0.80455 -0.12132 0.18608 0.17207 -0.97095 0.87295
399 8.9131 -3.0823 -2.0651 1.7017 -0.82435 -0.12545 0.19379 0.18154 -1.0468 0.94643 8.8333 -3.0572 -2.0471 1.6853 -0.81734 -0.12425 0.193 0.18094 -1.0455 0.94576
400 8.9063 -3.0832 -2.0703 1.7066 -0.82844 -0.12648 0.19637 0.18491 -1.0753 0.97423 8.852 -3.0669 -2.0584 1.6952 -0.82389 -0.12567 0.19618 0.18489 -1.0775 0.97666
401 9.3517 2.6175 -1.366 -0.099395 0.8147 -0.021721 -0.16826 0.12549 0.3663 0.41561 9.3864 2.6185 -1.3675 -0.10311 0.81307 -0.020951 -0.16866 0.12549 0.36712 0.41654
402 9.3567 2.6052 -1.3544 -0.10499 0.79598 -0.015502 -0.16289 0.12496 0.37508 0.42358 9.3725 2.601 -1.3532 -0.10857 0.79272 -0.014668 -0.16299 0.12474 0.37529 0.42382
403 9.3546 2.6092 -1.3566 -0.10218 0.80103 -0.017909 -0.16347 0.12372 0.36656 0.41403 9.3803 2.6077 -1.3567 -0.10585 0.79851 -0.017083 -0.16368 0.12359 0.36706 0.41458
404 9.3742 2.5714 -1.3207 -0.12011 0.74216 0.0016024 -0.14543 0.11913 0.3791 0.42008 9.3521 2.5568 -1.3142 -0.12336 0.73577 0.0025105 -0.14498 0.11843 0.37793 0.41882
405 9.3602 2.6056 -1.3491 -0.1022 0.7918 -0.016599 -0.15839 0.11919 0.34978 0.39217 9.376 2.6014 -1.348 -0.10578 0.78855 -0.015758 -0.15851 0.11899 0.35012 0.39256
406 9.327 2.6961 -1.3803 -0.028443 0.8999 -0.073845 -0.17537 0.10179 0.22657 0.26885 9.3426 2.6918 -1.379 -0.031521 0.89694 -0.07323 -0.17536 0.10163 0.22664 0.26891
407 9.338 2.7233 -1.2503 0.080677 0.86529 -0.12622 -0.11599 0.0080357 -0.13138 -0.13788 9.2139 2.6784 -1.2304 0.076705 0.84966 -0.12383 -0.11429 0.0079953 -0.12881 -0.13512
408 9.3266 2.6816 -1.3927 -0.05025 0.89273 -0.060637 -0.18125 0.11509 0.28587 0.33458 9.4218 2.7002 -1.4033 -0.053872 0.89729 -0.060489 -0.18281 0.1159 0.28846 0.3376
409 9.3235 2.7068 -1.3772 -0.015124 0.9101 -0.082928 -0.1744 0.094616 0.19101 0.23017 9.349 2.7055 -1.3775 -0.018153 0.90831 -0.082458 -0.17465 0.094628 0.19141 0.23065
410 9.3184 2.706 -1.3973 -0.027447 0.92144 -0.078069 -0.18505 0.10737 0.23793 0.28552 9.3818 2.7155 -1.4031 -0.030632 0.9232 -0.077862 -0.18597 0.10776 0.23921 0.28703
411 9.3234 2.7238 -1.0753 0.20987 0.81737 -0.17918 -0.043245 -0.11591 -0.56894 -0.63247 9.1994 2.6789 -1.0583 0.20431 0.80297 -0.17611 -0.04277 -0.11383 -0.55969 -0.62212
412 9.3152 2.6919 -1.413 -0.050383 0.91734 -0.06436 -0.19412 0.12544 0.31919 0.37845 9.4188 2.713 -1.4249 -0.053988 0.92293 -0.064323 -0.1959 0.12641 0.32208 0.38184
413 9.3143 2.6922 -1.4104 -0.048416 0.91633 -0.065154 -0.19301 0.12434 0.31604 0.37488 9.3487 2.6935 -1.412 -0.051616 0.91533 -0.064677 -0.19344 0.12445 0.31676 0.37573
414 9.3045 2.7123 -1.4099 -0.026329 0.93874 -0.081269 -0.19419 0.11488 0.26381 0.32001 9.3388 2.7135 -1.4114 -0.029356 0.93769 -0.080856 -0.19451 0.11491 0.26412 0.32036
415 9.3042 2.7262 -1.4076 -0.011252 0.95122 -0.091186 -0.19388 0.10869 0.23507 0.29007 9.282 2.711 -1.4007 -0.014084 0.94474 -0.090315 -0.19312 0.10814 0.23409 0.28888
416 9.3197 2.6813 -1.4048 -0.056444 0.9016 -0.0587 -0.1889 0.12351 0.31667 0.372 9.3243 2.674 -1.4019 -0.05953 0.89759 -0.057991 -0.18869 0.12317 0.31624 0.37148
417 9.2995 2.7132 -1.4106 -0.024894 0.94141 -0.082467 -0.1951 0.11507 0.26316 0.31987 9.3338 2.7144 -1.4121 -0.027907 0.94036 -0.082058 -0.19542 0.11509 0.26345 0.3202
418 9.3055 2.7047 -1.4157 -0.037621 0.93407 -0.074221 -0.1968 0.12174 0.29479 0.35412 9.3688 2.7143 -1.4217 -0.040848 0.93591 -0.074003 -0.19777 0.12217 0.29618 0.35576
419 9.3235 2.6638 -1.3958 -0.068805 0.87891 -0.048066 -0.18391 0.12554 0.33799 0.3926 9.3014 2.6487 -1.3889 -0.071759 0.87228 -0.047182 -0.18317 0.12481 0.33658 0.39094
420 9.3148 2.6766 -1.4116 -0.064255 0.90249 -0.054367 -0.19362 0.13097 0.34994 0.41132 9.2551 2.6508 -1.3989 -0.066888 0.89225 -0.053279 -0.19207 0.12972 0.34706 0.40792
421 9.3042 2.7037 -1.4144 -0.037597 0.93266 -0.074004 -0.1962 0.1214 0.29388 0.35279 9.3385 2.7048 -1.4159 -0.040698 0.93153 -0.073546 -0.19652 0.12142 0.29424 0.3532
422 9.2921 0.77252 -0.29803 -1.5384 -1.8279 2.1585 -1.1107 0.7696 -0.45312 -0.50297 9.2869 0.768 -0.29949 -1.55 -1.8397 2.174 -1.1209 0.77725 -0.45772 -0.50807
423 9.1394 -0.73927 -0.2614 -2.6424 -0.89343 -2.0073 0.92334 1.0725 -0.17248 -0.58664 8.9594 -0.72999 -0.25769 -2.6076 -0.88274 -1.9821 0.9131 1.0615 -0.17052 -0.58069
424 8.8921 -3.0801 -2.0709 1.7074 -0.82982 -0.12693 0.19763 0.18665 -1.0906 0.98927 8.7162 -3.0217 -2.0307 1.6727 -0.81393 -0.12439 0.19473 0.18406 -1.0777 0.97801
425 9.231 0.77048 -0.29983 -1.5498 -1.8564 2.2203 -1.1656 0.82475 -0.50295 -0.56321 9.1949 0.76348 -0.30031 -1.5562 -1.8621 2.2288 -1.1721 0.82987 -0.50609 -0.56671
426 9.2389 0.77109 -0.30003 -1.5508 -1.8572 2.2209 -1.1655 0.82446 -0.50253 -0.56268 9.1559 0.76021 -0.29899 -1.5494 -1.8537 2.2185 -1.1664 0.8257 -0.50339 -0.56365
427 9.2404 0.77073 -0.29947 -1.5476 -1.8511 2.2091 -1.1557 0.81488 -0.49404 -0.55244 9.1574 0.75982 -0.29842 -1.5461 -1.8473 2.2062 -1.1563 0.81579 -0.49462 -0.55307
428 9.2266 0.77073 -0.30044 -1.5534 -1.8636 2.2345 -1.1775 0.83651 -0.51344 -0.57587 9.2216 0.76633 -0.30195 -1.5652 -1.8758 2.2509 -1.1883 0.84472 -0.51854 -0.58159
429 9.232 0.77047 -0.29975 -1.5493 -1.8553 2.2182 -1.1638 0.82296 -0.50137 -0.56132 9.1754 0.76177 -0.29955 -1.5522 -1.8569 2.2217 -1.1677 0.82623 -0.50339 -0.56355
430 9.2152 0.76984 -0.30015 -1.5519 -1.8621 2.2334 -1.1774 0.83679 -0.51393 -0.57652 9.1324 0.75898 -0.2991 -1.5504 -1.8584 2.2305 -1.178 0.83764 -0.51447 -0.5771
431 9.2241 0.77026 -0.30005 -1.5512 -1.8596 2.2275 -1.1719 0.83113 -0.50874 -0.57022 9.0414 0.75111 -0.29575 -1.5328 -1.8359 2.2007 -1.16 0.82326 -0.50402 -0.56494
432 9.2118 0.7698 -0.30034 -1.5531 -1.8647 2.2387 -1.182 0.84139 -0.51811 -0.58158 9.0294 0.75066 -0.29603 -1.5347 -1.8407 2.2116 -1.1697 0.83315 -0.51307 -0.57591
