22 20
0 -9.9219 -0.73959 -0.66355 -0.10623 -0.025651 0.026888 -0.12788 0.0027236 -0.14214 -0.052205 -9.9477 -0.7412 -0.66398 -0.10627 -0.025489 -0.027429 0.12759 -0.0032871 0.14247 0.052542
1 -9.9227 -0.85874 -0.29044 0.16606 0.20512 -0.027599 -0.04579 -0.0034935 -0.053714 -0.098011 -9.9842 -0.8643 -0.29059 0.16847 0.20812 0.029414 0.046321 -0.0050657 0.053801 0.097657
2 -9.9233 -0.68331 -0.65938 -0.2965 0.23527 0.15116 -0.12068 -0.00098954 -0.1312 0.031772 -9.9157 -0.68239 -0.65699 -0.29568 0.23544 -0.14913 0.12124 -0.0070977 0.13102 -0.032477
3 -9.9414 -0.37826 -0.60001 -0.013348 -0.14234 -0.31416 0.21826 -0.0037792 0.10581 -0.028745 -9.9673 -0.37875 -0.60032 -0.013322 -0.14483 0.31293 -0.21924 0.00079055 -0.10583 0.029889
4 -9.9245 -0.78433 -0.30662 0.41589 -0.26451 0.2504 0.049882 -0.0053219 0.31593 0.02782 -9.935 -0.78519 -0.30536 0.41732 -0.26159 -0.25301 -0.051277 0.0090982 -0.31585 -0.02658
5 -9.9244 -0.74464 -0.43425 0.094581 -0.40482 0.20545 0.083026 0.0069414 -0.19338 0.1455 -9.935 -0.74524 -0.43302 0.094896 -0.40353 -0.20904 -0.084177 -0.003992 0.194 -0.14433
6 -9.9247 -0.77589 -0.38698 -0.44922 -0.073341 -0.0029276 -0.33782 -0.0071635 0.19837 -0.051632 -9.9506 -0.77807 -0.38531 -0.45182 -0.075008 0.0022664 0.33824 0.0036913 -0.19861 0.050944
7 -9.9466 -0.35944 -0.25752 -0.29016 0.39107 -0.30505 0.38597 -0.011984 0.14361 0.13842 -9.9572 -0.35971 -0.25588 -0.29078 0.38891 0.30803 -0.38483 -0.0077603 -0.14403 -0.13986
8 -9.9255 -0.88918 0.61151 0.0013676 0.22358 0.15581 -0.13322 -0.011572 0.062626 -0.36942 -9.9516 -0.89296 0.61774 -0.00062188 0.22567 -0.15412 0.13384 -0.0041442 -0.063005 0.36779
9 -9.9214 -0.88074 0.40175 0.52323 0.18976 0.22939 0.14219 -0.011089 0.23511 0.17051 -9.8918 -0.87885 0.40253 0.52193 0.19064 -0.22723 -0.14111 -0.0021869 -0.23514 -0.17179
10 -9.9119 -1.0256 0.19257 0.57513 0.20832 -0.15662 -0.091727 0.011965 -0.39197 0.051493 -9.8823 -1.0232 0.19417 0.57344 0.20572 0.15818 0.091925 -0.0070846 0.3918 -0.052035
11 -9.9416 0.82363 0.02158 0.00082018 0.012519 0.021124 0.082252 0.025364 0.12813 -0.32133 -10.003 0.82958 0.022754 0.00054011 0.013541 -0.021154 -0.082537 0.039741 -0.12658 0.32095
12 -9.9499 -0.41532 0.44045 0.23526 -0.33167 -0.55898 -0.13421 -0.0067341 0.036007 -0.10472 -9.9606 -0.41651 0.44367 0.23463 -0.33654 0.55633 0.13394 -0.0033773 -0.035816 0.10454
13 -9.9236 -0.88166 0.68483 -0.46824 -0.22512 0.17092 0.41066 0.0041406 -0.2393 -0.14389 -9.8942 -0.88054 0.68794 -0.47001 -0.22147 -0.17277 -0.41062 -0.0067993 0.23904 0.14267
14 -9.9087 -1.028 0.92794 -0.44521 -0.028856 -0.032501 -0.2167 0.0039149 0.096342 0.34027 -9.811 -1.0195 0.92257 -0.44256 -0.031298 0.03194 0.21633 0.0051075 -0.096335 -0.34179
15 -9.8867 1.4181 0.047427 0.0083051 0.0013141 0.039163 -0.02177 -0.19656 -0.019932 -0.011485 -9.8972 1.4206 0.047423 0.0084215 0.0015629 -0.039184 0.022349 -0.20241 0.01042 0.013779
16 -9.898 1.2851 0.041923 0.0073833 0.011892 0.012326 -0.030057 0.50333 -0.032245 0.11028 -9.8401 1.2783 0.041775 0.0073915 0.011747 -0.012174 0.029079 0.49101 0.056501 -0.11758
17 -9.8867 1.4324 0.048473 0.0082678 0.0040633 0.046667 -0.014126 0.076815 0.0053739 -0.076537 -9.9126 1.4374 0.048568 0.0084124 0.0045017 -0.046663 0.014138 0.081574 -0.0013474 0.074993
18 -9.8909 1.3561 0.044815 0.0082606 0.0026859 0.012911 -0.028873 -0.24621 -0.04755 0.11642 -9.8614 1.3528 0.044658 0.0083061 0.0026225 -0.012941 0.029463 -0.24728 0.03563 -0.11316
19 -9.8867 1.4181 0.047427 0.0083051 0.0013141 0.039163 -0.02177 -0.19656 -0.019932 -0.011485 -9.8972 1.4206 0.047423 0.0084215 0.0015629 -0.039184 0.022349 -0.20241 0.01042 0.013779
20 -9.8899 1.3864 0.046344 0.0081716 0.007305 0.026685 -0.020775 0.31206 -0.010159 0.02256 -9.8825 1.3864 0.046299 0.0082668 0.0075049 -0.026568 0.020307 0.32029 0.025766 -0.027705
21 -9.8909 1.3561 0.044815 0.0082606 0.0026859 0.012911 -0.028873 -0.24621 -0.04755 0.11642 -9.8614 1.3528 0.044658 0.0083061 0.0026225 -0.012941 0.029463 -0.24728 0.03563 -0.11316
