19 20
0 -9.9393 -0.26275 -0.57543 0.40594 0.11276 0.013475 0.21221 0.096129 -0.10991 -0.088928 -9.8262 -0.2588 -0.57141 0.4029 0.11156 -0.011232 0.20587 -0.10568 0.11471 0.092164
1 -9.9522 -0.23182 -0.38166 0.24611 0.086579 -0.12367 0.096041 -0.48564 0.26428 0.26799 -10.078 -0.23399 -0.3928 0.25467 0.091078 0.12497 0.12052 0.48022 -0.26118 -0.26591
2 -9.9444 0.31083 -0.26007 -0.0034748 0.21843 -0.015034 0.14304 0.16056 -0.044616 -0.014941 -9.8996 0.31022 -0.26052 -0.0021145 0.2175 0.016193 0.13819 -0.16633 0.047653 0.016831
3 -9.9188 -0.98498 0.015286 -0.1044 0.14021 -0.012131 -0.21444 0.045015 0.01527 0.026776 -9.9649 -0.9882 0.014803 -0.10459 0.14042 0.0090821 -0.21653 -0.039311 -0.017835 -0.028336
4 -9.9222 -0.8719 -0.112 0.0040922 0.20694 -0.017292 -0.36984 0.01912 -0.055199 -0.020811 -9.946 -0.87233 -0.11333 0.0048866 0.20683 0.011627 -0.37066 -0.0093903 0.050324 0.018785
5 -9.9482 -0.030786 0.27669 0.20983 -0.20734 -0.3612 0.083223 0.10721 -0.062762 0.12853 -9.9722 -0.029873 0.27657 0.2112 -0.20815 0.36259 0.075378 -0.11001 0.063931 -0.12719
6 -9.9393 -0.26275 -0.57543 0.40594 0.11276 0.013475 0.21221 0.096129 -0.10991 -0.088928 -9.8262 -0.2588 -0.57141 0.4029 0.11156 -0.011232 0.20587 -0.10568 0.11471 0.092164
7 -9.9445 0.22552 0.30862 0.64395 -0.32865 0.4965 -0.056007 0.005355 0.03748 -0.074139 -9.9399 0.22626 0.30742 0.64422 -0.32823 -0.49754 -0.048186 -0.0041132 -0.038026 0.074782
8 -9.9222 -0.8719 -0.112 0.0040922 0.20694 -0.017292 -0.36984 0.01912 -0.055199 -0.020811 -9.946 -0.87233 -0.11333 0.0048866 0.20683 0.011627 -0.37066 -0.0093903 0.050324 0.018785
9 -9.9395 0.77328 0.0013945 -0.2123 -0.012815 0.17077 0.039465 -0.13344 0.24529 -0.077016 -10.045 0.78298 0.0004238 -0.21618 -0.012294 -0.17056 0.048716 0.13232 -0.24422 0.077472
10 -9.9403 0.4995 -0.55 -0.4224 -0.3635 -0.022171 -0.064276 0.36911 0.3396 0.10398 -9.9358 0.50045 -0.55217 -0.42323 -0.36624 0.021785 -0.069792 -0.3659 -0.33901 -0.10439
11 -9.9249 -0.91579 0.26569 -0.11963 -0.013344 0.13017 -0.011257 -0.044235 0.13715 -0.035224 -10.005 -0.9222 0.26825 -0.12125 -0.014169 -0.13023 -0.0046276 0.044469 -0.13739 0.035062
12 -9.8989 -1.2833 0.38554 -0.29916 -0.098552 0.0066827 0.19348 -0.054894 -0.029867 -0.036547 -9.8942 -1.2817 0.38607 -0.29957 -0.099665 -0.0032388 0.19808 0.05018 0.03279 0.037078
13 -9.9288 0.84529 0.4263 0.43534 -0.26791 -0.42864 -0.14118 -0.011533 0.022429 -0.112 -9.9243 0.84571 0.4259 0.43565 -0.26784 0.42588 -0.14836 0.016734 -0.024702 0.11116
14 -9.9287 0.77002 -0.51994 -0.50669 -0.4504 0.024764 -0.096391 -0.27802 -0.36677 -0.10953 -9.8841 0.76747 -0.5189 -0.50439 -0.44796 -0.025585 -0.093778 0.28249 0.36686 0.10905
15 -9.9088 1.2485 0.31625 -0.19019 0.37664 -0.072804 0.041601 -0.055461 0.13046 -0.40471 -9.9044 1.2493 0.31645 -0.19087 0.37858 0.074197 0.041787 0.053176 -0.12936 0.4037
16 -9.9109 1.1768 0.21621 -0.3062 0.41199 0.053681 0.10974 0.045601 -0.13977 0.25005 -9.8664 1.1726 0.21519 -0.30504 0.41059 -0.051143 0.1078 -0.050247 0.14189 -0.2501
17 -9.9142 1.1525 0.40467 0.11688 0.033722 0.16513 -0.10279 0.059089 -0.14917 0.30441 -9.9097 1.153 0.40474 0.11663 0.033749 -0.16672 -0.10232 -0.055398 0.1477 -0.30622
18 -9.8958 -1.2917 0.47633 -0.31273 -0.16279 -0.0041462 0.29505 0.041054 -0.070231 0.001207 -9.851 -1.2846 0.47432 -0.31148 -0.16219 0.0090104 0.2899 -0.048204 0.074235 -3.2867e-05
