97 20
0 -8.1298 2.0091 1.1535 -2.3493 1.2934 0.25865 -0.46395 0.081437 0.70779 -4.0312 0.6901 -0.17917 0.13363 -0.20087 0.020574 -0.064637 0.21492 0.016455 0.30728 -0.10535
1 -8.0806 0.11915 -0.28932 2.272 2.1466 3.8348 0.66656 5.1659 -3.023 -0.7528 0.77666 -0.30441 0.011894 -0.045465 -0.15774 -0.27817 0.30236 0.24605 -0.062035 0.17283
2 -7.9405 2.9635 -0.32917 -0.81206 3.3153 0.33805 -4.1097 -0.12994 2.3049 -1.1052 1.2542 -0.22204 0.12832 -0.40878 0.12842 -0.29236 0.36259 0.10777 0.85323 0.0147
3 -8.3403 -1.3351 1.3738 3.749 2.4322 -1.062 2.9135 1.3844 -3.9128 -2.0455 0.48879 -0.31405 0.16228 0.11355 0.028616 -0.34297 0.33766 -0.11941 -0.078262 0.073292
4 -8.4027 -0.98735 -5.5036 -2.0485 0.13021 0.464 -0.28602 2.1756 -2.4204 -0.74056 0.78104 -0.48386 -0.44129 -0.56587 -0.15733 -0.17278 0.42168 0.20441 0.029034 0.20346
5 -7.7907 -0.72318 3.2676 0.70571 5.4755 3.2052 -3.7689 -2.3765 -1.1419 0.16789 0.75919 -0.49664 0.46369 -0.39671 0.47122 -0.37158 0.56445 -0.46157 0.12983 0.65155
6 -9.4102 5.6221 5.8652 -0.21691 0.20676 -0.71145 -0.72757 -0.22299 1.0034 -1.3539 0.77028 0.030645 0.47746 0.034318 -0.15187 -0.083506 0.075341 0.16159 0.30559 0.0879
7 -8.0216 4.6524 2.9784 -2.8911 -2.0831 -0.96483 0.39234 1.826 -1.5024 -3.0538 1.2029 0.014462 0.3362 -0.27938 -0.359 0.10186 0.30887 0.14593 0.50158 0.35641
8 -8.0874 2.1758 -2.9534 -2.5274 -4.562 1.4484 -1.9438 -0.006509 1.071 -3.9875 0.98638 -0.14327 -0.32828 -0.11364 -0.55388 0.17175 0.048887 0.32698 0.52991 0.041631
9 -4.986 6.3796 -2.6249 0.46136 2.2323 1.144 -1.6611 -0.36343 -0.72103 -0.88672 0.33431 0.094464 -0.065355 -0.047805 0.0032263 -0.12113 0.20203 -0.10129 0.087297 0.20985
10 -8.3245 2.5009 1.4282 2.2454 0.15037 1.29 0.32062 0.81426 -1.6339 0.14106 0.91454 -0.17685 0.26337 0.010161 -0.049361 -0.14541 0.39488 -0.040305 0.11402 -0.014882
11 -9.4211 4.3633 3.6667 -2.7741 -1.2846 0.70942 -1.7195 2.1831 2.245 -0.7714 0.65112 -0.045248 0.27519 -0.19517 -0.21395 -0.049321 -0.081433 0.20382 0.37201 0.093415
12 -8.4408 1.0885 -1.395 0.27636 -1.817 -0.50512 -1.1981 3.0926 -2.2814 0.755 0.70435 -0.20701 -0.093856 -0.037558 -0.25612 -0.07871 0.14147 0.32 0.087444 0.12673
13 -8.6573 2.1971 0.36396 2.3057 -1.2093 0.3549 -1.5912 0.94843 -2.0896 -0.030652 0.67878 -0.1155 0.085274 0.10554 -0.22126 -0.092256 0.089919 0.21059 0.042472 -0.040261
14 -9.2637 6.5856 2.16 -0.12447 -1.5279 0.044034 1.6923 1.9882 3.4776 -4.051 1.7066 0.17518 0.522 0.15691 -0.44867 -0.36627 0.11122 0.097698 1.2728 -0.49507
15 -8.7624 -3.7596 -2.2036 -1.2402 1.2319 3.2713 -1.2367 -2.477 0.11237 -0.99874 0.52397 -0.52016 -0.013372 -0.34062 0.1492 -0.076526 0.35532 -0.34475 0.23792 0.40534
16 -8.0885 2.3639 -0.88738 1.1815 2.0606 2.3574 -1.4648 0.26689 0.62946 -0.76505 1.3274 -0.29048 0.098945 -0.25626 0.027512 -0.39862 0.50669 0.081334 0.47208 -0.07448
17 -8.6047 3.9893 3.0553 -0.54608 1.9738 1.1988 -3.5727 1.1752 2.126 1.1168 0.83567 -0.091248 0.44063 -0.29396 0.11459 -0.13618 0.12182 -0.044509 0.60354 0.21569
18 -8.3154 1.0031 -0.066479 4.1198 -1.8075 -0.83607 -1.4511 1.0982 -0.61997 -0.15802 0.98169 -0.29335 0.14099 0.4356 -0.40281 -0.44643 0.49877 0.17644 0.35214 0.012835
19 -8.3941 8.0189 2.1896 -3.3514 4.3412 -1.7617 -1.8283 1.6344 1.5981 -2.7834 2.2403 0.43236 0.58651 -0.74599 0.30682 -0.41689 0.40104 0.56885 1.1114 -0.13975
20 -8.9713 3.7671 3.3166 -2.5752 -0.33465 -0.69473 -0.47507 2.3695 -0.019125 -2.107 0.49139 -0.037218 0.19145 -0.033991 -0.11263 0.016614 0.034778 0.15036 0.15083 0.055199
21 -8.0184 -0.24367 0.97646 3.0898 0.13409 3.4449 -1.2812 -0.32949 0.48848 -2.3721 0.66532 -0.27122 0.090459 0.17235 -0.21433 -0.25354 0.26075 0.048228 0.19591 -0.013128
22 -8.5639 -1.3445 -0.28519 4.407 1.2533 0.92982 -3.3389 0.035975 2.3797 0.46578 0.36683 -0.2273 0.084612 0.14152 -0.010147 -0.18641 0.16093 0.0039825 0.20285 0.053715
23 -7.849 2.3667 2.0371 -2.3844 0.24893 0.17179 -0.55511 1.031 -0.56711 -2.7742 0.80404 -0.18458 0.22365 -0.25549 0.044434 -0.071316 0.3118 -0.067738 0.33748 -0.026211
24 -6.903 0.50531 -2.5982 3.8663 3.2553 1.8806 0.1924 -2.8277 -2.6559 -0.87561 1.5369 -0.7098 -0.086905 -0.078521 0.43405 -0.97403 1.5703 -1.1152 -0.3955 0.44056
25 -7.8409 4.5071 0.079665 1.3506 2.4213 3.3796 -0.24948 1.1037 1.5057 -1.6545 2.3563 -0.023732 0.42517 -0.45811 0.01954 -0.767 0.60295 0.19283 1.2225 0.027241
26 -8.1741 2.7948 1.4311 -2.774 1.489 0.5972 0.63069 0.96231 0.65147 -4.9893 0.83899 -0.14804 0.14491 -0.24129 0.0064495 -0.063779 0.15656 0.11384 0.3753 -0.10577
27 -8.5047 3.4834 4.9096 -2.1006 -3.9775 5.9912 -0.61718 -3.4674 -0.42084 -1.5714 1.0163 -0.12379 0.57448 -0.41263 -0.3999 0.15015 0.27695 -0.40426 0.17514 0.047469
28 -10.016 0.30769 1.6627 -3.3864 1.4872 -0.15865 -4.7558 -0.67303 1.9905 -0.95821 2.9983 -1.3403 1.0764 -1.7122 0.49952 0.10782 0.76512 0.11667 2.42 -0.19218
29 -16.244 -10.531 0.62732 0.73307 1.7756 -1.3398 -0.95319 -0.36773 -1.4415 -0.18841 1.6554 -2.1934 0.28939 0.023463 0.72012 0.034455 0.67121 -0.20548 0.20752 0.52223
30 -10.589 -0.18032 0.23458 2.9761 -0.69465 2.6763 -0.27416 2.2758 0.95603 -1.2609 3.744 -1.4685 0.14388 1.1539 -1.4552 -0.74624 -0.14791 1.4474 0.60607 -0.42136
31 -7.8382 2.3123 -4.0561 -0.72834 -0.48492 1.7883 0.16679 4.1056 -1.7998 -2.2255 1.5731 -0.25968 -0.69966 -0.19619 -0.56901 -0.16605 0.49255 0.59647 -0.01269 0.26273
32 -7.7731 1.5331 -0.33994 0.33842 -4.0794 1.3413 0.30022 0.68175 -3.8206 -2.3424 0.99436 -0.20762 -0.032002 0.13885 -0.4933 -0.013902 0.46645 0.2037 -0.16092 0.12575
33 -8.0404 3.1521 -1.496 3.5914 1.9292 2.3517 -0.57475 1.7309 -1.1051 0.057486 1.6136 -0.18785 -0.099097 0.306 -0.14121 -0.59176 0.43077 0.22791 -0.21361 0.34922
34 -8.9757 3.7418 0.98265 -0.47673 -4.0899 0.45978 0.69192 5.4923 -1.0208 -1.9377 1.2439 -0.060798 0.25244 0.32456 -0.74554 -0.12159 0.23623 0.38377 0.47614 0.32523
35 -8.6071 4.2876 2.8741 1.9566 -0.32709 0.81677 0.96973 1.9271 -2.5972 -0.089045 1.3146 -0.021202 0.48373 0.0022125 -0.34748 -0.25487 0.30112 0.36221 0.091109 0.22975
36 -8.38 2.4881 -0.22044 4.9547 1.9454 1.1579 0.30423 1.3643 -0.87185 -0.21427 1.2006 -0.2224 0.15137 0.46182 -0.2576 -0.69885 0.14683 0.1554 0.048359 0.38483
37 -11.561 -4.6802 -1.0852 -3.3675 -0.29597 0.12554 -2.5913 2.5439 1.04 1.6266 2.3729 -2.3923 -0.034364 -1.435 -0.53182 -0.08208 0.24352 0.69978 0.97592 1.4986
38 -8.9825 4.2113 6.9155 0.9984 -2.4701 1.548 -1.8514 2.095 -2.6815 2.2364 0.6911 -0.032235 0.44887 0.047051 -0.25115 -0.034256 0.054592 0.12814 -0.01694 0.26812
39 -9.6566 6.1347 5.6126 1.664 -2.6375 1.599 2.8209 -1.3655 -1.2977 -0.27141 1.1717 0.065041 0.71075 0.1469 -0.41995 -0.1739 0.20278 -0.061083 0.15695 0.24135
40 -15.888 -9.2034 2.9725 -0.094494 3.5236 -2.7244 -0.85067 -2.0429 -2.2413 -1.1243 3.6295 -4.4477 1.3702 -0.35601 2.0527 -0.25018 1.8932 -1.1085 0.36849 1.5824
41 -16.576 -9.2 1.2998 1.501 3.7879 -0.76313 0.89666 -2.0171 -1.6815 -0.72059 2.0243 -2.4784 0.55165 -0.093511 1.1759 -0.29736 1.0125 -0.89919 0.023558 0.74628
42 -12.43 -0.83647 1.4883 8.6231 -1.5733 -2.3923 0.94144 0.36338 1.073 -1.6945 2.515 -1.07 0.82879 2.1464 -1.1613 -1.4625 0.66289 0.76356 1.3168 -0.89913
43 -11.358 -2.6409 2.9045 4.5498 2.3782 -1.9294 4.137 2.2932 -4.3038 -1.7295 21.155 -15.223 8.8825 7.4206 1.4314 -13.54 11.973 -2.5678 -7.2087 -2.1774
44 -13.383 -1.6764 0.86452 10.714 -0.7069 -3.2774 1.186 -0.13573 1.037 -0.49212 3.7189 -1.8878 1.1332 3.3444 -1.248 -2.5858 1.1272 0.86529 1.9121 -1.5264
45 -8.0999 5.0358 4.1349 3.472 3.8538 0.05431 -1.4294 1.1791 -2.1746 1.5337 1.5422 -0.0042708 0.82502 0.13855 0.054098 -0.83415 0.1568 0.072096 0.075843 0.83972
46 -8.8199 3.1405 0.47781 4.4792 -2.7098 -2.0043 -2.61 -1.6724 -0.70443 -1.5041 1.1277 -0.06533 0.32805 0.63144 -0.57212 -0.32465 0.3408 0.30017 0.56025 0.21157
47 -7.8299 2.7255 -0.9459 -0.8798 2.5945 -2.302 -0.003408 3.3449 -2.0354 -2.9178 1.1126 -0.1863 -0.091848 0.010739 -0.03184 -0.28553 0.5167 0.35523 -0.012092 0.04114
48 -10.666 -4.4184 -4.3309 3.2011 -2.3644 -2.0143 -0.76823 2.0155 0.20568 0.58121 1.7998 -1.5031 -0.72373 0.53865 -0.98337 -0.69453 0.30858 0.56189 0.85686 0.67555
49 -19.308 -11.644 3.101 -1.4419 2.6878 -3.0342 0.22088 -0.39681 -0.28014 0.066405 1.8767 -2.5009 0.58883 -0.28131 0.85702 0.040762 0.39926 -0.26284 0.32372 0.83256
50 -8.2271 4.4885 4.0741 3.0572 -1.3363 2.1496 1.3851 -2.7285 -2.6583 -0.58359 1.5688 -0.027001 0.84957 0.10252 -0.30125 -0.28316 0.71322 -0.4527 0.013955 0.23415
51 -7.8581 1.807 -9.267 -2.9034 -2.3028 0.61123 -4.7928 0.046682 -0.99511 -0.61272 2.4314 -0.53746 -1.9778 -1.7271 -1.0921 0.094616 1.518 0.96126 0.98786 1.2369
52 -20.377 -12.554 1.1798 -4.9016 3.1164 -0.93468 0.2793 0.17357 -0.86715 0.02565 2.5169 -3.3774 0.32032 -1.1726 1.279 0.43735 0.54988 -0.45296 0.07523 1.3076
53 -12.748 -2.9536 -7.173 -2.092 -3.5575 -1.3325 -1.5199 2.8317 -0.32107 2.0857 3.4552 -2.3704 -1.9803 -1.5118 -1.6673 -0.30831 0.44258 1.9755 1.0611 0.765
54 -16.875 -6.5674 -11.551 -2.9788 0.42137 0.99928 -0.60492 0.93853 -1.7934 0.81234 15.432 -13.29 -10.865 -12.475 -2.9838 -0.97818 5.5136 7.0879 -0.91776 -0.7305
55 -11.949 0.14569 -6.3877 -5.9947 -6.1786 -1.6066 -3.748 1.3362 0.094373 -0.37048 4.2466 -1.6882 -2.0368 -2.6127 -2.4966 1.043 0.36429 2.8817 2.2887 0.50637
56 -13.1 -0.85292 -9.984 -4.0066 -3.7811 -0.68781 -1.9901 0.97454 -1.0807 1.0213 6.8609 -3.4628 -4.6914 -4.8351 -3.0246 0.07841 1.8555 3.9196 1.7683 0.84081
57 -6.786 -0.071269 -6.5006 2.6798 -0.87538 1.0524 -4.1684 0.95342 -0.44458 -1.4139 1.6389 -0.55903 -0.98723 0.49679 -0.81414 -0.59752 1.0615 -0.039865 0.59338 0.97883
58 -13.05 -6.2093 -9.6043 -1.3568 1.8787 5.1163 -0.36548 -0.36876 1.4419 -0.26641 4.8095 -4.7581 -3.5759 -3.8452 -0.58364 -1.0589 1.7172 -0.14135 0.46461 1.6852
59 -20.247 -12.231 3.4022 -1.9724 3.2303 -2.3641 -1.8097 -1.7771 0.63182 0.039422 2.5074 -3.2847 0.88959 -0.28129 1.4652 0.27864 0.71627 -0.60422 0.64971 1.0978
60 -7.9096 7.6783 6.0987 -0.070559 6.1063 2.4588 -2.5063 1.9007 0.31357 1.6739 2.0842 0.28474 1.3909 -0.82015 0.53225 -0.95443 0.41141 -0.44573 0.3268 1.3376
61 -17.217 -9.6055 2.9728 -4.4377 4.0216 -0.90619 -3.2787 -2.0884 -0.55113 0.074949 5.5335 -6.7676 1.7543 -2.5618 3.4532 0.69507 2.1317 -1.7837 1.2417 4.0138
62 -8.1166 4.4418 2.8547 3.7909 5.2791 6.4877 -0.59894 -1.7584 2.9028 2.3753 1.9453 -0.31748 1.4171 -0.69754 0.61977 -1.5197 1.0133 -1.3598 0.81653 1.4228
63 -8.7249 4.8266 3.9962 -1.6938 -1.6525 1.2492 -2.8535 -0.9454 1.3209 0.54466 0.99258 -0.046822 0.5633 -0.24398 -0.26035 -0.048902 0.31779 -0.10741 0.50804 0.53851
64 -11.518 4.9255 5.7413 2.035 -4.8328 -2.1556 -2.8174 0.78747 0.75752 1.0956 2.282 -0.019885 1.2309 1.0726 -1.1716 -0.14748 -0.23074 0.97324 0.98313 0.24607
65 -12.086 5.91 8.0812 -1.6897 -6.3634 0.16296 -0.25155 -0.20598 0.90188 -0.19066 2.5847 0.012567 1.6374 0.4275 -1.3421 0.30734 -0.35565 0.61644 0.8209 0.080216
66 -9.7801 8.6448 6.9843 -0.89587 -0.83004 1.9181 0.95757 -0.24301 2.1983 0.15145 1.444 0.23939 0.95465 -0.22299 -0.19866 -0.14406 0.097654 -0.11488 0.48162 0.33082
67 -11.855 8.392 7.8974 -4.4992 1.7476 -2.3519 -1.066 2.4976 3.9359 -0.76263 4.8269 0.47191 2.916 -1.0608 -0.23059 -0.024493 -0.8673 1.6973 2.4255 -0.23348
68 -12.263 7.0885 8.0528 -1.9564 -3.9591 -0.39124 0.65265 3.3078 0.59969 1.5822 3.2169 0.13932 2.0379 0.080037 -1.2133 0.1935 -0.43329 0.93256 0.94429 0.37165
69 -8.9492 5.0593 2.9438 1.3836 -1.9443 2.2413 -2.9218 -0.47917 -0.47926 2.6081 1.524 -0.0080561 0.81766 -0.087388 -0.44683 -0.26185 0.39006 -0.19272 0.79446 0.69729
70 -6.8363 3.5401 -5.0784 2.5002 -2.8125 -1.1759 -6.0892 -2.1446 -0.20154 1.6705 3.5541 0.12829 -1.4228 0.41738 -1.9405 -0.43395 1.2685 1.3651 1.8393 1.8563
71 -7.3698 3.2252 -2.4533 3.7827 -3.0125 0.16069 -5.8139 1.3201 -2.6433 3.455 1.9459 -0.052699 -0.33119 0.54039 -0.83592 -0.33059 0.43047 0.61883 0.31339 1.1468
72 -14.038 22.999 -6.568 -0.22056 1.768 -0.90976 0.26986 -2.092 -0.72768 -0.01926 10.266 4.9338 -2.3258 0.099948 0.17437 -1.0098 2.5326 -1.3877 0.75342 2.3828
73 -9.3985 13.745 2.8687 -1.4224 5.8557 1.1417 -0.36494 2.9179 0.49496 1.2656 7.7508 3.0998 2.0465 -2.568 2.1324 -2.447 0.5314 -0.32254 1.6372 1.6546
74 -14.038 22.999 -6.568 -0.22056 1.768 -0.90976 0.26986 -2.092 -0.72768 -0.01926 10.266 4.9338 -2.3258 0.099948 0.17437 -1.0098 2.5326 -1.3877 0.75342 2.3828
75 -14.999 24.743 -6.9388 -0.31767 1.7065 -1.1435 0.48068 -2.3149 -0.68237 0.082784 10.948 5.3214 -2.464 0.16785 0.19491 -0.95981 2.5307 -1.3926 0.70627 2.36
76 -12.959 21.02 -6.2243 0.00056833 2.0147 -0.46903 -0.13259 -1.9387 -0.7901 -0.16333 11.904 5.5986 -2.7153 -0.028991 0.21671 -1.4504 3.2882 -1.8195 1.0163 3.1449
77 -14.038 22.999 -6.568 -0.22056 1.768 -0.90976 0.26986 -2.092 -0.72768 -0.01926 10.266 4.9338 -2.3258 0.099948 0.17437 -1.0098 2.5326 -1.3877 0.75342 2.3828
78 -8.2598 1.4735 -4.3204 8.0372 -0.92161 -1.4726 -3.7813 -1.0764 1.7682 -0.65838 1.9628 -0.37782 -0.31617 1.6346 -1.0892 -1.3323 1.0194 0.2988 1.5038 0.65475
79 -14.672 1.6648 3.5554 9.2358 -1.1756 -4.732 0.55019 -1.6478 4.1055 -2.8652 10.275 -2.4709 4.3691 8.0488 -4.2223 -5.1682 0.91038 4.2776 8.1225 -6.8061
80 -15.198 -9.4187 -7.2823 2.0797 -0.49501 3.9293 2.7178 2.2613 1.9598 0.072449 3.4179 -4.2694 -1.9114 -0.03644 -0.53385 -1.0909 0.043602 -0.85981 0.46088 1.3735
81 -23.434 -15.407 2.6088 -2.9687 0.55227 -1.8982 1.414 -2.3771 -0.13181 -0.13354 5.4906 -7.6709 1.3083 -0.92762 2.6269 1.301 0.80456 -1.0724 0.58124 1.4281
82 -24.52 -15.701 2.3159 -3.6048 0.53539 -1.1393 2.9888 -2.8698 -0.36623 -0.31475 6.8938 -9.5532 1.5538 -1.7591 3.3334 1.6076 0.97848 -1.8711 0.59732 2.0261
83 -13.385 -7.0688 -2.9717 0.57449 -2.4084 0.68279 0.83606 -1.1839 2.082 -0.040651 10.645 -12.234 -2.2811 -0.38167 -2.0907 -2.4064 0.023738 -2.2618 4.6596 4.2832
84 -13.748 -1.6582 -0.69871 12.414 -0.85324 -2.1147 -0.76644 -1.1347 2.5625 0.79516 6.7491 -3.3255 1.5619 6.4363 -2.486 -4.7438 1.8089 1.4889 4.1503 -1.9373
85 -14.425 -8.5585 -4.202 1.4782 -1.1703 0.2959 -2.2366 4.733 2.4329 0.5536 11.355 -13.111 -3.0713 3.412 -1.6848 -1.2388 1.3064 1.1186 6.3702 2.3496
86 -11.633 4.6374 7.8345 -3.1027 -5.3803 7.3114 0.18076 -3.949 0.0057404 -0.66649 27.404 -3.0987 17.748 -11.254 -10.917 6.9201 2.438 -9.6698 2.3828 -4.2064
87 -11.088 5.3912 7.929 0.26955 -4.8631 5.0368 2.5515 -5.6245 -1.2852 -1.2155 13.707 -0.56318 9.1813 -1.6075 -4.5692 1.7402 2.7516 -4.9474 -0.9347 -2.0515
88 -11.762 5.1212 10.5 -1.4751 -5.7992 4.6304 -0.289 -1.2614 -1.4605 1.4419 14.06 -0.91124 10.467 -1.6442 -6.1009 2.775 -0.68594 -0.39979 -1.1429 0.74235
89 -26.242 -18.647 4.4689 -1.4417 -1.9344 -5.6172 0.44074 -0.10413 -0.76059 1.8426 34.663 -51.021 9.504 6.1445 14.02 11.077 1.1852 3.8703 0.239 -2.2745
90 -30.99 -21.071 5.8679 -4.4848 -0.28781 -5.9804 1.8091 -1.7457 0.46433 1.9771 5.7655 -8.4104 2.0141 -0.34556 2.9196 2.1661 0.018023 -0.21273 0.52109 0.80383
91 -12.515 5.8172 11.365 1.4796 -3.0888 1.1568 -1.0304 2.1302 -1.9305 3.5952 29.917 -0.6238 22.9 4.6707 -11.142 0.21171 -4.5345 9.7397 -4.6427 6.484
92 -18.972 -9.3819 0.34235 0.99875 6.7023 2.7508 -0.39589 -2.0576 -1.2376 1.5683 6.1134 -6.9717 2.4484 -2.6673 3.8603 -0.75952 3.6397 -3.1952 2.2128 4.9461
93 -22.483 -11.28 -15.033 -2.6414 0.84866 6.0794 3.1147 -2.0728 1.0957 0.8618 18.639 -19.192 -13.928 -15.481 -2.7646 -1.1901 2.9422 5.3816 -2.7766 -3.1151
94 -14.15 22.416 6.6748 -2.6295 7.002 1.4549 5.4892 5.7097 2.161 3.7403 44.44 21.268 14.003 -12.672 12.717 -11.031 -9.6436 0.59796 1.4447 -1.5242
95 -23.808 41.357 -8.4738 -3.6644 -2.9369 -7.4262 6.0123 -3.4035 0.65934 2.4223 83.088 45.812 -17.633 8.4819 0.92893 6.8789 1.6629 -0.23533 -1.3536 -1.0923
96 -24.57 -16.509 -9.146 3.3443 -4.8117 5.4977 8.7726 3.009 3.4554 1.9471 33.553 -46.38 -18.141 4.5393 -6.9785 -5.4587 -12.102 -6.8799 -2.0095 0.32995
