279 20
0 -2.1729 -0.76751 -0.13998 -0.0035304 0.029035 -0.42277 -0.25798 -0.0034996 0.43577 -0.025996 1.7581 -0.83188 -0.1166 0.010649 0.069297 -0.45525 -0.27549 0.0079353 0.41458 -0.021351
1 -2.1946 -0.81738 -0.19764 0.013637 0.26861 -0.027914 0.0069131 0.0067846 0.026728 -0.15272 1.7468 -0.88459 -0.17487 0.025069 0.30933 -0.057277 -0.012676 0.019009 0.010121 -0.14909
2 -2.2371 -0.88453 -0.4557 -0.10244 -0.041693 -0.20438 -0.21428 -0.060293 -0.027948 0.12508 1.8056 -0.95489 -0.43986 -0.097733 0.00069341 -0.23125 -0.23867 -0.045703 -0.044981 0.12893
3 -2.2241 -0.90913 -0.49179 -0.10431 -0.10336 -0.090619 -0.091264 0.0084088 -0.022063 0.032736 1.5096 -0.98779 -0.43429 -0.06069 -0.042648 -0.15446 -0.098587 0.016202 -0.058166 0.039724
4 -2.2085 -0.8363 -0.3039 0.020924 0.10326 -0.25063 -0.25081 0.060842 0.15531 -0.055116 1.6964 -0.90703 -0.27415 0.037866 0.15245 -0.28948 -0.27268 0.074968 0.13093 -0.049819
5 -2.0834 -0.53362 0.55579 -0.017215 -0.20018 -0.39702 -0.097498 -0.14622 0.6708 0.15534 2.0908 -0.57723 0.54423 -0.024266 -0.19718 -0.39492 -0.099258 -0.14571 0.67494 0.15429
6 -2.1831 -0.72165 -0.63932 0.49316 0.039904 -0.21451 -0.056339 -0.033717 0.11793 0.0033085 1.8752 -0.78349 -0.62546 0.50204 0.073485 -0.24045 -0.071411 -0.02406 0.10174 0.006827
7 -2.2285 -0.86183 -0.30934 -0.099138 0.093611 -0.15611 -0.2159 -0.034657 0.0036806 0.027382 1.9528 -0.92624 -0.31435 -0.11327 0.12343 -0.16234 -0.24556 -0.018619 -0.00036539 0.02879
8 -1.9993 -0.099066 0.79939 0.13335 -0.097302 -0.042455 -0.16893 0.18014 -0.0083798 -0.0080843 1.6404 -0.14552 0.84411 0.17844 -0.097573 -0.067997 -0.12823 0.15938 -0.0069372 -0.010273
9 -2.2264 -0.81014 -0.39719 -0.091697 0.020225 -0.23349 -0.23695 -0.034374 0.081443 0.038172 2.3631 -0.86049 -0.45333 -0.14734 0.01997 -0.19637 -0.27388 -0.017271 0.10039 0.035365
10 -2.0264 -0.49484 0.2613 -0.1246 0.1808 0.040437 -0.036731 -0.1145 -0.16911 0.03959 1.0462 -0.56276 0.3826 -0.010299 0.22817 -0.06328 0.022727 -0.14007 -0.21924 0.04722
11 -2.1843 -0.74433 -0.49259 -0.073506 0.07627 -0.11781 -0.26029 -0.018024 0.0081237 0.1009 1.5737 -0.81398 -0.44734 -0.038171 0.10956 -0.15782 -0.25185 -0.020474 -0.0073218 0.10311
12 -2.2245 -0.85014 -0.38947 -0.04016 0.055911 -0.13537 -0.14003 -0.048002 -0.0062242 0.11358 1.8832 -0.91629 -0.38475 -0.045732 0.089766 -0.14909 -0.16719 -0.032769 -0.013878 0.11566
13 -2.0751 -0.33136 0.85356 -0.030302 -0.20313 -0.62228 0.034629 0.22258 1.1271 -0.14779 2.3589 -0.36711 0.81258 -0.061491 -0.20501 -0.60528 0.018008 0.23033 1.131 -0.14798
14 -2.206 -0.84476 -0.3071 -0.020583 0.012994 -0.25571 -0.24825 0.077497 0.11094 -0.020823 1.6382 -0.91697 -0.26953 0.0036546 0.064301 -0.30042 -0.26598 0.089766 0.084084 -0.015179
15 -2.2272 -0.86192 -0.3914 -0.1006 0.08899 -0.18817 -0.23872 -0.031919 0.0084971 0.053276 1.8068 -0.93114 -0.37575 -0.095848 0.13207 -0.21585 -0.26434 -0.016543 -0.010117 0.057556
16 -2.1715 -0.72436 -0.40131 -0.068459 0.1185 -0.17703 -0.27733 -0.042386 0.095823 0.060468 1.5622 -0.79298 -0.35417 -0.030781 0.15218 -0.21919 -0.26748 -0.045434 0.078783 0.06297
17 -2.1984 -0.85535 -0.29215 -0.02703 0.21692 -0.096899 -0.14017 -0.0055631 -0.009964 -0.046675 1.496 -0.9314 -0.23521 0.015301 0.27919 -0.16131 -0.15181 0.0047553 -0.049831 -0.038609
18 -2.2426 -0.88895 -0.44999 -0.1041 -0.046607 -0.18804 -0.20097 -0.041059 -0.025231 0.090609 1.7906 -0.96049 -0.43338 -0.10035 -0.0031845 -0.21362 -0.22786 -0.025215 -0.040234 0.094109
19 -2.1276 -0.5224 -0.64315 0.1678 0.18378 -0.29084 -0.17372 -0.036041 0.075249 -0.044067 1.7474 -0.57822 -0.61786 0.19165 0.18835 -0.30644 -0.15182 -0.047335 0.077267 -0.045687
20 -2.1952 -0.81142 -0.22539 0.020307 0.069187 -0.17245 -0.24275 0.089011 0.061074 -0.0031617 1.7376 -0.87892 -0.20178 0.032051 0.11095 -0.20255 -0.26374 0.1021 0.043118 0.00086666
21 -2.2073 -0.79894 -0.31638 -0.10579 0.1385 -0.22891 -0.27379 -0.063684 0.063685 -0.0026614 2.0659 -0.85706 -0.33306 -0.12646 0.16106 -0.22924 -0.30265 -0.048313 0.058802 -0.00085804
22 -2.2108 -0.82956 -0.47375 -0.022679 0.086736 -0.2208 -0.20656 -0.044974 0.035107 0.029922 1.6987 -0.90019 -0.44239 -0.0023925 0.13634 -0.26363 -0.22597 -0.031815 0.0056539 0.036349
23 -2.2075 -0.79067 -0.3372 -0.052551 0.098718 -0.21233 -0.21821 -0.096233 0.029066 0.013826 2.1266 -0.84652 -0.36287 -0.081699 0.11315 -0.20086 -0.24749 -0.08148 0.033711 0.01366
24 -2.1849 -0.7258 -0.50541 -0.17397 0.21234 -0.27586 -0.33133 -0.017492 -0.0293 -0.11378 1.7806 -0.79043 -0.48081 -0.15514 0.25615 -0.31689 -0.348 -0.0057023 -0.061108 -0.10668
25 -2.2187 -0.91214 -0.47679 -0.13598 -0.12142 -0.15963 -0.16615 -0.010473 0.061287 0.05806 1.505 -0.99041 -0.41681 -0.087915 -0.059237 -0.2293 -0.16948 -0.0044485 0.01982 0.066005
26 -2.1927 -0.80755 -0.22058 -0.088401 0.16562 -0.14907 -0.11003 -0.067881 0.068869 -0.06112 1.8197 -0.8723 -0.20423 -0.079591 0.205 -0.17899 -0.12926 -0.055717 0.047232 -0.056312
27 -2.1624 -0.80807 -0.0039877 -0.029687 0.34685 0.1473 0.057532 0.12208 0.13631 -0.1799 1.4985 -0.87989 0.053689 0.015255 0.40313 0.085202 0.05249 0.12866 0.10071 -0.17297
28 -2.2319 -0.89403 -0.47715 -0.086958 0.015966 -0.2039 -0.23441 -0.036468 -0.01086 0.094708 1.5679 -0.97184 -0.42944 -0.054199 0.077738 -0.26146 -0.25258 -0.023123 -0.046935 0.10218
29 -2.2156 -0.87518 -0.36001 -0.027344 0.19284 -0.066562 -0.088846 0.0034606 0.0030531 -0.0080604 1.5586 -0.95126 -0.31232 0.0049099 0.25225 -0.12136 -0.10681 0.016531 -0.030204 -0.0011383
30 -2.0189 -0.47436 0.2931 -0.1011 0.16789 0.032575 0.00084394 -0.30333 -0.12671 0.055305 1.0586 -0.54136 0.41439 0.013522 0.21659 -0.072263 0.058436 -0.32774 -0.17834 0.063393
31 -2.1951 -0.8007 -0.60326 0.36052 0.070802 -0.19966 -0.030668 -0.046526 0.078509 0.027225 1.5751 -0.87416 -0.55171 0.40003 0.13109 -0.26168 -0.044052 -0.035291 0.038942 0.03545
32 -2.1484 -0.62168 -0.61376 0.10387 0.15621 -0.23569 -0.15451 -0.026249 0.07122 -0.0050528 1.5925 -0.68591 -0.56825 0.14309 0.18166 -0.27425 -0.13773 -0.033192 0.057088 -0.0032444
33 -2.0359 -0.24495 0.94491 0.12661 -0.10041 -0.17823 0.029555 0.25535 0.066533 -0.01912 1.6548 -0.29806 0.98969 0.16656 -0.070898 -0.2204 0.039556 0.25258 0.0469 -0.015788
34 -2.2304 -0.87221 -0.43616 -0.017649 0.087203 -0.17237 -0.16876 -0.028048 0.0045699 0.052448 1.6246 -0.94791 -0.39804 0.004369 0.14334 -0.2173 -0.19296 -0.012279 -0.022159 0.058252
35 -2.1701 -0.72275 -0.4962 -0.17259 0.1934 -0.18059 -0.26888 -0.019601 -0.0058119 0.0024336 1.515 -0.79238 -0.44178 -0.12628 0.23034 -0.23253 -0.25354 -0.024922 -0.031211 0.0065095
36 -2.0656 -0.63657 0.29092 0.010957 0.057271 0.030642 -0.12165 -0.035177 -0.029315 -0.18925 1.086 -0.70948 0.4073 0.11675 0.1191 -0.076262 -0.080696 -0.050539 -0.084659 -0.18004
37 -2.2167 -0.81322 -0.37924 -0.012466 0.064383 -0.2043 -0.19387 -0.035902 0.024352 -0.014606 2.1576 -0.86936 -0.4085 -0.04506 0.079242 -0.19103 -0.22586 -0.01982 0.029483 -0.014794
38 -2.2341 -0.8833 -0.40683 -0.072875 0.0032512 -0.12807 -0.13912 -0.021002 -0.038688 0.096918 1.7544 -0.95497 -0.38574 -0.06511 0.047629 -0.15659 -0.16402 -0.0060262 -0.054907 0.1006
39 -2.2119 -0.86088 -0.27498 -0.15176 0.22079 -0.067589 -0.1538 -0.041593 0.043369 0.08637 1.848 -0.927 -0.26314 -0.14787 0.26048 -0.09441 -0.17616 -0.028026 0.023806 0.090763
40 -2.1764 -0.83595 -0.17567 -0.023126 0.24864 0.014633 -0.073042 0.084094 -0.041751 -0.12832 1.4183 -0.91176 -0.10811 0.03017 0.31157 -0.057546 -0.076345 0.090421 -0.084923 -0.11988
41 -2.2177 -0.8448 -0.38582 -0.039905 0.13943 -0.16337 -0.16403 -0.035329 0.037824 -0.034741 1.7585 -0.91445 -0.36408 -0.030084 0.18491 -0.19533 -0.18867 -0.020151 0.016904 -0.029994
42 -2.0555 -0.30413 0.89823 0.085249 -0.23024 -0.31248 -0.089753 -0.19959 0.33691 -0.19814 2.1869 -0.34288 0.87828 0.071413 -0.22602 -0.3083 -0.10012 -0.19431 0.33616 -0.19759
43 -2.1602 -0.81858 -0.06301 -0.018127 0.1299 0.034527 -0.10074 0.20477 -0.097507 -0.10553 1.3519 -0.89435 0.01254 0.042777 0.19134 -0.041 -0.096791 0.20735 -0.14022 -0.09748
44 -2.1892 -0.87799 -0.27548 -0.074987 0.17472 -0.024489 -0.11308 0.065952 -0.034345 -0.030845 1.3618 -0.95725 -0.19928 -0.013267 0.24406 -0.10718 -0.11328 0.071265 -0.084532 -0.021147
45 -1.9602 -0.13868 0.8552 -0.11287 0.078539 -0.13462 0.21006 -0.11925 0.10838 -0.35254 1.2239 -0.19527 0.96455 -0.002475 0.11683 -0.23342 0.27409 -0.14748 0.059106 -0.34509
46 -2.1905 -0.78599 -0.55458 0.47213 0.13931 -0.14387 0.020368 -0.031432 0.014764 -0.09341 1.788 -0.85222 -0.52873 0.49121 0.18547 -0.18532 0.0041895 -0.020138 -0.012907 -0.087567
47 -2.1482 -0.69211 0.17487 0.0080985 0.48785 0.3098 0.33902 0.0016701 0.061746 -0.2064 2.1213 -0.74204 0.15414 -0.012413 0.49926 0.31599 0.31953 0.011505 0.06407 -0.20644
48 -2.1375 -0.67349 0.40701 -0.030081 0.4896 0.49804 0.2891 0.27865 -0.060892 -0.33869 1.8744 -0.73082 0.41847 -0.023051 0.51978 0.47493 0.27601 0.287 -0.075686 -0.33557
49 -2.2192 -0.89338 -0.3672 -0.054616 0.13663 -0.017994 -0.057316 0.01552 -0.053459 0.027469 1.55 -0.97026 -0.31751 -0.020043 0.19709 -0.07527 -0.073623 0.027838 -0.088028 0.034581
50 -2.17 -0.78698 -0.023125 -0.048676 0.28128 0.097675 0.026793 0.053844 -0.087274 -0.22017 1.7245 -0.8519 0.0040956 -0.030224 0.31973 0.06335 0.015814 0.061761 -0.10791 -0.21595
51 -2.2251 -0.9078 -0.43262 -0.068405 0.094319 -0.10035 -0.15391 -0.0036636 -0.056802 0.046609 1.5208 -0.98639 -0.3781 -0.028593 0.1586 -0.16466 -0.16775 0.0077658 -0.096812 0.054708
52 -2.2086 -0.89643 -0.3471 -0.1571 -0.098356 0.04371 0.056966 0.037958 -0.066175 -0.071292 1.6193 -0.96939 -0.30354 -0.12383 -0.051553 -0.0048923 0.053742 0.042434 -0.091027 -0.066764
53 -2.1455 -0.66428 0.092443 -0.075301 0.12017 -0.078127 -0.048855 -0.035967 -0.0589 -0.14118 2.2235 -0.7089 0.053599 -0.11265 0.11065 -0.045622 -0.065757 -0.029364 -0.036788 -0.14527
54 -2.0951 -0.64645 0.10914 -0.091666 0.41545 0.30833 0.080638 0.20283 -0.0065913 0.1499 1.2795 -0.71545 0.19602 -0.013746 0.45955 0.23177 0.1144 0.18922 -0.042438 0.15538
55 -2.2335 -0.89795 -0.36643 -0.12152 -0.037031 -0.13905 -0.14606 -0.042333 0.022577 0.16072 1.7729 -0.96909 -0.34635 -0.11314 0.0067292 -0.16878 -0.16849 -0.028649 0.004971 0.16458
56 -2.1716 -0.7723 0.030207 -0.035293 0.45161 0.29181 0.26944 0.035352 0.063452 -0.14325 1.9173 -0.83147 0.033386 -0.037853 0.47806 0.27893 0.25153 0.045551 0.056581 -0.14161
57 -2.2248 -0.88101 -0.4273 -0.035243 0.10039 -0.094368 -0.10913 -0.017024 -0.015969 0.10402 1.6336 -0.95571 -0.38908 -0.0115 0.15474 -0.14013 -0.12964 -0.003205 -0.043127 0.10979
58 -2.227 -0.87296 -0.42946 -0.0064208 0.08156 -0.13171 -0.12313 -0.039054 0.005281 0.057387 1.7131 -0.94522 -0.40203 0.0077498 0.12942 -0.16715 -0.14565 -0.024876 -0.015569 0.061933
59 -2.1237 -0.69091 0.3897 0.016937 0.4901 0.48572 0.29831 0.28468 0.033264 -0.35183 1.623 -0.75497 0.43564 0.05576 0.53805 0.43 0.29635 0.28924 -0.0012579 -0.34511
60 -2.2266 -0.8744 -0.44321 -0.053283 0.097902 -0.19176 -0.22682 -0.03935 -0.014978 0.059284 1.6647 -0.94828 -0.40873 -0.032161 0.1515 -0.23644 -0.24802 -0.025227 -0.043202 0.065305
61 -2.1259 -0.6483 0.42618 -0.058447 0.4878 0.46076 0.35233 0.17723 0.010089 -0.26819 1.8363 -0.70537 0.44296 -0.046081 0.51817 0.43418 0.34273 0.18396 -0.006386 -0.26479
62 -2.1812 -0.79348 -0.007398 -0.061205 0.23021 0.086112 0.01298 0.09791 -0.12794 -0.15784 1.9886 -0.85124 -0.013557 -0.071018 0.25162 0.079737 -0.004717 0.1075 -0.13238 -0.15672
63 -2.2058 -0.84084 -0.24082 -0.031993 0.15942 -0.021569 -0.011574 -9.0963e-05 -0.077877 -0.069235 1.7976 -0.90766 -0.22434 -0.025803 0.19627 -0.045223 -0.031124 0.011665 -0.090444 -0.066467
64 -2.2108 -0.8677 -0.32513 -0.054664 0.16271 -0.082728 -0.11213 0.015754 -0.06331 -0.1146 1.5929 -0.942 -0.28122 -0.024432 0.21797 -0.13426 -0.12742 0.027127 -0.094287 -0.10825
65 -2.1835 -0.82833 -0.09079 -0.12376 0.38009 0.29336 0.23388 -0.049687 0.080929 0.44495 1.6739 -0.8968 -0.05616 -0.099704 0.42435 0.25294 0.22253 -0.041217 0.059311 0.44924
66 -2.1578 -0.71764 -0.39008 0.6365 0.29934 0.074692 0.27181 0.0035562 0.12259 -0.10568 1.9547 -0.77438 -0.3852 0.63925 0.32678 0.055687 0.25754 0.012295 0.11046 -0.10302
67 -2.2204 -0.85268 -0.34363 -0.013871 0.17217 -0.13474 -0.15647 -0.020248 -0.033129 -0.066957 1.8002 -0.92121 -0.3282 -0.0098318 0.21335 -0.16008 -0.18147 -0.0053855 -0.049261 -0.063227
68 -2.2333 -0.85386 -0.26786 0.0055522 0.19726 -0.035509 -0.05258 0.026902 -0.099288 -0.14539 2.221 -0.91046 -0.30667 -0.03759 0.21224 -0.014978 -0.092356 0.046622 -0.090209 -0.14622
69 -2.2203 -0.84837 -0.26393 -0.035359 0.1363 -0.048998 -0.081753 -0.017982 -0.11679 -0.051239 2.0235 -0.90958 -0.27705 -0.055364 0.16026 -0.048346 -0.11088 -0.0026936 -0.11691 -0.050617
70 -2.2236 -0.89367 -0.32677 -0.1501 0.063092 -0.10661 -0.16192 -0.038923 0.068596 0.2058 1.7268 -0.96503 -0.30038 -0.13503 0.10884 -0.14265 -0.18024 -0.027026 0.046943 0.21033
71 -2.1951 -0.78042 -0.24951 -0.09217 0.087576 -0.21011 -0.12088 -0.11791 0.016345 -0.053635 2.212 -0.8319 -0.28507 -0.1278 0.09218 -0.18898 -0.14597 -0.10614 0.028257 -0.055481
72 -2.2435 -0.93349 -0.52218 -0.19689 -0.33845 -0.022771 -0.042371 0.017077 -0.10591 0.11479 1.8236 -1.0042 -0.50361 -0.1857 -0.29964 -0.053038 -0.055052 0.025395 -0.12207 0.1179
73 -2.2268 -0.89659 -0.47011 -0.12742 -0.20745 -0.044047 -0.035668 0.0088644 -0.026287 0.046397 1.7401 -0.96778 -0.44272 -0.10974 -0.16658 -0.07823 -0.046958 0.016742 -0.043095 0.049612
74 -2.2316 -0.91609 -0.47273 -0.18094 -0.25095 -0.021294 -0.043595 0.02537 -0.067118 0.095173 1.7537 -0.98749 -0.44606 -0.16286 -0.20985 -0.056875 -0.053454 0.032534 -0.085358 0.098596
75 -2.2798 -0.92805 -0.49194 -0.1439 -0.067384 -0.16051 -0.20109 -0.042435 -0.044119 0.1642 2.4894 -0.98169 -0.56324 -0.21473 -0.062626 -0.11792 -0.25136 -0.018598 -0.025484 0.1618
76 -2.2246 -0.92527 -0.53508 -0.1591 -0.15121 -0.12249 -0.1662 -0.0048271 -0.050707 0.093424 1.5108 -1.0041 -0.47449 -0.10942 -0.087519 -0.19529 -0.1685 0.00085349 -0.095403 0.10201
77 -2.228 -0.85781 -0.4579 -0.050577 0.013387 -0.20026 -0.22275 -0.056683 -0.065438 0.056847 1.9263 -0.92332 -0.45573 -0.056065 0.049497 -0.21809 -0.25016 -0.040977 -0.079455 0.060316
78 -2.2766 -0.94102 -0.53633 -0.12315 -0.15614 -0.14438 -0.14965 -0.021748 -0.074841 0.15046 2.1114 -1.0067 -0.55947 -0.15399 -0.12665 -0.14065 -0.19042 -0.00041382 -0.076032 0.15167
79 -2.2255 -0.86736 -0.35386 -0.078172 0.023858 -0.19205 -0.18188 -0.04882 0.070774 0.070358 1.8051 -0.93638 -0.33867 -0.0745 0.064412 -0.21622 -0.20656 -0.034244 0.056774 0.073589
80 -2.2371 -0.88431 -0.38189 -0.085721 0.043943 -0.12797 -0.18008 0.0036057 -0.04088 0.04127 1.907 -0.95131 -0.38062 -0.09472 0.07819 -0.14006 -0.20916 0.019712 -0.04813 0.043283
81 -2.2343 -0.89591 -0.51419 -0.16057 -0.28582 -0.060608 -0.048052 0.0048331 -0.060279 0.074652 1.7746 -0.96678 -0.4915 -0.14756 -0.24734 -0.089762 -0.061562 0.013583 -0.073757 0.077301
82 -2.2394 -0.91402 -0.48475 -0.11837 0.035902 -0.13127 -0.20127 -0.018682 -0.060517 0.12743 1.7087 -0.9883 -0.45374 -0.098824 0.090896 -0.17769 -0.22297 -0.0041858 -0.09213 0.13416
83 -2.2315 -0.90336 -0.47597 -0.21483 -0.31053 -0.0089607 -0.019655 0.0025091 -0.06896 0.1298 1.8789 -0.97039 -0.46578 -0.21095 -0.2813 -0.027395 -0.031273 0.0094494 -0.07565 0.13097
84 -2.22 -0.83228 -0.41922 -0.079148 0.07227 -0.19076 -0.21701 -0.066469 -0.038664 0.051614 1.9319 -0.89634 -0.41917 -0.087089 0.10498 -0.20398 -0.24487 -0.050797 -0.048977 0.054391
85 -2.2509 -0.89996 -0.43337 -0.10676 -0.13026 -0.12397 -0.1375 -0.019544 -0.090013 0.11811 2.0872 -0.96293 -0.4538 -0.134 -0.1058 -0.11905 -0.17206 -0.0016335 -0.088571 0.11859
86 -2.256 -0.94656 -0.52871 -0.22288 -0.42725 0.024364 0.015749 0.052621 -0.10525 0.062571 2.0256 -1.0122 -0.53657 -0.23534 -0.40254 0.018753 -0.0040136 0.063067 -0.10603 0.062819
87 -2.2493 -0.9194 -0.45428 -0.12064 -0.04247 -0.16109 -0.21167 -0.027165 -0.077672 0.10365 1.8273 -0.99079 -0.44099 -0.11855 0.0015588 -0.18758 -0.23854 -0.011307 -0.094878 0.10756
88 -2.2339 -0.83632 -0.40828 -0.093875 0.035156 -0.18742 -0.2065 -0.074504 -0.028357 0.080965 2.0891 -0.89657 -0.43124 -0.12367 0.05397 -0.17656 -0.23999 -0.057519 -0.022766 0.08065
89 -2.2453 -0.9058 -0.40954 -0.11799 -0.076595 -0.078718 -0.10902 -0.018055 -0.095896 0.13185 1.9025 -0.97407 -0.40691 -0.12576 -0.040969 -0.092588 -0.13777 -0.002026 -0.1045 0.13413
90 -2.2253 -0.90389 -0.53103 -0.18843 -0.27157 -0.086901 -0.10762 0.0037083 -0.068796 0.049145 1.7771 -0.97391 -0.50452 -0.16787 -0.22942 -0.12703 -0.1156 0.010248 -0.092906 0.053816
91 -2.2339 -0.88528 -0.39358 -0.062056 -0.062448 -0.08147 -0.088738 -0.026147 -0.14804 0.031213 1.9885 -0.9494 -0.40017 -0.075527 -0.033593 -0.088833 -0.11557 -0.011581 -0.15349 0.032822
92 -2.2291 -0.85365 -0.32567 -0.13417 0.01963 -0.10473 -0.17043 -0.031862 -0.08908 0.036832 2.3316 -0.90555 -0.37719 -0.18523 0.021935 -0.072517 -0.20455 -0.016018 -0.072325 0.034289
93 -2.2257 -0.87309 -0.42502 -0.074166 -0.011561 -0.13435 -0.16684 -0.03374 -0.066852 0.088409 1.8849 -0.93943 -0.41792 -0.074871 0.023462 -0.15428 -0.18871 -0.020973 -0.080055 0.091441
94 -2.297 -1.0074 -0.76495 -0.47756 -1.3206 0.38156 0.49499 0.18713 -0.054168 -0.033618 2.3454 -1.0694 -0.79496 -0.49744 -1.3107 0.38389 0.49256 0.18725 -0.046857 -0.035997
95 -2.2316 -0.87952 -0.36409 -0.067835 0.039918 -0.083231 -0.11978 -0.020336 -0.11087 0.041366 1.8656 -0.94724 -0.35704 -0.071409 0.076093 -0.099979 -0.14627 -0.0053061 -0.12051 0.043783
96 -2.2373 -0.87122 -0.33924 -0.10387 0.11778 -0.13046 -0.19753 -0.018585 0.00264 0.080962 2.0384 -0.93388 -0.35561 -0.12829 0.14259 -0.12691 -0.23089 -0.0012274 0.0042647 0.081334
97 -2.2221 -0.8911 -0.38494 -0.064106 0.1203 -0.071947 -0.13211 0.0039776 -0.077933 -0.0074656 1.6926 -0.96372 -0.35226 -0.042583 0.17231 -0.11729 -0.15024 0.016462 -0.10722 -0.0013359
98 -2.2377 -0.9169 -0.54973 -0.17243 -0.3341 -0.062854 -0.069685 0.0336 -0.074336 0.055434 1.91 -0.98391 -0.54147 -0.16864 -0.30314 -0.084215 -0.081072 0.040603 -0.085061 0.057404
99 -2.2513 -0.905 -0.42755 -0.13442 -0.039796 -0.12015 -0.20573 0.0046191 -0.049176 0.12023 2.0693 -0.96854 -0.44566 -0.15903 -0.013701 -0.11873 -0.23873 0.021912 -0.05062 0.12124
100 -2.235 -0.85002 -0.35368 -0.088845 0.079138 -0.18167 -0.23026 -0.051952 -0.045045 0.041911 2.1095 -0.9099 -0.3795 -0.12132 0.097639 -0.16899 -0.26515 -0.034362 -0.038259 0.041343
101 -2.2296 -0.88533 -0.44459 -0.093636 0.036986 -0.15175 -0.19133 -0.024629 -0.058211 0.067674 1.6452 -0.9602 -0.40749 -0.070321 0.091947 -0.19862 -0.212 -0.010636 -0.087886 0.074002
102 -2.0856 -0.35837 0.88025 0.19184 -0.23158 -0.2493 -0.21085 0.39686 0.372 -0.2042 2.1245 -0.40298 0.86454 0.17722 -0.21807 -0.24875 -0.22952 0.40678 0.36935 -0.20315
103 -2.0905 -0.36836 0.82348 0.17521 -0.19594 -0.25096 -0.19447 0.45823 0.41237 -0.27062 2.2504 -0.40896 0.79062 0.14618 -0.19389 -0.2343 -0.21439 0.4677 0.4193 -0.27144
104 -2.2069 -0.79838 -0.16928 -0.087983 0.18761 -0.076805 -0.16335 -0.032235 0.029047 -0.024151 2.3447 -0.84706 -0.22409 -0.14235 0.18554 -0.039034 -0.19799 -0.016438 0.049538 -0.027388
105 -2.235 -0.86782 -0.33281 -0.10656 0.094171 -0.15955 -0.23466 -0.032823 -0.017853 0.055993 2.0535 -0.92969 -0.35077 -0.13173 0.11771 -0.15521 -0.2672 -0.01596 -0.016159 0.056329
106 -2.0634 -0.23473 1.0897 0.25514 -0.32487 -0.17075 -0.18789 0.31302 0.32261 0.14624 1.8987 -0.28562 1.1087 0.27199 -0.28972 -0.2045 -0.20033 0.322 0.29888 0.15138
107 -2.0416 -0.2911 0.86404 0.15143 -0.30415 -0.13396 0.037727 -1.2378 -0.010524 -0.2138 2.3345 -0.32495 0.83745 0.13995 -0.30333 -0.13373 0.036641 -1.2373 -0.014066 -0.21313
108 -1.998 -0.0064833 1.0094 0.23343 -0.26347 -0.01811 -0.21072 0.27207 -0.35672 0.34913 1.5953 -0.057295 1.0694 0.29375 -0.23513 -0.076265 -0.18132 0.25994 -0.38647 0.35393
109 -2.0684 -0.18767 1.1034 0.028205 -0.31752 -0.50512 0.050635 0.1577 1.1467 0.27026 2.3602 -0.22461 1.0682 0.0024594 -0.30843 -0.49948 0.028551 0.16929 1.1404 0.27243
110 -2.0856 -0.21285 1.0471 -0.014587 -0.30333 -0.63886 0.080897 0.28151 1.3028 0.039236 2.538 -0.24587 0.98763 -0.062296 -0.30533 -0.61217 0.051408 0.29562 1.3088 0.039098
111 -2.2361 -0.92181 -0.52174 -0.16982 -0.33746 -0.051546 -0.060192 0.0066426 -0.071796 0.11927 1.8067 -0.99215 -0.50034 -0.1552 -0.2985 -0.084578 -0.070086 0.013652 -0.08967 0.12266
112 -2.0745 0.61433 -0.96071 1.5792 0.014165 -0.13677 0.27991 0.00633 0.072454 0.011268 2.5422 0.58612 -1.0059 1.5569 -0.024602 -0.1036 0.3042 -0.009354 0.097721 0.0052295
113 -1.969 0.14891 0.80201 0.48154 -0.26486 0.0062778 -0.066862 -0.26442 -0.49734 0.23344 1.9754 0.11472 0.81737 0.50839 -0.27426 -0.0075921 -0.032409 -0.28231 -0.49736 0.2321
114 -2.0702 -0.32028 0.93312 0.23534 -0.217 -0.10489 -0.21827 0.49635 0.26074 -0.072907 1.8831 -0.37096 0.94905 0.24845 -0.19009 -0.1296 -0.22693 0.50258 0.2455 -0.069674
115 -2.0412 -0.019447 0.99733 0.41072 -0.33106 0.020488 -0.34799 0.59221 -0.26433 0.14839 1.9145 -0.065791 1.0137 0.42799 -0.31417 -0.0015955 -0.34413 0.59146 -0.27601 0.15047
116 -2.0816 -0.24252 0.97866 0.28536 -0.26176 -0.026411 -0.24693 0.4584 -0.17735 -0.10326 2.1508 -0.28603 0.95908 0.26584 -0.25183 -0.018885 -0.26812 0.46924 -0.17462 -0.10317
117 -1.9975 -0.063123 0.95222 0.26994 -0.3308 0.013624 -0.062938 -1.0603 -0.21712 0.30608 1.9805 -0.10282 0.97279 0.3019 -0.31931 -0.019468 -0.039081 -1.0712 -0.23416 0.3085
118 -2.0768 1.1797 0.19773 -0.4117 0.12942 -0.23745 0.18766 -0.030827 -0.30894 0.21927 1.6265 1.1212 0.26257 -0.34615 0.13435 -0.2801 0.24494 -0.059652 -0.31382 0.21758
119 -2.0356 -0.12913 0.90466 0.36421 -0.19114 0.12088 -0.24645 0.5425 -0.30826 0.032712 1.8216 -0.17674 0.93011 0.38963 -0.17502 0.09483 -0.23551 0.53814 -0.31955 0.034405
120 -2.057 -0.41554 0.81534 0.0079083 0.19874 0.30888 0.26568 -0.17149 0.077476 0.61017 1.9032 -0.46344 0.8325 0.027771 0.22199 0.27877 0.26797 -0.17081 0.057673 0.61401
121 -2.1844 1.4325 -0.026892 -0.36442 0.1416 -0.16529 0.17456 0.023544 -0.16708 -0.047074 1.7753 1.3622 0.025909 -0.3162 0.17122 -0.21218 0.1995 0.012438 -0.18066 -0.046098
122 -2.0772 -0.34793 0.78863 0.16047 -0.03399 0.12379 -0.10536 0.41471 -0.23373 -0.095133 2.3119 -0.38364 0.7452 0.12295 -0.04788 0.15706 -0.11971 0.42003 -0.2136 -0.098772
123 -2.034 -0.22539 0.85258 0.34337 -0.22325 0.05186 -0.31237 0.13094 -0.32915 -0.25426 1.7097 -0.2761 0.89115 0.37957 -0.20213 0.017026 -0.29739 0.12493 -0.34278 -0.25234
124 -2.0801 -0.27574 1.0007 0.27309 -0.22011 -0.017894 -0.22317 0.48395 -0.015803 -0.22688 1.9646 -0.32563 1.0066 0.27604 -0.19271 -0.036546 -0.24064 0.49457 -0.029987 -0.22351
125 -1.9908 0.13491 0.92561 0.12459 -0.19629 -0.23556 -0.047098 0.39419 -0.027536 0.45435 1.9047 0.096443 0.94317 0.14852 -0.20177 -0.24795 -0.019699 0.38002 -0.027398 0.45328
126 -2.0383 -0.10844 0.9387 0.38274 -0.26139 0.014302 -0.29217 0.425 -0.13641 -0.13683 1.8733 -0.15503 0.95781 0.40195 -0.24675 -0.0065471 -0.28529 0.42249 -0.14501 -0.13554
127 -2.0704 -0.22422 1.0486 0.29879 -0.30769 -0.033548 -0.26342 0.27316 -0.11594 -0.16704 1.9579 -0.27358 1.0577 0.30568 -0.27931 -0.055711 -0.27879 0.28293 -0.13244 -0.16322
128 -2.0649 -0.30443 0.95387 0.16528 -0.26484 -0.096361 -0.098123 -0.66998 -0.18184 -0.61917 2.1382 -0.34731 0.94401 0.15984 -0.24764 -0.10599 -0.11206 -0.66184 -0.19162 -0.61676
129 -2.0027 -0.062999 0.99 -0.024483 -0.22744 -0.19946 0.0026591 -0.5324 0.3315 0.23896 2.1109 -0.096917 0.98552 -0.016145 -0.2434 -0.19724 0.031252 -0.54845 0.3427 0.23529
130 -2.0137 1.1596 0.030468 0.55833 -0.05794 0.063254 -0.075095 0.13061 -0.22313 0.018609 1.3657 1.0998 0.13694 0.66792 -0.041368 -0.017461 0.0093225 0.089661 -0.24683 0.019657
131 -2.0598 -0.14849 1.069 0.36289 -0.32973 -0.0076852 -0.2829 0.51724 -0.33421 0.12352 1.8481 -0.2005 1.0938 0.38409 -0.29102 -0.046566 -0.29619 0.52714 -0.36347 0.12998
132 -2.0832 -0.43945 0.83272 0.18039 0.017289 0.14721 -0.095753 0.45738 -0.055353 -0.4438 1.7637 -0.49491 0.86092 0.20286 0.051237 0.11254 -0.10224 0.46305 -0.075997 -0.43963
133 -2.0907 -0.27751 0.97173 0.21682 -0.20894 -0.11436 -0.16149 0.42045 0.18611 -0.26712 2.3303 -0.3164 0.92988 0.17888 -0.20801 -0.090927 -0.18844 0.43332 0.1958 -0.26821
134 -2.0358 -0.20411 0.9503 0.32853 -0.18455 0.090962 -0.23434 0.48081 -0.14046 -0.057317 1.6465 -0.25795 0.99915 0.37413 -0.15115 0.040538 -0.22159 0.47715 -0.16794 -0.0524
135 -2.02 -0.0861 0.82857 0.25298 -0.056288 0.079882 -0.098252 0.40231 0.078633 0.027379 2.0928 -0.12162 0.8191 0.25229 -0.071844 0.089195 -0.079508 0.3912 0.09148 0.023842
136 -2.0069 0.0087326 0.92541 0.095024 -0.20653 -0.091998 -0.072525 -0.18259 -0.49194 0.35832 2.0563 -0.027125 0.9228 0.09965 -0.2149 -0.090197 -0.058874 -0.19021 -0.48637 0.35671
137 -2.0449 -0.24746 0.87332 0.13422 -0.21455 -0.078176 -0.097494 -0.44001 -0.26491 -0.015844 2.3316 -0.27989 0.83588 0.10709 -0.22464 -0.056987 -0.10655 -0.43658 -0.25499 -0.017432
138 -2.1535 -0.7461 0.267 -0.13285 0.64388 0.59311 0.48416 0.028176 0.11911 0.2732 1.7987 -0.80803 0.29004 -0.11506 0.68347 0.55642 0.47335 0.036155 0.096223 0.27778
139 -2.023 -0.12753 0.84678 0.226 -0.15744 0.029573 -0.12012 -0.3525 -0.27959 -0.50821 2.0192 -0.16687 0.84991 0.23603 -0.1596 0.023405 -0.10445 -0.36084 -0.27731 -0.5095
140 -2.1399 -0.6622 0.40929 -0.056986 0.50617 0.4918 0.3237 0.22026 -0.0044458 -0.42024 2.028 -0.71485 0.40174 -0.06568 0.52632 0.48442 0.30689 0.22955 -0.010595 -0.4187
141 -2.0008 0.079076 0.81242 -0.10416 -0.02529 -0.061344 0.031725 0.019577 -0.37961 0.62714 2.2897 0.053762 0.77617 -0.12621 -0.06874 -0.020176 0.055297 0.0037272 -0.3453 0.61926
142 -2.1692 -0.67226 0.29211 -0.14241 0.60974 0.64451 0.50119 -0.14075 0.089417 0.69802 2.3541 -0.71831 0.24498 -0.18515 0.61569 0.66625 0.47054 -0.12592 0.096786 0.69737
143 -2.0803 -0.38187 0.81286 0.1948 -0.1426 -0.030237 -0.19975 0.34575 0.23926 -0.039167 2.2068 -0.42243 0.78652 0.17303 -0.14017 -0.018975 -0.21409 0.35259 0.24336 -0.03957
144 -2.1677 -0.70919 0.19404 -0.067657 0.44556 0.32837 0.20632 0.087331 0.043918 -0.29418 2.5331 -0.74765 0.11823 -0.1365 0.42893 0.3824 0.17268 0.10155 0.072315 -0.29894
145 -2.1283 -0.62603 0.44294 -0.052242 0.38321 0.30514 0.25577 0.13353 0.0093261 -0.29102 2.1037 -0.67429 0.4233 -0.072577 0.39205 0.31413 0.23705 0.14278 0.015069 -0.29177
146 -2.0555 -0.17371 0.99563 0.079194 -0.17363 -0.15728 0.058887 0.18832 0.38095 0.76049 2.578 -0.20033 0.92911 0.027768 -0.19148 -0.11834 0.038685 0.19662 0.39617 0.75826
147 -2.1288 -0.59669 0.36139 -0.019017 0.40243 0.37406 0.17623 0.20648 0.014594 -0.28394 2.4453 -0.6333 0.29905 -0.072976 0.38542 0.41786 0.15439 0.21508 0.037693 -0.28795
148 -2.193 -0.79503 -0.073253 0.019643 0.21937 0.046251 -0.032866 0.076433 -0.11691 -0.20698 2.1135 -0.84999 -0.097787 -0.0087871 0.23289 0.058504 -0.060537 0.090182 -0.10974 -0.20784
149 -1.9688 0.41103 0.311 -0.54101 0.29209 -0.37667 0.35866 -0.12687 -0.31247 -0.057626 2.5738 0.40391 0.2361 -0.58632 0.17766 -0.27568 0.42919 -0.17278 -0.22412 -0.078546
150 -2.1681 -0.71452 0.2477 -0.085877 0.53115 0.45959 0.30525 0.14028 -0.0020554 -0.34639 2.2786 -0.76186 0.20494 -0.1275 0.5354 0.48407 0.27503 0.15467 0.00952 -0.34792
151 -2.1334 -0.64979 0.36694 -0.098867 0.4762 0.39278 0.31062 0.050756 0.14645 0.027252 2.2165 -0.69492 0.335 -0.12724 0.4783 0.40901 0.29337 0.058686 0.15504 0.025873
152 -2.0355 -0.11228 0.9522 0.14888 -0.15262 -0.044744 0.036905 0.048811 -0.21493 0.65991 2.2062 -0.1483 0.93226 0.13643 -0.14881 -0.042321 0.026037 0.054689 -0.22028 0.66169
153 -2.0849 -0.36486 0.73493 0.034927 -0.099221 -0.050034 -0.0074916 -0.6313 -0.26196 -0.80846 2.4158 -0.39978 0.68686 -0.0027326 -0.10519 -0.025711 -0.026109 -0.62298 -0.2528 -0.80968
154 -2.1453 -0.66399 0.3899 -0.14665 0.67126 0.65507 0.55581 0.025115 0.13778 -0.029341 2.1223 -0.71479 0.37394 -0.16038 0.69081 0.64895 0.53712 0.035377 0.1292 -0.027185
155 -2.1645 -0.65935 0.36414 -0.14719 0.64583 0.70453 0.57141 -0.14723 0.12199 0.77393 2.3146 -0.70666 0.32376 -0.18359 0.65789 0.71777 0.54073 -0.13178 0.12321 0.77454
156 -2.1422 -0.63493 0.41784 -0.12203 0.58717 0.56029 0.47716 0.074129 0.054495 -0.28475 2.1969 -0.68245 0.38941 -0.14843 0.59649 0.57077 0.45511 0.085079 0.058221 -0.28496
157 -2.0841 -0.36832 0.74618 0.048465 -0.099655 -0.039161 -0.034267 -0.51303 -0.25966 -0.83473 2.4147 -0.40309 0.69782 0.010589 -0.10615 -0.014507 -0.052451 -0.50497 -0.25045 -0.83598
158 -2.1417 -0.63355 0.4064 -0.10735 0.53471 0.48457 0.40987 0.096985 0.040453 -0.41459 2.196 -0.68089 0.37736 -0.13466 0.54324 0.49637 0.38743 0.10807 0.044887 -0.41492
159 -2.1507 -0.70112 0.34215 -0.13911 0.67453 0.6568 0.55238 -0.015815 0.12431 0.25546 1.9656 -0.75756 0.34474 -0.13866 0.70421 0.63698 0.53571 -0.0057615 0.11013 0.25856
160 -2.2367 -0.84944 -0.35139 -0.13996 0.00014904 -0.10265 -0.14884 -0.039442 -0.11956 0.073401 2.5944 -0.89359 -0.43657 -0.21979 -0.015053 -0.041691 -0.19068 -0.021382 -0.086876 0.06793
161 -2.0817 -0.44432 0.38482 -0.1487 0.10846 -0.17362 0.06181 -0.16152 0.046128 -0.16847 2.9045 -0.45881 0.26624 -0.24343 0.041403 -0.075273 0.051374 -0.16284 0.10364 -0.17973
162 -2.1359 1.3515 -0.41782 -0.34159 0.2308 -0.31463 0.0084257 0.010317 -0.11582 -0.10988 1.5891 1.2832 -0.33904 -0.26296 0.26318 -0.38716 0.054108 -0.0099259 -0.14958 -0.10498
163 -2.1549 -0.70965 0.2824 -0.1243 0.591 0.53335 0.44215 0.099272 0.055391 -0.32056 1.9679 -0.76601 0.28234 -0.12745 0.61793 0.51849 0.4239 0.10987 0.044308 -0.31796
164 -2.0824 -0.35335 0.76799 0.078978 -0.12724 -0.037565 -0.051956 -0.56101 -0.30414 -0.79619 2.3655 -0.38969 0.72588 0.045723 -0.12985 -0.017564 -0.070558 -0.55239 -0.29724 -0.79694
165 -2.1349 -0.66156 0.32631 -0.086092 0.38873 0.30357 0.21073 0.10525 -0.044377 -0.27066 2.2173 -0.7066 0.29395 -0.11438 0.38977 0.31993 0.19489 0.1124 -0.036157 -0.272
166 -2.1482 1.3832 0.10159 -0.38367 0.099076 -0.33376 0.26179 0.14212 -0.057078 0.090845 1.7502 1.3165 0.15943 -0.32729 0.12834 -0.38799 0.29364 0.12788 -0.077159 0.093041
167 -2.1617 -0.64809 0.35016 -0.13723 0.58387 0.63487 0.50637 -0.16969 0.0966 0.84774 2.3879 -0.69237 0.29976 -0.18203 0.58833 0.65826 0.47523 -0.15468 0.10398 0.84716
168 -2.1508 -0.69008 0.37506 -0.10003 0.61837 0.58709 0.44666 0.16143 0.070798 -0.41571 1.9829 -0.74601 0.37489 -0.10217 0.64756 0.56882 0.42847 0.17221 0.056104 -0.41241
169 -2.01 0.0072546 0.90342 0.075222 -0.1963 -0.054673 -0.14451 0.08307 -0.52096 0.5833 2.0856 -0.027446 0.89571 0.075923 -0.21174 -0.045804 -0.12679 0.072658 -0.50896 0.58013
170 -2.1752 -0.67129 0.2836 -0.15459 0.64123 0.67439 0.53598 -0.14307 0.093665 0.74184 2.3998 -0.71673 0.2309 -0.20231 0.64616 0.69963 0.50245 -0.12692 0.10217 0.74107
171 -2.1759 -0.73041 -0.069408 -0.09929 0.21691 -0.013684 -0.12337 -0.067578 -0.085907 -0.0024603 2.3923 -0.77324 -0.13008 -0.15623 0.20355 0.032311 -0.15156 -0.055753 -0.059934 -0.0068825
172 -2.2082 -0.80567 -0.24715 -0.11492 0.048019 -0.14457 -0.19977 -0.093454 -0.07363 0.034717 2.2807 -0.8565 -0.29263 -0.16022 0.049834 -0.11554 -0.2299 -0.079514 -0.058308 0.032371
173 -2.1493 -0.73149 0.22576 -0.042129 0.56328 0.48599 0.3876 0.077183 0.098247 0.23354 1.8302 -0.79136 0.24254 -0.030879 0.59562 0.45961 0.37635 0.08469 0.083653 0.23646
174 -2.167 -0.66513 0.29417 -0.14906 0.59629 0.63563 0.4911 -0.1571 0.082265 0.71153 2.3919 -0.70963 0.24246 -0.19518 0.59893 0.66125 0.46075 -0.1427 0.091774 0.71046
175 -2.0799 -0.36018 0.7811 0.056462 -0.1549 -0.066839 0.0069074 -0.85558 -0.22426 -0.78296 2.3654 -0.3969 0.7428 0.028527 -0.1535 -0.054106 -0.0095435 -0.84765 -0.22222 -0.78285
176 -2.0798 -0.32538 0.92952 0.22047 -0.206 -0.013982 -0.20359 0.08916 -0.11769 -0.56255 2.2095 -0.36683 0.90497 0.19956 -0.19755 -0.0070554 -0.22279 0.098966 -0.11743 -0.56201
177 -2.2747 -0.89031 -0.56885 -0.18061 -0.16645 -0.12494 -0.18238 -0.018456 -0.066296 0.14643 2.6299 -0.93803 -0.65807 -0.26543 -0.17818 -0.062934 -0.23031 0.0028071 -0.034616 0.1414
178 -2.0596 0.15225 0.9814 -0.26093 -0.23156 -0.93789 0.29801 0.37062 1.4987 0.10508 2.774 0.13156 0.89381 -0.32718 -0.27308 -0.87478 0.29003 0.37032 1.5354 0.097703
179 -2.2606 -0.90622 -0.45805 -0.12784 -0.081163 -0.18516 -0.23634 -0.028542 -0.044248 0.10698 2.2721 -0.96426 -0.50242 -0.17543 -0.067705 -0.16137 -0.27674 -0.0087703 -0.033287 0.10574
180 -2.256 -0.87633 -0.46715 -0.11029 -0.0066031 -0.15193 -0.20647 0.008961 -0.03111 0.040456 2.4665 -0.92718 -0.53677 -0.17902 -0.0080891 -0.10582 -0.25163 0.029852 -0.0081731 0.037079
181 -2.2406 -0.8655 -0.31517 -0.093955 0.00015234 -0.10662 -0.20837 0.010911 -0.045203 0.014334 2.5441 -0.91201 -0.39437 -0.16956 -0.0093585 -0.051725 -0.25164 0.030152 -0.016653 0.0097378
182 -2.0176 0.027449 -0.82454 0.35386 0.30526 -0.31993 -0.0098206 -0.10933 0.049981 -0.057209 2.3965 0.0098608 -0.87679 0.32754 0.2139 -0.2468 0.05622 -0.15077 0.11713 -0.073533
183 -2.0394 0.42363 -1.1319 1.1332 0.23372 -0.32744 0.26398 -0.026063 0.13609 -0.085737 2.4969 0.40219 -1.1797 1.1126 0.17104 -0.28058 0.30954 -0.054207 0.17376 -0.0949
184 -2.2687 -0.91745 -0.52985 -0.027411 -0.045612 -0.16504 -0.15546 -0.022768 -0.079152 0.027103 2.3693 -0.97372 -0.58506 -0.084139 -0.033692 -0.13528 -0.20142 -0.00037151 -0.066432 0.025718
185 -2.077 0.5876 -0.83604 -0.75734 0.44468 -0.46073 -0.44 0.077725 -0.23065 -0.2657 2.9121 0.5789 -0.94683 -0.83099 0.32891 -0.34736 -0.38725 0.040824 -0.14844 -0.28435
186 -2.1794 -0.70076 0.36608 -0.032362 0.52731 0.54561 0.3301 0.24784 0.04802 -0.55469 2.6088 -0.73986 0.28428 -0.10649 0.51964 0.59534 0.28594 0.2681 0.068624 -0.55747
187 -2.075 -0.26979 0.7126 0.12123 -0.21387 0.054766 -0.0047941 -1.2038 -0.25945 0.39086 2.9147 -0.28819 0.60989 0.043489 -0.24984 0.11855 -0.026781 -1.1963 -0.23091 0.38596
188 -2.075 -0.26979 0.7126 0.12123 -0.21387 0.054766 -0.0047941 -1.2038 -0.25945 0.39086 2.9147 -0.28819 0.60989 0.043489 -0.24984 0.11855 -0.026781 -1.1963 -0.23091 0.38596
189 -2.1214 -0.56701 0.39603 -0.087114 0.41436 0.27186 0.32042 -0.0094221 0.026715 -0.30715 2.5545 -0.59927 0.32117 -0.15049 0.38901 0.32625 0.2984 -0.0014434 0.055945 -0.31237
190 -2.0983 0.32247 -1.0799 1.6587 0.14499 -0.069379 0.41425 -0.010332 0.1659 -0.071513 2.3962 0.28643 -1.1083 1.6489 0.12518 -0.056224 0.43376 -0.022122 0.17794 -0.074869
191 -2.1442 1.2692 0.1944 -0.34892 0.15958 -0.66351 0.66428 0.15813 -0.23169 -0.12802 2.1445 1.2153 0.19993 -0.33994 0.17163 -0.67717 0.66977 0.15565 -0.23457 -0.12808
192 -2.1702 -0.69294 0.32758 -0.076165 0.56284 0.57936 0.40077 0.10762 0.094971 -0.040288 2.7527 -0.72537 0.22658 -0.16522 0.53648 0.65056 0.36086 0.12406 0.13115 -0.046394
193 -2.1962 -0.79122 0.06651 -0.062402 0.25192 0.14404 0.072386 -0.0017515 -0.057185 0.15451 2.6204 -0.83068 -0.019982 -0.14169 0.23732 0.20292 0.029683 0.017033 -0.028241 0.14993
194 -2.0716 -0.11597 1.055 0.27509 -0.24316 0.010866 -0.14354 0.40254 -0.28776 0.022673 2.6771 -0.14158 0.97295 0.2063 -0.26654 0.066617 -0.17419 0.41532 -0.26181 0.018609
195 -2.0872 -0.13537 1.0988 0.1112 -0.41578 -0.13374 0.18722 -1.6629 0.20595 -0.039434 2.7078 -0.16706 1.0377 0.070688 -0.40579 -0.12542 0.15901 -1.6483 0.19668 -0.036633
196 -2.0381 -0.067013 1.0014 0.082598 -0.13913 -0.074445 0.03698 0.080938 -0.16039 0.0035081 3.0634 -0.074395 0.87223 -0.018861 -0.2045 0.024818 0.018495 0.084131 -0.10785 -0.0062475
197 -2.1665 1.3318 0.17445 -0.39035 0.13635 -0.77204 0.74989 0.15503 -0.023553 -0.078951 2.1484 1.2736 0.1851 -0.377 0.16635 -0.80224 0.74401 0.16003 -0.043921 -0.074853
198 -2.0187 0.78002 0.70741 -0.40777 -0.0048758 -0.84189 0.50655 0.35683 0.73376 0.077767 2.5599 0.7591 0.65208 -0.43939 -0.062019 -0.78993 0.54047 0.33439 0.77637 0.067534
199 -2.0293 0.05846 0.92717 0.4277 -0.26899 0.053977 -0.30571 0.42806 -0.12267 -0.18321 2.2384 0.025331 0.9016 0.41189 -0.28876 0.076034 -0.29553 0.4207 -0.10277 -0.18791
200 -2.5488 -1.0037 -0.89828 -0.62846 -2.0193 0.71532 0.93842 0.23409 0.033624 -0.13914 3.2389 -1.0774 -1.0195 -0.73779 -1.9665 0.74101 0.83671 0.28647 0.025675 -0.13498
201 -2.5488 -1.0037 -0.89828 -0.62846 -2.0193 0.71532 0.93842 0.23409 0.033624 -0.13914 3.2389 -1.0774 -1.0195 -0.73779 -1.9665 0.74101 0.83671 0.28647 0.025675 -0.13498
202 -2.5488 -1.0037 -0.89828 -0.62846 -2.0193 0.71532 0.93842 0.23409 0.033624 -0.13914 3.2389 -1.0774 -1.0195 -0.73779 -1.9665 0.74101 0.83671 0.28647 0.025675 -0.13498
203 -2.045 0.11053 1.0005 0.50426 -0.38091 0.075299 -0.39468 0.6139 -0.36484 0.25187 2.1867 0.072251 0.98455 0.4953 -0.38328 0.081113 -0.39368 0.61269 -0.35923 0.25044
204 -2.0898 0.082239 1.0545 0.4887 -0.42551 0.083353 -0.38249 0.63275 -0.47651 0.33902 2.803 0.057181 0.96088 0.41023 -0.44956 0.14444 -0.4185 0.64803 -0.44969 0.33493
205 -2.0774 0.00050121 1.0856 0.40859 -0.38139 0.017516 -0.31447 0.62503 -0.44316 0.35391 2.37 -0.036942 1.0446 0.37286 -0.37646 0.03548 -0.34402 0.63985 -0.44065 0.35458
206 -2.04 0.19257 0.93872 0.55111 -0.3602 0.13838 -0.40797 0.65149 -0.49038 0.21467 2.3366 0.1603 0.9042 0.52807 -0.37909 0.163 -0.40326 0.64694 -0.47209 0.21052
207 -2.1095 0.99285 -0.60751 1.678 -0.14008 0.023974 0.29517 -0.053474 -0.059382 0.071595 2.7463 0.96215 -0.66681 1.6413 -0.1572 0.049884 0.28962 -0.052254 -0.050712 0.070203
208 -2.1456 0.72166 -0.97981 1.7589 0.0089189 -0.12749 0.43466 0.0070836 0.15321 -0.054878 2.5597 0.68078 -1.0172 1.7389 0.012785 -0.12526 0.42599 0.011534 0.14717 -0.053353
209 -2.1448 0.79467 -0.87861 1.7958 -0.044684 -0.05948 0.41879 -0.0017295 0.087813 -0.011855 2.6221 0.75553 -0.92349 1.7687 -0.045519 -0.049106 0.40841 0.0030465 0.087899 -0.011575
210 -2.1517 1.3557 0.11201 -0.10589 0.01505 -0.33473 0.29353 -0.040983 -0.51531 0.11194 2.388 1.3084 0.089186 -0.12053 0.015821 -0.32787 0.28896 -0.039234 -0.51119 0.11112
211 -2.0177 0.72471 0.32342 1.1689 -0.29536 0.23891 0.023005 -0.33564 -0.32181 0.22244 3.0683 0.71787 0.21419 1.0937 -0.36387 0.32148 0.030547 -0.3455 -0.2728 0.21231
212 -2.3638 1.7258 -0.19597 -0.18611 -0.021989 0.3302 -0.29354 -0.046196 0.15731 0.0021907 2.0896 1.6378 -0.17356 -0.17701 0.049891 0.2811 -0.33394 -0.021631 0.12413 0.0095947
213 -2.3454 1.7053 -0.18386 -0.19917 -0.0038404 0.25119 -0.22493 -0.039042 0.056274 0.0053984 2.0964 1.6202 -0.16311 -0.19042 0.062777 0.20561 -0.26179 -0.016612 0.026196 0.012064
214 -2.2261 1.4539 0.025899 -0.32724 0.11547 -0.67402 0.6674 0.13475 -0.27357 0.0063231 2.3328 1.3932 0.013359 -0.33946 0.14782 -0.68796 0.63866 0.15101 -0.28765 0.0099445
215 -2.3533 1.7234 -0.19356 -0.21114 -0.0072567 0.27924 -0.24681 -0.037845 0.12798 -0.010213 2.0554 1.6358 -0.16634 -0.19652 0.064366 0.22628 -0.28218 -0.015755 0.093151 -0.0026748
216 -2.2228 1.4274 0.047665 -0.39965 0.12727 -0.66157 0.63711 0.089191 -0.34988 0.020695 2.4989 1.3731 0.011936 -0.43173 0.14509 -0.65396 0.60423 0.10628 -0.35234 0.02223
217 -2.3599 1.721 -0.20621 -0.18388 -0.014393 0.32747 -0.29508 -0.054409 0.12619 -0.01222 2.1109 1.6344 -0.18664 -0.17671 0.054712 0.2811 -0.33461 -0.030498 0.094616 -0.0051642
218 -2.3634 1.7215 -0.20515 -0.18792 -0.014039 0.32847 -0.29444 -0.056804 0.1284 -0.011681 2.1142 1.6345 -0.18643 -0.18213 0.055043 0.28346 -0.33522 -0.032322 0.098079 -0.0048567
219 -2.3582 1.7169 -0.19318 -0.19901 -0.011163 0.30558 -0.27328 -0.046403 0.13586 -0.0055864 2.0715 1.6292 -0.16921 -0.18858 0.059605 0.25675 -0.31211 -0.022704 0.10378 0.0015328
220 -2.2185 1.447 0.036495 -0.31018 0.10888 -0.65243 0.6496 0.11452 -0.31044 0.014916 2.3251 1.3872 0.02456 -0.32166 0.14057 -0.66645 0.62118 0.13067 -0.32521 0.01876
221 -2.3619 1.7371 -0.20433 -0.19245 -0.021042 0.34882 -0.30454 -0.053246 0.1375 -0.0027901 2.053 1.648 -0.17589 -0.17693 0.053811 0.29288 -0.34142 -0.03014 0.099859 0.0053738
222 -2.3355 1.7355 -0.2101 -0.036104 -0.04392 0.31314 -0.21725 -0.072731 0.072241 0.031909 1.9557 1.6462 -0.16639 -0.0050224 0.038707 0.24105 -0.24908 -0.051127 0.02333 0.042302
223 -2.3553 1.7073 -0.19809 -0.19459 -0.008944 0.30872 -0.27614 -0.056874 0.11727 -0.0051382 2.1918 1.6241 -0.18943 -0.19627 0.052172 0.27284 -0.31593 -0.033539 0.092192 0.00063004
224 -2.3457 1.697 -0.18081 -0.19741 -0.0036038 0.2541 -0.22783 -0.040584 0.079364 0.0066634 2.1515 1.6139 -0.16788 -0.19564 0.057965 0.21636 -0.26623 -0.017853 0.054058 0.012443
225 -2.3564 1.702 -0.1954 -0.17934 -0.01065 0.30116 -0.26932 -0.053229 0.1131 -0.0068263 2.2083 1.6193 -0.18989 -0.18474 0.04891 0.26942 -0.31158 -0.028826 0.090883 -0.0015368
226 -2.3587 1.7075 -0.1968 -0.1837 -0.011092 0.30712 -0.27339 -0.054375 0.11365 -0.0068647 2.1643 1.623 -0.18538 -0.18426 0.052618 0.26977 -0.31526 -0.029807 0.088047 -0.0009182
227 -2.3565 1.715 -0.1928 -0.19825 -0.010907 0.30635 -0.27435 -0.04694 0.13636 -0.0055927 2.1072 1.6288 -0.17345 -0.19139 0.056358 0.2618 -0.31287 -0.023713 0.10687 0.0009951
228 -2.2279 1.4196 0.02349 -0.4411 0.14318 -0.71638 0.66755 0.11099 -0.25614 0.028398 2.6492 1.3696 -0.030759 -0.48825 0.15246 -0.69498 0.63072 0.12928 -0.25206 0.028773
229 -2.2237 1.4982 -0.068872 -0.13326 0.042539 -0.16341 0.14389 0.019675 -0.32695 0.062806 2.4615 1.4429 -0.097928 -0.15738 0.057969 -0.16005 0.12078 0.031697 -0.33035 0.064173
230 -2.2276 1.4536 0.027839 -0.34511 0.12265 -0.70178 0.70363 0.13423 -0.2966 0.0018001 2.2809 1.3908 0.022481 -0.35138 0.16134 -0.7237 0.67408 0.15151 -0.31651 0.0066524
231 -2.2189 1.3954 0.060575 -0.47525 0.15234 -0.75389 0.70402 0.12129 -0.20353 0.0025301 2.5863 1.3446 0.014252 -0.51517 0.16576 -0.74001 0.66883 0.13927 -0.20487 0.0040308
232 -2.2042 1.4104 0.026584 -0.26236 0.11423 -0.61006 0.60169 0.12549 -0.28422 -0.003503 2.4803 1.3583 -0.007018 -0.29092 0.12648 -0.60116 0.57616 0.1385 -0.2839 -0.0027731
233 -2.2305 1.487 0.0043277 -0.306 0.10546 -0.56042 0.56587 0.11291 -0.21492 -0.00065539 2.3097 1.4252 -0.005429 -0.31606 0.13756 -0.57507 0.53913 0.12811 -0.22831 0.0027367
234 -2.355 1.719 -0.1964 -0.21186 -0.0075367 0.29671 -0.27026 -0.043808 0.14105 -0.0073502 2.0933 1.6325 -0.17442 -0.202 0.061453 0.2485 -0.30741 -0.021071 0.10877 -0.00024002
235 -2.2292 1.4551 0.029105 -0.35754 0.1255 -0.72073 0.72257 0.1366 -0.30024 0.0018116 2.2581 1.3912 0.027038 -0.36106 0.16713 -0.74633 0.69284 0.15422 -0.32253 0.0071334
236 -2.3083 1.6285 -0.16923 -0.15021 0.011405 0.18883 -0.17742 -0.037747 0.020603 0.0040905 2.4439 1.561 -0.19582 -0.17877 0.04028 0.18953 -0.21306 -0.01904 0.017828 0.0054294
237 -2.3539 1.6999 -0.1953 -0.18275 -0.0083393 0.29621 -0.26523 -0.053679 0.1074 -0.0073176 2.2225 1.618 -0.19148 -0.18914 0.049569 0.26587 -0.30671 -0.029791 0.085933 -0.0022011
238 -2.2267 1.5051 -0.0099144 -0.099268 0.012984 -0.088752 0.13286 0.0061936 -0.26427 0.10455 2.595 1.4542 -0.058002 -0.14047 0.013013 -0.063456 0.10977 0.016571 -0.25094 0.10239
239 -2.3371 1.681 -0.17441 -0.18662 -0.0023002 0.24618 -0.22122 -0.034255 0.098295 0.0028951 2.2406 1.6023 -0.17348 -0.19419 0.04949 0.2202 -0.2589 -0.012701 0.080056 0.007279
240 -2.3587 1.7137 -0.19226 -0.19916 -0.010029 0.3006 -0.26984 -0.047559 0.13137 -0.004651 2.0839 1.6264 -0.17023 -0.19067 0.059681 0.25387 -0.30951 -0.023551 0.10063 0.0022285
241 -2.3151 1.7072 -0.13394 -0.29426 0.035658 -0.029929 0.047149 0.019152 -0.016349 -0.0027707 1.8871 1.6191 -0.085059 -0.25878 0.11267 -0.099772 0.02295 0.036383 -0.059315 0.0060008
242 -2.239 1.458 0.023628 -0.41574 0.13401 -0.65451 0.64163 0.10913 -0.29006 -0.0013984 2.4393 1.3994 -0.0037542 -0.4418 0.15971 -0.65524 0.60759 0.12735 -0.29693 0.00095567
243 -2.2118 1.4114 0.13179 -0.46315 0.10809 -0.80188 0.70568 0.18782 0.083507 0.021386 2.3478 1.3531 0.11757 -0.47519 0.13905 -0.81644 0.67804 0.20363 0.066655 0.025693
244 -2.1896 1.3324 0.063994 -0.50068 0.19002 -0.70858 0.7092 0.077402 -0.2751 -0.027468 2.3871 1.2797 0.041021 -0.51863 0.20621 -0.71023 0.68814 0.088839 -0.28388 -0.024827
245 -2.3499 1.6928 -0.18877 -0.17365 -0.0092953 0.28671 -0.25403 -0.049603 0.099188 -0.0011616 2.2533 1.6125 -0.18935 -0.18369 0.044995 0.26104 -0.29565 -0.025951 0.08064 0.0033939
246 -2.3695 1.7296 -0.21055 -0.18799 -0.01543 0.31467 -0.28542 -0.040964 0.15331 -0.025465 2.1205 1.6418 -0.19256 -0.18357 0.055063 0.26998 -0.32859 -0.015217 0.12324 -0.018631
247 -2.3462 1.6951 -0.21549 -0.14891 -0.0097028 0.27944 -0.2572 -0.033125 0.11137 -0.03807 2.4264 1.6211 -0.23669 -0.17432 0.031972 0.26964 -0.29891 -0.010509 0.10097 -0.035138
248 -2.3458 1.6982 -0.22458 -0.15132 -0.0070629 0.2811 -0.27104 -0.032568 0.10898 -0.042639 2.3754 1.6225 -0.23882 -0.17071 0.039672 0.26405 -0.31239 -0.0096278 0.093464 -0.038662
249 -2.3815 1.7493 -0.20609 -0.15762 -0.034479 0.37342 -0.31437 -0.048736 0.16008 -0.02438 2.1884 1.6619 -0.19592 -0.1603 0.034747 0.33375 -0.36124 -0.021369 0.13226 -0.017921
250 -2.3588 1.7088 -0.20095 -0.17628 -0.010824 0.2755 -0.25048 -0.031264 0.13057 -0.023587 2.2448 1.6269 -0.19983 -0.18552 0.047173 0.24713 -0.29435 -0.0062224 0.11024 -0.018637
251 -2.2093 1.4629 -0.087314 -0.067036 0.042509 -0.2103 0.16375 0.046752 -0.34099 0.018652 2.6319 1.4154 -0.1383 -0.10821 0.042846 -0.18757 0.13977 0.057971 -0.33351 0.017924
252 -2.194 1.4207 -0.13405 0.010128 0.053831 -0.20221 0.14032 0.062347 -0.35442 -0.026046 2.83 1.3824 -0.2112 -0.051327 0.034344 -0.1552 0.11706 0.071551 -0.33288 -0.029548
253 -2.099 -0.085683 1.1217 0.048401 -0.42031 -0.18602 0.14054 -1.4042 0.3887 0.12198 3.135 -0.1037 1.0006 -0.045707 -0.44881 -0.11783 0.1018 -1.388 0.41687 0.11757
254 -2.082 0.9001 -0.65 1.5564 -0.054161 -0.011247 0.28371 0.021913 -0.050277 0.027248 2.9456 0.88231 -0.74211 1.4938 -0.11237 0.058339 0.29326 0.011755 -0.0071601 0.018189
255 -2.3593 1.7187 -0.21069 -0.15734 -0.021583 0.3057 -0.28324 -0.029939 0.15555 -0.022456 2.2826 1.6378 -0.21309 -0.16847 0.034873 0.27843 -0.32638 -0.0053724 0.13485 -0.017447
256 -2.3261 1.6591 -0.2232 -0.075229 -0.012754 0.23622 -0.24117 -0.019081 0.062974 -0.038951 2.6043 1.5941 -0.26835 -0.11975 0.011214 0.24916 -0.28412 0.0027314 0.065488 -0.038455
257 -2.3636 1.7215 -0.20949 -0.16342 -0.021276 0.31052 -0.28454 -0.035873 0.14943 -0.017841 2.2502 1.6389 -0.20798 -0.17198 0.038637 0.27987 -0.32881 -0.010474 0.12681 -0.01242
258 -2.106 1.2039 -0.15149 1.2666 -0.21742 0.22769 0.083899 -0.19529 -0.17435 0.13787 2.8499 1.1763 -0.22331 1.2191 -0.24519 0.2676 0.079965 -0.19603 -0.15494 0.13411
259 -2.3591 1.7138 -0.17226 -0.10871 -0.045743 0.33666 -0.2759 -0.020549 0.16573 0.0025945 2.4138 1.6372 -0.19154 -0.13418 0.001449 0.32409 -0.32238 0.0048156 0.15333 0.0060523
260 -2.273 1.5752 -0.21056 -0.00067958 0.0029521 0.10935 -0.14725 0.010859 -0.035613 -0.038914 2.8265 1.5256 -0.28619 -0.066666 -0.0043784 0.15424 -0.18187 0.02608 -0.013057 -0.042567
261 -2.2827 1.5928 -0.096555 0.029353 -0.048812 0.1968 -0.13722 0.035478 0.069619 0.03183 2.8372 1.5418 -0.17322 -0.038393 -0.055854 0.24326 -0.17205 0.050564 0.095104 0.027404
262 -2.3812 1.7487 -0.23054 -0.1673 -0.030443 0.37492 -0.33983 -0.052906 0.17473 -0.027178 2.1883 1.6613 -0.21959 -0.1685 0.039401 0.33317 -0.3856 -0.025977 0.14485 -0.020311
263 -2.3603 1.7077 -0.20332 -0.16069 -0.017041 0.27956 -0.25813 -0.031898 0.12981 -0.014718 2.3023 1.6274 -0.20949 -0.17619 0.037737 0.25696 -0.30423 -0.0060344 0.11222 -0.010223
264 -2.3893 1.7511 -0.20823 -0.1306 -0.04662 0.38831 -0.32629 -0.049144 0.17312 -0.021826 2.3527 1.668 -0.21913 -0.15172 0.012778 0.36633 -0.37921 -0.019714 0.155 -0.017111
265 -2.3679 1.7274 -0.21188 -0.17098 -0.021368 0.31537 -0.28992 -0.036603 0.15709 -0.019183 2.2047 1.6427 -0.20448 -0.17507 0.042995 0.27942 -0.33446 -0.010699 0.13153 -0.013183
266 -2.35 1.6877 -0.2303 -0.092621 -0.02395 0.31359 -0.30416 -0.038597 0.10315 -0.033111 2.5183 1.6162 -0.264 -0.12961 0.012257 0.31492 -0.35113 -0.013863 0.098705 -0.031157
267 -2.378 1.7321 -0.19666 -0.11296 -0.044573 0.35858 -0.29828 -0.043431 0.13653 -0.011114 2.4079 1.6526 -0.21544 -0.14023 0.0078195 0.34481 -0.35075 -0.014772 0.12331 -0.007348
268 -2.3528 1.6889 -0.23102 -0.10018 -0.02302 0.31342 -0.30425 -0.039383 0.12254 -0.035296 2.521 1.6172 -0.26518 -0.13787 0.013426 0.31518 -0.35198 -0.014277 0.11835 -0.033374
269 -2.2991 1.6006 -0.20389 -0.33108 0.076222 -0.063489 -0.030569 0.020821 0.048331 -0.027304 2.9347 1.5511 -0.2939 -0.41107 0.0676 -0.0093099 -0.074749 0.040598 0.073567 -0.031135
270 -2.3969 1.7545 -0.25054 -0.22353 -0.013349 0.32684 -0.30571 -0.06537 0.16533 -0.029637 2.4512 1.6738 -0.27426 -0.25597 0.041881 0.31412 -0.36454 -0.033302 0.15026 -0.02522
271 -2.1466 0.60253 -0.85481 -0.7794 0.42413 -0.4589 -0.42978 0.061649 -0.22305 -0.29789 3.4846 0.60145 -1.0347 -0.91643 0.30206 -0.30457 -0.42171 0.046401 -0.13157 -0.31651
272 -2.206 0.62954 -1.0431 1.864 0.0066193 -0.065871 0.51106 -0.020269 0.185 -0.059979 2.9343 0.5919 -1.1277 1.7988 0.0060174 -0.032552 0.47124 -0.0010735 0.19098 -0.059836
273 -2.206 0.62954 -1.0431 1.864 0.0066193 -0.065871 0.51106 -0.020269 0.185 -0.059979 2.9343 0.5919 -1.1277 1.7988 0.0060174 -0.032552 0.47124 -0.0010735 0.19098 -0.059836
274 -2.157 -0.12424 1.1116 0.11683 -0.46604 -0.12088 0.22734 -1.776 0.24397 -0.04823 3.513 -0.14028 0.95028 -0.013272 -0.48552 -0.039679 0.15463 -1.7421 0.26698 -0.050276
275 -2.6181 -0.99717 -0.91804 -0.64744 -2.1313 0.77124 1.015 0.2318 0.056443 -0.15708 3.4415 -1.0755 -1.0602 -0.77909 -2.0628 0.79996 0.88366 0.30004 0.041816 -0.15053
276 -2.2158 0.73687 -0.99854 1.8119 -0.024367 -0.1141 0.48758 -0.010701 0.18576 -0.064853 3.5792 0.71895 -1.1643 1.6784 -0.066366 -0.014126 0.42939 0.013984 0.22548 -0.070659
277 -2.4165 1.7821 -0.21618 -0.20122 -0.040142 0.3782 -0.30577 -0.067858 0.17833 -0.010543 2.5547 1.7016 -0.25264 -0.24624 0.013427 0.3748 -0.37251 -0.032192 0.1681 -0.0069036
278 -2.4221 1.7695 -0.22561 -0.20288 -0.041471 0.3941 -0.32502 -0.069847 0.19111 -0.026426 3.0611 1.7053 -0.32667 -0.3014 -0.023097 0.44436 -0.40307 -0.031697 0.209 -0.027945
